
network unnamedBN{
   property software aGrUM;
}

variable effect {
   type discrete[4] {left, right, close, far};
}

variable orientation {
   type discrete[16] {orien_7, orien_6, orien_5, orien_4, orien_3, orien_8, orien_9, orien_10, orien_11, orien_15, orien_14, orien_12, orien_13, orien_2, orien_1, orien_0};
}

variable inclination {
   type discrete[5] {inclin_1, inclin_2, inclin_4, inclin_3, inclin_0};
}

variable move {
   type discrete[17] {down, close_right_down, left, close_left_down, right, close, close_down, far, right_down, close_right, far_right_down, far_down, far_right, far_left_down, left_down, far_left, close_left};
}

variable distance {
   type discrete[3] {dist_2, dist_1, dist_0};
}

probability (effect | orientation) {
   (orien_7) 0.031746 0.031746 0.888889 0.047619;
   (orien_6) 0.178571 0.142857 0.5 0.178571;
   (orien_5) 0.285714 0.190476 0.285714 0.238095;
   (orien_4) 0.5 0.192308 0.153846 0.153846;
   (orien_3) 0.867257 0.0530973 0.0442478 0.0353982;
   (orien_8) 0.153846 0.192308 0.5 0.153846;
   (orien_9) 0.227273 0.272727 0.318182 0.181818;
   (orien_10) 0.153846 0.538462 0.153846 0.153846;
   (orien_11) 0.0545455 0.872727 0.0363636 0.0363636;
   (orien_15) 0.0366972 0.0366972 0.0550459 0.87156;
   (orien_14) 0.142857 0.178571 0.178571 0.5;
   (orien_12) 0.142857 0.5 0.178571 0.178571;
   (orien_13) 0.2 0.3 0.2 0.3;
   (orien_2) 0.518519 0.185185 0.111111 0.185185;
   (orien_1) 0.318182 0.181818 0.227273 0.272727;
   (orien_0) 0.153846 0.153846 0.192308 0.5;
}
probability (orientation) {
   default 0.173239 0.0352113 0.0253521 0.0323944 0.15493 0.0323944 0.0267606 0.0323944 0.150704 0.149296 0.0352113 0.0352113 0.0239437 0.0338028 0.0267606 0.0323944;
}
probability (inclination | distance) {
   (dist_2) 0.425447 0.194831 0.139165 0.111332 0.129225;
   (dist_1) 0.0144928 0.0362319 0.717391 0.224638 0.00724638;
   (dist_0) 0.0147059 0.0147059 0.720588 0.235294 0.0147059;
}
probability (move | orientation, distance, inclination, effect) {
   (orien_7, dist_2, inclin_1, left) 0.1 0.15 0.05 0.05 0.05 0.05 0.05 0.05 0.05 0.05 0.05 0.05 0.05 0.05 0.05 0.05 0.05;
   (orien_6, dist_2, inclin_1, left) 0.0952381 0.142857 0.047619 0.047619 0.047619 0.047619 0.0952381 0.047619 0.047619 0.047619 0.047619 0.047619 0.047619 0.047619 0.047619 0.047619 0.047619;
   (orien_5, dist_2, inclin_1, left) 0.1 0.05 0.05 0.05 0.05 0.05 0.15 0.05 0.05 0.05 0.05 0.05 0.05 0.05 0.05 0.05 0.05;
   (orien_4, dist_2, inclin_1, left) 0.15 0.05 0.05 0.05 0.05 0.05 0.1 0.05 0.05 0.05 0.05 0.05 0.05 0.05 0.05 0.05 0.05;
   (orien_3, dist_2, inclin_1, left) 0.115385 0.0384615 0.0384615 0.0384615 0.0384615 0.0384615 0.0384615 0.0384615 0.307692 0.0384615 0.0384615 0.0384615 0.0384615 0.0384615 0.0384615 0.0384615 0.0384615;
   (orien_8, dist_2, inclin_1, left) 0.0526316 0.105263 0.0526316 0.0526316 0.0526316 0.0526316 0.0526316 0.0526316 0.105263 0.0526316 0.0526316 0.0526316 0.0526316 0.0526316 0.0526316 0.0526316 0.0526316;
   (orien_9, dist_2, inclin_1, left) 0.0526316 0.0526316 0.0526316 0.0526316 0.0526316 0.0526316 0.0526316 0.0526316 0.0526316 0.157895 0.0526316 0.0526316 0.0526316 0.0526316 0.0526316 0.0526316 0.0526316;
   (orien_10, dist_2, inclin_1, left) 0.0526316 0.0526316 0.0526316 0.0526316 0.157895 0.0526316 0.0526316 0.0526316 0.0526316 0.0526316 0.0526316 0.0526316 0.0526316 0.0526316 0.0526316 0.0526316 0.0526316;
   (orien_11, dist_2, inclin_1, left) 0.05 0.05 0.05 0.05 0.2 0.05 0.05 0.05 0.05 0.05 0.05 0.05 0.05 0.05 0.05 0.05 0.05;
   (orien_15, dist_2, inclin_1, left) 0.05 0.05 0.05 0.05 0.05 0.05 0.05 0.05 0.05 0.05 0.15 0.1 0.05 0.05 0.05 0.05 0.05;
   (orien_14, dist_2, inclin_1, left) 0.05 0.05 0.05 0.05 0.05 0.05 0.05 0.05 0.05 0.05 0.2 0.05 0.05 0.05 0.05 0.05 0.05;
   (orien_12, dist_2, inclin_1, left) 0.0526316 0.0526316 0.0526316 0.0526316 0.157895 0.0526316 0.0526316 0.0526316 0.0526316 0.0526316 0.0526316 0.0526316 0.0526316 0.0526316 0.0526316 0.0526316 0.0526316;
   (orien_13, dist_2, inclin_1, left) 0.0526316 0.0526316 0.0526316 0.0526316 0.0526316 0.0526316 0.0526316 0.0526316 0.105263 0.0526316 0.105263 0.0526316 0.0526316 0.0526316 0.0526316 0.0526316 0.0526316;
   (orien_2, dist_2, inclin_1, left) 0.157895 0.0526316 0.0526316 0.0526316 0.0526316 0.0526316 0.0526316 0.0526316 0.0526316 0.0526316 0.0526316 0.0526316 0.0526316 0.0526316 0.0526316 0.0526316 0.0526316;
   (orien_1, dist_2, inclin_1, left) 0.0952381 0.047619 0.047619 0.047619 0.047619 0.047619 0.047619 0.047619 0.047619 0.047619 0.142857 0.0952381 0.047619 0.047619 0.047619 0.047619 0.047619;
   (orien_0, dist_2, inclin_1, left) 0.1 0.05 0.05 0.05 0.05 0.05 0.05 0.05 0.05 0.05 0.15 0.05 0.05 0.05 0.05 0.05 0.05;
   (orien_7, dist_1, inclin_1, left) 0.0588235 0.0588235 0.0588235 0.0588235 0.0588235 0.0588235 0.0588235 0.0588235 0.0588235 0.0588235 0.0588235 0.0588235 0.0588235 0.0588235 0.0588235 0.0588235 0.0588235;
   (orien_6, dist_1, inclin_1, left) 0.0588235 0.0588235 0.0588235 0.0588235 0.0588235 0.0588235 0.0588235 0.0588235 0.0588235 0.0588235 0.0588235 0.0588235 0.0588235 0.0588235 0.0588235 0.0588235 0.0588235;
   (orien_5, dist_1, inclin_1, left) 0.0588235 0.0588235 0.0588235 0.0588235 0.0588235 0.0588235 0.0588235 0.0588235 0.0588235 0.0588235 0.0588235 0.0588235 0.0588235 0.0588235 0.0588235 0.0588235 0.0588235;
   (orien_4, dist_1, inclin_1, left) 0.0588235 0.0588235 0.0588235 0.0588235 0.0588235 0.0588235 0.0588235 0.0588235 0.0588235 0.0588235 0.0588235 0.0588235 0.0588235 0.0588235 0.0588235 0.0588235 0.0588235;
   (orien_3, dist_1, inclin_1, left) 0.0588235 0.0588235 0.0588235 0.0588235 0.0588235 0.0588235 0.0588235 0.0588235 0.0588235 0.0588235 0.0588235 0.0588235 0.0588235 0.0588235 0.0588235 0.0588235 0.0588235;
   (orien_8, dist_1, inclin_1, left) 0.0588235 0.0588235 0.0588235 0.0588235 0.0588235 0.0588235 0.0588235 0.0588235 0.0588235 0.0588235 0.0588235 0.0588235 0.0588235 0.0588235 0.0588235 0.0588235 0.0588235;
   (orien_9, dist_1, inclin_1, left) 0.0588235 0.0588235 0.0588235 0.0588235 0.0588235 0.0588235 0.0588235 0.0588235 0.0588235 0.0588235 0.0588235 0.0588235 0.0588235 0.0588235 0.0588235 0.0588235 0.0588235;
   (orien_10, dist_1, inclin_1, left) 0.0588235 0.0588235 0.0588235 0.0588235 0.0588235 0.0588235 0.0588235 0.0588235 0.0588235 0.0588235 0.0588235 0.0588235 0.0588235 0.0588235 0.0588235 0.0588235 0.0588235;
   (orien_11, dist_1, inclin_1, left) 0.0588235 0.0588235 0.0588235 0.0588235 0.0588235 0.0588235 0.0588235 0.0588235 0.0588235 0.0588235 0.0588235 0.0588235 0.0588235 0.0588235 0.0588235 0.0588235 0.0588235;
   (orien_15, dist_1, inclin_1, left) 0.0588235 0.0588235 0.0588235 0.0588235 0.0588235 0.0588235 0.0588235 0.0588235 0.0588235 0.0588235 0.0588235 0.0588235 0.0588235 0.0588235 0.0588235 0.0588235 0.0588235;
   (orien_14, dist_1, inclin_1, left) 0.0588235 0.0588235 0.0588235 0.0588235 0.0588235 0.0588235 0.0588235 0.0588235 0.0588235 0.0588235 0.0588235 0.0588235 0.0588235 0.0588235 0.0588235 0.0588235 0.0588235;
   (orien_12, dist_1, inclin_1, left) 0.0588235 0.0588235 0.0588235 0.0588235 0.0588235 0.0588235 0.0588235 0.0588235 0.0588235 0.0588235 0.0588235 0.0588235 0.0588235 0.0588235 0.0588235 0.0588235 0.0588235;
   (orien_13, dist_1, inclin_1, left) 0.0588235 0.0588235 0.0588235 0.0588235 0.0588235 0.0588235 0.0588235 0.0588235 0.0588235 0.0588235 0.0588235 0.0588235 0.0588235 0.0588235 0.0588235 0.0588235 0.0588235;
   (orien_2, dist_1, inclin_1, left) 0.0588235 0.0588235 0.0588235 0.0588235 0.0588235 0.0588235 0.0588235 0.0588235 0.0588235 0.0588235 0.0588235 0.0588235 0.0588235 0.0588235 0.0588235 0.0588235 0.0588235;
   (orien_1, dist_1, inclin_1, left) 0.0555556 0.0555556 0.0555556 0.0555556 0.0555556 0.0555556 0.0555556 0.0555556 0.0555556 0.0555556 0.111111 0.0555556 0.0555556 0.0555556 0.0555556 0.0555556 0.0555556;
   (orien_0, dist_1, inclin_1, left) 0.0588235 0.0588235 0.0588235 0.0588235 0.0588235 0.0588235 0.0588235 0.0588235 0.0588235 0.0588235 0.0588235 0.0588235 0.0588235 0.0588235 0.0588235 0.0588235 0.0588235;
   (orien_7, dist_0, inclin_1, left) 0.0588235 0.0588235 0.0588235 0.0588235 0.0588235 0.0588235 0.0588235 0.0588235 0.0588235 0.0588235 0.0588235 0.0588235 0.0588235 0.0588235 0.0588235 0.0588235 0.0588235;
   (orien_6, dist_0, inclin_1, left) 0.0588235 0.0588235 0.0588235 0.0588235 0.0588235 0.0588235 0.0588235 0.0588235 0.0588235 0.0588235 0.0588235 0.0588235 0.0588235 0.0588235 0.0588235 0.0588235 0.0588235;
   (orien_5, dist_0, inclin_1, left) 0.0588235 0.0588235 0.0588235 0.0588235 0.0588235 0.0588235 0.0588235 0.0588235 0.0588235 0.0588235 0.0588235 0.0588235 0.0588235 0.0588235 0.0588235 0.0588235 0.0588235;
   (orien_4, dist_0, inclin_1, left) 0.0588235 0.0588235 0.0588235 0.0588235 0.0588235 0.0588235 0.0588235 0.0588235 0.0588235 0.0588235 0.0588235 0.0588235 0.0588235 0.0588235 0.0588235 0.0588235 0.0588235;
   (orien_3, dist_0, inclin_1, left) 0.0588235 0.0588235 0.0588235 0.0588235 0.0588235 0.0588235 0.0588235 0.0588235 0.0588235 0.0588235 0.0588235 0.0588235 0.0588235 0.0588235 0.0588235 0.0588235 0.0588235;
   (orien_8, dist_0, inclin_1, left) 0.0588235 0.0588235 0.0588235 0.0588235 0.0588235 0.0588235 0.0588235 0.0588235 0.0588235 0.0588235 0.0588235 0.0588235 0.0588235 0.0588235 0.0588235 0.0588235 0.0588235;
   (orien_9, dist_0, inclin_1, left) 0.0588235 0.0588235 0.0588235 0.0588235 0.0588235 0.0588235 0.0588235 0.0588235 0.0588235 0.0588235 0.0588235 0.0588235 0.0588235 0.0588235 0.0588235 0.0588235 0.0588235;
   (orien_10, dist_0, inclin_1, left) 0.0588235 0.0588235 0.0588235 0.0588235 0.0588235 0.0588235 0.0588235 0.0588235 0.0588235 0.0588235 0.0588235 0.0588235 0.0588235 0.0588235 0.0588235 0.0588235 0.0588235;
   (orien_11, dist_0, inclin_1, left) 0.0588235 0.0588235 0.0588235 0.0588235 0.0588235 0.0588235 0.0588235 0.0588235 0.0588235 0.0588235 0.0588235 0.0588235 0.0588235 0.0588235 0.0588235 0.0588235 0.0588235;
   (orien_15, dist_0, inclin_1, left) 0.0588235 0.0588235 0.0588235 0.0588235 0.0588235 0.0588235 0.0588235 0.0588235 0.0588235 0.0588235 0.0588235 0.0588235 0.0588235 0.0588235 0.0588235 0.0588235 0.0588235;
   (orien_14, dist_0, inclin_1, left) 0.0588235 0.0588235 0.0588235 0.0588235 0.0588235 0.0588235 0.0588235 0.0588235 0.0588235 0.0588235 0.0588235 0.0588235 0.0588235 0.0588235 0.0588235 0.0588235 0.0588235;
   (orien_12, dist_0, inclin_1, left) 0.0588235 0.0588235 0.0588235 0.0588235 0.0588235 0.0588235 0.0588235 0.0588235 0.0588235 0.0588235 0.0588235 0.0588235 0.0588235 0.0588235 0.0588235 0.0588235 0.0588235;
   (orien_13, dist_0, inclin_1, left) 0.0588235 0.0588235 0.0588235 0.0588235 0.0588235 0.0588235 0.0588235 0.0588235 0.0588235 0.0588235 0.0588235 0.0588235 0.0588235 0.0588235 0.0588235 0.0588235 0.0588235;
   (orien_2, dist_0, inclin_1, left) 0.0588235 0.0588235 0.0588235 0.0588235 0.0588235 0.0588235 0.0588235 0.0588235 0.0588235 0.0588235 0.0588235 0.0588235 0.0588235 0.0588235 0.0588235 0.0588235 0.0588235;
   (orien_1, dist_0, inclin_1, left) 0.0588235 0.0588235 0.0588235 0.0588235 0.0588235 0.0588235 0.0588235 0.0588235 0.0588235 0.0588235 0.0588235 0.0588235 0.0588235 0.0588235 0.0588235 0.0588235 0.0588235;
   (orien_0, dist_0, inclin_1, left) 0.0588235 0.0588235 0.0588235 0.0588235 0.0588235 0.0588235 0.0588235 0.0588235 0.0588235 0.0588235 0.0588235 0.0588235 0.0588235 0.0588235 0.0588235 0.0588235 0.0588235;
   (orien_7, dist_2, inclin_2, left) 0.0588235 0.0588235 0.0588235 0.0588235 0.0588235 0.0588235 0.0588235 0.0588235 0.0588235 0.0588235 0.0588235 0.0588235 0.0588235 0.0588235 0.0588235 0.0588235 0.0588235;
   (orien_6, dist_2, inclin_2, left) 0.0588235 0.0588235 0.0588235 0.0588235 0.0588235 0.0588235 0.0588235 0.0588235 0.0588235 0.0588235 0.0588235 0.0588235 0.0588235 0.0588235 0.0588235 0.0588235 0.0588235;
   (orien_5, dist_2, inclin_2, left) 0.0555556 0.111111 0.0555556 0.0555556 0.0555556 0.0555556 0.0555556 0.0555556 0.0555556 0.0555556 0.0555556 0.0555556 0.0555556 0.0555556 0.0555556 0.0555556 0.0555556;
   (orien_4, dist_2, inclin_2, left) 0.12 0.12 0.04 0.04 0.04 0.04 0.2 0.04 0.04 0.04 0.04 0.04 0.04 0.04 0.04 0.04 0.04;
   (orien_3, dist_2, inclin_2, left) 0.125 0.0416667 0.0416667 0.0416667 0.0416667 0.0416667 0.0416667 0.0416667 0.25 0.0416667 0.0416667 0.0416667 0.0416667 0.0416667 0.0416667 0.0416667 0.0416667;
   (orien_8, dist_2, inclin_2, left) 0.0588235 0.0588235 0.0588235 0.0588235 0.0588235 0.0588235 0.0588235 0.0588235 0.0588235 0.0588235 0.0588235 0.0588235 0.0588235 0.0588235 0.0588235 0.0588235 0.0588235;
   (orien_9, dist_2, inclin_2, left) 0.0588235 0.0588235 0.0588235 0.0588235 0.0588235 0.0588235 0.0588235 0.0588235 0.0588235 0.0588235 0.0588235 0.0588235 0.0588235 0.0588235 0.0588235 0.0588235 0.0588235;
   (orien_10, dist_2, inclin_2, left) 0.0588235 0.0588235 0.0588235 0.0588235 0.0588235 0.0588235 0.0588235 0.0588235 0.0588235 0.0588235 0.0588235 0.0588235 0.0588235 0.0588235 0.0588235 0.0588235 0.0588235;
   (orien_11, dist_2, inclin_2, left) 0.0588235 0.0588235 0.0588235 0.0588235 0.0588235 0.0588235 0.0588235 0.0588235 0.0588235 0.0588235 0.0588235 0.0588235 0.0588235 0.0588235 0.0588235 0.0588235 0.0588235;
   (orien_15, dist_2, inclin_2, left) 0.0588235 0.0588235 0.0588235 0.0588235 0.0588235 0.0588235 0.0588235 0.0588235 0.0588235 0.0588235 0.0588235 0.0588235 0.0588235 0.0588235 0.0588235 0.0588235 0.0588235;
   (orien_14, dist_2, inclin_2, left) 0.0588235 0.0588235 0.0588235 0.0588235 0.0588235 0.0588235 0.0588235 0.0588235 0.0588235 0.0588235 0.0588235 0.0588235 0.0588235 0.0588235 0.0588235 0.0588235 0.0588235;
   (orien_12, dist_2, inclin_2, left) 0.0588235 0.0588235 0.0588235 0.0588235 0.0588235 0.0588235 0.0588235 0.0588235 0.0588235 0.0588235 0.0588235 0.0588235 0.0588235 0.0588235 0.0588235 0.0588235 0.0588235;
   (orien_13, dist_2, inclin_2, left) 0.0588235 0.0588235 0.0588235 0.0588235 0.0588235 0.0588235 0.0588235 0.0588235 0.0588235 0.0588235 0.0588235 0.0588235 0.0588235 0.0588235 0.0588235 0.0588235 0.0588235;
   (orien_2, dist_2, inclin_2, left) 0.12 0.04 0.04 0.04 0.04 0.04 0.04 0.04 0.04 0.04 0.12 0.2 0.04 0.04 0.04 0.04 0.04;
   (orien_1, dist_2, inclin_2, left) 0.0555556 0.0555556 0.0555556 0.0555556 0.0555556 0.0555556 0.0555556 0.0555556 0.0555556 0.0555556 0.111111 0.0555556 0.0555556 0.0555556 0.0555556 0.0555556 0.0555556;
   (orien_0, dist_2, inclin_2, left) 0.0588235 0.0588235 0.0588235 0.0588235 0.0588235 0.0588235 0.0588235 0.0588235 0.0588235 0.0588235 0.0588235 0.0588235 0.0588235 0.0588235 0.0588235 0.0588235 0.0588235;
   (orien_7, dist_1, inclin_2, left) 0.0588235 0.0588235 0.0588235 0.0588235 0.0588235 0.0588235 0.0588235 0.0588235 0.0588235 0.0588235 0.0588235 0.0588235 0.0588235 0.0588235 0.0588235 0.0588235 0.0588235;
   (orien_6, dist_1, inclin_2, left) 0.0588235 0.0588235 0.0588235 0.0588235 0.0588235 0.0588235 0.0588235 0.0588235 0.0588235 0.0588235 0.0588235 0.0588235 0.0588235 0.0588235 0.0588235 0.0588235 0.0588235;
   (orien_5, dist_1, inclin_2, left) 0.0588235 0.0588235 0.0588235 0.0588235 0.0588235 0.0588235 0.0588235 0.0588235 0.0588235 0.0588235 0.0588235 0.0588235 0.0588235 0.0588235 0.0588235 0.0588235 0.0588235;
   (orien_4, dist_1, inclin_2, left) 0.0588235 0.0588235 0.0588235 0.0588235 0.0588235 0.0588235 0.0588235 0.0588235 0.0588235 0.0588235 0.0588235 0.0588235 0.0588235 0.0588235 0.0588235 0.0588235 0.0588235;
   (orien_3, dist_1, inclin_2, left) 0.0588235 0.0588235 0.0588235 0.0588235 0.0588235 0.0588235 0.0588235 0.0588235 0.0588235 0.0588235 0.0588235 0.0588235 0.0588235 0.0588235 0.0588235 0.0588235 0.0588235;
   (orien_8, dist_1, inclin_2, left) 0.0588235 0.0588235 0.0588235 0.0588235 0.0588235 0.0588235 0.0588235 0.0588235 0.0588235 0.0588235 0.0588235 0.0588235 0.0588235 0.0588235 0.0588235 0.0588235 0.0588235;
   (orien_9, dist_1, inclin_2, left) 0.0588235 0.0588235 0.0588235 0.0588235 0.0588235 0.0588235 0.0588235 0.0588235 0.0588235 0.0588235 0.0588235 0.0588235 0.0588235 0.0588235 0.0588235 0.0588235 0.0588235;
   (orien_10, dist_1, inclin_2, left) 0.0588235 0.0588235 0.0588235 0.0588235 0.0588235 0.0588235 0.0588235 0.0588235 0.0588235 0.0588235 0.0588235 0.0588235 0.0588235 0.0588235 0.0588235 0.0588235 0.0588235;
   (orien_11, dist_1, inclin_2, left) 0.0588235 0.0588235 0.0588235 0.0588235 0.0588235 0.0588235 0.0588235 0.0588235 0.0588235 0.0588235 0.0588235 0.0588235 0.0588235 0.0588235 0.0588235 0.0588235 0.0588235;
   (orien_15, dist_1, inclin_2, left) 0.0588235 0.0588235 0.0588235 0.0588235 0.0588235 0.0588235 0.0588235 0.0588235 0.0588235 0.0588235 0.0588235 0.0588235 0.0588235 0.0588235 0.0588235 0.0588235 0.0588235;
   (orien_14, dist_1, inclin_2, left) 0.0588235 0.0588235 0.0588235 0.0588235 0.0588235 0.0588235 0.0588235 0.0588235 0.0588235 0.0588235 0.0588235 0.0588235 0.0588235 0.0588235 0.0588235 0.0588235 0.0588235;
   (orien_12, dist_1, inclin_2, left) 0.0588235 0.0588235 0.0588235 0.0588235 0.0588235 0.0588235 0.0588235 0.0588235 0.0588235 0.0588235 0.0588235 0.0588235 0.0588235 0.0588235 0.0588235 0.0588235 0.0588235;
   (orien_13, dist_1, inclin_2, left) 0.0588235 0.0588235 0.0588235 0.0588235 0.0588235 0.0588235 0.0588235 0.0588235 0.0588235 0.0588235 0.0588235 0.0588235 0.0588235 0.0588235 0.0588235 0.0588235 0.0588235;
   (orien_2, dist_1, inclin_2, left) 0.0555556 0.0555556 0.0555556 0.0555556 0.0555556 0.0555556 0.0555556 0.0555556 0.0555556 0.0555556 0.111111 0.0555556 0.0555556 0.0555556 0.0555556 0.0555556 0.0555556;
   (orien_1, dist_1, inclin_2, left) 0.0588235 0.0588235 0.0588235 0.0588235 0.0588235 0.0588235 0.0588235 0.0588235 0.0588235 0.0588235 0.0588235 0.0588235 0.0588235 0.0588235 0.0588235 0.0588235 0.0588235;
   (orien_0, dist_1, inclin_2, left) 0.0588235 0.0588235 0.0588235 0.0588235 0.0588235 0.0588235 0.0588235 0.0588235 0.0588235 0.0588235 0.0588235 0.0588235 0.0588235 0.0588235 0.0588235 0.0588235 0.0588235;
   (orien_7, dist_0, inclin_2, left) 0.0588235 0.0588235 0.0588235 0.0588235 0.0588235 0.0588235 0.0588235 0.0588235 0.0588235 0.0588235 0.0588235 0.0588235 0.0588235 0.0588235 0.0588235 0.0588235 0.0588235;
   (orien_6, dist_0, inclin_2, left) 0.0588235 0.0588235 0.0588235 0.0588235 0.0588235 0.0588235 0.0588235 0.0588235 0.0588235 0.0588235 0.0588235 0.0588235 0.0588235 0.0588235 0.0588235 0.0588235 0.0588235;
   (orien_5, dist_0, inclin_2, left) 0.0588235 0.0588235 0.0588235 0.0588235 0.0588235 0.0588235 0.0588235 0.0588235 0.0588235 0.0588235 0.0588235 0.0588235 0.0588235 0.0588235 0.0588235 0.0588235 0.0588235;
   (orien_4, dist_0, inclin_2, left) 0.0588235 0.0588235 0.0588235 0.0588235 0.0588235 0.0588235 0.0588235 0.0588235 0.0588235 0.0588235 0.0588235 0.0588235 0.0588235 0.0588235 0.0588235 0.0588235 0.0588235;
   (orien_3, dist_0, inclin_2, left) 0.0588235 0.0588235 0.0588235 0.0588235 0.0588235 0.0588235 0.0588235 0.0588235 0.0588235 0.0588235 0.0588235 0.0588235 0.0588235 0.0588235 0.0588235 0.0588235 0.0588235;
   (orien_8, dist_0, inclin_2, left) 0.0588235 0.0588235 0.0588235 0.0588235 0.0588235 0.0588235 0.0588235 0.0588235 0.0588235 0.0588235 0.0588235 0.0588235 0.0588235 0.0588235 0.0588235 0.0588235 0.0588235;
   (orien_9, dist_0, inclin_2, left) 0.0588235 0.0588235 0.0588235 0.0588235 0.0588235 0.0588235 0.0588235 0.0588235 0.0588235 0.0588235 0.0588235 0.0588235 0.0588235 0.0588235 0.0588235 0.0588235 0.0588235;
   (orien_10, dist_0, inclin_2, left) 0.0588235 0.0588235 0.0588235 0.0588235 0.0588235 0.0588235 0.0588235 0.0588235 0.0588235 0.0588235 0.0588235 0.0588235 0.0588235 0.0588235 0.0588235 0.0588235 0.0588235;
   (orien_11, dist_0, inclin_2, left) 0.0588235 0.0588235 0.0588235 0.0588235 0.0588235 0.0588235 0.0588235 0.0588235 0.0588235 0.0588235 0.0588235 0.0588235 0.0588235 0.0588235 0.0588235 0.0588235 0.0588235;
   (orien_15, dist_0, inclin_2, left) 0.0588235 0.0588235 0.0588235 0.0588235 0.0588235 0.0588235 0.0588235 0.0588235 0.0588235 0.0588235 0.0588235 0.0588235 0.0588235 0.0588235 0.0588235 0.0588235 0.0588235;
   (orien_14, dist_0, inclin_2, left) 0.0588235 0.0588235 0.0588235 0.0588235 0.0588235 0.0588235 0.0588235 0.0588235 0.0588235 0.0588235 0.0588235 0.0588235 0.0588235 0.0588235 0.0588235 0.0588235 0.0588235;
   (orien_12, dist_0, inclin_2, left) 0.0588235 0.0588235 0.0588235 0.0588235 0.0588235 0.0588235 0.0588235 0.0588235 0.0588235 0.0588235 0.0588235 0.0588235 0.0588235 0.0588235 0.0588235 0.0588235 0.0588235;
   (orien_13, dist_0, inclin_2, left) 0.0588235 0.0588235 0.0588235 0.0588235 0.0588235 0.0588235 0.0588235 0.0588235 0.0588235 0.0588235 0.0588235 0.0588235 0.0588235 0.0588235 0.0588235 0.0588235 0.0588235;
   (orien_2, dist_0, inclin_2, left) 0.0588235 0.0588235 0.0588235 0.0588235 0.0588235 0.0588235 0.0588235 0.0588235 0.0588235 0.0588235 0.0588235 0.0588235 0.0588235 0.0588235 0.0588235 0.0588235 0.0588235;
   (orien_1, dist_0, inclin_2, left) 0.0588235 0.0588235 0.0588235 0.0588235 0.0588235 0.0588235 0.0588235 0.0588235 0.0588235 0.0588235 0.0588235 0.0588235 0.0588235 0.0588235 0.0588235 0.0588235 0.0588235;
   (orien_0, dist_0, inclin_2, left) 0.0588235 0.0588235 0.0588235 0.0588235 0.0588235 0.0588235 0.0588235 0.0588235 0.0588235 0.0588235 0.0588235 0.0588235 0.0588235 0.0588235 0.0588235 0.0588235 0.0588235;
   (orien_7, dist_2, inclin_4, left) 0.0588235 0.0588235 0.0588235 0.0588235 0.0588235 0.0588235 0.0588235 0.0588235 0.0588235 0.0588235 0.0588235 0.0588235 0.0588235 0.0588235 0.0588235 0.0588235 0.0588235;
   (orien_6, dist_2, inclin_4, left) 0.0588235 0.0588235 0.0588235 0.0588235 0.0588235 0.0588235 0.0588235 0.0588235 0.0588235 0.0588235 0.0588235 0.0588235 0.0588235 0.0588235 0.0588235 0.0588235 0.0588235;
   (orien_5, dist_2, inclin_4, left) 0.0588235 0.0588235 0.0588235 0.0588235 0.0588235 0.0588235 0.0588235 0.0588235 0.0588235 0.0588235 0.0588235 0.0588235 0.0588235 0.0588235 0.0588235 0.0588235 0.0588235;
   (orien_4, dist_2, inclin_4, left) 0.0588235 0.0588235 0.0588235 0.0588235 0.0588235 0.0588235 0.0588235 0.0588235 0.0588235 0.0588235 0.0588235 0.0588235 0.0588235 0.0588235 0.0588235 0.0588235 0.0588235;
   (orien_3, dist_2, inclin_4, left) 0.027027 0.027027 0.567568 0.027027 0.027027 0.027027 0.027027 0.027027 0.027027 0.027027 0.027027 0.027027 0.027027 0.027027 0.027027 0.027027 0.027027;
   (orien_8, dist_2, inclin_4, left) 0.0588235 0.0588235 0.0588235 0.0588235 0.0588235 0.0588235 0.0588235 0.0588235 0.0588235 0.0588235 0.0588235 0.0588235 0.0588235 0.0588235 0.0588235 0.0588235 0.0588235;
   (orien_9, dist_2, inclin_4, left) 0.0588235 0.0588235 0.0588235 0.0588235 0.0588235 0.0588235 0.0588235 0.0588235 0.0588235 0.0588235 0.0588235 0.0588235 0.0588235 0.0588235 0.0588235 0.0588235 0.0588235;
   (orien_10, dist_2, inclin_4, left) 0.0588235 0.0588235 0.0588235 0.0588235 0.0588235 0.0588235 0.0588235 0.0588235 0.0588235 0.0588235 0.0588235 0.0588235 0.0588235 0.0588235 0.0588235 0.0588235 0.0588235;
   (orien_11, dist_2, inclin_4, left) 0.0588235 0.0588235 0.0588235 0.0588235 0.0588235 0.0588235 0.0588235 0.0588235 0.0588235 0.0588235 0.0588235 0.0588235 0.0588235 0.0588235 0.0588235 0.0588235 0.0588235;
   (orien_15, dist_2, inclin_4, left) 0.0588235 0.0588235 0.0588235 0.0588235 0.0588235 0.0588235 0.0588235 0.0588235 0.0588235 0.0588235 0.0588235 0.0588235 0.0588235 0.0588235 0.0588235 0.0588235 0.0588235;
   (orien_14, dist_2, inclin_4, left) 0.0588235 0.0588235 0.0588235 0.0588235 0.0588235 0.0588235 0.0588235 0.0588235 0.0588235 0.0588235 0.0588235 0.0588235 0.0588235 0.0588235 0.0588235 0.0588235 0.0588235;
   (orien_12, dist_2, inclin_4, left) 0.0588235 0.0588235 0.0588235 0.0588235 0.0588235 0.0588235 0.0588235 0.0588235 0.0588235 0.0588235 0.0588235 0.0588235 0.0588235 0.0588235 0.0588235 0.0588235 0.0588235;
   (orien_13, dist_2, inclin_4, left) 0.0588235 0.0588235 0.0588235 0.0588235 0.0588235 0.0588235 0.0588235 0.0588235 0.0588235 0.0588235 0.0588235 0.0588235 0.0588235 0.0588235 0.0588235 0.0588235 0.0588235;
   (orien_2, dist_2, inclin_4, left) 0.0588235 0.0588235 0.0588235 0.0588235 0.0588235 0.0588235 0.0588235 0.0588235 0.0588235 0.0588235 0.0588235 0.0588235 0.0588235 0.0588235 0.0588235 0.0588235 0.0588235;
   (orien_1, dist_2, inclin_4, left) 0.0588235 0.0588235 0.0588235 0.0588235 0.0588235 0.0588235 0.0588235 0.0588235 0.0588235 0.0588235 0.0588235 0.0588235 0.0588235 0.0588235 0.0588235 0.0588235 0.0588235;
   (orien_0, dist_2, inclin_4, left) 0.0588235 0.0588235 0.0588235 0.0588235 0.0588235 0.0588235 0.0588235 0.0588235 0.0588235 0.0588235 0.0588235 0.0588235 0.0588235 0.0588235 0.0588235 0.0588235 0.0588235;
   (orien_7, dist_1, inclin_4, left) 0.0588235 0.0588235 0.0588235 0.0588235 0.0588235 0.0588235 0.0588235 0.0588235 0.0588235 0.0588235 0.0588235 0.0588235 0.0588235 0.0588235 0.0588235 0.0588235 0.0588235;
   (orien_6, dist_1, inclin_4, left) 0.0588235 0.0588235 0.0588235 0.0588235 0.0588235 0.0588235 0.0588235 0.0588235 0.0588235 0.0588235 0.0588235 0.0588235 0.0588235 0.0588235 0.0588235 0.0588235 0.0588235;
   (orien_5, dist_1, inclin_4, left) 0.0588235 0.0588235 0.0588235 0.0588235 0.0588235 0.0588235 0.0588235 0.0588235 0.0588235 0.0588235 0.0588235 0.0588235 0.0588235 0.0588235 0.0588235 0.0588235 0.0588235;
   (orien_4, dist_1, inclin_4, left) 0.0588235 0.0588235 0.0588235 0.0588235 0.0588235 0.0588235 0.0588235 0.0588235 0.0588235 0.0588235 0.0588235 0.0588235 0.0588235 0.0588235 0.0588235 0.0588235 0.0588235;
   (orien_3, dist_1, inclin_4, left) 0.0204082 0.0204082 0.673469 0.0204082 0.0204082 0.0204082 0.0204082 0.0204082 0.0204082 0.0204082 0.0204082 0.0204082 0.0204082 0.0204082 0.0204082 0.0204082 0.0204082;
   (orien_8, dist_1, inclin_4, left) 0.0588235 0.0588235 0.0588235 0.0588235 0.0588235 0.0588235 0.0588235 0.0588235 0.0588235 0.0588235 0.0588235 0.0588235 0.0588235 0.0588235 0.0588235 0.0588235 0.0588235;
   (orien_9, dist_1, inclin_4, left) 0.0588235 0.0588235 0.0588235 0.0588235 0.0588235 0.0588235 0.0588235 0.0588235 0.0588235 0.0588235 0.0588235 0.0588235 0.0588235 0.0588235 0.0588235 0.0588235 0.0588235;
   (orien_10, dist_1, inclin_4, left) 0.0588235 0.0588235 0.0588235 0.0588235 0.0588235 0.0588235 0.0588235 0.0588235 0.0588235 0.0588235 0.0588235 0.0588235 0.0588235 0.0588235 0.0588235 0.0588235 0.0588235;
   (orien_11, dist_1, inclin_4, left) 0.0588235 0.0588235 0.0588235 0.0588235 0.0588235 0.0588235 0.0588235 0.0588235 0.0588235 0.0588235 0.0588235 0.0588235 0.0588235 0.0588235 0.0588235 0.0588235 0.0588235;
   (orien_15, dist_1, inclin_4, left) 0.0588235 0.0588235 0.0588235 0.0588235 0.0588235 0.0588235 0.0588235 0.0588235 0.0588235 0.0588235 0.0588235 0.0588235 0.0588235 0.0588235 0.0588235 0.0588235 0.0588235;
   (orien_14, dist_1, inclin_4, left) 0.0588235 0.0588235 0.0588235 0.0588235 0.0588235 0.0588235 0.0588235 0.0588235 0.0588235 0.0588235 0.0588235 0.0588235 0.0588235 0.0588235 0.0588235 0.0588235 0.0588235;
   (orien_12, dist_1, inclin_4, left) 0.0588235 0.0588235 0.0588235 0.0588235 0.0588235 0.0588235 0.0588235 0.0588235 0.0588235 0.0588235 0.0588235 0.0588235 0.0588235 0.0588235 0.0588235 0.0588235 0.0588235;
   (orien_13, dist_1, inclin_4, left) 0.0588235 0.0588235 0.0588235 0.0588235 0.0588235 0.0588235 0.0588235 0.0588235 0.0588235 0.0588235 0.0588235 0.0588235 0.0588235 0.0588235 0.0588235 0.0588235 0.0588235;
   (orien_2, dist_1, inclin_4, left) 0.0588235 0.0588235 0.0588235 0.0588235 0.0588235 0.0588235 0.0588235 0.0588235 0.0588235 0.0588235 0.0588235 0.0588235 0.0588235 0.0588235 0.0588235 0.0588235 0.0588235;
   (orien_1, dist_1, inclin_4, left) 0.0588235 0.0588235 0.0588235 0.0588235 0.0588235 0.0588235 0.0588235 0.0588235 0.0588235 0.0588235 0.0588235 0.0588235 0.0588235 0.0588235 0.0588235 0.0588235 0.0588235;
   (orien_0, dist_1, inclin_4, left) 0.0588235 0.0588235 0.0588235 0.0588235 0.0588235 0.0588235 0.0588235 0.0588235 0.0588235 0.0588235 0.0588235 0.0588235 0.0588235 0.0588235 0.0588235 0.0588235 0.0588235;
   (orien_7, dist_0, inclin_4, left) 0.0588235 0.0588235 0.0588235 0.0588235 0.0588235 0.0588235 0.0588235 0.0588235 0.0588235 0.0588235 0.0588235 0.0588235 0.0588235 0.0588235 0.0588235 0.0588235 0.0588235;
   (orien_6, dist_0, inclin_4, left) 0.0588235 0.0588235 0.0588235 0.0588235 0.0588235 0.0588235 0.0588235 0.0588235 0.0588235 0.0588235 0.0588235 0.0588235 0.0588235 0.0588235 0.0588235 0.0588235 0.0588235;
   (orien_5, dist_0, inclin_4, left) 0.0588235 0.0588235 0.0588235 0.0588235 0.0588235 0.0588235 0.0588235 0.0588235 0.0588235 0.0588235 0.0588235 0.0588235 0.0588235 0.0588235 0.0588235 0.0588235 0.0588235;
   (orien_4, dist_0, inclin_4, left) 0.0588235 0.0588235 0.0588235 0.0588235 0.0588235 0.0588235 0.0588235 0.0588235 0.0588235 0.0588235 0.0588235 0.0588235 0.0588235 0.0588235 0.0588235 0.0588235 0.0588235;
   (orien_3, dist_0, inclin_4, left) 0.030303 0.030303 0.515152 0.030303 0.030303 0.030303 0.030303 0.030303 0.030303 0.030303 0.030303 0.030303 0.030303 0.030303 0.030303 0.030303 0.030303;
   (orien_8, dist_0, inclin_4, left) 0.0588235 0.0588235 0.0588235 0.0588235 0.0588235 0.0588235 0.0588235 0.0588235 0.0588235 0.0588235 0.0588235 0.0588235 0.0588235 0.0588235 0.0588235 0.0588235 0.0588235;
   (orien_9, dist_0, inclin_4, left) 0.0588235 0.0588235 0.0588235 0.0588235 0.0588235 0.0588235 0.0588235 0.0588235 0.0588235 0.0588235 0.0588235 0.0588235 0.0588235 0.0588235 0.0588235 0.0588235 0.0588235;
   (orien_10, dist_0, inclin_4, left) 0.0588235 0.0588235 0.0588235 0.0588235 0.0588235 0.0588235 0.0588235 0.0588235 0.0588235 0.0588235 0.0588235 0.0588235 0.0588235 0.0588235 0.0588235 0.0588235 0.0588235;
   (orien_11, dist_0, inclin_4, left) 0.0588235 0.0588235 0.0588235 0.0588235 0.0588235 0.0588235 0.0588235 0.0588235 0.0588235 0.0588235 0.0588235 0.0588235 0.0588235 0.0588235 0.0588235 0.0588235 0.0588235;
   (orien_15, dist_0, inclin_4, left) 0.0588235 0.0588235 0.0588235 0.0588235 0.0588235 0.0588235 0.0588235 0.0588235 0.0588235 0.0588235 0.0588235 0.0588235 0.0588235 0.0588235 0.0588235 0.0588235 0.0588235;
   (orien_14, dist_0, inclin_4, left) 0.0588235 0.0588235 0.0588235 0.0588235 0.0588235 0.0588235 0.0588235 0.0588235 0.0588235 0.0588235 0.0588235 0.0588235 0.0588235 0.0588235 0.0588235 0.0588235 0.0588235;
   (orien_12, dist_0, inclin_4, left) 0.0588235 0.0588235 0.0588235 0.0588235 0.0588235 0.0588235 0.0588235 0.0588235 0.0588235 0.0588235 0.0588235 0.0588235 0.0588235 0.0588235 0.0588235 0.0588235 0.0588235;
   (orien_13, dist_0, inclin_4, left) 0.0588235 0.0588235 0.0588235 0.0588235 0.0588235 0.0588235 0.0588235 0.0588235 0.0588235 0.0588235 0.0588235 0.0588235 0.0588235 0.0588235 0.0588235 0.0588235 0.0588235;
   (orien_2, dist_0, inclin_4, left) 0.0588235 0.0588235 0.0588235 0.0588235 0.0588235 0.0588235 0.0588235 0.0588235 0.0588235 0.0588235 0.0588235 0.0588235 0.0588235 0.0588235 0.0588235 0.0588235 0.0588235;
   (orien_1, dist_0, inclin_4, left) 0.0588235 0.0588235 0.0588235 0.0588235 0.0588235 0.0588235 0.0588235 0.0588235 0.0588235 0.0588235 0.0588235 0.0588235 0.0588235 0.0588235 0.0588235 0.0588235 0.0588235;
   (orien_0, dist_0, inclin_4, left) 0.0588235 0.0588235 0.0588235 0.0588235 0.0588235 0.0588235 0.0588235 0.0588235 0.0588235 0.0588235 0.0588235 0.0588235 0.0588235 0.0588235 0.0588235 0.0588235 0.0588235;
   (orien_7, dist_2, inclin_3, left) 0.0588235 0.0588235 0.0588235 0.0588235 0.0588235 0.0588235 0.0588235 0.0588235 0.0588235 0.0588235 0.0588235 0.0588235 0.0588235 0.0588235 0.0588235 0.0588235 0.0588235;
   (orien_6, dist_2, inclin_3, left) 0.0588235 0.0588235 0.0588235 0.0588235 0.0588235 0.0588235 0.0588235 0.0588235 0.0588235 0.0588235 0.0588235 0.0588235 0.0588235 0.0588235 0.0588235 0.0588235 0.0588235;
   (orien_5, dist_2, inclin_3, left) 0.0588235 0.0588235 0.0588235 0.0588235 0.0588235 0.0588235 0.0588235 0.0588235 0.0588235 0.0588235 0.0588235 0.0588235 0.0588235 0.0588235 0.0588235 0.0588235 0.0588235;
   (orien_4, dist_2, inclin_3, left) 0.0588235 0.0588235 0.0588235 0.0588235 0.0588235 0.0588235 0.0588235 0.0588235 0.0588235 0.0588235 0.0588235 0.0588235 0.0588235 0.0588235 0.0588235 0.0588235 0.0588235;
   (orien_3, dist_2, inclin_3, left) 0.24 0.04 0.16 0.04 0.04 0.04 0.04 0.04 0.04 0.04 0.04 0.04 0.04 0.04 0.04 0.04 0.04;
   (orien_8, dist_2, inclin_3, left) 0.0588235 0.0588235 0.0588235 0.0588235 0.0588235 0.0588235 0.0588235 0.0588235 0.0588235 0.0588235 0.0588235 0.0588235 0.0588235 0.0588235 0.0588235 0.0588235 0.0588235;
   (orien_9, dist_2, inclin_3, left) 0.0588235 0.0588235 0.0588235 0.0588235 0.0588235 0.0588235 0.0588235 0.0588235 0.0588235 0.0588235 0.0588235 0.0588235 0.0588235 0.0588235 0.0588235 0.0588235 0.0588235;
   (orien_10, dist_2, inclin_3, left) 0.0588235 0.0588235 0.0588235 0.0588235 0.0588235 0.0588235 0.0588235 0.0588235 0.0588235 0.0588235 0.0588235 0.0588235 0.0588235 0.0588235 0.0588235 0.0588235 0.0588235;
   (orien_11, dist_2, inclin_3, left) 0.0588235 0.0588235 0.0588235 0.0588235 0.0588235 0.0588235 0.0588235 0.0588235 0.0588235 0.0588235 0.0588235 0.0588235 0.0588235 0.0588235 0.0588235 0.0588235 0.0588235;
   (orien_15, dist_2, inclin_3, left) 0.0588235 0.0588235 0.0588235 0.0588235 0.0588235 0.0588235 0.0588235 0.0588235 0.0588235 0.0588235 0.0588235 0.0588235 0.0588235 0.0588235 0.0588235 0.0588235 0.0588235;
   (orien_14, dist_2, inclin_3, left) 0.0588235 0.0588235 0.0588235 0.0588235 0.0588235 0.0588235 0.0588235 0.0588235 0.0588235 0.0588235 0.0588235 0.0588235 0.0588235 0.0588235 0.0588235 0.0588235 0.0588235;
   (orien_12, dist_2, inclin_3, left) 0.0588235 0.0588235 0.0588235 0.0588235 0.0588235 0.0588235 0.0588235 0.0588235 0.0588235 0.0588235 0.0588235 0.0588235 0.0588235 0.0588235 0.0588235 0.0588235 0.0588235;
   (orien_13, dist_2, inclin_3, left) 0.0588235 0.0588235 0.0588235 0.0588235 0.0588235 0.0588235 0.0588235 0.0588235 0.0588235 0.0588235 0.0588235 0.0588235 0.0588235 0.0588235 0.0588235 0.0588235 0.0588235;
   (orien_2, dist_2, inclin_3, left) 0.0555556 0.0555556 0.0555556 0.0555556 0.0555556 0.0555556 0.0555556 0.0555556 0.0555556 0.0555556 0.0555556 0.111111 0.0555556 0.0555556 0.0555556 0.0555556 0.0555556;
   (orien_1, dist_2, inclin_3, left) 0.0588235 0.0588235 0.0588235 0.0588235 0.0588235 0.0588235 0.0588235 0.0588235 0.0588235 0.0588235 0.0588235 0.0588235 0.0588235 0.0588235 0.0588235 0.0588235 0.0588235;
   (orien_0, dist_2, inclin_3, left) 0.0588235 0.0588235 0.0588235 0.0588235 0.0588235 0.0588235 0.0588235 0.0588235 0.0588235 0.0588235 0.0588235 0.0588235 0.0588235 0.0588235 0.0588235 0.0588235 0.0588235;
   (orien_7, dist_1, inclin_3, left) 0.0588235 0.0588235 0.0588235 0.0588235 0.0588235 0.0588235 0.0588235 0.0588235 0.0588235 0.0588235 0.0588235 0.0588235 0.0588235 0.0588235 0.0588235 0.0588235 0.0588235;
   (orien_6, dist_1, inclin_3, left) 0.0588235 0.0588235 0.0588235 0.0588235 0.0588235 0.0588235 0.0588235 0.0588235 0.0588235 0.0588235 0.0588235 0.0588235 0.0588235 0.0588235 0.0588235 0.0588235 0.0588235;
   (orien_5, dist_1, inclin_3, left) 0.0588235 0.0588235 0.0588235 0.0588235 0.0588235 0.0588235 0.0588235 0.0588235 0.0588235 0.0588235 0.0588235 0.0588235 0.0588235 0.0588235 0.0588235 0.0588235 0.0588235;
   (orien_4, dist_1, inclin_3, left) 0.0588235 0.0588235 0.0588235 0.0588235 0.0588235 0.0588235 0.0588235 0.0588235 0.0588235 0.0588235 0.0588235 0.0588235 0.0588235 0.0588235 0.0588235 0.0588235 0.0588235;
   (orien_3, dist_1, inclin_3, left) 0.0588235 0.0588235 0.0588235 0.0588235 0.0588235 0.0588235 0.0588235 0.0588235 0.0588235 0.0588235 0.0588235 0.0588235 0.0588235 0.0588235 0.0588235 0.0588235 0.0588235;
   (orien_8, dist_1, inclin_3, left) 0.0588235 0.0588235 0.0588235 0.0588235 0.0588235 0.0588235 0.0588235 0.0588235 0.0588235 0.0588235 0.0588235 0.0588235 0.0588235 0.0588235 0.0588235 0.0588235 0.0588235;
   (orien_9, dist_1, inclin_3, left) 0.0588235 0.0588235 0.0588235 0.0588235 0.0588235 0.0588235 0.0588235 0.0588235 0.0588235 0.0588235 0.0588235 0.0588235 0.0588235 0.0588235 0.0588235 0.0588235 0.0588235;
   (orien_10, dist_1, inclin_3, left) 0.0588235 0.0588235 0.0588235 0.0588235 0.0588235 0.0588235 0.0588235 0.0588235 0.0588235 0.0588235 0.0588235 0.0588235 0.0588235 0.0588235 0.0588235 0.0588235 0.0588235;
   (orien_11, dist_1, inclin_3, left) 0.0588235 0.0588235 0.0588235 0.0588235 0.0588235 0.0588235 0.0588235 0.0588235 0.0588235 0.0588235 0.0588235 0.0588235 0.0588235 0.0588235 0.0588235 0.0588235 0.0588235;
   (orien_15, dist_1, inclin_3, left) 0.0588235 0.0588235 0.0588235 0.0588235 0.0588235 0.0588235 0.0588235 0.0588235 0.0588235 0.0588235 0.0588235 0.0588235 0.0588235 0.0588235 0.0588235 0.0588235 0.0588235;
   (orien_14, dist_1, inclin_3, left) 0.0588235 0.0588235 0.0588235 0.0588235 0.0588235 0.0588235 0.0588235 0.0588235 0.0588235 0.0588235 0.0588235 0.0588235 0.0588235 0.0588235 0.0588235 0.0588235 0.0588235;
   (orien_12, dist_1, inclin_3, left) 0.0588235 0.0588235 0.0588235 0.0588235 0.0588235 0.0588235 0.0588235 0.0588235 0.0588235 0.0588235 0.0588235 0.0588235 0.0588235 0.0588235 0.0588235 0.0588235 0.0588235;
   (orien_13, dist_1, inclin_3, left) 0.0588235 0.0588235 0.0588235 0.0588235 0.0588235 0.0588235 0.0588235 0.0588235 0.0588235 0.0588235 0.0588235 0.0588235 0.0588235 0.0588235 0.0588235 0.0588235 0.0588235;
   (orien_2, dist_1, inclin_3, left) 0.0588235 0.0588235 0.0588235 0.0588235 0.0588235 0.0588235 0.0588235 0.0588235 0.0588235 0.0588235 0.0588235 0.0588235 0.0588235 0.0588235 0.0588235 0.0588235 0.0588235;
   (orien_1, dist_1, inclin_3, left) 0.0588235 0.0588235 0.0588235 0.0588235 0.0588235 0.0588235 0.0588235 0.0588235 0.0588235 0.0588235 0.0588235 0.0588235 0.0588235 0.0588235 0.0588235 0.0588235 0.0588235;
   (orien_0, dist_1, inclin_3, left) 0.0588235 0.0588235 0.0588235 0.0588235 0.0588235 0.0588235 0.0588235 0.0588235 0.0588235 0.0588235 0.0588235 0.0588235 0.0588235 0.0588235 0.0588235 0.0588235 0.0588235;
   (orien_7, dist_0, inclin_3, left) 0.0588235 0.0588235 0.0588235 0.0588235 0.0588235 0.0588235 0.0588235 0.0588235 0.0588235 0.0588235 0.0588235 0.0588235 0.0588235 0.0588235 0.0588235 0.0588235 0.0588235;
   (orien_6, dist_0, inclin_3, left) 0.0588235 0.0588235 0.0588235 0.0588235 0.0588235 0.0588235 0.0588235 0.0588235 0.0588235 0.0588235 0.0588235 0.0588235 0.0588235 0.0588235 0.0588235 0.0588235 0.0588235;
   (orien_5, dist_0, inclin_3, left) 0.0588235 0.0588235 0.0588235 0.0588235 0.0588235 0.0588235 0.0588235 0.0588235 0.0588235 0.0588235 0.0588235 0.0588235 0.0588235 0.0588235 0.0588235 0.0588235 0.0588235;
   (orien_4, dist_0, inclin_3, left) 0.0588235 0.0588235 0.0588235 0.0588235 0.0588235 0.0588235 0.0588235 0.0588235 0.0588235 0.0588235 0.0588235 0.0588235 0.0588235 0.0588235 0.0588235 0.0588235 0.0588235;
   (orien_3, dist_0, inclin_3, left) 0.0588235 0.0588235 0.0588235 0.0588235 0.0588235 0.0588235 0.0588235 0.0588235 0.0588235 0.0588235 0.0588235 0.0588235 0.0588235 0.0588235 0.0588235 0.0588235 0.0588235;
   (orien_8, dist_0, inclin_3, left) 0.0588235 0.0588235 0.0588235 0.0588235 0.0588235 0.0588235 0.0588235 0.0588235 0.0588235 0.0588235 0.0588235 0.0588235 0.0588235 0.0588235 0.0588235 0.0588235 0.0588235;
   (orien_9, dist_0, inclin_3, left) 0.0588235 0.0588235 0.0588235 0.0588235 0.0588235 0.0588235 0.0588235 0.0588235 0.0588235 0.0588235 0.0588235 0.0588235 0.0588235 0.0588235 0.0588235 0.0588235 0.0588235;
   (orien_10, dist_0, inclin_3, left) 0.0588235 0.0588235 0.0588235 0.0588235 0.0588235 0.0588235 0.0588235 0.0588235 0.0588235 0.0588235 0.0588235 0.0588235 0.0588235 0.0588235 0.0588235 0.0588235 0.0588235;
   (orien_11, dist_0, inclin_3, left) 0.0588235 0.0588235 0.0588235 0.0588235 0.0588235 0.0588235 0.0588235 0.0588235 0.0588235 0.0588235 0.0588235 0.0588235 0.0588235 0.0588235 0.0588235 0.0588235 0.0588235;
   (orien_15, dist_0, inclin_3, left) 0.0588235 0.0588235 0.0588235 0.0588235 0.0588235 0.0588235 0.0588235 0.0588235 0.0588235 0.0588235 0.0588235 0.0588235 0.0588235 0.0588235 0.0588235 0.0588235 0.0588235;
   (orien_14, dist_0, inclin_3, left) 0.0588235 0.0588235 0.0588235 0.0588235 0.0588235 0.0588235 0.0588235 0.0588235 0.0588235 0.0588235 0.0588235 0.0588235 0.0588235 0.0588235 0.0588235 0.0588235 0.0588235;
   (orien_12, dist_0, inclin_3, left) 0.0588235 0.0588235 0.0588235 0.0588235 0.0588235 0.0588235 0.0588235 0.0588235 0.0588235 0.0588235 0.0588235 0.0588235 0.0588235 0.0588235 0.0588235 0.0588235 0.0588235;
   (orien_13, dist_0, inclin_3, left) 0.0588235 0.0588235 0.0588235 0.0588235 0.0588235 0.0588235 0.0588235 0.0588235 0.0588235 0.0588235 0.0588235 0.0588235 0.0588235 0.0588235 0.0588235 0.0588235 0.0588235;
   (orien_2, dist_0, inclin_3, left) 0.0588235 0.0588235 0.0588235 0.0588235 0.0588235 0.0588235 0.0588235 0.0588235 0.0588235 0.0588235 0.0588235 0.0588235 0.0588235 0.0588235 0.0588235 0.0588235 0.0588235;
   (orien_1, dist_0, inclin_3, left) 0.0588235 0.0588235 0.0588235 0.0588235 0.0588235 0.0588235 0.0588235 0.0588235 0.0588235 0.0588235 0.0588235 0.0588235 0.0588235 0.0588235 0.0588235 0.0588235 0.0588235;
   (orien_0, dist_0, inclin_3, left) 0.0588235 0.0588235 0.0588235 0.0588235 0.0588235 0.0588235 0.0588235 0.0588235 0.0588235 0.0588235 0.0588235 0.0588235 0.0588235 0.0588235 0.0588235 0.0588235 0.0588235;
   (orien_7, dist_2, inclin_0, left) 0.0588235 0.0588235 0.0588235 0.0588235 0.0588235 0.0588235 0.0588235 0.0588235 0.0588235 0.0588235 0.0588235 0.0588235 0.0588235 0.0588235 0.0588235 0.0588235 0.0588235;
   (orien_6, dist_2, inclin_0, left) 0.0588235 0.0588235 0.0588235 0.0588235 0.0588235 0.0588235 0.0588235 0.0588235 0.0588235 0.0588235 0.0588235 0.0588235 0.0588235 0.0588235 0.0588235 0.0588235 0.0588235;
   (orien_5, dist_2, inclin_0, left) 0.0555556 0.0555556 0.0555556 0.0555556 0.0555556 0.0555556 0.0555556 0.0555556 0.111111 0.0555556 0.0555556 0.0555556 0.0555556 0.0555556 0.0555556 0.0555556 0.0555556;
   (orien_4, dist_2, inclin_0, left) 0.0555556 0.0555556 0.0555556 0.0555556 0.0555556 0.0555556 0.0555556 0.0555556 0.111111 0.0555556 0.0555556 0.0555556 0.0555556 0.0555556 0.0555556 0.0555556 0.0555556;
   (orien_3, dist_2, inclin_0, left) 0.0454545 0.0454545 0.0454545 0.0454545 0.0454545 0.0454545 0.0454545 0.0454545 0.272727 0.0454545 0.0454545 0.0454545 0.0454545 0.0454545 0.0454545 0.0454545 0.0454545;
   (orien_8, dist_2, inclin_0, left) 0.0555556 0.0555556 0.0555556 0.0555556 0.0555556 0.0555556 0.0555556 0.0555556 0.0555556 0.111111 0.0555556 0.0555556 0.0555556 0.0555556 0.0555556 0.0555556 0.0555556;
   (orien_9, dist_2, inclin_0, left) 0.0526316 0.0526316 0.0526316 0.0526316 0.105263 0.0526316 0.0526316 0.0526316 0.0526316 0.105263 0.0526316 0.0526316 0.0526316 0.0526316 0.0526316 0.0526316 0.0526316;
   (orien_10, dist_2, inclin_0, left) 0.0555556 0.0555556 0.0555556 0.0555556 0.111111 0.0555556 0.0555556 0.0555556 0.0555556 0.0555556 0.0555556 0.0555556 0.0555556 0.0555556 0.0555556 0.0555556 0.0555556;
   (orien_11, dist_2, inclin_0, left) 0.0526316 0.0526316 0.0526316 0.0526316 0.157895 0.0526316 0.0526316 0.0526316 0.0526316 0.0526316 0.0526316 0.0526316 0.0526316 0.0526316 0.0526316 0.0526316 0.0526316;
   (orien_15, dist_2, inclin_0, left) 0.0588235 0.0588235 0.0588235 0.0588235 0.0588235 0.0588235 0.0588235 0.0588235 0.0588235 0.0588235 0.0588235 0.0588235 0.0588235 0.0588235 0.0588235 0.0588235 0.0588235;
   (orien_14, dist_2, inclin_0, left) 0.0588235 0.0588235 0.0588235 0.0588235 0.0588235 0.0588235 0.0588235 0.0588235 0.0588235 0.0588235 0.0588235 0.0588235 0.0588235 0.0588235 0.0588235 0.0588235 0.0588235;
   (orien_12, dist_2, inclin_0, left) 0.0555556 0.0555556 0.0555556 0.0555556 0.111111 0.0555556 0.0555556 0.0555556 0.0555556 0.0555556 0.0555556 0.0555556 0.0555556 0.0555556 0.0555556 0.0555556 0.0555556;
   (orien_13, dist_2, inclin_0, left) 0.0555556 0.0555556 0.0555556 0.0555556 0.111111 0.0555556 0.0555556 0.0555556 0.0555556 0.0555556 0.0555556 0.0555556 0.0555556 0.0555556 0.0555556 0.0555556 0.0555556;
   (orien_2, dist_2, inclin_0, left) 0.0555556 0.0555556 0.0555556 0.0555556 0.0555556 0.0555556 0.0555556 0.0555556 0.111111 0.0555556 0.0555556 0.0555556 0.0555556 0.0555556 0.0555556 0.0555556 0.0555556;
   (orien_1, dist_2, inclin_0, left) 0.0588235 0.0588235 0.0588235 0.0588235 0.0588235 0.0588235 0.0588235 0.0588235 0.0588235 0.0588235 0.0588235 0.0588235 0.0588235 0.0588235 0.0588235 0.0588235 0.0588235;
   (orien_0, dist_2, inclin_0, left) 0.0588235 0.0588235 0.0588235 0.0588235 0.0588235 0.0588235 0.0588235 0.0588235 0.0588235 0.0588235 0.0588235 0.0588235 0.0588235 0.0588235 0.0588235 0.0588235 0.0588235;
   (orien_7, dist_1, inclin_0, left) 0.0588235 0.0588235 0.0588235 0.0588235 0.0588235 0.0588235 0.0588235 0.0588235 0.0588235 0.0588235 0.0588235 0.0588235 0.0588235 0.0588235 0.0588235 0.0588235 0.0588235;
   (orien_6, dist_1, inclin_0, left) 0.0588235 0.0588235 0.0588235 0.0588235 0.0588235 0.0588235 0.0588235 0.0588235 0.0588235 0.0588235 0.0588235 0.0588235 0.0588235 0.0588235 0.0588235 0.0588235 0.0588235;
   (orien_5, dist_1, inclin_0, left) 0.0588235 0.0588235 0.0588235 0.0588235 0.0588235 0.0588235 0.0588235 0.0588235 0.0588235 0.0588235 0.0588235 0.0588235 0.0588235 0.0588235 0.0588235 0.0588235 0.0588235;
   (orien_4, dist_1, inclin_0, left) 0.0588235 0.0588235 0.0588235 0.0588235 0.0588235 0.0588235 0.0588235 0.0588235 0.0588235 0.0588235 0.0588235 0.0588235 0.0588235 0.0588235 0.0588235 0.0588235 0.0588235;
   (orien_3, dist_1, inclin_0, left) 0.0588235 0.0588235 0.0588235 0.0588235 0.0588235 0.0588235 0.0588235 0.0588235 0.0588235 0.0588235 0.0588235 0.0588235 0.0588235 0.0588235 0.0588235 0.0588235 0.0588235;
   (orien_8, dist_1, inclin_0, left) 0.0588235 0.0588235 0.0588235 0.0588235 0.0588235 0.0588235 0.0588235 0.0588235 0.0588235 0.0588235 0.0588235 0.0588235 0.0588235 0.0588235 0.0588235 0.0588235 0.0588235;
   (orien_9, dist_1, inclin_0, left) 0.0588235 0.0588235 0.0588235 0.0588235 0.0588235 0.0588235 0.0588235 0.0588235 0.0588235 0.0588235 0.0588235 0.0588235 0.0588235 0.0588235 0.0588235 0.0588235 0.0588235;
   (orien_10, dist_1, inclin_0, left) 0.0588235 0.0588235 0.0588235 0.0588235 0.0588235 0.0588235 0.0588235 0.0588235 0.0588235 0.0588235 0.0588235 0.0588235 0.0588235 0.0588235 0.0588235 0.0588235 0.0588235;
   (orien_11, dist_1, inclin_0, left) 0.0588235 0.0588235 0.0588235 0.0588235 0.0588235 0.0588235 0.0588235 0.0588235 0.0588235 0.0588235 0.0588235 0.0588235 0.0588235 0.0588235 0.0588235 0.0588235 0.0588235;
   (orien_15, dist_1, inclin_0, left) 0.0588235 0.0588235 0.0588235 0.0588235 0.0588235 0.0588235 0.0588235 0.0588235 0.0588235 0.0588235 0.0588235 0.0588235 0.0588235 0.0588235 0.0588235 0.0588235 0.0588235;
   (orien_14, dist_1, inclin_0, left) 0.0588235 0.0588235 0.0588235 0.0588235 0.0588235 0.0588235 0.0588235 0.0588235 0.0588235 0.0588235 0.0588235 0.0588235 0.0588235 0.0588235 0.0588235 0.0588235 0.0588235;
   (orien_12, dist_1, inclin_0, left) 0.0588235 0.0588235 0.0588235 0.0588235 0.0588235 0.0588235 0.0588235 0.0588235 0.0588235 0.0588235 0.0588235 0.0588235 0.0588235 0.0588235 0.0588235 0.0588235 0.0588235;
   (orien_13, dist_1, inclin_0, left) 0.0588235 0.0588235 0.0588235 0.0588235 0.0588235 0.0588235 0.0588235 0.0588235 0.0588235 0.0588235 0.0588235 0.0588235 0.0588235 0.0588235 0.0588235 0.0588235 0.0588235;
   (orien_2, dist_1, inclin_0, left) 0.0588235 0.0588235 0.0588235 0.0588235 0.0588235 0.0588235 0.0588235 0.0588235 0.0588235 0.0588235 0.0588235 0.0588235 0.0588235 0.0588235 0.0588235 0.0588235 0.0588235;
   (orien_1, dist_1, inclin_0, left) 0.0588235 0.0588235 0.0588235 0.0588235 0.0588235 0.0588235 0.0588235 0.0588235 0.0588235 0.0588235 0.0588235 0.0588235 0.0588235 0.0588235 0.0588235 0.0588235 0.0588235;
   (orien_0, dist_1, inclin_0, left) 0.0588235 0.0588235 0.0588235 0.0588235 0.0588235 0.0588235 0.0588235 0.0588235 0.0588235 0.0588235 0.0588235 0.0588235 0.0588235 0.0588235 0.0588235 0.0588235 0.0588235;
   (orien_7, dist_0, inclin_0, left) 0.0588235 0.0588235 0.0588235 0.0588235 0.0588235 0.0588235 0.0588235 0.0588235 0.0588235 0.0588235 0.0588235 0.0588235 0.0588235 0.0588235 0.0588235 0.0588235 0.0588235;
   (orien_6, dist_0, inclin_0, left) 0.0588235 0.0588235 0.0588235 0.0588235 0.0588235 0.0588235 0.0588235 0.0588235 0.0588235 0.0588235 0.0588235 0.0588235 0.0588235 0.0588235 0.0588235 0.0588235 0.0588235;
   (orien_5, dist_0, inclin_0, left) 0.0588235 0.0588235 0.0588235 0.0588235 0.0588235 0.0588235 0.0588235 0.0588235 0.0588235 0.0588235 0.0588235 0.0588235 0.0588235 0.0588235 0.0588235 0.0588235 0.0588235;
   (orien_4, dist_0, inclin_0, left) 0.0588235 0.0588235 0.0588235 0.0588235 0.0588235 0.0588235 0.0588235 0.0588235 0.0588235 0.0588235 0.0588235 0.0588235 0.0588235 0.0588235 0.0588235 0.0588235 0.0588235;
   (orien_3, dist_0, inclin_0, left) 0.0588235 0.0588235 0.0588235 0.0588235 0.0588235 0.0588235 0.0588235 0.0588235 0.0588235 0.0588235 0.0588235 0.0588235 0.0588235 0.0588235 0.0588235 0.0588235 0.0588235;
   (orien_8, dist_0, inclin_0, left) 0.0588235 0.0588235 0.0588235 0.0588235 0.0588235 0.0588235 0.0588235 0.0588235 0.0588235 0.0588235 0.0588235 0.0588235 0.0588235 0.0588235 0.0588235 0.0588235 0.0588235;
   (orien_9, dist_0, inclin_0, left) 0.0588235 0.0588235 0.0588235 0.0588235 0.0588235 0.0588235 0.0588235 0.0588235 0.0588235 0.0588235 0.0588235 0.0588235 0.0588235 0.0588235 0.0588235 0.0588235 0.0588235;
   (orien_10, dist_0, inclin_0, left) 0.0588235 0.0588235 0.0588235 0.0588235 0.0588235 0.0588235 0.0588235 0.0588235 0.0588235 0.0588235 0.0588235 0.0588235 0.0588235 0.0588235 0.0588235 0.0588235 0.0588235;
   (orien_11, dist_0, inclin_0, left) 0.0588235 0.0588235 0.0588235 0.0588235 0.0588235 0.0588235 0.0588235 0.0588235 0.0588235 0.0588235 0.0588235 0.0588235 0.0588235 0.0588235 0.0588235 0.0588235 0.0588235;
   (orien_15, dist_0, inclin_0, left) 0.0588235 0.0588235 0.0588235 0.0588235 0.0588235 0.0588235 0.0588235 0.0588235 0.0588235 0.0588235 0.0588235 0.0588235 0.0588235 0.0588235 0.0588235 0.0588235 0.0588235;
   (orien_14, dist_0, inclin_0, left) 0.0588235 0.0588235 0.0588235 0.0588235 0.0588235 0.0588235 0.0588235 0.0588235 0.0588235 0.0588235 0.0588235 0.0588235 0.0588235 0.0588235 0.0588235 0.0588235 0.0588235;
   (orien_12, dist_0, inclin_0, left) 0.0588235 0.0588235 0.0588235 0.0588235 0.0588235 0.0588235 0.0588235 0.0588235 0.0588235 0.0588235 0.0588235 0.0588235 0.0588235 0.0588235 0.0588235 0.0588235 0.0588235;
   (orien_13, dist_0, inclin_0, left) 0.0588235 0.0588235 0.0588235 0.0588235 0.0588235 0.0588235 0.0588235 0.0588235 0.0588235 0.0588235 0.0588235 0.0588235 0.0588235 0.0588235 0.0588235 0.0588235 0.0588235;
   (orien_2, dist_0, inclin_0, left) 0.0588235 0.0588235 0.0588235 0.0588235 0.0588235 0.0588235 0.0588235 0.0588235 0.0588235 0.0588235 0.0588235 0.0588235 0.0588235 0.0588235 0.0588235 0.0588235 0.0588235;
   (orien_1, dist_0, inclin_0, left) 0.0588235 0.0588235 0.0588235 0.0588235 0.0588235 0.0588235 0.0588235 0.0588235 0.0588235 0.0588235 0.0588235 0.0588235 0.0588235 0.0588235 0.0588235 0.0588235 0.0588235;
   (orien_0, dist_0, inclin_0, left) 0.0588235 0.0588235 0.0588235 0.0588235 0.0588235 0.0588235 0.0588235 0.0588235 0.0588235 0.0588235 0.0588235 0.0588235 0.0588235 0.0588235 0.0588235 0.0588235 0.0588235;
   (orien_7, dist_2, inclin_1, right) 0.1 0.05 0.05 0.15 0.05 0.05 0.05 0.05 0.05 0.05 0.05 0.05 0.05 0.05 0.05 0.05 0.05;
   (orien_6, dist_2, inclin_1, right) 0.05 0.05 0.05 0.15 0.05 0.05 0.05 0.05 0.05 0.05 0.05 0.05 0.05 0.05 0.1 0.05 0.05;
   (orien_5, dist_2, inclin_1, right) 0.0526316 0.0526316 0.0526316 0.105263 0.0526316 0.0526316 0.0526316 0.0526316 0.0526316 0.0526316 0.0526316 0.0526316 0.0526316 0.0526316 0.105263 0.0526316 0.0526316;
   (orien_4, dist_2, inclin_1, right) 0.05 0.05 0.2 0.05 0.05 0.05 0.05 0.05 0.05 0.05 0.05 0.05 0.05 0.05 0.05 0.05 0.05;
   (orien_3, dist_2, inclin_1, right) 0.05 0.05 0.2 0.05 0.05 0.05 0.05 0.05 0.05 0.05 0.05 0.05 0.05 0.05 0.05 0.05 0.05;
   (orien_8, dist_2, inclin_1, right) 0.0952381 0.047619 0.047619 0.142857 0.047619 0.047619 0.0952381 0.047619 0.047619 0.047619 0.047619 0.047619 0.047619 0.047619 0.047619 0.047619 0.047619;
   (orien_9, dist_2, inclin_1, right) 0.0952381 0.047619 0.047619 0.0952381 0.047619 0.047619 0.142857 0.047619 0.047619 0.047619 0.047619 0.047619 0.047619 0.047619 0.047619 0.047619 0.047619;
   (orien_10, dist_2, inclin_1, right) 0.15 0.05 0.05 0.05 0.05 0.05 0.1 0.05 0.05 0.05 0.05 0.05 0.05 0.05 0.05 0.05 0.05;
   (orien_11, dist_2, inclin_1, right) 0.12 0.04 0.04 0.04 0.04 0.04 0.04 0.04 0.04 0.04 0.04 0.04 0.04 0.04 0.28 0.04 0.04;
   (orien_15, dist_2, inclin_1, right) 0.1 0.05 0.05 0.05 0.05 0.05 0.05 0.05 0.05 0.05 0.05 0.05 0.05 0.15 0.05 0.05 0.05;
   (orien_14, dist_2, inclin_1, right) 0.0952381 0.047619 0.047619 0.047619 0.047619 0.047619 0.047619 0.047619 0.047619 0.047619 0.047619 0.0952381 0.047619 0.142857 0.047619 0.047619 0.047619;
   (orien_12, dist_2, inclin_1, right) 0.15 0.05 0.05 0.05 0.05 0.05 0.05 0.05 0.05 0.05 0.05 0.1 0.05 0.05 0.05 0.05 0.05;
   (orien_13, dist_2, inclin_1, right) 0.0952381 0.047619 0.047619 0.047619 0.047619 0.047619 0.047619 0.047619 0.047619 0.047619 0.047619 0.142857 0.047619 0.0952381 0.047619 0.047619 0.047619;
   (orien_2, dist_2, inclin_1, right) 0.05 0.05 0.2 0.05 0.05 0.05 0.05 0.05 0.05 0.05 0.05 0.05 0.05 0.05 0.05 0.05 0.05;
   (orien_1, dist_2, inclin_1, right) 0.0526316 0.0526316 0.0526316 0.0526316 0.0526316 0.0526316 0.0526316 0.0526316 0.0526316 0.0526316 0.0526316 0.0526316 0.0526316 0.105263 0.105263 0.0526316 0.0526316;
   (orien_0, dist_2, inclin_1, right) 0.05 0.05 0.05 0.05 0.05 0.05 0.05 0.05 0.05 0.05 0.05 0.05 0.05 0.15 0.1 0.05 0.05;
   (orien_7, dist_1, inclin_1, right) 0.0588235 0.0588235 0.0588235 0.0588235 0.0588235 0.0588235 0.0588235 0.0588235 0.0588235 0.0588235 0.0588235 0.0588235 0.0588235 0.0588235 0.0588235 0.0588235 0.0588235;
   (orien_6, dist_1, inclin_1, right) 0.0588235 0.0588235 0.0588235 0.0588235 0.0588235 0.0588235 0.0588235 0.0588235 0.0588235 0.0588235 0.0588235 0.0588235 0.0588235 0.0588235 0.0588235 0.0588235 0.0588235;
   (orien_5, dist_1, inclin_1, right) 0.0588235 0.0588235 0.0588235 0.0588235 0.0588235 0.0588235 0.0588235 0.0588235 0.0588235 0.0588235 0.0588235 0.0588235 0.0588235 0.0588235 0.0588235 0.0588235 0.0588235;
   (orien_4, dist_1, inclin_1, right) 0.0588235 0.0588235 0.0588235 0.0588235 0.0588235 0.0588235 0.0588235 0.0588235 0.0588235 0.0588235 0.0588235 0.0588235 0.0588235 0.0588235 0.0588235 0.0588235 0.0588235;
   (orien_3, dist_1, inclin_1, right) 0.0588235 0.0588235 0.0588235 0.0588235 0.0588235 0.0588235 0.0588235 0.0588235 0.0588235 0.0588235 0.0588235 0.0588235 0.0588235 0.0588235 0.0588235 0.0588235 0.0588235;
   (orien_8, dist_1, inclin_1, right) 0.0588235 0.0588235 0.0588235 0.0588235 0.0588235 0.0588235 0.0588235 0.0588235 0.0588235 0.0588235 0.0588235 0.0588235 0.0588235 0.0588235 0.0588235 0.0588235 0.0588235;
   (orien_9, dist_1, inclin_1, right) 0.0588235 0.0588235 0.0588235 0.0588235 0.0588235 0.0588235 0.0588235 0.0588235 0.0588235 0.0588235 0.0588235 0.0588235 0.0588235 0.0588235 0.0588235 0.0588235 0.0588235;
   (orien_10, dist_1, inclin_1, right) 0.0588235 0.0588235 0.0588235 0.0588235 0.0588235 0.0588235 0.0588235 0.0588235 0.0588235 0.0588235 0.0588235 0.0588235 0.0588235 0.0588235 0.0588235 0.0588235 0.0588235;
   (orien_11, dist_1, inclin_1, right) 0.0588235 0.0588235 0.0588235 0.0588235 0.0588235 0.0588235 0.0588235 0.0588235 0.0588235 0.0588235 0.0588235 0.0588235 0.0588235 0.0588235 0.0588235 0.0588235 0.0588235;
   (orien_15, dist_1, inclin_1, right) 0.0588235 0.0588235 0.0588235 0.0588235 0.0588235 0.0588235 0.0588235 0.0588235 0.0588235 0.0588235 0.0588235 0.0588235 0.0588235 0.0588235 0.0588235 0.0588235 0.0588235;
   (orien_14, dist_1, inclin_1, right) 0.0588235 0.0588235 0.0588235 0.0588235 0.0588235 0.0588235 0.0588235 0.0588235 0.0588235 0.0588235 0.0588235 0.0588235 0.0588235 0.0588235 0.0588235 0.0588235 0.0588235;
   (orien_12, dist_1, inclin_1, right) 0.0588235 0.0588235 0.0588235 0.0588235 0.0588235 0.0588235 0.0588235 0.0588235 0.0588235 0.0588235 0.0588235 0.0588235 0.0588235 0.0588235 0.0588235 0.0588235 0.0588235;
   (orien_13, dist_1, inclin_1, right) 0.0588235 0.0588235 0.0588235 0.0588235 0.0588235 0.0588235 0.0588235 0.0588235 0.0588235 0.0588235 0.0588235 0.0588235 0.0588235 0.0588235 0.0588235 0.0588235 0.0588235;
   (orien_2, dist_1, inclin_1, right) 0.0588235 0.0588235 0.0588235 0.0588235 0.0588235 0.0588235 0.0588235 0.0588235 0.0588235 0.0588235 0.0588235 0.0588235 0.0588235 0.0588235 0.0588235 0.0588235 0.0588235;
   (orien_1, dist_1, inclin_1, right) 0.0588235 0.0588235 0.0588235 0.0588235 0.0588235 0.0588235 0.0588235 0.0588235 0.0588235 0.0588235 0.0588235 0.0588235 0.0588235 0.0588235 0.0588235 0.0588235 0.0588235;
   (orien_0, dist_1, inclin_1, right) 0.0588235 0.0588235 0.0588235 0.0588235 0.0588235 0.0588235 0.0588235 0.0588235 0.0588235 0.0588235 0.0588235 0.0588235 0.0588235 0.0588235 0.0588235 0.0588235 0.0588235;
   (orien_7, dist_0, inclin_1, right) 0.0588235 0.0588235 0.0588235 0.0588235 0.0588235 0.0588235 0.0588235 0.0588235 0.0588235 0.0588235 0.0588235 0.0588235 0.0588235 0.0588235 0.0588235 0.0588235 0.0588235;
   (orien_6, dist_0, inclin_1, right) 0.0588235 0.0588235 0.0588235 0.0588235 0.0588235 0.0588235 0.0588235 0.0588235 0.0588235 0.0588235 0.0588235 0.0588235 0.0588235 0.0588235 0.0588235 0.0588235 0.0588235;
   (orien_5, dist_0, inclin_1, right) 0.0588235 0.0588235 0.0588235 0.0588235 0.0588235 0.0588235 0.0588235 0.0588235 0.0588235 0.0588235 0.0588235 0.0588235 0.0588235 0.0588235 0.0588235 0.0588235 0.0588235;
   (orien_4, dist_0, inclin_1, right) 0.0588235 0.0588235 0.0588235 0.0588235 0.0588235 0.0588235 0.0588235 0.0588235 0.0588235 0.0588235 0.0588235 0.0588235 0.0588235 0.0588235 0.0588235 0.0588235 0.0588235;
   (orien_3, dist_0, inclin_1, right) 0.0588235 0.0588235 0.0588235 0.0588235 0.0588235 0.0588235 0.0588235 0.0588235 0.0588235 0.0588235 0.0588235 0.0588235 0.0588235 0.0588235 0.0588235 0.0588235 0.0588235;
   (orien_8, dist_0, inclin_1, right) 0.0588235 0.0588235 0.0588235 0.0588235 0.0588235 0.0588235 0.0588235 0.0588235 0.0588235 0.0588235 0.0588235 0.0588235 0.0588235 0.0588235 0.0588235 0.0588235 0.0588235;
   (orien_9, dist_0, inclin_1, right) 0.0588235 0.0588235 0.0588235 0.0588235 0.0588235 0.0588235 0.0588235 0.0588235 0.0588235 0.0588235 0.0588235 0.0588235 0.0588235 0.0588235 0.0588235 0.0588235 0.0588235;
   (orien_10, dist_0, inclin_1, right) 0.0588235 0.0588235 0.0588235 0.0588235 0.0588235 0.0588235 0.0588235 0.0588235 0.0588235 0.0588235 0.0588235 0.0588235 0.0588235 0.0588235 0.0588235 0.0588235 0.0588235;
   (orien_11, dist_0, inclin_1, right) 0.0588235 0.0588235 0.0588235 0.0588235 0.0588235 0.0588235 0.0588235 0.0588235 0.0588235 0.0588235 0.0588235 0.0588235 0.0588235 0.0588235 0.0588235 0.0588235 0.0588235;
   (orien_15, dist_0, inclin_1, right) 0.0588235 0.0588235 0.0588235 0.0588235 0.0588235 0.0588235 0.0588235 0.0588235 0.0588235 0.0588235 0.0588235 0.0588235 0.0588235 0.0588235 0.0588235 0.0588235 0.0588235;
   (orien_14, dist_0, inclin_1, right) 0.0588235 0.0588235 0.0588235 0.0588235 0.0588235 0.0588235 0.0588235 0.0588235 0.0588235 0.0588235 0.0588235 0.0588235 0.0588235 0.0588235 0.0588235 0.0588235 0.0588235;
   (orien_12, dist_0, inclin_1, right) 0.0588235 0.0588235 0.0588235 0.0588235 0.0588235 0.0588235 0.0588235 0.0588235 0.0588235 0.0588235 0.0588235 0.0588235 0.0588235 0.0588235 0.0588235 0.0588235 0.0588235;
   (orien_13, dist_0, inclin_1, right) 0.0588235 0.0588235 0.0588235 0.0588235 0.0588235 0.0588235 0.0588235 0.0588235 0.0588235 0.0588235 0.0588235 0.0588235 0.0588235 0.0588235 0.0588235 0.0588235 0.0588235;
   (orien_2, dist_0, inclin_1, right) 0.0588235 0.0588235 0.0588235 0.0588235 0.0588235 0.0588235 0.0588235 0.0588235 0.0588235 0.0588235 0.0588235 0.0588235 0.0588235 0.0588235 0.0588235 0.0588235 0.0588235;
   (orien_1, dist_0, inclin_1, right) 0.0588235 0.0588235 0.0588235 0.0588235 0.0588235 0.0588235 0.0588235 0.0588235 0.0588235 0.0588235 0.0588235 0.0588235 0.0588235 0.0588235 0.0588235 0.0588235 0.0588235;
   (orien_0, dist_0, inclin_1, right) 0.0588235 0.0588235 0.0588235 0.0588235 0.0588235 0.0588235 0.0588235 0.0588235 0.0588235 0.0588235 0.0588235 0.0588235 0.0588235 0.0588235 0.0588235 0.0588235 0.0588235;
   (orien_7, dist_2, inclin_2, right) 0.0588235 0.0588235 0.0588235 0.0588235 0.0588235 0.0588235 0.0588235 0.0588235 0.0588235 0.0588235 0.0588235 0.0588235 0.0588235 0.0588235 0.0588235 0.0588235 0.0588235;
   (orien_6, dist_2, inclin_2, right) 0.0588235 0.0588235 0.0588235 0.0588235 0.0588235 0.0588235 0.0588235 0.0588235 0.0588235 0.0588235 0.0588235 0.0588235 0.0588235 0.0588235 0.0588235 0.0588235 0.0588235;
   (orien_5, dist_2, inclin_2, right) 0.0588235 0.0588235 0.0588235 0.0588235 0.0588235 0.0588235 0.0588235 0.0588235 0.0588235 0.0588235 0.0588235 0.0588235 0.0588235 0.0588235 0.0588235 0.0588235 0.0588235;
   (orien_4, dist_2, inclin_2, right) 0.0588235 0.0588235 0.0588235 0.0588235 0.0588235 0.0588235 0.0588235 0.0588235 0.0588235 0.0588235 0.0588235 0.0588235 0.0588235 0.0588235 0.0588235 0.0588235 0.0588235;
   (orien_3, dist_2, inclin_2, right) 0.0588235 0.0588235 0.0588235 0.0588235 0.0588235 0.0588235 0.0588235 0.0588235 0.0588235 0.0588235 0.0588235 0.0588235 0.0588235 0.0588235 0.0588235 0.0588235 0.0588235;
   (orien_8, dist_2, inclin_2, right) 0.0588235 0.0588235 0.0588235 0.0588235 0.0588235 0.0588235 0.0588235 0.0588235 0.0588235 0.0588235 0.0588235 0.0588235 0.0588235 0.0588235 0.0588235 0.0588235 0.0588235;
   (orien_9, dist_2, inclin_2, right) 0.0555556 0.0555556 0.0555556 0.111111 0.0555556 0.0555556 0.0555556 0.0555556 0.0555556 0.0555556 0.0555556 0.0555556 0.0555556 0.0555556 0.0555556 0.0555556 0.0555556;
   (orien_10, dist_2, inclin_2, right) 0.125 0.0416667 0.0416667 0.125 0.0416667 0.0416667 0.166667 0.0416667 0.0416667 0.0416667 0.0416667 0.0416667 0.0416667 0.0416667 0.0416667 0.0416667 0.0416667;
   (orien_11, dist_2, inclin_2, right) 0.136364 0.0454545 0.0454545 0.0454545 0.0454545 0.0454545 0.0454545 0.0454545 0.0454545 0.0454545 0.0454545 0.0454545 0.0454545 0.0454545 0.181818 0.0454545 0.0454545;
   (orien_15, dist_2, inclin_2, right) 0.0588235 0.0588235 0.0588235 0.0588235 0.0588235 0.0588235 0.0588235 0.0588235 0.0588235 0.0588235 0.0588235 0.0588235 0.0588235 0.0588235 0.0588235 0.0588235 0.0588235;
   (orien_14, dist_2, inclin_2, right) 0.0588235 0.0588235 0.0588235 0.0588235 0.0588235 0.0588235 0.0588235 0.0588235 0.0588235 0.0588235 0.0588235 0.0588235 0.0588235 0.0588235 0.0588235 0.0588235 0.0588235;
   (orien_12, dist_2, inclin_2, right) 0.125 0.0416667 0.0416667 0.0416667 0.0416667 0.0416667 0.0416667 0.0416667 0.0416667 0.0416667 0.0416667 0.166667 0.0416667 0.125 0.0416667 0.0416667 0.0416667;
   (orien_13, dist_2, inclin_2, right) 0.0555556 0.0555556 0.0555556 0.0555556 0.0555556 0.0555556 0.0555556 0.0555556 0.0555556 0.0555556 0.0555556 0.0555556 0.0555556 0.111111 0.0555556 0.0555556 0.0555556;
   (orien_2, dist_2, inclin_2, right) 0.0588235 0.0588235 0.0588235 0.0588235 0.0588235 0.0588235 0.0588235 0.0588235 0.0588235 0.0588235 0.0588235 0.0588235 0.0588235 0.0588235 0.0588235 0.0588235 0.0588235;
   (orien_1, dist_2, inclin_2, right) 0.0588235 0.0588235 0.0588235 0.0588235 0.0588235 0.0588235 0.0588235 0.0588235 0.0588235 0.0588235 0.0588235 0.0588235 0.0588235 0.0588235 0.0588235 0.0588235 0.0588235;
   (orien_0, dist_2, inclin_2, right) 0.0588235 0.0588235 0.0588235 0.0588235 0.0588235 0.0588235 0.0588235 0.0588235 0.0588235 0.0588235 0.0588235 0.0588235 0.0588235 0.0588235 0.0588235 0.0588235 0.0588235;
   (orien_7, dist_1, inclin_2, right) 0.0588235 0.0588235 0.0588235 0.0588235 0.0588235 0.0588235 0.0588235 0.0588235 0.0588235 0.0588235 0.0588235 0.0588235 0.0588235 0.0588235 0.0588235 0.0588235 0.0588235;
   (orien_6, dist_1, inclin_2, right) 0.0588235 0.0588235 0.0588235 0.0588235 0.0588235 0.0588235 0.0588235 0.0588235 0.0588235 0.0588235 0.0588235 0.0588235 0.0588235 0.0588235 0.0588235 0.0588235 0.0588235;
   (orien_5, dist_1, inclin_2, right) 0.0588235 0.0588235 0.0588235 0.0588235 0.0588235 0.0588235 0.0588235 0.0588235 0.0588235 0.0588235 0.0588235 0.0588235 0.0588235 0.0588235 0.0588235 0.0588235 0.0588235;
   (orien_4, dist_1, inclin_2, right) 0.0588235 0.0588235 0.0588235 0.0588235 0.0588235 0.0588235 0.0588235 0.0588235 0.0588235 0.0588235 0.0588235 0.0588235 0.0588235 0.0588235 0.0588235 0.0588235 0.0588235;
   (orien_3, dist_1, inclin_2, right) 0.0588235 0.0588235 0.0588235 0.0588235 0.0588235 0.0588235 0.0588235 0.0588235 0.0588235 0.0588235 0.0588235 0.0588235 0.0588235 0.0588235 0.0588235 0.0588235 0.0588235;
   (orien_8, dist_1, inclin_2, right) 0.0588235 0.0588235 0.0588235 0.0588235 0.0588235 0.0588235 0.0588235 0.0588235 0.0588235 0.0588235 0.0588235 0.0588235 0.0588235 0.0588235 0.0588235 0.0588235 0.0588235;
   (orien_9, dist_1, inclin_2, right) 0.0588235 0.0588235 0.0588235 0.0588235 0.0588235 0.0588235 0.0588235 0.0588235 0.0588235 0.0588235 0.0588235 0.0588235 0.0588235 0.0588235 0.0588235 0.0588235 0.0588235;
   (orien_10, dist_1, inclin_2, right) 0.0555556 0.0555556 0.0555556 0.111111 0.0555556 0.0555556 0.0555556 0.0555556 0.0555556 0.0555556 0.0555556 0.0555556 0.0555556 0.0555556 0.0555556 0.0555556 0.0555556;
   (orien_11, dist_1, inclin_2, right) 0.0588235 0.0588235 0.0588235 0.0588235 0.0588235 0.0588235 0.0588235 0.0588235 0.0588235 0.0588235 0.0588235 0.0588235 0.0588235 0.0588235 0.0588235 0.0588235 0.0588235;
   (orien_15, dist_1, inclin_2, right) 0.0588235 0.0588235 0.0588235 0.0588235 0.0588235 0.0588235 0.0588235 0.0588235 0.0588235 0.0588235 0.0588235 0.0588235 0.0588235 0.0588235 0.0588235 0.0588235 0.0588235;
   (orien_14, dist_1, inclin_2, right) 0.0588235 0.0588235 0.0588235 0.0588235 0.0588235 0.0588235 0.0588235 0.0588235 0.0588235 0.0588235 0.0588235 0.0588235 0.0588235 0.0588235 0.0588235 0.0588235 0.0588235;
   (orien_12, dist_1, inclin_2, right) 0.0555556 0.0555556 0.0555556 0.0555556 0.0555556 0.0555556 0.0555556 0.0555556 0.0555556 0.0555556 0.0555556 0.0555556 0.0555556 0.111111 0.0555556 0.0555556 0.0555556;
   (orien_13, dist_1, inclin_2, right) 0.0588235 0.0588235 0.0588235 0.0588235 0.0588235 0.0588235 0.0588235 0.0588235 0.0588235 0.0588235 0.0588235 0.0588235 0.0588235 0.0588235 0.0588235 0.0588235 0.0588235;
   (orien_2, dist_1, inclin_2, right) 0.0588235 0.0588235 0.0588235 0.0588235 0.0588235 0.0588235 0.0588235 0.0588235 0.0588235 0.0588235 0.0588235 0.0588235 0.0588235 0.0588235 0.0588235 0.0588235 0.0588235;
   (orien_1, dist_1, inclin_2, right) 0.0588235 0.0588235 0.0588235 0.0588235 0.0588235 0.0588235 0.0588235 0.0588235 0.0588235 0.0588235 0.0588235 0.0588235 0.0588235 0.0588235 0.0588235 0.0588235 0.0588235;
   (orien_0, dist_1, inclin_2, right) 0.0588235 0.0588235 0.0588235 0.0588235 0.0588235 0.0588235 0.0588235 0.0588235 0.0588235 0.0588235 0.0588235 0.0588235 0.0588235 0.0588235 0.0588235 0.0588235 0.0588235;
   (orien_7, dist_0, inclin_2, right) 0.0588235 0.0588235 0.0588235 0.0588235 0.0588235 0.0588235 0.0588235 0.0588235 0.0588235 0.0588235 0.0588235 0.0588235 0.0588235 0.0588235 0.0588235 0.0588235 0.0588235;
   (orien_6, dist_0, inclin_2, right) 0.0588235 0.0588235 0.0588235 0.0588235 0.0588235 0.0588235 0.0588235 0.0588235 0.0588235 0.0588235 0.0588235 0.0588235 0.0588235 0.0588235 0.0588235 0.0588235 0.0588235;
   (orien_5, dist_0, inclin_2, right) 0.0588235 0.0588235 0.0588235 0.0588235 0.0588235 0.0588235 0.0588235 0.0588235 0.0588235 0.0588235 0.0588235 0.0588235 0.0588235 0.0588235 0.0588235 0.0588235 0.0588235;
   (orien_4, dist_0, inclin_2, right) 0.0588235 0.0588235 0.0588235 0.0588235 0.0588235 0.0588235 0.0588235 0.0588235 0.0588235 0.0588235 0.0588235 0.0588235 0.0588235 0.0588235 0.0588235 0.0588235 0.0588235;
   (orien_3, dist_0, inclin_2, right) 0.0588235 0.0588235 0.0588235 0.0588235 0.0588235 0.0588235 0.0588235 0.0588235 0.0588235 0.0588235 0.0588235 0.0588235 0.0588235 0.0588235 0.0588235 0.0588235 0.0588235;
   (orien_8, dist_0, inclin_2, right) 0.0588235 0.0588235 0.0588235 0.0588235 0.0588235 0.0588235 0.0588235 0.0588235 0.0588235 0.0588235 0.0588235 0.0588235 0.0588235 0.0588235 0.0588235 0.0588235 0.0588235;
   (orien_9, dist_0, inclin_2, right) 0.0588235 0.0588235 0.0588235 0.0588235 0.0588235 0.0588235 0.0588235 0.0588235 0.0588235 0.0588235 0.0588235 0.0588235 0.0588235 0.0588235 0.0588235 0.0588235 0.0588235;
   (orien_10, dist_0, inclin_2, right) 0.0588235 0.0588235 0.0588235 0.0588235 0.0588235 0.0588235 0.0588235 0.0588235 0.0588235 0.0588235 0.0588235 0.0588235 0.0588235 0.0588235 0.0588235 0.0588235 0.0588235;
   (orien_11, dist_0, inclin_2, right) 0.0588235 0.0588235 0.0588235 0.0588235 0.0588235 0.0588235 0.0588235 0.0588235 0.0588235 0.0588235 0.0588235 0.0588235 0.0588235 0.0588235 0.0588235 0.0588235 0.0588235;
   (orien_15, dist_0, inclin_2, right) 0.0588235 0.0588235 0.0588235 0.0588235 0.0588235 0.0588235 0.0588235 0.0588235 0.0588235 0.0588235 0.0588235 0.0588235 0.0588235 0.0588235 0.0588235 0.0588235 0.0588235;
   (orien_14, dist_0, inclin_2, right) 0.0588235 0.0588235 0.0588235 0.0588235 0.0588235 0.0588235 0.0588235 0.0588235 0.0588235 0.0588235 0.0588235 0.0588235 0.0588235 0.0588235 0.0588235 0.0588235 0.0588235;
   (orien_12, dist_0, inclin_2, right) 0.0588235 0.0588235 0.0588235 0.0588235 0.0588235 0.0588235 0.0588235 0.0588235 0.0588235 0.0588235 0.0588235 0.0588235 0.0588235 0.0588235 0.0588235 0.0588235 0.0588235;
   (orien_13, dist_0, inclin_2, right) 0.0588235 0.0588235 0.0588235 0.0588235 0.0588235 0.0588235 0.0588235 0.0588235 0.0588235 0.0588235 0.0588235 0.0588235 0.0588235 0.0588235 0.0588235 0.0588235 0.0588235;
   (orien_2, dist_0, inclin_2, right) 0.0588235 0.0588235 0.0588235 0.0588235 0.0588235 0.0588235 0.0588235 0.0588235 0.0588235 0.0588235 0.0588235 0.0588235 0.0588235 0.0588235 0.0588235 0.0588235 0.0588235;
   (orien_1, dist_0, inclin_2, right) 0.0588235 0.0588235 0.0588235 0.0588235 0.0588235 0.0588235 0.0588235 0.0588235 0.0588235 0.0588235 0.0588235 0.0588235 0.0588235 0.0588235 0.0588235 0.0588235 0.0588235;
   (orien_0, dist_0, inclin_2, right) 0.0588235 0.0588235 0.0588235 0.0588235 0.0588235 0.0588235 0.0588235 0.0588235 0.0588235 0.0588235 0.0588235 0.0588235 0.0588235 0.0588235 0.0588235 0.0588235 0.0588235;
   (orien_7, dist_2, inclin_4, right) 0.0588235 0.0588235 0.0588235 0.0588235 0.0588235 0.0588235 0.0588235 0.0588235 0.0588235 0.0588235 0.0588235 0.0588235 0.0588235 0.0588235 0.0588235 0.0588235 0.0588235;
   (orien_6, dist_2, inclin_4, right) 0.0588235 0.0588235 0.0588235 0.0588235 0.0588235 0.0588235 0.0588235 0.0588235 0.0588235 0.0588235 0.0588235 0.0588235 0.0588235 0.0588235 0.0588235 0.0588235 0.0588235;
   (orien_5, dist_2, inclin_4, right) 0.0588235 0.0588235 0.0588235 0.0588235 0.0588235 0.0588235 0.0588235 0.0588235 0.0588235 0.0588235 0.0588235 0.0588235 0.0588235 0.0588235 0.0588235 0.0588235 0.0588235;
   (orien_4, dist_2, inclin_4, right) 0.0588235 0.0588235 0.0588235 0.0588235 0.0588235 0.0588235 0.0588235 0.0588235 0.0588235 0.0588235 0.0588235 0.0588235 0.0588235 0.0588235 0.0588235 0.0588235 0.0588235;
   (orien_3, dist_2, inclin_4, right) 0.0588235 0.0588235 0.0588235 0.0588235 0.0588235 0.0588235 0.0588235 0.0588235 0.0588235 0.0588235 0.0588235 0.0588235 0.0588235 0.0588235 0.0588235 0.0588235 0.0588235;
   (orien_8, dist_2, inclin_4, right) 0.0588235 0.0588235 0.0588235 0.0588235 0.0588235 0.0588235 0.0588235 0.0588235 0.0588235 0.0588235 0.0588235 0.0588235 0.0588235 0.0588235 0.0588235 0.0588235 0.0588235;
   (orien_9, dist_2, inclin_4, right) 0.0588235 0.0588235 0.0588235 0.0588235 0.0588235 0.0588235 0.0588235 0.0588235 0.0588235 0.0588235 0.0588235 0.0588235 0.0588235 0.0588235 0.0588235 0.0588235 0.0588235;
   (orien_10, dist_2, inclin_4, right) 0.0588235 0.0588235 0.0588235 0.0588235 0.0588235 0.0588235 0.0588235 0.0588235 0.0588235 0.0588235 0.0588235 0.0588235 0.0588235 0.0588235 0.0588235 0.0588235 0.0588235;
   (orien_11, dist_2, inclin_4, right) 0.027027 0.027027 0.027027 0.027027 0.567568 0.027027 0.027027 0.027027 0.027027 0.027027 0.027027 0.027027 0.027027 0.027027 0.027027 0.027027 0.027027;
   (orien_15, dist_2, inclin_4, right) 0.0588235 0.0588235 0.0588235 0.0588235 0.0588235 0.0588235 0.0588235 0.0588235 0.0588235 0.0588235 0.0588235 0.0588235 0.0588235 0.0588235 0.0588235 0.0588235 0.0588235;
   (orien_14, dist_2, inclin_4, right) 0.0588235 0.0588235 0.0588235 0.0588235 0.0588235 0.0588235 0.0588235 0.0588235 0.0588235 0.0588235 0.0588235 0.0588235 0.0588235 0.0588235 0.0588235 0.0588235 0.0588235;
   (orien_12, dist_2, inclin_4, right) 0.0588235 0.0588235 0.0588235 0.0588235 0.0588235 0.0588235 0.0588235 0.0588235 0.0588235 0.0588235 0.0588235 0.0588235 0.0588235 0.0588235 0.0588235 0.0588235 0.0588235;
   (orien_13, dist_2, inclin_4, right) 0.0588235 0.0588235 0.0588235 0.0588235 0.0588235 0.0588235 0.0588235 0.0588235 0.0588235 0.0588235 0.0588235 0.0588235 0.0588235 0.0588235 0.0588235 0.0588235 0.0588235;
   (orien_2, dist_2, inclin_4, right) 0.0588235 0.0588235 0.0588235 0.0588235 0.0588235 0.0588235 0.0588235 0.0588235 0.0588235 0.0588235 0.0588235 0.0588235 0.0588235 0.0588235 0.0588235 0.0588235 0.0588235;
   (orien_1, dist_2, inclin_4, right) 0.0588235 0.0588235 0.0588235 0.0588235 0.0588235 0.0588235 0.0588235 0.0588235 0.0588235 0.0588235 0.0588235 0.0588235 0.0588235 0.0588235 0.0588235 0.0588235 0.0588235;
   (orien_0, dist_2, inclin_4, right) 0.0588235 0.0588235 0.0588235 0.0588235 0.0588235 0.0588235 0.0588235 0.0588235 0.0588235 0.0588235 0.0588235 0.0588235 0.0588235 0.0588235 0.0588235 0.0588235 0.0588235;
   (orien_7, dist_1, inclin_4, right) 0.0588235 0.0588235 0.0588235 0.0588235 0.0588235 0.0588235 0.0588235 0.0588235 0.0588235 0.0588235 0.0588235 0.0588235 0.0588235 0.0588235 0.0588235 0.0588235 0.0588235;
   (orien_6, dist_1, inclin_4, right) 0.0588235 0.0588235 0.0588235 0.0588235 0.0588235 0.0588235 0.0588235 0.0588235 0.0588235 0.0588235 0.0588235 0.0588235 0.0588235 0.0588235 0.0588235 0.0588235 0.0588235;
   (orien_5, dist_1, inclin_4, right) 0.0588235 0.0588235 0.0588235 0.0588235 0.0588235 0.0588235 0.0588235 0.0588235 0.0588235 0.0588235 0.0588235 0.0588235 0.0588235 0.0588235 0.0588235 0.0588235 0.0588235;
   (orien_4, dist_1, inclin_4, right) 0.0588235 0.0588235 0.0588235 0.0588235 0.0588235 0.0588235 0.0588235 0.0588235 0.0588235 0.0588235 0.0588235 0.0588235 0.0588235 0.0588235 0.0588235 0.0588235 0.0588235;
   (orien_3, dist_1, inclin_4, right) 0.0588235 0.0588235 0.0588235 0.0588235 0.0588235 0.0588235 0.0588235 0.0588235 0.0588235 0.0588235 0.0588235 0.0588235 0.0588235 0.0588235 0.0588235 0.0588235 0.0588235;
   (orien_8, dist_1, inclin_4, right) 0.0588235 0.0588235 0.0588235 0.0588235 0.0588235 0.0588235 0.0588235 0.0588235 0.0588235 0.0588235 0.0588235 0.0588235 0.0588235 0.0588235 0.0588235 0.0588235 0.0588235;
   (orien_9, dist_1, inclin_4, right) 0.0588235 0.0588235 0.0588235 0.0588235 0.0588235 0.0588235 0.0588235 0.0588235 0.0588235 0.0588235 0.0588235 0.0588235 0.0588235 0.0588235 0.0588235 0.0588235 0.0588235;
   (orien_10, dist_1, inclin_4, right) 0.0588235 0.0588235 0.0588235 0.0588235 0.0588235 0.0588235 0.0588235 0.0588235 0.0588235 0.0588235 0.0588235 0.0588235 0.0588235 0.0588235 0.0588235 0.0588235 0.0588235;
   (orien_11, dist_1, inclin_4, right) 0.0204082 0.0204082 0.0204082 0.0204082 0.673469 0.0204082 0.0204082 0.0204082 0.0204082 0.0204082 0.0204082 0.0204082 0.0204082 0.0204082 0.0204082 0.0204082 0.0204082;
   (orien_15, dist_1, inclin_4, right) 0.0588235 0.0588235 0.0588235 0.0588235 0.0588235 0.0588235 0.0588235 0.0588235 0.0588235 0.0588235 0.0588235 0.0588235 0.0588235 0.0588235 0.0588235 0.0588235 0.0588235;
   (orien_14, dist_1, inclin_4, right) 0.0588235 0.0588235 0.0588235 0.0588235 0.0588235 0.0588235 0.0588235 0.0588235 0.0588235 0.0588235 0.0588235 0.0588235 0.0588235 0.0588235 0.0588235 0.0588235 0.0588235;
   (orien_12, dist_1, inclin_4, right) 0.0588235 0.0588235 0.0588235 0.0588235 0.0588235 0.0588235 0.0588235 0.0588235 0.0588235 0.0588235 0.0588235 0.0588235 0.0588235 0.0588235 0.0588235 0.0588235 0.0588235;
   (orien_13, dist_1, inclin_4, right) 0.0588235 0.0588235 0.0588235 0.0588235 0.0588235 0.0588235 0.0588235 0.0588235 0.0588235 0.0588235 0.0588235 0.0588235 0.0588235 0.0588235 0.0588235 0.0588235 0.0588235;
   (orien_2, dist_1, inclin_4, right) 0.0588235 0.0588235 0.0588235 0.0588235 0.0588235 0.0588235 0.0588235 0.0588235 0.0588235 0.0588235 0.0588235 0.0588235 0.0588235 0.0588235 0.0588235 0.0588235 0.0588235;
   (orien_1, dist_1, inclin_4, right) 0.0588235 0.0588235 0.0588235 0.0588235 0.0588235 0.0588235 0.0588235 0.0588235 0.0588235 0.0588235 0.0588235 0.0588235 0.0588235 0.0588235 0.0588235 0.0588235 0.0588235;
   (orien_0, dist_1, inclin_4, right) 0.0588235 0.0588235 0.0588235 0.0588235 0.0588235 0.0588235 0.0588235 0.0588235 0.0588235 0.0588235 0.0588235 0.0588235 0.0588235 0.0588235 0.0588235 0.0588235 0.0588235;
   (orien_7, dist_0, inclin_4, right) 0.0588235 0.0588235 0.0588235 0.0588235 0.0588235 0.0588235 0.0588235 0.0588235 0.0588235 0.0588235 0.0588235 0.0588235 0.0588235 0.0588235 0.0588235 0.0588235 0.0588235;
   (orien_6, dist_0, inclin_4, right) 0.0588235 0.0588235 0.0588235 0.0588235 0.0588235 0.0588235 0.0588235 0.0588235 0.0588235 0.0588235 0.0588235 0.0588235 0.0588235 0.0588235 0.0588235 0.0588235 0.0588235;
   (orien_5, dist_0, inclin_4, right) 0.0588235 0.0588235 0.0588235 0.0588235 0.0588235 0.0588235 0.0588235 0.0588235 0.0588235 0.0588235 0.0588235 0.0588235 0.0588235 0.0588235 0.0588235 0.0588235 0.0588235;
   (orien_4, dist_0, inclin_4, right) 0.0588235 0.0588235 0.0588235 0.0588235 0.0588235 0.0588235 0.0588235 0.0588235 0.0588235 0.0588235 0.0588235 0.0588235 0.0588235 0.0588235 0.0588235 0.0588235 0.0588235;
   (orien_3, dist_0, inclin_4, right) 0.0588235 0.0588235 0.0588235 0.0588235 0.0588235 0.0588235 0.0588235 0.0588235 0.0588235 0.0588235 0.0588235 0.0588235 0.0588235 0.0588235 0.0588235 0.0588235 0.0588235;
   (orien_8, dist_0, inclin_4, right) 0.0588235 0.0588235 0.0588235 0.0588235 0.0588235 0.0588235 0.0588235 0.0588235 0.0588235 0.0588235 0.0588235 0.0588235 0.0588235 0.0588235 0.0588235 0.0588235 0.0588235;
   (orien_9, dist_0, inclin_4, right) 0.0588235 0.0588235 0.0588235 0.0588235 0.0588235 0.0588235 0.0588235 0.0588235 0.0588235 0.0588235 0.0588235 0.0588235 0.0588235 0.0588235 0.0588235 0.0588235 0.0588235;
   (orien_10, dist_0, inclin_4, right) 0.0588235 0.0588235 0.0588235 0.0588235 0.0588235 0.0588235 0.0588235 0.0588235 0.0588235 0.0588235 0.0588235 0.0588235 0.0588235 0.0588235 0.0588235 0.0588235 0.0588235;
   (orien_11, dist_0, inclin_4, right) 0.030303 0.030303 0.030303 0.030303 0.515152 0.030303 0.030303 0.030303 0.030303 0.030303 0.030303 0.030303 0.030303 0.030303 0.030303 0.030303 0.030303;
   (orien_15, dist_0, inclin_4, right) 0.0588235 0.0588235 0.0588235 0.0588235 0.0588235 0.0588235 0.0588235 0.0588235 0.0588235 0.0588235 0.0588235 0.0588235 0.0588235 0.0588235 0.0588235 0.0588235 0.0588235;
   (orien_14, dist_0, inclin_4, right) 0.0588235 0.0588235 0.0588235 0.0588235 0.0588235 0.0588235 0.0588235 0.0588235 0.0588235 0.0588235 0.0588235 0.0588235 0.0588235 0.0588235 0.0588235 0.0588235 0.0588235;
   (orien_12, dist_0, inclin_4, right) 0.0588235 0.0588235 0.0588235 0.0588235 0.0588235 0.0588235 0.0588235 0.0588235 0.0588235 0.0588235 0.0588235 0.0588235 0.0588235 0.0588235 0.0588235 0.0588235 0.0588235;
   (orien_13, dist_0, inclin_4, right) 0.0588235 0.0588235 0.0588235 0.0588235 0.0588235 0.0588235 0.0588235 0.0588235 0.0588235 0.0588235 0.0588235 0.0588235 0.0588235 0.0588235 0.0588235 0.0588235 0.0588235;
   (orien_2, dist_0, inclin_4, right) 0.0588235 0.0588235 0.0588235 0.0588235 0.0588235 0.0588235 0.0588235 0.0588235 0.0588235 0.0588235 0.0588235 0.0588235 0.0588235 0.0588235 0.0588235 0.0588235 0.0588235;
   (orien_1, dist_0, inclin_4, right) 0.0588235 0.0588235 0.0588235 0.0588235 0.0588235 0.0588235 0.0588235 0.0588235 0.0588235 0.0588235 0.0588235 0.0588235 0.0588235 0.0588235 0.0588235 0.0588235 0.0588235;
   (orien_0, dist_0, inclin_4, right) 0.0588235 0.0588235 0.0588235 0.0588235 0.0588235 0.0588235 0.0588235 0.0588235 0.0588235 0.0588235 0.0588235 0.0588235 0.0588235 0.0588235 0.0588235 0.0588235 0.0588235;
   (orien_7, dist_2, inclin_3, right) 0.0588235 0.0588235 0.0588235 0.0588235 0.0588235 0.0588235 0.0588235 0.0588235 0.0588235 0.0588235 0.0588235 0.0588235 0.0588235 0.0588235 0.0588235 0.0588235 0.0588235;
   (orien_6, dist_2, inclin_3, right) 0.0588235 0.0588235 0.0588235 0.0588235 0.0588235 0.0588235 0.0588235 0.0588235 0.0588235 0.0588235 0.0588235 0.0588235 0.0588235 0.0588235 0.0588235 0.0588235 0.0588235;
   (orien_5, dist_2, inclin_3, right) 0.0588235 0.0588235 0.0588235 0.0588235 0.0588235 0.0588235 0.0588235 0.0588235 0.0588235 0.0588235 0.0588235 0.0588235 0.0588235 0.0588235 0.0588235 0.0588235 0.0588235;
   (orien_4, dist_2, inclin_3, right) 0.0588235 0.0588235 0.0588235 0.0588235 0.0588235 0.0588235 0.0588235 0.0588235 0.0588235 0.0588235 0.0588235 0.0588235 0.0588235 0.0588235 0.0588235 0.0588235 0.0588235;
   (orien_3, dist_2, inclin_3, right) 0.0588235 0.0588235 0.0588235 0.0588235 0.0588235 0.0588235 0.0588235 0.0588235 0.0588235 0.0588235 0.0588235 0.0588235 0.0588235 0.0588235 0.0588235 0.0588235 0.0588235;
   (orien_8, dist_2, inclin_3, right) 0.0588235 0.0588235 0.0588235 0.0588235 0.0588235 0.0588235 0.0588235 0.0588235 0.0588235 0.0588235 0.0588235 0.0588235 0.0588235 0.0588235 0.0588235 0.0588235 0.0588235;
   (orien_9, dist_2, inclin_3, right) 0.0588235 0.0588235 0.0588235 0.0588235 0.0588235 0.0588235 0.0588235 0.0588235 0.0588235 0.0588235 0.0588235 0.0588235 0.0588235 0.0588235 0.0588235 0.0588235 0.0588235;
   (orien_10, dist_2, inclin_3, right) 0.0555556 0.0555556 0.0555556 0.0555556 0.0555556 0.0555556 0.111111 0.0555556 0.0555556 0.0555556 0.0555556 0.0555556 0.0555556 0.0555556 0.0555556 0.0555556 0.0555556;
   (orien_11, dist_2, inclin_3, right) 0.222222 0.037037 0.037037 0.037037 0.185185 0.037037 0.037037 0.037037 0.0740741 0.037037 0.037037 0.037037 0.037037 0.037037 0.037037 0.037037 0.037037;
   (orien_15, dist_2, inclin_3, right) 0.0588235 0.0588235 0.0588235 0.0588235 0.0588235 0.0588235 0.0588235 0.0588235 0.0588235 0.0588235 0.0588235 0.0588235 0.0588235 0.0588235 0.0588235 0.0588235 0.0588235;
   (orien_14, dist_2, inclin_3, right) 0.0588235 0.0588235 0.0588235 0.0588235 0.0588235 0.0588235 0.0588235 0.0588235 0.0588235 0.0588235 0.0588235 0.0588235 0.0588235 0.0588235 0.0588235 0.0588235 0.0588235;
   (orien_12, dist_2, inclin_3, right) 0.0555556 0.0555556 0.0555556 0.0555556 0.0555556 0.0555556 0.0555556 0.0555556 0.0555556 0.0555556 0.0555556 0.111111 0.0555556 0.0555556 0.0555556 0.0555556 0.0555556;
   (orien_13, dist_2, inclin_3, right) 0.0588235 0.0588235 0.0588235 0.0588235 0.0588235 0.0588235 0.0588235 0.0588235 0.0588235 0.0588235 0.0588235 0.0588235 0.0588235 0.0588235 0.0588235 0.0588235 0.0588235;
   (orien_2, dist_2, inclin_3, right) 0.0588235 0.0588235 0.0588235 0.0588235 0.0588235 0.0588235 0.0588235 0.0588235 0.0588235 0.0588235 0.0588235 0.0588235 0.0588235 0.0588235 0.0588235 0.0588235 0.0588235;
   (orien_1, dist_2, inclin_3, right) 0.0588235 0.0588235 0.0588235 0.0588235 0.0588235 0.0588235 0.0588235 0.0588235 0.0588235 0.0588235 0.0588235 0.0588235 0.0588235 0.0588235 0.0588235 0.0588235 0.0588235;
   (orien_0, dist_2, inclin_3, right) 0.0588235 0.0588235 0.0588235 0.0588235 0.0588235 0.0588235 0.0588235 0.0588235 0.0588235 0.0588235 0.0588235 0.0588235 0.0588235 0.0588235 0.0588235 0.0588235 0.0588235;
   (orien_7, dist_1, inclin_3, right) 0.0588235 0.0588235 0.0588235 0.0588235 0.0588235 0.0588235 0.0588235 0.0588235 0.0588235 0.0588235 0.0588235 0.0588235 0.0588235 0.0588235 0.0588235 0.0588235 0.0588235;
   (orien_6, dist_1, inclin_3, right) 0.0588235 0.0588235 0.0588235 0.0588235 0.0588235 0.0588235 0.0588235 0.0588235 0.0588235 0.0588235 0.0588235 0.0588235 0.0588235 0.0588235 0.0588235 0.0588235 0.0588235;
   (orien_5, dist_1, inclin_3, right) 0.0588235 0.0588235 0.0588235 0.0588235 0.0588235 0.0588235 0.0588235 0.0588235 0.0588235 0.0588235 0.0588235 0.0588235 0.0588235 0.0588235 0.0588235 0.0588235 0.0588235;
   (orien_4, dist_1, inclin_3, right) 0.0588235 0.0588235 0.0588235 0.0588235 0.0588235 0.0588235 0.0588235 0.0588235 0.0588235 0.0588235 0.0588235 0.0588235 0.0588235 0.0588235 0.0588235 0.0588235 0.0588235;
   (orien_3, dist_1, inclin_3, right) 0.0588235 0.0588235 0.0588235 0.0588235 0.0588235 0.0588235 0.0588235 0.0588235 0.0588235 0.0588235 0.0588235 0.0588235 0.0588235 0.0588235 0.0588235 0.0588235 0.0588235;
   (orien_8, dist_1, inclin_3, right) 0.0588235 0.0588235 0.0588235 0.0588235 0.0588235 0.0588235 0.0588235 0.0588235 0.0588235 0.0588235 0.0588235 0.0588235 0.0588235 0.0588235 0.0588235 0.0588235 0.0588235;
   (orien_9, dist_1, inclin_3, right) 0.0588235 0.0588235 0.0588235 0.0588235 0.0588235 0.0588235 0.0588235 0.0588235 0.0588235 0.0588235 0.0588235 0.0588235 0.0588235 0.0588235 0.0588235 0.0588235 0.0588235;
   (orien_10, dist_1, inclin_3, right) 0.0588235 0.0588235 0.0588235 0.0588235 0.0588235 0.0588235 0.0588235 0.0588235 0.0588235 0.0588235 0.0588235 0.0588235 0.0588235 0.0588235 0.0588235 0.0588235 0.0588235;
   (orien_11, dist_1, inclin_3, right) 0.0588235 0.0588235 0.0588235 0.0588235 0.0588235 0.0588235 0.0588235 0.0588235 0.0588235 0.0588235 0.0588235 0.0588235 0.0588235 0.0588235 0.0588235 0.0588235 0.0588235;
   (orien_15, dist_1, inclin_3, right) 0.0588235 0.0588235 0.0588235 0.0588235 0.0588235 0.0588235 0.0588235 0.0588235 0.0588235 0.0588235 0.0588235 0.0588235 0.0588235 0.0588235 0.0588235 0.0588235 0.0588235;
   (orien_14, dist_1, inclin_3, right) 0.0588235 0.0588235 0.0588235 0.0588235 0.0588235 0.0588235 0.0588235 0.0588235 0.0588235 0.0588235 0.0588235 0.0588235 0.0588235 0.0588235 0.0588235 0.0588235 0.0588235;
   (orien_12, dist_1, inclin_3, right) 0.0588235 0.0588235 0.0588235 0.0588235 0.0588235 0.0588235 0.0588235 0.0588235 0.0588235 0.0588235 0.0588235 0.0588235 0.0588235 0.0588235 0.0588235 0.0588235 0.0588235;
   (orien_13, dist_1, inclin_3, right) 0.0588235 0.0588235 0.0588235 0.0588235 0.0588235 0.0588235 0.0588235 0.0588235 0.0588235 0.0588235 0.0588235 0.0588235 0.0588235 0.0588235 0.0588235 0.0588235 0.0588235;
   (orien_2, dist_1, inclin_3, right) 0.0588235 0.0588235 0.0588235 0.0588235 0.0588235 0.0588235 0.0588235 0.0588235 0.0588235 0.0588235 0.0588235 0.0588235 0.0588235 0.0588235 0.0588235 0.0588235 0.0588235;
   (orien_1, dist_1, inclin_3, right) 0.0588235 0.0588235 0.0588235 0.0588235 0.0588235 0.0588235 0.0588235 0.0588235 0.0588235 0.0588235 0.0588235 0.0588235 0.0588235 0.0588235 0.0588235 0.0588235 0.0588235;
   (orien_0, dist_1, inclin_3, right) 0.0588235 0.0588235 0.0588235 0.0588235 0.0588235 0.0588235 0.0588235 0.0588235 0.0588235 0.0588235 0.0588235 0.0588235 0.0588235 0.0588235 0.0588235 0.0588235 0.0588235;
   (orien_7, dist_0, inclin_3, right) 0.0588235 0.0588235 0.0588235 0.0588235 0.0588235 0.0588235 0.0588235 0.0588235 0.0588235 0.0588235 0.0588235 0.0588235 0.0588235 0.0588235 0.0588235 0.0588235 0.0588235;
   (orien_6, dist_0, inclin_3, right) 0.0588235 0.0588235 0.0588235 0.0588235 0.0588235 0.0588235 0.0588235 0.0588235 0.0588235 0.0588235 0.0588235 0.0588235 0.0588235 0.0588235 0.0588235 0.0588235 0.0588235;
   (orien_5, dist_0, inclin_3, right) 0.0588235 0.0588235 0.0588235 0.0588235 0.0588235 0.0588235 0.0588235 0.0588235 0.0588235 0.0588235 0.0588235 0.0588235 0.0588235 0.0588235 0.0588235 0.0588235 0.0588235;
   (orien_4, dist_0, inclin_3, right) 0.0588235 0.0588235 0.0588235 0.0588235 0.0588235 0.0588235 0.0588235 0.0588235 0.0588235 0.0588235 0.0588235 0.0588235 0.0588235 0.0588235 0.0588235 0.0588235 0.0588235;
   (orien_3, dist_0, inclin_3, right) 0.0588235 0.0588235 0.0588235 0.0588235 0.0588235 0.0588235 0.0588235 0.0588235 0.0588235 0.0588235 0.0588235 0.0588235 0.0588235 0.0588235 0.0588235 0.0588235 0.0588235;
   (orien_8, dist_0, inclin_3, right) 0.0588235 0.0588235 0.0588235 0.0588235 0.0588235 0.0588235 0.0588235 0.0588235 0.0588235 0.0588235 0.0588235 0.0588235 0.0588235 0.0588235 0.0588235 0.0588235 0.0588235;
   (orien_9, dist_0, inclin_3, right) 0.0588235 0.0588235 0.0588235 0.0588235 0.0588235 0.0588235 0.0588235 0.0588235 0.0588235 0.0588235 0.0588235 0.0588235 0.0588235 0.0588235 0.0588235 0.0588235 0.0588235;
   (orien_10, dist_0, inclin_3, right) 0.0588235 0.0588235 0.0588235 0.0588235 0.0588235 0.0588235 0.0588235 0.0588235 0.0588235 0.0588235 0.0588235 0.0588235 0.0588235 0.0588235 0.0588235 0.0588235 0.0588235;
   (orien_11, dist_0, inclin_3, right) 0.0588235 0.0588235 0.0588235 0.0588235 0.0588235 0.0588235 0.0588235 0.0588235 0.0588235 0.0588235 0.0588235 0.0588235 0.0588235 0.0588235 0.0588235 0.0588235 0.0588235;
   (orien_15, dist_0, inclin_3, right) 0.0588235 0.0588235 0.0588235 0.0588235 0.0588235 0.0588235 0.0588235 0.0588235 0.0588235 0.0588235 0.0588235 0.0588235 0.0588235 0.0588235 0.0588235 0.0588235 0.0588235;
   (orien_14, dist_0, inclin_3, right) 0.0588235 0.0588235 0.0588235 0.0588235 0.0588235 0.0588235 0.0588235 0.0588235 0.0588235 0.0588235 0.0588235 0.0588235 0.0588235 0.0588235 0.0588235 0.0588235 0.0588235;
   (orien_12, dist_0, inclin_3, right) 0.0588235 0.0588235 0.0588235 0.0588235 0.0588235 0.0588235 0.0588235 0.0588235 0.0588235 0.0588235 0.0588235 0.0588235 0.0588235 0.0588235 0.0588235 0.0588235 0.0588235;
   (orien_13, dist_0, inclin_3, right) 0.0588235 0.0588235 0.0588235 0.0588235 0.0588235 0.0588235 0.0588235 0.0588235 0.0588235 0.0588235 0.0588235 0.0588235 0.0588235 0.0588235 0.0588235 0.0588235 0.0588235;
   (orien_2, dist_0, inclin_3, right) 0.0588235 0.0588235 0.0588235 0.0588235 0.0588235 0.0588235 0.0588235 0.0588235 0.0588235 0.0588235 0.0588235 0.0588235 0.0588235 0.0588235 0.0588235 0.0588235 0.0588235;
   (orien_1, dist_0, inclin_3, right) 0.0588235 0.0588235 0.0588235 0.0588235 0.0588235 0.0588235 0.0588235 0.0588235 0.0588235 0.0588235 0.0588235 0.0588235 0.0588235 0.0588235 0.0588235 0.0588235 0.0588235;
   (orien_0, dist_0, inclin_3, right) 0.0588235 0.0588235 0.0588235 0.0588235 0.0588235 0.0588235 0.0588235 0.0588235 0.0588235 0.0588235 0.0588235 0.0588235 0.0588235 0.0588235 0.0588235 0.0588235 0.0588235;
   (orien_7, dist_2, inclin_0, right) 0.0588235 0.0588235 0.0588235 0.0588235 0.0588235 0.0588235 0.0588235 0.0588235 0.0588235 0.0588235 0.0588235 0.0588235 0.0588235 0.0588235 0.0588235 0.0588235 0.0588235;
   (orien_6, dist_2, inclin_0, right) 0.0588235 0.0588235 0.0588235 0.0588235 0.0588235 0.0588235 0.0588235 0.0588235 0.0588235 0.0588235 0.0588235 0.0588235 0.0588235 0.0588235 0.0588235 0.0588235 0.0588235;
   (orien_5, dist_2, inclin_0, right) 0.0555556 0.0555556 0.111111 0.0555556 0.0555556 0.0555556 0.0555556 0.0555556 0.0555556 0.0555556 0.0555556 0.0555556 0.0555556 0.0555556 0.0555556 0.0555556 0.0555556;
   (orien_4, dist_2, inclin_0, right) 0.0555556 0.0555556 0.111111 0.0555556 0.0555556 0.0555556 0.0555556 0.0555556 0.0555556 0.0555556 0.0555556 0.0555556 0.0555556 0.0555556 0.0555556 0.0555556 0.0555556;
   (orien_3, dist_2, inclin_0, right) 0.0526316 0.0526316 0.157895 0.0526316 0.0526316 0.0526316 0.0526316 0.0526316 0.0526316 0.0526316 0.0526316 0.0526316 0.0526316 0.0526316 0.0526316 0.0526316 0.0526316;
   (orien_8, dist_2, inclin_0, right) 0.0588235 0.0588235 0.0588235 0.0588235 0.0588235 0.0588235 0.0588235 0.0588235 0.0588235 0.0588235 0.0588235 0.0588235 0.0588235 0.0588235 0.0588235 0.0588235 0.0588235;
   (orien_9, dist_2, inclin_0, right) 0.0588235 0.0588235 0.0588235 0.0588235 0.0588235 0.0588235 0.0588235 0.0588235 0.0588235 0.0588235 0.0588235 0.0588235 0.0588235 0.0588235 0.0588235 0.0588235 0.0588235;
   (orien_10, dist_2, inclin_0, right) 0.0555556 0.0555556 0.0555556 0.0555556 0.0555556 0.0555556 0.0555556 0.0555556 0.0555556 0.0555556 0.0555556 0.0555556 0.0555556 0.0555556 0.111111 0.0555556 0.0555556;
   (orien_11, dist_2, inclin_0, right) 0.047619 0.047619 0.047619 0.047619 0.047619 0.047619 0.047619 0.047619 0.047619 0.047619 0.047619 0.047619 0.047619 0.047619 0.238095 0.047619 0.047619;
   (orien_15, dist_2, inclin_0, right) 0.0588235 0.0588235 0.0588235 0.0588235 0.0588235 0.0588235 0.0588235 0.0588235 0.0588235 0.0588235 0.0588235 0.0588235 0.0588235 0.0588235 0.0588235 0.0588235 0.0588235;
   (orien_14, dist_2, inclin_0, right) 0.0588235 0.0588235 0.0588235 0.0588235 0.0588235 0.0588235 0.0588235 0.0588235 0.0588235 0.0588235 0.0588235 0.0588235 0.0588235 0.0588235 0.0588235 0.0588235 0.0588235;
   (orien_12, dist_2, inclin_0, right) 0.0555556 0.0555556 0.0555556 0.0555556 0.0555556 0.0555556 0.0555556 0.0555556 0.0555556 0.0555556 0.0555556 0.0555556 0.0555556 0.0555556 0.111111 0.0555556 0.0555556;
   (orien_13, dist_2, inclin_0, right) 0.0588235 0.0588235 0.0588235 0.0588235 0.0588235 0.0588235 0.0588235 0.0588235 0.0588235 0.0588235 0.0588235 0.0588235 0.0588235 0.0588235 0.0588235 0.0588235 0.0588235;
   (orien_2, dist_2, inclin_0, right) 0.0555556 0.0555556 0.111111 0.0555556 0.0555556 0.0555556 0.0555556 0.0555556 0.0555556 0.0555556 0.0555556 0.0555556 0.0555556 0.0555556 0.0555556 0.0555556 0.0555556;
   (orien_1, dist_2, inclin_0, right) 0.0555556 0.0555556 0.111111 0.0555556 0.0555556 0.0555556 0.0555556 0.0555556 0.0555556 0.0555556 0.0555556 0.0555556 0.0555556 0.0555556 0.0555556 0.0555556 0.0555556;
   (orien_0, dist_2, inclin_0, right) 0.0588235 0.0588235 0.0588235 0.0588235 0.0588235 0.0588235 0.0588235 0.0588235 0.0588235 0.0588235 0.0588235 0.0588235 0.0588235 0.0588235 0.0588235 0.0588235 0.0588235;
   (orien_7, dist_1, inclin_0, right) 0.0588235 0.0588235 0.0588235 0.0588235 0.0588235 0.0588235 0.0588235 0.0588235 0.0588235 0.0588235 0.0588235 0.0588235 0.0588235 0.0588235 0.0588235 0.0588235 0.0588235;
   (orien_6, dist_1, inclin_0, right) 0.0588235 0.0588235 0.0588235 0.0588235 0.0588235 0.0588235 0.0588235 0.0588235 0.0588235 0.0588235 0.0588235 0.0588235 0.0588235 0.0588235 0.0588235 0.0588235 0.0588235;
   (orien_5, dist_1, inclin_0, right) 0.0588235 0.0588235 0.0588235 0.0588235 0.0588235 0.0588235 0.0588235 0.0588235 0.0588235 0.0588235 0.0588235 0.0588235 0.0588235 0.0588235 0.0588235 0.0588235 0.0588235;
   (orien_4, dist_1, inclin_0, right) 0.0588235 0.0588235 0.0588235 0.0588235 0.0588235 0.0588235 0.0588235 0.0588235 0.0588235 0.0588235 0.0588235 0.0588235 0.0588235 0.0588235 0.0588235 0.0588235 0.0588235;
   (orien_3, dist_1, inclin_0, right) 0.0588235 0.0588235 0.0588235 0.0588235 0.0588235 0.0588235 0.0588235 0.0588235 0.0588235 0.0588235 0.0588235 0.0588235 0.0588235 0.0588235 0.0588235 0.0588235 0.0588235;
   (orien_8, dist_1, inclin_0, right) 0.0588235 0.0588235 0.0588235 0.0588235 0.0588235 0.0588235 0.0588235 0.0588235 0.0588235 0.0588235 0.0588235 0.0588235 0.0588235 0.0588235 0.0588235 0.0588235 0.0588235;
   (orien_9, dist_1, inclin_0, right) 0.0588235 0.0588235 0.0588235 0.0588235 0.0588235 0.0588235 0.0588235 0.0588235 0.0588235 0.0588235 0.0588235 0.0588235 0.0588235 0.0588235 0.0588235 0.0588235 0.0588235;
   (orien_10, dist_1, inclin_0, right) 0.0588235 0.0588235 0.0588235 0.0588235 0.0588235 0.0588235 0.0588235 0.0588235 0.0588235 0.0588235 0.0588235 0.0588235 0.0588235 0.0588235 0.0588235 0.0588235 0.0588235;
   (orien_11, dist_1, inclin_0, right) 0.0588235 0.0588235 0.0588235 0.0588235 0.0588235 0.0588235 0.0588235 0.0588235 0.0588235 0.0588235 0.0588235 0.0588235 0.0588235 0.0588235 0.0588235 0.0588235 0.0588235;
   (orien_15, dist_1, inclin_0, right) 0.0588235 0.0588235 0.0588235 0.0588235 0.0588235 0.0588235 0.0588235 0.0588235 0.0588235 0.0588235 0.0588235 0.0588235 0.0588235 0.0588235 0.0588235 0.0588235 0.0588235;
   (orien_14, dist_1, inclin_0, right) 0.0588235 0.0588235 0.0588235 0.0588235 0.0588235 0.0588235 0.0588235 0.0588235 0.0588235 0.0588235 0.0588235 0.0588235 0.0588235 0.0588235 0.0588235 0.0588235 0.0588235;
   (orien_12, dist_1, inclin_0, right) 0.0588235 0.0588235 0.0588235 0.0588235 0.0588235 0.0588235 0.0588235 0.0588235 0.0588235 0.0588235 0.0588235 0.0588235 0.0588235 0.0588235 0.0588235 0.0588235 0.0588235;
   (orien_13, dist_1, inclin_0, right) 0.0588235 0.0588235 0.0588235 0.0588235 0.0588235 0.0588235 0.0588235 0.0588235 0.0588235 0.0588235 0.0588235 0.0588235 0.0588235 0.0588235 0.0588235 0.0588235 0.0588235;
   (orien_2, dist_1, inclin_0, right) 0.0588235 0.0588235 0.0588235 0.0588235 0.0588235 0.0588235 0.0588235 0.0588235 0.0588235 0.0588235 0.0588235 0.0588235 0.0588235 0.0588235 0.0588235 0.0588235 0.0588235;
   (orien_1, dist_1, inclin_0, right) 0.0588235 0.0588235 0.0588235 0.0588235 0.0588235 0.0588235 0.0588235 0.0588235 0.0588235 0.0588235 0.0588235 0.0588235 0.0588235 0.0588235 0.0588235 0.0588235 0.0588235;
   (orien_0, dist_1, inclin_0, right) 0.0588235 0.0588235 0.0588235 0.0588235 0.0588235 0.0588235 0.0588235 0.0588235 0.0588235 0.0588235 0.0588235 0.0588235 0.0588235 0.0588235 0.0588235 0.0588235 0.0588235;
   (orien_7, dist_0, inclin_0, right) 0.0588235 0.0588235 0.0588235 0.0588235 0.0588235 0.0588235 0.0588235 0.0588235 0.0588235 0.0588235 0.0588235 0.0588235 0.0588235 0.0588235 0.0588235 0.0588235 0.0588235;
   (orien_6, dist_0, inclin_0, right) 0.0588235 0.0588235 0.0588235 0.0588235 0.0588235 0.0588235 0.0588235 0.0588235 0.0588235 0.0588235 0.0588235 0.0588235 0.0588235 0.0588235 0.0588235 0.0588235 0.0588235;
   (orien_5, dist_0, inclin_0, right) 0.0588235 0.0588235 0.0588235 0.0588235 0.0588235 0.0588235 0.0588235 0.0588235 0.0588235 0.0588235 0.0588235 0.0588235 0.0588235 0.0588235 0.0588235 0.0588235 0.0588235;
   (orien_4, dist_0, inclin_0, right) 0.0588235 0.0588235 0.0588235 0.0588235 0.0588235 0.0588235 0.0588235 0.0588235 0.0588235 0.0588235 0.0588235 0.0588235 0.0588235 0.0588235 0.0588235 0.0588235 0.0588235;
   (orien_3, dist_0, inclin_0, right) 0.0588235 0.0588235 0.0588235 0.0588235 0.0588235 0.0588235 0.0588235 0.0588235 0.0588235 0.0588235 0.0588235 0.0588235 0.0588235 0.0588235 0.0588235 0.0588235 0.0588235;
   (orien_8, dist_0, inclin_0, right) 0.0588235 0.0588235 0.0588235 0.0588235 0.0588235 0.0588235 0.0588235 0.0588235 0.0588235 0.0588235 0.0588235 0.0588235 0.0588235 0.0588235 0.0588235 0.0588235 0.0588235;
   (orien_9, dist_0, inclin_0, right) 0.0588235 0.0588235 0.0588235 0.0588235 0.0588235 0.0588235 0.0588235 0.0588235 0.0588235 0.0588235 0.0588235 0.0588235 0.0588235 0.0588235 0.0588235 0.0588235 0.0588235;
   (orien_10, dist_0, inclin_0, right) 0.0588235 0.0588235 0.0588235 0.0588235 0.0588235 0.0588235 0.0588235 0.0588235 0.0588235 0.0588235 0.0588235 0.0588235 0.0588235 0.0588235 0.0588235 0.0588235 0.0588235;
   (orien_11, dist_0, inclin_0, right) 0.0588235 0.0588235 0.0588235 0.0588235 0.0588235 0.0588235 0.0588235 0.0588235 0.0588235 0.0588235 0.0588235 0.0588235 0.0588235 0.0588235 0.0588235 0.0588235 0.0588235;
   (orien_15, dist_0, inclin_0, right) 0.0588235 0.0588235 0.0588235 0.0588235 0.0588235 0.0588235 0.0588235 0.0588235 0.0588235 0.0588235 0.0588235 0.0588235 0.0588235 0.0588235 0.0588235 0.0588235 0.0588235;
   (orien_14, dist_0, inclin_0, right) 0.0588235 0.0588235 0.0588235 0.0588235 0.0588235 0.0588235 0.0588235 0.0588235 0.0588235 0.0588235 0.0588235 0.0588235 0.0588235 0.0588235 0.0588235 0.0588235 0.0588235;
   (orien_12, dist_0, inclin_0, right) 0.0588235 0.0588235 0.0588235 0.0588235 0.0588235 0.0588235 0.0588235 0.0588235 0.0588235 0.0588235 0.0588235 0.0588235 0.0588235 0.0588235 0.0588235 0.0588235 0.0588235;
   (orien_13, dist_0, inclin_0, right) 0.0588235 0.0588235 0.0588235 0.0588235 0.0588235 0.0588235 0.0588235 0.0588235 0.0588235 0.0588235 0.0588235 0.0588235 0.0588235 0.0588235 0.0588235 0.0588235 0.0588235;
   (orien_2, dist_0, inclin_0, right) 0.0588235 0.0588235 0.0588235 0.0588235 0.0588235 0.0588235 0.0588235 0.0588235 0.0588235 0.0588235 0.0588235 0.0588235 0.0588235 0.0588235 0.0588235 0.0588235 0.0588235;
