
network unnamedBN{
   property software aGrUM;
}

variable effect {
   type discrete[4] {left, right, down, up};
}

variable orientation {
   type discrete[8] {orien_4, orien_3, orien_2, orien_1, orien_5, orien_6, orien_7, orien_0};
}

variable inclination {
   type discrete[7] {inclin_3, inclin_4, inclin_6, inclin_5, inclin_2, inclin_1, inclin_0};
}

variable move {
   type discrete[13] {close_right_down, close_down, left, close_left_down, right, down, close, far, right_down, far_right_down, far_left_down, far_down, left_down};
}

variable distance {
   type discrete[3] {dist_2, dist_1, dist_0};
}

probability (effect | orientation) {
   (orien_4) 0.0571429 0.114286 0.714286 0.114286;
   (orien_3) 0.230769 0.0769231 0.615385 0.0769231;
   (orien_2) 0.473684 0.210526 0.210526 0.105263;
   (orien_1) 0.809524 0.047619 0.047619 0.0952381;
   (orien_5) 0.1875 0.5625 0.1875 0.0625;
   (orien_6) 0.0625 0.75 0.0625 0.125;
   (orien_7) 0.0625 0.1875 0.0625 0.6875;
   (orien_0) 0.129032 0.0645161 0.129032 0.677419;
}
probability (orientation) {
   default 0.201258 0.0628931 0.100629 0.113208 0.081761 0.18239 0.081761 0.176101;
}
probability (inclination | effect, move, orientation) {
   (left, close_right_down, orien_4) 0.25 0.125 0.125 0.125 0.125 0.125 0.125;
   (right, close_right_down, orien_4) 0.142857 0.142857 0.142857 0.142857 0.142857 0.142857 0.142857;
   (down, close_right_down, orien_4) 0.142857 0.142857 0.142857 0.142857 0.142857 0.142857 0.142857;
   (up, close_right_down, orien_4) 0.142857 0.142857 0.142857 0.142857 0.142857 0.142857 0.142857;
   (left, close_down, orien_4) 0.142857 0.142857 0.142857 0.142857 0.142857 0.142857 0.142857;
   (right, close_down, orien_4) 0.142857 0.142857 0.142857 0.142857 0.142857 0.142857 0.142857;
   (down, close_down, orien_4) 0.142857 0.142857 0.142857 0.142857 0.142857 0.142857 0.142857;
   (up, close_down, orien_4) 0.2 0.1 0.1 0.1 0.2 0.2 0.1;
   (left, left, orien_4) 0.142857 0.142857 0.142857 0.142857 0.142857 0.142857 0.142857;
   (right, left, orien_4) 0.142857 0.142857 0.142857 0.142857 0.142857 0.142857 0.142857;
   (down, left, orien_4) 0.142857 0.142857 0.142857 0.142857 0.142857 0.142857 0.142857;
   (up, left, orien_4) 0.142857 0.142857 0.142857 0.142857 0.142857 0.142857 0.142857;
   (left, close_left_down, orien_4) 0.142857 0.142857 0.142857 0.142857 0.142857 0.142857 0.142857;
   (right, close_left_down, orien_4) 0.4 0.1 0.1 0.1 0.1 0.1 0.1;
   (down, close_left_down, orien_4) 0.142857 0.142857 0.142857 0.142857 0.142857 0.142857 0.142857;
   (up, close_left_down, orien_4) 0.142857 0.142857 0.142857 0.142857 0.142857 0.142857 0.142857;
   (left, right, orien_4) 0.142857 0.142857 0.142857 0.142857 0.142857 0.142857 0.142857;
   (right, right, orien_4) 0.142857 0.142857 0.142857 0.142857 0.142857 0.142857 0.142857;
   (down, right, orien_4) 0.142857 0.142857 0.142857 0.142857 0.142857 0.142857 0.142857;
   (up, right, orien_4) 0.142857 0.142857 0.142857 0.142857 0.142857 0.142857 0.142857;
   (left, down, orien_4) 0.142857 0.142857 0.142857 0.142857 0.142857 0.142857 0.142857;
   (right, down, orien_4) 0.142857 0.142857 0.142857 0.142857 0.142857 0.142857 0.142857;
   (down, down, orien_4) 0.25 0.25 0.0833333 0.166667 0.0833333 0.0833333 0.0833333;
   (up, down, orien_4) 0.142857 0.142857 0.142857 0.142857 0.142857 0.142857 0.142857;
   (left, close, orien_4) 0.142857 0.142857 0.142857 0.142857 0.142857 0.142857 0.142857;
   (right, close, orien_4) 0.142857 0.142857 0.142857 0.142857 0.142857 0.142857 0.142857;
   (down, close, orien_4) 0.0434783 0.0434783 0.73913 0.0434783 0.0434783 0.0434783 0.0434783;
   (up, close, orien_4) 0.142857 0.142857 0.142857 0.142857 0.142857 0.142857 0.142857;
   (left, far, orien_4) 0.142857 0.142857 0.142857 0.142857 0.142857 0.142857 0.142857;
   (right, far, orien_4) 0.142857 0.142857 0.142857 0.142857 0.142857 0.142857 0.142857;
   (down, far, orien_4) 0.142857 0.142857 0.142857 0.142857 0.142857 0.142857 0.142857;
   (up, far, orien_4) 0.142857 0.142857 0.142857 0.142857 0.142857 0.142857 0.142857;
   (left, right_down, orien_4) 0.142857 0.142857 0.142857 0.142857 0.142857 0.142857 0.142857;
   (right, right_down, orien_4) 0.142857 0.142857 0.142857 0.142857 0.142857 0.142857 0.142857;
   (down, right_down, orien_4) 0.142857 0.142857 0.142857 0.142857 0.142857 0.142857 0.142857;
   (up, right_down, orien_4) 0.142857 0.142857 0.142857 0.142857 0.142857 0.142857 0.142857;
   (left, far_right_down, orien_4) 0.142857 0.142857 0.142857 0.142857 0.142857 0.142857 0.142857;
   (right, far_right_down, orien_4) 0.142857 0.142857 0.142857 0.142857 0.142857 0.142857 0.142857;
   (down, far_right_down, orien_4) 0.111111 0.222222 0.111111 0.222222 0.111111 0.111111 0.111111;
   (up, far_right_down, orien_4) 0.142857 0.142857 0.142857 0.142857 0.142857 0.142857 0.142857;
   (left, far_left_down, orien_4) 0.142857 0.142857 0.142857 0.142857 0.142857 0.142857 0.142857;
   (right, far_left_down, orien_4) 0.142857 0.142857 0.142857 0.142857 0.142857 0.142857 0.142857;
   (down, far_left_down, orien_4) 0.142857 0.142857 0.142857 0.142857 0.142857 0.142857 0.142857;
   (up, far_left_down, orien_4) 0.142857 0.142857 0.142857 0.142857 0.142857 0.142857 0.142857;
   (left, far_down, orien_4) 0.142857 0.142857 0.142857 0.142857 0.142857 0.142857 0.142857;
   (right, far_down, orien_4) 0.142857 0.142857 0.142857 0.142857 0.142857 0.142857 0.142857;
   (down, far_down, orien_4) 0.125 0.25 0.125 0.125 0.125 0.125 0.125;
   (up, far_down, orien_4) 0.142857 0.142857 0.142857 0.142857 0.142857 0.142857 0.142857;
   (left, left_down, orien_4) 0.142857 0.142857 0.142857 0.142857 0.142857 0.142857 0.142857;
   (right, left_down, orien_4) 0.142857 0.142857 0.142857 0.142857 0.142857 0.142857 0.142857;
   (down, left_down, orien_4) 0.142857 0.142857 0.142857 0.142857 0.142857 0.142857 0.142857;
   (up, left_down, orien_4) 0.142857 0.142857 0.142857 0.142857 0.142857 0.142857 0.142857;
   (left, close_right_down, orien_3) 0.333333 0.111111 0.111111 0.111111 0.111111 0.111111 0.111111;
   (right, close_right_down, orien_3) 0.142857 0.142857 0.142857 0.142857 0.142857 0.142857 0.142857;
   (down, close_right_down, orien_3) 0.142857 0.142857 0.142857 0.142857 0.142857 0.142857 0.142857;
   (up, close_right_down, orien_3) 0.142857 0.142857 0.142857 0.142857 0.142857 0.142857 0.142857;
   (left, close_down, orien_3) 0.142857 0.142857 0.142857 0.142857 0.142857 0.142857 0.142857;
   (right, close_down, orien_3) 0.142857 0.142857 0.142857 0.142857 0.142857 0.142857 0.142857;
   (down, close_down, orien_3) 0.142857 0.142857 0.142857 0.142857 0.142857 0.142857 0.142857;
   (up, close_down, orien_3) 0.142857 0.142857 0.142857 0.142857 0.142857 0.142857 0.142857;
   (left, left, orien_3) 0.142857 0.142857 0.142857 0.142857 0.142857 0.142857 0.142857;
   (right, left, orien_3) 0.142857 0.142857 0.142857 0.142857 0.142857 0.142857 0.142857;
   (down, left, orien_3) 0.142857 0.142857 0.142857 0.142857 0.142857 0.142857 0.142857;
   (up, left, orien_3) 0.142857 0.142857 0.142857 0.142857 0.142857 0.142857 0.142857;
   (left, close_left_down, orien_3) 0.142857 0.142857 0.142857 0.142857 0.142857 0.142857 0.142857;
   (right, close_left_down, orien_3) 0.142857 0.142857 0.142857 0.142857 0.142857 0.142857 0.142857;
   (down, close_left_down, orien_3) 0.142857 0.142857 0.142857 0.142857 0.142857 0.142857 0.142857;
   (up, close_left_down, orien_3) 0.142857 0.142857 0.142857 0.142857 0.142857 0.142857 0.142857;
   (left, right, orien_3) 0.142857 0.142857 0.142857 0.142857 0.142857 0.142857 0.142857;
   (right, right, orien_3) 0.142857 0.142857 0.142857 0.142857 0.142857 0.142857 0.142857;
   (down, right, orien_3) 0.142857 0.142857 0.142857 0.142857 0.142857 0.142857 0.142857;
   (up, right, orien_3) 0.142857 0.142857 0.142857 0.142857 0.142857 0.142857 0.142857;
   (left, down, orien_3) 0.142857 0.142857 0.142857 0.142857 0.142857 0.142857 0.142857;
   (right, down, orien_3) 0.142857 0.142857 0.142857 0.142857 0.142857 0.142857 0.142857;
   (down, down, orien_3) 0.142857 0.142857 0.142857 0.142857 0.142857 0.142857 0.142857;
   (up, down, orien_3) 0.142857 0.142857 0.142857 0.142857 0.142857 0.142857 0.142857;
   (left, close, orien_3) 0.142857 0.142857 0.142857 0.142857 0.142857 0.142857 0.142857;
   (right, close, orien_3) 0.142857 0.142857 0.142857 0.142857 0.142857 0.142857 0.142857;
   (down, close, orien_3) 0.0909091 0.0909091 0.454545 0.0909091 0.0909091 0.0909091 0.0909091;
   (up, close, orien_3) 0.142857 0.142857 0.142857 0.142857 0.142857 0.142857 0.142857;
   (left, far, orien_3) 0.142857 0.142857 0.142857 0.142857 0.142857 0.142857 0.142857;
   (right, far, orien_3) 0.142857 0.142857 0.142857 0.142857 0.142857 0.142857 0.142857;
   (down, far, orien_3) 0.142857 0.142857 0.142857 0.142857 0.142857 0.142857 0.142857;
   (up, far, orien_3) 0.142857 0.142857 0.142857 0.142857 0.142857 0.142857 0.142857;
   (left, right_down, orien_3) 0.142857 0.142857 0.142857 0.142857 0.142857 0.142857 0.142857;
   (right, right_down, orien_3) 0.142857 0.142857 0.142857 0.142857 0.142857 0.142857 0.142857;
   (down, right_down, orien_3) 0.142857 0.142857 0.142857 0.142857 0.142857 0.142857 0.142857;
   (up, right_down, orien_3) 0.142857 0.142857 0.142857 0.142857 0.142857 0.142857 0.142857;
   (left, far_right_down, orien_3) 0.142857 0.142857 0.142857 0.142857 0.142857 0.142857 0.142857;
   (right, far_right_down, orien_3) 0.142857 0.142857 0.142857 0.142857 0.142857 0.142857 0.142857;
   (down, far_right_down, orien_3) 0.142857 0.142857 0.142857 0.142857 0.142857 0.142857 0.142857;
   (up, far_right_down, orien_3) 0.142857 0.142857 0.142857 0.142857 0.142857 0.142857 0.142857;
   (left, far_left_down, orien_3) 0.142857 0.142857 0.142857 0.142857 0.142857 0.142857 0.142857;
   (right, far_left_down, orien_3) 0.142857 0.142857 0.142857 0.142857 0.142857 0.142857 0.142857;
   (down, far_left_down, orien_3) 0.111111 0.222222 0.111111 0.222222 0.111111 0.111111 0.111111;
   (up, far_left_down, orien_3) 0.142857 0.142857 0.142857 0.142857 0.142857 0.142857 0.142857;
   (left, far_down, orien_3) 0.142857 0.142857 0.142857 0.142857 0.142857 0.142857 0.142857;
   (right, far_down, orien_3) 0.142857 0.142857 0.142857 0.142857 0.142857 0.142857 0.142857;
   (down, far_down, orien_3) 0.125 0.125 0.125 0.125 0.125 0.25 0.125;
   (up, far_down, orien_3) 0.142857 0.142857 0.142857 0.142857 0.142857 0.142857 0.142857;
   (left, left_down, orien_3) 0.142857 0.142857 0.142857 0.142857 0.142857 0.142857 0.142857;
   (right, left_down, orien_3) 0.142857 0.142857 0.142857 0.142857 0.142857 0.142857 0.142857;
   (down, left_down, orien_3) 0.142857 0.142857 0.142857 0.142857 0.142857 0.142857 0.142857;
   (up, left_down, orien_3) 0.142857 0.142857 0.142857 0.142857 0.142857 0.142857 0.142857;
   (left, close_right_down, orien_2) 0.142857 0.142857 0.142857 0.142857 0.142857 0.142857 0.142857;
   (right, close_right_down, orien_2) 0.142857 0.142857 0.142857 0.142857 0.142857 0.142857 0.142857;
   (down, close_right_down, orien_2) 0.142857 0.142857 0.142857 0.142857 0.142857 0.142857 0.142857;
   (up, close_right_down, orien_2) 0.142857 0.142857 0.142857 0.142857 0.142857 0.142857 0.142857;
   (left, close_down, orien_2) 0.125 0.25 0.125 0.125 0.125 0.125 0.125;
   (right, close_down, orien_2) 0.142857 0.142857 0.142857 0.142857 0.142857 0.142857 0.142857;
   (down, close_down, orien_2) 0.142857 0.142857 0.142857 0.142857 0.142857 0.142857 0.142857;
   (up, close_down, orien_2) 0.142857 0.142857 0.142857 0.142857 0.142857 0.142857 0.142857;
   (left, left, orien_2) 0.0833333 0.0833333 0.5 0.0833333 0.0833333 0.0833333 0.0833333;
   (right, left, orien_2) 0.142857 0.142857 0.142857 0.142857 0.142857 0.142857 0.142857;
   (down, left, orien_2) 0.142857 0.142857 0.142857 0.142857 0.142857 0.142857 0.142857;
   (up, left, orien_2) 0.142857 0.142857 0.142857 0.142857 0.142857 0.142857 0.142857;
   (left, close_left_down, orien_2) 0.142857 0.142857 0.142857 0.142857 0.142857 0.142857 0.142857;
   (right, close_left_down, orien_2) 0.142857 0.142857 0.142857 0.142857 0.142857 0.142857 0.142857;
   (down, close_left_down, orien_2) 0.142857 0.142857 0.142857 0.142857 0.142857 0.142857 0.142857;
   (up, close_left_down, orien_2) 0.25 0.125 0.125 0.125 0.125 0.125 0.125;
   (left, right, orien_2) 0.142857 0.142857 0.142857 0.142857 0.142857 0.142857 0.142857;
   (right, right, orien_2) 0.142857 0.142857 0.142857 0.142857 0.142857 0.142857 0.142857;
   (down, right, orien_2) 0.142857 0.142857 0.142857 0.142857 0.142857 0.142857 0.142857;
   (up, right, orien_2) 0.142857 0.142857 0.142857 0.142857 0.142857 0.142857 0.142857;
   (left, down, orien_2) 0.142857 0.142857 0.142857 0.142857 0.142857 0.142857 0.142857;
   (right, down, orien_2) 0.142857 0.142857 0.142857 0.142857 0.142857 0.142857 0.142857;
   (down, down, orien_2) 0.142857 0.142857 0.142857 0.142857 0.142857 0.142857 0.142857;
   (up, down, orien_2) 0.142857 0.142857 0.142857 0.142857 0.142857 0.142857 0.142857;
   (left, close, orien_2) 0.142857 0.142857 0.142857 0.142857 0.142857 0.142857 0.142857;
   (right, close, orien_2) 0.142857 0.142857 0.142857 0.142857 0.142857 0.142857 0.142857;
   (down, close, orien_2) 0.142857 0.142857 0.142857 0.142857 0.142857 0.142857 0.142857;
   (up, close, orien_2) 0.142857 0.142857 0.142857 0.142857 0.142857 0.142857 0.142857;
   (left, far, orien_2) 0.142857 0.142857 0.142857 0.142857 0.142857 0.142857 0.142857;
   (right, far, orien_2) 0.142857 0.142857 0.142857 0.142857 0.142857 0.142857 0.142857;
   (down, far, orien_2) 0.142857 0.142857 0.142857 0.142857 0.142857 0.142857 0.142857;
   (up, far, orien_2) 0.142857 0.142857 0.142857 0.142857 0.142857 0.142857 0.142857;
   (left, right_down, orien_2) 0.111111 0.222222 0.111111 0.111111 0.111111 0.111111 0.222222;
   (right, right_down, orien_2) 0.142857 0.142857 0.142857 0.142857 0.142857 0.142857 0.142857;
   (down, right_down, orien_2) 0.142857 0.142857 0.142857 0.142857 0.142857 0.142857 0.142857;
   (up, right_down, orien_2) 0.142857 0.142857 0.142857 0.142857 0.142857 0.142857 0.142857;
   (left, far_right_down, orien_2) 0.142857 0.142857 0.142857 0.142857 0.142857 0.142857 0.142857;
   (right, far_right_down, orien_2) 0.142857 0.142857 0.142857 0.142857 0.142857 0.142857 0.142857;
   (down, far_right_down, orien_2) 0.142857 0.142857 0.142857 0.142857 0.142857 0.142857 0.142857;
   (up, far_right_down, orien_2) 0.142857 0.142857 0.142857 0.142857 0.142857 0.142857 0.142857;
   (left, far_left_down, orien_2) 0.142857 0.142857 0.142857 0.142857 0.142857 0.142857 0.142857;
   (right, far_left_down, orien_2) 0.142857 0.142857 0.142857 0.142857 0.142857 0.142857 0.142857;
   (down, far_left_down, orien_2) 0.4 0.1 0.1 0.1 0.1 0.1 0.1;
   (up, far_left_down, orien_2) 0.142857 0.142857 0.142857 0.142857 0.142857 0.142857 0.142857;
   (left, far_down, orien_2) 0.142857 0.142857 0.142857 0.142857 0.142857 0.142857 0.142857;
   (right, far_down, orien_2) 0.142857 0.142857 0.142857 0.142857 0.142857 0.142857 0.142857;
   (down, far_down, orien_2) 0.142857 0.142857 0.142857 0.142857 0.142857 0.142857 0.142857;
   (up, far_down, orien_2) 0.142857 0.142857 0.142857 0.142857 0.142857 0.142857 0.142857;
   (left, left_down, orien_2) 0.142857 0.142857 0.142857 0.142857 0.142857 0.142857 0.142857;
   (right, left_down, orien_2) 0.2 0.1 0.1 0.1 0.2 0.2 0.1;
   (down, left_down, orien_2) 0.142857 0.142857 0.142857 0.142857 0.142857 0.142857 0.142857;
   (up, left_down, orien_2) 0.142857 0.142857 0.142857 0.142857 0.142857 0.142857 0.142857;
   (left, close_right_down, orien_1) 0.142857 0.142857 0.142857 0.142857 0.142857 0.142857 0.142857;
   (right, close_right_down, orien_1) 0.142857 0.142857 0.142857 0.142857 0.142857 0.142857 0.142857;
   (down, close_right_down, orien_1) 0.142857 0.142857 0.142857 0.142857 0.142857 0.142857 0.142857;
   (up, close_right_down, orien_1) 0.142857 0.142857 0.142857 0.142857 0.142857 0.142857 0.142857;
   (left, close_down, orien_1) 0.142857 0.142857 0.142857 0.142857 0.142857 0.142857 0.142857;
   (right, close_down, orien_1) 0.142857 0.142857 0.142857 0.142857 0.142857 0.142857 0.142857;
   (down, close_down, orien_1) 0.142857 0.142857 0.142857 0.142857 0.142857 0.142857 0.142857;
   (up, close_down, orien_1) 0.142857 0.142857 0.142857 0.142857 0.142857 0.142857 0.142857;
   (left, left, orien_1) 0.0625 0.0625 0.625 0.0625 0.0625 0.0625 0.0625;
   (right, left, orien_1) 0.142857 0.142857 0.142857 0.142857 0.142857 0.142857 0.142857;
   (down, left, orien_1) 0.142857 0.142857 0.142857 0.142857 0.142857 0.142857 0.142857;
   (up, left, orien_1) 0.142857 0.142857 0.142857 0.142857 0.142857 0.142857 0.142857;
   (left, close_left_down, orien_1) 0.142857 0.142857 0.142857 0.142857 0.142857 0.142857 0.142857;
   (right, close_left_down, orien_1) 0.142857 0.142857 0.142857 0.142857 0.142857 0.142857 0.142857;
   (down, close_left_down, orien_1) 0.142857 0.142857 0.142857 0.142857 0.142857 0.142857 0.142857;
   (up, close_left_down, orien_1) 0.25 0.125 0.125 0.125 0.125 0.125 0.125;
   (left, right, orien_1) 0.142857 0.142857 0.142857 0.142857 0.142857 0.142857 0.142857;
   (right, right, orien_1) 0.142857 0.142857 0.142857 0.142857 0.142857 0.142857 0.142857;
   (down, right, orien_1) 0.142857 0.142857 0.142857 0.142857 0.142857 0.142857 0.142857;
   (up, right, orien_1) 0.142857 0.142857 0.142857 0.142857 0.142857 0.142857 0.142857;
   (left, down, orien_1) 0.25 0.25 0.0833333 0.166667 0.0833333 0.0833333 0.0833333;
   (right, down, orien_1) 0.142857 0.142857 0.142857 0.142857 0.142857 0.142857 0.142857;
   (down, down, orien_1) 0.142857 0.142857 0.142857 0.142857 0.142857 0.142857 0.142857;
   (up, down, orien_1) 0.142857 0.142857 0.142857 0.142857 0.142857 0.142857 0.142857;
   (left, close, orien_1) 0.142857 0.142857 0.142857 0.142857 0.142857 0.142857 0.142857;
   (right, close, orien_1) 0.142857 0.142857 0.142857 0.142857 0.142857 0.142857 0.142857;
   (down, close, orien_1) 0.142857 0.142857 0.142857 0.142857 0.142857 0.142857 0.142857;
   (up, close, orien_1) 0.142857 0.142857 0.142857 0.142857 0.142857 0.142857 0.142857;
   (left, far, orien_1) 0.142857 0.142857 0.142857 0.142857 0.142857 0.142857 0.142857;
   (right, far, orien_1) 0.142857 0.142857 0.142857 0.142857 0.142857 0.142857 0.142857;
   (down, far, orien_1) 0.142857 0.142857 0.142857 0.142857 0.142857 0.142857 0.142857;
   (up, far, orien_1) 0.142857 0.142857 0.142857 0.142857 0.142857 0.142857 0.142857;
   (left, right_down, orien_1) 0.142857 0.142857 0.142857 0.142857 0.142857 0.142857 0.142857;
   (right, right_down, orien_1) 0.142857 0.142857 0.142857 0.142857 0.142857 0.142857 0.142857;
   (down, right_down, orien_1) 0.142857 0.142857 0.142857 0.142857 0.142857 0.142857 0.142857;
   (up, right_down, orien_1) 0.142857 0.142857 0.142857 0.142857 0.142857 0.142857 0.142857;
   (left, far_right_down, orien_1) 0.111111 0.222222 0.111111 0.222222 0.111111 0.111111 0.111111;
   (right, far_right_down, orien_1) 0.142857 0.142857 0.142857 0.142857 0.142857 0.142857 0.142857;
   (down, far_right_down, orien_1) 0.142857 0.142857 0.142857 0.142857 0.142857 0.142857 0.142857;
   (up, far_right_down, orien_1) 0.142857 0.142857 0.142857 0.142857 0.142857 0.142857 0.142857;
   (left, far_left_down, orien_1) 0.142857 0.142857 0.142857 0.142857 0.142857 0.142857 0.142857;
   (right, far_left_down, orien_1) 0.142857 0.142857 0.142857 0.142857 0.142857 0.142857 0.142857;
   (down, far_left_down, orien_1) 0.142857 0.142857 0.142857 0.142857 0.142857 0.142857 0.142857;
   (up, far_left_down, orien_1) 0.142857 0.142857 0.142857 0.142857 0.142857 0.142857 0.142857;
   (left, far_down, orien_1) 0.142857 0.142857 0.142857 0.142857 0.142857 0.142857 0.142857;
   (right, far_down, orien_1) 0.142857 0.142857 0.142857 0.142857 0.142857 0.142857 0.142857;
   (down, far_down, orien_1) 0.142857 0.142857 0.142857 0.142857 0.142857 0.142857 0.142857;
   (up, far_down, orien_1) 0.142857 0.142857 0.142857 0.142857 0.142857 0.142857 0.142857;
   (left, left_down, orien_1) 0.142857 0.142857 0.142857 0.142857 0.142857 0.142857 0.142857;
   (right, left_down, orien_1) 0.142857 0.142857 0.142857 0.142857 0.142857 0.142857 0.142857;
   (down, left_down, orien_1) 0.142857 0.142857 0.142857 0.142857 0.142857 0.142857 0.142857;
   (up, left_down, orien_1) 0.142857 0.142857 0.142857 0.142857 0.142857 0.142857 0.142857;
   (left, close_right_down, orien_5) 0.142857 0.142857 0.142857 0.142857 0.142857 0.142857 0.142857;
   (right, close_right_down, orien_5) 0.142857 0.142857 0.142857 0.142857 0.142857 0.142857 0.142857;
   (down, close_right_down, orien_5) 0.142857 0.142857 0.142857 0.142857 0.142857 0.142857 0.142857;
   (up, close_right_down, orien_5) 0.142857 0.142857 0.142857 0.142857 0.142857 0.142857 0.142857;
   (left, close_down, orien_5) 0.142857 0.142857 0.142857 0.142857 0.142857 0.142857 0.142857;
   (right, close_down, orien_5) 0.142857 0.142857 0.142857 0.142857 0.142857 0.142857 0.142857;
   (down, close_down, orien_5) 0.142857 0.142857 0.142857 0.142857 0.142857 0.142857 0.142857;
   (up, close_down, orien_5) 0.142857 0.142857 0.142857 0.142857 0.142857 0.142857 0.142857;
   (left, left, orien_5) 0.142857 0.142857 0.142857 0.142857 0.142857 0.142857 0.142857;
   (right, left, orien_5) 0.142857 0.142857 0.142857 0.142857 0.142857 0.142857 0.142857;
   (down, left, orien_5) 0.142857 0.142857 0.142857 0.142857 0.142857 0.142857 0.142857;
   (up, left, orien_5) 0.142857 0.142857 0.142857 0.142857 0.142857 0.142857 0.142857;
   (left, close_left_down, orien_5) 0.142857 0.142857 0.142857 0.142857 0.142857 0.142857 0.142857;
   (right, close_left_down, orien_5) 0.111111 0.222222 0.111111 0.222222 0.111111 0.111111 0.111111;
   (down, close_left_down, orien_5) 0.142857 0.142857 0.142857 0.142857 0.142857 0.142857 0.142857;
   (up, close_left_down, orien_5) 0.142857 0.142857 0.142857 0.142857 0.142857 0.142857 0.142857;
   (left, right, orien_5) 0.142857 0.142857 0.142857 0.142857 0.142857 0.142857 0.142857;
   (right, right, orien_5) 0.0833333 0.0833333 0.5 0.0833333 0.0833333 0.0833333 0.0833333;
   (down, right, orien_5) 0.142857 0.142857 0.142857 0.142857 0.142857 0.142857 0.142857;
   (up, right, orien_5) 0.142857 0.142857 0.142857 0.142857 0.142857 0.142857 0.142857;
   (left, down, orien_5) 0.142857 0.142857 0.142857 0.142857 0.142857 0.142857 0.142857;
   (right, down, orien_5) 0.25 0.125 0.125 0.125 0.125 0.125 0.125;
   (down, down, orien_5) 0.142857 0.142857 0.142857 0.142857 0.142857 0.142857 0.142857;
   (up, down, orien_5) 0.142857 0.142857 0.142857 0.142857 0.142857 0.142857 0.142857;
   (left, close, orien_5) 0.142857 0.142857 0.142857 0.142857 0.142857 0.142857 0.142857;
   (right, close, orien_5) 0.142857 0.142857 0.142857 0.142857 0.142857 0.142857 0.142857;
   (down, close, orien_5) 0.142857 0.142857 0.142857 0.142857 0.142857 0.142857 0.142857;
   (up, close, orien_5) 0.142857 0.142857 0.142857 0.142857 0.142857 0.142857 0.142857;
   (left, far, orien_5) 0.142857 0.142857 0.142857 0.142857 0.142857 0.142857 0.142857;
   (right, far, orien_5) 0.142857 0.142857 0.142857 0.142857 0.142857 0.142857 0.142857;
   (down, far, orien_5) 0.142857 0.142857 0.142857 0.142857 0.142857 0.142857 0.142857;
   (up, far, orien_5) 0.142857 0.142857 0.142857 0.142857 0.142857 0.142857 0.142857;
   (left, right_down, orien_5) 0.222222 0.111111 0.111111 0.111111 0.111111 0.222222 0.111111;
   (right, right_down, orien_5) 0.142857 0.142857 0.142857 0.142857 0.142857 0.142857 0.142857;
   (down, right_down, orien_5) 0.142857 0.142857 0.142857 0.142857 0.142857 0.142857 0.142857;
   (up, right_down, orien_5) 0.142857 0.142857 0.142857 0.142857 0.142857 0.142857 0.142857;
   (left, far_right_down, orien_5) 0.142857 0.142857 0.142857 0.142857 0.142857 0.142857 0.142857;
   (right, far_right_down, orien_5) 0.142857 0.142857 0.142857 0.142857 0.142857 0.142857 0.142857;
   (down, far_right_down, orien_5) 0.333333 0.111111 0.111111 0.111111 0.111111 0.111111 0.111111;
   (up, far_right_down, orien_5) 0.142857 0.142857 0.142857 0.142857 0.142857 0.142857 0.142857;
   (left, far_left_down, orien_5) 0.142857 0.142857 0.142857 0.142857 0.142857 0.142857 0.142857;
   (right, far_left_down, orien_5) 0.142857 0.142857 0.142857 0.142857 0.142857 0.142857 0.142857;
   (down, far_left_down, orien_5) 0.142857 0.142857 0.142857 0.142857 0.142857 0.142857 0.142857;
   (up, far_left_down, orien_5) 0.142857 0.142857 0.142857 0.142857 0.142857 0.142857 0.142857;
   (left, far_down, orien_5) 0.142857 0.142857 0.142857 0.142857 0.142857 0.142857 0.142857;
   (right, far_down, orien_5) 0.142857 0.142857 0.142857 0.142857 0.142857 0.142857 0.142857;
   (down, far_down, orien_5) 0.142857 0.142857 0.142857 0.142857 0.142857 0.142857 0.142857;
   (up, far_down, orien_5) 0.142857 0.142857 0.142857 0.142857 0.142857 0.142857 0.142857;
   (left, left_down, orien_5) 0.142857 0.142857 0.142857 0.142857 0.142857 0.142857 0.142857;
   (right, left_down, orien_5) 0.142857 0.142857 0.142857 0.142857 0.142857 0.142857 0.142857;
   (down, left_down, orien_5) 0.142857 0.142857 0.142857 0.142857 0.142857 0.142857 0.142857;
   (up, left_down, orien_5) 0.142857 0.142857 0.142857 0.142857 0.142857 0.142857 0.142857;
   (left, close_right_down, orien_6) 0.142857 0.142857 0.142857 0.142857 0.142857 0.142857 0.142857;
   (right, close_right_down, orien_6) 0.142857 0.142857 0.142857 0.142857 0.142857 0.142857 0.142857;
   (down, close_right_down, orien_6) 0.142857 0.142857 0.142857 0.142857 0.142857 0.142857 0.142857;
   (up, close_right_down, orien_6) 0.4 0.1 0.1 0.1 0.1 0.1 0.1;
   (left, close_down, orien_6) 0.142857 0.142857 0.142857 0.142857 0.142857 0.142857 0.142857;
   (right, close_down, orien_6) 0.142857 0.142857 0.142857 0.142857 0.142857 0.142857 0.142857;
   (down, close_down, orien_6) 0.142857 0.142857 0.142857 0.142857 0.142857 0.142857 0.142857;
   (up, close_down, orien_6) 0.142857 0.142857 0.142857 0.142857 0.142857 0.142857 0.142857;
   (left, left, orien_6) 0.142857 0.142857 0.142857 0.142857 0.142857 0.142857 0.142857;
   (right, left, orien_6) 0.142857 0.142857 0.142857 0.142857 0.142857 0.142857 0.142857;
   (down, left, orien_6) 0.142857 0.142857 0.142857 0.142857 0.142857 0.142857 0.142857;
   (up, left, orien_6) 0.142857 0.142857 0.142857 0.142857 0.142857 0.142857 0.142857;
   (left, close_left_down, orien_6) 0.142857 0.142857 0.142857 0.142857 0.142857 0.142857 0.142857;
   (right, close_left_down, orien_6) 0.142857 0.142857 0.142857 0.142857 0.142857 0.142857 0.142857;
   (down, close_left_down, orien_6) 0.142857 0.142857 0.142857 0.142857 0.142857 0.142857 0.142857;
   (up, close_left_down, orien_6) 0.142857 0.142857 0.142857 0.142857 0.142857 0.142857 0.142857;
   (left, right, orien_6) 0.142857 0.142857 0.142857 0.142857 0.142857 0.142857 0.142857;
   (right, right, orien_6) 0.0454545 0.0454545 0.727273 0.0454545 0.0454545 0.0454545 0.0454545;
   (down, right, orien_6) 0.142857 0.142857 0.142857 0.142857 0.142857 0.142857 0.142857;
   (up, right, orien_6) 0.142857 0.142857 0.142857 0.142857 0.142857 0.142857 0.142857;
   (left, down, orien_6) 0.142857 0.142857 0.142857 0.142857 0.142857 0.142857 0.142857;
   (right, down, orien_6) 0.181818 0.272727 0.0909091 0.181818 0.0909091 0.0909091 0.0909091;
   (down, down, orien_6) 0.142857 0.142857 0.142857 0.142857 0.142857 0.142857 0.142857;
   (up, down, orien_6) 0.142857 0.142857 0.142857 0.142857 0.142857 0.142857 0.142857;
   (left, close, orien_6) 0.142857 0.142857 0.142857 0.142857 0.142857 0.142857 0.142857;
   (right, close, orien_6) 0.142857 0.142857 0.142857 0.142857 0.142857 0.142857 0.142857;
   (down, close, orien_6) 0.142857 0.142857 0.142857 0.142857 0.142857 0.142857 0.142857;
   (up, close, orien_6) 0.142857 0.142857 0.142857 0.142857 0.142857 0.142857 0.142857;
   (left, far, orien_6) 0.142857 0.142857 0.142857 0.142857 0.142857 0.142857 0.142857;
   (right, far, orien_6) 0.142857 0.142857 0.142857 0.142857 0.142857 0.142857 0.142857;
   (down, far, orien_6) 0.142857 0.142857 0.142857 0.142857 0.142857 0.142857 0.142857;
   (up, far, orien_6) 0.142857 0.142857 0.142857 0.142857 0.142857 0.142857 0.142857;
   (left, right_down, orien_6) 0.125 0.125 0.125 0.125 0.25 0.125 0.125;
   (right, right_down, orien_6) 0.142857 0.142857 0.142857 0.142857 0.142857 0.142857 0.142857;
   (down, right_down, orien_6) 0.142857 0.142857 0.142857 0.142857 0.142857 0.142857 0.142857;
   (up, right_down, orien_6) 0.142857 0.142857 0.142857 0.142857 0.142857 0.142857 0.142857;
   (left, far_right_down, orien_6) 0.142857 0.142857 0.142857 0.142857 0.142857 0.142857 0.142857;
   (right, far_right_down, orien_6) 0.142857 0.142857 0.142857 0.142857 0.142857 0.142857 0.142857;
   (down, far_right_down, orien_6) 0.25 0.125 0.125 0.125 0.125 0.125 0.125;
   (up, far_right_down, orien_6) 0.142857 0.142857 0.142857 0.142857 0.142857 0.142857 0.142857;
   (left, far_left_down, orien_6) 0.142857 0.142857 0.142857 0.142857 0.142857 0.142857 0.142857;
   (right, far_left_down, orien_6) 0.111111 0.222222 0.111111 0.222222 0.111111 0.111111 0.111111;
   (down, far_left_down, orien_6) 0.142857 0.142857 0.142857 0.142857 0.142857 0.142857 0.142857;
   (up, far_left_down, orien_6) 0.142857 0.142857 0.142857 0.142857 0.142857 0.142857 0.142857;
   (left, far_down, orien_6) 0.142857 0.142857 0.142857 0.142857 0.142857 0.142857 0.142857;
   (right, far_down, orien_6) 0.142857 0.142857 0.142857 0.142857 0.142857 0.142857 0.142857;
   (down, far_down, orien_6) 0.142857 0.142857 0.142857 0.142857 0.142857 0.142857 0.142857;
   (up, far_down, orien_6) 0.142857 0.142857 0.142857 0.142857 0.142857 0.142857 0.142857;
   (left, left_down, orien_6) 0.142857 0.142857 0.142857 0.142857 0.142857 0.142857 0.142857;
   (right, left_down, orien_6) 0.111111 0.222222 0.111111 0.111111 0.111111 0.222222 0.111111;
   (down, left_down, orien_6) 0.142857 0.142857 0.142857 0.142857 0.142857 0.142857 0.142857;
   (up, left_down, orien_6) 0.142857 0.142857 0.142857 0.142857 0.142857 0.142857 0.142857;
   (left, close_right_down, orien_7) 0.142857 0.142857 0.142857 0.142857 0.142857 0.142857 0.142857;
   (right, close_right_down, orien_7) 0.142857 0.142857 0.142857 0.142857 0.142857 0.142857 0.142857;
   (down, close_right_down, orien_7) 0.142857 0.142857 0.142857 0.142857 0.142857 0.142857 0.142857;
   (up, close_right_down, orien_7) 0.111111 0.222222 0.111111 0.222222 0.111111 0.111111 0.111111;
   (left, close_down, orien_7) 0.142857 0.142857 0.142857 0.142857 0.142857 0.142857 0.142857;
   (right, close_down, orien_7) 0.142857 0.142857 0.142857 0.142857 0.142857 0.142857 0.142857;
   (down, close_down, orien_7) 0.142857 0.142857 0.142857 0.142857 0.142857 0.142857 0.142857;
   (up, close_down, orien_7) 0.125 0.125 0.125 0.125 0.125 0.25 0.125;
   (left, left, orien_7) 0.142857 0.142857 0.142857 0.142857 0.142857 0.142857 0.142857;
   (right, left, orien_7) 0.142857 0.142857 0.142857 0.142857 0.142857 0.142857 0.142857;
   (down, left, orien_7) 0.142857 0.142857 0.142857 0.142857 0.142857 0.142857 0.142857;
   (up, left, orien_7) 0.142857 0.142857 0.142857 0.142857 0.142857 0.142857 0.142857;
   (left, close_left_down, orien_7) 0.142857 0.142857 0.142857 0.142857 0.142857 0.142857 0.142857;
   (right, close_left_down, orien_7) 0.142857 0.142857 0.142857 0.142857 0.142857 0.142857 0.142857;
   (down, close_left_down, orien_7) 0.142857 0.142857 0.142857 0.142857 0.142857 0.142857 0.142857;
   (up, close_left_down, orien_7) 0.142857 0.142857 0.142857 0.142857 0.142857 0.142857 0.142857;
   (left, right, orien_7) 0.142857 0.142857 0.142857 0.142857 0.142857 0.142857 0.142857;
   (right, right, orien_7) 0.142857 0.142857 0.142857 0.142857 0.142857 0.142857 0.142857;
   (down, right, orien_7) 0.142857 0.142857 0.142857 0.142857 0.142857 0.142857 0.142857;
   (up, right, orien_7) 0.142857 0.142857 0.142857 0.142857 0.142857 0.142857 0.142857;
   (left, down, orien_7) 0.142857 0.142857 0.142857 0.142857 0.142857 0.142857 0.142857;
   (right, down, orien_7) 0.142857 0.142857 0.142857 0.142857 0.142857 0.142857 0.142857;
   (down, down, orien_7) 0.142857 0.142857 0.142857 0.142857 0.142857 0.142857 0.142857;
   (up, down, orien_7) 0.125 0.125 0.125 0.25 0.125 0.125 0.125;
   (left, close, orien_7) 0.142857 0.142857 0.142857 0.142857 0.142857 0.142857 0.142857;
   (right, close, orien_7) 0.142857 0.142857 0.142857 0.142857 0.142857 0.142857 0.142857;
   (down, close, orien_7) 0.142857 0.142857 0.142857 0.142857 0.142857 0.142857 0.142857;
   (up, close, orien_7) 0.142857 0.142857 0.142857 0.142857 0.142857 0.142857 0.142857;
   (left, far, orien_7) 0.142857 0.142857 0.142857 0.142857 0.142857 0.142857 0.142857;
   (right, far, orien_7) 0.142857 0.142857 0.142857 0.142857 0.142857 0.142857 0.142857;
   (down, far, orien_7) 0.142857 0.142857 0.142857 0.142857 0.142857 0.142857 0.142857;
   (up, far, orien_7) 0.0769231 0.0769231 0.538462 0.0769231 0.0769231 0.0769231 0.0769231;
   (left, right_down, orien_7) 0.142857 0.142857 0.142857 0.142857 0.142857 0.142857 0.142857;
   (right, right_down, orien_7) 0.142857 0.142857 0.142857 0.142857 0.142857 0.142857 0.142857;
   (down, right_down, orien_7) 0.142857 0.142857 0.142857 0.142857 0.142857 0.142857 0.142857;
   (up, right_down, orien_7) 0.142857 0.142857 0.142857 0.142857 0.142857 0.142857 0.142857;
   (left, far_right_down, orien_7) 0.142857 0.142857 0.142857 0.142857 0.142857 0.142857 0.142857;
   (right, far_right_down, orien_7) 0.142857 0.142857 0.142857 0.142857 0.142857 0.142857 0.142857;
   (down, far_right_down, orien_7) 0.142857 0.142857 0.142857 0.142857 0.142857 0.142857 0.142857;
   (up, far_right_down, orien_7) 0.142857 0.142857 0.142857 0.142857 0.142857 0.142857 0.142857;
   (left, far_left_down, orien_7) 0.142857 0.142857 0.142857 0.142857 0.142857 0.142857 0.142857;
   (right, far_left_down, orien_7) 0.333333 0.111111 0.111111 0.111111 0.111111 0.111111 0.111111;
   (down, far_left_down, orien_7) 0.142857 0.142857 0.142857 0.142857 0.142857 0.142857 0.142857;
   (up, far_left_down, orien_7) 0.142857 0.142857 0.142857 0.142857 0.142857 0.142857 0.142857;
   (left, far_down, orien_7) 0.142857 0.142857 0.142857 0.142857 0.142857 0.142857 0.142857;
   (right, far_down, orien_7) 0.142857 0.142857 0.142857 0.142857 0.142857 0.142857 0.142857;
   (down, far_down, orien_7) 0.142857 0.142857 0.142857 0.142857 0.142857 0.142857 0.142857;
   (up, far_down, orien_7) 0.142857 0.142857 0.142857 0.142857 0.142857 0.142857 0.142857;
   (left, left_down, orien_7) 0.142857 0.142857 0.142857 0.142857 0.142857 0.142857 0.142857;
   (right, left_down, orien_7) 0.142857 0.142857 0.142857 0.142857 0.142857 0.142857 0.142857;
   (down, left_down, orien_7) 0.142857 0.142857 0.142857 0.142857 0.142857 0.142857 0.142857;
   (up, left_down, orien_7) 0.142857 0.142857 0.142857 0.142857 0.142857 0.142857 0.142857;
   (left, close_right_down, orien_0) 0.142857 0.142857 0.142857 0.142857 0.142857 0.142857 0.142857;
   (right, close_right_down, orien_0) 0.142857 0.142857 0.142857 0.142857 0.142857 0.142857 0.142857;
   (down, close_right_down, orien_0) 0.142857 0.142857 0.142857 0.142857 0.142857 0.142857 0.142857;
   (up, close_right_down, orien_0) 0.142857 0.142857 0.142857 0.142857 0.142857 0.142857 0.142857;
   (left, close_down, orien_0) 0.142857 0.142857 0.142857 0.142857 0.142857 0.142857 0.142857;
   (right, close_down, orien_0) 0.142857 0.142857 0.142857 0.142857 0.142857 0.142857 0.142857;
   (down, close_down, orien_0) 0.142857 0.142857 0.142857 0.142857 0.142857 0.142857 0.142857;
   (up, close_down, orien_0) 0.125 0.25 0.125 0.125 0.125 0.125 0.125;
   (left, left, orien_0) 0.142857 0.142857 0.142857 0.142857 0.142857 0.142857 0.142857;
   (right, left, orien_0) 0.142857 0.142857 0.142857 0.142857 0.142857 0.142857 0.142857;
   (down, left, orien_0) 0.142857 0.142857 0.142857 0.142857 0.142857 0.142857 0.142857;
   (up, left, orien_0) 0.142857 0.142857 0.142857 0.142857 0.142857 0.142857 0.142857;
   (left, close_left_down, orien_0) 0.142857 0.142857 0.142857 0.142857 0.142857 0.142857 0.142857;
   (right, close_left_down, orien_0) 0.142857 0.142857 0.142857 0.142857 0.142857 0.142857 0.142857;
   (down, close_left_down, orien_0) 0.142857 0.142857 0.142857 0.142857 0.142857 0.142857 0.142857;
   (up, close_left_down, orien_0) 0.111111 0.222222 0.111111 0.222222 0.111111 0.111111 0.111111;
   (left, right, orien_0) 0.142857 0.142857 0.142857 0.142857 0.142857 0.142857 0.142857;
   (right, right, orien_0) 0.142857 0.142857 0.142857 0.142857 0.142857 0.142857 0.142857;
   (down, right, orien_0) 0.142857 0.142857 0.142857 0.142857 0.142857 0.142857 0.142857;
   (up, right, orien_0) 0.142857 0.142857 0.142857 0.142857 0.142857 0.142857 0.142857;
   (left, down, orien_0) 0.142857 0.142857 0.142857 0.142857 0.142857 0.142857 0.142857;
   (right, down, orien_0) 0.142857 0.142857 0.142857 0.142857 0.142857 0.142857 0.142857;
   (down, down, orien_0) 0.142857 0.142857 0.142857 0.142857 0.142857 0.142857 0.142857;
   (up, down, orien_0) 0.272727 0.272727 0.0909091 0.0909091 0.0909091 0.0909091 0.0909091;
   (left, close, orien_0) 0.142857 0.142857 0.142857 0.142857 0.142857 0.142857 0.142857;
   (right, close, orien_0) 0.142857 0.142857 0.142857 0.142857 0.142857 0.142857 0.142857;
   (down, close, orien_0) 0.142857 0.142857 0.142857 0.142857 0.142857 0.142857 0.142857;
   (up, close, orien_0) 0.142857 0.142857 0.142857 0.142857 0.142857 0.142857 0.142857;
   (left, far, orien_0) 0.142857 0.142857 0.142857 0.142857 0.142857 0.142857 0.142857;
   (right, far, orien_0) 0.142857 0.142857 0.142857 0.142857 0.142857 0.142857 0.142857;
   (down, far, orien_0) 0.142857 0.142857 0.142857 0.142857 0.142857 0.142857 0.142857;
   (up, far, orien_0) 0.05 0.05 0.7 0.05 0.05 0.05 0.05;
   (left, right_down, orien_0) 0.142857 0.142857 0.142857 0.142857 0.142857 0.142857 0.142857;
   (right, right_down, orien_0) 0.142857 0.142857 0.142857 0.142857 0.142857 0.142857 0.142857;
   (down, right_down, orien_0) 0.142857 0.142857 0.142857 0.142857 0.142857 0.142857 0.142857;
   (up, right_down, orien_0) 0.142857 0.142857 0.142857 0.142857 0.142857 0.142857 0.142857;
   (left, far_right_down, orien_0) 0.4 0.1 0.1 0.1 0.1 0.1 0.1;
   (right, far_right_down, orien_0) 0.142857 0.142857 0.142857 0.142857 0.142857 0.142857 0.142857;
   (down, far_right_down, orien_0) 0.142857 0.142857 0.142857 0.142857 0.142857 0.142857 0.142857;
   (up, far_right_down, orien_0) 0.142857 0.142857 0.142857 0.142857 0.142857 0.142857 0.142857;
   (left, far_left_down, orien_0) 0.142857 0.142857 0.142857 0.142857 0.142857 0.142857 0.142857;
   (right, far_left_down, orien_0) 0.25 0.125 0.125 0.125 0.125 0.125 0.125;
   (down, far_left_down, orien_0) 0.142857 0.142857 0.142857 0.142857 0.142857 0.142857 0.142857;
   (up, far_left_down, orien_0) 0.142857 0.142857 0.142857 0.142857 0.142857 0.142857 0.142857;
   (left, far_down, orien_0) 0.142857 0.142857 0.142857 0.142857 0.142857 0.142857 0.142857;
   (right, far_down, orien_0) 0.142857 0.142857 0.142857 0.142857 0.142857 0.142857 0.142857;
   (down, far_down, orien_0) 0.2 0.1 0.1 0.1 0.2 0.2 0.1;
   (up, far_down, orien_0) 0.142857 0.142857 0.142857 0.142857 0.142857 0.142857 0.142857;
   (left, left_down, orien_0) 0.142857 0.142857 0.142857 0.142857 0.142857 0.142857 0.142857;
   (right, left_down, orien_0) 0.142857 0.142857 0.142857 0.142857 0.142857 0.142857 0.142857;
   (down, left_down, orien_0) 0.142857 0.142857 0.142857 0.142857 0.142857 0.142857 0.142857;
   (up, left_down, orien_0) 0.142857 0.142857 0.142857 0.142857 0.142857 0.142857 0.142857;
}
probability (move) {
   default 0.054878 0.0426829 0.0914634 0.0609756 0.128049 0.128049 0.128049 0.121951 0.0365854 0.0670732 0.0670732 0.0365854 0.0365854;
}
probability (distance) {
   default 0.493506 0.350649 0.155844;
}

