
network unnamedBN{
   property software aGrUM;
}

variable effect {
   type discrete[4] {left, right, down, up};
}

variable orientation {
   type discrete[8] {orien_4, orien_3, orien_2, orien_1, orien_5, orien_6, orien_7, orien_0};
}

variable inclination {
   type discrete[9] {inclin_3, inclin_5, inclin_8, inclin_4, inclin_7, inclin_2, inclin_1, inclin_0, inclin_6};
}

variable move {
   type discrete[13] {down, close_right_down, left, close_left_down, right, close, close_down, far, right_down, far_right_down, far_down, far_left_down, left_down};
}

variable distance {
   type discrete[5] {dist_5, dist_4, dist_2, dist_1, dist_3};
}

probability (effect | orientation) {
   (orien_4) 0.0784314 0.117647 0.72549 0.0784314;
   (orien_3) 0.208333 0.125 0.625 0.0416667;
   (orien_2) 0.571429 0.0714286 0.214286 0.142857;
   (orien_1) 0.72549 0.0784314 0.0784314 0.117647;
   (orien_5) 0.121212 0.575758 0.181818 0.121212;
   (orien_6) 0.047619 0.714286 0.0952381 0.142857;
   (orien_7) 0.125 0.175 0.125 0.575;
   (orien_0) 0.153846 0.102564 0.0512821 0.692308;
}
probability (orientation) {
   default 0.169014 0.0739437 0.0880282 0.169014 0.105634 0.137324 0.130282 0.126761;
}
probability (inclination) {
   default 0.252632 0.0701754 0.294737 0.122807 0.119298 0.0982456 0.0175439 0.0175439 0.00701754;
}
probability (move | orientation, distance, inclination, effect) {
   (orien_4, dist_5, inclin_3, left) 0.142857 0.0714286 0.0714286 0.0714286 0.0714286 0.0714286 0.0714286 0.0714286 0.0714286 0.0714286 0.0714286 0.0714286 0.0714286;
   (orien_3, dist_5, inclin_3, left) 0.0625 0.25 0.0625 0.0625 0.0625 0.0625 0.0625 0.0625 0.0625 0.0625 0.0625 0.0625 0.0625;
   (orien_2, dist_5, inclin_3, left) 0.176471 0.0588235 0.0588235 0.0588235 0.0588235 0.0588235 0.176471 0.0588235 0.0588235 0.0588235 0.0588235 0.0588235 0.0588235;
   (orien_1, dist_5, inclin_3, left) 0.125 0.0625 0.0625 0.0625 0.0625 0.0625 0.0625 0.0625 0.0625 0.0625 0.1875 0.0625 0.0625;
   (orien_5, dist_5, inclin_3, left) 0.0714286 0.0714286 0.0714286 0.0714286 0.0714286 0.0714286 0.0714286 0.0714286 0.142857 0.0714286 0.0714286 0.0714286 0.0714286;
   (orien_6, dist_5, inclin_3, left) 0.0714286 0.0714286 0.0714286 0.0714286 0.0714286 0.0714286 0.0714286 0.0714286 0.142857 0.0714286 0.0714286 0.0714286 0.0714286;
   (orien_7, dist_5, inclin_3, left) 0.0666667 0.0666667 0.0666667 0.0666667 0.0666667 0.0666667 0.0666667 0.0666667 0.133333 0.0666667 0.133333 0.0666667 0.0666667;
   (orien_0, dist_5, inclin_3, left) 0.117647 0.0588235 0.0588235 0.0588235 0.0588235 0.0588235 0.0588235 0.0588235 0.0588235 0.235294 0.0588235 0.0588235 0.0588235;
   (orien_4, dist_4, inclin_3, left) 0.0769231 0.0769231 0.0769231 0.0769231 0.0769231 0.0769231 0.0769231 0.0769231 0.0769231 0.0769231 0.0769231 0.0769231 0.0769231;
   (orien_3, dist_4, inclin_3, left) 0.0769231 0.0769231 0.0769231 0.0769231 0.0769231 0.0769231 0.0769231 0.0769231 0.0769231 0.0769231 0.0769231 0.0769231 0.0769231;
   (orien_2, dist_4, inclin_3, left) 0.0769231 0.0769231 0.0769231 0.0769231 0.0769231 0.0769231 0.0769231 0.0769231 0.0769231 0.0769231 0.0769231 0.0769231 0.0769231;
   (orien_1, dist_4, inclin_3, left) 0.0769231 0.0769231 0.0769231 0.0769231 0.0769231 0.0769231 0.0769231 0.0769231 0.0769231 0.0769231 0.0769231 0.0769231 0.0769231;
   (orien_5, dist_4, inclin_3, left) 0.0769231 0.0769231 0.0769231 0.0769231 0.0769231 0.0769231 0.0769231 0.0769231 0.0769231 0.0769231 0.0769231 0.0769231 0.0769231;
   (orien_6, dist_4, inclin_3, left) 0.0769231 0.0769231 0.0769231 0.0769231 0.0769231 0.0769231 0.0769231 0.0769231 0.0769231 0.0769231 0.0769231 0.0769231 0.0769231;
   (orien_7, dist_4, inclin_3, left) 0.0769231 0.0769231 0.0769231 0.0769231 0.0769231 0.0769231 0.0769231 0.0769231 0.0769231 0.0769231 0.0769231 0.0769231 0.0769231;
   (orien_0, dist_4, inclin_3, left) 0.0769231 0.0769231 0.0769231 0.0769231 0.0769231 0.0769231 0.0769231 0.0769231 0.0769231 0.0769231 0.0769231 0.0769231 0.0769231;
   (orien_4, dist_2, inclin_3, left) 0.0769231 0.0769231 0.0769231 0.0769231 0.0769231 0.0769231 0.0769231 0.0769231 0.0769231 0.0769231 0.0769231 0.0769231 0.0769231;
   (orien_3, dist_2, inclin_3, left) 0.0769231 0.0769231 0.0769231 0.0769231 0.0769231 0.0769231 0.0769231 0.0769231 0.0769231 0.0769231 0.0769231 0.0769231 0.0769231;
   (orien_2, dist_2, inclin_3, left) 0.0769231 0.0769231 0.0769231 0.0769231 0.0769231 0.0769231 0.0769231 0.0769231 0.0769231 0.0769231 0.0769231 0.0769231 0.0769231;
   (orien_1, dist_2, inclin_3, left) 0.0769231 0.0769231 0.0769231 0.0769231 0.0769231 0.0769231 0.0769231 0.0769231 0.0769231 0.0769231 0.0769231 0.0769231 0.0769231;
   (orien_5, dist_2, inclin_3, left) 0.0769231 0.0769231 0.0769231 0.0769231 0.0769231 0.0769231 0.0769231 0.0769231 0.0769231 0.0769231 0.0769231 0.0769231 0.0769231;
   (orien_6, dist_2, inclin_3, left) 0.0769231 0.0769231 0.0769231 0.0769231 0.0769231 0.0769231 0.0769231 0.0769231 0.0769231 0.0769231 0.0769231 0.0769231 0.0769231;
   (orien_7, dist_2, inclin_3, left) 0.0769231 0.0769231 0.0769231 0.0769231 0.0769231 0.0769231 0.0769231 0.0769231 0.0769231 0.0769231 0.0769231 0.0769231 0.0769231;
   (orien_0, dist_2, inclin_3, left) 0.0769231 0.0769231 0.0769231 0.0769231 0.0769231 0.0769231 0.0769231 0.0769231 0.0769231 0.0769231 0.0769231 0.0769231 0.0769231;
   (orien_4, dist_1, inclin_3, left) 0.0769231 0.0769231 0.0769231 0.0769231 0.0769231 0.0769231 0.0769231 0.0769231 0.0769231 0.0769231 0.0769231 0.0769231 0.0769231;
   (orien_3, dist_1, inclin_3, left) 0.0769231 0.0769231 0.0769231 0.0769231 0.0769231 0.0769231 0.0769231 0.0769231 0.0769231 0.0769231 0.0769231 0.0769231 0.0769231;
   (orien_2, dist_1, inclin_3, left) 0.0769231 0.0769231 0.0769231 0.0769231 0.0769231 0.0769231 0.0769231 0.0769231 0.0769231 0.0769231 0.0769231 0.0769231 0.0769231;
   (orien_1, dist_1, inclin_3, left) 0.0769231 0.0769231 0.0769231 0.0769231 0.0769231 0.0769231 0.0769231 0.0769231 0.0769231 0.0769231 0.0769231 0.0769231 0.0769231;
   (orien_5, dist_1, inclin_3, left) 0.0769231 0.0769231 0.0769231 0.0769231 0.0769231 0.0769231 0.0769231 0.0769231 0.0769231 0.0769231 0.0769231 0.0769231 0.0769231;
   (orien_6, dist_1, inclin_3, left) 0.0769231 0.0769231 0.0769231 0.0769231 0.0769231 0.0769231 0.0769231 0.0769231 0.0769231 0.0769231 0.0769231 0.0769231 0.0769231;
   (orien_7, dist_1, inclin_3, left) 0.0769231 0.0769231 0.0769231 0.0769231 0.0769231 0.0769231 0.0769231 0.0769231 0.0769231 0.0769231 0.0769231 0.0769231 0.0769231;
   (orien_0, dist_1, inclin_3, left) 0.0769231 0.0769231 0.0769231 0.0769231 0.0769231 0.0769231 0.0769231 0.0769231 0.0769231 0.0769231 0.0769231 0.0769231 0.0769231;
   (orien_4, dist_3, inclin_3, left) 0.0769231 0.0769231 0.0769231 0.0769231 0.0769231 0.0769231 0.0769231 0.0769231 0.0769231 0.0769231 0.0769231 0.0769231 0.0769231;
   (orien_3, dist_3, inclin_3, left) 0.0769231 0.0769231 0.0769231 0.0769231 0.0769231 0.0769231 0.0769231 0.0769231 0.0769231 0.0769231 0.0769231 0.0769231 0.0769231;
   (orien_2, dist_3, inclin_3, left) 0.0769231 0.0769231 0.0769231 0.0769231 0.0769231 0.0769231 0.0769231 0.0769231 0.0769231 0.0769231 0.0769231 0.0769231 0.0769231;
   (orien_1, dist_3, inclin_3, left) 0.0769231 0.0769231 0.0769231 0.0769231 0.0769231 0.0769231 0.0769231 0.0769231 0.0769231 0.0769231 0.0769231 0.0769231 0.0769231;
   (orien_5, dist_3, inclin_3, left) 0.0769231 0.0769231 0.0769231 0.0769231 0.0769231 0.0769231 0.0769231 0.0769231 0.0769231 0.0769231 0.0769231 0.0769231 0.0769231;
   (orien_6, dist_3, inclin_3, left) 0.0769231 0.0769231 0.0769231 0.0769231 0.0769231 0.0769231 0.0769231 0.0769231 0.0769231 0.0769231 0.0769231 0.0769231 0.0769231;
   (orien_7, dist_3, inclin_3, left) 0.0769231 0.0769231 0.0769231 0.0769231 0.0769231 0.0769231 0.0769231 0.0769231 0.0769231 0.0769231 0.0769231 0.0769231 0.0769231;
   (orien_0, dist_3, inclin_3, left) 0.0769231 0.0769231 0.0769231 0.0769231 0.0769231 0.0769231 0.0769231 0.0769231 0.0769231 0.0769231 0.0769231 0.0769231 0.0769231;
   (orien_4, dist_5, inclin_5, left) 0.0769231 0.0769231 0.0769231 0.0769231 0.0769231 0.0769231 0.0769231 0.0769231 0.0769231 0.0769231 0.0769231 0.0769231 0.0769231;
   (orien_3, dist_5, inclin_5, left) 0.0769231 0.0769231 0.0769231 0.0769231 0.0769231 0.0769231 0.0769231 0.0769231 0.0769231 0.0769231 0.0769231 0.0769231 0.0769231;
   (orien_2, dist_5, inclin_5, left) 0.133333 0.0666667 0.0666667 0.0666667 0.0666667 0.0666667 0.133333 0.0666667 0.0666667 0.0666667 0.0666667 0.0666667 0.0666667;
   (orien_1, dist_5, inclin_5, left) 0.0714286 0.0714286 0.0714286 0.0714286 0.0714286 0.0714286 0.0714286 0.0714286 0.0714286 0.0714286 0.142857 0.0714286 0.0714286;
   (orien_5, dist_5, inclin_5, left) 0.0769231 0.0769231 0.0769231 0.0769231 0.0769231 0.0769231 0.0769231 0.0769231 0.0769231 0.0769231 0.0769231 0.0769231 0.0769231;
   (orien_6, dist_5, inclin_5, left) 0.0769231 0.0769231 0.0769231 0.0769231 0.0769231 0.0769231 0.0769231 0.0769231 0.0769231 0.0769231 0.0769231 0.0769231 0.0769231;
   (orien_7, dist_5, inclin_5, left) 0.0769231 0.0769231 0.0769231 0.0769231 0.0769231 0.0769231 0.0769231 0.0769231 0.0769231 0.0769231 0.0769231 0.0769231 0.0769231;
   (orien_0, dist_5, inclin_5, left) 0.0769231 0.0769231 0.0769231 0.0769231 0.0769231 0.0769231 0.0769231 0.0769231 0.0769231 0.0769231 0.0769231 0.0769231 0.0769231;
   (orien_4, dist_4, inclin_5, left) 0.0769231 0.0769231 0.0769231 0.0769231 0.0769231 0.0769231 0.0769231 0.0769231 0.0769231 0.0769231 0.0769231 0.0769231 0.0769231;
   (orien_3, dist_4, inclin_5, left) 0.0769231 0.0769231 0.0769231 0.0769231 0.0769231 0.0769231 0.0769231 0.0769231 0.0769231 0.0769231 0.0769231 0.0769231 0.0769231;
   (orien_2, dist_4, inclin_5, left) 0.0714286 0.142857 0.0714286 0.0714286 0.0714286 0.0714286 0.0714286 0.0714286 0.0714286 0.0714286 0.0714286 0.0714286 0.0714286;
   (orien_1, dist_4, inclin_5, left) 0.0714286 0.0714286 0.0714286 0.0714286 0.0714286 0.0714286 0.0714286 0.0714286 0.0714286 0.142857 0.0714286 0.0714286 0.0714286;
   (orien_5, dist_4, inclin_5, left) 0.0769231 0.0769231 0.0769231 0.0769231 0.0769231 0.0769231 0.0769231 0.0769231 0.0769231 0.0769231 0.0769231 0.0769231 0.0769231;
   (orien_6, dist_4, inclin_5, left) 0.0769231 0.0769231 0.0769231 0.0769231 0.0769231 0.0769231 0.0769231 0.0769231 0.0769231 0.0769231 0.0769231 0.0769231 0.0769231;
   (orien_7, dist_4, inclin_5, left) 0.0769231 0.0769231 0.0769231 0.0769231 0.0769231 0.0769231 0.0769231 0.0769231 0.0769231 0.0769231 0.0769231 0.0769231 0.0769231;
   (orien_0, dist_4, inclin_5, left) 0.0769231 0.0769231 0.0769231 0.0769231 0.0769231 0.0769231 0.0769231 0.0769231 0.0769231 0.0769231 0.0769231 0.0769231 0.0769231;
   (orien_4, dist_2, inclin_5, left) 0.0769231 0.0769231 0.0769231 0.0769231 0.0769231 0.0769231 0.0769231 0.0769231 0.0769231 0.0769231 0.0769231 0.0769231 0.0769231;
   (orien_3, dist_2, inclin_5, left) 0.0769231 0.0769231 0.0769231 0.0769231 0.0769231 0.0769231 0.0769231 0.0769231 0.0769231 0.0769231 0.0769231 0.0769231 0.0769231;
   (orien_2, dist_2, inclin_5, left) 0.0769231 0.0769231 0.0769231 0.0769231 0.0769231 0.0769231 0.0769231 0.0769231 0.0769231 0.0769231 0.0769231 0.0769231 0.0769231;
   (orien_1, dist_2, inclin_5, left) 0.0769231 0.0769231 0.0769231 0.0769231 0.0769231 0.0769231 0.0769231 0.0769231 0.0769231 0.0769231 0.0769231 0.0769231 0.0769231;
   (orien_5, dist_2, inclin_5, left) 0.0769231 0.0769231 0.0769231 0.0769231 0.0769231 0.0769231 0.0769231 0.0769231 0.0769231 0.0769231 0.0769231 0.0769231 0.0769231;
   (orien_6, dist_2, inclin_5, left) 0.0769231 0.0769231 0.0769231 0.0769231 0.0769231 0.0769231 0.0769231 0.0769231 0.0769231 0.0769231 0.0769231 0.0769231 0.0769231;
   (orien_7, dist_2, inclin_5, left) 0.0769231 0.0769231 0.0769231 0.0769231 0.0769231 0.0769231 0.0769231 0.0769231 0.0769231 0.0769231 0.0769231 0.0769231 0.0769231;
   (orien_0, dist_2, inclin_5, left) 0.0769231 0.0769231 0.0769231 0.0769231 0.0769231 0.0769231 0.0769231 0.0769231 0.0769231 0.0769231 0.0769231 0.0769231 0.0769231;
   (orien_4, dist_1, inclin_5, left) 0.0769231 0.0769231 0.0769231 0.0769231 0.0769231 0.0769231 0.0769231 0.0769231 0.0769231 0.0769231 0.0769231 0.0769231 0.0769231;
   (orien_3, dist_1, inclin_5, left) 0.0769231 0.0769231 0.0769231 0.0769231 0.0769231 0.0769231 0.0769231 0.0769231 0.0769231 0.0769231 0.0769231 0.0769231 0.0769231;
   (orien_2, dist_1, inclin_5, left) 0.0769231 0.0769231 0.0769231 0.0769231 0.0769231 0.0769231 0.0769231 0.0769231 0.0769231 0.0769231 0.0769231 0.0769231 0.0769231;
   (orien_1, dist_1, inclin_5, left) 0.0769231 0.0769231 0.0769231 0.0769231 0.0769231 0.0769231 0.0769231 0.0769231 0.0769231 0.0769231 0.0769231 0.0769231 0.0769231;
   (orien_5, dist_1, inclin_5, left) 0.0769231 0.0769231 0.0769231 0.0769231 0.0769231 0.0769231 0.0769231 0.0769231 0.0769231 0.0769231 0.0769231 0.0769231 0.0769231;
   (orien_6, dist_1, inclin_5, left) 0.0769231 0.0769231 0.0769231 0.0769231 0.0769231 0.0769231 0.0769231 0.0769231 0.0769231 0.0769231 0.0769231 0.0769231 0.0769231;
   (orien_7, dist_1, inclin_5, left) 0.0769231 0.0769231 0.0769231 0.0769231 0.0769231 0.0769231 0.0769231 0.0769231 0.0769231 0.0769231 0.0769231 0.0769231 0.0769231;
   (orien_0, dist_1, inclin_5, left) 0.0769231 0.0769231 0.0769231 0.0769231 0.0769231 0.0769231 0.0769231 0.0769231 0.0769231 0.0769231 0.0769231 0.0769231 0.0769231;
   (orien_4, dist_3, inclin_5, left) 0.0769231 0.0769231 0.0769231 0.0769231 0.0769231 0.0769231 0.0769231 0.0769231 0.0769231 0.0769231 0.0769231 0.0769231 0.0769231;
   (orien_3, dist_3, inclin_5, left) 0.0769231 0.0769231 0.0769231 0.0769231 0.0769231 0.0769231 0.0769231 0.0769231 0.0769231 0.0769231 0.0769231 0.0769231 0.0769231;
   (orien_2, dist_3, inclin_5, left) 0.0769231 0.0769231 0.0769231 0.0769231 0.0769231 0.0769231 0.0769231 0.0769231 0.0769231 0.0769231 0.0769231 0.0769231 0.0769231;
   (orien_1, dist_3, inclin_5, left) 0.0769231 0.0769231 0.0769231 0.0769231 0.0769231 0.0769231 0.0769231 0.0769231 0.0769231 0.0769231 0.0769231 0.0769231 0.0769231;
   (orien_5, dist_3, inclin_5, left) 0.0769231 0.0769231 0.0769231 0.0769231 0.0769231 0.0769231 0.0769231 0.0769231 0.0769231 0.0769231 0.0769231 0.0769231 0.0769231;
   (orien_6, dist_3, inclin_5, left) 0.0769231 0.0769231 0.0769231 0.0769231 0.0769231 0.0769231 0.0769231 0.0769231 0.0769231 0.0769231 0.0769231 0.0769231 0.0769231;
   (orien_7, dist_3, inclin_5, left) 0.0769231 0.0769231 0.0769231 0.0769231 0.0769231 0.0769231 0.0769231 0.0769231 0.0769231 0.0769231 0.0769231 0.0769231 0.0769231;
   (orien_0, dist_3, inclin_5, left) 0.0769231 0.0769231 0.0769231 0.0769231 0.0769231 0.0769231 0.0769231 0.0769231 0.0769231 0.0769231 0.0769231 0.0769231 0.0769231;
   (orien_4, dist_5, inclin_8, left) 0.0769231 0.0769231 0.0769231 0.0769231 0.0769231 0.0769231 0.0769231 0.0769231 0.0769231 0.0769231 0.0769231 0.0769231 0.0769231;
   (orien_3, dist_5, inclin_8, left) 0.0769231 0.0769231 0.0769231 0.0769231 0.0769231 0.0769231 0.0769231 0.0769231 0.0769231 0.0769231 0.0769231 0.0769231 0.0769231;
   (orien_2, dist_5, inclin_8, left) 0.0769231 0.0769231 0.0769231 0.0769231 0.0769231 0.0769231 0.0769231 0.0769231 0.0769231 0.0769231 0.0769231 0.0769231 0.0769231;
   (orien_1, dist_5, inclin_8, left) 0.0625 0.0625 0.25 0.0625 0.0625 0.0625 0.0625 0.0625 0.0625 0.0625 0.0625 0.0625 0.0625;
   (orien_5, dist_5, inclin_8, left) 0.0769231 0.0769231 0.0769231 0.0769231 0.0769231 0.0769231 0.0769231 0.0769231 0.0769231 0.0769231 0.0769231 0.0769231 0.0769231;
   (orien_6, dist_5, inclin_8, left) 0.0769231 0.0769231 0.0769231 0.0769231 0.0769231 0.0769231 0.0769231 0.0769231 0.0769231 0.0769231 0.0769231 0.0769231 0.0769231;
   (orien_7, dist_5, inclin_8, left) 0.0769231 0.0769231 0.0769231 0.0769231 0.0769231 0.0769231 0.0769231 0.0769231 0.0769231 0.0769231 0.0769231 0.0769231 0.0769231;
   (orien_0, dist_5, inclin_8, left) 0.0769231 0.0769231 0.0769231 0.0769231 0.0769231 0.0769231 0.0769231 0.0769231 0.0769231 0.0769231 0.0769231 0.0769231 0.0769231;
   (orien_4, dist_4, inclin_8, left) 0.0769231 0.0769231 0.0769231 0.0769231 0.0769231 0.0769231 0.0769231 0.0769231 0.0769231 0.0769231 0.0769231 0.0769231 0.0769231;
   (orien_3, dist_4, inclin_8, left) 0.0769231 0.0769231 0.0769231 0.0769231 0.0769231 0.0769231 0.0769231 0.0769231 0.0769231 0.0769231 0.0769231 0.0769231 0.0769231;
   (orien_2, dist_4, inclin_8, left) 0.0769231 0.0769231 0.0769231 0.0769231 0.0769231 0.0769231 0.0769231 0.0769231 0.0769231 0.0769231 0.0769231 0.0769231 0.0769231;
   (orien_1, dist_4, inclin_8, left) 0.0555556 0.0555556 0.333333 0.0555556 0.0555556 0.0555556 0.0555556 0.0555556 0.0555556 0.0555556 0.0555556 0.0555556 0.0555556;
   (orien_5, dist_4, inclin_8, left) 0.0769231 0.0769231 0.0769231 0.0769231 0.0769231 0.0769231 0.0769231 0.0769231 0.0769231 0.0769231 0.0769231 0.0769231 0.0769231;
   (orien_6, dist_4, inclin_8, left) 0.0769231 0.0769231 0.0769231 0.0769231 0.0769231 0.0769231 0.0769231 0.0769231 0.0769231 0.0769231 0.0769231 0.0769231 0.0769231;
   (orien_7, dist_4, inclin_8, left) 0.0769231 0.0769231 0.0769231 0.0769231 0.0769231 0.0769231 0.0769231 0.0769231 0.0769231 0.0769231 0.0769231 0.0769231 0.0769231;
   (orien_0, dist_4, inclin_8, left) 0.0769231 0.0769231 0.0769231 0.0769231 0.0769231 0.0769231 0.0769231 0.0769231 0.0769231 0.0769231 0.0769231 0.0769231 0.0769231;
   (orien_4, dist_2, inclin_8, left) 0.0769231 0.0769231 0.0769231 0.0769231 0.0769231 0.0769231 0.0769231 0.0769231 0.0769231 0.0769231 0.0769231 0.0769231 0.0769231;
   (orien_3, dist_2, inclin_8, left) 0.0769231 0.0769231 0.0769231 0.0769231 0.0769231 0.0769231 0.0769231 0.0769231 0.0769231 0.0769231 0.0769231 0.0769231 0.0769231;
   (orien_2, dist_2, inclin_8, left) 0.0769231 0.0769231 0.0769231 0.0769231 0.0769231 0.0769231 0.0769231 0.0769231 0.0769231 0.0769231 0.0769231 0.0769231 0.0769231;
   (orien_1, dist_2, inclin_8, left) 0.047619 0.047619 0.428571 0.047619 0.047619 0.047619 0.047619 0.047619 0.047619 0.047619 0.047619 0.047619 0.047619;
   (orien_5, dist_2, inclin_8, left) 0.0769231 0.0769231 0.0769231 0.0769231 0.0769231 0.0769231 0.0769231 0.0769231 0.0769231 0.0769231 0.0769231 0.0769231 0.0769231;
   (orien_6, dist_2, inclin_8, left) 0.0769231 0.0769231 0.0769231 0.0769231 0.0769231 0.0769231 0.0769231 0.0769231 0.0769231 0.0769231 0.0769231 0.0769231 0.0769231;
   (orien_7, dist_2, inclin_8, left) 0.0769231 0.0769231 0.0769231 0.0769231 0.0769231 0.0769231 0.0769231 0.0769231 0.0769231 0.0769231 0.0769231 0.0769231 0.0769231;
   (orien_0, dist_2, inclin_8, left) 0.0769231 0.0769231 0.0769231 0.0769231 0.0769231 0.0769231 0.0769231 0.0769231 0.0769231 0.0769231 0.0769231 0.0769231 0.0769231;
   (orien_4, dist_1, inclin_8, left) 0.0769231 0.0769231 0.0769231 0.0769231 0.0769231 0.0769231 0.0769231 0.0769231 0.0769231 0.0769231 0.0769231 0.0769231 0.0769231;
   (orien_3, dist_1, inclin_8, left) 0.0769231 0.0769231 0.0769231 0.0769231 0.0769231 0.0769231 0.0769231 0.0769231 0.0769231 0.0769231 0.0769231 0.0769231 0.0769231;
   (orien_2, dist_1, inclin_8, left) 0.0769231 0.0769231 0.0769231 0.0769231 0.0769231 0.0769231 0.0769231 0.0769231 0.0769231 0.0769231 0.0769231 0.0769231 0.0769231;
   (orien_1, dist_1, inclin_8, left) 0.047619 0.047619 0.428571 0.047619 0.047619 0.047619 0.047619 0.047619 0.047619 0.047619 0.047619 0.047619 0.047619;
   (orien_5, dist_1, inclin_8, left) 0.0769231 0.0769231 0.0769231 0.0769231 0.0769231 0.0769231 0.0769231 0.0769231 0.0769231 0.0769231 0.0769231 0.0769231 0.0769231;
   (orien_6, dist_1, inclin_8, left) 0.0769231 0.0769231 0.0769231 0.0769231 0.0769231 0.0769231 0.0769231 0.0769231 0.0769231 0.0769231 0.0769231 0.0769231 0.0769231;
   (orien_7, dist_1, inclin_8, left) 0.0769231 0.0769231 0.0769231 0.0769231 0.0769231 0.0769231 0.0769231 0.0769231 0.0769231 0.0769231 0.0769231 0.0769231 0.0769231;
   (orien_0, dist_1, inclin_8, left) 0.0769231 0.0769231 0.0769231 0.0769231 0.0769231 0.0769231 0.0769231 0.0769231 0.0769231 0.0769231 0.0769231 0.0769231 0.0769231;
   (orien_4, dist_3, inclin_8, left) 0.0769231 0.0769231 0.0769231 0.0769231 0.0769231 0.0769231 0.0769231 0.0769231 0.0769231 0.0769231 0.0769231 0.0769231 0.0769231;
   (orien_3, dist_3, inclin_8, left) 0.0769231 0.0769231 0.0769231 0.0769231 0.0769231 0.0769231 0.0769231 0.0769231 0.0769231 0.0769231 0.0769231 0.0769231 0.0769231;
   (orien_2, dist_3, inclin_8, left) 0.0769231 0.0769231 0.0769231 0.0769231 0.0769231 0.0769231 0.0769231 0.0769231 0.0769231 0.0769231 0.0769231 0.0769231 0.0769231;
   (orien_1, dist_3, inclin_8, left) 0.0625 0.0625 0.25 0.0625 0.0625 0.0625 0.0625 0.0625 0.0625 0.0625 0.0625 0.0625 0.0625;
   (orien_5, dist_3, inclin_8, left) 0.0769231 0.0769231 0.0769231 0.0769231 0.0769231 0.0769231 0.0769231 0.0769231 0.0769231 0.0769231 0.0769231 0.0769231 0.0769231;
   (orien_6, dist_3, inclin_8, left) 0.0769231 0.0769231 0.0769231 0.0769231 0.0769231 0.0769231 0.0769231 0.0769231 0.0769231 0.0769231 0.0769231 0.0769231 0.0769231;
   (orien_7, dist_3, inclin_8, left) 0.0769231 0.0769231 0.0769231 0.0769231 0.0769231 0.0769231 0.0769231 0.0769231 0.0769231 0.0769231 0.0769231 0.0769231 0.0769231;
   (orien_0, dist_3, inclin_8, left) 0.0769231 0.0769231 0.0769231 0.0769231 0.0769231 0.0769231 0.0769231 0.0769231 0.0769231 0.0769231 0.0769231 0.0769231 0.0769231;
   (orien_4, dist_5, inclin_4, left) 0.0769231 0.0769231 0.0769231 0.0769231 0.0769231 0.0769231 0.0769231 0.0769231 0.0769231 0.0769231 0.0769231 0.0769231 0.0769231;
   (orien_3, dist_5, inclin_4, left) 0.0769231 0.0769231 0.0769231 0.0769231 0.0769231 0.0769231 0.0769231 0.0769231 0.0769231 0.0769231 0.0769231 0.0769231 0.0769231;
   (orien_2, dist_5, inclin_4, left) 0.1875 0.0625 0.0625 0.0625 0.0625 0.0625 0.125 0.0625 0.0625 0.0625 0.0625 0.0625 0.0625;
   (orien_1, dist_5, inclin_4, left) 0.0714286 0.0714286 0.0714286 0.0714286 0.0714286 0.0714286 0.0714286 0.0714286 0.0714286 0.0714286 0.142857 0.0714286 0.0714286;
   (orien_5, dist_5, inclin_4, left) 0.0769231 0.0769231 0.0769231 0.0769231 0.0769231 0.0769231 0.0769231 0.0769231 0.0769231 0.0769231 0.0769231 0.0769231 0.0769231;
   (orien_6, dist_5, inclin_4, left) 0.0769231 0.0769231 0.0769231 0.0769231 0.0769231 0.0769231 0.0769231 0.0769231 0.0769231 0.0769231 0.0769231 0.0769231 0.0769231;
   (orien_7, dist_5, inclin_4, left) 0.0769231 0.0769231 0.0769231 0.0769231 0.0769231 0.0769231 0.0769231 0.0769231 0.0769231 0.0769231 0.0769231 0.0769231 0.0769231;
   (orien_0, dist_5, inclin_4, left) 0.0769231 0.0769231 0.0769231 0.0769231 0.0769231 0.0769231 0.0769231 0.0769231 0.0769231 0.0769231 0.0769231 0.0769231 0.0769231;
   (orien_4, dist_4, inclin_4, left) 0.0769231 0.0769231 0.0769231 0.0769231 0.0769231 0.0769231 0.0769231 0.0769231 0.0769231 0.0769231 0.0769231 0.0769231 0.0769231;
   (orien_3, dist_4, inclin_4, left) 0.0769231 0.0769231 0.0769231 0.0769231 0.0769231 0.0769231 0.0769231 0.0769231 0.0769231 0.0769231 0.0769231 0.0769231 0.0769231;
   (orien_2, dist_4, inclin_4, left) 0.0769231 0.0769231 0.0769231 0.0769231 0.0769231 0.0769231 0.0769231 0.0769231 0.0769231 0.0769231 0.0769231 0.0769231 0.0769231;
   (orien_1, dist_4, inclin_4, left) 0.0769231 0.0769231 0.0769231 0.0769231 0.0769231 0.0769231 0.0769231 0.0769231 0.0769231 0.0769231 0.0769231 0.0769231 0.0769231;
   (orien_5, dist_4, inclin_4, left) 0.0769231 0.0769231 0.0769231 0.0769231 0.0769231 0.0769231 0.0769231 0.0769231 0.0769231 0.0769231 0.0769231 0.0769231 0.0769231;
   (orien_6, dist_4, inclin_4, left) 0.0769231 0.0769231 0.0769231 0.0769231 0.0769231 0.0769231 0.0769231 0.0769231 0.0769231 0.0769231 0.0769231 0.0769231 0.0769231;
   (orien_7, dist_4, inclin_4, left) 0.0769231 0.0769231 0.0769231 0.0769231 0.0769231 0.0769231 0.0769231 0.0769231 0.0769231 0.0769231 0.0769231 0.0769231 0.0769231;
   (orien_0, dist_4, inclin_4, left) 0.0769231 0.0769231 0.0769231 0.0769231 0.0769231 0.0769231 0.0769231 0.0769231 0.0769231 0.0769231 0.0769231 0.0769231 0.0769231;
   (orien_4, dist_2, inclin_4, left) 0.0769231 0.0769231 0.0769231 0.0769231 0.0769231 0.0769231 0.0769231 0.0769231 0.0769231 0.0769231 0.0769231 0.0769231 0.0769231;
   (orien_3, dist_2, inclin_4, left) 0.0769231 0.0769231 0.0769231 0.0769231 0.0769231 0.0769231 0.0769231 0.0769231 0.0769231 0.0769231 0.0769231 0.0769231 0.0769231;
   (orien_2, dist_2, inclin_4, left) 0.0714286 0.0714286 0.0714286 0.0714286 0.0714286 0.0714286 0.0714286 0.0714286 0.142857 0.0714286 0.0714286 0.0714286 0.0714286;
   (orien_1, dist_2, inclin_4, left) 0.0769231 0.0769231 0.0769231 0.0769231 0.0769231 0.0769231 0.0769231 0.0769231 0.0769231 0.0769231 0.0769231 0.0769231 0.0769231;
   (orien_5, dist_2, inclin_4, left) 0.0769231 0.0769231 0.0769231 0.0769231 0.0769231 0.0769231 0.0769231 0.0769231 0.0769231 0.0769231 0.0769231 0.0769231 0.0769231;
   (orien_6, dist_2, inclin_4, left) 0.0769231 0.0769231 0.0769231 0.0769231 0.0769231 0.0769231 0.0769231 0.0769231 0.0769231 0.0769231 0.0769231 0.0769231 0.0769231;
   (orien_7, dist_2, inclin_4, left) 0.0769231 0.0769231 0.0769231 0.0769231 0.0769231 0.0769231 0.0769231 0.0769231 0.0769231 0.0769231 0.0769231 0.0769231 0.0769231;
   (orien_0, dist_2, inclin_4, left) 0.0769231 0.0769231 0.0769231 0.0769231 0.0769231 0.0769231 0.0769231 0.0769231 0.0769231 0.0769231 0.0769231 0.0769231 0.0769231;
   (orien_4, dist_1, inclin_4, left) 0.0769231 0.0769231 0.0769231 0.0769231 0.0769231 0.0769231 0.0769231 0.0769231 0.0769231 0.0769231 0.0769231 0.0769231 0.0769231;
   (orien_3, dist_1, inclin_4, left) 0.0769231 0.0769231 0.0769231 0.0769231 0.0769231 0.0769231 0.0769231 0.0769231 0.0769231 0.0769231 0.0769231 0.0769231 0.0769231;
   (orien_2, dist_1, inclin_4, left) 0.0769231 0.0769231 0.0769231 0.0769231 0.0769231 0.0769231 0.0769231 0.0769231 0.0769231 0.0769231 0.0769231 0.0769231 0.0769231;
   (orien_1, dist_1, inclin_4, left) 0.0769231 0.0769231 0.0769231 0.0769231 0.0769231 0.0769231 0.0769231 0.0769231 0.0769231 0.0769231 0.0769231 0.0769231 0.0769231;
   (orien_5, dist_1, inclin_4, left) 0.0769231 0.0769231 0.0769231 0.0769231 0.0769231 0.0769231 0.0769231 0.0769231 0.0769231 0.0769231 0.0769231 0.0769231 0.0769231;
   (orien_6, dist_1, inclin_4, left) 0.0769231 0.0769231 0.0769231 0.0769231 0.0769231 0.0769231 0.0769231 0.0769231 0.0769231 0.0769231 0.0769231 0.0769231 0.0769231;
   (orien_7, dist_1, inclin_4, left) 0.0769231 0.0769231 0.0769231 0.0769231 0.0769231 0.0769231 0.0769231 0.0769231 0.0769231 0.0769231 0.0769231 0.0769231 0.0769231;
   (orien_0, dist_1, inclin_4, left) 0.0769231 0.0769231 0.0769231 0.0769231 0.0769231 0.0769231 0.0769231 0.0769231 0.0769231 0.0769231 0.0769231 0.0769231 0.0769231;
   (orien_4, dist_3, inclin_4, left) 0.0769231 0.0769231 0.0769231 0.0769231 0.0769231 0.0769231 0.0769231 0.0769231 0.0769231 0.0769231 0.0769231 0.0769231 0.0769231;
   (orien_3, dist_3, inclin_4, left) 0.0769231 0.0769231 0.0769231 0.0769231 0.0769231 0.0769231 0.0769231 0.0769231 0.0769231 0.0769231 0.0769231 0.0769231 0.0769231;
   (orien_2, dist_3, inclin_4, left) 0.0714286 0.142857 0.0714286 0.0714286 0.0714286 0.0714286 0.0714286 0.0714286 0.0714286 0.0714286 0.0714286 0.0714286 0.0714286;
   (orien_1, dist_3, inclin_4, left) 0.0714286 0.0714286 0.0714286 0.0714286 0.0714286 0.0714286 0.0714286 0.0714286 0.0714286 0.142857 0.0714286 0.0714286 0.0714286;
   (orien_5, dist_3, inclin_4, left) 0.0769231 0.0769231 0.0769231 0.0769231 0.0769231 0.0769231 0.0769231 0.0769231 0.0769231 0.0769231 0.0769231 0.0769231 0.0769231;
   (orien_6, dist_3, inclin_4, left) 0.0769231 0.0769231 0.0769231 0.0769231 0.0769231 0.0769231 0.0769231 0.0769231 0.0769231 0.0769231 0.0769231 0.0769231 0.0769231;
   (orien_7, dist_3, inclin_4, left) 0.0769231 0.0769231 0.0769231 0.0769231 0.0769231 0.0769231 0.0769231 0.0769231 0.0769231 0.0769231 0.0769231 0.0769231 0.0769231;
   (orien_0, dist_3, inclin_4, left) 0.0769231 0.0769231 0.0769231 0.0769231 0.0769231 0.0769231 0.0769231 0.0769231 0.0769231 0.0769231 0.0769231 0.0769231 0.0769231;
   (orien_4, dist_5, inclin_7, left) 0.0769231 0.0769231 0.0769231 0.0769231 0.0769231 0.0769231 0.0769231 0.0769231 0.0769231 0.0769231 0.0769231 0.0769231 0.0769231;
   (orien_3, dist_5, inclin_7, left) 0.0769231 0.0769231 0.0769231 0.0769231 0.0769231 0.0769231 0.0769231 0.0769231 0.0769231 0.0769231 0.0769231 0.0769231 0.0769231;
   (orien_2, dist_5, inclin_7, left) 0.2 0.0666667 0.0666667 0.0666667 0.0666667 0.0666667 0.0666667 0.0666667 0.0666667 0.0666667 0.0666667 0.0666667 0.0666667;
   (orien_1, dist_5, inclin_7, left) 0.142857 0.0714286 0.0714286 0.0714286 0.0714286 0.0714286 0.0714286 0.0714286 0.0714286 0.0714286 0.0714286 0.0714286 0.0714286;
   (orien_5, dist_5, inclin_7, left) 0.0769231 0.0769231 0.0769231 0.0769231 0.0769231 0.0769231 0.0769231 0.0769231 0.0769231 0.0769231 0.0769231 0.0769231 0.0769231;
   (orien_6, dist_5, inclin_7, left) 0.0769231 0.0769231 0.0769231 0.0769231 0.0769231 0.0769231 0.0769231 0.0769231 0.0769231 0.0769231 0.0769231 0.0769231 0.0769231;
   (orien_7, dist_5, inclin_7, left) 0.0769231 0.0769231 0.0769231 0.0769231 0.0769231 0.0769231 0.0769231 0.0769231 0.0769231 0.0769231 0.0769231 0.0769231 0.0769231;
   (orien_0, dist_5, inclin_7, left) 0.0769231 0.0769231 0.0769231 0.0769231 0.0769231 0.0769231 0.0769231 0.0769231 0.0769231 0.0769231 0.0769231 0.0769231 0.0769231;
   (orien_4, dist_4, inclin_7, left) 0.0769231 0.0769231 0.0769231 0.0769231 0.0769231 0.0769231 0.0769231 0.0769231 0.0769231 0.0769231 0.0769231 0.0769231 0.0769231;
   (orien_3, dist_4, inclin_7, left) 0.0769231 0.0769231 0.0769231 0.0769231 0.0769231 0.0769231 0.0769231 0.0769231 0.0769231 0.0769231 0.0769231 0.0769231 0.0769231;
   (orien_2, dist_4, inclin_7, left) 0.0769231 0.0769231 0.0769231 0.0769231 0.0769231 0.0769231 0.0769231 0.0769231 0.0769231 0.0769231 0.0769231 0.0769231 0.0769231;
   (orien_1, dist_4, inclin_7, left) 0.142857 0.0714286 0.0714286 0.0714286 0.0714286 0.0714286 0.0714286 0.0714286 0.0714286 0.0714286 0.0714286 0.0714286 0.0714286;
   (orien_5, dist_4, inclin_7, left) 0.0769231 0.0769231 0.0769231 0.0769231 0.0769231 0.0769231 0.0769231 0.0769231 0.0769231 0.0769231 0.0769231 0.0769231 0.0769231;
   (orien_6, dist_4, inclin_7, left) 0.0769231 0.0769231 0.0769231 0.0769231 0.0769231 0.0769231 0.0769231 0.0769231 0.0769231 0.0769231 0.0769231 0.0769231 0.0769231;
   (orien_7, dist_4, inclin_7, left) 0.0769231 0.0769231 0.0769231 0.0769231 0.0769231 0.0769231 0.0769231 0.0769231 0.0769231 0.0769231 0.0769231 0.0769231 0.0769231;
   (orien_0, dist_4, inclin_7, left) 0.0769231 0.0769231 0.0769231 0.0769231 0.0769231 0.0769231 0.0769231 0.0769231 0.0769231 0.0769231 0.0769231 0.0769231 0.0769231;
   (orien_4, dist_2, inclin_7, left) 0.0769231 0.0769231 0.0769231 0.0769231 0.0769231 0.0769231 0.0769231 0.0769231 0.0769231 0.0769231 0.0769231 0.0769231 0.0769231;
   (orien_3, dist_2, inclin_7, left) 0.0769231 0.0769231 0.0769231 0.0769231 0.0769231 0.0769231 0.0769231 0.0769231 0.0769231 0.0769231 0.0769231 0.0769231 0.0769231;
   (orien_2, dist_2, inclin_7, left) 0.0769231 0.0769231 0.0769231 0.0769231 0.0769231 0.0769231 0.0769231 0.0769231 0.0769231 0.0769231 0.0769231 0.0769231 0.0769231;
   (orien_1, dist_2, inclin_7, left) 0.0769231 0.0769231 0.0769231 0.0769231 0.0769231 0.0769231 0.0769231 0.0769231 0.0769231 0.0769231 0.0769231 0.0769231 0.0769231;
   (orien_5, dist_2, inclin_7, left) 0.0769231 0.0769231 0.0769231 0.0769231 0.0769231 0.0769231 0.0769231 0.0769231 0.0769231 0.0769231 0.0769231 0.0769231 0.0769231;
   (orien_6, dist_2, inclin_7, left) 0.0769231 0.0769231 0.0769231 0.0769231 0.0769231 0.0769231 0.0769231 0.0769231 0.0769231 0.0769231 0.0769231 0.0769231 0.0769231;
   (orien_7, dist_2, inclin_7, left) 0.0769231 0.0769231 0.0769231 0.0769231 0.0769231 0.0769231 0.0769231 0.0769231 0.0769231 0.0769231 0.0769231 0.0769231 0.0769231;
   (orien_0, dist_2, inclin_7, left) 0.0769231 0.0769231 0.0769231 0.0769231 0.0769231 0.0769231 0.0769231 0.0769231 0.0769231 0.0769231 0.0769231 0.0769231 0.0769231;
   (orien_4, dist_1, inclin_7, left) 0.0769231 0.0769231 0.0769231 0.0769231 0.0769231 0.0769231 0.0769231 0.0769231 0.0769231 0.0769231 0.0769231 0.0769231 0.0769231;
   (orien_3, dist_1, inclin_7, left) 0.0769231 0.0769231 0.0769231 0.0769231 0.0769231 0.0769231 0.0769231 0.0769231 0.0769231 0.0769231 0.0769231 0.0769231 0.0769231;
   (orien_2, dist_1, inclin_7, left) 0.0769231 0.0769231 0.0769231 0.0769231 0.0769231 0.0769231 0.0769231 0.0769231 0.0769231 0.0769231 0.0769231 0.0769231 0.0769231;
   (orien_1, dist_1, inclin_7, left) 0.0769231 0.0769231 0.0769231 0.0769231 0.0769231 0.0769231 0.0769231 0.0769231 0.0769231 0.0769231 0.0769231 0.0769231 0.0769231;
   (orien_5, dist_1, inclin_7, left) 0.0769231 0.0769231 0.0769231 0.0769231 0.0769231 0.0769231 0.0769231 0.0769231 0.0769231 0.0769231 0.0769231 0.0769231 0.0769231;
   (orien_6, dist_1, inclin_7, left) 0.0769231 0.0769231 0.0769231 0.0769231 0.0769231 0.0769231 0.0769231 0.0769231 0.0769231 0.0769231 0.0769231 0.0769231 0.0769231;
   (orien_7, dist_1, inclin_7, left) 0.0769231 0.0769231 0.0769231 0.0769231 0.0769231 0.0769231 0.0769231 0.0769231 0.0769231 0.0769231 0.0769231 0.0769231 0.0769231;
   (orien_0, dist_1, inclin_7, left) 0.0769231 0.0769231 0.0769231 0.0769231 0.0769231 0.0769231 0.0769231 0.0769231 0.0769231 0.0769231 0.0769231 0.0769231 0.0769231;
   (orien_4, dist_3, inclin_7, left) 0.0769231 0.0769231 0.0769231 0.0769231 0.0769231 0.0769231 0.0769231 0.0769231 0.0769231 0.0769231 0.0769231 0.0769231 0.0769231;
   (orien_3, dist_3, inclin_7, left) 0.0769231 0.0769231 0.0769231 0.0769231 0.0769231 0.0769231 0.0769231 0.0769231 0.0769231 0.0769231 0.0769231 0.0769231 0.0769231;
   (orien_2, dist_3, inclin_7, left) 0.0769231 0.0769231 0.0769231 0.0769231 0.0769231 0.0769231 0.0769231 0.0769231 0.0769231 0.0769231 0.0769231 0.0769231 0.0769231;
   (orien_1, dist_3, inclin_7, left) 0.0769231 0.0769231 0.0769231 0.0769231 0.0769231 0.0769231 0.0769231 0.0769231 0.0769231 0.0769231 0.0769231 0.0769231 0.0769231;
   (orien_5, dist_3, inclin_7, left) 0.0769231 0.0769231 0.0769231 0.0769231 0.0769231 0.0769231 0.0769231 0.0769231 0.0769231 0.0769231 0.0769231 0.0769231 0.0769231;
   (orien_6, dist_3, inclin_7, left) 0.0769231 0.0769231 0.0769231 0.0769231 0.0769231 0.0769231 0.0769231 0.0769231 0.0769231 0.0769231 0.0769231 0.0769231 0.0769231;
   (orien_7, dist_3, inclin_7, left) 0.0769231 0.0769231 0.0769231 0.0769231 0.0769231 0.0769231 0.0769231 0.0769231 0.0769231 0.0769231 0.0769231 0.0769231 0.0769231;
   (orien_0, dist_3, inclin_7, left) 0.0769231 0.0769231 0.0769231 0.0769231 0.0769231 0.0769231 0.0769231 0.0769231 0.0769231 0.0769231 0.0769231 0.0769231 0.0769231;
   (orien_4, dist_5, inclin_2, left) 0.0666667 0.2 0.0666667 0.0666667 0.0666667 0.0666667 0.0666667 0.0666667 0.0666667 0.0666667 0.0666667 0.0666667 0.0666667;
   (orien_3, dist_5, inclin_2, left) 0.0769231 0.0769231 0.0769231 0.0769231 0.0769231 0.0769231 0.0769231 0.0769231 0.0769231 0.0769231 0.0769231 0.0769231 0.0769231;
   (orien_2, dist_5, inclin_2, left) 0.0769231 0.0769231 0.0769231 0.0769231 0.0769231 0.0769231 0.0769231 0.0769231 0.0769231 0.0769231 0.0769231 0.0769231 0.0769231;
   (orien_1, dist_5, inclin_2, left) 0.0769231 0.0769231 0.0769231 0.0769231 0.0769231 0.0769231 0.0769231 0.0769231 0.0769231 0.0769231 0.0769231 0.0769231 0.0769231;
   (orien_5, dist_5, inclin_2, left) 0.0714286 0.0714286 0.0714286 0.0714286 0.0714286 0.0714286 0.0714286 0.0714286 0.142857 0.0714286 0.0714286 0.0714286 0.0714286;
   (orien_6, dist_5, inclin_2, left) 0.0769231 0.0769231 0.0769231 0.0769231 0.0769231 0.0769231 0.0769231 0.0769231 0.0769231 0.0769231 0.0769231 0.0769231 0.0769231;
   (orien_7, dist_5, inclin_2, left) 0.0666667 0.0666667 0.0666667 0.0666667 0.0666667 0.0666667 0.0666667 0.0666667 0.0666667 0.2 0.0666667 0.0666667 0.0666667;
   (orien_0, dist_5, inclin_2, left) 0.0769231 0.0769231 0.0769231 0.0769231 0.0769231 0.0769231 0.0769231 0.0769231 0.0769231 0.0769231 0.0769231 0.0769231 0.0769231;
   (orien_4, dist_4, inclin_2, left) 0.0769231 0.0769231 0.0769231 0.0769231 0.0769231 0.0769231 0.0769231 0.0769231 0.0769231 0.0769231 0.0769231 0.0769231 0.0769231;
   (orien_3, dist_4, inclin_2, left) 0.0714286 0.142857 0.0714286 0.0714286 0.0714286 0.0714286 0.0714286 0.0714286 0.0714286 0.0714286 0.0714286 0.0714286 0.0714286;
   (orien_2, dist_4, inclin_2, left) 0.0769231 0.0769231 0.0769231 0.0769231 0.0769231 0.0769231 0.0769231 0.0769231 0.0769231 0.0769231 0.0769231 0.0769231 0.0769231;
   (orien_1, dist_4, inclin_2, left) 0.0769231 0.0769231 0.0769231 0.0769231 0.0769231 0.0769231 0.0769231 0.0769231 0.0769231 0.0769231 0.0769231 0.0769231 0.0769231;
   (orien_5, dist_4, inclin_2, left) 0.0769231 0.0769231 0.0769231 0.0769231 0.0769231 0.0769231 0.0769231 0.0769231 0.0769231 0.0769231 0.0769231 0.0769231 0.0769231;
   (orien_6, dist_4, inclin_2, left) 0.0769231 0.0769231 0.0769231 0.0769231 0.0769231 0.0769231 0.0769231 0.0769231 0.0769231 0.0769231 0.0769231 0.0769231 0.0769231;
   (orien_7, dist_4, inclin_2, left) 0.0769231 0.0769231 0.0769231 0.0769231 0.0769231 0.0769231 0.0769231 0.0769231 0.0769231 0.0769231 0.0769231 0.0769231 0.0769231;
   (orien_0, dist_4, inclin_2, left) 0.0714286 0.0714286 0.0714286 0.0714286 0.0714286 0.0714286 0.0714286 0.0714286 0.0714286 0.142857 0.0714286 0.0714286 0.0714286;
   (orien_4, dist_2, inclin_2, left) 0.0769231 0.0769231 0.0769231 0.0769231 0.0769231 0.0769231 0.0769231 0.0769231 0.0769231 0.0769231 0.0769231 0.0769231 0.0769231;
   (orien_3, dist_2, inclin_2, left) 0.0769231 0.0769231 0.0769231 0.0769231 0.0769231 0.0769231 0.0769231 0.0769231 0.0769231 0.0769231 0.0769231 0.0769231 0.0769231;
   (orien_2, dist_2, inclin_2, left) 0.0769231 0.0769231 0.0769231 0.0769231 0.0769231 0.0769231 0.0769231 0.0769231 0.0769231 0.0769231 0.0769231 0.0769231 0.0769231;
   (orien_1, dist_2, inclin_2, left) 0.0769231 0.0769231 0.0769231 0.0769231 0.0769231 0.0769231 0.0769231 0.0769231 0.0769231 0.0769231 0.0769231 0.0769231 0.0769231;
   (orien_5, dist_2, inclin_2, left) 0.0769231 0.0769231 0.0769231 0.0769231 0.0769231 0.0769231 0.0769231 0.0769231 0.0769231 0.0769231 0.0769231 0.0769231 0.0769231;
   (orien_6, dist_2, inclin_2, left) 0.0769231 0.0769231 0.0769231 0.0769231 0.0769231 0.0769231 0.0769231 0.0769231 0.0769231 0.0769231 0.0769231 0.0769231 0.0769231;
   (orien_7, dist_2, inclin_2, left) 0.0769231 0.0769231 0.0769231 0.0769231 0.0769231 0.0769231 0.0769231 0.0769231 0.0769231 0.0769231 0.0769231 0.0769231 0.0769231;
   (orien_0, dist_2, inclin_2, left) 0.0769231 0.0769231 0.0769231 0.0769231 0.0769231 0.0769231 0.0769231 0.0769231 0.0769231 0.0769231 0.0769231 0.0769231 0.0769231;
   (orien_4, dist_1, inclin_2, left) 0.0769231 0.0769231 0.0769231 0.0769231 0.0769231 0.0769231 0.0769231 0.0769231 0.0769231 0.0769231 0.0769231 0.0769231 0.0769231;
   (orien_3, dist_1, inclin_2, left) 0.0769231 0.0769231 0.0769231 0.0769231 0.0769231 0.0769231 0.0769231 0.0769231 0.0769231 0.0769231 0.0769231 0.0769231 0.0769231;
   (orien_2, dist_1, inclin_2, left) 0.0769231 0.0769231 0.0769231 0.0769231 0.0769231 0.0769231 0.0769231 0.0769231 0.0769231 0.0769231 0.0769231 0.0769231 0.0769231;
   (orien_1, dist_1, inclin_2, left) 0.0769231 0.0769231 0.0769231 0.0769231 0.0769231 0.0769231 0.0769231 0.0769231 0.0769231 0.0769231 0.0769231 0.0769231 0.0769231;
   (orien_5, dist_1, inclin_2, left) 0.0769231 0.0769231 0.0769231 0.0769231 0.0769231 0.0769231 0.0769231 0.0769231 0.0769231 0.0769231 0.0769231 0.0769231 0.0769231;
   (orien_6, dist_1, inclin_2, left) 0.0769231 0.0769231 0.0769231 0.0769231 0.0769231 0.0769231 0.0769231 0.0769231 0.0769231 0.0769231 0.0769231 0.0769231 0.0769231;
   (orien_7, dist_1, inclin_2, left) 0.0769231 0.0769231 0.0769231 0.0769231 0.0769231 0.0769231 0.0769231 0.0769231 0.0769231 0.0769231 0.0769231 0.0769231 0.0769231;
   (orien_0, dist_1, inclin_2, left) 0.0769231 0.0769231 0.0769231 0.0769231 0.0769231 0.0769231 0.0769231 0.0769231 0.0769231 0.0769231 0.0769231 0.0769231 0.0769231;
   (orien_4, dist_3, inclin_2, left) 0.0769231 0.0769231 0.0769231 0.0769231 0.0769231 0.0769231 0.0769231 0.0769231 0.0769231 0.0769231 0.0769231 0.0769231 0.0769231;
   (orien_3, dist_3, inclin_2, left) 0.0769231 0.0769231 0.0769231 0.0769231 0.0769231 0.0769231 0.0769231 0.0769231 0.0769231 0.0769231 0.0769231 0.0769231 0.0769231;
   (orien_2, dist_3, inclin_2, left) 0.0769231 0.0769231 0.0769231 0.0769231 0.0769231 0.0769231 0.0769231 0.0769231 0.0769231 0.0769231 0.0769231 0.0769231 0.0769231;
   (orien_1, dist_3, inclin_2, left) 0.0769231 0.0769231 0.0769231 0.0769231 0.0769231 0.0769231 0.0769231 0.0769231 0.0769231 0.0769231 0.0769231 0.0769231 0.0769231;
   (orien_5, dist_3, inclin_2, left) 0.0769231 0.0769231 0.0769231 0.0769231 0.0769231 0.0769231 0.0769231 0.0769231 0.0769231 0.0769231 0.0769231 0.0769231 0.0769231;
   (orien_6, dist_3, inclin_2, left) 0.0769231 0.0769231 0.0769231 0.0769231 0.0769231 0.0769231 0.0769231 0.0769231 0.0769231 0.0769231 0.0769231 0.0769231 0.0769231;
   (orien_7, dist_3, inclin_2, left) 0.0769231 0.0769231 0.0769231 0.0769231 0.0769231 0.0769231 0.0769231 0.0769231 0.0769231 0.0769231 0.0769231 0.0769231 0.0769231;
   (orien_0, dist_3, inclin_2, left) 0.0769231 0.0769231 0.0769231 0.0769231 0.0769231 0.0769231 0.0769231 0.0769231 0.0769231 0.0769231 0.0769231 0.0769231 0.0769231;
   (orien_4, dist_5, inclin_1, left) 0.0769231 0.0769231 0.0769231 0.0769231 0.0769231 0.0769231 0.0769231 0.0769231 0.0769231 0.0769231 0.0769231 0.0769231 0.0769231;
   (orien_3, dist_5, inclin_1, left) 0.0769231 0.0769231 0.0769231 0.0769231 0.0769231 0.0769231 0.0769231 0.0769231 0.0769231 0.0769231 0.0769231 0.0769231 0.0769231;
   (orien_2, dist_5, inclin_1, left) 0.0769231 0.0769231 0.0769231 0.0769231 0.0769231 0.0769231 0.0769231 0.0769231 0.0769231 0.0769231 0.0769231 0.0769231 0.0769231;
   (orien_1, dist_5, inclin_1, left) 0.0769231 0.0769231 0.0769231 0.0769231 0.0769231 0.0769231 0.0769231 0.0769231 0.0769231 0.0769231 0.0769231 0.0769231 0.0769231;
   (orien_5, dist_5, inclin_1, left) 0.0714286 0.0714286 0.0714286 0.0714286 0.0714286 0.0714286 0.0714286 0.0714286 0.142857 0.0714286 0.0714286 0.0714286 0.0714286;
   (orien_6, dist_5, inclin_1, left) 0.0769231 0.0769231 0.0769231 0.0769231 0.0769231 0.0769231 0.0769231 0.0769231 0.0769231 0.0769231 0.0769231 0.0769231 0.0769231;
   (orien_7, dist_5, inclin_1, left) 0.0769231 0.0769231 0.0769231 0.0769231 0.0769231 0.0769231 0.0769231 0.0769231 0.0769231 0.0769231 0.0769231 0.0769231 0.0769231;
   (orien_0, dist_5, inclin_1, left) 0.0769231 0.0769231 0.0769231 0.0769231 0.0769231 0.0769231 0.0769231 0.0769231 0.0769231 0.0769231 0.0769231 0.0769231 0.0769231;
   (orien_4, dist_4, inclin_1, left) 0.0769231 0.0769231 0.0769231 0.0769231 0.0769231 0.0769231 0.0769231 0.0769231 0.0769231 0.0769231 0.0769231 0.0769231 0.0769231;
   (orien_3, dist_4, inclin_1, left) 0.0769231 0.0769231 0.0769231 0.0769231 0.0769231 0.0769231 0.0769231 0.0769231 0.0769231 0.0769231 0.0769231 0.0769231 0.0769231;
   (orien_2, dist_4, inclin_1, left) 0.0769231 0.0769231 0.0769231 0.0769231 0.0769231 0.0769231 0.0769231 0.0769231 0.0769231 0.0769231 0.0769231 0.0769231 0.0769231;
   (orien_1, dist_4, inclin_1, left) 0.0769231 0.0769231 0.0769231 0.0769231 0.0769231 0.0769231 0.0769231 0.0769231 0.0769231 0.0769231 0.0769231 0.0769231 0.0769231;
   (orien_5, dist_4, inclin_1, left) 0.0769231 0.0769231 0.0769231 0.0769231 0.0769231 0.0769231 0.0769231 0.0769231 0.0769231 0.0769231 0.0769231 0.0769231 0.0769231;
   (orien_6, dist_4, inclin_1, left) 0.0769231 0.0769231 0.0769231 0.0769231 0.0769231 0.0769231 0.0769231 0.0769231 0.0769231 0.0769231 0.0769231 0.0769231 0.0769231;
   (orien_7, dist_4, inclin_1, left) 0.0769231 0.0769231 0.0769231 0.0769231 0.0769231 0.0769231 0.0769231 0.0769231 0.0769231 0.0769231 0.0769231 0.0769231 0.0769231;
   (orien_0, dist_4, inclin_1, left) 0.0769231 0.0769231 0.0769231 0.0769231 0.0769231 0.0769231 0.0769231 0.0769231 0.0769231 0.0769231 0.0769231 0.0769231 0.0769231;
   (orien_4, dist_2, inclin_1, left) 0.0769231 0.0769231 0.0769231 0.0769231 0.0769231 0.0769231 0.0769231 0.0769231 0.0769231 0.0769231 0.0769231 0.0769231 0.0769231;
   (orien_3, dist_2, inclin_1, left) 0.0769231 0.0769231 0.0769231 0.0769231 0.0769231 0.0769231 0.0769231 0.0769231 0.0769231 0.0769231 0.0769231 0.0769231 0.0769231;
   (orien_2, dist_2, inclin_1, left) 0.0769231 0.0769231 0.0769231 0.0769231 0.0769231 0.0769231 0.0769231 0.0769231 0.0769231 0.0769231 0.0769231 0.0769231 0.0769231;
   (orien_1, dist_2, inclin_1, left) 0.0769231 0.0769231 0.0769231 0.0769231 0.0769231 0.0769231 0.0769231 0.0769231 0.0769231 0.0769231 0.0769231 0.0769231 0.0769231;
   (orien_5, dist_2, inclin_1, left) 0.0769231 0.0769231 0.0769231 0.0769231 0.0769231 0.0769231 0.0769231 0.0769231 0.0769231 0.0769231 0.0769231 0.0769231 0.0769231;
   (orien_6, dist_2, inclin_1, left) 0.0769231 0.0769231 0.0769231 0.0769231 0.0769231 0.0769231 0.0769231 0.0769231 0.0769231 0.0769231 0.0769231 0.0769231 0.0769231;
   (orien_7, dist_2, inclin_1, left) 0.0769231 0.0769231 0.0769231 0.0769231 0.0769231 0.0769231 0.0769231 0.0769231 0.0769231 0.0769231 0.0769231 0.0769231 0.0769231;
   (orien_0, dist_2, inclin_1, left) 0.0769231 0.0769231 0.0769231 0.0769231 0.0769231 0.0769231 0.0769231 0.0769231 0.0769231 0.0769231 0.0769231 0.0769231 0.0769231;
   (orien_4, dist_1, inclin_1, left) 0.0769231 0.0769231 0.0769231 0.0769231 0.0769231 0.0769231 0.0769231 0.0769231 0.0769231 0.0769231 0.0769231 0.0769231 0.0769231;
   (orien_3, dist_1, inclin_1, left) 0.0769231 0.0769231 0.0769231 0.0769231 0.0769231 0.0769231 0.0769231 0.0769231 0.0769231 0.0769231 0.0769231 0.0769231 0.0769231;
   (orien_2, dist_1, inclin_1, left) 0.0769231 0.0769231 0.0769231 0.0769231 0.0769231 0.0769231 0.0769231 0.0769231 0.0769231 0.0769231 0.0769231 0.0769231 0.0769231;
   (orien_1, dist_1, inclin_1, left) 0.0769231 0.0769231 0.0769231 0.0769231 0.0769231 0.0769231 0.0769231 0.0769231 0.0769231 0.0769231 0.0769231 0.0769231 0.0769231;
   (orien_5, dist_1, inclin_1, left) 0.0769231 0.0769231 0.0769231 0.0769231 0.0769231 0.0769231 0.0769231 0.0769231 0.0769231 0.0769231 0.0769231 0.0769231 0.0769231;
   (orien_6, dist_1, inclin_1, left) 0.0769231 0.0769231 0.0769231 0.0769231 0.0769231 0.0769231 0.0769231 0.0769231 0.0769231 0.0769231 0.0769231 0.0769231 0.0769231;
   (orien_7, dist_1, inclin_1, left) 0.0769231 0.0769231 0.0769231 0.0769231 0.0769231 0.0769231 0.0769231 0.0769231 0.0769231 0.0769231 0.0769231 0.0769231 0.0769231;
   (orien_0, dist_1, inclin_1, left) 0.0769231 0.0769231 0.0769231 0.0769231 0.0769231 0.0769231 0.0769231 0.0769231 0.0769231 0.0769231 0.0769231 0.0769231 0.0769231;
   (orien_4, dist_3, inclin_1, left) 0.0769231 0.0769231 0.0769231 0.0769231 0.0769231 0.0769231 0.0769231 0.0769231 0.0769231 0.0769231 0.0769231 0.0769231 0.0769231;
   (orien_3, dist_3, inclin_1, left) 0.0769231 0.0769231 0.0769231 0.0769231 0.0769231 0.0769231 0.0769231 0.0769231 0.0769231 0.0769231 0.0769231 0.0769231 0.0769231;
   (orien_2, dist_3, inclin_1, left) 0.0769231 0.0769231 0.0769231 0.0769231 0.0769231 0.0769231 0.0769231 0.0769231 0.0769231 0.0769231 0.0769231 0.0769231 0.0769231;
   (orien_1, dist_3, inclin_1, left) 0.0769231 0.0769231 0.0769231 0.0769231 0.0769231 0.0769231 0.0769231 0.0769231 0.0769231 0.0769231 0.0769231 0.0769231 0.0769231;
   (orien_5, dist_3, inclin_1, left) 0.0769231 0.0769231 0.0769231 0.0769231 0.0769231 0.0769231 0.0769231 0.0769231 0.0769231 0.0769231 0.0769231 0.0769231 0.0769231;
   (orien_6, dist_3, inclin_1, left) 0.0769231 0.0769231 0.0769231 0.0769231 0.0769231 0.0769231 0.0769231 0.0769231 0.0769231 0.0769231 0.0769231 0.0769231 0.0769231;
   (orien_7, dist_3, inclin_1, left) 0.0769231 0.0769231 0.0769231 0.0769231 0.0769231 0.0769231 0.0769231 0.0769231 0.0769231 0.0769231 0.0769231 0.0769231 0.0769231;
   (orien_0, dist_3, inclin_1, left) 0.0769231 0.0769231 0.0769231 0.0769231 0.0769231 0.0769231 0.0769231 0.0769231 0.0769231 0.0769231 0.0769231 0.0769231 0.0769231;
   (orien_4, dist_5, inclin_0, left) 0.0769231 0.0769231 0.0769231 0.0769231 0.0769231 0.0769231 0.0769231 0.0769231 0.0769231 0.0769231 0.0769231 0.0769231 0.0769231;
   (orien_3, dist_5, inclin_0, left) 0.0769231 0.0769231 0.0769231 0.0769231 0.0769231 0.0769231 0.0769231 0.0769231 0.0769231 0.0769231 0.0769231 0.0769231 0.0769231;
   (orien_2, dist_5, inclin_0, left) 0.0769231 0.0769231 0.0769231 0.0769231 0.0769231 0.0769231 0.0769231 0.0769231 0.0769231 0.0769231 0.0769231 0.0769231 0.0769231;
   (orien_1, dist_5, inclin_0, left) 0.0769231 0.0769231 0.0769231 0.0769231 0.0769231 0.0769231 0.0769231 0.0769231 0.0769231 0.0769231 0.0769231 0.0769231 0.0769231;
   (orien_5, dist_5, inclin_0, left) 0.0769231 0.0769231 0.0769231 0.0769231 0.0769231 0.0769231 0.0769231 0.0769231 0.0769231 0.0769231 0.0769231 0.0769231 0.0769231;
   (orien_6, dist_5, inclin_0, left) 0.0769231 0.0769231 0.0769231 0.0769231 0.0769231 0.0769231 0.0769231 0.0769231 0.0769231 0.0769231 0.0769231 0.0769231 0.0769231;
   (orien_7, dist_5, inclin_0, left) 0.0769231 0.0769231 0.0769231 0.0769231 0.0769231 0.0769231 0.0769231 0.0769231 0.0769231 0.0769231 0.0769231 0.0769231 0.0769231;
   (orien_0, dist_5, inclin_0, left) 0.0769231 0.0769231 0.0769231 0.0769231 0.0769231 0.0769231 0.0769231 0.0769231 0.0769231 0.0769231 0.0769231 0.0769231 0.0769231;
   (orien_4, dist_4, inclin_0, left) 0.0769231 0.0769231 0.0769231 0.0769231 0.0769231 0.0769231 0.0769231 0.0769231 0.0769231 0.0769231 0.0769231 0.0769231 0.0769231;
   (orien_3, dist_4, inclin_0, left) 0.0769231 0.0769231 0.0769231 0.0769231 0.0769231 0.0769231 0.0769231 0.0769231 0.0769231 0.0769231 0.0769231 0.0769231 0.0769231;
   (orien_2, dist_4, inclin_0, left) 0.0769231 0.0769231 0.0769231 0.0769231 0.0769231 0.0769231 0.0769231 0.0769231 0.0769231 0.0769231 0.0769231 0.0769231 0.0769231;
   (orien_1, dist_4, inclin_0, left) 0.0769231 0.0769231 0.0769231 0.0769231 0.0769231 0.0769231 0.0769231 0.0769231 0.0769231 0.0769231 0.0769231 0.0769231 0.0769231;
   (orien_5, dist_4, inclin_0, left) 0.0769231 0.0769231 0.0769231 0.0769231 0.0769231 0.0769231 0.0769231 0.0769231 0.0769231 0.0769231 0.0769231 0.0769231 0.0769231;
   (orien_6, dist_4, inclin_0, left) 0.0769231 0.0769231 0.0769231 0.0769231 0.0769231 0.0769231 0.0769231 0.0769231 0.0769231 0.0769231 0.0769231 0.0769231 0.0769231;
   (orien_7, dist_4, inclin_0, left) 0.0769231 0.0769231 0.0769231 0.0769231 0.0769231 0.0769231 0.0769231 0.0769231 0.0769231 0.0769231 0.0769231 0.0769231 0.0769231;
   (orien_0, dist_4, inclin_0, left) 0.0769231 0.0769231 0.0769231 0.0769231 0.0769231 0.0769231 0.0769231 0.0769231 0.0769231 0.0769231 0.0769231 0.0769231 0.0769231;
   (orien_4, dist_2, inclin_0, left) 0.0769231 0.0769231 0.0769231 0.0769231 0.0769231 0.0769231 0.0769231 0.0769231 0.0769231 0.0769231 0.0769231 0.0769231 0.0769231;
   (orien_3, dist_2, inclin_0, left) 0.0769231 0.0769231 0.0769231 0.0769231 0.0769231 0.0769231 0.0769231 0.0769231 0.0769231 0.0769231 0.0769231 0.0769231 0.0769231;
   (orien_2, dist_2, inclin_0, left) 0.0769231 0.0769231 0.0769231 0.0769231 0.0769231 0.0769231 0.0769231 0.0769231 0.0769231 0.0769231 0.0769231 0.0769231 0.0769231;
   (orien_1, dist_2, inclin_0, left) 0.0769231 0.0769231 0.0769231 0.0769231 0.0769231 0.0769231 0.0769231 0.0769231 0.0769231 0.0769231 0.0769231 0.0769231 0.0769231;
   (orien_5, dist_2, inclin_0, left) 0.0769231 0.0769231 0.0769231 0.0769231 0.0769231 0.0769231 0.0769231 0.0769231 0.0769231 0.0769231 0.0769231 0.0769231 0.0769231;
   (orien_6, dist_2, inclin_0, left) 0.0769231 0.0769231 0.0769231 0.0769231 0.0769231 0.0769231 0.0769231 0.0769231 0.0769231 0.0769231 0.0769231 0.0769231 0.0769231;
   (orien_7, dist_2, inclin_0, left) 0.0769231 0.0769231 0.0769231 0.0769231 0.0769231 0.0769231 0.0769231 0.0769231 0.0769231 0.0769231 0.0769231 0.0769231 0.0769231;
   (orien_0, dist_2, inclin_0, left) 0.0769231 0.0769231 0.0769231 0.0769231 0.0769231 0.0769231 0.0769231 0.0769231 0.0769231 0.0769231 0.0769231 0.0769231 0.0769231;
   (orien_4, dist_1, inclin_0, left) 0.0769231 0.0769231 0.0769231 0.0769231 0.0769231 0.0769231 0.0769231 0.0769231 0.0769231 0.0769231 0.0769231 0.0769231 0.0769231;
   (orien_3, dist_1, inclin_0, left) 0.0769231 0.0769231 0.0769231 0.0769231 0.0769231 0.0769231 0.0769231 0.0769231 0.0769231 0.0769231 0.0769231 0.0769231 0.0769231;
   (orien_2, dist_1, inclin_0, left) 0.0769231 0.0769231 0.0769231 0.0769231 0.0769231 0.0769231 0.0769231 0.0769231 0.0769231 0.0769231 0.0769231 0.0769231 0.0769231;
   (orien_1, dist_1, inclin_0, left) 0.0769231 0.0769231 0.0769231 0.0769231 0.0769231 0.0769231 0.0769231 0.0769231 0.0769231 0.0769231 0.0769231 0.0769231 0.0769231;
   (orien_5, dist_1, inclin_0, left) 0.0769231 0.0769231 0.0769231 0.0769231 0.0769231 0.0769231 0.0769231 0.0769231 0.0769231 0.0769231 0.0769231 0.0769231 0.0769231;
   (orien_6, dist_1, inclin_0, left) 0.0769231 0.0769231 0.0769231 0.0769231 0.0769231 0.0769231 0.0769231 0.0769231 0.0769231 0.0769231 0.0769231 0.0769231 0.0769231;
   (orien_7, dist_1, inclin_0, left) 0.0769231 0.0769231 0.0769231 0.0769231 0.0769231 0.0769231 0.0769231 0.0769231 0.0769231 0.0769231 0.0769231 0.0769231 0.0769231;
   (orien_0, dist_1, inclin_0, left) 0.0769231 0.0769231 0.0769231 0.0769231 0.0769231 0.0769231 0.0769231 0.0769231 0.0769231 0.0769231 0.0769231 0.0769231 0.0769231;
   (orien_4, dist_3, inclin_0, left) 0.0769231 0.0769231 0.0769231 0.0769231 0.0769231 0.0769231 0.0769231 0.0769231 0.0769231 0.0769231 0.0769231 0.0769231 0.0769231;
   (orien_3, dist_3, inclin_0, left) 0.0769231 0.0769231 0.0769231 0.0769231 0.0769231 0.0769231 0.0769231 0.0769231 0.0769231 0.0769231 0.0769231 0.0769231 0.0769231;
   (orien_2, dist_3, inclin_0, left) 0.0714286 0.0714286 0.0714286 0.0714286 0.0714286 0.0714286 0.0714286 0.0714286 0.142857 0.0714286 0.0714286 0.0714286 0.0714286;
   (orien_1, dist_3, inclin_0, left) 0.0769231 0.0769231 0.0769231 0.0769231 0.0769231 0.0769231 0.0769231 0.0769231 0.0769231 0.0769231 0.0769231 0.0769231 0.0769231;
   (orien_5, dist_3, inclin_0, left) 0.0769231 0.0769231 0.0769231 0.0769231 0.0769231 0.0769231 0.0769231 0.0769231 0.0769231 0.0769231 0.0769231 0.0769231 0.0769231;
   (orien_6, dist_3, inclin_0, left) 0.0769231 0.0769231 0.0769231 0.0769231 0.0769231 0.0769231 0.0769231 0.0769231 0.0769231 0.0769231 0.0769231 0.0769231 0.0769231;
   (orien_7, dist_3, inclin_0, left) 0.0769231 0.0769231 0.0769231 0.0769231 0.0769231 0.0769231 0.0769231 0.0769231 0.0769231 0.0769231 0.0769231 0.0769231 0.0769231;
   (orien_0, dist_3, inclin_0, left) 0.0769231 0.0769231 0.0769231 0.0769231 0.0769231 0.0769231 0.0769231 0.0769231 0.0769231 0.0769231 0.0769231 0.0769231 0.0769231;
   (orien_4, dist_5, inclin_6, left) 0.0769231 0.0769231 0.0769231 0.0769231 0.0769231 0.0769231 0.0769231 0.0769231 0.0769231 0.0769231 0.0769231 0.0769231 0.0769231;
   (orien_3, dist_5, inclin_6, left) 0.0769231 0.0769231 0.0769231 0.0769231 0.0769231 0.0769231 0.0769231 0.0769231 0.0769231 0.0769231 0.0769231 0.0769231 0.0769231;
   (orien_2, dist_5, inclin_6, left) 0.0769231 0.0769231 0.0769231 0.0769231 0.0769231 0.0769231 0.0769231 0.0769231 0.0769231 0.0769231 0.0769231 0.0769231 0.0769231;
   (orien_1, dist_5, inclin_6, left) 0.0769231 0.0769231 0.0769231 0.0769231 0.0769231 0.0769231 0.0769231 0.0769231 0.0769231 0.0769231 0.0769231 0.0769231 0.0769231;
   (orien_5, dist_5, inclin_6, left) 0.0769231 0.0769231 0.0769231 0.0769231 0.0769231 0.0769231 0.0769231 0.0769231 0.0769231 0.0769231 0.0769231 0.0769231 0.0769231;
   (orien_6, dist_5, inclin_6, left) 0.0769231 0.0769231 0.0769231 0.0769231 0.0769231 0.0769231 0.0769231 0.0769231 0.0769231 0.0769231 0.0769231 0.0769231 0.0769231;
   (orien_7, dist_5, inclin_6, left) 0.0769231 0.0769231 0.0769231 0.0769231 0.0769231 0.0769231 0.0769231 0.0769231 0.0769231 0.0769231 0.0769231 0.0769231 0.0769231;
   (orien_0, dist_5, inclin_6, left) 0.0769231 0.0769231 0.0769231 0.0769231 0.0769231 0.0769231 0.0769231 0.0769231 0.0769231 0.0769231 0.0769231 0.0769231 0.0769231;
   (orien_4, dist_4, inclin_6, left) 0.0769231 0.0769231 0.0769231 0.0769231 0.0769231 0.0769231 0.0769231 0.0769231 0.0769231 0.0769231 0.0769231 0.0769231 0.0769231;
   (orien_3, dist_4, inclin_6, left) 0.0769231 0.0769231 0.0769231 0.0769231 0.0769231 0.0769231 0.0769231 0.0769231 0.0769231 0.0769231 0.0769231 0.0769231 0.0769231;
   (orien_2, dist_4, inclin_6, left) 0.0769231 0.0769231 0.0769231 0.0769231 0.0769231 0.0769231 0.0769231 0.0769231 0.0769231 0.0769231 0.0769231 0.0769231 0.0769231;
   (orien_1, dist_4, inclin_6, left) 0.0769231 0.0769231 0.0769231 0.0769231 0.0769231 0.0769231 0.0769231 0.0769231 0.0769231 0.0769231 0.0769231 0.0769231 0.0769231;
   (orien_5, dist_4, inclin_6, left) 0.0769231 0.0769231 0.0769231 0.0769231 0.0769231 0.0769231 0.0769231 0.0769231 0.0769231 0.0769231 0.0769231 0.0769231 0.0769231;
   (orien_6, dist_4, inclin_6, left) 0.0769231 0.0769231 0.0769231 0.0769231 0.0769231 0.0769231 0.0769231 0.0769231 0.0769231 0.0769231 0.0769231 0.0769231 0.0769231;
   (orien_7, dist_4, inclin_6, left) 0.0769231 0.0769231 0.0769231 0.0769231 0.0769231 0.0769231 0.0769231 0.0769231 0.0769231 0.0769231 0.0769231 0.0769231 0.0769231;
   (orien_0, dist_4, inclin_6, left) 0.0769231 0.0769231 0.0769231 0.0769231 0.0769231 0.0769231 0.0769231 0.0769231 0.0769231 0.0769231 0.0769231 0.0769231 0.0769231;
   (orien_4, dist_2, inclin_6, left) 0.0769231 0.0769231 0.0769231 0.0769231 0.0769231 0.0769231 0.0769231 0.0769231 0.0769231 0.0769231 0.0769231 0.0769231 0.0769231;
   (orien_3, dist_2, inclin_6, left) 0.0769231 0.0769231 0.0769231 0.0769231 0.0769231 0.0769231 0.0769231 0.0769231 0.0769231 0.0769231 0.0769231 0.0769231 0.0769231;
   (orien_2, dist_2, inclin_6, left) 0.0769231 0.0769231 0.0769231 0.0769231 0.0769231 0.0769231 0.0769231 0.0769231 0.0769231 0.0769231 0.0769231 0.0769231 0.0769231;
   (orien_1, dist_2, inclin_6, left) 0.0769231 0.0769231 0.0769231 0.0769231 0.0769231 0.0769231 0.0769231 0.0769231 0.0769231 0.0769231 0.0769231 0.0769231 0.0769231;
   (orien_5, dist_2, inclin_6, left) 0.0769231 0.0769231 0.0769231 0.0769231 0.0769231 0.0769231 0.0769231 0.0769231 0.0769231 0.0769231 0.0769231 0.0769231 0.0769231;
   (orien_6, dist_2, inclin_6, left) 0.0769231 0.0769231 0.0769231 0.0769231 0.0769231 0.0769231 0.0769231 0.0769231 0.0769231 0.0769231 0.0769231 0.0769231 0.0769231;
   (orien_7, dist_2, inclin_6, left) 0.0769231 0.0769231 0.0769231 0.0769231 0.0769231 0.0769231 0.0769231 0.0769231 0.0769231 0.0769231 0.0769231 0.0769231 0.0769231;
   (orien_0, dist_2, inclin_6, left) 0.0769231 0.0769231 0.0769231 0.0769231 0.0769231 0.0769231 0.0769231 0.0769231 0.0769231 0.0769231 0.0769231 0.0769231 0.0769231;
   (orien_4, dist_1, inclin_6, left) 0.0769231 0.0769231 0.0769231 0.0769231 0.0769231 0.0769231 0.0769231 0.0769231 0.0769231 0.0769231 0.0769231 0.0769231 0.0769231;
   (orien_3, dist_1, inclin_6, left) 0.0769231 0.0769231 0.0769231 0.0769231 0.0769231 0.0769231 0.0769231 0.0769231 0.0769231 0.0769231 0.0769231 0.0769231 0.0769231;
   (orien_2, dist_1, inclin_6, left) 0.0769231 0.0769231 0.0769231 0.0769231 0.0769231 0.0769231 0.0769231 0.0769231 0.0769231 0.0769231 0.0769231 0.0769231 0.0769231;
   (orien_1, dist_1, inclin_6, left) 0.0769231 0.0769231 0.0769231 0.0769231 0.0769231 0.0769231 0.0769231 0.0769231 0.0769231 0.0769231 0.0769231 0.0769231 0.0769231;
   (orien_5, dist_1, inclin_6, left) 0.0769231 0.0769231 0.0769231 0.0769231 0.0769231 0.0769231 0.0769231 0.0769231 0.0769231 0.0769231 0.0769231 0.0769231 0.0769231;
   (orien_6, dist_1, inclin_6, left) 0.0769231 0.0769231 0.0769231 0.0769231 0.0769231 0.0769231 0.0769231 0.0769231 0.0769231 0.0769231 0.0769231 0.0769231 0.0769231;
   (orien_7, dist_1, inclin_6, left) 0.0769231 0.0769231 0.0769231 0.0769231 0.0769231 0.0769231 0.0769231 0.0769231 0.0769231 0.0769231 0.0769231 0.0769231 0.0769231;
   (orien_0, dist_1, inclin_6, left) 0.0769231 0.0769231 0.0769231 0.0769231 0.0769231 0.0769231 0.0769231 0.0769231 0.0769231 0.0769231 0.0769231 0.0769231 0.0769231;
   (orien_4, dist_3, inclin_6, left) 0.0769231 0.0769231 0.0769231 0.0769231 0.0769231 0.0769231 0.0769231 0.0769231 0.0769231 0.0769231 0.0769231 0.0769231 0.0769231;
   (orien_3, dist_3, inclin_6, left) 0.0769231 0.0769231 0.0769231 0.0769231 0.0769231 0.0769231 0.0769231 0.0769231 0.0769231 0.0769231 0.0769231 0.0769231 0.0769231;
   (orien_2, dist_3, inclin_6, left) 0.0769231 0.0769231 0.0769231 0.0769231 0.0769231 0.0769231 0.0769231 0.0769231 0.0769231 0.0769231 0.0769231 0.0769231 0.0769231;
   (orien_1, dist_3, inclin_6, left) 0.0769231 0.0769231 0.0769231 0.0769231 0.0769231 0.0769231 0.0769231 0.0769231 0.0769231 0.0769231 0.0769231 0.0769231 0.0769231;
   (orien_5, dist_3, inclin_6, left) 0.0769231 0.0769231 0.0769231 0.0769231 0.0769231 0.0769231 0.0769231 0.0769231 0.0769231 0.0769231 0.0769231 0.0769231 0.0769231;
   (orien_6, dist_3, inclin_6, left) 0.0769231 0.0769231 0.0769231 0.0769231 0.0769231 0.0769231 0.0769231 0.0769231 0.0769231 0.0769231 0.0769231 0.0769231 0.0769231;
   (orien_7, dist_3, inclin_6, left) 0.0769231 0.0769231 0.0769231 0.0769231 0.0769231 0.0769231 0.0769231 0.0769231 0.0769231 0.0769231 0.0769231 0.0769231 0.0769231;
   (orien_0, dist_3, inclin_6, left) 0.0769231 0.0769231 0.0769231 0.0769231 0.0769231 0.0769231 0.0769231 0.0769231 0.0769231 0.0769231 0.0769231 0.0769231 0.0769231;
   (orien_4, dist_5, inclin_3, right) 0.125 0.0625 0.0625 0.1875 0.0625 0.0625 0.0625 0.0625 0.0625 0.0625 0.0625 0.0625 0.0625;
   (orien_3, dist_5, inclin_3, right) 0.0769231 0.0769231 0.0769231 0.0769231 0.0769231 0.0769231 0.0769231 0.0769231 0.0769231 0.0769231 0.0769231 0.0769231 0.0769231;
   (orien_2, dist_5, inclin_3, right) 0.0714286 0.0714286 0.0714286 0.0714286 0.0714286 0.0714286 0.0714286 0.0714286 0.0714286 0.0714286 0.0714286 0.0714286 0.142857;
   (orien_1, dist_5, inclin_3, right) 0.0714286 0.0714286 0.0714286 0.0714286 0.0714286 0.0714286 0.0714286 0.0714286 0.0714286 0.0714286 0.0714286 0.0714286 0.142857;
   (orien_5, dist_5, inclin_3, right) 0.176471 0.0588235 0.0588235 0.0588235 0.0588235 0.0588235 0.176471 0.0588235 0.0588235 0.0588235 0.0588235 0.0588235 0.0588235;
   (orien_6, dist_5, inclin_3, right) 0.125 0.0625 0.0625 0.0625 0.0625 0.0625 0.0625 0.0625 0.0625 0.0625 0.1875 0.0625 0.0625;
   (orien_7, dist_5, inclin_3, right) 0.176471 0.0588235 0.0588235 0.0588235 0.0588235 0.0588235 0.0588235 0.0588235 0.0588235 0.0588235 0.0588235 0.176471 0.0588235;
   (orien_0, dist_5, inclin_3, right) 0.0714286 0.0714286 0.0714286 0.0714286 0.0714286 0.0714286 0.0714286 0.0714286 0.0714286 0.0714286 0.0714286 0.0714286 0.142857;
   (orien_4, dist_4, inclin_3, right) 0.0769231 0.0769231 0.0769231 0.0769231 0.0769231 0.0769231 0.0769231 0.0769231 0.0769231 0.0769231 0.0769231 0.0769231 0.0769231;
   (orien_3, dist_4, inclin_3, right) 0.0769231 0.0769231 0.0769231 0.0769231 0.0769231 0.0769231 0.0769231 0.0769231 0.0769231 0.0769231 0.0769231 0.0769231 0.0769231;
   (orien_2, dist_4, inclin_3, right) 0.0769231 0.0769231 0.0769231 0.0769231 0.0769231 0.0769231 0.0769231 0.0769231 0.0769231 0.0769231 0.0769231 0.0769231 0.0769231;
   (orien_1, dist_4, inclin_3, right) 0.0769231 0.0769231 0.0769231 0.0769231 0.0769231 0.0769231 0.0769231 0.0769231 0.0769231 0.0769231 0.0769231 0.0769231 0.0769231;
   (orien_5, dist_4, inclin_3, right) 0.0769231 0.0769231 0.0769231 0.0769231 0.0769231 0.0769231 0.0769231 0.0769231 0.0769231 0.0769231 0.0769231 0.0769231 0.0769231;
   (orien_6, dist_4, inclin_3, right) 0.0769231 0.0769231 0.0769231 0.0769231 0.0769231 0.0769231 0.0769231 0.0769231 0.0769231 0.0769231 0.0769231 0.0769231 0.0769231;
   (orien_7, dist_4, inclin_3, right) 0.0769231 0.0769231 0.0769231 0.0769231 0.0769231 0.0769231 0.0769231 0.0769231 0.0769231 0.0769231 0.0769231 0.0769231 0.0769231;
   (orien_0, dist_4, inclin_3, right) 0.0769231 0.0769231 0.0769231 0.0769231 0.0769231 0.0769231 0.0769231 0.0769231 0.0769231 0.0769231 0.0769231 0.0769231 0.0769231;
   (orien_4, dist_2, inclin_3, right) 0.0769231 0.0769231 0.0769231 0.0769231 0.0769231 0.0769231 0.0769231 0.0769231 0.0769231 0.0769231 0.0769231 0.0769231 0.0769231;
   (orien_3, dist_2, inclin_3, right) 0.0769231 0.0769231 0.0769231 0.0769231 0.0769231 0.0769231 0.0769231 0.0769231 0.0769231 0.0769231 0.0769231 0.0769231 0.0769231;
   (orien_2, dist_2, inclin_3, right) 0.0769231 0.0769231 0.0769231 0.0769231 0.0769231 0.0769231 0.0769231 0.0769231 0.0769231 0.0769231 0.0769231 0.0769231 0.0769231;
   (orien_1, dist_2, inclin_3, right) 0.0769231 0.0769231 0.0769231 0.0769231 0.0769231 0.0769231 0.0769231 0.0769231 0.0769231 0.0769231 0.0769231 0.0769231 0.0769231;
   (orien_5, dist_2, inclin_3, right) 0.0769231 0.0769231 0.0769231 0.0769231 0.0769231 0.0769231 0.0769231 0.0769231 0.0769231 0.0769231 0.0769231 0.0769231 0.0769231;
   (orien_6, dist_2, inclin_3, right) 0.0769231 0.0769231 0.0769231 0.0769231 0.0769231 0.0769231 0.0769231 0.0769231 0.0769231 0.0769231 0.0769231 0.0769231 0.0769231;
   (orien_7, dist_2, inclin_3, right) 0.0769231 0.0769231 0.0769231 0.0769231 0.0769231 0.0769231 0.0769231 0.0769231 0.0769231 0.0769231 0.0769231 0.0769231 0.0769231;
   (orien_0, dist_2, inclin_3, right) 0.0769231 0.0769231 0.0769231 0.0769231 0.0769231 0.0769231 0.0769231 0.0769231 0.0769231 0.0769231 0.0769231 0.0769231 0.0769231;
   (orien_4, dist_1, inclin_3, right) 0.0769231 0.0769231 0.0769231 0.0769231 0.0769231 0.0769231 0.0769231 0.0769231 0.0769231 0.0769231 0.0769231 0.0769231 0.0769231;
   (orien_3, dist_1, inclin_3, right) 0.0769231 0.0769231 0.0769231 0.0769231 0.0769231 0.0769231 0.0769231 0.0769231 0.0769231 0.0769231 0.0769231 0.0769231 0.0769231;
   (orien_2, dist_1, inclin_3, right) 0.0769231 0.0769231 0.0769231 0.0769231 0.0769231 0.0769231 0.0769231 0.0769231 0.0769231 0.0769231 0.0769231 0.0769231 0.0769231;
   (orien_1, dist_1, inclin_3, right) 0.0769231 0.0769231 0.0769231 0.0769231 0.0769231 0.0769231 0.0769231 0.0769231 0.0769231 0.0769231 0.0769231 0.0769231 0.0769231;
   (orien_5, dist_1, inclin_3, right) 0.0769231 0.0769231 0.0769231 0.0769231 0.0769231 0.0769231 0.0769231 0.0769231 0.0769231 0.0769231 0.0769231 0.0769231 0.0769231;
   (orien_6, dist_1, inclin_3, right) 0.0769231 0.0769231 0.0769231 0.0769231 0.0769231 0.0769231 0.0769231 0.0769231 0.0769231 0.0769231 0.0769231 0.0769231 0.0769231;
   (orien_7, dist_1, inclin_3, right) 0.0769231 0.0769231 0.0769231 0.0769231 0.0769231 0.0769231 0.0769231 0.0769231 0.0769231 0.0769231 0.0769231 0.0769231 0.0769231;
   (orien_0, dist_1, inclin_3, right) 0.0769231 0.0769231 0.0769231 0.0769231 0.0769231 0.0769231 0.0769231 0.0769231 0.0769231 0.0769231 0.0769231 0.0769231 0.0769231;
   (orien_4, dist_3, inclin_3, right) 0.0769231 0.0769231 0.0769231 0.0769231 0.0769231 0.0769231 0.0769231 0.0769231 0.0769231 0.0769231 0.0769231 0.0769231 0.0769231;
   (orien_3, dist_3, inclin_3, right) 0.0769231 0.0769231 0.0769231 0.0769231 0.0769231 0.0769231 0.0769231 0.0769231 0.0769231 0.0769231 0.0769231 0.0769231 0.0769231;
   (orien_2, dist_3, inclin_3, right) 0.0769231 0.0769231 0.0769231 0.0769231 0.0769231 0.0769231 0.0769231 0.0769231 0.0769231 0.0769231 0.0769231 0.0769231 0.0769231;
   (orien_1, dist_3, inclin_3, right) 0.0769231 0.0769231 0.0769231 0.0769231 0.0769231 0.0769231 0.0769231 0.0769231 0.0769231 0.0769231 0.0769231 0.0769231 0.0769231;
   (orien_5, dist_3, inclin_3, right) 0.0769231 0.0769231 0.0769231 0.0769231 0.0769231 0.0769231 0.0769231 0.0769231 0.0769231 0.0769231 0.0769231 0.0769231 0.0769231;
   (orien_6, dist_3, inclin_3, right) 0.0769231 0.0769231 0.0769231 0.0769231 0.0769231 0.0769231 0.0769231 0.0769231 0.0769231 0.0769231 0.0769231 0.0769231 0.0769231;
   (orien_7, dist_3, inclin_3, right) 0.0769231 0.0769231 0.0769231 0.0769231 0.0769231 0.0769231 0.0769231 0.0769231 0.0769231 0.0769231 0.0769231 0.0769231 0.0769231;
   (orien_0, dist_3, inclin_3, right) 0.0769231 0.0769231 0.0769231 0.0769231 0.0769231 0.0769231 0.0769231 0.0769231 0.0769231 0.0769231 0.0769231 0.0769231 0.0769231;
   (orien_4, dist_5, inclin_5, right) 0.0769231 0.0769231 0.0769231 0.0769231 0.0769231 0.0769231 0.0769231 0.0769231 0.0769231 0.0769231 0.0769231 0.0769231 0.0769231;
   (orien_3, dist_5, inclin_5, right) 0.0769231 0.0769231 0.0769231 0.0769231 0.0769231 0.0769231 0.0769231 0.0769231 0.0769231 0.0769231 0.0769231 0.0769231 0.0769231;
   (orien_2, dist_5, inclin_5, right) 0.0769231 0.0769231 0.0769231 0.0769231 0.0769231 0.0769231 0.0769231 0.0769231 0.0769231 0.0769231 0.0769231 0.0769231 0.0769231;
   (orien_1, dist_5, inclin_5, right) 0.0769231 0.0769231 0.0769231 0.0769231 0.0769231 0.0769231 0.0769231 0.0769231 0.0769231 0.0769231 0.0769231 0.0769231 0.0769231;
   (orien_5, dist_5, inclin_5, right) 0.0714286 0.0714286 0.0714286 0.0714286 0.0714286 0.0714286 0.142857 0.0714286 0.0714286 0.0714286 0.0714286 0.0714286 0.0714286;
   (orien_6, dist_5, inclin_5, right) 0.0714286 0.0714286 0.0714286 0.0714286 0.0714286 0.0714286 0.0714286 0.0714286 0.0714286 0.0714286 0.142857 0.0714286 0.0714286;
   (orien_7, dist_5, inclin_5, right) 0.0769231 0.0769231 0.0769231 0.0769231 0.0769231 0.0769231 0.0769231 0.0769231 0.0769231 0.0769231 0.0769231 0.0769231 0.0769231;
   (orien_0, dist_5, inclin_5, right) 0.0769231 0.0769231 0.0769231 0.0769231 0.0769231 0.0769231 0.0769231 0.0769231 0.0769231 0.0769231 0.0769231 0.0769231 0.0769231;
   (orien_4, dist_4, inclin_5, right) 0.0769231 0.0769231 0.0769231 0.0769231 0.0769231 0.0769231 0.0769231 0.0769231 0.0769231 0.0769231 0.0769231 0.0769231 0.0769231;
   (orien_3, dist_4, inclin_5, right) 0.0769231 0.0769231 0.0769231 0.0769231 0.0769231 0.0769231 0.0769231 0.0769231 0.0769231 0.0769231 0.0769231 0.0769231 0.0769231;
   (orien_2, dist_4, inclin_5, right) 0.0769231 0.0769231 0.0769231 0.0769231 0.0769231 0.0769231 0.0769231 0.0769231 0.0769231 0.0769231 0.0769231 0.0769231 0.0769231;
   (orien_1, dist_4, inclin_5, right) 0.0769231 0.0769231 0.0769231 0.0769231 0.0769231 0.0769231 0.0769231 0.0769231 0.0769231 0.0769231 0.0769231 0.0769231 0.0769231;
   (orien_5, dist_4, inclin_5, right) 0.0714286 0.0714286 0.0714286 0.142857 0.0714286 0.0714286 0.0714286 0.0714286 0.0714286 0.0714286 0.0714286 0.0714286 0.0714286;
   (orien_6, dist_4, inclin_5, right) 0.0714286 0.0714286 0.0714286 0.0714286 0.0714286 0.0714286 0.0714286 0.0714286 0.0714286 0.0714286 0.0714286 0.142857 0.0714286;
   (orien_7, dist_4, inclin_5, right) 0.0769231 0.0769231 0.0769231 0.0769231 0.0769231 0.0769231 0.0769231 0.0769231 0.0769231 0.0769231 0.0769231 0.0769231 0.0769231;
   (orien_0, dist_4, inclin_5, right) 0.0769231 0.0769231 0.0769231 0.0769231 0.0769231 0.0769231 0.0769231 0.0769231 0.0769231 0.0769231 0.0769231 0.0769231 0.0769231;
   (orien_4, dist_2, inclin_5, right) 0.0769231 0.0769231 0.0769231 0.0769231 0.0769231 0.0769231 0.0769231 0.0769231 0.0769231 0.0769231 0.0769231 0.0769231 0.0769231;
   (orien_3, dist_2, inclin_5, right) 0.0769231 0.0769231 0.0769231 0.0769231 0.0769231 0.0769231 0.0769231 0.0769231 0.0769231 0.0769231 0.0769231 0.0769231 0.0769231;
   (orien_2, dist_2, inclin_5, right) 0.0769231 0.0769231 0.0769231 0.0769231 0.0769231 0.0769231 0.0769231 0.0769231 0.0769231 0.0769231 0.0769231 0.0769231 0.0769231;
   (orien_1, dist_2, inclin_5, right) 0.0769231 0.0769231 0.0769231 0.0769231 0.0769231 0.0769231 0.0769231 0.0769231 0.0769231 0.0769231 0.0769231 0.0769231 0.0769231;
   (orien_5, dist_2, inclin_5, right) 0.0769231 0.0769231 0.0769231 0.0769231 0.0769231 0.0769231 0.0769231 0.0769231 0.0769231 0.0769231 0.0769231 0.0769231 0.0769231;
   (orien_6, dist_2, inclin_5, right) 0.0769231 0.0769231 0.0769231 0.0769231 0.0769231 0.0769231 0.0769231 0.0769231 0.0769231 0.0769231 0.0769231 0.0769231 0.0769231;
   (orien_7, dist_2, inclin_5, right) 0.0769231 0.0769231 0.0769231 0.0769231 0.0769231 0.0769231 0.0769231 0.0769231 0.0769231 0.0769231 0.0769231 0.0769231 0.0769231;
   (orien_0, dist_2, inclin_5, right) 0.0769231 0.0769231 0.0769231 0.0769231 0.0769231 0.0769231 0.0769231 0.0769231 0.0769231 0.0769231 0.0769231 0.0769231 0.0769231;
   (orien_4, dist_1, inclin_5, right) 0.0769231 0.0769231 0.0769231 0.0769231 0.0769231 0.0769231 0.0769231 0.0769231 0.0769231 0.0769231 0.0769231 0.0769231 0.0769231;
   (orien_3, dist_1, inclin_5, right) 0.0769231 0.0769231 0.0769231 0.0769231 0.0769231 0.0769231 0.0769231 0.0769231 0.0769231 0.0769231 0.0769231 0.0769231 0.0769231;
   (orien_2, dist_1, inclin_5, right) 0.0769231 0.0769231 0.0769231 0.0769231 0.0769231 0.0769231 0.0769231 0.0769231 0.0769231 0.0769231 0.0769231 0.0769231 0.0769231;
   (orien_1, dist_1, inclin_5, right) 0.0769231 0.0769231 0.0769231 0.0769231 0.0769231 0.0769231 0.0769231 0.0769231 0.0769231 0.0769231 0.0769231 0.0769231 0.0769231;
   (orien_5, dist_1, inclin_5, right) 0.0769231 0.0769231 0.0769231 0.0769231 0.0769231 0.0769231 0.0769231 0.0769231 0.0769231 0.0769231 0.0769231 0.0769231 0.0769231;
   (orien_6, dist_1, inclin_5, right) 0.0769231 0.0769231 0.0769231 0.0769231 0.0769231 0.0769231 0.0769231 0.0769231 0.0769231 0.0769231 0.0769231 0.0769231 0.0769231;
   (orien_7, dist_1, inclin_5, right) 0.0769231 0.0769231 0.0769231 0.0769231 0.0769231 0.0769231 0.0769231 0.0769231 0.0769231 0.0769231 0.0769231 0.0769231 0.0769231;
   (orien_0, dist_1, inclin_5, right) 0.0769231 0.0769231 0.0769231 0.0769231 0.0769231 0.0769231 0.0769231 0.0769231 0.0769231 0.0769231 0.0769231 0.0769231 0.0769231;
   (orien_4, dist_3, inclin_5, right) 0.0769231 0.0769231 0.0769231 0.0769231 0.0769231 0.0769231 0.0769231 0.0769231 0.0769231 0.0769231 0.0769231 0.0769231 0.0769231;
   (orien_3, dist_3, inclin_5, right) 0.0769231 0.0769231 0.0769231 0.0769231 0.0769231 0.0769231 0.0769231 0.0769231 0.0769231 0.0769231 0.0769231 0.0769231 0.0769231;
   (orien_2, dist_3, inclin_5, right) 0.0769231 0.0769231 0.0769231 0.0769231 0.0769231 0.0769231 0.0769231 0.0769231 0.0769231 0.0769231 0.0769231 0.0769231 0.0769231;
   (orien_1, dist_3, inclin_5, right) 0.0769231 0.0769231 0.0769231 0.0769231 0.0769231 0.0769231 0.0769231 0.0769231 0.0769231 0.0769231 0.0769231 0.0769231 0.0769231;
   (orien_5, dist_3, inclin_5, right) 0.0769231 0.0769231 0.0769231 0.0769231 0.0769231 0.0769231 0.0769231 0.0769231 0.0769231 0.0769231 0.0769231 0.0769231 0.0769231;
   (orien_6, dist_3, inclin_5, right) 0.0769231 0.0769231 0.0769231 0.0769231 0.0769231 0.0769231 0.0769231 0.0769231 0.0769231 0.0769231 0.0769231 0.0769231 0.0769231;
   (orien_7, dist_3, inclin_5, right) 0.0769231 0.0769231 0.0769231 0.0769231 0.0769231 0.0769231 0.0769231 0.0769231 0.0769231 0.0769231 0.0769231 0.0769231 0.0769231;
   (orien_0, dist_3, inclin_5, right) 0.0769231 0.0769231 0.0769231 0.0769231 0.0769231 0.0769231 0.0769231 0.0769231 0.0769231 0.0769231 0.0769231 0.0769231 0.0769231;
   (orien_4, dist_5, inclin_8, right) 0.0769231 0.0769231 0.0769231 0.0769231 0.0769231 0.0769231 0.0769231 0.0769231 0.0769231 0.0769231 0.0769231 0.0769231 0.0769231;
   (orien_3, dist_5, inclin_8, right) 0.0769231 0.0769231 0.0769231 0.0769231 0.0769231 0.0769231 0.0769231 0.0769231 0.0769231 0.0769231 0.0769231 0.0769231 0.0769231;
   (orien_2, dist_5, inclin_8, right) 0.0769231 0.0769231 0.0769231 0.0769231 0.0769231 0.0769231 0.0769231 0.0769231 0.0769231 0.0769231 0.0769231 0.0769231 0.0769231;
   (orien_1, dist_5, inclin_8, right) 0.0769231 0.0769231 0.0769231 0.0769231 0.0769231 0.0769231 0.0769231 0.0769231 0.0769231 0.0769231 0.0769231 0.0769231 0.0769231;
   (orien_5, dist_5, inclin_8, right) 0.0714286 0.0714286 0.0714286 0.0714286 0.142857 0.0714286 0.0714286 0.0714286 0.0714286 0.0714286 0.0714286 0.0714286 0.0714286;
   (orien_6, dist_5, inclin_8, right) 0.0666667 0.0666667 0.0666667 0.0666667 0.2 0.0666667 0.0666667 0.0666667 0.0666667 0.0666667 0.0666667 0.0666667 0.0666667;
   (orien_7, dist_5, inclin_8, right) 0.0769231 0.0769231 0.0769231 0.0769231 0.0769231 0.0769231 0.0769231 0.0769231 0.0769231 0.0769231 0.0769231 0.0769231 0.0769231;
   (orien_0, dist_5, inclin_8, right) 0.0769231 0.0769231 0.0769231 0.0769231 0.0769231 0.0769231 0.0769231 0.0769231 0.0769231 0.0769231 0.0769231 0.0769231 0.0769231;
   (orien_4, dist_4, inclin_8, right) 0.0769231 0.0769231 0.0769231 0.0769231 0.0769231 0.0769231 0.0769231 0.0769231 0.0769231 0.0769231 0.0769231 0.0769231 0.0769231;
   (orien_3, dist_4, inclin_8, right) 0.0769231 0.0769231 0.0769231 0.0769231 0.0769231 0.0769231 0.0769231 0.0769231 0.0769231 0.0769231 0.0769231 0.0769231 0.0769231;
   (orien_2, dist_4, inclin_8, right) 0.0769231 0.0769231 0.0769231 0.0769231 0.0769231 0.0769231 0.0769231 0.0769231 0.0769231 0.0769231 0.0769231 0.0769231 0.0769231;
   (orien_1, dist_4, inclin_8, right) 0.0769231 0.0769231 0.0769231 0.0769231 0.0769231 0.0769231 0.0769231 0.0769231 0.0769231 0.0769231 0.0769231 0.0769231 0.0769231;
   (orien_5, dist_4, inclin_8, right) 0.0666667 0.0666667 0.0666667 0.0666667 0.2 0.0666667 0.0666667 0.0666667 0.0666667 0.0666667 0.0666667 0.0666667 0.0666667;
   (orien_6, dist_4, inclin_8, right) 0.0625 0.0625 0.0625 0.0625 0.25 0.0625 0.0625 0.0625 0.0625 0.0625 0.0625 0.0625 0.0625;
   (orien_7, dist_4, inclin_8, right) 0.0769231 0.0769231 0.0769231 0.0769231 0.0769231 0.0769231 0.0769231 0.0769231 0.0769231 0.0769231 0.0769231 0.0769231 0.0769231;
   (orien_0, dist_4, inclin_8, right) 0.0769231 0.0769231 0.0769231 0.0769231 0.0769231 0.0769231 0.0769231 0.0769231 0.0769231 0.0769231 0.0769231 0.0769231 0.0769231;
   (orien_4, dist_2, inclin_8, right) 0.0769231 0.0769231 0.0769231 0.0769231 0.0769231 0.0769231 0.0769231 0.0769231 0.0769231 0.0769231 0.0769231 0.0769231 0.0769231;
   (orien_3, dist_2, inclin_8, right) 0.0769231 0.0769231 0.0769231 0.0769231 0.0769231 0.0769231 0.0769231 0.0769231 0.0769231 0.0769231 0.0769231 0.0769231 0.0769231;
   (orien_2, dist_2, inclin_8, right) 0.0769231 0.0769231 0.0769231 0.0769231 0.0769231 0.0769231 0.0769231 0.0769231 0.0769231 0.0769231 0.0769231 0.0769231 0.0769231;
   (orien_1, dist_2, inclin_8, right) 0.0769231 0.0769231 0.0769231 0.0769231 0.0769231 0.0769231 0.0769231 0.0769231 0.0769231 0.0769231 0.0769231 0.0769231 0.0769231;
   (orien_5, dist_2, inclin_8, right) 0.0666667 0.0666667 0.0666667 0.0666667 0.2 0.0666667 0.0666667 0.0666667 0.0666667 0.0666667 0.0666667 0.0666667 0.0666667;
   (orien_6, dist_2, inclin_8, right) 0.0526316 0.0526316 0.0526316 0.0526316 0.368421 0.0526316 0.0526316 0.0526316 0.0526316 0.0526316 0.0526316 0.0526316 0.0526316;
   (orien_7, dist_2, inclin_8, right) 0.0769231 0.0769231 0.0769231 0.0769231 0.0769231 0.0769231 0.0769231 0.0769231 0.0769231 0.0769231 0.0769231 0.0769231 0.0769231;
   (orien_0, dist_2, inclin_8, right) 0.0769231 0.0769231 0.0769231 0.0769231 0.0769231 0.0769231 0.0769231 0.0769231 0.0769231 0.0769231 0.0769231 0.0769231 0.0769231;
   (orien_4, dist_1, inclin_8, right) 0.0769231 0.0769231 0.0769231 0.0769231 0.0769231 0.0769231 0.0769231 0.0769231 0.0769231 0.0769231 0.0769231 0.0769231 0.0769231;
   (orien_3, dist_1, inclin_8, right) 0.0769231 0.0769231 0.0769231 0.0769231 0.0769231 0.0769231 0.0769231 0.0769231 0.0769231 0.0769231 0.0769231 0.0769231 0.0769231;
   (orien_2, dist_1, inclin_8, right) 0.0769231 0.0769231 0.0769231 0.0769231 0.0769231 0.0769231 0.0769231 0.0769231 0.0769231 0.0769231 0.0769231 0.0769231 0.0769231;
   (orien_1, dist_1, inclin_8, right) 0.0769231 0.0769231 0.0769231 0.0769231 0.0769231 0.0769231 0.0769231 0.0769231 0.0769231 0.0769231 0.0769231 0.0769231 0.0769231;
   (orien_5, dist_1, inclin_8, right) 0.0769231 0.0769231 0.0769231 0.0769231 0.0769231 0.0769231 0.0769231 0.0769231 0.0769231 0.0769231 0.0769231 0.0769231 0.0769231;
   (orien_6, dist_1, inclin_8, right) 0.047619 0.047619 0.047619 0.047619 0.428571 0.047619 0.047619 0.047619 0.047619 0.047619 0.047619 0.047619 0.047619;
   (orien_7, dist_1, inclin_8, right) 0.0769231 0.0769231 0.0769231 0.0769231 0.0769231 0.0769231 0.0769231 0.0769231 0.0769231 0.0769231 0.0769231 0.0769231 0.0769231;
   (orien_0, dist_1, inclin_8, right) 0.0769231 0.0769231 0.0769231 0.0769231 0.0769231 0.0769231 0.0769231 0.0769231 0.0769231 0.0769231 0.0769231 0.0769231 0.0769231;
   (orien_4, dist_3, inclin_8, right) 0.0769231 0.0769231 0.0769231 0.0769231 0.0769231 0.0769231 0.0769231 0.0769231 0.0769231 0.0769231 0.0769231 0.0769231 0.0769231;
   (orien_3, dist_3, inclin_8, right) 0.0769231 0.0769231 0.0769231 0.0769231 0.0769231 0.0769231 0.0769231 0.0769231 0.0769231 0.0769231 0.0769231 0.0769231 0.0769231;
   (orien_2, dist_3, inclin_8, right) 0.0769231 0.0769231 0.0769231 0.0769231 0.0769231 0.0769231 0.0769231 0.0769231 0.0769231 0.0769231 0.0769231 0.0769231 0.0769231;
   (orien_1, dist_3, inclin_8, right) 0.0769231 0.0769231 0.0769231 0.0769231 0.0769231 0.0769231 0.0769231 0.0769231 0.0769231 0.0769231 0.0769231 0.0769231 0.0769231;
   (orien_5, dist_3, inclin_8, right) 0.0666667 0.0666667 0.0666667 0.0666667 0.2 0.0666667 0.0666667 0.0666667 0.0666667 0.0666667 0.0666667 0.0666667 0.0666667;
   (orien_6, dist_3, inclin_8, right) 0.0714286 0.0714286 0.0714286 0.0714286 0.142857 0.0714286 0.0714286 0.0714286 0.0714286 0.0714286 0.0714286 0.0714286 0.0714286;
   (orien_7, dist_3, inclin_8, right) 0.0769231 0.0769231 0.0769231 0.0769231 0.0769231 0.0769231 0.0769231 0.0769231 0.0769231 0.0769231 0.0769231 0.0769231 0.0769231;
   (orien_0, dist_3, inclin_8, right) 0.0769231 0.0769231 0.0769231 0.0769231 0.0769231 0.0769231 0.0769231 0.0769231 0.0769231 0.0769231 0.0769231 0.0769231 0.0769231;
   (orien_4, dist_5, inclin_4, right) 0.0714286 0.0714286 0.0714286 0.142857 0.0714286 0.0714286 0.0714286 0.0714286 0.0714286 0.0714286 0.0714286 0.0714286 0.0714286;
   (orien_3, dist_5, inclin_4, right) 0.0769231 0.0769231 0.0769231 0.0769231 0.0769231 0.0769231 0.0769231 0.0769231 0.0769231 0.0769231 0.0769231 0.0769231 0.0769231;
   (orien_2, dist_5, inclin_4, right) 0.0769231 0.0769231 0.0769231 0.0769231 0.0769231 0.0769231 0.0769231 0.0769231 0.0769231 0.0769231 0.0769231 0.0769231 0.0769231;
   (orien_1, dist_5, inclin_4, right) 0.0769231 0.0769231 0.0769231 0.0769231 0.0769231 0.0769231 0.0769231 0.0769231 0.0769231 0.0769231 0.0769231 0.0769231 0.0769231;
   (orien_5, dist_5, inclin_4, right) 0.1875 0.0625 0.0625 0.0625 0.0625 0.0625 0.125 0.0625 0.0625 0.0625 0.0625 0.0625 0.0625;
   (orien_6, dist_5, inclin_4, right) 0.0714286 0.0714286 0.0714286 0.0714286 0.0714286 0.0714286 0.0714286 0.0714286 0.0714286 0.0714286 0.142857 0.0714286 0.0714286;
   (orien_7, dist_5, inclin_4, right) 0.0714286 0.0714286 0.0714286 0.0714286 0.0714286 0.0714286 0.0714286 0.0714286 0.0714286 0.0714286 0.0714286 0.142857 0.0714286;
   (orien_0, dist_5, inclin_4, right) 0.0769231 0.0769231 0.0769231 0.0769231 0.0769231 0.0769231 0.0769231 0.0769231 0.0769231 0.0769231 0.0769231 0.0769231 0.0769231;
   (orien_4, dist_4, inclin_4, right) 0.0769231 0.0769231 0.0769231 0.0769231 0.0769231 0.0769231 0.0769231 0.0769231 0.0769231 0.0769231 0.0769231 0.0769231 0.0769231;
   (orien_3, dist_4, inclin_4, right) 0.0769231 0.0769231 0.0769231 0.0769231 0.0769231 0.0769231 0.0769231 0.0769231 0.0769231 0.0769231 0.0769231 0.0769231 0.0769231;
   (orien_2, dist_4, inclin_4, right) 0.0769231 0.0769231 0.0769231 0.0769231 0.0769231 0.0769231 0.0769231 0.0769231 0.0769231 0.0769231 0.0769231 0.0769231 0.0769231;
   (orien_1, dist_4, inclin_4, right) 0.0769231 0.0769231 0.0769231 0.0769231 0.0769231 0.0769231 0.0769231 0.0769231 0.0769231 0.0769231 0.0769231 0.0769231 0.0769231;
   (orien_5, dist_4, inclin_4, right) 0.0769231 0.0769231 0.0769231 0.0769231 0.0769231 0.0769231 0.0769231 0.0769231 0.0769231 0.0769231 0.0769231 0.0769231 0.0769231;
   (orien_6, dist_4, inclin_4, right) 0.0769231 0.0769231 0.0769231 0.0769231 0.0769231 0.0769231 0.0769231 0.0769231 0.0769231 0.0769231 0.0769231 0.0769231 0.0769231;
   (orien_7, dist_4, inclin_4, right) 0.0769231 0.0769231 0.0769231 0.0769231 0.0769231 0.0769231 0.0769231 0.0769231 0.0769231 0.0769231 0.0769231 0.0769231 0.0769231;
   (orien_0, dist_4, inclin_4, right) 0.0769231 0.0769231 0.0769231 0.0769231 0.0769231 0.0769231 0.0769231 0.0769231 0.0769231 0.0769231 0.0769231 0.0769231 0.0769231;
   (orien_4, dist_2, inclin_4, right) 0.0769231 0.0769231 0.0769231 0.0769231 0.0769231 0.0769231 0.0769231 0.0769231 0.0769231 0.0769231 0.0769231 0.0769231 0.0769231;
   (orien_3, dist_2, inclin_4, right) 0.0769231 0.0769231 0.0769231 0.0769231 0.0769231 0.0769231 0.0769231 0.0769231 0.0769231 0.0769231 0.0769231 0.0769231 0.0769231;
   (orien_2, dist_2, inclin_4, right) 0.0769231 0.0769231 0.0769231 0.0769231 0.0769231 0.0769231 0.0769231 0.0769231 0.0769231 0.0769231 0.0769231 0.0769231 0.0769231;
   (orien_1, dist_2, inclin_4, right) 0.0769231 0.0769231 0.0769231 0.0769231 0.0769231 0.0769231 0.0769231 0.0769231 0.0769231 0.0769231 0.0769231 0.0769231 0.0769231;
   (orien_5, dist_2, inclin_4, right) 0.0769231 0.0769231 0.0769231 0.0769231 0.0769231 0.0769231 0.0769231 0.0769231 0.0769231 0.0769231 0.0769231 0.0769231 0.0769231;
   (orien_6, dist_2, inclin_4, right) 0.0714286 0.0714286 0.0714286 0.0714286 0.0714286 0.0714286 0.0714286 0.0714286 0.0714286 0.0714286 0.0714286 0.0714286 0.142857;
   (orien_7, dist_2, inclin_4, right) 0.0769231 0.0769231 0.0769231 0.0769231 0.0769231 0.0769231 0.0769231 0.0769231 0.0769231 0.0769231 0.0769231 0.0769231 0.0769231;
   (orien_0, dist_2, inclin_4, right) 0.0769231 0.0769231 0.0769231 0.0769231 0.0769231 0.0769231 0.0769231 0.0769231 0.0769231 0.0769231 0.0769231 0.0769231 0.0769231;
   (orien_4, dist_1, inclin_4, right) 0.0769231 0.0769231 0.0769231 0.0769231 0.0769231 0.0769231 0.0769231 0.0769231 0.0769231 0.0769231 0.0769231 0.0769231 0.0769231;
   (orien_3, dist_1, inclin_4, right) 0.0769231 0.0769231 0.0769231 0.0769231 0.0769231 0.0769231 0.0769231 0.0769231 0.0769231 0.0769231 0.0769231 0.0769231 0.0769231;
   (orien_2, dist_1, inclin_4, right) 0.0769231 0.0769231 0.0769231 0.0769231 0.0769231 0.0769231 0.0769231 0.0769231 0.0769231 0.0769231 0.0769231 0.0769231 0.0769231;
   (orien_1, dist_1, inclin_4, right) 0.0769231 0.0769231 0.0769231 0.0769231 0.0769231 0.0769231 0.0769231 0.0769231 0.0769231 0.0769231 0.0769231 0.0769231 0.0769231;
   (orien_5, dist_1, inclin_4, right) 0.0769231 0.0769231 0.0769231 0.0769231 0.0769231 0.0769231 0.0769231 0.0769231 0.0769231 0.0769231 0.0769231 0.0769231 0.0769231;
   (orien_6, dist_1, inclin_4, right) 0.0769231 0.0769231 0.0769231 0.0769231 0.0769231 0.0769231 0.0769231 0.0769231 0.0769231 0.0769231 0.0769231 0.0769231 0.0769231;
   (orien_7, dist_1, inclin_4, right) 0.0769231 0.0769231 0.0769231 0.0769231 0.0769231 0.0769231 0.0769231 0.0769231 0.0769231 0.0769231 0.0769231 0.0769231 0.0769231;
   (orien_0, dist_1, inclin_4, right) 0.0769231 0.0769231 0.0769231 0.0769231 0.0769231 0.0769231 0.0769231 0.0769231 0.0769231 0.0769231 0.0769231 0.0769231 0.0769231;
   (orien_4, dist_3, inclin_4, right) 0.0769231 0.0769231 0.0769231 0.0769231 0.0769231 0.0769231 0.0769231 0.0769231 0.0769231 0.0769231 0.0769231 0.0769231 0.0769231;
   (orien_3, dist_3, inclin_4, right) 0.0769231 0.0769231 0.0769231 0.0769231 0.0769231 0.0769231 0.0769231 0.0769231 0.0769231 0.0769231 0.0769231 0.0769231 0.0769231;
   (orien_2, dist_3, inclin_4, right) 0.0769231 0.0769231 0.0769231 0.0769231 0.0769231 0.0769231 0.0769231 0.0769231 0.0769231 0.0769231 0.0769231 0.0769231 0.0769231;
   (orien_1, dist_3, inclin_4, right) 0.0769231 0.0769231 0.0769231 0.0769231 0.0769231 0.0769231 0.0769231 0.0769231 0.0769231 0.0769231 0.0769231 0.0769231 0.0769231;
   (orien_5, dist_3, inclin_4, right) 0.0714286 0.0714286 0.0714286 0.142857 0.0714286 0.0714286 0.0714286 0.0714286 0.0714286 0.0714286 0.0714286 0.0714286 0.0714286;
   (orien_6, dist_3, inclin_4, right) 0.0714286 0.0714286 0.0714286 0.0714286 0.0714286 0.0714286 0.0714286 0.0714286 0.0714286 0.0714286 0.0714286 0.142857 0.0714286;
   (orien_7, dist_3, inclin_4, right) 0.0769231 0.0769231 0.0769231 0.0769231 0.0769231 0.0769231 0.0769231 0.0769231 0.0769231 0.0769231 0.0769231 0.0769231 0.0769231;
   (orien_0, dist_3, inclin_4, right) 0.0769231 0.0769231 0.0769231 0.0769231 0.0769231 0.0769231 0.0769231 0.0769231 0.0769231 0.0769231 0.0769231 0.0769231 0.0769231;
   (orien_4, dist_5, inclin_7, right) 0.0769231 0.0769231 0.0769231 0.0769231 0.0769231 0.0769231 0.0769231 0.0769231 0.0769231 0.0769231 0.0769231 0.0769231 0.0769231;
   (orien_3, dist_5, inclin_7, right) 0.0769231 0.0769231 0.0769231 0.0769231 0.0769231 0.0769231 0.0769231 0.0769231 0.0769231 0.0769231 0.0769231 0.0769231 0.0769231;
   (orien_2, dist_5, inclin_7, right) 0.0769231 0.0769231 0.0769231 0.0769231 0.0769231 0.0769231 0.0769231 0.0769231 0.0769231 0.0769231 0.0769231 0.0769231 0.0769231;
   (orien_1, dist_5, inclin_7, right) 0.0769231 0.0769231 0.0769231 0.0769231 0.0769231 0.0769231 0.0769231 0.0769231 0.0769231 0.0769231 0.0769231 0.0769231 0.0769231;
   (orien_5, dist_5, inclin_7, right) 0.0769231 0.0769231 0.0769231 0.0769231 0.0769231 0.0769231 0.0769231 0.0769231 0.0769231 0.0769231 0.0769231 0.0769231 0.0769231;
   (orien_6, dist_5, inclin_7, right) 0.0769231 0.0769231 0.0769231 0.0769231 0.0769231 0.0769231 0.0769231 0.0769231 0.0769231 0.0769231 0.0769231 0.0769231 0.0769231;
   (orien_7, dist_5, inclin_7, right) 0.0769231 0.0769231 0.0769231 0.0769231 0.0769231 0.0769231 0.0769231 0.0769231 0.0769231 0.0769231 0.0769231 0.0769231 0.0769231;
   (orien_0, dist_5, inclin_7, right) 0.0769231 0.0769231 0.0769231 0.0769231 0.0769231 0.0769231 0.0769231 0.0769231 0.0769231 0.0769231 0.0769231 0.0769231 0.0769231;
   (orien_4, dist_4, inclin_7, right) 0.0769231 0.0769231 0.0769231 0.0769231 0.0769231 0.0769231 0.0769231 0.0769231 0.0769231 0.0769231 0.0769231 0.0769231 0.0769231;
   (orien_3, dist_4, inclin_7, right) 0.0769231 0.0769231 0.0769231 0.0769231 0.0769231 0.0769231 0.0769231 0.0769231 0.0769231 0.0769231 0.0769231 0.0769231 0.0769231;
   (orien_2, dist_4, inclin_7, right) 0.0769231 0.0769231 0.0769231 0.0769231 0.0769231 0.0769231 0.0769231 0.0769231 0.0769231 0.0769231 0.0769231 0.0769231 0.0769231;
   (orien_1, dist_4, inclin_7, right) 0.0769231 0.0769231 0.0769231 0.0769231 0.0769231 0.0769231 0.0769231 0.0769231 0.0769231 0.0769231 0.0769231 0.0769231 0.0769231;
   (orien_5, dist_4, inclin_7, right) 0.0769231 0.0769231 0.0769231 0.0769231 0.0769231 0.0769231 0.0769231 0.0769231 0.0769231 0.0769231 0.0769231 0.0769231 0.0769231;
   (orien_6, dist_4, inclin_7, right) 0.0769231 0.0769231 0.0769231 0.0769231 0.0769231 0.0769231 0.0769231 0.0769231 0.0769231 0.0769231 0.0769231 0.0769231 0.0769231;
   (orien_7, dist_4, inclin_7, right) 0.0769231 0.0769231 0.0769231 0.0769231 0.0769231 0.0769231 0.0769231 0.0769231 0.0769231 0.0769231 0.0769231 0.0769231 0.0769231;
   (orien_0, dist_4, inclin_7, right) 0.0769231 0.0769231 0.0769231 0.0769231 0.0769231 0.0769231 0.0769231 0.0769231 0.0769231 0.0769231 0.0769231 0.0769231 0.0769231;
   (orien_4, dist_2, inclin_7, right) 0.0769231 0.0769231 0.0769231 0.0769231 0.0769231 0.0769231 0.0769231 0.0769231 0.0769231 0.0769231 0.0769231 0.0769231 0.0769231;
   (orien_3, dist_2, inclin_7, right) 0.0769231 0.0769231 0.0769231 0.0769231 0.0769231 0.0769231 0.0769231 0.0769231 0.0769231 0.0769231 0.0769231 0.0769231 0.0769231;
   (orien_2, dist_2, inclin_7, right) 0.0769231 0.0769231 0.0769231 0.0769231 0.0769231 0.0769231 0.0769231 0.0769231 0.0769231 0.0769231 0.0769231 0.0769231 0.0769231;
   (orien_1, dist_2, inclin_7, right) 0.0769231 0.0769231 0.0769231 0.0769231 0.0769231 0.0769231 0.0769231 0.0769231 0.0769231 0.0769231 0.0769231 0.0769231 0.0769231;
   (orien_5, dist_2, inclin_7, right) 0.0769231 0.0769231 0.0769231 0.0769231 0.0769231 0.0769231 0.0769231 0.0769231 0.0769231 0.0769231 0.0769231 0.0769231 0.0769231;
   (orien_6, dist_2, inclin_7, right) 0.0769231 0.0769231 0.0769231 0.0769231 0.0769231 0.0769231 0.0769231 0.0769231 0.0769231 0.0769231 0.0769231 0.0769231 0.0769231;
   (orien_7, dist_2, inclin_7, right) 0.0769231 0.0769231 0.0769231 0.0769231 0.0769231 0.0769231 0.0769231 0.0769231 0.0769231 0.0769231 0.0769231 0.0769231 0.0769231;
   (orien_0, dist_2, inclin_7, right) 0.0769231 0.0769231 0.0769231 0.0769231 0.0769231 0.0769231 0.0769231 0.0769231 0.0769231 0.0769231 0.0769231 0.0769231 0.0769231;
   (orien_4, dist_1, inclin_7, right) 0.0769231 0.0769231 0.0769231 0.0769231 0.0769231 0.0769231 0.0769231 0.0769231 0.0769231 0.0769231 0.0769231 0.0769231 0.0769231;
   (orien_3, dist_1, inclin_7, right) 0.0769231 0.0769231 0.0769231 0.0769231 0.0769231 0.0769231 0.0769231 0.0769231 0.0769231 0.0769231 0.0769231 0.0769231 0.0769231;
   (orien_2, dist_1, inclin_7, right) 0.0769231 0.0769231 0.0769231 0.0769231 0.0769231 0.0769231 0.0769231 0.0769231 0.0769231 0.0769231 0.0769231 0.0769231 0.0769231;
   (orien_1, dist_1, inclin_7, right) 0.0769231 0.0769231 0.0769231 0.0769231 0.0769231 0.0769231 0.0769231 0.0769231 0.0769231 0.0769231 0.0769231 0.0769231 0.0769231;
   (orien_5, dist_1, inclin_7, right) 0.0769231 0.0769231 0.0769231 0.0769231 0.0769231 0.0769231 0.0769231 0.0769231 0.0769231 0.0769231 0.0769231 0.0769231 0.0769231;
   (orien_6, dist_1, inclin_7, right) 0.0769231 0.0769231 0.0769231 0.0769231 0.0769231 0.0769231 0.0769231 0.0769231 0.0769231 0.0769231 0.0769231 0.0769231 0.0769231;
   (orien_7, dist_1, inclin_7, right) 0.0769231 0.0769231 0.0769231 0.0769231 0.0769231 0.0769231 0.0769231 0.0769231 0.0769231 0.0769231 0.0769231 0.0769231 0.0769231;
   (orien_0, dist_1, inclin_7, right) 0.0769231 0.0769231 0.0769231 0.0769231 0.0769231 0.0769231 0.0769231 0.0769231 0.0769231 0.0769231 0.0769231 0.0769231 0.0769231;
   (orien_4, dist_3, inclin_7, right) 0.0769231 0.0769231 0.0769231 0.0769231 0.0769231 0.0769231 0.0769231 0.0769231 0.0769231 0.0769231 0.0769231 0.0769231 0.0769231;
   (orien_3, dist_3, inclin_7, right) 0.0769231 0.0769231 0.0769231 0.0769231 0.0769231 0.0769231 0.0769231 0.0769231 0.0769231 0.0769231 0.0769231 0.0769231 0.0769231;
   (orien_2, dist_3, inclin_7, right) 0.0769231 0.0769231 0.0769231 0.0769231 0.0769231 0.0769231 0.0769231 0.0769231 0.0769231 0.0769231 0.0769231 0.0769231 0.0769231;
   (orien_1, dist_3, inclin_7, right) 0.0769231 0.0769231 0.0769231 0.0769231 0.0769231 0.0769231 0.0769231 0.0769231 0.0769231 0.0769231 0.0769231 0.0769231 0.0769231;
   (orien_5, dist_3, inclin_7, right) 0.0769231 0.0769231 0.0769231 0.0769231 0.0769231 0.0769231 0.0769231 0.0769231 0.0769231 0.0769231 0.0769231 0.0769231 0.0769231;
   (orien_6, dist_3, inclin_7, right) 0.0769231 0.0769231 0.0769231 0.0769231 0.0769231 0.0769231 0.0769231 0.0769231 0.0769231 0.0769231 0.0769231 0.0769231 0.0769231;
   (orien_7, dist_3, inclin_7, right) 0.0769231 0.0769231 0.0769231 0.0769231 0.0769231 0.0769231 0.0769231 0.0769231 0.0769231 0.0769231 0.0769231 0.0769231 0.0769231;
   (orien_0, dist_3, inclin_7, right) 0.0769231 0.0769231 0.0769231 0.0769231 0.0769231 0.0769231 0.0769231 0.0769231 0.0769231 0.0769231 0.0769231 0.0769231 0.0769231;
   (orien_4, dist_5, inclin_2, right) 0.0769231 0.0769231 0.0769231 0.0769231 0.0769231 0.0769231 0.0769231 0.0769231 0.0769231 0.0769231 0.0769231 0.0769231 0.0769231;
   (orien_3, dist_5, inclin_2, right) 0.0666667 0.0666667 0.0666667 0.2 0.0666667 0.0666667 0.0666667 0.0666667 0.0666667 0.0666667 0.0666667 0.0666667 0.0666667;
   (orien_2, dist_5, inclin_2, right) 0.0769231 0.0769231 0.0769231 0.0769231 0.0769231 0.0769231 0.0769231 0.0769231 0.0769231 0.0769231 0.0769231 0.0769231 0.0769231;
   (orien_1, dist_5, inclin_2, right) 0.0714286 0.0714286 0.0714286 0.0714286 0.0714286 0.0714286 0.0714286 0.0714286 0.0714286 0.0714286 0.0714286 0.0714286 0.142857;
   (orien_5, dist_5, inclin_2, right) 0.0769231 0.0769231 0.0769231 0.0769231 0.0769231 0.0769231 0.0769231 0.0769231 0.0769231 0.0769231 0.0769231 0.0769231 0.0769231;
   (orien_6, dist_5, inclin_2, right) 0.0769231 0.0769231 0.0769231 0.0769231 0.0769231 0.0769231 0.0769231 0.0769231 0.0769231 0.0769231 0.0769231 0.0769231 0.0769231;
   (orien_7, dist_5, inclin_2, right) 0.0769231 0.0769231 0.0769231 0.0769231 0.0769231 0.0769231 0.0769231 0.0769231 0.0769231 0.0769231 0.0769231 0.0769231 0.0769231;
   (orien_0, dist_5, inclin_2, right) 0.0666667 0.0666667 0.0666667 0.0666667 0.0666667 0.0666667 0.0666667 0.0666667 0.0666667 0.0666667 0.0666667 0.2 0.0666667;
   (orien_4, dist_4, inclin_2, right) 0.0714286 0.0714286 0.0714286 0.142857 0.0714286 0.0714286 0.0714286 0.0714286 0.0714286 0.0714286 0.0714286 0.0714286 0.0714286;
   (orien_3, dist_4, inclin_2, right) 0.0769231 0.0769231 0.0769231 0.0769231 0.0769231 0.0769231 0.0769231 0.0769231 0.0769231 0.0769231 0.0769231 0.0769231 0.0769231;
   (orien_2, dist_4, inclin_2, right) 0.0769231 0.0769231 0.0769231 0.0769231 0.0769231 0.0769231 0.0769231 0.0769231 0.0769231 0.0769231 0.0769231 0.0769231 0.0769231;
   (orien_1, dist_4, inclin_2, right) 0.0769231 0.0769231 0.0769231 0.0769231 0.0769231 0.0769231 0.0769231 0.0769231 0.0769231 0.0769231 0.0769231 0.0769231 0.0769231;
   (orien_5, dist_4, inclin_2, right) 0.0769231 0.0769231 0.0769231 0.0769231 0.0769231 0.0769231 0.0769231 0.0769231 0.0769231 0.0769231 0.0769231 0.0769231 0.0769231;
   (orien_6, dist_4, inclin_2, right) 0.0769231 0.0769231 0.0769231 0.0769231 0.0769231 0.0769231 0.0769231 0.0769231 0.0769231 0.0769231 0.0769231 0.0769231 0.0769231;
   (orien_7, dist_4, inclin_2, right) 0.0714286 0.0714286 0.0714286 0.0714286 0.0714286 0.0714286 0.0714286 0.0714286 0.0714286 0.0714286 0.0714286 0.142857 0.0714286;
   (orien_0, dist_4, inclin_2, right) 0.0769231 0.0769231 0.0769231 0.0769231 0.0769231 0.0769231 0.0769231 0.0769231 0.0769231 0.0769231 0.0769231 0.0769231 0.0769231;
   (orien_4, dist_2, inclin_2, right) 0.0769231 0.0769231 0.0769231 0.0769231 0.0769231 0.0769231 0.0769231 0.0769231 0.0769231 0.0769231 0.0769231 0.0769231 0.0769231;
   (orien_3, dist_2, inclin_2, right) 0.0769231 0.0769231 0.0769231 0.0769231 0.0769231 0.0769231 0.0769231 0.0769231 0.0769231 0.0769231 0.0769231 0.0769231 0.0769231;
   (orien_2, dist_2, inclin_2, right) 0.0769231 0.0769231 0.0769231 0.0769231 0.0769231 0.0769231 0.0769231 0.0769231 0.0769231 0.0769231 0.0769231 0.0769231 0.0769231;
   (orien_1, dist_2, inclin_2, right) 0.0769231 0.0769231 0.0769231 0.0769231 0.0769231 0.0769231 0.0769231 0.0769231 0.0769231 0.0769231 0.0769231 0.0769231 0.0769231;
   (orien_5, dist_2, inclin_2, right) 0.0769231 0.0769231 0.0769231 0.0769231 0.0769231 0.0769231 0.0769231 0.0769231 0.0769231 0.0769231 0.0769231 0.0769231 0.0769231;
   (orien_6, dist_2, inclin_2, right) 0.0769231 0.0769231 0.0769231 0.0769231 0.0769231 0.0769231 0.0769231 0.0769231 0.0769231 0.0769231 0.0769231 0.0769231 0.0769231;
   (orien_7, dist_2, inclin_2, right) 0.0769231 0.0769231 0.0769231 0.0769231 0.0769231 0.0769231 0.0769231 0.0769231 0.0769231 0.0769231 0.0769231 0.0769231 0.0769231;
   (orien_0, dist_2, inclin_2, right) 0.0769231 0.0769231 0.0769231 0.0769231 0.0769231 0.0769231 0.0769231 0.0769231 0.0769231 0.0769231 0.0769231 0.0769231 0.0769231;
   (orien_4, dist_1, inclin_2, right) 0.0769231 0.0769231 0.0769231 0.0769231 0.0769231 0.0769231 0.0769231 0.0769231 0.0769231 0.0769231 0.0769231 0.0769231 0.0769231;
   (orien_3, dist_1, inclin_2, right) 0.0769231 0.0769231 0.0769231 0.0769231 0.0769231 0.0769231 0.0769231 0.0769231 0.0769231 0.0769231 0.0769231 0.0769231 0.0769231;
   (orien_2, dist_1, inclin_2, right) 0.0769231 0.0769231 0.0769231 0.0769231 0.0769231 0.0769231 0.0769231 0.0769231 0.0769231 0.0769231 0.0769231 0.0769231 0.0769231;
   (orien_1, dist_1, inclin_2, right) 0.0769231 0.0769231 0.0769231 0.0769231 0.0769231 0.0769231 0.0769231 0.0769231 0.0769231 0.0769231 0.0769231 0.0769231 0.0769231;
