
network unnamedBN{
   property software aGrUM;
}

variable effect {
   type discrete[4] {left, right, close, far};
}

variable move {
   type discrete[17] {close_right_down, close_left_down, left, right, down, close, close_down, far_down, far, close_right, right_down, left_down, far_right_down, far_right, far_left_down, far_left, close_left};
}

variable distance0 {
   type discrete[3] {dist_2, dist_1, dist_0};
}

variable orientation0 {
   type discrete[16] {orien_7, orien_6, orien_5, orien_4, orien_3, orien_8, orien_9, orien_10, orien_11, orien_15, orien_12, orien_14, orien_13, orien_1, orien_2, orien_0};
}

variable inclination0 {
   type discrete[5] {inclin_1, inclin_2, inclin_3, inclin_4, inclin_0};
}

probability (effect | orientation0) {
   (orien_7) 0.038961 0.038961 0.844156 0.0779221;
   (orien_6) 0.166667 0.166667 0.583333 0.0833333;
   (orien_5) 0.3125 0.1875 0.25 0.25;
   (orien_4) 0.538462 0.0769231 0.153846 0.230769;
   (orien_3) 0.821918 0.0821918 0.0547945 0.0410959;
   (orien_8) 0.166667 0.25 0.5 0.0833333;
   (orien_9) 0.294118 0.235294 0.294118 0.176471;
   (orien_10) 0.0833333 0.583333 0.166667 0.166667;
   (orien_11) 0.0869565 0.826087 0.0434783 0.0434783;
   (orien_15) 0.0428571 0.0428571 0.0857143 0.828571;
   (orien_12) 0.0714286 0.5 0.214286 0.214286;
   (orien_14) 0.142857 0.214286 0.0714286 0.571429;
   (orien_13) 0.2 0.266667 0.266667 0.266667;
   (orien_1) 0.277778 0.166667 0.277778 0.277778;
   (orien_2) 0.636364 0.0909091 0.0909091 0.181818;
   (orien_0) 0.166667 0.166667 0.0833333 0.583333;
}
probability (move | effect, orientation0, inclination0, distance0) {
   (left, orien_7, inclin_1, dist_2) 0.157895 0.0526316 0.0526316 0.0526316 0.0526316 0.0526316 0.0526316 0.0526316 0.0526316 0.0526316 0.0526316 0.0526316 0.0526316 0.0526316 0.0526316 0.0526316 0.0526316;
   (right, orien_7, inclin_1, dist_2) 0.0526316 0.157895 0.0526316 0.0526316 0.0526316 0.0526316 0.0526316 0.0526316 0.0526316 0.0526316 0.0526316 0.0526316 0.0526316 0.0526316 0.0526316 0.0526316 0.0526316;
   (close, orien_7, inclin_1, dist_2) 0.04 0.04 0.04 0.04 0.12 0.04 0.04 0.28 0.04 0.04 0.04 0.04 0.04 0.04 0.04 0.04 0.04;
   (far, orien_7, inclin_1, dist_2) 0.05 0.05 0.05 0.05 0.05 0.2 0.05 0.05 0.05 0.05 0.05 0.05 0.05 0.05 0.05 0.05 0.05;
   (left, orien_6, inclin_1, dist_2) 0.111111 0.0555556 0.0555556 0.0555556 0.0555556 0.0555556 0.0555556 0.0555556 0.0555556 0.0555556 0.0555556 0.0555556 0.0555556 0.0555556 0.0555556 0.0555556 0.0555556;
   (right, orien_6, inclin_1, dist_2) 0.0555556 0.0555556 0.0555556 0.0555556 0.0555556 0.0555556 0.0555556 0.0555556 0.0555556 0.0555556 0.0555556 0.111111 0.0555556 0.0555556 0.0555556 0.0555556 0.0555556;
   (close, orien_6, inclin_1, dist_2) 0.0555556 0.0555556 0.0555556 0.0555556 0.0555556 0.0555556 0.0555556 0.0555556 0.0555556 0.0555556 0.0555556 0.111111 0.0555556 0.0555556 0.0555556 0.0555556 0.0555556;
   (far, orien_6, inclin_1, dist_2) 0.0588235 0.0588235 0.0588235 0.0588235 0.0588235 0.0588235 0.0588235 0.0588235 0.0588235 0.0588235 0.0588235 0.0588235 0.0588235 0.0588235 0.0588235 0.0588235 0.0588235;
   (left, orien_5, inclin_1, dist_2) 0.0526316 0.0526316 0.0526316 0.0526316 0.0526316 0.0526316 0.157895 0.0526316 0.0526316 0.0526316 0.0526316 0.0526316 0.0526316 0.0526316 0.0526316 0.0526316 0.0526316;
   (right, orien_5, inclin_1, dist_2) 0.0526316 0.0526316 0.0526316 0.0526316 0.0526316 0.0526316 0.0526316 0.0526316 0.0526316 0.0526316 0.0526316 0.157895 0.0526316 0.0526316 0.0526316 0.0526316 0.0526316;
   (close, orien_5, inclin_1, dist_2) 0.0526316 0.0526316 0.0526316 0.0526316 0.105263 0.0526316 0.0526316 0.0526316 0.0526316 0.0526316 0.0526316 0.105263 0.0526316 0.0526316 0.0526316 0.0526316 0.0526316;
   (far, orien_5, inclin_1, dist_2) 0.05 0.05 0.05 0.05 0.05 0.1 0.05 0.05 0.05 0.05 0.05 0.05 0.05 0.05 0.05 0.05 0.15;
   (left, orien_4, inclin_1, dist_2) 0.0555556 0.0555556 0.0555556 0.0555556 0.0555556 0.0555556 0.111111 0.0555556 0.0555556 0.0555556 0.0555556 0.0555556 0.0555556 0.0555556 0.0555556 0.0555556 0.0555556;
   (right, orien_4, inclin_1, dist_2) 0.0588235 0.0588235 0.0588235 0.0588235 0.0588235 0.0588235 0.0588235 0.0588235 0.0588235 0.0588235 0.0588235 0.0588235 0.0588235 0.0588235 0.0588235 0.0588235 0.0588235;
   (close, orien_4, inclin_1, dist_2) 0.0555556 0.0555556 0.0555556 0.0555556 0.0555556 0.0555556 0.0555556 0.0555556 0.0555556 0.0555556 0.0555556 0.0555556 0.0555556 0.0555556 0.111111 0.0555556 0.0555556;
   (far, orien_4, inclin_1, dist_2) 0.0588235 0.0588235 0.0588235 0.0588235 0.0588235 0.0588235 0.0588235 0.0588235 0.0588235 0.0588235 0.0588235 0.0588235 0.0588235 0.0588235 0.0588235 0.0588235 0.0588235;
   (left, orien_3, inclin_1, dist_2) 0.0434783 0.0434783 0.0434783 0.0434783 0.130435 0.0434783 0.0434783 0.0434783 0.0434783 0.0434783 0.217391 0.0434783 0.0434783 0.0434783 0.0434783 0.0434783 0.0434783;
   (right, orien_3, inclin_1, dist_2) 0.05 0.05 0.2 0.05 0.05 0.05 0.05 0.05 0.05 0.05 0.05 0.05 0.05 0.05 0.05 0.05 0.05;
   (close, orien_3, inclin_1, dist_2) 0.0526316 0.0526316 0.0526316 0.0526316 0.0526316 0.0526316 0.0526316 0.0526316 0.0526316 0.0526316 0.0526316 0.0526316 0.0526316 0.0526316 0.157895 0.0526316 0.0526316;
   (far, orien_3, inclin_1, dist_2) 0.0526316 0.157895 0.0526316 0.0526316 0.0526316 0.0526316 0.0526316 0.0526316 0.0526316 0.0526316 0.0526316 0.0526316 0.0526316 0.0526316 0.0526316 0.0526316 0.0526316;
   (left, orien_8, inclin_1, dist_2) 0.0588235 0.0588235 0.0588235 0.0588235 0.0588235 0.0588235 0.0588235 0.0588235 0.0588235 0.0588235 0.0588235 0.0588235 0.0588235 0.0588235 0.0588235 0.0588235 0.0588235;
   (right, orien_8, inclin_1, dist_2) 0.0526316 0.105263 0.0526316 0.0526316 0.0526316 0.0526316 0.0526316 0.0526316 0.0526316 0.0526316 0.0526316 0.105263 0.0526316 0.0526316 0.0526316 0.0526316 0.0526316;
   (close, orien_8, inclin_1, dist_2) 0.0555556 0.0555556 0.0555556 0.0555556 0.0555556 0.0555556 0.0555556 0.0555556 0.0555556 0.0555556 0.111111 0.0555556 0.0555556 0.0555556 0.0555556 0.0555556 0.0555556;
   (far, orien_8, inclin_1, dist_2) 0.0588235 0.0588235 0.0588235 0.0588235 0.0588235 0.0588235 0.0588235 0.0588235 0.0588235 0.0588235 0.0588235 0.0588235 0.0588235 0.0588235 0.0588235 0.0588235 0.0588235;
   (left, orien_9, inclin_1, dist_2) 0.05 0.05 0.05 0.05 0.05 0.05 0.05 0.05 0.05 0.2 0.05 0.05 0.05 0.05 0.05 0.05 0.05;
   (right, orien_9, inclin_1, dist_2) 0.0526316 0.0526316 0.0526316 0.0526316 0.0526316 0.0526316 0.157895 0.0526316 0.0526316 0.0526316 0.0526316 0.0526316 0.0526316 0.0526316 0.0526316 0.0526316 0.0526316;
   (close, orien_9, inclin_1, dist_2) 0.0526316 0.0526316 0.0526316 0.0526316 0.105263 0.0526316 0.0526316 0.0526316 0.0526316 0.0526316 0.105263 0.0526316 0.0526316 0.0526316 0.0526316 0.0526316 0.0526316;
   (far, orien_9, inclin_1, dist_2) 0.0526316 0.0526316 0.0526316 0.0526316 0.0526316 0.0526316 0.157895 0.0526316 0.0526316 0.0526316 0.0526316 0.0526316 0.0526316 0.0526316 0.0526316 0.0526316 0.0526316;
   (left, orien_10, inclin_1, dist_2) 0.0588235 0.0588235 0.0588235 0.0588235 0.0588235 0.0588235 0.0588235 0.0588235 0.0588235 0.0588235 0.0588235 0.0588235 0.0588235 0.0588235 0.0588235 0.0588235 0.0588235;
   (right, orien_10, inclin_1, dist_2) 0.0555556 0.0555556 0.0555556 0.0555556 0.0555556 0.0555556 0.111111 0.0555556 0.0555556 0.0555556 0.0555556 0.0555556 0.0555556 0.0555556 0.0555556 0.0555556 0.0555556;
   (close, orien_10, inclin_1, dist_2) 0.0555556 0.0555556 0.0555556 0.0555556 0.0555556 0.0555556 0.0555556 0.0555556 0.0555556 0.0555556 0.0555556 0.0555556 0.111111 0.0555556 0.0555556 0.0555556 0.0555556;
   (far, orien_10, inclin_1, dist_2) 0.0555556 0.0555556 0.0555556 0.0555556 0.0555556 0.0555556 0.111111 0.0555556 0.0555556 0.0555556 0.0555556 0.0555556 0.0555556 0.0555556 0.0555556 0.0555556 0.0555556;
   (left, orien_11, inclin_1, dist_2) 0.05 0.05 0.05 0.2 0.05 0.05 0.05 0.05 0.05 0.05 0.05 0.05 0.05 0.05 0.05 0.05 0.05;
   (right, orien_11, inclin_1, dist_2) 0.047619 0.047619 0.047619 0.047619 0.142857 0.047619 0.047619 0.047619 0.047619 0.047619 0.047619 0.142857 0.047619 0.047619 0.047619 0.047619 0.047619;
   (close, orien_11, inclin_1, dist_2) 0.0526316 0.0526316 0.0526316 0.0526316 0.0526316 0.0526316 0.0526316 0.0526316 0.0526316 0.0526316 0.0526316 0.0526316 0.157895 0.0526316 0.0526316 0.0526316 0.0526316;
   (far, orien_11, inclin_1, dist_2) 0.157895 0.0526316 0.0526316 0.0526316 0.0526316 0.0526316 0.0526316 0.0526316 0.0526316 0.0526316 0.0526316 0.0526316 0.0526316 0.0526316 0.0526316 0.0526316 0.0526316;
   (left, orien_15, inclin_1, dist_2) 0.0526316 0.0526316 0.0526316 0.0526316 0.0526316 0.0526316 0.0526316 0.0526316 0.0526316 0.0526316 0.0526316 0.0526316 0.157895 0.0526316 0.0526316 0.0526316 0.0526316;
   (right, orien_15, inclin_1, dist_2) 0.0526316 0.0526316 0.0526316 0.0526316 0.0526316 0.0526316 0.0526316 0.0526316 0.0526316 0.0526316 0.0526316 0.0526316 0.0526316 0.0526316 0.157895 0.0526316 0.0526316;
   (close, orien_15, inclin_1, dist_2) 0.05 0.05 0.05 0.05 0.05 0.05 0.05 0.05 0.2 0.05 0.05 0.05 0.05 0.05 0.05 0.05 0.05;
   (far, orien_15, inclin_1, dist_2) 0.0434783 0.0434783 0.0434783 0.0434783 0.130435 0.0434783 0.217391 0.0434783 0.0434783 0.0434783 0.0434783 0.0434783 0.0434783 0.0434783 0.0434783 0.0434783 0.0434783;
   (left, orien_12, inclin_1, dist_2) 0.0588235 0.0588235 0.0588235 0.0588235 0.0588235 0.0588235 0.0588235 0.0588235 0.0588235 0.0588235 0.0588235 0.0588235 0.0588235 0.0588235 0.0588235 0.0588235 0.0588235;
   (right, orien_12, inclin_1, dist_2) 0.0555556 0.0555556 0.0555556 0.0555556 0.0555556 0.0555556 0.0555556 0.111111 0.0555556 0.0555556 0.0555556 0.0555556 0.0555556 0.0555556 0.0555556 0.0555556 0.0555556;
   (close, orien_12, inclin_1, dist_2) 0.0588235 0.0588235 0.0588235 0.0588235 0.0588235 0.0588235 0.0588235 0.0588235 0.0588235 0.0588235 0.0588235 0.0588235 0.0588235 0.0588235 0.0588235 0.0588235 0.0588235;
   (far, orien_12, inclin_1, dist_2) 0.105263 0.0526316 0.0526316 0.0526316 0.0526316 0.0526316 0.105263 0.0526316 0.0526316 0.0526316 0.0526316 0.0526316 0.0526316 0.0526316 0.0526316 0.0526316 0.0526316;
   (left, orien_14, inclin_1, dist_2) 0.0555556 0.0555556 0.0555556 0.0555556 0.0555556 0.0555556 0.0555556 0.0555556 0.0555556 0.0555556 0.111111 0.0555556 0.0555556 0.0555556 0.0555556 0.0555556 0.0555556;
   (right, orien_14, inclin_1, dist_2) 0.0526316 0.0526316 0.0526316 0.0526316 0.0526316 0.0526316 0.0526316 0.0526316 0.0526316 0.0526316 0.0526316 0.105263 0.0526316 0.0526316 0.105263 0.0526316 0.0526316;
   (close, orien_14, inclin_1, dist_2) 0.0588235 0.0588235 0.0588235 0.0588235 0.0588235 0.0588235 0.0588235 0.0588235 0.0588235 0.0588235 0.0588235 0.0588235 0.0588235 0.0588235 0.0588235 0.0588235 0.0588235;
   (far, orien_14, inclin_1, dist_2) 0.0555556 0.0555556 0.0555556 0.0555556 0.0555556 0.0555556 0.0555556 0.0555556 0.0555556 0.0555556 0.111111 0.0555556 0.0555556 0.0555556 0.0555556 0.0555556 0.0555556;
   (left, orien_13, inclin_1, dist_2) 0.0526316 0.0526316 0.0526316 0.0526316 0.0526316 0.0526316 0.0526316 0.0526316 0.0526316 0.0526316 0.157895 0.0526316 0.0526316 0.0526316 0.0526316 0.0526316 0.0526316;
   (right, orien_13, inclin_1, dist_2) 0.0526316 0.0526316 0.0526316 0.0526316 0.0526316 0.0526316 0.0526316 0.157895 0.0526316 0.0526316 0.0526316 0.0526316 0.0526316 0.0526316 0.0526316 0.0526316 0.0526316;
   (close, orien_13, inclin_1, dist_2) 0.05 0.05 0.05 0.05 0.05 0.05 0.05 0.05 0.1 0.05 0.05 0.05 0.05 0.15 0.05 0.05 0.05;
   (far, orien_13, inclin_1, dist_2) 0.0526316 0.0526316 0.0526316 0.0526316 0.105263 0.0526316 0.0526316 0.0526316 0.0526316 0.0526316 0.105263 0.0526316 0.0526316 0.0526316 0.0526316 0.0526316 0.0526316;
   (left, orien_1, inclin_1, dist_2) 0.047619 0.047619 0.047619 0.047619 0.047619 0.047619 0.047619 0.142857 0.047619 0.047619 0.0952381 0.047619 0.0952381 0.047619 0.047619 0.047619 0.047619;
   (right, orien_1, inclin_1, dist_2) 0.0526316 0.0526316 0.0526316 0.0526316 0.0526316 0.0526316 0.0526316 0.0526316 0.0526316 0.0526316 0.0526316 0.157895 0.0526316 0.0526316 0.0526316 0.0526316 0.0526316;
   (close, orien_1, inclin_1, dist_2) 0.05 0.05 0.05 0.05 0.05 0.05 0.05 0.05 0.05 0.05 0.05 0.05 0.05 0.05 0.05 0.2 0.05;
   (far, orien_1, inclin_1, dist_2) 0.0526316 0.0526316 0.0526316 0.0526316 0.0526316 0.0526316 0.0526316 0.0526316 0.0526316 0.0526316 0.0526316 0.157895 0.0526316 0.0526316 0.0526316 0.0526316 0.0526316;
   (left, orien_2, inclin_1, dist_2) 0.0555556 0.0555556 0.0555556 0.0555556 0.0555556 0.0555556 0.0555556 0.111111 0.0555556 0.0555556 0.0555556 0.0555556 0.0555556 0.0555556 0.0555556 0.0555556 0.0555556;
   (right, orien_2, inclin_1, dist_2) 0.0588235 0.0588235 0.0588235 0.0588235 0.0588235 0.0588235 0.0588235 0.0588235 0.0588235 0.0588235 0.0588235 0.0588235 0.0588235 0.0588235 0.0588235 0.0588235 0.0588235;
   (close, orien_2, inclin_1, dist_2) 0.0588235 0.0588235 0.0588235 0.0588235 0.0588235 0.0588235 0.0588235 0.0588235 0.0588235 0.0588235 0.0588235 0.0588235 0.0588235 0.0588235 0.0588235 0.0588235 0.0588235;
   (far, orien_2, inclin_1, dist_2) 0.0555556 0.111111 0.0555556 0.0555556 0.0555556 0.0555556 0.0555556 0.0555556 0.0555556 0.0555556 0.0555556 0.0555556 0.0555556 0.0555556 0.0555556 0.0555556 0.0555556;
   (left, orien_0, inclin_1, dist_2) 0.0555556 0.0555556 0.0555556 0.0555556 0.0555556 0.0555556 0.0555556 0.0555556 0.0555556 0.0555556 0.0555556 0.0555556 0.111111 0.0555556 0.0555556 0.0555556 0.0555556;
   (right, orien_0, inclin_1, dist_2) 0.0555556 0.0555556 0.0555556 0.0555556 0.0555556 0.0555556 0.0555556 0.0555556 0.0555556 0.0555556 0.0555556 0.111111 0.0555556 0.0555556 0.0555556 0.0555556 0.0555556;
   (close, orien_0, inclin_1, dist_2) 0.0588235 0.0588235 0.0588235 0.0588235 0.0588235 0.0588235 0.0588235 0.0588235 0.0588235 0.0588235 0.0588235 0.0588235 0.0588235 0.0588235 0.0588235 0.0588235 0.0588235;
   (far, orien_0, inclin_1, dist_2) 0.0555556 0.0555556 0.0555556 0.0555556 0.0555556 0.0555556 0.0555556 0.0555556 0.0555556 0.0555556 0.0555556 0.111111 0.0555556 0.0555556 0.0555556 0.0555556 0.0555556;
   (left, orien_7, inclin_2, dist_2) 0.0588235 0.0588235 0.0588235 0.0588235 0.0588235 0.0588235 0.0588235 0.0588235 0.0588235 0.0588235 0.0588235 0.0588235 0.0588235 0.0588235 0.0588235 0.0588235 0.0588235;
   (right, orien_7, inclin_2, dist_2) 0.0588235 0.0588235 0.0588235 0.0588235 0.0588235 0.0588235 0.0588235 0.0588235 0.0588235 0.0588235 0.0588235 0.0588235 0.0588235 0.0588235 0.0588235 0.0588235 0.0588235;
   (close, orien_7, inclin_2, dist_2) 0.04 0.04 0.04 0.04 0.12 0.04 0.04 0.28 0.04 0.04 0.04 0.04 0.04 0.04 0.04 0.04 0.04;
   (far, orien_7, inclin_2, dist_2) 0.0588235 0.0588235 0.0588235 0.0588235 0.0588235 0.0588235 0.0588235 0.0588235 0.0588235 0.0588235 0.0588235 0.0588235 0.0588235 0.0588235 0.0588235 0.0588235 0.0588235;
   (left, orien_6, inclin_2, dist_2) 0.0588235 0.0588235 0.0588235 0.0588235 0.0588235 0.0588235 0.0588235 0.0588235 0.0588235 0.0588235 0.0588235 0.0588235 0.0588235 0.0588235 0.0588235 0.0588235 0.0588235;
   (right, orien_6, inclin_2, dist_2) 0.0588235 0.0588235 0.0588235 0.0588235 0.0588235 0.0588235 0.0588235 0.0588235 0.0588235 0.0588235 0.0588235 0.0588235 0.0588235 0.0588235 0.0588235 0.0588235 0.0588235;
   (close, orien_6, inclin_2, dist_2) 0.047619 0.047619 0.047619 0.047619 0.047619 0.047619 0.047619 0.047619 0.047619 0.047619 0.047619 0.142857 0.047619 0.047619 0.142857 0.047619 0.047619;
   (far, orien_6, inclin_2, dist_2) 0.0588235 0.0588235 0.0588235 0.0588235 0.0588235 0.0588235 0.0588235 0.0588235 0.0588235 0.0588235 0.0588235 0.0588235 0.0588235 0.0588235 0.0588235 0.0588235 0.0588235;
   (left, orien_5, inclin_2, dist_2) 0.111111 0.0555556 0.0555556 0.0555556 0.0555556 0.0555556 0.0555556 0.0555556 0.0555556 0.0555556 0.0555556 0.0555556 0.0555556 0.0555556 0.0555556 0.0555556 0.0555556;
   (right, orien_5, inclin_2, dist_2) 0.0588235 0.0588235 0.0588235 0.0588235 0.0588235 0.0588235 0.0588235 0.0588235 0.0588235 0.0588235 0.0588235 0.0588235 0.0588235 0.0588235 0.0588235 0.0588235 0.0588235;
   (close, orien_5, inclin_2, dist_2) 0.0555556 0.0555556 0.0555556 0.0555556 0.0555556 0.0555556 0.0555556 0.0555556 0.0555556 0.0555556 0.0555556 0.0555556 0.0555556 0.0555556 0.111111 0.0555556 0.0555556;
   (far, orien_5, inclin_2, dist_2) 0.0588235 0.0588235 0.0588235 0.0588235 0.0588235 0.0588235 0.0588235 0.0588235 0.0588235 0.0588235 0.0588235 0.0588235 0.0588235 0.0588235 0.0588235 0.0588235 0.0588235;
   (left, orien_4, inclin_2, dist_2) 0.136364 0.0454545 0.0454545 0.0454545 0.0454545 0.0454545 0.181818 0.0454545 0.0454545 0.0454545 0.0454545 0.0454545 0.0454545 0.0454545 0.0454545 0.0454545 0.0454545;
   (right, orien_4, inclin_2, dist_2) 0.0588235 0.0588235 0.0588235 0.0588235 0.0588235 0.0588235 0.0588235 0.0588235 0.0588235 0.0588235 0.0588235 0.0588235 0.0588235 0.0588235 0.0588235 0.0588235 0.0588235;
   (close, orien_4, inclin_2, dist_2) 0.0588235 0.0588235 0.0588235 0.0588235 0.0588235 0.0588235 0.0588235 0.0588235 0.0588235 0.0588235 0.0588235 0.0588235 0.0588235 0.0588235 0.0588235 0.0588235 0.0588235;
   (far, orien_4, inclin_2, dist_2) 0.0588235 0.0588235 0.0588235 0.0588235 0.0588235 0.0588235 0.0588235 0.0588235 0.0588235 0.0588235 0.0588235 0.0588235 0.0588235 0.0588235 0.0588235 0.0588235 0.0588235;
   (left, orien_3, inclin_2, dist_2) 0.0434783 0.0434783 0.0434783 0.0434783 0.130435 0.0434783 0.0434783 0.0434783 0.0434783 0.0434783 0.217391 0.0434783 0.0434783 0.0434783 0.0434783 0.0434783 0.0434783;
   (right, orien_3, inclin_2, dist_2) 0.0588235 0.0588235 0.0588235 0.0588235 0.0588235 0.0588235 0.0588235 0.0588235 0.0588235 0.0588235 0.0588235 0.0588235 0.0588235 0.0588235 0.0588235 0.0588235 0.0588235;
   (close, orien_3, inclin_2, dist_2) 0.0588235 0.0588235 0.0588235 0.0588235 0.0588235 0.0588235 0.0588235 0.0588235 0.0588235 0.0588235 0.0588235 0.0588235 0.0588235 0.0588235 0.0588235 0.0588235 0.0588235;
   (far, orien_3, inclin_2, dist_2) 0.0588235 0.0588235 0.0588235 0.0588235 0.0588235 0.0588235 0.0588235 0.0588235 0.0588235 0.0588235 0.0588235 0.0588235 0.0588235 0.0588235 0.0588235 0.0588235 0.0588235;
   (left, orien_8, inclin_2, dist_2) 0.0588235 0.0588235 0.0588235 0.0588235 0.0588235 0.0588235 0.0588235 0.0588235 0.0588235 0.0588235 0.0588235 0.0588235 0.0588235 0.0588235 0.0588235 0.0588235 0.0588235;
   (right, orien_8, inclin_2, dist_2) 0.0588235 0.0588235 0.0588235 0.0588235 0.0588235 0.0588235 0.0588235 0.0588235 0.0588235 0.0588235 0.0588235 0.0588235 0.0588235 0.0588235 0.0588235 0.0588235 0.0588235;
   (close, orien_8, inclin_2, dist_2) 0.047619 0.047619 0.047619 0.047619 0.047619 0.047619 0.047619 0.047619 0.047619 0.047619 0.142857 0.047619 0.142857 0.047619 0.047619 0.047619 0.047619;
   (far, orien_8, inclin_2, dist_2) 0.0588235 0.0588235 0.0588235 0.0588235 0.0588235 0.0588235 0.0588235 0.0588235 0.0588235 0.0588235 0.0588235 0.0588235 0.0588235 0.0588235 0.0588235 0.0588235 0.0588235;
   (left, orien_9, inclin_2, dist_2) 0.0588235 0.0588235 0.0588235 0.0588235 0.0588235 0.0588235 0.0588235 0.0588235 0.0588235 0.0588235 0.0588235 0.0588235 0.0588235 0.0588235 0.0588235 0.0588235 0.0588235;
   (right, orien_9, inclin_2, dist_2) 0.0555556 0.111111 0.0555556 0.0555556 0.0555556 0.0555556 0.0555556 0.0555556 0.0555556 0.0555556 0.0555556 0.0555556 0.0555556 0.0555556 0.0555556 0.0555556 0.0555556;
   (close, orien_9, inclin_2, dist_2) 0.0555556 0.0555556 0.0555556 0.0555556 0.0555556 0.0555556 0.0555556 0.0555556 0.0555556 0.0555556 0.0555556 0.0555556 0.111111 0.0555556 0.0555556 0.0555556 0.0555556;
   (far, orien_9, inclin_2, dist_2) 0.0588235 0.0588235 0.0588235 0.0588235 0.0588235 0.0588235 0.0588235 0.0588235 0.0588235 0.0588235 0.0588235 0.0588235 0.0588235 0.0588235 0.0588235 0.0588235 0.0588235;
   (left, orien_10, inclin_2, dist_2) 0.0588235 0.0588235 0.0588235 0.0588235 0.0588235 0.0588235 0.0588235 0.0588235 0.0588235 0.0588235 0.0588235 0.0588235 0.0588235 0.0588235 0.0588235 0.0588235 0.0588235;
   (right, orien_10, inclin_2, dist_2) 0.047619 0.142857 0.047619 0.047619 0.047619 0.047619 0.142857 0.047619 0.047619 0.047619 0.047619 0.047619 0.047619 0.047619 0.047619 0.047619 0.047619;
   (close, orien_10, inclin_2, dist_2) 0.0588235 0.0588235 0.0588235 0.0588235 0.0588235 0.0588235 0.0588235 0.0588235 0.0588235 0.0588235 0.0588235 0.0588235 0.0588235 0.0588235 0.0588235 0.0588235 0.0588235;
   (far, orien_10, inclin_2, dist_2) 0.0588235 0.0588235 0.0588235 0.0588235 0.0588235 0.0588235 0.0588235 0.0588235 0.0588235 0.0588235 0.0588235 0.0588235 0.0588235 0.0588235 0.0588235 0.0588235 0.0588235;
   (left, orien_11, inclin_2, dist_2) 0.0588235 0.0588235 0.0588235 0.0588235 0.0588235 0.0588235 0.0588235 0.0588235 0.0588235 0.0588235 0.0588235 0.0588235 0.0588235 0.0588235 0.0588235 0.0588235 0.0588235;
   (right, orien_11, inclin_2, dist_2) 0.047619 0.047619 0.047619 0.047619 0.142857 0.047619 0.047619 0.047619 0.047619 0.047619 0.047619 0.142857 0.047619 0.047619 0.047619 0.047619 0.047619;
   (close, orien_11, inclin_2, dist_2) 0.0588235 0.0588235 0.0588235 0.0588235 0.0588235 0.0588235 0.0588235 0.0588235 0.0588235 0.0588235 0.0588235 0.0588235 0.0588235 0.0588235 0.0588235 0.0588235 0.0588235;
   (far, orien_11, inclin_2, dist_2) 0.0588235 0.0588235 0.0588235 0.0588235 0.0588235 0.0588235 0.0588235 0.0588235 0.0588235 0.0588235 0.0588235 0.0588235 0.0588235 0.0588235 0.0588235 0.0588235 0.0588235;
   (left, orien_15, inclin_2, dist_2) 0.0588235 0.0588235 0.0588235 0.0588235 0.0588235 0.0588235 0.0588235 0.0588235 0.0588235 0.0588235 0.0588235 0.0588235 0.0588235 0.0588235 0.0588235 0.0588235 0.0588235;
   (right, orien_15, inclin_2, dist_2) 0.0588235 0.0588235 0.0588235 0.0588235 0.0588235 0.0588235 0.0588235 0.0588235 0.0588235 0.0588235 0.0588235 0.0588235 0.0588235 0.0588235 0.0588235 0.0588235 0.0588235;
   (close, orien_15, inclin_2, dist_2) 0.0588235 0.0588235 0.0588235 0.0588235 0.0588235 0.0588235 0.0588235 0.0588235 0.0588235 0.0588235 0.0588235 0.0588235 0.0588235 0.0588235 0.0588235 0.0588235 0.0588235;
   (far, orien_15, inclin_2, dist_2) 0.0434783 0.0434783 0.0434783 0.0434783 0.130435 0.0434783 0.217391 0.0434783 0.0434783 0.0434783 0.0434783 0.0434783 0.0434783 0.0434783 0.0434783 0.0434783 0.0434783;
   (left, orien_12, inclin_2, dist_2) 0.0588235 0.0588235 0.0588235 0.0588235 0.0588235 0.0588235 0.0588235 0.0588235 0.0588235 0.0588235 0.0588235 0.0588235 0.0588235 0.0588235 0.0588235 0.0588235 0.0588235;
   (right, orien_12, inclin_2, dist_2) 0.047619 0.047619 0.047619 0.047619 0.047619 0.047619 0.047619 0.142857 0.047619 0.047619 0.047619 0.047619 0.047619 0.047619 0.142857 0.047619 0.047619;
   (close, orien_12, inclin_2, dist_2) 0.0588235 0.0588235 0.0588235 0.0588235 0.0588235 0.0588235 0.0588235 0.0588235 0.0588235 0.0588235 0.0588235 0.0588235 0.0588235 0.0588235 0.0588235 0.0588235 0.0588235;
   (far, orien_12, inclin_2, dist_2) 0.0588235 0.0588235 0.0588235 0.0588235 0.0588235 0.0588235 0.0588235 0.0588235 0.0588235 0.0588235 0.0588235 0.0588235 0.0588235 0.0588235 0.0588235 0.0588235 0.0588235;
   (left, orien_14, inclin_2, dist_2) 0.0588235 0.0588235 0.0588235 0.0588235 0.0588235 0.0588235 0.0588235 0.0588235 0.0588235 0.0588235 0.0588235 0.0588235 0.0588235 0.0588235 0.0588235 0.0588235 0.0588235;
   (right, orien_14, inclin_2, dist_2) 0.0588235 0.0588235 0.0588235 0.0588235 0.0588235 0.0588235 0.0588235 0.0588235 0.0588235 0.0588235 0.0588235 0.0588235 0.0588235 0.0588235 0.0588235 0.0588235 0.0588235;
   (close, orien_14, inclin_2, dist_2) 0.0588235 0.0588235 0.0588235 0.0588235 0.0588235 0.0588235 0.0588235 0.0588235 0.0588235 0.0588235 0.0588235 0.0588235 0.0588235 0.0588235 0.0588235 0.0588235 0.0588235;
   (far, orien_14, inclin_2, dist_2) 0.136364 0.0454545 0.0454545 0.0454545 0.0454545 0.0454545 0.0454545 0.0454545 0.0454545 0.0454545 0.181818 0.0454545 0.0454545 0.0454545 0.0454545 0.0454545 0.0454545;
   (left, orien_13, inclin_2, dist_2) 0.0588235 0.0588235 0.0588235 0.0588235 0.0588235 0.0588235 0.0588235 0.0588235 0.0588235 0.0588235 0.0588235 0.0588235 0.0588235 0.0588235 0.0588235 0.0588235 0.0588235;
   (right, orien_13, inclin_2, dist_2) 0.0555556 0.0555556 0.0555556 0.0555556 0.0555556 0.0555556 0.0555556 0.0555556 0.0555556 0.0555556 0.0555556 0.0555556 0.0555556 0.0555556 0.111111 0.0555556 0.0555556;
   (close, orien_13, inclin_2, dist_2) 0.0588235 0.0588235 0.0588235 0.0588235 0.0588235 0.0588235 0.0588235 0.0588235 0.0588235 0.0588235 0.0588235 0.0588235 0.0588235 0.0588235 0.0588235 0.0588235 0.0588235;
   (far, orien_13, inclin_2, dist_2) 0.111111 0.0555556 0.0555556 0.0555556 0.0555556 0.0555556 0.0555556 0.0555556 0.0555556 0.0555556 0.0555556 0.0555556 0.0555556 0.0555556 0.0555556 0.0555556 0.0555556;
   (left, orien_1, inclin_2, dist_2) 0.0588235 0.0588235 0.0588235 0.0588235 0.0588235 0.0588235 0.0588235 0.0588235 0.0588235 0.0588235 0.0588235 0.0588235 0.0588235 0.0588235 0.0588235 0.0588235 0.0588235;
   (right, orien_1, inclin_2, dist_2) 0.0588235 0.0588235 0.0588235 0.0588235 0.0588235 0.0588235 0.0588235 0.0588235 0.0588235 0.0588235 0.0588235 0.0588235 0.0588235 0.0588235 0.0588235 0.0588235 0.0588235;
   (close, orien_1, inclin_2, dist_2) 0.0588235 0.0588235 0.0588235 0.0588235 0.0588235 0.0588235 0.0588235 0.0588235 0.0588235 0.0588235 0.0588235 0.0588235 0.0588235 0.0588235 0.0588235 0.0588235 0.0588235;
   (far, orien_1, inclin_2, dist_2) 0.0555556 0.111111 0.0555556 0.0555556 0.0555556 0.0555556 0.0555556 0.0555556 0.0555556 0.0555556 0.0555556 0.0555556 0.0555556 0.0555556 0.0555556 0.0555556 0.0555556;
   (left, orien_2, inclin_2, dist_2) 0.047619 0.047619 0.047619 0.047619 0.047619 0.047619 0.047619 0.142857 0.047619 0.047619 0.047619 0.047619 0.142857 0.047619 0.047619 0.047619 0.047619;
   (right, orien_2, inclin_2, dist_2) 0.0588235 0.0588235 0.0588235 0.0588235 0.0588235 0.0588235 0.0588235 0.0588235 0.0588235 0.0588235 0.0588235 0.0588235 0.0588235 0.0588235 0.0588235 0.0588235 0.0588235;
   (close, orien_2, inclin_2, dist_2) 0.0588235 0.0588235 0.0588235 0.0588235 0.0588235 0.0588235 0.0588235 0.0588235 0.0588235 0.0588235 0.0588235 0.0588235 0.0588235 0.0588235 0.0588235 0.0588235 0.0588235;
   (far, orien_2, inclin_2, dist_2) 0.0588235 0.0588235 0.0588235 0.0588235 0.0588235 0.0588235 0.0588235 0.0588235 0.0588235 0.0588235 0.0588235 0.0588235 0.0588235 0.0588235 0.0588235 0.0588235 0.0588235;
   (left, orien_0, inclin_2, dist_2) 0.0588235 0.0588235 0.0588235 0.0588235 0.0588235 0.0588235 0.0588235 0.0588235 0.0588235 0.0588235 0.0588235 0.0588235 0.0588235 0.0588235 0.0588235 0.0588235 0.0588235;
   (right, orien_0, inclin_2, dist_2) 0.0588235 0.0588235 0.0588235 0.0588235 0.0588235 0.0588235 0.0588235 0.0588235 0.0588235 0.0588235 0.0588235 0.0588235 0.0588235 0.0588235 0.0588235 0.0588235 0.0588235;
   (close, orien_0, inclin_2, dist_2) 0.0588235 0.0588235 0.0588235 0.0588235 0.0588235 0.0588235 0.0588235 0.0588235 0.0588235 0.0588235 0.0588235 0.0588235 0.0588235 0.0588235 0.0588235 0.0588235 0.0588235;
   (far, orien_0, inclin_2, dist_2) 0.0454545 0.136364 0.0454545 0.0454545 0.0454545 0.0454545 0.0454545 0.0454545 0.0454545 0.0454545 0.0454545 0.181818 0.0454545 0.0454545 0.0454545 0.0454545 0.0454545;
   (left, orien_7, inclin_3, dist_2) 0.0588235 0.0588235 0.0588235 0.0588235 0.0588235 0.0588235 0.0588235 0.0588235 0.0588235 0.0588235 0.0588235 0.0588235 0.0588235 0.0588235 0.0588235 0.0588235 0.0588235;
   (right, orien_7, inclin_3, dist_2) 0.0588235 0.0588235 0.0588235 0.0588235 0.0588235 0.0588235 0.0588235 0.0588235 0.0588235 0.0588235 0.0588235 0.0588235 0.0588235 0.0588235 0.0588235 0.0588235 0.0588235;
   (close, orien_7, inclin_3, dist_2) 0.0769231 0.0769231 0.0384615 0.0384615 0.153846 0.0384615 0.153846 0.0384615 0.0384615 0.0384615 0.0769231 0.0384615 0.0384615 0.0384615 0.0384615 0.0384615 0.0384615;
   (far, orien_7, inclin_3, dist_2) 0.0588235 0.0588235 0.0588235 0.0588235 0.0588235 0.0588235 0.0588235 0.0588235 0.0588235 0.0588235 0.0588235 0.0588235 0.0588235 0.0588235 0.0588235 0.0588235 0.0588235;
   (left, orien_6, inclin_3, dist_2) 0.0588235 0.0588235 0.0588235 0.0588235 0.0588235 0.0588235 0.0588235 0.0588235 0.0588235 0.0588235 0.0588235 0.0588235 0.0588235 0.0588235 0.0588235 0.0588235 0.0588235;
   (right, orien_6, inclin_3, dist_2) 0.0588235 0.0588235 0.0588235 0.0588235 0.0588235 0.0588235 0.0588235 0.0588235 0.0588235 0.0588235 0.0588235 0.0588235 0.0588235 0.0588235 0.0588235 0.0588235 0.0588235;
   (close, orien_6, inclin_3, dist_2) 0.0588235 0.0588235 0.0588235 0.0588235 0.0588235 0.0588235 0.0588235 0.0588235 0.0588235 0.0588235 0.0588235 0.0588235 0.0588235 0.0588235 0.0588235 0.0588235 0.0588235;
   (far, orien_6, inclin_3, dist_2) 0.0588235 0.0588235 0.0588235 0.0588235 0.0588235 0.0588235 0.0588235 0.0588235 0.0588235 0.0588235 0.0588235 0.0588235 0.0588235 0.0588235 0.0588235 0.0588235 0.0588235;
   (left, orien_5, inclin_3, dist_2) 0.0588235 0.0588235 0.0588235 0.0588235 0.0588235 0.0588235 0.0588235 0.0588235 0.0588235 0.0588235 0.0588235 0.0588235 0.0588235 0.0588235 0.0588235 0.0588235 0.0588235;
   (right, orien_5, inclin_3, dist_2) 0.0588235 0.0588235 0.0588235 0.0588235 0.0588235 0.0588235 0.0588235 0.0588235 0.0588235 0.0588235 0.0588235 0.0588235 0.0588235 0.0588235 0.0588235 0.0588235 0.0588235;
   (close, orien_5, inclin_3, dist_2) 0.0588235 0.0588235 0.0588235 0.0588235 0.0588235 0.0588235 0.0588235 0.0588235 0.0588235 0.0588235 0.0588235 0.0588235 0.0588235 0.0588235 0.0588235 0.0588235 0.0588235;
   (far, orien_5, inclin_3, dist_2) 0.0588235 0.0588235 0.0588235 0.0588235 0.0588235 0.0588235 0.0588235 0.0588235 0.0588235 0.0588235 0.0588235 0.0588235 0.0588235 0.0588235 0.0588235 0.0588235 0.0588235;
   (left, orien_4, inclin_3, dist_2) 0.0588235 0.0588235 0.0588235 0.0588235 0.0588235 0.0588235 0.0588235 0.0588235 0.0588235 0.0588235 0.0588235 0.0588235 0.0588235 0.0588235 0.0588235 0.0588235 0.0588235;
   (right, orien_4, inclin_3, dist_2) 0.0588235 0.0588235 0.0588235 0.0588235 0.0588235 0.0588235 0.0588235 0.0588235 0.0588235 0.0588235 0.0588235 0.0588235 0.0588235 0.0588235 0.0588235 0.0588235 0.0588235;
   (close, orien_4, inclin_3, dist_2) 0.0588235 0.0588235 0.0588235 0.0588235 0.0588235 0.0588235 0.0588235 0.0588235 0.0588235 0.0588235 0.0588235 0.0588235 0.0588235 0.0588235 0.0588235 0.0588235 0.0588235;
   (far, orien_4, inclin_3, dist_2) 0.0588235 0.0588235 0.0588235 0.0588235 0.0588235 0.0588235 0.0588235 0.0588235 0.0588235 0.0588235 0.0588235 0.0588235 0.0588235 0.0588235 0.0588235 0.0588235 0.0588235;
   (left, orien_3, inclin_3, dist_2) 0.037037 0.0740741 0.037037 0.037037 0.148148 0.037037 0.037037 0.037037 0.037037 0.037037 0.0740741 0.185185 0.037037 0.037037 0.0740741 0.037037 0.037037;
   (right, orien_3, inclin_3, dist_2) 0.0588235 0.0588235 0.0588235 0.0588235 0.0588235 0.0588235 0.0588235 0.0588235 0.0588235 0.0588235 0.0588235 0.0588235 0.0588235 0.0588235 0.0588235 0.0588235 0.0588235;
   (close, orien_3, inclin_3, dist_2) 0.0588235 0.0588235 0.0588235 0.0588235 0.0588235 0.0588235 0.0588235 0.0588235 0.0588235 0.0588235 0.0588235 0.0588235 0.0588235 0.0588235 0.0588235 0.0588235 0.0588235;
   (far, orien_3, inclin_3, dist_2) 0.0588235 0.0588235 0.0588235 0.0588235 0.0588235 0.0588235 0.0588235 0.0588235 0.0588235 0.0588235 0.0588235 0.0588235 0.0588235 0.0588235 0.0588235 0.0588235 0.0588235;
   (left, orien_8, inclin_3, dist_2) 0.0588235 0.0588235 0.0588235 0.0588235 0.0588235 0.0588235 0.0588235 0.0588235 0.0588235 0.0588235 0.0588235 0.0588235 0.0588235 0.0588235 0.0588235 0.0588235 0.0588235;
   (right, orien_8, inclin_3, dist_2) 0.0588235 0.0588235 0.0588235 0.0588235 0.0588235 0.0588235 0.0588235 0.0588235 0.0588235 0.0588235 0.0588235 0.0588235 0.0588235 0.0588235 0.0588235 0.0588235 0.0588235;
   (close, orien_8, inclin_3, dist_2) 0.0588235 0.0588235 0.0588235 0.0588235 0.0588235 0.0588235 0.0588235 0.0588235 0.0588235 0.0588235 0.0588235 0.0588235 0.0588235 0.0588235 0.0588235 0.0588235 0.0588235;
   (far, orien_8, inclin_3, dist_2) 0.0588235 0.0588235 0.0588235 0.0588235 0.0588235 0.0588235 0.0588235 0.0588235 0.0588235 0.0588235 0.0588235 0.0588235 0.0588235 0.0588235 0.0588235 0.0588235 0.0588235;
   (left, orien_9, inclin_3, dist_2) 0.0588235 0.0588235 0.0588235 0.0588235 0.0588235 0.0588235 0.0588235 0.0588235 0.0588235 0.0588235 0.0588235 0.0588235 0.0588235 0.0588235 0.0588235 0.0588235 0.0588235;
   (right, orien_9, inclin_3, dist_2) 0.0588235 0.0588235 0.0588235 0.0588235 0.0588235 0.0588235 0.0588235 0.0588235 0.0588235 0.0588235 0.0588235 0.0588235 0.0588235 0.0588235 0.0588235 0.0588235 0.0588235;
   (close, orien_9, inclin_3, dist_2) 0.0588235 0.0588235 0.0588235 0.0588235 0.0588235 0.0588235 0.0588235 0.0588235 0.0588235 0.0588235 0.0588235 0.0588235 0.0588235 0.0588235 0.0588235 0.0588235 0.0588235;
   (far, orien_9, inclin_3, dist_2) 0.0588235 0.0588235 0.0588235 0.0588235 0.0588235 0.0588235 0.0588235 0.0588235 0.0588235 0.0588235 0.0588235 0.0588235 0.0588235 0.0588235 0.0588235 0.0588235 0.0588235;
   (left, orien_10, inclin_3, dist_2) 0.0588235 0.0588235 0.0588235 0.0588235 0.0588235 0.0588235 0.0588235 0.0588235 0.0588235 0.0588235 0.0588235 0.0588235 0.0588235 0.0588235 0.0588235 0.0588235 0.0588235;
   (right, orien_10, inclin_3, dist_2) 0.0588235 0.0588235 0.0588235 0.0588235 0.0588235 0.0588235 0.0588235 0.0588235 0.0588235 0.0588235 0.0588235 0.0588235 0.0588235 0.0588235 0.0588235 0.0588235 0.0588235;
   (close, orien_10, inclin_3, dist_2) 0.0588235 0.0588235 0.0588235 0.0588235 0.0588235 0.0588235 0.0588235 0.0588235 0.0588235 0.0588235 0.0588235 0.0588235 0.0588235 0.0588235 0.0588235 0.0588235 0.0588235;
   (far, orien_10, inclin_3, dist_2) 0.0588235 0.0588235 0.0588235 0.0588235 0.0588235 0.0588235 0.0588235 0.0588235 0.0588235 0.0588235 0.0588235 0.0588235 0.0588235 0.0588235 0.0588235 0.0588235 0.0588235;
   (left, orien_11, inclin_3, dist_2) 0.0588235 0.0588235 0.0588235 0.0588235 0.0588235 0.0588235 0.0588235 0.0588235 0.0588235 0.0588235 0.0588235 0.0588235 0.0588235 0.0588235 0.0588235 0.0588235 0.0588235;
   (right, orien_11, inclin_3, dist_2) 0.107143 0.0357143 0.0357143 0.0357143 0.142857 0.0357143 0.0714286 0.0357143 0.0357143 0.0357143 0.107143 0.107143 0.0714286 0.0357143 0.0357143 0.0357143 0.0357143;
   (close, orien_11, inclin_3, dist_2) 0.0588235 0.0588235 0.0588235 0.0588235 0.0588235 0.0588235 0.0588235 0.0588235 0.0588235 0.0588235 0.0588235 0.0588235 0.0588235 0.0588235 0.0588235 0.0588235 0.0588235;
   (far, orien_11, inclin_3, dist_2) 0.0588235 0.0588235 0.0588235 0.0588235 0.0588235 0.0588235 0.0588235 0.0588235 0.0588235 0.0588235 0.0588235 0.0588235 0.0588235 0.0588235 0.0588235 0.0588235 0.0588235;
   (left, orien_15, inclin_3, dist_2) 0.0588235 0.0588235 0.0588235 0.0588235 0.0588235 0.0588235 0.0588235 0.0588235 0.0588235 0.0588235 0.0588235 0.0588235 0.0588235 0.0588235 0.0588235 0.0588235 0.0588235;
   (right, orien_15, inclin_3, dist_2) 0.0588235 0.0588235 0.0588235 0.0588235 0.0588235 0.0588235 0.0588235 0.0588235 0.0588235 0.0588235 0.0588235 0.0588235 0.0588235 0.0588235 0.0588235 0.0588235 0.0588235;
   (close, orien_15, inclin_3, dist_2) 0.0588235 0.0588235 0.0588235 0.0588235 0.0588235 0.0588235 0.0588235 0.0588235 0.0588235 0.0588235 0.0588235 0.0588235 0.0588235 0.0588235 0.0588235 0.0588235 0.0588235;
   (far, orien_15, inclin_3, dist_2) 0.0294118 0.0294118 0.0294118 0.0294118 0.0882353 0.0294118 0.0588235 0.117647 0.235294 0.0294118 0.0294118 0.0294118 0.117647 0.0294118 0.0588235 0.0294118 0.0294118;
   (left, orien_12, inclin_3, dist_2) 0.0588235 0.0588235 0.0588235 0.0588235 0.0588235 0.0588235 0.0588235 0.0588235 0.0588235 0.0588235 0.0588235 0.0588235 0.0588235 0.0588235 0.0588235 0.0588235 0.0588235;
   (right, orien_12, inclin_3, dist_2) 0.0588235 0.0588235 0.0588235 0.0588235 0.0588235 0.0588235 0.0588235 0.0588235 0.0588235 0.0588235 0.0588235 0.0588235 0.0588235 0.0588235 0.0588235 0.0588235 0.0588235;
   (close, orien_12, inclin_3, dist_2) 0.0588235 0.0588235 0.0588235 0.0588235 0.0588235 0.0588235 0.0588235 0.0588235 0.0588235 0.0588235 0.0588235 0.0588235 0.0588235 0.0588235 0.0588235 0.0588235 0.0588235;
   (far, orien_12, inclin_3, dist_2) 0.0588235 0.0588235 0.0588235 0.0588235 0.0588235 0.0588235 0.0588235 0.0588235 0.0588235 0.0588235 0.0588235 0.0588235 0.0588235 0.0588235 0.0588235 0.0588235 0.0588235;
   (left, orien_14, inclin_3, dist_2) 0.0588235 0.0588235 0.0588235 0.0588235 0.0588235 0.0588235 0.0588235 0.0588235 0.0588235 0.0588235 0.0588235 0.0588235 0.0588235 0.0588235 0.0588235 0.0588235 0.0588235;
   (right, orien_14, inclin_3, dist_2) 0.0588235 0.0588235 0.0588235 0.0588235 0.0588235 0.0588235 0.0588235 0.0588235 0.0588235 0.0588235 0.0588235 0.0588235 0.0588235 0.0588235 0.0588235 0.0588235 0.0588235;
   (close, orien_14, inclin_3, dist_2) 0.0588235 0.0588235 0.0588235 0.0588235 0.0588235 0.0588235 0.0588235 0.0588235 0.0588235 0.0588235 0.0588235 0.0588235 0.0588235 0.0588235 0.0588235 0.0588235 0.0588235;
   (far, orien_14, inclin_3, dist_2) 0.0588235 0.0588235 0.0588235 0.0588235 0.0588235 0.0588235 0.0588235 0.0588235 0.0588235 0.0588235 0.0588235 0.0588235 0.0588235 0.0588235 0.0588235 0.0588235 0.0588235;
   (left, orien_13, inclin_3, dist_2) 0.0588235 0.0588235 0.0588235 0.0588235 0.0588235 0.0588235 0.0588235 0.0588235 0.0588235 0.0588235 0.0588235 0.0588235 0.0588235 0.0588235 0.0588235 0.0588235 0.0588235;
   (right, orien_13, inclin_3, dist_2) 0.0588235 0.0588235 0.0588235 0.0588235 0.0588235 0.0588235 0.0588235 0.0588235 0.0588235 0.0588235 0.0588235 0.0588235 0.0588235 0.0588235 0.0588235 0.0588235 0.0588235;
   (close, orien_13, inclin_3, dist_2) 0.0588235 0.0588235 0.0588235 0.0588235 0.0588235 0.0588235 0.0588235 0.0588235 0.0588235 0.0588235 0.0588235 0.0588235 0.0588235 0.0588235 0.0588235 0.0588235 0.0588235;
   (far, orien_13, inclin_3, dist_2) 0.0588235 0.0588235 0.0588235 0.0588235 0.0588235 0.0588235 0.0588235 0.0588235 0.0588235 0.0588235 0.0588235 0.0588235 0.0588235 0.0588235 0.0588235 0.0588235 0.0588235;
   (left, orien_1, inclin_3, dist_2) 0.0588235 0.0588235 0.0588235 0.0588235 0.0588235 0.0588235 0.0588235 0.0588235 0.0588235 0.0588235 0.0588235 0.0588235 0.0588235 0.0588235 0.0588235 0.0588235 0.0588235;
   (right, orien_1, inclin_3, dist_2) 0.0588235 0.0588235 0.0588235 0.0588235 0.0588235 0.0588235 0.0588235 0.0588235 0.0588235 0.0588235 0.0588235 0.0588235 0.0588235 0.0588235 0.0588235 0.0588235 0.0588235;
   (close, orien_1, inclin_3, dist_2) 0.0588235 0.0588235 0.0588235 0.0588235 0.0588235 0.0588235 0.0588235 0.0588235 0.0588235 0.0588235 0.0588235 0.0588235 0.0588235 0.0588235 0.0588235 0.0588235 0.0588235;
   (far, orien_1, inclin_3, dist_2) 0.0588235 0.0588235 0.0588235 0.0588235 0.0588235 0.0588235 0.0588235 0.0588235 0.0588235 0.0588235 0.0588235 0.0588235 0.0588235 0.0588235 0.0588235 0.0588235 0.0588235;
   (left, orien_2, inclin_3, dist_2) 0.0588235 0.0588235 0.0588235 0.0588235 0.0588235 0.0588235 0.0588235 0.0588235 0.0588235 0.0588235 0.0588235 0.0588235 0.0588235 0.0588235 0.0588235 0.0588235 0.0588235;
   (right, orien_2, inclin_3, dist_2) 0.0588235 0.0588235 0.0588235 0.0588235 0.0588235 0.0588235 0.0588235 0.0588235 0.0588235 0.0588235 0.0588235 0.0588235 0.0588235 0.0588235 0.0588235 0.0588235 0.0588235;
   (close, orien_2, inclin_3, dist_2) 0.0588235 0.0588235 0.0588235 0.0588235 0.0588235 0.0588235 0.0588235 0.0588235 0.0588235 0.0588235 0.0588235 0.0588235 0.0588235 0.0588235 0.0588235 0.0588235 0.0588235;
   (far, orien_2, inclin_3, dist_2) 0.0588235 0.0588235 0.0588235 0.0588235 0.0588235 0.0588235 0.0588235 0.0588235 0.0588235 0.0588235 0.0588235 0.0588235 0.0588235 0.0588235 0.0588235 0.0588235 0.0588235;
   (left, orien_0, inclin_3, dist_2) 0.0588235 0.0588235 0.0588235 0.0588235 0.0588235 0.0588235 0.0588235 0.0588235 0.0588235 0.0588235 0.0588235 0.0588235 0.0588235 0.0588235 0.0588235 0.0588235 0.0588235;
   (right, orien_0, inclin_3, dist_2) 0.0588235 0.0588235 0.0588235 0.0588235 0.0588235 0.0588235 0.0588235 0.0588235 0.0588235 0.0588235 0.0588235 0.0588235 0.0588235 0.0588235 0.0588235 0.0588235 0.0588235;
   (close, orien_0, inclin_3, dist_2) 0.0588235 0.0588235 0.0588235 0.0588235 0.0588235 0.0588235 0.0588235 0.0588235 0.0588235 0.0588235 0.0588235 0.0588235 0.0588235 0.0588235 0.0588235 0.0588235 0.0588235;
   (far, orien_0, inclin_3, dist_2) 0.0588235 0.0588235 0.0588235 0.0588235 0.0588235 0.0588235 0.0588235 0.0588235 0.0588235 0.0588235 0.0588235 0.0588235 0.0588235 0.0588235 0.0588235 0.0588235 0.0588235;
   (left, orien_7, inclin_4, dist_2) 0.0588235 0.0588235 0.0588235 0.0588235 0.0588235 0.0588235 0.0588235 0.0588235 0.0588235 0.0588235 0.0588235 0.0588235 0.0588235 0.0588235 0.0588235 0.0588235 0.0588235;
   (right, orien_7, inclin_4, dist_2) 0.0588235 0.0588235 0.0588235 0.0588235 0.0588235 0.0588235 0.0588235 0.0588235 0.0588235 0.0588235 0.0588235 0.0588235 0.0588235 0.0588235 0.0588235 0.0588235 0.0588235;
   (close, orien_7, inclin_4, dist_2) 0.0357143 0.0357143 0.0357143 0.0357143 0.0357143 0.428571 0.0357143 0.0357143 0.0357143 0.0357143 0.0357143 0.0357143 0.0357143 0.0357143 0.0357143 0.0357143 0.0357143;
   (far, orien_7, inclin_4, dist_2) 0.0588235 0.0588235 0.0588235 0.0588235 0.0588235 0.0588235 0.0588235 0.0588235 0.0588235 0.0588235 0.0588235 0.0588235 0.0588235 0.0588235 0.0588235 0.0588235 0.0588235;
   (left, orien_6, inclin_4, dist_2) 0.0588235 0.0588235 0.0588235 0.0588235 0.0588235 0.0588235 0.0588235 0.0588235 0.0588235 0.0588235 0.0588235 0.0588235 0.0588235 0.0588235 0.0588235 0.0588235 0.0588235;
   (right, orien_6, inclin_4, dist_2) 0.0588235 0.0588235 0.0588235 0.0588235 0.0588235 0.0588235 0.0588235 0.0588235 0.0588235 0.0588235 0.0588235 0.0588235 0.0588235 0.0588235 0.0588235 0.0588235 0.0588235;
   (close, orien_6, inclin_4, dist_2) 0.0588235 0.0588235 0.0588235 0.0588235 0.0588235 0.0588235 0.0588235 0.0588235 0.0588235 0.0588235 0.0588235 0.0588235 0.0588235 0.0588235 0.0588235 0.0588235 0.0588235;
   (far, orien_6, inclin_4, dist_2) 0.0588235 0.0588235 0.0588235 0.0588235 0.0588235 0.0588235 0.0588235 0.0588235 0.0588235 0.0588235 0.0588235 0.0588235 0.0588235 0.0588235 0.0588235 0.0588235 0.0588235;
   (left, orien_5, inclin_4, dist_2) 0.0588235 0.0588235 0.0588235 0.0588235 0.0588235 0.0588235 0.0588235 0.0588235 0.0588235 0.0588235 0.0588235 0.0588235 0.0588235 0.0588235 0.0588235 0.0588235 0.0588235;
   (right, orien_5, inclin_4, dist_2) 0.0588235 0.0588235 0.0588235 0.0588235 0.0588235 0.0588235 0.0588235 0.0588235 0.0588235 0.0588235 0.0588235 0.0588235 0.0588235 0.0588235 0.0588235 0.0588235 0.0588235;
   (close, orien_5, inclin_4, dist_2) 0.0588235 0.0588235 0.0588235 0.0588235 0.0588235 0.0588235 0.0588235 0.0588235 0.0588235 0.0588235 0.0588235 0.0588235 0.0588235 0.0588235 0.0588235 0.0588235 0.0588235;
   (far, orien_5, inclin_4, dist_2) 0.0588235 0.0588235 0.0588235 0.0588235 0.0588235 0.0588235 0.0588235 0.0588235 0.0588235 0.0588235 0.0588235 0.0588235 0.0588235 0.0588235 0.0588235 0.0588235 0.0588235;
   (left, orien_4, inclin_4, dist_2) 0.0588235 0.0588235 0.0588235 0.0588235 0.0588235 0.0588235 0.0588235 0.0588235 0.0588235 0.0588235 0.0588235 0.0588235 0.0588235 0.0588235 0.0588235 0.0588235 0.0588235;
   (right, orien_4, inclin_4, dist_2) 0.0588235 0.0588235 0.0588235 0.0588235 0.0588235 0.0588235 0.0588235 0.0588235 0.0588235 0.0588235 0.0588235 0.0588235 0.0588235 0.0588235 0.0588235 0.0588235 0.0588235;
   (close, orien_4, inclin_4, dist_2) 0.0588235 0.0588235 0.0588235 0.0588235 0.0588235 0.0588235 0.0588235 0.0588235 0.0588235 0.0588235 0.0588235 0.0588235 0.0588235 0.0588235 0.0588235 0.0588235 0.0588235;
   (far, orien_4, inclin_4, dist_2) 0.0588235 0.0588235 0.0588235 0.0588235 0.0588235 0.0588235 0.0588235 0.0588235 0.0588235 0.0588235 0.0588235 0.0588235 0.0588235 0.0588235 0.0588235 0.0588235 0.0588235;
   (left, orien_3, inclin_4, dist_2) 0.037037 0.037037 0.407407 0.037037 0.037037 0.037037 0.037037 0.037037 0.037037 0.037037 0.037037 0.037037 0.037037 0.037037 0.037037 0.037037 0.037037;
   (right, orien_3, inclin_4, dist_2) 0.0588235 0.0588235 0.0588235 0.0588235 0.0588235 0.0588235 0.0588235 0.0588235 0.0588235 0.0588235 0.0588235 0.0588235 0.0588235 0.0588235 0.0588235 0.0588235 0.0588235;
   (close, orien_3, inclin_4, dist_2) 0.0588235 0.0588235 0.0588235 0.0588235 0.0588235 0.0588235 0.0588235 0.0588235 0.0588235 0.0588235 0.0588235 0.0588235 0.0588235 0.0588235 0.0588235 0.0588235 0.0588235;
   (far, orien_3, inclin_4, dist_2) 0.0588235 0.0588235 0.0588235 0.0588235 0.0588235 0.0588235 0.0588235 0.0588235 0.0588235 0.0588235 0.0588235 0.0588235 0.0588235 0.0588235 0.0588235 0.0588235 0.0588235;
   (left, orien_8, inclin_4, dist_2) 0.0588235 0.0588235 0.0588235 0.0588235 0.0588235 0.0588235 0.0588235 0.0588235 0.0588235 0.0588235 0.0588235 0.0588235 0.0588235 0.0588235 0.0588235 0.0588235 0.0588235;
   (right, orien_8, inclin_4, dist_2) 0.0588235 0.0588235 0.0588235 0.0588235 0.0588235 0.0588235 0.0588235 0.0588235 0.0588235 0.0588235 0.0588235 0.0588235 0.0588235 0.0588235 0.0588235 0.0588235 0.0588235;
   (close, orien_8, inclin_4, dist_2) 0.0588235 0.0588235 0.0588235 0.0588235 0.0588235 0.0588235 0.0588235 0.0588235 0.0588235 0.0588235 0.0588235 0.0588235 0.0588235 0.0588235 0.0588235 0.0588235 0.0588235;
   (far, orien_8, inclin_4, dist_2) 0.0588235 0.0588235 0.0588235 0.0588235 0.0588235 0.0588235 0.0588235 0.0588235 0.0588235 0.0588235 0.0588235 0.0588235 0.0588235 0.0588235 0.0588235 0.0588235 0.0588235;
   (left, orien_9, inclin_4, dist_2) 0.0588235 0.0588235 0.0588235 0.0588235 0.0588235 0.0588235 0.0588235 0.0588235 0.0588235 0.0588235 0.0588235 0.0588235 0.0588235 0.0588235 0.0588235 0.0588235 0.0588235;
   (right, orien_9, inclin_4, dist_2) 0.0588235 0.0588235 0.0588235 0.0588235 0.0588235 0.0588235 0.0588235 0.0588235 0.0588235 0.0588235 0.0588235 0.0588235 0.0588235 0.0588235 0.0588235 0.0588235 0.0588235;
   (close, orien_9, inclin_4, dist_2) 0.0588235 0.0588235 0.0588235 0.0588235 0.0588235 0.0588235 0.0588235 0.0588235 0.0588235 0.0588235 0.0588235 0.0588235 0.0588235 0.0588235 0.0588235 0.0588235 0.0588235;
   (far, orien_9, inclin_4, dist_2) 0.0588235 0.0588235 0.0588235 0.0588235 0.0588235 0.0588235 0.0588235 0.0588235 0.0588235 0.0588235 0.0588235 0.0588235 0.0588235 0.0588235 0.0588235 0.0588235 0.0588235;
   (left, orien_10, inclin_4, dist_2) 0.0588235 0.0588235 0.0588235 0.0588235 0.0588235 0.0588235 0.0588235 0.0588235 0.0588235 0.0588235 0.0588235 0.0588235 0.0588235 0.0588235 0.0588235 0.0588235 0.0588235;
   (right, orien_10, inclin_4, dist_2) 0.0588235 0.0588235 0.0588235 0.0588235 0.0588235 0.0588235 0.0588235 0.0588235 0.0588235 0.0588235 0.0588235 0.0588235 0.0588235 0.0588235 0.0588235 0.0588235 0.0588235;
   (close, orien_10, inclin_4, dist_2) 0.0588235 0.0588235 0.0588235 0.0588235 0.0588235 0.0588235 0.0588235 0.0588235 0.0588235 0.0588235 0.0588235 0.0588235 0.0588235 0.0588235 0.0588235 0.0588235 0.0588235;
   (far, orien_10, inclin_4, dist_2) 0.0588235 0.0588235 0.0588235 0.0588235 0.0588235 0.0588235 0.0588235 0.0588235 0.0588235 0.0588235 0.0588235 0.0588235 0.0588235 0.0588235 0.0588235 0.0588235 0.0588235;
   (left, orien_11, inclin_4, dist_2) 0.0588235 0.0588235 0.0588235 0.0588235 0.0588235 0.0588235 0.0588235 0.0588235 0.0588235 0.0588235 0.0588235 0.0588235 0.0588235 0.0588235 0.0588235 0.0588235 0.0588235;
   (right, orien_11, inclin_4, dist_2) 0.0357143 0.0357143 0.0357143 0.428571 0.0357143 0.0357143 0.0357143 0.0357143 0.0357143 0.0357143 0.0357143 0.0357143 0.0357143 0.0357143 0.0357143 0.0357143 0.0357143;
   (close, orien_11, inclin_4, dist_2) 0.0588235 0.0588235 0.0588235 0.0588235 0.0588235 0.0588235 0.0588235 0.0588235 0.0588235 0.0588235 0.0588235 0.0588235 0.0588235 0.0588235 0.0588235 0.0588235 0.0588235;
   (far, orien_11, inclin_4, dist_2) 0.0588235 0.0588235 0.0588235 0.0588235 0.0588235 0.0588235 0.0588235 0.0588235 0.0588235 0.0588235 0.0588235 0.0588235 0.0588235 0.0588235 0.0588235 0.0588235 0.0588235;
   (left, orien_15, inclin_4, dist_2) 0.0588235 0.0588235 0.0588235 0.0588235 0.0588235 0.0588235 0.0588235 0.0588235 0.0588235 0.0588235 0.0588235 0.0588235 0.0588235 0.0588235 0.0588235 0.0588235 0.0588235;
   (right, orien_15, inclin_4, dist_2) 0.0588235 0.0588235 0.0588235 0.0588235 0.0588235 0.0588235 0.0588235 0.0588235 0.0588235 0.0588235 0.0588235 0.0588235 0.0588235 0.0588235 0.0588235 0.0588235 0.0588235;
   (close, orien_15, inclin_4, dist_2) 0.0588235 0.0588235 0.0588235 0.0588235 0.0588235 0.0588235 0.0588235 0.0588235 0.0588235 0.0588235 0.0588235 0.0588235 0.0588235 0.0588235 0.0588235 0.0588235 0.0588235;
   (far, orien_15, inclin_4, dist_2) 0.0526316 0.0526316 0.0526316 0.0526316 0.0526316 0.0526316 0.0526316 0.0526316 0.157895 0.0526316 0.0526316 0.0526316 0.0526316 0.0526316 0.0526316 0.0526316 0.0526316;
   (left, orien_12, inclin_4, dist_2) 0.0588235 0.0588235 0.0588235 0.0588235 0.0588235 0.0588235 0.0588235 0.0588235 0.0588235 0.0588235 0.0588235 0.0588235 0.0588235 0.0588235 0.0588235 0.0588235 0.0588235;
   (right, orien_12, inclin_4, dist_2) 0.0588235 0.0588235 0.0588235 0.0588235 0.0588235 0.0588235 0.0588235 0.0588235 0.0588235 0.0588235 0.0588235 0.0588235 0.0588235 0.0588235 0.0588235 0.0588235 0.0588235;
   (close, orien_12, inclin_4, dist_2) 0.0588235 0.0588235 0.0588235 0.0588235 0.0588235 0.0588235 0.0588235 0.0588235 0.0588235 0.0588235 0.0588235 0.0588235 0.0588235 0.0588235 0.0588235 0.0588235 0.0588235;
   (far, orien_12, inclin_4, dist_2) 0.0588235 0.0588235 0.0588235 0.0588235 0.0588235 0.0588235 0.0588235 0.0588235 0.0588235 0.0588235 0.0588235 0.0588235 0.0588235 0.0588235 0.0588235 0.0588235 0.0588235;
   (left, orien_14, inclin_4, dist_2) 0.0588235 0.0588235 0.0588235 0.0588235 0.0588235 0.0588235 0.0588235 0.0588235 0.0588235 0.0588235 0.0588235 0.0588235 0.0588235 0.0588235 0.0588235 0.0588235 0.0588235;
   (right, orien_14, inclin_4, dist_2) 0.0588235 0.0588235 0.0588235 0.0588235 0.0588235 0.0588235 0.0588235 0.0588235 0.0588235 0.0588235 0.0588235 0.0588235 0.0588235 0.0588235 0.0588235 0.0588235 0.0588235;
   (close, orien_14, inclin_4, dist_2) 0.0588235 0.0588235 0.0588235 0.0588235 0.0588235 0.0588235 0.0588235 0.0588235 0.0588235 0.0588235 0.0588235 0.0588235 0.0588235 0.0588235 0.0588235 0.0588235 0.0588235;
   (far, orien_14, inclin_4, dist_2) 0.0588235 0.0588235 0.0588235 0.0588235 0.0588235 0.0588235 0.0588235 0.0588235 0.0588235 0.0588235 0.0588235 0.0588235 0.0588235 0.0588235 0.0588235 0.0588235 0.0588235;
   (left, orien_13, inclin_4, dist_2) 0.0588235 0.0588235 0.0588235 0.0588235 0.0588235 0.0588235 0.0588235 0.0588235 0.0588235 0.0588235 0.0588235 0.0588235 0.0588235 0.0588235 0.0588235 0.0588235 0.0588235;
   (right, orien_13, inclin_4, dist_2) 0.0588235 0.0588235 0.0588235 0.0588235 0.0588235 0.0588235 0.0588235 0.0588235 0.0588235 0.0588235 0.0588235 0.0588235 0.0588235 0.0588235 0.0588235 0.0588235 0.0588235;
   (close, orien_13, inclin_4, dist_2) 0.0588235 0.0588235 0.0588235 0.0588235 0.0588235 0.0588235 0.0588235 0.0588235 0.0588235 0.0588235 0.0588235 0.0588235 0.0588235 0.0588235 0.0588235 0.0588235 0.0588235;
   (far, orien_13, inclin_4, dist_2) 0.0588235 0.0588235 0.0588235 0.0588235 0.0588235 0.0588235 0.0588235 0.0588235 0.0588235 0.0588235 0.0588235 0.0588235 0.0588235 0.0588235 0.0588235 0.0588235 0.0588235;
   (left, orien_1, inclin_4, dist_2) 0.0588235 0.0588235 0.0588235 0.0588235 0.0588235 0.0588235 0.0588235 0.0588235 0.0588235 0.0588235 0.0588235 0.0588235 0.0588235 0.0588235 0.0588235 0.0588235 0.0588235;
   (right, orien_1, inclin_4, dist_2) 0.0588235 0.0588235 0.0588235 0.0588235 0.0588235 0.0588235 0.0588235 0.0588235 0.0588235 0.0588235 0.0588235 0.0588235 0.0588235 0.0588235 0.0588235 0.0588235 0.0588235;
   (close, orien_1, inclin_4, dist_2) 0.0588235 0.0588235 0.0588235 0.0588235 0.0588235 0.0588235 0.0588235 0.0588235 0.0588235 0.0588235 0.0588235 0.0588235 0.0588235 0.0588235 0.0588235 0.0588235 0.0588235;
   (far, orien_1, inclin_4, dist_2) 0.0588235 0.0588235 0.0588235 0.0588235 0.0588235 0.0588235 0.0588235 0.0588235 0.0588235 0.0588235 0.0588235 0.0588235 0.0588235 0.0588235 0.0588235 0.0588235 0.0588235;
   (left, orien_2, inclin_4, dist_2) 0.0588235 0.0588235 0.0588235 0.0588235 0.0588235 0.0588235 0.0588235 0.0588235 0.0588235 0.0588235 0.0588235 0.0588235 0.0588235 0.0588235 0.0588235 0.0588235 0.0588235;
   (right, orien_2, inclin_4, dist_2) 0.0588235 0.0588235 0.0588235 0.0588235 0.0588235 0.0588235 0.0588235 0.0588235 0.0588235 0.0588235 0.0588235 0.0588235 0.0588235 0.0588235 0.0588235 0.0588235 0.0588235;
   (close, orien_2, inclin_4, dist_2) 0.0588235 0.0588235 0.0588235 0.0588235 0.0588235 0.0588235 0.0588235 0.0588235 0.0588235 0.0588235 0.0588235 0.0588235 0.0588235 0.0588235 0.0588235 0.0588235 0.0588235;
   (far, orien_2, inclin_4, dist_2) 0.0588235 0.0588235 0.0588235 0.0588235 0.0588235 0.0588235 0.0588235 0.0588235 0.0588235 0.0588235 0.0588235 0.0588235 0.0588235 0.0588235 0.0588235 0.0588235 0.0588235;
   (left, orien_0, inclin_4, dist_2) 0.0588235 0.0588235 0.0588235 0.0588235 0.0588235 0.0588235 0.0588235 0.0588235 0.0588235 0.0588235 0.0588235 0.0588235 0.0588235 0.0588235 0.0588235 0.0588235 0.0588235;
   (right, orien_0, inclin_4, dist_2) 0.0588235 0.0588235 0.0588235 0.0588235 0.0588235 0.0588235 0.0588235 0.0588235 0.0588235 0.0588235 0.0588235 0.0588235 0.0588235 0.0588235 0.0588235 0.0588235 0.0588235;
   (close, orien_0, inclin_4, dist_2) 0.0588235 0.0588235 0.0588235 0.0588235 0.0588235 0.0588235 0.0588235 0.0588235 0.0588235 0.0588235 0.0588235 0.0588235 0.0588235 0.0588235 0.0588235 0.0588235 0.0588235;
   (far, orien_0, inclin_4, dist_2) 0.0588235 0.0588235 0.0588235 0.0588235 0.0588235 0.0588235 0.0588235 0.0588235 0.0588235 0.0588235 0.0588235 0.0588235 0.0588235 0.0588235 0.0588235 0.0588235 0.0588235;
   (left, orien_7, inclin_0, dist_2) 0.0588235 0.0588235 0.0588235 0.0588235 0.0588235 0.0588235 0.0588235 0.0588235 0.0588235 0.0588235 0.0588235 0.0588235 0.0588235 0.0588235 0.0588235 0.0588235 0.0588235;
   (right, orien_7, inclin_0, dist_2) 0.0588235 0.0588235 0.0588235 0.0588235 0.0588235 0.0588235 0.0588235 0.0588235 0.0588235 0.0588235 0.0588235 0.0588235 0.0588235 0.0588235 0.0588235 0.0588235 0.0588235;
   (close, orien_7, inclin_0, dist_2) 0.047619 0.047619 0.047619 0.047619 0.047619 0.047619 0.047619 0.238095 0.047619 0.047619 0.047619 0.047619 0.047619 0.047619 0.047619 0.047619 0.047619;
   (far, orien_7, inclin_0, dist_2) 0.0526316 0.0526316 0.0526316 0.0526316 0.0526316 0.157895 0.0526316 0.0526316 0.0526316 0.0526316 0.0526316 0.0526316 0.0526316 0.0526316 0.0526316 0.0526316 0.0526316;
   (left, orien_6, inclin_0, dist_2) 0.0588235 0.0588235 0.0588235 0.0588235 0.0588235 0.0588235 0.0588235 0.0588235 0.0588235 0.0588235 0.0588235 0.0588235 0.0588235 0.0588235 0.0588235 0.0588235 0.0588235;
   (right, orien_6, inclin_0, dist_2) 0.0588235 0.0588235 0.0588235 0.0588235 0.0588235 0.0588235 0.0588235 0.0588235 0.0588235 0.0588235 0.0588235 0.0588235 0.0588235 0.0588235 0.0588235 0.0588235 0.0588235;
   (close, orien_6, inclin_0, dist_2) 0.0555556 0.0555556 0.0555556 0.0555556 0.0555556 0.0555556 0.0555556 0.111111 0.0555556 0.0555556 0.0555556 0.0555556 0.0555556 0.0555556 0.0555556 0.0555556 0.0555556;
   (far, orien_6, inclin_0, dist_2) 0.0588235 0.0588235 0.0588235 0.0588235 0.0588235 0.0588235 0.0588235 0.0588235 0.0588235 0.0588235 0.0588235 0.0588235 0.0588235 0.0588235 0.0588235 0.0588235 0.0588235;
   (left, orien_5, inclin_0, dist_2) 0.0555556 0.0555556 0.0555556 0.0555556 0.0555556 0.0555556 0.0555556 0.0555556 0.0555556 0.0555556 0.111111 0.0555556 0.0555556 0.0555556 0.0555556 0.0555556 0.0555556;
   (right, orien_5, inclin_0, dist_2) 0.0588235 0.0588235 0.0588235 0.0588235 0.0588235 0.0588235 0.0588235 0.0588235 0.0588235 0.0588235 0.0588235 0.0588235 0.0588235 0.0588235 0.0588235 0.0588235 0.0588235;
   (close, orien_5, inclin_0, dist_2) 0.0588235 0.0588235 0.0588235 0.0588235 0.0588235 0.0588235 0.0588235 0.0588235 0.0588235 0.0588235 0.0588235 0.0588235 0.0588235 0.0588235 0.0588235 0.0588235 0.0588235;
   (far, orien_5, inclin_0, dist_2) 0.0588235 0.0588235 0.0588235 0.0588235 0.0588235 0.0588235 0.0588235 0.0588235 0.0588235 0.0588235 0.0588235 0.0588235 0.0588235 0.0588235 0.0588235 0.0588235 0.0588235;
   (left, orien_4, inclin_0, dist_2) 0.0588235 0.0588235 0.0588235 0.0588235 0.0588235 0.0588235 0.0588235 0.0588235 0.0588235 0.0588235 0.0588235 0.0588235 0.0588235 0.0588235 0.0588235 0.0588235 0.0588235;
   (right, orien_4, inclin_0, dist_2) 0.0588235 0.0588235 0.0588235 0.0588235 0.0588235 0.0588235 0.0588235 0.0588235 0.0588235 0.0588235 0.0588235 0.0588235 0.0588235 0.0588235 0.0588235 0.0588235 0.0588235;
   (close, orien_4, inclin_0, dist_2) 0.0588235 0.0588235 0.0588235 0.0588235 0.0588235 0.0588235 0.0588235 0.0588235 0.0588235 0.0588235 0.0588235 0.0588235 0.0588235 0.0588235 0.0588235 0.0588235 0.0588235;
   (far, orien_4, inclin_0, dist_2) 0.0526316 0.0526316 0.0526316 0.0526316 0.0526316 0.0526316 0.0526316 0.0526316 0.0526316 0.0526316 0.0526316 0.0526316 0.0526316 0.0526316 0.0526316 0.0526316 0.157895;
   (left, orien_3, inclin_0, dist_2) 0.05 0.05 0.05 0.05 0.05 0.05 0.05 0.05 0.05 0.05 0.2 0.05 0.05 0.05 0.05 0.05 0.05;
   (right, orien_3, inclin_0, dist_2) 0.0526316 0.0526316 0.157895 0.0526316 0.0526316 0.0526316 0.0526316 0.0526316 0.0526316 0.0526316 0.0526316 0.0526316 0.0526316 0.0526316 0.0526316 0.0526316 0.0526316;
   (close, orien_3, inclin_0, dist_2) 0.0555556 0.0555556 0.0555556 0.0555556 0.0555556 0.0555556 0.0555556 0.0555556 0.0555556 0.0555556 0.0555556 0.0555556 0.0555556 0.0555556 0.0555556 0.111111 0.0555556;
   (far, orien_3, inclin_0, dist_2) 0.0588235 0.0588235 0.0588235 0.0588235 0.0588235 0.0588235 0.0588235 0.0588235 0.0588235 0.0588235 0.0588235 0.0588235 0.0588235 0.0588235 0.0588235 0.0588235 0.0588235;
   (left, orien_8, inclin_0, dist_2) 0.0555556 0.0555556 0.0555556 0.0555556 0.0555556 0.0555556 0.0555556 0.0555556 0.0555556 0.111111 0.0555556 0.0555556 0.0555556 0.0555556 0.0555556 0.0555556 0.0555556;
   (right, orien_8, inclin_0, dist_2) 0.0588235 0.0588235 0.0588235 0.0588235 0.0588235 0.0588235 0.0588235 0.0588235 0.0588235 0.0588235 0.0588235 0.0588235 0.0588235 0.0588235 0.0588235 0.0588235 0.0588235;
   (close, orien_8, inclin_0, dist_2) 0.0588235 0.0588235 0.0588235 0.0588235 0.0588235 0.0588235 0.0588235 0.0588235 0.0588235 0.0588235 0.0588235 0.0588235 0.0588235 0.0588235 0.0588235 0.0588235 0.0588235;
   (far, orien_8, inclin_0, dist_2) 0.0588235 0.0588235 0.0588235 0.0588235 0.0588235 0.0588235 0.0588235 0.0588235 0.0588235 0.0588235 0.0588235 0.0588235 0.0588235 0.0588235 0.0588235 0.0588235 0.0588235;
   (left, orien_9, inclin_0, dist_2) 0.0555556 0.0555556 0.0555556 0.0555556 0.0555556 0.0555556 0.0555556 0.0555556 0.0555556 0.111111 0.0555556 0.0555556 0.0555556 0.0555556 0.0555556 0.0555556 0.0555556;
   (right, orien_9, inclin_0, dist_2) 0.0588235 0.0588235 0.0588235 0.0588235 0.0588235 0.0588235 0.0588235 0.0588235 0.0588235 0.0588235 0.0588235 0.0588235 0.0588235 0.0588235 0.0588235 0.0588235 0.0588235;
   (close, orien_9, inclin_0, dist_2) 0.0555556 0.0555556 0.0555556 0.0555556 0.0555556 0.0555556 0.0555556 0.111111 0.0555556 0.0555556 0.0555556 0.0555556 0.0555556 0.0555556 0.0555556 0.0555556 0.0555556;
   (far, orien_9, inclin_0, dist_2) 0.0588235 0.0588235 0.0588235 0.0588235 0.0588235 0.0588235 0.0588235 0.0588235 0.0588235 0.0588235 0.0588235 0.0588235 0.0588235 0.0588235 0.0588235 0.0588235 0.0588235;
   (left, orien_10, inclin_0, dist_2) 0.0588235 0.0588235 0.0588235 0.0588235 0.0588235 0.0588235 0.0588235 0.0588235 0.0588235 0.0588235 0.0588235 0.0588235 0.0588235 0.0588235 0.0588235 0.0588235 0.0588235;
   (right, orien_10, inclin_0, dist_2) 0.0588235 0.0588235 0.0588235 0.0588235 0.0588235 0.0588235 0.0588235 0.0588235 0.0588235 0.0588235 0.0588235 0.0588235 0.0588235 0.0588235 0.0588235 0.0588235 0.0588235;
   (close, orien_10, inclin_0, dist_2) 0.0588235 0.0588235 0.0588235 0.0588235 0.0588235 0.0588235 0.0588235 0.0588235 0.0588235 0.0588235 0.0588235 0.0588235 0.0588235 0.0588235 0.0588235 0.0588235 0.0588235;
   (far, orien_10, inclin_0, dist_2) 0.0588235 0.0588235 0.0588235 0.0588235 0.0588235 0.0588235 0.0588235 0.0588235 0.0588235 0.0588235 0.0588235 0.0588235 0.0588235 0.0588235 0.0588235 0.0588235 0.0588235;
   (left, orien_11, inclin_0, dist_2) 0.0526316 0.0526316 0.0526316 0.157895 0.0526316 0.0526316 0.0526316 0.0526316 0.0526316 0.0526316 0.0526316 0.0526316 0.0526316 0.0526316 0.0526316 0.0526316 0.0526316;
   (right, orien_11, inclin_0, dist_2) 0.0526316 0.0526316 0.0526316 0.0526316 0.0526316 0.0526316 0.0526316 0.0526316 0.0526316 0.0526316 0.0526316 0.157895 0.0526316 0.0526316 0.0526316 0.0526316 0.0526316;
   (close, orien_11, inclin_0, dist_2) 0.0588235 0.0588235 0.0588235 0.0588235 0.0588235 0.0588235 0.0588235 0.0588235 0.0588235 0.0588235 0.0588235 0.0588235 0.0588235 0.0588235 0.0588235 0.0588235 0.0588235;
   (far, orien_11, inclin_0, dist_2) 0.0588235 0.0588235 0.0588235 0.0588235 0.0588235 0.0588235 0.0588235 0.0588235 0.0588235 0.0588235 0.0588235 0.0588235 0.0588235 0.0588235 0.0588235 0.0588235 0.0588235;
   (left, orien_15, inclin_0, dist_2) 0.0588235 0.0588235 0.0588235 0.0588235 0.0588235 0.0588235 0.0588235 0.0588235 0.0588235 0.0588235 0.0588235 0.0588235 0.0588235 0.0588235 0.0588235 0.0588235 0.0588235;
   (right, orien_15, inclin_0, dist_2) 0.0588235 0.0588235 0.0588235 0.0588235 0.0588235 0.0588235 0.0588235 0.0588235 0.0588235 0.0588235 0.0588235 0.0588235 0.0588235 0.0588235 0.0588235 0.0588235 0.0588235;
   (close, orien_15, inclin_0, dist_2) 0.0526316 0.0526316 0.0526316 0.0526316 0.0526316 0.0526316 0.0526316 0.0526316 0.157895 0.0526316 0.0526316 0.0526316 0.0526316 0.0526316 0.0526316 0.0526316 0.0526316;
   (far, orien_15, inclin_0, dist_2) 0.05 0.05 0.05 0.05 0.05 0.05 0.2 0.05 0.05 0.05 0.05 0.05 0.05 0.05 0.05 0.05 0.05;
   (left, orien_12, inclin_0, dist_2) 0.0588235 0.0588235 0.0588235 0.0588235 0.0588235 0.0588235 0.0588235 0.0588235 0.0588235 0.0588235 0.0588235 0.0588235 0.0588235 0.0588235 0.0588235 0.0588235 0.0588235;
   (right, orien_12, inclin_0, dist_2) 0.0588235 0.0588235 0.0588235 0.0588235 0.0588235 0.0588235 0.0588235 0.0588235 0.0588235 0.0588235 0.0588235 0.0588235 0.0588235 0.0588235 0.0588235 0.0588235 0.0588235;
   (close, orien_12, inclin_0, dist_2) 0.0526316 0.0526316 0.0526316 0.0526316 0.0526316 0.0526316 0.0526316 0.0526316 0.0526316 0.0526316 0.0526316 0.0526316 0.0526316 0.157895 0.0526316 0.0526316 0.0526316;
   (far, orien_12, inclin_0, dist_2) 0.0588235 0.0588235 0.0588235 0.0588235 0.0588235 0.0588235 0.0588235 0.0588235 0.0588235 0.0588235 0.0588235 0.0588235 0.0588235 0.0588235 0.0588235 0.0588235 0.0588235;
   (left, orien_14, inclin_0, dist_2) 0.0588235 0.0588235 0.0588235 0.0588235 0.0588235 0.0588235 0.0588235 0.0588235 0.0588235 0.0588235 0.0588235 0.0588235 0.0588235 0.0588235 0.0588235 0.0588235 0.0588235;
   (right, orien_14, inclin_0, dist_2) 0.0588235 0.0588235 0.0588235 0.0588235 0.0588235 0.0588235 0.0588235 0.0588235 0.0588235 0.0588235 0.0588235 0.0588235 0.0588235 0.0588235 0.0588235 0.0588235 0.0588235;
   (close, orien_14, inclin_0, dist_2) 0.0588235 0.0588235 0.0588235 0.0588235 0.0588235 0.0588235 0.0588235 0.0588235 0.0588235 0.0588235 0.0588235 0.0588235 0.0588235 0.0588235 0.0588235 0.0588235 0.0588235;
   (far, orien_14, inclin_0, dist_2) 0.0588235 0.0588235 0.0588235 0.0588235 0.0588235 0.0588235 0.0588235 0.0588235 0.0588235 0.0588235 0.0588235 0.0588235 0.0588235 0.0588235 0.0588235 0.0588235 0.0588235;
   (left, orien_13, inclin_0, dist_2) 0.0588235 0.0588235 0.0588235 0.0588235 0.0588235 0.0588235 0.0588235 0.0588235 0.0588235 0.0588235 0.0588235 0.0588235 0.0588235 0.0588235 0.0588235 0.0588235 0.0588235;
   (right, orien_13, inclin_0, dist_2) 0.0588235 0.0588235 0.0588235 0.0588235 0.0588235 0.0588235 0.0588235 0.0588235 0.0588235 0.0588235 0.0588235 0.0588235 0.0588235 0.0588235 0.0588235 0.0588235 0.0588235;
   (close, orien_13, inclin_0, dist_2) 0.0588235 0.0588235 0.0588235 0.0588235 0.0588235 0.0588235 0.0588235 0.0588235 0.0588235 0.0588235 0.0588235 0.0588235 0.0588235 0.0588235 0.0588235 0.0588235 0.0588235;
   (far, orien_13, inclin_0, dist_2) 0.0588235 0.0588235 0.0588235 0.0588235 0.0588235 0.0588235 0.0588235 0.0588235 0.0588235 0.0588235 0.0588235 0.0588235 0.0588235 0.0588235 0.0588235 0.0588235 0.0588235;
   (left, orien_1, inclin_0, dist_2) 0.0588235 0.0588235 0.0588235 0.0588235 0.0588235 0.0588235 0.0588235 0.0588235 0.0588235 0.0588235 0.0588235 0.0588235 0.0588235 0.0588235 0.0588235 0.0588235 0.0588235;
   (right, orien_1, inclin_0, dist_2) 0.0588235 0.0588235 0.0588235 0.0588235 0.0588235 0.0588235 0.0588235 0.0588235 0.0588235 0.0588235 0.0588235 0.0588235 0.0588235 0.0588235 0.0588235 0.0588235 0.0588235;
   (close, orien_1, inclin_0, dist_2) 0.0555556 0.0555556 0.0555556 0.0555556 0.0555556 0.0555556 0.0555556 0.0555556 0.0555556 0.0555556 0.0555556 0.0555556 0.0555556 0.0555556 0.0555556 0.111111 0.0555556;
   (far, orien_1, inclin_0, dist_2) 0.0555556 0.0555556 0.0555556 0.0555556 0.0555556 0.0555556 0.111111 0.0555556 0.0555556 0.0555556 0.0555556 0.0555556 0.0555556 0.0555556 0.0555556 0.0555556 0.0555556;
   (left, orien_2, inclin_0, dist_2) 0.0588235 0.0588235 0.0588235 0.0588235 0.0588235 0.0588235 0.0588235 0.0588235 0.0588235 0.0588235 0.0588235 0.0588235 0.0588235 0.0588235 0.0588235 0.0588235 0.0588235;
   (right, orien_2, inclin_0, dist_2) 0.0588235 0.0588235 0.0588235 0.0588235 0.0588235 0.0588235 0.0588235 0.0588235 0.0588235 0.0588235 0.0588235 0.0588235 0.0588235 0.0588235 0.0588235 0.0588235 0.0588235;
   (close, orien_2, inclin_0, dist_2) 0.0588235 0.0588235 0.0588235 0.0588235 0.0588235 0.0588235 0.0588235 0.0588235 0.0588235 0.0588235 0.0588235 0.0588235 0.0588235 0.0588235 0.0588235 0.0588235 0.0588235;
   (far, orien_2, inclin_0, dist_2) 0.0588235 0.0588235 0.0588235 0.0588235 0.0588235 0.0588235 0.0588235 0.0588235 0.0588235 0.0588235 0.0588235 0.0588235 0.0588235 0.0588235 0.0588235 0.0588235 0.0588235;
   (left, orien_0, inclin_0, dist_2) 0.0588235 0.0588235 0.0588235 0.0588235 0.0588235 0.0588235 0.0588235 0.0588235 0.0588235 0.0588235 0.0588235 0.0588235 0.0588235 0.0588235 0.0588235 0.0588235 0.0588235;
   (right, orien_0, inclin_0, dist_2) 0.0588235 0.0588235 0.0588235 0.0588235 0.0588235 0.0588235 0.0588235 0.0588235 0.0588235 0.0588235 0.0588235 0.0588235 0.0588235 0.0588235 0.0588235 0.0588235 0.0588235;
   (close, orien_0, inclin_0, dist_2) 0.0588235 0.0588235 0.0588235 0.0588235 0.0588235 0.0588235 0.0588235 0.0588235 0.0588235 0.0588235 0.0588235 0.0588235 0.0588235 0.0588235 0.0588235 0.0588235 0.0588235;
   (far, orien_0, inclin_0, dist_2) 0.0588235 0.0588235 0.0588235 0.0588235 0.0588235 0.0588235 0.0588235 0.0588235 0.0588235 0.0588235 0.0588235 0.0588235 0.0588235 0.0588235 0.0588235 0.0588235 0.0588235;
   (left, orien_7, inclin_1, dist_1) 0.0588235 0.0588235 0.0588235 0.0588235 0.0588235 0.0588235 0.0588235 0.0588235 0.0588235 0.0588235 0.0588235 0.0588235 0.0588235 0.0588235 0.0588235 0.0588235 0.0588235;
   (right, orien_7, inclin_1, dist_1) 0.0588235 0.0588235 0.0588235 0.0588235 0.0588235 0.0588235 0.0588235 0.0588235 0.0588235 0.0588235 0.0588235 0.0588235 0.0588235 0.0588235 0.0588235 0.0588235 0.0588235;
   (close, orien_7, inclin_1, dist_1) 0.0588235 0.0588235 0.0588235 0.0588235 0.0588235 0.0588235 0.0588235 0.0588235 0.0588235 0.0588235 0.0588235 0.0588235 0.0588235 0.0588235 0.0588235 0.0588235 0.0588235;
   (far, orien_7, inclin_1, dist_1) 0.0588235 0.0588235 0.0588235 0.0588235 0.0588235 0.0588235 0.0588235 0.0588235 0.0588235 0.0588235 0.0588235 0.0588235 0.0588235 0.0588235 0.0588235 0.0588235 0.0588235;
   (left, orien_6, inclin_1, dist_1) 0.0588235 0.0588235 0.0588235 0.0588235 0.0588235 0.0588235 0.0588235 0.0588235 0.0588235 0.0588235 0.0588235 0.0588235 0.0588235 0.0588235 0.0588235 0.0588235 0.0588235;
   (right, orien_6, inclin_1, dist_1) 0.0588235 0.0588235 0.0588235 0.0588235 0.0588235 0.0588235 0.0588235 0.0588235 0.0588235 0.0588235 0.0588235 0.0588235 0.0588235 0.0588235 0.0588235 0.0588235 0.0588235;
   (close, orien_6, inclin_1, dist_1) 0.0588235 0.0588235 0.0588235 0.0588235 0.0588235 0.0588235 0.0588235 0.0588235 0.0588235 0.0588235 0.0588235 0.0588235 0.0588235 0.0588235 0.0588235 0.0588235 0.0588235;
   (far, orien_6, inclin_1, dist_1) 0.0588235 0.0588235 0.0588235 0.0588235 0.0588235 0.0588235 0.0588235 0.0588235 0.0588235 0.0588235 0.0588235 0.0588235 0.0588235 0.0588235 0.0588235 0.0588235 0.0588235;
   (left, orien_5, inclin_1, dist_1) 0.0588235 0.0588235 0.0588235 0.0588235 0.0588235 0.0588235 0.0588235 0.0588235 0.0588235 0.0588235 0.0588235 0.0588235 0.0588235 0.0588235 0.0588235 0.0588235 0.0588235;
   (right, orien_5, inclin_1, dist_1) 0.0588235 0.0588235 0.0588235 0.0588235 0.0588235 0.0588235 0.0588235 0.0588235 0.0588235 0.0588235 0.0588235 0.0588235 0.0588235 0.0588235 0.0588235 0.0588235 0.0588235;
   (close, orien_5, inclin_1, dist_1) 0.0588235 0.0588235 0.0588235 0.0588235 0.0588235 0.0588235 0.0588235 0.0588235 0.0588235 0.0588235 0.0588235 0.0588235 0.0588235 0.0588235 0.0588235 0.0588235 0.0588235;
   (far, orien_5, inclin_1, dist_1) 0.0588235 0.0588235 0.0588235 0.0588235 0.0588235 0.0588235 0.0588235 0.0588235 0.0588235 0.0588235 0.0588235 0.0588235 0.0588235 0.0588235 0.0588235 0.0588235 0.0588235;
   (left, orien_4, inclin_1, dist_1) 0.0588235 0.0588235 0.0588235 0.0588235 0.0588235 0.0588235 0.0588235 0.0588235 0.0588235 0.0588235 0.0588235 0.0588235 0.0588235 0.0588235 0.0588235 0.0588235 0.0588235;
   (right, orien_4, inclin_1, dist_1) 0.0588235 0.0588235 0.0588235 0.0588235 0.0588235 0.0588235 0.0588235 0.0588235 0.0588235 0.0588235 0.0588235 0.0588235 0.0588235 0.0588235 0.0588235 0.0588235 0.0588235;
   (close, orien_4, inclin_1, dist_1) 0.0588235 0.0588235 0.0588235 0.0588235 0.0588235 0.0588235 0.0588235 0.0588235 0.0588235 0.0588235 0.0588235 0.0588235 0.0588235 0.0588235 0.0588235 0.0588235 0.0588235;
   (far, orien_4, inclin_1, dist_1) 0.0588235 0.0588235 0.0588235 0.0588235 0.0588235 0.0588235 0.0588235 0.0588235 0.0588235 0.0588235 0.0588235 0.0588235 0.0588235 0.0588235 0.0588235 0.0588235 0.0588235;
   (left, orien_3, inclin_1, dist_1) 0.0588235 0.0588235 0.0588235 0.0588235 0.0588235 0.0588235 0.0588235 0.0588235 0.0588235 0.0588235 0.0588235 0.0588235 0.0588235 0.0588235 0.0588235 0.0588235 0.0588235;
   (right, orien_3, inclin_1, dist_1) 0.0588235 0.0588235 0.0588235 0.0588235 0.0588235 0.0588235 0.0588235 0.0588235 0.0588235 0.0588235 0.0588235 0.0588235 0.0588235 0.0588235 0.0588235 0.0588235 0.0588235;
   (close, orien_3, inclin_1, dist_1) 0.0588235 0.0588235 0.0588235 0.0588235 0.0588235 0.0588235 0.0588235 0.0588235 0.0588235 0.0588235 0.0588235 0.0588235 0.0588235 0.0588235 0.0588235 0.0588235 0.0588235;
   (far, orien_3, inclin_1, dist_1) 0.0588235 0.0588235 0.0588235 0.0588235 0.0588235 0.0588235 0.0588235 0.0588235 0.0588235 0.0588235 0.0588235 0.0588235 0.0588235 0.0588235 0.0588235 0.0588235 0.0588235;
   (left, orien_8, inclin_1, dist_1) 0.0588235 0.0588235 0.0588235 0.0588235 0.0588235 0.0588235 0.0588235 0.0588235 0.0588235 0.0588235 0.0588235 0.0588235 0.0588235 0.0588235 0.0588235 0.0588235 0.0588235;
   (right, orien_8, inclin_1, dist_1) 0.0588235 0.0588235 0.0588235 0.0588235 0.0588235 0.0588235 0.0588235 0.0588235 0.0588235 0.0588235 0.0588235 0.0588235 0.0588235 0.0588235 0.0588235 0.0588235 0.0588235;
   (close, orien_8, inclin_1, dist_1) 0.0588235 0.0588235 0.0588235 0.0588235 0.0588235 0.0588235 0.0588235 0.0588235 0.0588235 0.0588235 0.0588235 0.0588235 0.0588235 0.0588235 0.0588235 0.0588235 0.0588235;
   (far, orien_8, inclin_1, dist_1) 0.0588235 0.0588235 0.0588235 0.0588235 0.0588235 0.0588235 0.0588235 0.0588235 0.0588235 0.0588235 0.0588235 0.0588235 0.0588235 0.0588235 0.0588235 0.0588235 0.0588235;
   (left, orien_9, inclin_1, dist_1) 0.0588235 0.0588235 0.0588235 0.0588235 0.0588235 0.0588235 0.0588235 0.0588235 0.0588235 0.0588235 0.0588235 0.0588235 0.0588235 0.0588235 0.0588235 0.0588235 0.0588235;
   (right, orien_9, inclin_1, dist_1) 0.0588235 0.0588235 0.0588235 0.0588235 0.0588235 0.0588235 0.0588235 0.0588235 0.0588235 0.0588235 0.0588235 0.0588235 0.0588235 0.0588235 0.0588235 0.0588235 0.0588235;
   (close, orien_9, inclin_1, dist_1) 0.0588235 0.0588235 0.0588235 0.0588235 0.0588235 0.0588235 0.0588235 0.0588235 0.0588235 0.0588235 0.0588235 0.0588235 0.0588235 0.0588235 0.0588235 0.0588235 0.0588235;
   (far, orien_9, inclin_1, dist_1) 0.0588235 0.0588235 0.0588235 0.0588235 0.0588235 0.0588235 0.0588235 0.0588235 0.0588235 0.0588235 0.0588235 0.0588235 0.0588235 0.0588235 0.0588235 0.0588235 0.0588235;
   (left, orien_10, inclin_1, dist_1) 0.0588235 0.0588235 0.0588235 0.0588235 0.0588235 0.0588235 0.0588235 0.0588235 0.0588235 0.0588235 0.0588235 0.0588235 0.0588235 0.0588235 0.0588235 0.0588235 0.0588235;
   (right, orien_10, inclin_1, dist_1) 0.0588235 0.0588235 0.0588235 0.0588235 0.0588235 0.0588235 0.0588235 0.0588235 0.0588235 0.0588235 0.0588235 0.0588235 0.0588235 0.0588235 0.0588235 0.0588235 0.0588235;
   (close, orien_10, inclin_1, dist_1) 0.0588235 0.0588235 0.0588235 0.0588235 0.0588235 0.0588235 0.0588235 0.0588235 0.0588235 0.0588235 0.0588235 0.0588235 0.0588235 0.0588235 0.0588235 0.0588235 0.0588235;
   (far, orien_10, inclin_1, dist_1) 0.0588235 0.0588235 0.0588235 0.0588235 0.0588235 0.0588235 0.0588235 0.0588235 0.0588235 0.0588235 0.0588235 0.0588235 0.0588235 0.0588235 0.0588235 0.0588235 0.0588235;
   (left, orien_11, inclin_1, dist_1) 0.0588235 0.0588235 0.0588235 0.0588235 0.0588235 0.0588235 0.0588235 0.0588235 0.0588235 0.0588235 0.0588235 0.0588235 0.0588235 0.0588235 0.0588235 0.0588235 0.0588235;
   (right, orien_11, inclin_1, dist_1) 0.0588235 0.0588235 0.0588235 0.0588235 0.0588235 0.0588235 0.0588235 0.0588235 0.0588235 0.0588235 0.0588235 0.0588235 0.0588235 0.0588235 0.0588235 0.0588235 0.0588235;
   (close, orien_11, inclin_1, dist_1) 0.0588235 0.0588235 0.0588235 0.0588235 0.0588235 0.0588235 0.0588235 0.0588235 0.0588235 0.0588235 0.0588235 0.0588235 0.0588235 0.0588235 0.0588235 0.0588235 0.0588235;
   (far, orien_11, inclin_1, dist_1) 0.0588235 0.0588235 0.0588235 0.0588235 0.0588235 0.0588235 0.0588235 0.0588235 0.0588235 0.0588235 0.0588235 0.0588235 0.0588235 0.0588235 0.0588235 0.0588235 0.0588235;
   (left, orien_15, inclin_1, dist_1) 0.0588235 0.0588235 0.0588235 0.0588235 0.0588235 0.0588235 0.0588235 0.0588235 0.0588235 0.0588235 0.0588235 0.0588235 0.0588235 0.0588235 0.0588235 0.0588235 0.0588235;
   (right, orien_15, inclin_1, dist_1) 0.0588235 0.0588235 0.0588235 0.0588235 0.0588235 0.0588235 0.0588235 0.0588235 0.0588235 0.0588235 0.0588235 0.0588235 0.0588235 0.0588235 0.0588235 0.0588235 0.0588235;
   (close, orien_15, inclin_1, dist_1) 0.0588235 0.0588235 0.0588235 0.0588235 0.0588235 0.0588235 0.0588235 0.0588235 0.0588235 0.0588235 0.0588235 0.0588235 0.0588235 0.0588235 0.0588235 0.0588235 0.0588235;
   (far, orien_15, inclin_1, dist_1) 0.0588235 0.0588235 0.0588235 0.0588235 0.0588235 0.0588235 0.0588235 0.0588235 0.0588235 0.0588235 0.0588235 0.0588235 0.0588235 0.0588235 0.0588235 0.0588235 0.0588235;
   (left, orien_12, inclin_1, dist_1) 0.0588235 0.0588235 0.0588235 0.0588235 0.0588235 0.0588235 0.0588235 0.0588235 0.0588235 0.0588235 0.0588235 0.0588235 0.0588235 0.0588235 0.0588235 0.0588235 0.0588235;
   (right, orien_12, inclin_1, dist_1) 0.0588235 0.0588235 0.0588235 0.0588235 0.0588235 0.0588235 0.0588235 0.0588235 0.0588235 0.0588235 0.0588235 0.0588235 0.0588235 0.0588235 0.0588235 0.0588235 0.0588235;
   (close, orien_12, inclin_1, dist_1) 0.0588235 0.0588235 0.0588235 0.0588235 0.0588235 0.0588235 0.0588235 0.0588235 0.0588235 0.0588235 0.0588235 0.0588235 0.0588235 0.0588235 0.0588235 0.0588235 0.0588235;
   (far, orien_12, inclin_1, dist_1) 0.0588235 0.0588235 0.0588235 0.0588235 0.0588235 0.0588235 0.0588235 0.0588235 0.0588235 0.0588235 0.0588235 0.0588235 0.0588235 0.0588235 0.0588235 0.0588235 0.0588235;
   (left, orien_14, inclin_1, dist_1) 0.0588235 0.0588235 0.0588235 0.0588235 0.0588235 0.0588235 0.0588235 0.0588235 0.0588235 0.0588235 0.0588235 0.0588235 0.0588235 0.0588235 0.0588235 0.0588235 0.0588235;
   (right, orien_14, inclin_1, dist_1) 0.0588235 0.0588235 0.0588235 0.0588235 0.0588235 0.0588235 0.0588235 0.0588235 0.0588235 0.0588235 0.0588235 0.0588235 0.0588235 0.0588235 0.0588235 0.0588235 0.0588235;
   (close, orien_14, inclin_1, dist_1) 0.0588235 0.0588235 0.0588235 0.0588235 0.0588235 0.0588235 0.0588235 0.0588235 0.0588235 0.0588235 0.0588235 0.0588235 0.0588235 0.0588235 0.0588235 0.0588235 0.0588235;
   (far, orien_14, inclin_1, dist_1) 0.0588235 0.0588235 0.0588235 0.0588235 0.0588235 0.0588235 0.0588235 0.0588235 0.0588235 0.0588235 0.0588235 0.0588235 0.0588235 0.0588235 0.0588235 0.0588235 0.0588235;
   (left, orien_13, inclin_1, dist_1) 0.0588235 0.0588235 0.0588235 0.0588235 0.0588235 0.0588235 0.0588235 0.0588235 0.0588235 0.0588235 0.0588235 0.0588235 0.0588235 0.0588235 0.0588235 0.0588235 0.0588235;
   (right, orien_13, inclin_1, dist_1) 0.0588235 0.0588235 0.0588235 0.0588235 0.0588235 0.0588235 0.0588235 0.0588235 0.0588235 0.0588235 0.0588235 0.0588235 0.0588235 0.0588235 0.0588235 0.0588235 0.0588235;
   (close, orien_13, inclin_1, dist_1) 0.0588235 0.0588235 0.0588235 0.0588235 0.0588235 0.0588235 0.0588235 0.0588235 0.0588235 0.0588235 0.0588235 0.0588235 0.0588235 0.0588235 0.0588235 0.0588235 0.0588235;
   (far, orien_13, inclin_1, dist_1) 0.0588235 0.0588235 0.0588235 0.0588235 0.0588235 0.0588235 0.0588235 0.0588235 0.0588235 0.0588235 0.0588235 0.0588235 0.0588235 0.0588235 0.0588235 0.0588235 0.0588235;
   (left, orien_1, inclin_1, dist_1) 0.0588235 0.0588235 0.0588235 0.0588235 0.0588235 0.0588235 0.0588235 0.0588235 0.0588235 0.0588235 0.0588235 0.0588235 0.0588235 0.0588235 0.0588235 0.0588235 0.0588235;
   (right, orien_1, inclin_1, dist_1) 0.0588235 0.0588235 0.0588235 0.0588235 0.0588235 0.0588235 0.0588235 0.0588235 0.0588235 0.0588235 0.0588235 0.0588235 0.0588235 0.0588235 0.0588235 0.0588235 0.0588235;
   (close, orien_1, inclin_1, dist_1) 0.0588235 0.0588235 0.0588235 0.0588235 0.0588235 0.0588235 0.0588235 0.0588235 0.0588235 0.0588235 0.0588235 0.0588235 0.0588235 0.0588235 0.0588235 0.0588235 0.0588235;
   (far, orien_1, inclin_1, dist_1) 0.0588235 0.0588235 0.0588235 0.0588235 0.0588235 0.0588235 0.0588235 0.0588235 0.0588235 0.0588235 0.0588235 0.0588235 0.0588235 0.0588235 0.0588235 0.0588235 0.0588235;
   (left, orien_2, inclin_1, dist_1) 0.0588235 0.0588235 0.0588235 0.0588235 0.0588235 0.0588235 0.0588235 0.0588235 0.0588235 0.0588235 0.0588235 0.0588235 0.0588235 0.0588235 0.0588235 0.0588235 0.0588235;
   (right, orien_2, inclin_1, dist_1) 0.0588235 0.0588235 0.0588235 0.0588235 0.0588235 0.0588235 0.0588235 0.0588235 0.0588235 0.0588235 0.0588235 0.0588235 0.0588235 0.0588235 0.0588235 0.0588235 0.0588235;
   (close, orien_2, inclin_1, dist_1) 0.0588235 0.0588235 0.0588235 0.0588235 0.0588235 0.0588235 0.0588235 0.0588235 0.0588235 0.0588235 0.0588235 0.0588235 0.0588235 0.0588235 0.0588235 0.0588235 0.0588235;
   (far, orien_2, inclin_1, dist_1) 0.0588235 0.0588235 0.0588235 0.0588235 0.0588235 0.0588235 0.0588235 0.0588235 0.0588235 0.0588235 0.0588235 0.0588235 0.0588235 0.0588235 0.0588235 0.0588235 0.0588235;
   (left, orien_0, inclin_1, dist_1) 0.0588235 0.0588235 0.0588235 0.0588235 0.0588235 0.0588235 0.0588235 0.0588235 0.0588235 0.0588235 0.0588235 0.0588235 0.0588235 0.0588235 0.0588235 0.0588235 0.0588235;
   (right, orien_0, inclin_1, dist_1) 0.0588235 0.0588235 0.0588235 0.0588235 0.0588235 0.0588235 0.0588235 0.0588235 0.0588235 0.0588235 0.0588235 0.0588235 0.0588235 0.0588235 0.0588235 0.0588235 0.0588235;
   (close, orien_0, inclin_1, dist_1) 0.0588235 0.0588235 0.0588235 0.0588235 0.0588235 0.0588235 0.0588235 0.0588235 0.0588235 0.0588235 0.0588235 0.0588235 0.0588235 0.0588235 0.0588235 0.0588235 0.0588235;
   (far, orien_0, inclin_1, dist_1) 0.0588235 0.0588235 0.0588235 0.0588235 0.0588235 0.0588235 0.0588235 0.0588235 0.0588235 0.0588235 0.0588235 0.0588235 0.0588235 0.0588235 0.0588235 0.0588235 0.0588235;
   (left, orien_7, inclin_2, dist_1) 0.0588235 0.0588235 0.0588235 0.0588235 0.0588235 0.0588235 0.0588235 0.0588235 0.0588235 0.0588235 0.0588235 0.0588235 0.0588235 0.0588235 0.0588235 0.0588235 0.0588235;
   (right, orien_7, inclin_2, dist_1) 0.0588235 0.0588235 0.0588235 0.0588235 0.0588235 0.0588235 0.0588235 0.0588235 0.0588235 0.0588235 0.0588235 0.0588235 0.0588235 0.0588235 0.0588235 0.0588235 0.0588235;
   (close, orien_7, inclin_2, dist_1) 0.0588235 0.0588235 0.0588235 0.0588235 0.0588235 0.0588235 0.0588235 0.0588235 0.0588235 0.0588235 0.0588235 0.0588235 0.0588235 0.0588235 0.0588235 0.0588235 0.0588235;
   (far, orien_7, inclin_2, dist_1) 0.0588235 0.0588235 0.0588235 0.0588235 0.0588235 0.0588235 0.0588235 0.0588235 0.0588235 0.0588235 0.0588235 0.0588235 0.0588235 0.0588235 0.0588235 0.0588235 0.0588235;
   (left, orien_6, inclin_2, dist_1) 0.0588235 0.0588235 0.0588235 0.0588235 0.0588235 0.0588235 0.0588235 0.0588235 0.0588235 0.0588235 0.0588235 0.0588235 0.0588235 0.0588235 0.0588235 0.0588235 0.0588235;
   (right, orien_6, inclin_2, dist_1) 0.0588235 0.0588235 0.0588235 0.0588235 0.0588235 0.0588235 0.0588235 0.0588235 0.0588235 0.0588235 0.0588235 0.0588235 0.0588235 0.0588235 0.0588235 0.0588235 0.0588235;
   (close, orien_6, inclin_2, dist_1) 0.0588235 0.0588235 0.0588235 0.0588235 0.0588235 0.0588235 0.0588235 0.0588235 0.0588235 0.0588235 0.0588235 0.0588235 0.0588235 0.0588235 0.0588235 0.0588235 0.0588235;
   (far, orien_6, inclin_2, dist_1) 0.0588235 0.0588235 0.0588235 0.0588235 0.0588235 0.0588235 0.0588235 0.0588235 0.0588235 0.0588235 0.0588235 0.0588235 0.0588235 0.0588235 0.0588235 0.0588235 0.0588235;
   (left, orien_5, inclin_2, dist_1) 0.0588235 0.0588235 0.0588235 0.0588235 0.0588235 0.0588235 0.0588235 0.0588235 0.0588235 0.0588235 0.0588235 0.0588235 0.0588235 0.0588235 0.0588235 0.0588235 0.0588235;
   (right, orien_5, inclin_2, dist_1) 0.0588235 0.0588235 0.0588235 0.0588235 0.0588235 0.0588235 0.0588235 0.0588235 0.0588235 0.0588235 0.0588235 0.0588235 0.0588235 0.0588235 0.0588235 0.0588235 0.0588235;
   (close, orien_5, inclin_2, dist_1) 0.0588235 0.0588235 0.0588235 0.0588235 0.0588235 0.0588235 0.0588235 0.0588235 0.0588235 0.0588235 0.0588235 0.0588235 0.0588235 0.0588235 0.0588235 0.0588235 0.0588235;
   (far, orien_5, inclin_2, dist_1) 0.0588235 0.0588235 0.0588235 0.0588235 0.0588235 0.0588235 0.0588235 0.0588235 0.0588235 0.0588235 0.0588235 0.0588235 0.0588235 0.0588235 0.0588235 0.0588235 0.0588235;
   (left, orien_4, inclin_2, dist_1) 0.0588235 0.0588235 0.0588235 0.0588235 0.0588235 0.0588235 0.0588235 0.0588235 0.0588235 0.0588235 0.0588235 0.0588235 0.0588235 0.0588235 0.0588235 0.0588235 0.0588235;
   (right, orien_4, inclin_2, dist_1) 0.0588235 0.0588235 0.0588235 0.0588235 0.0588235 0.0588235 0.0588235 0.0588235 0.0588235 0.0588235 0.0588235 0.0588235 0.0588235 0.0588235 0.0588235 0.0588235 0.0588235;
   (close, orien_4, inclin_2, dist_1) 0.0588235 0.0588235 0.0588235 0.0588235 0.0588235 0.0588235 0.0588235 0.0588235 0.0588235 0.0588235 0.0588235 0.0588235 0.0588235 0.0588235 0.0588235 0.0588235 0.0588235;
   (far, orien_4, inclin_2, dist_1) 0.0588235 0.0588235 0.0588235 0.0588235 0.0588235 0.0588235 0.0588235 0.0588235 0.0588235 0.0588235 0.0588235 0.0588235 0.0588235 0.0588235 0.0588235 0.0588235 0.0588235;
   (left, orien_3, inclin_2, dist_1) 0.0588235 0.0588235 0.0588235 0.0588235 0.0588235 0.0588235 0.0588235 0.0588235 0.0588235 0.0588235 0.0588235 0.0588235 0.0588235 0.0588235 0.0588235 0.0588235 0.0588235;
   (right, orien_3, inclin_2, dist_1) 0.0588235 0.0588235 0.0588235 0.0588235 0.0588235 0.0588235 0.0588235 0.0588235 0.0588235 0.0588235 0.0588235 0.0588235 0.0588235 0.0588235 0.0588235 0.0588235 0.0588235;
   (close, orien_3, inclin_2, dist_1) 0.0588235 0.0588235 0.0588235 0.0588235 0.0588235 0.0588235 0.0588235 0.0588235 0.0588235 0.0588235 0.0588235 0.0588235 0.0588235 0.0588235 0.0588235 0.0588235 0.0588235;
   (far, orien_3, inclin_2, dist_1) 0.0588235 0.0588235 0.0588235 0.0588235 0.0588235 0.0588235 0.0588235 0.0588235 0.0588235 0.0588235 0.0588235 0.0588235 0.0588235 0.0588235 0.0588235 0.0588235 0.0588235;
   (left, orien_8, inclin_2, dist_1) 0.0588235 0.0588235 0.0588235 0.0588235 0.0588235 0.0588235 0.0588235 0.0588235 0.0588235 0.0588235 0.0588235 0.0588235 0.0588235 0.0588235 0.0588235 0.0588235 0.0588235;
   (right, orien_8, inclin_2, dist_1) 0.0588235 0.0588235 0.0588235 0.0588235 0.0588235 0.0588235 0.0588235 0.0588235 0.0588235 0.0588235 0.0588235 0.0588235 0.0588235 0.0588235 0.0588235 0.0588235 0.0588235;
   (close, orien_8, inclin_2, dist_1) 0.0588235 0.0588235 0.0588235 0.0588235 0.0588235 0.0588235 0.0588235 0.0588235 0.0588235 0.0588235 0.0588235 0.0588235 0.0588235 0.0588235 0.0588235 0.0588235 0.0588235;
   (far, orien_8, inclin_2, dist_1) 0.0588235 0.0588235 0.0588235 0.0588235 0.0588235 0.0588235 0.0588235 0.0588235 0.0588235 0.0588235 0.0588235 0.0588235 0.0588235 0.0588235 0.0588235 0.0588235 0.0588235;
   (left, orien_9, inclin_2, dist_1) 0.0588235 0.0588235 0.0588235 0.0588235 0.0588235 0.0588235 0.0588235 0.0588235 0.0588235 0.0588235 0.0588235 0.0588235 0.0588235 0.0588235 0.0588235 0.0588235 0.0588235;
   (right, orien_9, inclin_2, dist_1) 0.0588235 0.0588235 0.0588235 0.0588235 0.0588235 0.0588235 0.0588235 0.0588235 0.0588235 0.0588235 0.0588235 0.0588235 0.0588235 0.0588235 0.0588235 0.0588235 0.0588235;
   (close, orien_9, inclin_2, dist_1) 0.0588235 0.0588235 0.0588235 0.0588235 0.0588235 0.0588235 0.0588235 0.0588235 0.0588235 0.0588235 0.0588235 0.0588235 0.0588235 0.0588235 0.0588235 0.0588235 0.0588235;
   (far, orien_9, inclin_2, dist_1) 0.0588235 0.0588235 0.0588235 0.0588235 0.0588235 0.0588235 0.0588235 0.0588235 0.0588235 0.0588235 0.0588235 0.0588235 0.0588235 0.0588235 0.0588235 0.0588235 0.0588235;
   (left, orien_10, inclin_2, dist_1) 0.0588235 0.0588235 0.0588235 0.0588235 0.0588235 0.0588235 0.0588235 0.0588235 0.0588235 0.0588235 0.0588235 0.0588235 0.0588235 0.0588235 0.0588235 0.0588235 0.0588235;
   (right, orien_10, inclin_2, dist_1) 0.0555556 0.0555556 0.0555556 0.0555556 0.0555556 0.0555556 0.0555556 0.0555556 0.0555556 0.0555556 0.0555556 0.111111 0.0555556 0.0555556 0.0555556 0.0555556 0.0555556;
   (close, orien_10, inclin_2, dist_1) 0.0588235 0.0588235 0.0588235 0.0588235 0.0588235 0.0588235 0.0588235 0.0588235 0.0588235 0.0588235 0.0588235 0.0588235 0.0588235 0.0588235 0.0588235 0.0588235 0.0588235;
   (far, orien_10, inclin_2, dist_1) 0.0588235 0.0588235 0.0588235 0.0588235 0.0588235 0.0588235 0.0588235 0.0588235 0.0588235 0.0588235 0.0588235 0.0588235 0.0588235 0.0588235 0.0588235 0.0588235 0.0588235;
   (left, orien_11, inclin_2, dist_1) 0.0588235 0.0588235 0.0588235 0.0588235 0.0588235 0.0588235 0.0588235 0.0588235 0.0588235 0.0588235 0.0588235 0.0588235 0.0588235 0.0588235 0.0588235 0.0588235 0.0588235;
   (right, orien_11, inclin_2, dist_1) 0.0588235 0.0588235 0.0588235 0.0588235 0.0588235 0.0588235 0.0588235 0.0588235 0.0588235 0.0588235 0.0588235 0.0588235 0.0588235 0.0588235 0.0588235 0.0588235 0.0588235;
   (close, orien_11, inclin_2, dist_1) 0.0588235 0.0588235 0.0588235 0.0588235 0.0588235 0.0588235 0.0588235 0.0588235 0.0588235 0.0588235 0.0588235 0.0588235 0.0588235 0.0588235 0.0588235 0.0588235 0.0588235;
   (far, orien_11, inclin_2, dist_1) 0.0588235 0.0588235 0.0588235 0.0588235 0.0588235 0.0588235 0.0588235 0.0588235 0.0588235 0.0588235 0.0588235 0.0588235 0.0588235 0.0588235 0.0588235 0.0588235 0.0588235;
   (left, orien_15, inclin_2, dist_1) 0.0588235 0.0588235 0.0588235 0.0588235 0.0588235 0.0588235 0.0588235 0.0588235 0.0588235 0.0588235 0.0588235 0.0588235 0.0588235 0.0588235 0.0588235 0.0588235 0.0588235;
   (right, orien_15, inclin_2, dist_1) 0.0588235 0.0588235 0.0588235 0.0588235 0.0588235 0.0588235 0.0588235 0.0588235 0.0588235 0.0588235 0.0588235 0.0588235 0.0588235 0.0588235 0.0588235 0.0588235 0.0588235;
   (close, orien_15, inclin_2, dist_1) 0.0588235 0.0588235 0.0588235 0.0588235 0.0588235 0.0588235 0.0588235 0.0588235 0.0588235 0.0588235 0.0588235 0.0588235 0.0588235 0.0588235 0.0588235 0.0588235 0.0588235;
   (far, orien_15, inclin_2, dist_1) 0.0588235 0.0588235 0.0588235 0.0588235 0.0588235 0.0588235 0.0588235 0.0588235 0.0588235 0.0588235 0.0588235 0.0588235 0.0588235 0.0588235 0.0588235 0.0588235 0.0588235;
   (left, orien_12, inclin_2, dist_1) 0.0588235 0.0588235 0.0588235 0.0588235 0.0588235 0.0588235 0.0588235 0.0588235 0.0588235 0.0588235 0.0588235 0.0588235 0.0588235 0.0588235 0.0588235 0.0588235 0.0588235;
   (right, orien_12, inclin_2, dist_1) 0.0555556 0.0555556 0.0555556 0.0555556 0.0555556 0.0555556 0.0555556 0.0555556 0.0555556 0.0555556 0.0555556 0.111111 0.0555556 0.0555556 0.0555556 0.0555556 0.0555556;
   (close, orien_12, inclin_2, dist_1) 0.0588235 0.0588235 0.0588235 0.0588235 0.0588235 0.0588235 0.0588235 0.0588235 0.0588235 0.0588235 0.0588235 0.0588235 0.0588235 0.0588235 0.0588235 0.0588235 0.0588235;
   (far, orien_12, inclin_2, dist_1) 0.0588235 0.0588235 0.0588235 0.0588235 0.0588235 0.0588235 0.0588235 0.0588235 0.0588235 0.0588235 0.0588235 0.0588235 0.0588235 0.0588235 0.0588235 0.0588235 0.0588235;
   (left, orien_14, inclin_2, dist_1) 0.0588235 0.0588235 0.0588235 0.0588235 0.0588235 0.0588235 0.0588235 0.0588235 0.0588235 0.0588235 0.0588235 0.0588235 0.0588235 0.0588235 0.0588235 0.0588235 0.0588235;
   (right, orien_14, inclin_2, dist_1) 0.0588235 0.0588235 0.0588235 0.0588235 0.0588235 0.0588235 0.0588235 0.0588235 0.0588235 0.0588235 0.0588235 0.0588235 0.0588235 0.0588235 0.0588235 0.0588235 0.0588235;
   (close, orien_14, inclin_2, dist_1) 0.0588235 0.0588235 0.0588235 0.0588235 0.0588235 0.0588235 0.0588235 0.0588235 0.0588235 0.0588235 0.0588235 0.0588235 0.0588235 0.0588235 0.0588235 0.0588235 0.0588235;
   (far, orien_14, inclin_2, dist_1) 0.0555556 0.0555556 0.0555556 0.0555556 0.0555556 0.0555556 0.111111 0.0555556 0.0555556 0.0555556 0.0555556 0.0555556 0.0555556 0.0555556 0.0555556 0.0555556 0.0555556;
   (left, orien_13, inclin_2, dist_1) 0.0588235 0.0588235 0.0588235 0.0588235 0.0588235 0.0588235 0.0588235 0.0588235 0.0588235 0.0588235 0.0588235 0.0588235 0.0588235 0.0588235 0.0588235 0.0588235 0.0588235;
   (right, orien_13, inclin_2, dist_1) 0.0588235 0.0588235 0.0588235 0.0588235 0.0588235 0.0588235 0.0588235 0.0588235 0.0588235 0.0588235 0.0588235 0.0588235 0.0588235 0.0588235 0.0588235 0.0588235 0.0588235;
   (close, orien_13, inclin_2, dist_1) 0.0588235 0.0588235 0.0588235 0.0588235 0.0588235 0.0588235 0.0588235 0.0588235 0.0588235 0.0588235 0.0588235 0.0588235 0.0588235 0.0588235 0.0588235 0.0588235 0.0588235;
   (far, orien_13, inclin_2, dist_1) 0.0588235 0.0588235 0.0588235 0.0588235 0.0588235 0.0588235 0.0588235 0.0588235 0.0588235 0.0588235 0.0588235 0.0588235 0.0588235 0.0588235 0.0588235 0.0588235 0.0588235;
   (left, orien_1, inclin_2, dist_1) 0.0588235 0.0588235 0.0588235 0.0588235 0.0588235 0.0588235 0.0588235 0.0588235 0.0588235 0.0588235 0.0588235 0.0588235 0.0588235 0.0588235 0.0588235 0.0588235 0.0588235;
   (right, orien_1, inclin_2, dist_1) 0.0588235 0.0588235 0.0588235 0.0588235 0.0588235 0.0588235 0.0588235 0.0588235 0.0588235 0.0588235 0.0588235 0.0588235 0.0588235 0.0588235 0.0588235 0.0588235 0.0588235;
   (close, orien_1, inclin_2, dist_1) 0.0588235 0.0588235 0.0588235 0.0588235 0.0588235 0.0588235 0.0588235 0.0588235 0.0588235 0.0588235 0.0588235 0.0588235 0.0588235 0.0588235 0.0588235 0.0588235 0.0588235;
   (far, orien_1, inclin_2, dist_1) 0.0588235 0.0588235 0.0588235 0.0588235 0.0588235 0.0588235 0.0588235 0.0588235 0.0588235 0.0588235 0.0588235 0.0588235 0.0588235 0.0588235 0.0588235 0.0588235 0.0588235;
   (left, orien_2, inclin_2, dist_1) 0.0555556 0.0555556 0.0555556 0.0555556 0.0555556 0.0555556 0.0555556 0.0555556 0.0555556 0.0555556 0.111111 0.0555556 0.0555556 0.0555556 0.0555556 0.0555556 0.0555556;
   (right, orien_2, inclin_2, dist_1) 0.0588235 0.0588235 0.0588235 0.0588235 0.0588235 0.0588235 0.0588235 0.0588235 0.0588235 0.0588235 0.0588235 0.0588235 0.0588235 0.0588235 0.0588235 0.0588235 0.0588235;
   (close, orien_2, inclin_2, dist_1) 0.0588235 0.0588235 0.0588235 0.0588235 0.0588235 0.0588235 0.0588235 0.0588235 0.0588235 0.0588235 0.0588235 0.0588235 0.0588235 0.0588235 0.0588235 0.0588235 0.0588235;
   (far, orien_2, inclin_2, dist_1) 0.0588235 0.0588235 0.0588235 0.0588235 0.0588235 0.0588235 0.0588235 0.0588235 0.0588235 0.0588235 0.0588235 0.0588235 0.0588235 0.0588235 0.0588235 0.0588235 0.0588235;
   (left, orien_0, inclin_2, dist_1) 0.0588235 0.0588235 0.0588235 0.0588235 0.0588235 0.0588235 0.0588235 0.0588235 0.0588235 0.0588235 0.0588235 0.0588235 0.0588235 0.0588235 0.0588235 0.0588235 0.0588235;
   (right, orien_0, inclin_2, dist_1) 0.0588235 0.0588235 0.0588235 0.0588235 0.0588235 0.0588235 0.0588235 0.0588235 0.0588235 0.0588235 0.0588235 0.0588235 0.0588235 0.0588235 0.0588235 0.0588235 0.0588235;
   (close, orien_0, inclin_2, dist_1) 0.0588235 0.0588235 0.0588235 0.0588235 0.0588235 0.0588235 0.0588235 0.0588235 0.0588235 0.0588235 0.0588235 0.0588235 0.0588235 0.0588235 0.0588235 0.0588235 0.0588235;
   (far, orien_0, inclin_2, dist_1) 0.0588235 0.0588235 0.0588235 0.0588235 0.0588235 0.0588235 0.0588235 0.0588235 0.0588235 0.0588235 0.0588235 0.0588235 0.0588235 0.0588235 0.0588235 0.0588235 0.0588235;
   (left, orien_7, inclin_3, dist_1) 0.0588235 0.0588235 0.0588235 0.0588235 0.0588235 0.0588235 0.0588235 0.0588235 0.0588235 0.0588235 0.0588235 0.0588235 0.0588235 0.0588235 0.0588235 0.0588235 0.0588235;
   (right, orien_7, inclin_3, dist_1) 0.0588235 0.0588235 0.0588235 0.0588235 0.0588235 0.0588235 0.0588235 0.0588235 0.0588235 0.0588235 0.0588235 0.0588235 0.0588235 0.0588235 0.0588235 0.0588235 0.0588235;
   (close, orien_7, inclin_3, dist_1) 0.0588235 0.0588235 0.0588235 0.0588235 0.0588235 0.0588235 0.0588235 0.0588235 0.0588235 0.0588235 0.0588235 0.0588235 0.0588235 0.0588235 0.0588235 0.0588235 0.0588235;
   (far, orien_7, inclin_3, dist_1) 0.0588235 0.0588235 0.0588235 0.0588235 0.0588235 0.0588235 0.0588235 0.0588235 0.0588235 0.0588235 0.0588235 0.0588235 0.0588235 0.0588235 0.0588235 0.0588235 0.0588235;
   (left, orien_6, inclin_3, dist_1) 0.0588235 0.0588235 0.0588235 0.0588235 0.0588235 0.0588235 0.0588235 0.0588235 0.0588235 0.0588235 0.0588235 0.0588235 0.0588235 0.0588235 0.0588235 0.0588235 0.0588235;
   (right, orien_6, inclin_3, dist_1) 0.0588235 0.0588235 0.0588235 0.0588235 0.0588235 0.0588235 0.0588235 0.0588235 0.0588235 0.0588235 0.0588235 0.0588235 0.0588235 0.0588235 0.0588235 0.0588235 0.0588235;
   (close, orien_6, inclin_3, dist_1) 0.0588235 0.0588235 0.0588235 0.0588235 0.0588235 0.0588235 0.0588235 0.0588235 0.0588235 0.0588235 0.0588235 0.0588235 0.0588235 0.0588235 0.0588235 0.0588235 0.0588235;
   (far, orien_6, inclin_3, dist_1) 0.0588235 0.0588235 0.0588235 0.0588235 0.0588235 0.0588235 0.0588235 0.0588235 0.0588235 0.0588235 0.0588235 0.0588235 0.0588235 0.0588235 0.0588235 0.0588235 0.0588235;
   (left, orien_5, inclin_3, dist_1) 0.0588235 0.0588235 0.0588235 0.0588235 0.0588235 0.0588235 0.0588235 0.0588235 0.0588235 0.0588235 0.0588235 0.0588235 0.0588235 0.0588235 0.0588235 0.0588235 0.0588235;
   (right, orien_5, inclin_3, dist_1) 0.0588235 0.0588235 0.0588235 0.0588235 0.0588235 0.0588235 0.0588235 0.0588235 0.0588235 0.0588235 0.0588235 0.0588235 0.0588235 0.0588235 0.0588235 0.0588235 0.0588235;
   (close, orien_5, inclin_3, dist_1) 0.0588235 0.0588235 0.0588235 0.0588235 0.0588235 0.0588235 0.0588235 0.0588235 0.0588235 0.0588235 0.0588235 0.0588235 0.0588235 0.0588235 0.0588235 0.0588235 0.0588235;
   (far, orien_5, inclin_3, dist_1) 0.0588235 0.0588235 0.0588235 0.0588235 0.0588235 0.0588235 0.0588235 0.0588235 0.0588235 0.0588235 0.0588235 0.0588235 0.0588235 0.0588235 0.0588235 0.0588235 0.0588235;
   (left, orien_4, inclin_3, dist_1) 0.0588235 0.0588235 0.0588235 0.0588235 0.0588235 0.0588235 0.0588235 0.0588235 0.0588235 0.0588235 0.0588235 0.0588235 0.0588235 0.0588235 0.0588235 0.0588235 0.0588235;
   (right, orien_4, inclin_3, dist_1) 0.0588235 0.0588235 0.0588235 0.0588235 0.0588235 0.0588235 0.0588235 0.0588235 0.0588235 0.0588235 0.0588235 0.0588235 0.0588235 0.0588235 0.0588235 0.0588235 0.0588235;
   (close, orien_4, inclin_3, dist_1) 0.0588235 0.0588235 0.0588235 0.0588235 0.0588235 0.0588235 0.0588235 0.0588235 0.0588235 0.0588235 0.0588235 0.0588235 0.0588235 0.0588235 0.0588235 0.0588235 0.0588235;
   (far, orien_4, inclin_3, dist_1) 0.0588235 0.0588235 0.0588235 0.0588235 0.0588235 0.0588235 0.0588235 0.0588235 0.0588235 0.0588235 0.0588235 0.0588235 0.0588235 0.0588235 0.0588235 0.0588235 0.0588235;
   (left, orien_3, inclin_3, dist_1) 0.0588235 0.0588235 0.0588235 0.0588235 0.0588235 0.0588235 0.0588235 0.0588235 0.0588235 0.0588235 0.0588235 0.0588235 0.0588235 0.0588235 0.0588235 0.0588235 0.0588235;
   (right, orien_3, inclin_3, dist_1) 0.0588235 0.0588235 0.0588235 0.0588235 0.0588235 0.0588235 0.0588235 0.0588235 0.0588235 0.0588235 0.0588235 0.0588235 0.0588235 0.0588235 0.0588235 0.0588235 0.0588235;
   (close, orien_3, inclin_3, dist_1) 0.0588235 0.0588235 0.0588235 0.0588235 0.0588235 0.0588235 0.0588235 0.0588235 0.0588235 0.0588235 0.0588235 0.0588235 0.0588235 0.0588235 0.0588235 0.0588235 0.0588235;
   (far, orien_3, inclin_3, dist_1) 0.0588235 0.0588235 0.0588235 0.0588235 0.0588235 0.0588235 0.0588235 0.0588235 0.0588235 0.0588235 0.0588235 0.0588235 0.0588235 0.0588235 0.0588235 0.0588235 0.0588235;
   (left, orien_8, inclin_3, dist_1) 0.0588235 0.0588235 0.0588235 0.0588235 0.0588235 0.0588235 0.0588235 0.0588235 0.0588235 0.0588235 0.0588235 0.0588235 0.0588235 0.0588235 0.0588235 0.0588235 0.0588235;
   (right, orien_8, inclin_3, dist_1) 0.0588235 0.0588235 0.0588235 0.0588235 0.0588235 0.0588235 0.0588235 0.0588235 0.0588235 0.0588235 0.0588235 0.0588235 0.0588235 0.0588235 0.0588235 0.0588235 0.0588235;
   (close, orien_8, inclin_3, dist_1) 0.0588235 0.0588235 0.0588235 0.0588235 0.0588235 0.0588235 0.0588235 0.0588235 0.0588235 0.0588235 0.0588235 0.0588235 0.0588235 0.0588235 0.0588235 0.0588235 0.0588235;
   (far, orien_8, inclin_3, dist_1) 0.0588235 0.0588235 0.0588235 0.0588235 0.0588235 0.0588235 0.0588235 0.0588235 0.0588235 0.0588235 0.0588235 0.0588235 0.0588235 0.0588235 0.0588235 0.0588235 0.0588235;
   (left, orien_9, inclin_3, dist_1) 0.0588235 0.0588235 0.0588235 0.0588235 0.0588235 0.0588235 0.0588235 0.0588235 0.0588235 0.0588235 0.0588235 0.0588235 0.0588235 0.0588235 0.0588235 0.0588235 0.0588235;
   (right, orien_9, inclin_3, dist_1) 0.0588235 0.0588235 0.0588235 0.0588235 0.0588235 0.0588235 0.0588235 0.0588235 0.0588235 0.0588235 0.0588235 0.0588235 0.0588235 0.0588235 0.0588235 0.0588235 0.0588235;
   (close, orien_9, inclin_3, dist_1) 0.0588235 0.0588235 0.0588235 0.0588235 0.0588235 0.0588235 0.0588235 0.0588235 0.0588235 0.0588235 0.0588235 0.0588235 0.0588235 0.0588235 0.0588235 0.0588235 0.0588235;
   (far, orien_9, inclin_3, dist_1) 0.0588235 0.0588235 0.0588235 0.0588235 0.0588235 0.0588235 0.0588235 0.0588235 0.0588235 0.0588235 0.0588235 0.0588235 0.0588235 0.0588235 0.0588235 0.0588235 0.0588235;
   (left, orien_10, inclin_3, dist_1) 0.0588235 0.0588235 0.0588235 0.0588235 0.0588235 0.0588235 0.0588235 0.0588235 0.0588235 0.0588235 0.0588235 0.0588235 0.0588235 0.0588235 0.0588235 0.0588235 0.0588235;
