
network unnamedBN{
   property software aGrUM;
}

variable effect {
   type discrete[1] {right};
}

variable move {
   type discrete[6] {right_down, close_right, far, right, close_right_down, close};
}

variable distance0 {
   type discrete[10] {dist_7, dist_6, dist_5, dist_4, dist_3, dist_2, dist_1, dist_0, dist_8, dist_9};
}

variable orientation0 {
   type discrete[37] {orien_47, orien_48, orien_49, orien_50, orien_51, orien_52, orien_46, orien_43, orien_42, orien_44, orien_63, orien_11, orien_45, orien_41, orien_39, orien_17, orien_53, orien_26, orien_18, orien_15, orien_31, orien_54, orien_40, orien_19, orien_13, orien_10, orien_12, orien_36, orien_20, orien_23, orien_7, orien_55, orien_16, orien_4, orien_14, orien_21, orien_58};
}

variable inclination0 {
   type discrete[34] {inclin_26, inclin_27, inclin_28, inclin_29, inclin_31, inclin_32, inclin_33, inclin_41, inclin_35, inclin_30, inclin_34, inclin_36, inclin_39, inclin_48, inclin_52, inclin_40, inclin_23, inclin_25, inclin_37, inclin_63, inclin_24, inclin_38, inclin_0, inclin_44, inclin_51, inclin_16, inclin_55, inclin_45, inclin_54, inclin_57, inclin_43, inclin_46, inclin_42, inclin_19};
}

variable distance1 {
   type discrete[7] {dist_4, dist_3, dist_2, dist_1, dist_0, dist_5, dist_6};
}

variable orientation1 {
   type discrete[51] {orien_47, orien_50, orien_52, orien_56, orien_59, orien_62, orien_61, orien_57, orien_36, orien_33, orien_32, orien_30, orien_27, orien_22, orien_17, orien_14, orien_49, orien_60, orien_58, orien_31, orien_28, orien_24, orien_20, orien_16, orien_15, orien_54, orien_63, orien_34, orien_48, orien_51, orien_55, orien_0, orien_2, orien_29, orien_26, orien_18, orien_45, orien_46, orien_53, orien_37, orien_23, orien_1, orien_25, orien_21, orien_4, orien_19, orien_44, orien_3, orien_5, orien_35, orien_7};
}

variable inclination1 {
   type discrete[38] {inclin_24, inclin_25, inclin_26, inclin_29, inclin_32, inclin_37, inclin_38, inclin_40, inclin_39, inclin_42, inclin_53, inclin_49, inclin_36, inclin_35, inclin_34, inclin_27, inclin_30, inclin_41, inclin_43, inclin_33, inclin_28, inclin_48, inclin_52, inclin_31, inclin_44, inclin_19, inclin_21, inclin_23, inclin_47, inclin_50, inclin_22, inclin_46, inclin_20, inclin_56, inclin_45, inclin_54, inclin_51, inclin_55};
}

probability (effect | inclination1, inclination0) {
   (inclin_24, inclin_26) 1;
   (inclin_25, inclin_26) 1;
   (inclin_26, inclin_26) 1;
   (inclin_29, inclin_26) 1;
   (inclin_32, inclin_26) 1;
   (inclin_37, inclin_26) 1;
   (inclin_38, inclin_26) 1;
   (inclin_40, inclin_26) 1;
   (inclin_39, inclin_26) 1;
   (inclin_42, inclin_26) 1;
   (inclin_53, inclin_26) 1;
   (inclin_49, inclin_26) 1;
   (inclin_36, inclin_26) 1;
   (inclin_35, inclin_26) 1;
   (inclin_34, inclin_26) 1;
   (inclin_27, inclin_26) 1;
   (inclin_30, inclin_26) 1;
   (inclin_41, inclin_26) 1;
   (inclin_43, inclin_26) 1;
   (inclin_33, inclin_26) 1;
   (inclin_28, inclin_26) 1;
   (inclin_48, inclin_26) 1;
   (inclin_52, inclin_26) 1;
   (inclin_31, inclin_26) 1;
   (inclin_44, inclin_26) 1;
   (inclin_19, inclin_26) 1;
   (inclin_21, inclin_26) 1;
   (inclin_23, inclin_26) 1;
   (inclin_47, inclin_26) 1;
   (inclin_50, inclin_26) 1;
   (inclin_22, inclin_26) 1;
   (inclin_46, inclin_26) 1;
   (inclin_20, inclin_26) 1;
   (inclin_56, inclin_26) 1;
   (inclin_45, inclin_26) 1;
   (inclin_54, inclin_26) 1;
   (inclin_51, inclin_26) 1;
   (inclin_55, inclin_26) 1;
   (inclin_24, inclin_27) 1;
   (inclin_25, inclin_27) 1;
   (inclin_26, inclin_27) 1;
   (inclin_29, inclin_27) 1;
   (inclin_32, inclin_27) 1;
   (inclin_37, inclin_27) 1;
   (inclin_38, inclin_27) 1;
   (inclin_40, inclin_27) 1;
   (inclin_39, inclin_27) 1;
   (inclin_42, inclin_27) 1;
   (inclin_53, inclin_27) 1;
   (inclin_49, inclin_27) 1;
   (inclin_36, inclin_27) 1;
   (inclin_35, inclin_27) 1;
   (inclin_34, inclin_27) 1;
   (inclin_27, inclin_27) 1;
   (inclin_30, inclin_27) 1;
   (inclin_41, inclin_27) 1;
   (inclin_43, inclin_27) 1;
   (inclin_33, inclin_27) 1;
   (inclin_28, inclin_27) 1;
   (inclin_48, inclin_27) 1;
   (inclin_52, inclin_27) 1;
   (inclin_31, inclin_27) 1;
   (inclin_44, inclin_27) 1;
   (inclin_19, inclin_27) 1;
   (inclin_21, inclin_27) 1;
   (inclin_23, inclin_27) 1;
   (inclin_47, inclin_27) 1;
   (inclin_50, inclin_27) 1;
   (inclin_22, inclin_27) 1;
   (inclin_46, inclin_27) 1;
   (inclin_20, inclin_27) 1;
   (inclin_56, inclin_27) 1;
   (inclin_45, inclin_27) 1;
   (inclin_54, inclin_27) 1;
   (inclin_51, inclin_27) 1;
   (inclin_55, inclin_27) 1;
   (inclin_24, inclin_28) 1;
   (inclin_25, inclin_28) 1;
   (inclin_26, inclin_28) 1;
   (inclin_29, inclin_28) 1;
   (inclin_32, inclin_28) 1;
   (inclin_37, inclin_28) 1;
   (inclin_38, inclin_28) 1;
   (inclin_40, inclin_28) 1;
   (inclin_39, inclin_28) 1;
   (inclin_42, inclin_28) 1;
   (inclin_53, inclin_28) 1;
   (inclin_49, inclin_28) 1;
   (inclin_36, inclin_28) 1;
   (inclin_35, inclin_28) 1;
   (inclin_34, inclin_28) 1;
   (inclin_27, inclin_28) 1;
   (inclin_30, inclin_28) 1;
   (inclin_41, inclin_28) 1;
   (inclin_43, inclin_28) 1;
   (inclin_33, inclin_28) 1;
   (inclin_28, inclin_28) 1;
   (inclin_48, inclin_28) 1;
   (inclin_52, inclin_28) 1;
   (inclin_31, inclin_28) 1;
   (inclin_44, inclin_28) 1;
   (inclin_19, inclin_28) 1;
   (inclin_21, inclin_28) 1;
   (inclin_23, inclin_28) 1;
   (inclin_47, inclin_28) 1;
   (inclin_50, inclin_28) 1;
   (inclin_22, inclin_28) 1;
   (inclin_46, inclin_28) 1;
   (inclin_20, inclin_28) 1;
   (inclin_56, inclin_28) 1;
   (inclin_45, inclin_28) 1;
   (inclin_54, inclin_28) 1;
   (inclin_51, inclin_28) 1;
   (inclin_55, inclin_28) 1;
   (inclin_24, inclin_29) 1;
   (inclin_25, inclin_29) 1;
   (inclin_26, inclin_29) 1;
   (inclin_29, inclin_29) 1;
   (inclin_32, inclin_29) 1;
   (inclin_37, inclin_29) 1;
   (inclin_38, inclin_29) 1;
   (inclin_40, inclin_29) 1;
   (inclin_39, inclin_29) 1;
   (inclin_42, inclin_29) 1;
   (inclin_53, inclin_29) 1;
   (inclin_49, inclin_29) 1;
   (inclin_36, inclin_29) 1;
   (inclin_35, inclin_29) 1;
   (inclin_34, inclin_29) 1;
   (inclin_27, inclin_29) 1;
   (inclin_30, inclin_29) 1;
   (inclin_41, inclin_29) 1;
   (inclin_43, inclin_29) 1;
   (inclin_33, inclin_29) 1;
   (inclin_28, inclin_29) 1;
   (inclin_48, inclin_29) 1;
   (inclin_52, inclin_29) 1;
   (inclin_31, inclin_29) 1;
   (inclin_44, inclin_29) 1;
   (inclin_19, inclin_29) 1;
   (inclin_21, inclin_29) 1;
   (inclin_23, inclin_29) 1;
   (inclin_47, inclin_29) 1;
   (inclin_50, inclin_29) 1;
   (inclin_22, inclin_29) 1;
   (inclin_46, inclin_29) 1;
   (inclin_20, inclin_29) 1;
   (inclin_56, inclin_29) 1;
   (inclin_45, inclin_29) 1;
   (inclin_54, inclin_29) 1;
   (inclin_51, inclin_29) 1;
   (inclin_55, inclin_29) 1;
   (inclin_24, inclin_31) 1;
   (inclin_25, inclin_31) 1;
   (inclin_26, inclin_31) 1;
   (inclin_29, inclin_31) 1;
   (inclin_32, inclin_31) 1;
   (inclin_37, inclin_31) 1;
   (inclin_38, inclin_31) 1;
   (inclin_40, inclin_31) 1;
   (inclin_39, inclin_31) 1;
   (inclin_42, inclin_31) 1;
   (inclin_53, inclin_31) 1;
   (inclin_49, inclin_31) 1;
   (inclin_36, inclin_31) 1;
   (inclin_35, inclin_31) 1;
   (inclin_34, inclin_31) 1;
   (inclin_27, inclin_31) 1;
   (inclin_30, inclin_31) 1;
   (inclin_41, inclin_31) 1;
   (inclin_43, inclin_31) 1;
   (inclin_33, inclin_31) 1;
   (inclin_28, inclin_31) 1;
   (inclin_48, inclin_31) 1;
   (inclin_52, inclin_31) 1;
   (inclin_31, inclin_31) 1;
   (inclin_44, inclin_31) 1;
   (inclin_19, inclin_31) 1;
   (inclin_21, inclin_31) 1;
   (inclin_23, inclin_31) 1;
   (inclin_47, inclin_31) 1;
   (inclin_50, inclin_31) 1;
   (inclin_22, inclin_31) 1;
   (inclin_46, inclin_31) 1;
   (inclin_20, inclin_31) 1;
   (inclin_56, inclin_31) 1;
   (inclin_45, inclin_31) 1;
   (inclin_54, inclin_31) 1;
   (inclin_51, inclin_31) 1;
   (inclin_55, inclin_31) 1;
   (inclin_24, inclin_32) 1;
   (inclin_25, inclin_32) 1;
   (inclin_26, inclin_32) 1;
   (inclin_29, inclin_32) 1;
   (inclin_32, inclin_32) 1;
   (inclin_37, inclin_32) 1;
   (inclin_38, inclin_32) 1;
   (inclin_40, inclin_32) 1;
   (inclin_39, inclin_32) 1;
   (inclin_42, inclin_32) 1;
   (inclin_53, inclin_32) 1;
   (inclin_49, inclin_32) 1;
   (inclin_36, inclin_32) 1;
   (inclin_35, inclin_32) 1;
   (inclin_34, inclin_32) 1;
   (inclin_27, inclin_32) 1;
   (inclin_30, inclin_32) 1;
   (inclin_41, inclin_32) 1;
   (inclin_43, inclin_32) 1;
   (inclin_33, inclin_32) 1;
   (inclin_28, inclin_32) 1;
   (inclin_48, inclin_32) 1;
   (inclin_52, inclin_32) 1;
   (inclin_31, inclin_32) 1;
   (inclin_44, inclin_32) 1;
   (inclin_19, inclin_32) 1;
   (inclin_21, inclin_32) 1;
   (inclin_23, inclin_32) 1;
   (inclin_47, inclin_32) 1;
   (inclin_50, inclin_32) 1;
   (inclin_22, inclin_32) 1;
   (inclin_46, inclin_32) 1;
   (inclin_20, inclin_32) 1;
   (inclin_56, inclin_32) 1;
   (inclin_45, inclin_32) 1;
   (inclin_54, inclin_32) 1;
   (inclin_51, inclin_32) 1;
   (inclin_55, inclin_32) 1;
   (inclin_24, inclin_33) 1;
   (inclin_25, inclin_33) 1;
   (inclin_26, inclin_33) 1;
   (inclin_29, inclin_33) 1;
   (inclin_32, inclin_33) 1;
   (inclin_37, inclin_33) 1;
   (inclin_38, inclin_33) 1;
   (inclin_40, inclin_33) 1;
   (inclin_39, inclin_33) 1;
   (inclin_42, inclin_33) 1;
   (inclin_53, inclin_33) 1;
   (inclin_49, inclin_33) 1;
   (inclin_36, inclin_33) 1;
   (inclin_35, inclin_33) 1;
   (inclin_34, inclin_33) 1;
   (inclin_27, inclin_33) 1;
   (inclin_30, inclin_33) 1;
   (inclin_41, inclin_33) 1;
   (inclin_43, inclin_33) 1;
   (inclin_33, inclin_33) 1;
   (inclin_28, inclin_33) 1;
   (inclin_48, inclin_33) 1;
   (inclin_52, inclin_33) 1;
   (inclin_31, inclin_33) 1;
   (inclin_44, inclin_33) 1;
   (inclin_19, inclin_33) 1;
   (inclin_21, inclin_33) 1;
   (inclin_23, inclin_33) 1;
   (inclin_47, inclin_33) 1;
   (inclin_50, inclin_33) 1;
   (inclin_22, inclin_33) 1;
   (inclin_46, inclin_33) 1;
   (inclin_20, inclin_33) 1;
   (inclin_56, inclin_33) 1;
   (inclin_45, inclin_33) 1;
   (inclin_54, inclin_33) 1;
   (inclin_51, inclin_33) 1;
   (inclin_55, inclin_33) 1;
   (inclin_24, inclin_41) 1;
   (inclin_25, inclin_41) 1;
   (inclin_26, inclin_41) 1;
   (inclin_29, inclin_41) 1;
   (inclin_32, inclin_41) 1;
   (inclin_37, inclin_41) 1;
   (inclin_38, inclin_41) 1;
   (inclin_40, inclin_41) 1;
   (inclin_39, inclin_41) 1;
   (inclin_42, inclin_41) 1;
   (inclin_53, inclin_41) 1;
   (inclin_49, inclin_41) 1;
   (inclin_36, inclin_41) 1;
   (inclin_35, inclin_41) 1;
   (inclin_34, inclin_41) 1;
   (inclin_27, inclin_41) 1;
   (inclin_30, inclin_41) 1;
   (inclin_41, inclin_41) 1;
   (inclin_43, inclin_41) 1;
   (inclin_33, inclin_41) 1;
   (inclin_28, inclin_41) 1;
   (inclin_48, inclin_41) 1;
   (inclin_52, inclin_41) 1;
   (inclin_31, inclin_41) 1;
   (inclin_44, inclin_41) 1;
   (inclin_19, inclin_41) 1;
   (inclin_21, inclin_41) 1;
   (inclin_23, inclin_41) 1;
   (inclin_47, inclin_41) 1;
   (inclin_50, inclin_41) 1;
   (inclin_22, inclin_41) 1;
   (inclin_46, inclin_41) 1;
   (inclin_20, inclin_41) 1;
   (inclin_56, inclin_41) 1;
   (inclin_45, inclin_41) 1;
   (inclin_54, inclin_41) 1;
   (inclin_51, inclin_41) 1;
   (inclin_55, inclin_41) 1;
   (inclin_24, inclin_35) 1;
   (inclin_25, inclin_35) 1;
   (inclin_26, inclin_35) 1;
   (inclin_29, inclin_35) 1;
   (inclin_32, inclin_35) 1;
   (inclin_37, inclin_35) 1;
   (inclin_38, inclin_35) 1;
   (inclin_40, inclin_35) 1;
   (inclin_39, inclin_35) 1;
   (inclin_42, inclin_35) 1;
   (inclin_53, inclin_35) 1;
   (inclin_49, inclin_35) 1;
   (inclin_36, inclin_35) 1;
   (inclin_35, inclin_35) 1;
   (inclin_34, inclin_35) 1;
   (inclin_27, inclin_35) 1;
   (inclin_30, inclin_35) 1;
   (inclin_41, inclin_35) 1;
   (inclin_43, inclin_35) 1;
   (inclin_33, inclin_35) 1;
   (inclin_28, inclin_35) 1;
   (inclin_48, inclin_35) 1;
   (inclin_52, inclin_35) 1;
   (inclin_31, inclin_35) 1;
   (inclin_44, inclin_35) 1;
   (inclin_19, inclin_35) 1;
   (inclin_21, inclin_35) 1;
   (inclin_23, inclin_35) 1;
   (inclin_47, inclin_35) 1;
   (inclin_50, inclin_35) 1;
   (inclin_22, inclin_35) 1;
   (inclin_46, inclin_35) 1;
   (inclin_20, inclin_35) 1;
   (inclin_56, inclin_35) 1;
   (inclin_45, inclin_35) 1;
   (inclin_54, inclin_35) 1;
   (inclin_51, inclin_35) 1;
   (inclin_55, inclin_35) 1;
   (inclin_24, inclin_30) 1;
   (inclin_25, inclin_30) 1;
   (inclin_26, inclin_30) 1;
   (inclin_29, inclin_30) 1;
   (inclin_32, inclin_30) 1;
   (inclin_37, inclin_30) 1;
   (inclin_38, inclin_30) 1;
   (inclin_40, inclin_30) 1;
   (inclin_39, inclin_30) 1;
   (inclin_42, inclin_30) 1;
   (inclin_53, inclin_30) 1;
   (inclin_49, inclin_30) 1;
   (inclin_36, inclin_30) 1;
   (inclin_35, inclin_30) 1;
   (inclin_34, inclin_30) 1;
   (inclin_27, inclin_30) 1;
   (inclin_30, inclin_30) 1;
   (inclin_41, inclin_30) 1;
   (inclin_43, inclin_30) 1;
   (inclin_33, inclin_30) 1;
   (inclin_28, inclin_30) 1;
   (inclin_48, inclin_30) 1;
   (inclin_52, inclin_30) 1;
   (inclin_31, inclin_30) 1;
   (inclin_44, inclin_30) 1;
   (inclin_19, inclin_30) 1;
   (inclin_21, inclin_30) 1;
   (inclin_23, inclin_30) 1;
   (inclin_47, inclin_30) 1;
   (inclin_50, inclin_30) 1;
   (inclin_22, inclin_30) 1;
   (inclin_46, inclin_30) 1;
   (inclin_20, inclin_30) 1;
   (inclin_56, inclin_30) 1;
   (inclin_45, inclin_30) 1;
   (inclin_54, inclin_30) 1;
   (inclin_51, inclin_30) 1;
   (inclin_55, inclin_30) 1;
   (inclin_24, inclin_34) 1;
   (inclin_25, inclin_34) 1;
   (inclin_26, inclin_34) 1;
   (inclin_29, inclin_34) 1;
   (inclin_32, inclin_34) 1;
   (inclin_37, inclin_34) 1;
   (inclin_38, inclin_34) 1;
   (inclin_40, inclin_34) 1;
   (inclin_39, inclin_34) 1;
   (inclin_42, inclin_34) 1;
   (inclin_53, inclin_34) 1;
   (inclin_49, inclin_34) 1;
   (inclin_36, inclin_34) 1;
   (inclin_35, inclin_34) 1;
   (inclin_34, inclin_34) 1;
   (inclin_27, inclin_34) 1;
   (inclin_30, inclin_34) 1;
   (inclin_41, inclin_34) 1;
   (inclin_43, inclin_34) 1;
   (inclin_33, inclin_34) 1;
   (inclin_28, inclin_34) 1;
   (inclin_48, inclin_34) 1;
   (inclin_52, inclin_34) 1;
   (inclin_31, inclin_34) 1;
   (inclin_44, inclin_34) 1;
   (inclin_19, inclin_34) 1;
   (inclin_21, inclin_34) 1;
   (inclin_23, inclin_34) 1;
   (inclin_47, inclin_34) 1;
   (inclin_50, inclin_34) 1;
   (inclin_22, inclin_34) 1;
   (inclin_46, inclin_34) 1;
   (inclin_20, inclin_34) 1;
   (inclin_56, inclin_34) 1;
   (inclin_45, inclin_34) 1;
   (inclin_54, inclin_34) 1;
   (inclin_51, inclin_34) 1;
   (inclin_55, inclin_34) 1;
   (inclin_24, inclin_36) 1;
   (inclin_25, inclin_36) 1;
   (inclin_26, inclin_36) 1;
   (inclin_29, inclin_36) 1;
   (inclin_32, inclin_36) 1;
   (inclin_37, inclin_36) 1;
   (inclin_38, inclin_36) 1;
   (inclin_40, inclin_36) 1;
   (inclin_39, inclin_36) 1;
   (inclin_42, inclin_36) 1;
   (inclin_53, inclin_36) 1;
   (inclin_49, inclin_36) 1;
   (inclin_36, inclin_36) 1;
   (inclin_35, inclin_36) 1;
   (inclin_34, inclin_36) 1;
   (inclin_27, inclin_36) 1;
   (inclin_30, inclin_36) 1;
   (inclin_41, inclin_36) 1;
   (inclin_43, inclin_36) 1;
   (inclin_33, inclin_36) 1;
   (inclin_28, inclin_36) 1;
   (inclin_48, inclin_36) 1;
   (inclin_52, inclin_36) 1;
   (inclin_31, inclin_36) 1;
   (inclin_44, inclin_36) 1;
   (inclin_19, inclin_36) 1;
   (inclin_21, inclin_36) 1;
   (inclin_23, inclin_36) 1;
   (inclin_47, inclin_36) 1;
   (inclin_50, inclin_36) 1;
   (inclin_22, inclin_36) 1;
   (inclin_46, inclin_36) 1;
   (inclin_20, inclin_36) 1;
   (inclin_56, inclin_36) 1;
   (inclin_45, inclin_36) 1;
   (inclin_54, inclin_36) 1;
   (inclin_51, inclin_36) 1;
   (inclin_55, inclin_36) 1;
   (inclin_24, inclin_39) 1;
   (inclin_25, inclin_39) 1;
   (inclin_26, inclin_39) 1;
   (inclin_29, inclin_39) 1;
   (inclin_32, inclin_39) 1;
   (inclin_37, inclin_39) 1;
   (inclin_38, inclin_39) 1;
   (inclin_40, inclin_39) 1;
   (inclin_39, inclin_39) 1;
   (inclin_42, inclin_39) 1;
   (inclin_53, inclin_39) 1;
   (inclin_49, inclin_39) 1;
   (inclin_36, inclin_39) 1;
   (inclin_35, inclin_39) 1;
   (inclin_34, inclin_39) 1;
   (inclin_27, inclin_39) 1;
   (inclin_30, inclin_39) 1;
   (inclin_41, inclin_39) 1;
   (inclin_43, inclin_39) 1;
   (inclin_33, inclin_39) 1;
   (inclin_28, inclin_39) 1;
   (inclin_48, inclin_39) 1;
   (inclin_52, inclin_39) 1;
   (inclin_31, inclin_39) 1;
   (inclin_44, inclin_39) 1;
   (inclin_19, inclin_39) 1;
   (inclin_21, inclin_39) 1;
   (inclin_23, inclin_39) 1;
   (inclin_47, inclin_39) 1;
   (inclin_50, inclin_39) 1;
   (inclin_22, inclin_39) 1;
   (inclin_46, inclin_39) 1;
   (inclin_20, inclin_39) 1;
   (inclin_56, inclin_39) 1;
   (inclin_45, inclin_39) 1;
   (inclin_54, inclin_39) 1;
   (inclin_51, inclin_39) 1;
   (inclin_55, inclin_39) 1;
   (inclin_24, inclin_48) 1;
   (inclin_25, inclin_48) 1;
   (inclin_26, inclin_48) 1;
   (inclin_29, inclin_48) 1;
   (inclin_32, inclin_48) 1;
   (inclin_37, inclin_48) 1;
   (inclin_38, inclin_48) 1;
   (inclin_40, inclin_48) 1;
   (inclin_39, inclin_48) 1;
   (inclin_42, inclin_48) 1;
   (inclin_53, inclin_48) 1;
   (inclin_49, inclin_48) 1;
   (inclin_36, inclin_48) 1;
   (inclin_35, inclin_48) 1;
   (inclin_34, inclin_48) 1;
   (inclin_27, inclin_48) 1;
   (inclin_30, inclin_48) 1;
   (inclin_41, inclin_48) 1;
   (inclin_43, inclin_48) 1;
   (inclin_33, inclin_48) 1;
   (inclin_28, inclin_48) 1;
   (inclin_48, inclin_48) 1;
   (inclin_52, inclin_48) 1;
   (inclin_31, inclin_48) 1;
   (inclin_44, inclin_48) 1;
   (inclin_19, inclin_48) 1;
   (inclin_21, inclin_48) 1;
   (inclin_23, inclin_48) 1;
   (inclin_47, inclin_48) 1;
   (inclin_50, inclin_48) 1;
   (inclin_22, inclin_48) 1;
   (inclin_46, inclin_48) 1;
   (inclin_20, inclin_48) 1;
   (inclin_56, inclin_48) 1;
   (inclin_45, inclin_48) 1;
   (inclin_54, inclin_48) 1;
   (inclin_51, inclin_48) 1;
   (inclin_55, inclin_48) 1;
   (inclin_24, inclin_52) 1;
   (inclin_25, inclin_52) 1;
   (inclin_26, inclin_52) 1;
   (inclin_29, inclin_52) 1;
   (inclin_32, inclin_52) 1;
   (inclin_37, inclin_52) 1;
   (inclin_38, inclin_52) 1;
   (inclin_40, inclin_52) 1;
   (inclin_39, inclin_52) 1;
   (inclin_42, inclin_52) 1;
   (inclin_53, inclin_52) 1;
   (inclin_49, inclin_52) 1;
   (inclin_36, inclin_52) 1;
   (inclin_35, inclin_52) 1;
   (inclin_34, inclin_52) 1;
   (inclin_27, inclin_52) 1;
   (inclin_30, inclin_52) 1;
   (inclin_41, inclin_52) 1;
   (inclin_43, inclin_52) 1;
   (inclin_33, inclin_52) 1;
   (inclin_28, inclin_52) 1;
   (inclin_48, inclin_52) 1;
   (inclin_52, inclin_52) 1;
   (inclin_31, inclin_52) 1;
   (inclin_44, inclin_52) 1;
   (inclin_19, inclin_52) 1;
   (inclin_21, inclin_52) 1;
   (inclin_23, inclin_52) 1;
   (inclin_47, inclin_52) 1;
   (inclin_50, inclin_52) 1;
   (inclin_22, inclin_52) 1;
   (inclin_46, inclin_52) 1;
   (inclin_20, inclin_52) 1;
   (inclin_56, inclin_52) 1;
   (inclin_45, inclin_52) 1;
   (inclin_54, inclin_52) 1;
   (inclin_51, inclin_52) 1;
   (inclin_55, inclin_52) 1;
   (inclin_24, inclin_40) 1;
   (inclin_25, inclin_40) 1;
   (inclin_26, inclin_40) 1;
   (inclin_29, inclin_40) 1;
   (inclin_32, inclin_40) 1;
   (inclin_37, inclin_40) 1;
   (inclin_38, inclin_40) 1;
   (inclin_40, inclin_40) 1;
   (inclin_39, inclin_40) 1;
   (inclin_42, inclin_40) 1;
   (inclin_53, inclin_40) 1;
   (inclin_49, inclin_40) 1;
   (inclin_36, inclin_40) 1;
   (inclin_35, inclin_40) 1;
   (inclin_34, inclin_40) 1;
   (inclin_27, inclin_40) 1;
   (inclin_30, inclin_40) 1;
   (inclin_41, inclin_40) 1;
   (inclin_43, inclin_40) 1;
   (inclin_33, inclin_40) 1;
   (inclin_28, inclin_40) 1;
   (inclin_48, inclin_40) 1;
   (inclin_52, inclin_40) 1;
   (inclin_31, inclin_40) 1;
   (inclin_44, inclin_40) 1;
   (inclin_19, inclin_40) 1;
   (inclin_21, inclin_40) 1;
   (inclin_23, inclin_40) 1;
   (inclin_47, inclin_40) 1;
   (inclin_50, inclin_40) 1;
   (inclin_22, inclin_40) 1;
   (inclin_46, inclin_40) 1;
   (inclin_20, inclin_40) 1;
   (inclin_56, inclin_40) 1;
   (inclin_45, inclin_40) 1;
   (inclin_54, inclin_40) 1;
   (inclin_51, inclin_40) 1;
   (inclin_55, inclin_40) 1;
   (inclin_24, inclin_23) 1;
   (inclin_25, inclin_23) 1;
   (inclin_26, inclin_23) 1;
   (inclin_29, inclin_23) 1;
   (inclin_32, inclin_23) 1;
   (inclin_37, inclin_23) 1;
   (inclin_38, inclin_23) 1;
   (inclin_40, inclin_23) 1;
   (inclin_39, inclin_23) 1;
   (inclin_42, inclin_23) 1;
   (inclin_53, inclin_23) 1;
   (inclin_49, inclin_23) 1;
   (inclin_36, inclin_23) 1;
   (inclin_35, inclin_23) 1;
   (inclin_34, inclin_23) 1;
   (inclin_27, inclin_23) 1;
   (inclin_30, inclin_23) 1;
   (inclin_41, inclin_23) 1;
   (inclin_43, inclin_23) 1;
   (inclin_33, inclin_23) 1;
   (inclin_28, inclin_23) 1;
   (inclin_48, inclin_23) 1;
   (inclin_52, inclin_23) 1;
   (inclin_31, inclin_23) 1;
   (inclin_44, inclin_23) 1;
   (inclin_19, inclin_23) 1;
   (inclin_21, inclin_23) 1;
   (inclin_23, inclin_23) 1;
   (inclin_47, inclin_23) 1;
   (inclin_50, inclin_23) 1;
   (inclin_22, inclin_23) 1;
   (inclin_46, inclin_23) 1;
   (inclin_20, inclin_23) 1;
   (inclin_56, inclin_23) 1;
   (inclin_45, inclin_23) 1;
   (inclin_54, inclin_23) 1;
   (inclin_51, inclin_23) 1;
   (inclin_55, inclin_23) 1;
   (inclin_24, inclin_25) 1;
   (inclin_25, inclin_25) 1;
   (inclin_26, inclin_25) 1;
   (inclin_29, inclin_25) 1;
   (inclin_32, inclin_25) 1;
   (inclin_37, inclin_25) 1;
   (inclin_38, inclin_25) 1;
   (inclin_40, inclin_25) 1;
   (inclin_39, inclin_25) 1;
   (inclin_42, inclin_25) 1;
   (inclin_53, inclin_25) 1;
   (inclin_49, inclin_25) 1;
   (inclin_36, inclin_25) 1;
   (inclin_35, inclin_25) 1;
   (inclin_34, inclin_25) 1;
   (inclin_27, inclin_25) 1;
   (inclin_30, inclin_25) 1;
   (inclin_41, inclin_25) 1;
   (inclin_43, inclin_25) 1;
   (inclin_33, inclin_25) 1;
   (inclin_28, inclin_25) 1;
   (inclin_48, inclin_25) 1;
   (inclin_52, inclin_25) 1;
   (inclin_31, inclin_25) 1;
   (inclin_44, inclin_25) 1;
   (inclin_19, inclin_25) 1;
   (inclin_21, inclin_25) 1;
   (inclin_23, inclin_25) 1;
   (inclin_47, inclin_25) 1;
   (inclin_50, inclin_25) 1;
   (inclin_22, inclin_25) 1;
   (inclin_46, inclin_25) 1;
   (inclin_20, inclin_25) 1;
   (inclin_56, inclin_25) 1;
   (inclin_45, inclin_25) 1;
   (inclin_54, inclin_25) 1;
   (inclin_51, inclin_25) 1;
   (inclin_55, inclin_25) 1;
   (inclin_24, inclin_37) 1;
   (inclin_25, inclin_37) 1;
   (inclin_26, inclin_37) 1;
   (inclin_29, inclin_37) 1;
   (inclin_32, inclin_37) 1;
   (inclin_37, inclin_37) 1;
   (inclin_38, inclin_37) 1;
   (inclin_40, inclin_37) 1;
   (inclin_39, inclin_37) 1;
   (inclin_42, inclin_37) 1;
   (inclin_53, inclin_37) 1;
   (inclin_49, inclin_37) 1;
   (inclin_36, inclin_37) 1;
   (inclin_35, inclin_37) 1;
   (inclin_34, inclin_37) 1;
   (inclin_27, inclin_37) 1;
   (inclin_30, inclin_37) 1;
   (inclin_41, inclin_37) 1;
   (inclin_43, inclin_37) 1;
   (inclin_33, inclin_37) 1;
   (inclin_28, inclin_37) 1;
   (inclin_48, inclin_37) 1;
   (inclin_52, inclin_37) 1;
   (inclin_31, inclin_37) 1;
   (inclin_44, inclin_37) 1;
   (inclin_19, inclin_37) 1;
   (inclin_21, inclin_37) 1;
   (inclin_23, inclin_37) 1;
   (inclin_47, inclin_37) 1;
   (inclin_50, inclin_37) 1;
   (inclin_22, inclin_37) 1;
   (inclin_46, inclin_37) 1;
   (inclin_20, inclin_37) 1;
   (inclin_56, inclin_37) 1;
   (inclin_45, inclin_37) 1;
   (inclin_54, inclin_37) 1;
   (inclin_51, inclin_37) 1;
   (inclin_55, inclin_37) 1;
   (inclin_24, inclin_63) 1;
   (inclin_25, inclin_63) 1;
   (inclin_26, inclin_63) 1;
   (inclin_29, inclin_63) 1;
   (inclin_32, inclin_63) 1;
   (inclin_37, inclin_63) 1;
   (inclin_38, inclin_63) 1;
   (inclin_40, inclin_63) 1;
   (inclin_39, inclin_63) 1;
   (inclin_42, inclin_63) 1;
   (inclin_53, inclin_63) 1;
   (inclin_49, inclin_63) 1;
   (inclin_36, inclin_63) 1;
   (inclin_35, inclin_63) 1;
   (inclin_34, inclin_63) 1;
   (inclin_27, inclin_63) 1;
   (inclin_30, inclin_63) 1;
   (inclin_41, inclin_63) 1;
   (inclin_43, inclin_63) 1;
   (inclin_33, inclin_63) 1;
   (inclin_28, inclin_63) 1;
   (inclin_48, inclin_63) 1;
   (inclin_52, inclin_63) 1;
   (inclin_31, inclin_63) 1;
   (inclin_44, inclin_63) 1;
   (inclin_19, inclin_63) 1;
   (inclin_21, inclin_63) 1;
   (inclin_23, inclin_63) 1;
   (inclin_47, inclin_63) 1;
   (inclin_50, inclin_63) 1;
   (inclin_22, inclin_63) 1;
   (inclin_46, inclin_63) 1;
   (inclin_20, inclin_63) 1;
   (inclin_56, inclin_63) 1;
   (inclin_45, inclin_63) 1;
   (inclin_54, inclin_63) 1;
   (inclin_51, inclin_63) 1;
   (inclin_55, inclin_63) 1;
   (inclin_24, inclin_24) 1;
   (inclin_25, inclin_24) 1;
   (inclin_26, inclin_24) 1;
   (inclin_29, inclin_24) 1;
   (inclin_32, inclin_24) 1;
   (inclin_37, inclin_24) 1;
   (inclin_38, inclin_24) 1;
   (inclin_40, inclin_24) 1;
   (inclin_39, inclin_24) 1;
   (inclin_42, inclin_24) 1;
   (inclin_53, inclin_24) 1;
   (inclin_49, inclin_24) 1;
   (inclin_36, inclin_24) 1;
   (inclin_35, inclin_24) 1;
   (inclin_34, inclin_24) 1;
   (inclin_27, inclin_24) 1;
   (inclin_30, inclin_24) 1;
   (inclin_41, inclin_24) 1;
   (inclin_43, inclin_24) 1;
   (inclin_33, inclin_24) 1;
   (inclin_28, inclin_24) 1;
   (inclin_48, inclin_24) 1;
   (inclin_52, inclin_24) 1;
   (inclin_31, inclin_24) 1;
   (inclin_44, inclin_24) 1;
   (inclin_19, inclin_24) 1;
   (inclin_21, inclin_24) 1;
   (inclin_23, inclin_24) 1;
   (inclin_47, inclin_24) 1;
   (inclin_50, inclin_24) 1;
   (inclin_22, inclin_24) 1;
   (inclin_46, inclin_24) 1;
   (inclin_20, inclin_24) 1;
   (inclin_56, inclin_24) 1;
   (inclin_45, inclin_24) 1;
   (inclin_54, inclin_24) 1;
   (inclin_51, inclin_24) 1;
   (inclin_55, inclin_24) 1;
   (inclin_24, inclin_38) 1;
   (inclin_25, inclin_38) 1;
   (inclin_26, inclin_38) 1;
   (inclin_29, inclin_38) 1;
   (inclin_32, inclin_38) 1;
   (inclin_37, inclin_38) 1;
   (inclin_38, inclin_38) 1;
   (inclin_40, inclin_38) 1;
   (inclin_39, inclin_38) 1;
   (inclin_42, inclin_38) 1;
   (inclin_53, inclin_38) 1;
   (inclin_49, inclin_38) 1;
   (inclin_36, inclin_38) 1;
   (inclin_35, inclin_38) 1;
   (inclin_34, inclin_38) 1;
   (inclin_27, inclin_38) 1;
   (inclin_30, inclin_38) 1;
   (inclin_41, inclin_38) 1;
   (inclin_43, inclin_38) 1;
   (inclin_33, inclin_38) 1;
   (inclin_28, inclin_38) 1;
   (inclin_48, inclin_38) 1;
   (inclin_52, inclin_38) 1;
   (inclin_31, inclin_38) 1;
   (inclin_44, inclin_38) 1;
   (inclin_19, inclin_38) 1;
   (inclin_21, inclin_38) 1;
   (inclin_23, inclin_38) 1;
   (inclin_47, inclin_38) 1;
   (inclin_50, inclin_38) 1;
   (inclin_22, inclin_38) 1;
   (inclin_46, inclin_38) 1;
   (inclin_20, inclin_38) 1;
   (inclin_56, inclin_38) 1;
   (inclin_45, inclin_38) 1;
   (inclin_54, inclin_38) 1;
   (inclin_51, inclin_38) 1;
   (inclin_55, inclin_38) 1;
   (inclin_24, inclin_0) 1;
   (inclin_25, inclin_0) 1;
   (inclin_26, inclin_0) 1;
   (inclin_29, inclin_0) 1;
   (inclin_32, inclin_0) 1;
   (inclin_37, inclin_0) 1;
   (inclin_38, inclin_0) 1;
   (inclin_40, inclin_0) 1;
   (inclin_39, inclin_0) 1;
   (inclin_42, inclin_0) 1;
   (inclin_53, inclin_0) 1;
   (inclin_49, inclin_0) 1;
   (inclin_36, inclin_0) 1;
   (inclin_35, inclin_0) 1;
   (inclin_34, inclin_0) 1;
   (inclin_27, inclin_0) 1;
   (inclin_30, inclin_0) 1;
   (inclin_41, inclin_0) 1;
   (inclin_43, inclin_0) 1;
   (inclin_33, inclin_0) 1;
   (inclin_28, inclin_0) 1;
   (inclin_48, inclin_0) 1;
   (inclin_52, inclin_0) 1;
   (inclin_31, inclin_0) 1;
   (inclin_44, inclin_0) 1;
   (inclin_19, inclin_0) 1;
   (inclin_21, inclin_0) 1;
   (inclin_23, inclin_0) 1;
   (inclin_47, inclin_0) 1;
   (inclin_50, inclin_0) 1;
   (inclin_22, inclin_0) 1;
   (inclin_46, inclin_0) 1;
   (inclin_20, inclin_0) 1;
   (inclin_56, inclin_0) 1;
   (inclin_45, inclin_0) 1;
   (inclin_54, inclin_0) 1;
   (inclin_51, inclin_0) 1;
   (inclin_55, inclin_0) 1;
   (inclin_24, inclin_44) 1;
   (inclin_25, inclin_44) 1;
   (inclin_26, inclin_44) 1;
   (inclin_29, inclin_44) 1;
   (inclin_32, inclin_44) 1;
   (inclin_37, inclin_44) 1;
   (inclin_38, inclin_44) 1;
   (inclin_40, inclin_44) 1;
   (inclin_39, inclin_44) 1;
   (inclin_42, inclin_44) 1;
   (inclin_53, inclin_44) 1;
   (inclin_49, inclin_44) 1;
   (inclin_36, inclin_44) 1;
   (inclin_35, inclin_44) 1;
   (inclin_34, inclin_44) 1;
   (inclin_27, inclin_44) 1;
   (inclin_30, inclin_44) 1;
   (inclin_41, inclin_44) 1;
   (inclin_43, inclin_44) 1;
   (inclin_33, inclin_44) 1;
   (inclin_28, inclin_44) 1;
   (inclin_48, inclin_44) 1;
   (inclin_52, inclin_44) 1;
   (inclin_31, inclin_44) 1;
   (inclin_44, inclin_44) 1;
   (inclin_19, inclin_44) 1;
   (inclin_21, inclin_44) 1;
   (inclin_23, inclin_44) 1;
   (inclin_47, inclin_44) 1;
   (inclin_50, inclin_44) 1;
   (inclin_22, inclin_44) 1;
   (inclin_46, inclin_44) 1;
   (inclin_20, inclin_44) 1;
   (inclin_56, inclin_44) 1;
   (inclin_45, inclin_44) 1;
   (inclin_54, inclin_44) 1;
   (inclin_51, inclin_44) 1;
   (inclin_55, inclin_44) 1;
   (inclin_24, inclin_51) 1;
   (inclin_25, inclin_51) 1;
   (inclin_26, inclin_51) 1;
   (inclin_29, inclin_51) 1;
   (inclin_32, inclin_51) 1;
   (inclin_37, inclin_51) 1;
   (inclin_38, inclin_51) 1;
   (inclin_40, inclin_51) 1;
   (inclin_39, inclin_51) 1;
   (inclin_42, inclin_51) 1;
   (inclin_53, inclin_51) 1;
   (inclin_49, inclin_51) 1;
   (inclin_36, inclin_51) 1;
   (inclin_35, inclin_51) 1;
   (inclin_34, inclin_51) 1;
   (inclin_27, inclin_51) 1;
   (inclin_30, inclin_51) 1;
   (inclin_41, inclin_51) 1;
   (inclin_43, inclin_51) 1;
   (inclin_33, inclin_51) 1;
   (inclin_28, inclin_51) 1;
   (inclin_48, inclin_51) 1;
   (inclin_52, inclin_51) 1;
   (inclin_31, inclin_51) 1;
   (inclin_44, inclin_51) 1;
   (inclin_19, inclin_51) 1;
   (inclin_21, inclin_51) 1;
   (inclin_23, inclin_51) 1;
   (inclin_47, inclin_51) 1;
   (inclin_50, inclin_51) 1;
   (inclin_22, inclin_51) 1;
   (inclin_46, inclin_51) 1;
   (inclin_20, inclin_51) 1;
   (inclin_56, inclin_51) 1;
   (inclin_45, inclin_51) 1;
   (inclin_54, inclin_51) 1;
   (inclin_51, inclin_51) 1;
   (inclin_55, inclin_51) 1;
   (inclin_24, inclin_16) 1;
   (inclin_25, inclin_16) 1;
   (inclin_26, inclin_16) 1;
   (inclin_29, inclin_16) 1;
   (inclin_32, inclin_16) 1;
   (inclin_37, inclin_16) 1;
   (inclin_38, inclin_16) 1;
   (inclin_40, inclin_16) 1;
   (inclin_39, inclin_16) 1;
   (inclin_42, inclin_16) 1;
   (inclin_53, inclin_16) 1;
   (inclin_49, inclin_16) 1;
   (inclin_36, inclin_16) 1;
   (inclin_35, inclin_16) 1;
   (inclin_34, inclin_16) 1;
   (inclin_27, inclin_16) 1;
   (inclin_30, inclin_16) 1;
   (inclin_41, inclin_16) 1;
   (inclin_43, inclin_16) 1;
   (inclin_33, inclin_16) 1;
   (inclin_28, inclin_16) 1;
   (inclin_48, inclin_16) 1;
   (inclin_52, inclin_16) 1;
   (inclin_31, inclin_16) 1;
   (inclin_44, inclin_16) 1;
   (inclin_19, inclin_16) 1;
   (inclin_21, inclin_16) 1;
   (inclin_23, inclin_16) 1;
   (inclin_47, inclin_16) 1;
   (inclin_50, inclin_16) 1;
   (inclin_22, inclin_16) 1;
   (inclin_46, inclin_16) 1;
   (inclin_20, inclin_16) 1;
   (inclin_56, inclin_16) 1;
   (inclin_45, inclin_16) 1;
   (inclin_54, inclin_16) 1;
   (inclin_51, inclin_16) 1;
   (inclin_55, inclin_16) 1;
   (inclin_24, inclin_55) 1;
   (inclin_25, inclin_55) 1;
   (inclin_26, inclin_55) 1;
   (inclin_29, inclin_55) 1;
   (inclin_32, inclin_55) 1;
   (inclin_37, inclin_55) 1;
   (inclin_38, inclin_55) 1;
   (inclin_40, inclin_55) 1;
   (inclin_39, inclin_55) 1;
   (inclin_42, inclin_55) 1;
   (inclin_53, inclin_55) 1;
   (inclin_49, inclin_55) 1;
   (inclin_36, inclin_55) 1;
   (inclin_35, inclin_55) 1;
   (inclin_34, inclin_55) 1;
   (inclin_27, inclin_55) 1;
   (inclin_30, inclin_55) 1;
   (inclin_41, inclin_55) 1;
   (inclin_43, inclin_55) 1;
   (inclin_33, inclin_55) 1;
   (inclin_28, inclin_55) 1;
   (inclin_48, inclin_55) 1;
   (inclin_52, inclin_55) 1;
   (inclin_31, inclin_55) 1;
   (inclin_44, inclin_55) 1;
   (inclin_19, inclin_55) 1;
   (inclin_21, inclin_55) 1;
   (inclin_23, inclin_55) 1;
   (inclin_47, inclin_55) 1;
   (inclin_50, inclin_55) 1;
   (inclin_22, inclin_55) 1;
   (inclin_46, inclin_55) 1;
   (inclin_20, inclin_55) 1;
   (inclin_56, inclin_55) 1;
   (inclin_45, inclin_55) 1;
   (inclin_54, inclin_55) 1;
   (inclin_51, inclin_55) 1;
   (inclin_55, inclin_55) 1;
   (inclin_24, inclin_45) 1;
   (inclin_25, inclin_45) 1;
   (inclin_26, inclin_45) 1;
   (inclin_29, inclin_45) 1;
   (inclin_32, inclin_45) 1;
   (inclin_37, inclin_45) 1;
   (inclin_38, inclin_45) 1;
   (inclin_40, inclin_45) 1;
   (inclin_39, inclin_45) 1;
   (inclin_42, inclin_45) 1;
   (inclin_53, inclin_45) 1;
   (inclin_49, inclin_45) 1;
   (inclin_36, inclin_45) 1;
   (inclin_35, inclin_45) 1;
   (inclin_34, inclin_45) 1;
   (inclin_27, inclin_45) 1;
   (inclin_30, inclin_45) 1;
   (inclin_41, inclin_45) 1;
   (inclin_43, inclin_45) 1;
   (inclin_33, inclin_45) 1;
   (inclin_28, inclin_45) 1;
   (inclin_48, inclin_45) 1;
   (inclin_52, inclin_45) 1;
   (inclin_31, inclin_45) 1;
   (inclin_44, inclin_45) 1;
   (inclin_19, inclin_45) 1;
   (inclin_21, inclin_45) 1;
   (inclin_23, inclin_45) 1;
   (inclin_47, inclin_45) 1;
   (inclin_50, inclin_45) 1;
   (inclin_22, inclin_45) 1;
   (inclin_46, inclin_45) 1;
   (inclin_20, inclin_45) 1;
   (inclin_56, inclin_45) 1;
   (inclin_45, inclin_45) 1;
   (inclin_54, inclin_45) 1;
   (inclin_51, inclin_45) 1;
   (inclin_55, inclin_45) 1;
   (inclin_24, inclin_54) 1;
   (inclin_25, inclin_54) 1;
   (inclin_26, inclin_54) 1;
   (inclin_29, inclin_54) 1;
   (inclin_32, inclin_54) 1;
   (inclin_37, inclin_54) 1;
   (inclin_38, inclin_54) 1;
   (inclin_40, inclin_54) 1;
   (inclin_39, inclin_54) 1;
   (inclin_42, inclin_54) 1;
   (inclin_53, inclin_54) 1;
   (inclin_49, inclin_54) 1;
   (inclin_36, inclin_54) 1;
   (inclin_35, inclin_54) 1;
   (inclin_34, inclin_54) 1;
   (inclin_27, inclin_54) 1;
   (inclin_30, inclin_54) 1;
   (inclin_41, inclin_54) 1;
   (inclin_43, inclin_54) 1;
   (inclin_33, inclin_54) 1;
   (inclin_28, inclin_54) 1;
   (inclin_48, inclin_54) 1;
   (inclin_52, inclin_54) 1;
   (inclin_31, inclin_54) 1;
   (inclin_44, inclin_54) 1;
   (inclin_19, inclin_54) 1;
   (inclin_21, inclin_54) 1;
   (inclin_23, inclin_54) 1;
   (inclin_47, inclin_54) 1;
   (inclin_50, inclin_54) 1;
   (inclin_22, inclin_54) 1;
   (inclin_46, inclin_54) 1;
   (inclin_20, inclin_54) 1;
   (inclin_56, inclin_54) 1;
   (inclin_45, inclin_54) 1;
   (inclin_54, inclin_54) 1;
   (inclin_51, inclin_54) 1;
   (inclin_55, inclin_54) 1;
   (inclin_24, inclin_57) 1;
   (inclin_25, inclin_57) 1;
   (inclin_26, inclin_57) 1;
   (inclin_29, inclin_57) 1;
   (inclin_32, inclin_57) 1;
   (inclin_37, inclin_57) 1;
   (inclin_38, inclin_57) 1;
   (inclin_40, inclin_57) 1;
   (inclin_39, inclin_57) 1;
   (inclin_42, inclin_57) 1;
   (inclin_53, inclin_57) 1;
   (inclin_49, inclin_57) 1;
   (inclin_36, inclin_57) 1;
   (inclin_35, inclin_57) 1;
   (inclin_34, inclin_57) 1;
   (inclin_27, inclin_57) 1;
   (inclin_30, inclin_57) 1;
   (inclin_41, inclin_57) 1;
   (inclin_43, inclin_57) 1;
   (inclin_33, inclin_57) 1;
   (inclin_28, inclin_57) 1;
   (inclin_48, inclin_57) 1;
   (inclin_52, inclin_57) 1;
   (inclin_31, inclin_57) 1;
   (inclin_44, inclin_57) 1;
   (inclin_19, inclin_57) 1;
   (inclin_21, inclin_57) 1;
   (inclin_23, inclin_57) 1;
   (inclin_47, inclin_57) 1;
   (inclin_50, inclin_57) 1;
   (inclin_22, inclin_57) 1;
   (inclin_46, inclin_57) 1;
   (inclin_20, inclin_57) 1;
   (inclin_56, inclin_57) 1;
   (inclin_45, inclin_57) 1;
   (inclin_54, inclin_57) 1;
   (inclin_51, inclin_57) 1;
   (inclin_55, inclin_57) 1;
   (inclin_24, inclin_43) 1;
   (inclin_25, inclin_43) 1;
   (inclin_26, inclin_43) 1;
   (inclin_29, inclin_43) 1;
   (inclin_32, inclin_43) 1;
   (inclin_37, inclin_43) 1;
   (inclin_38, inclin_43) 1;
   (inclin_40, inclin_43) 1;
   (inclin_39, inclin_43) 1;
   (inclin_42, inclin_43) 1;
   (inclin_53, inclin_43) 1;
   (inclin_49, inclin_43) 1;
   (inclin_36, inclin_43) 1;
   (inclin_35, inclin_43) 1;
   (inclin_34, inclin_43) 1;
   (inclin_27, inclin_43) 1;
   (inclin_30, inclin_43) 1;
   (inclin_41, inclin_43) 1;
   (inclin_43, inclin_43) 1;
   (inclin_33, inclin_43) 1;
   (inclin_28, inclin_43) 1;
   (inclin_48, inclin_43) 1;
   (inclin_52, inclin_43) 1;
   (inclin_31, inclin_43) 1;
   (inclin_44, inclin_43) 1;
   (inclin_19, inclin_43) 1;
   (inclin_21, inclin_43) 1;
   (inclin_23, inclin_43) 1;
   (inclin_47, inclin_43) 1;
   (inclin_50, inclin_43) 1;
   (inclin_22, inclin_43) 1;
   (inclin_46, inclin_43) 1;
   (inclin_20, inclin_43) 1;
   (inclin_56, inclin_43) 1;
   (inclin_45, inclin_43) 1;
   (inclin_54, inclin_43) 1;
   (inclin_51, inclin_43) 1;
   (inclin_55, inclin_43) 1;
   (inclin_24, inclin_46) 1;
   (inclin_25, inclin_46) 1;
   (inclin_26, inclin_46) 1;
   (inclin_29, inclin_46) 1;
   (inclin_32, inclin_46) 1;
   (inclin_37, inclin_46) 1;
   (inclin_38, inclin_46) 1;
   (inclin_40, inclin_46) 1;
   (inclin_39, inclin_46) 1;
   (inclin_42, inclin_46) 1;
   (inclin_53, inclin_46) 1;
   (inclin_49, inclin_46) 1;
   (inclin_36, inclin_46) 1;
   (inclin_35, inclin_46) 1;
   (inclin_34, inclin_46) 1;
   (inclin_27, inclin_46) 1;
   (inclin_30, inclin_46) 1;
   (inclin_41, inclin_46) 1;
   (inclin_43, inclin_46) 1;
   (inclin_33, inclin_46) 1;
   (inclin_28, inclin_46) 1;
   (inclin_48, inclin_46) 1;
   (inclin_52, inclin_46) 1;
   (inclin_31, inclin_46) 1;
   (inclin_44, inclin_46) 1;
   (inclin_19, inclin_46) 1;
   (inclin_21, inclin_46) 1;
   (inclin_23, inclin_46) 1;
   (inclin_47, inclin_46) 1;
   (inclin_50, inclin_46) 1;
   (inclin_22, inclin_46) 1;
   (inclin_46, inclin_46) 1;
   (inclin_20, inclin_46) 1;
   (inclin_56, inclin_46) 1;
   (inclin_45, inclin_46) 1;
   (inclin_54, inclin_46) 1;
   (inclin_51, inclin_46) 1;
   (inclin_55, inclin_46) 1;
   (inclin_24, inclin_42) 1;
   (inclin_25, inclin_42) 1;
   (inclin_26, inclin_42) 1;
   (inclin_29, inclin_42) 1;
   (inclin_32, inclin_42) 1;
   (inclin_37, inclin_42) 1;
   (inclin_38, inclin_42) 1;
   (inclin_40, inclin_42) 1;
   (inclin_39, inclin_42) 1;
   (inclin_42, inclin_42) 1;
   (inclin_53, inclin_42) 1;
   (inclin_49, inclin_42) 1;
   (inclin_36, inclin_42) 1;
   (inclin_35, inclin_42) 1;
   (inclin_34, inclin_42) 1;
   (inclin_27, inclin_42) 1;
   (inclin_30, inclin_42) 1;
   (inclin_41, inclin_42) 1;
   (inclin_43, inclin_42) 1;
   (inclin_33, inclin_42) 1;
   (inclin_28, inclin_42) 1;
   (inclin_48, inclin_42) 1;
   (inclin_52, inclin_42) 1;
   (inclin_31, inclin_42) 1;
   (inclin_44, inclin_42) 1;
   (inclin_19, inclin_42) 1;
   (inclin_21, inclin_42) 1;
   (inclin_23, inclin_42) 1;
   (inclin_47, inclin_42) 1;
   (inclin_50, inclin_42) 1;
   (inclin_22, inclin_42) 1;
   (inclin_46, inclin_42) 1;
   (inclin_20, inclin_42) 1;
   (inclin_56, inclin_42) 1;
   (inclin_45, inclin_42) 1;
   (inclin_54, inclin_42) 1;
   (inclin_51, inclin_42) 1;
   (inclin_55, inclin_42) 1;
   (inclin_24, inclin_19) 1;
   (inclin_25, inclin_19) 1;
   (inclin_26, inclin_19) 1;
   (inclin_29, inclin_19) 1;
   (inclin_32, inclin_19) 1;
   (inclin_37, inclin_19) 1;
   (inclin_38, inclin_19) 1;
   (inclin_40, inclin_19) 1;
   (inclin_39, inclin_19) 1;
   (inclin_42, inclin_19) 1;
   (inclin_53, inclin_19) 1;
   (inclin_49, inclin_19) 1;
   (inclin_36, inclin_19) 1;
   (inclin_35, inclin_19) 1;
   (inclin_34, inclin_19) 1;
   (inclin_27, inclin_19) 1;
   (inclin_30, inclin_19) 1;
   (inclin_41, inclin_19) 1;
   (inclin_43, inclin_19) 1;
   (inclin_33, inclin_19) 1;
   (inclin_28, inclin_19) 1;
   (inclin_48, inclin_19) 1;
   (inclin_52, inclin_19) 1;
   (inclin_31, inclin_19) 1;
   (inclin_44, inclin_19) 1;
   (inclin_19, inclin_19) 1;
   (inclin_21, inclin_19) 1;
   (inclin_23, inclin_19) 1;
   (inclin_47, inclin_19) 1;
   (inclin_50, inclin_19) 1;
   (inclin_22, inclin_19) 1;
   (inclin_46, inclin_19) 1;
   (inclin_20, inclin_19) 1;
   (inclin_56, inclin_19) 1;
   (inclin_45, inclin_19) 1;
   (inclin_54, inclin_19) 1;
   (inclin_51, inclin_19) 1;
   (inclin_55, inclin_19) 1;
}
probability (move | orientation1) {
   (orien_47) 0.794326 0.113475 0.0035461 0.0673759 0.0177305 0.0035461;
   (orien_50) 0.0238095 0.880952 0.0238095 0.0238095 0.0238095 0.0238095;
   (orien_52) 0.0322581 0.83871 0.0322581 0.0322581 0.0322581 0.0322581;
   (orien_56) 0.0344828 0.827586 0.0344828 0.0344828 0.0344828 0.0344828;
   (orien_59) 0.0212766 0.765957 0.148936 0.0212766 0.0212766 0.0212766;
   (orien_62) 0.00769231 0.530769 0.438462 0.00769231 0.00769231 0.00769231;
   (orien_61) 0.0111111 0.788889 0.166667 0.0111111 0.0111111 0.0111111;
   (orien_57) 0.0263158 0.815789 0.0789474 0.0263158 0.0263158 0.0263158;
   (orien_36) 0.111111 0.111111 0.444444 0.111111 0.111111 0.111111;
   (orien_33) 0.0227273 0.0227273 0.886364 0.0227273 0.0227273 0.0227273;
   (orien_32) 0.00980392 0.421569 0.539216 0.00980392 0.00980392 0.00980392;
   (orien_30) 0.00746269 0.425373 0.529851 0.00746269 0.00746269 0.0223881;
   (orien_27) 0.0232558 0.813953 0.0697674 0.0232558 0.0232558 0.0465116;
   (orien_22) 0.0212766 0.851064 0.0212766 0.0212766 0.0212766 0.0638298;
   (orien_17) 0.0212766 0.829787 0.0212766 0.0851064 0.0212766 0.0212766;
   (orien_14) 0.01 0.01 0.01 0.95 0.01 0.01;
   (orien_49) 0.564103 0.358974 0.0128205 0.0384615 0.0128205 0.0128205;
   (orien_60) 0.0138889 0.805556 0.138889 0.0138889 0.0138889 0.0138889;
   (orien_58) 0.025 0.775 0.125 0.025 0.025 0.025;
   (orien_31) 0.00854701 0.324786 0.641026 0.00854701 0.00854701 0.00854701;
   (orien_28) 0.025 0.75 0.15 0.025 0.025 0.025;
   (orien_24) 0.0416667 0.791667 0.0416667 0.0416667 0.0416667 0.0416667;
   (orien_20) 0.027027 0.864865 0.027027 0.027027 0.027027 0.027027;
   (orien_16) 0.00740741 0.037037 0.00740741 0.933333 0.00740741 0.00740741;
   (orien_15) 0.00261097 0.00261097 0.00261097 0.986945 0.00261097 0.00261097;
   (orien_54) 0.025641 0.871795 0.025641 0.025641 0.025641 0.025641;
   (orien_63) 0.0106383 0.0106383 0.946809 0.0106383 0.0106383 0.0106383;
   (orien_34) 0.0714286 0.0714286 0.642857 0.0714286 0.0714286 0.0714286;
   (orien_48) 0.594203 0.222222 0.00483092 0.169082 0.00483092 0.00483092;
   (orien_51) 0.0344828 0.827586 0.0344828 0.0344828 0.0344828 0.0344828;
   (orien_55) 0.0526316 0.736842 0.0526316 0.0526316 0.0526316 0.0526316;
   (orien_0) 0.0136986 0.0136986 0.931507 0.0136986 0.0136986 0.0136986;
   (orien_2) 0.0434783 0.0434783 0.782609 0.0434783 0.0434783 0.0434783;
   (orien_29) 0.0121951 0.52439 0.402439 0.0121951 0.0121951 0.0365854;
   (orien_26) 0.0188679 0.811321 0.0943396 0.0188679 0.0188679 0.0377358;
   (orien_18) 0.0135135 0.878378 0.0135135 0.0135135 0.0135135 0.0675676;
   (orien_45) 0.675676 0.027027 0.027027 0.0810811 0.162162 0.027027;
   (orien_46) 0.711538 0.185897 0.00641026 0.0705128 0.0192308 0.00641026;
   (orien_53) 0.03125 0.84375 0.03125 0.03125 0.03125 0.03125;
   (orien_37) 0.0909091 0.0909091 0.545455 0.0909091 0.0909091 0.0909091;
   (orien_23) 0.0344828 0.758621 0.103448 0.0344828 0.0344828 0.0344828;
   (orien_1) 0.0333333 0.0333333 0.833333 0.0333333 0.0333333 0.0333333;
   (orien_25) 0.0454545 0.681818 0.136364 0.0454545 0.0454545 0.0454545;
   (orien_21) 0.04 0.8 0.04 0.04 0.04 0.04;
   (orien_4) 0.0769231 0.0769231 0.615385 0.0769231 0.0769231 0.0769231;
   (orien_19) 0.015625 0.921875 0.015625 0.015625 0.015625 0.015625;
   (orien_44) 0.142857 0.142857 0.142857 0.142857 0.285714 0.142857;
   (orien_3) 0.111111 0.111111 0.444444 0.111111 0.111111 0.111111;
   (orien_5) 0.125 0.125 0.375 0.125 0.125 0.125;
   (orien_35) 0.142857 0.142857 0.285714 0.142857 0.142857 0.142857;
   (orien_7) 0.142857 0.142857 0.285714 0.142857 0.142857 0.142857;
}
probability (distance0 | move) {
   (right_down) 0.203008 0.285714 0.390977 0.0394737 0.0018797 0.0018797 0.0018797 0.0018797 0.0695489 0.0037594;
   (close_right) 0.000834725 0.000834725 0.0258765 0.24374 0.396494 0.208681 0.121035 0.000834725 0.000834725 0.000834725;
   (far) 0.00163934 0.00163934 0.00163934 0.00163934 0.872131 0.114754 0.00163934 0.00163934 0.00163934 0.00163934;
   (right) 0.0251852 0.0251852 0.04 0.00444444 0.00148148 0.00148148 0.245926 0.644444 0.0103704 0.00148148;
   (close_right_down) 0.0909091 0.227273 0.363636 0.0454545 0.0454545 0.0454545 0.0454545 0.0454545 0.0454545 0.0454545;
   (close) 0.0454545 0.0454545 0.0454545 0.0454545 0.227273 0.318182 0.136364 0.0454545 0.0454545 0.0454545;
}
probability (orientation0 | move, inclination0, distance0, effect) {
   (right_down, inclin_26, dist_7, right) 0.230769 0.184615 0.0153846 0.0153846 0.0153846 0.0153846 0.0615385 0.0153846 0.0153846 0.0153846 0.0153846 0.0153846 0.0153846 0.0153846 0.0153846 0.0153846 0.0153846 0.0153846 0.0153846 0.0153846 0.0153846 0.0153846 0.0153846 0.0153846 0.0153846 0.0153846 0.0153846 0.0153846 0.0153846 0.0153846 0.0153846 0.0153846 0.0153846 0.0153846 0.0153846 0.0153846 0.0153846;
   (close_right, inclin_26, dist_7, right) 0.027027 0.027027 0.027027 0.027027 0.027027 0.027027 0.027027 0.027027 0.027027 0.027027 0.027027 0.027027 0.027027 0.027027 0.027027 0.027027 0.027027 0.027027 0.027027 0.027027 0.027027 0.027027 0.027027 0.027027 0.027027 0.027027 0.027027 0.027027 0.027027 0.027027 0.027027 0.027027 0.027027 0.027027 0.027027 0.027027 0.027027;
   (far, inclin_26, dist_7, right) 0.027027 0.027027 0.027027 0.027027 0.027027 0.027027 0.027027 0.027027 0.027027 0.027027 0.027027 0.027027 0.027027 0.027027 0.027027 0.027027 0.027027 0.027027 0.027027 0.027027 0.027027 0.027027 0.027027 0.027027 0.027027 0.027027 0.027027 0.027027 0.027027 0.027027 0.027027 0.027027 0.027027 0.027027 0.027027 0.027027 0.027027;
   (right, inclin_26, dist_7, right) 0.027027 0.027027 0.027027 0.027027 0.027027 0.027027 0.027027 0.027027 0.027027 0.027027 0.027027 0.027027 0.027027 0.027027 0.027027 0.027027 0.027027 0.027027 0.027027 0.027027 0.027027 0.027027 0.027027 0.027027 0.027027 0.027027 0.027027 0.027027 0.027027 0.027027 0.027027 0.027027 0.027027 0.027027 0.027027 0.027027 0.027027;
   (close_right_down, inclin_26, dist_7, right) 0.0263158 0.0263158 0.0263158 0.0263158 0.0263158 0.0263158 0.0526316 0.0263158 0.0263158 0.0263158 0.0263158 0.0263158 0.0263158 0.0263158 0.0263158 0.0263158 0.0263158 0.0263158 0.0263158 0.0263158 0.0263158 0.0263158 0.0263158 0.0263158 0.0263158 0.0263158 0.0263158 0.0263158 0.0263158 0.0263158 0.0263158 0.0263158 0.0263158 0.0263158 0.0263158 0.0263158 0.0263158;
   (close, inclin_26, dist_7, right) 0.027027 0.027027 0.027027 0.027027 0.027027 0.027027 0.027027 0.027027 0.027027 0.027027 0.027027 0.027027 0.027027 0.027027 0.027027 0.027027 0.027027 0.027027 0.027027 0.027027 0.027027 0.027027 0.027027 0.027027 0.027027 0.027027 0.027027 0.027027 0.027027 0.027027 0.027027 0.027027 0.027027 0.027027 0.027027 0.027027 0.027027;
   (right_down, inclin_27, dist_7, right) 0.278689 0.114754 0.0163934 0.0163934 0.0163934 0.0163934 0.0491803 0.0163934 0.0163934 0.0163934 0.0163934 0.0163934 0.0163934 0.0163934 0.0163934 0.0163934 0.0163934 0.0163934 0.0163934 0.0163934 0.0163934 0.0163934 0.0163934 0.0163934 0.0163934 0.0163934 0.0163934 0.0163934 0.0163934 0.0163934 0.0163934 0.0163934 0.0163934 0.0163934 0.0163934 0.0163934 0.0163934;
   (close_right, inclin_27, dist_7, right) 0.027027 0.027027 0.027027 0.027027 0.027027 0.027027 0.027027 0.027027 0.027027 0.027027 0.027027 0.027027 0.027027 0.027027 0.027027 0.027027 0.027027 0.027027 0.027027 0.027027 0.027027 0.027027 0.027027 0.027027 0.027027 0.027027 0.027027 0.027027 0.027027 0.027027 0.027027 0.027027 0.027027 0.027027 0.027027 0.027027 0.027027;
   (far, inclin_27, dist_7, right) 0.027027 0.027027 0.027027 0.027027 0.027027 0.027027 0.027027 0.027027 0.027027 0.027027 0.027027 0.027027 0.027027 0.027027 0.027027 0.027027 0.027027 0.027027 0.027027 0.027027 0.027027 0.027027 0.027027 0.027027 0.027027 0.027027 0.027027 0.027027 0.027027 0.027027 0.027027 0.027027 0.027027 0.027027 0.027027 0.027027 0.027027;
   (right, inclin_27, dist_7, right) 0.027027 0.027027 0.027027 0.027027 0.027027 0.027027 0.027027 0.027027 0.027027 0.027027 0.027027 0.027027 0.027027 0.027027 0.027027 0.027027 0.027027 0.027027 0.027027 0.027027 0.027027 0.027027 0.027027 0.027027 0.027027 0.027027 0.027027 0.027027 0.027027 0.027027 0.027027 0.027027 0.027027 0.027027 0.027027 0.027027 0.027027;
   (close_right_down, inclin_27, dist_7, right) 0.027027 0.027027 0.027027 0.027027 0.027027 0.027027 0.027027 0.027027 0.027027 0.027027 0.027027 0.027027 0.027027 0.027027 0.027027 0.027027 0.027027 0.027027 0.027027 0.027027 0.027027 0.027027 0.027027 0.027027 0.027027 0.027027 0.027027 0.027027 0.027027 0.027027 0.027027 0.027027 0.027027 0.027027 0.027027 0.027027 0.027027;
   (close, inclin_27, dist_7, right) 0.027027 0.027027 0.027027 0.027027 0.027027 0.027027 0.027027 0.027027 0.027027 0.027027 0.027027 0.027027 0.027027 0.027027 0.027027 0.027027 0.027027 0.027027 0.027027 0.027027 0.027027 0.027027 0.027027 0.027027 0.027027 0.027027 0.027027 0.027027 0.027027 0.027027 0.027027 0.027027 0.027027 0.027027 0.027027 0.027027 0.027027;
   (right_down, inclin_28, dist_7, right) 0.196721 0.131148 0.0163934 0.0163934 0.0163934 0.0163934 0.114754 0.0163934 0.0163934 0.0163934 0.0163934 0.0163934 0.0163934 0.0163934 0.0163934 0.0163934 0.0163934 0.0163934 0.0163934 0.0163934 0.0163934 0.0163934 0.0163934 0.0163934 0.0163934 0.0163934 0.0163934 0.0163934 0.0163934 0.0163934 0.0163934 0.0163934 0.0163934 0.0163934 0.0163934 0.0163934 0.0163934;
   (close_right, inclin_28, dist_7, right) 0.027027 0.027027 0.027027 0.027027 0.027027 0.027027 0.027027 0.027027 0.027027 0.027027 0.027027 0.027027 0.027027 0.027027 0.027027 0.027027 0.027027 0.027027 0.027027 0.027027 0.027027 0.027027 0.027027 0.027027 0.027027 0.027027 0.027027 0.027027 0.027027 0.027027 0.027027 0.027027 0.027027 0.027027 0.027027 0.027027 0.027027;
   (far, inclin_28, dist_7, right) 0.027027 0.027027 0.027027 0.027027 0.027027 0.027027 0.027027 0.027027 0.027027 0.027027 0.027027 0.027027 0.027027 0.027027 0.027027 0.027027 0.027027 0.027027 0.027027 0.027027 0.027027 0.027027 0.027027 0.027027 0.027027 0.027027 0.027027 0.027027 0.027027 0.027027 0.027027 0.027027 0.027027 0.027027 0.027027 0.027027 0.027027;
   (right, inclin_28, dist_7, right) 0.108696 0.130435 0.0217391 0.0217391 0.0217391 0.0217391 0.0217391 0.0217391 0.0217391 0.0217391 0.0217391 0.0217391 0.0217391 0.0217391 0.0217391 0.0217391 0.0217391 0.0217391 0.0217391 0.0217391 0.0217391 0.0217391 0.0217391 0.0217391 0.0217391 0.0217391 0.0217391 0.0217391 0.0217391 0.0217391 0.0217391 0.0217391 0.0217391 0.0217391 0.0217391 0.0217391 0.0217391;
   (close_right_down, inclin_28, dist_7, right) 0.027027 0.027027 0.027027 0.027027 0.027027 0.027027 0.027027 0.027027 0.027027 0.027027 0.027027 0.027027 0.027027 0.027027 0.027027 0.027027 0.027027 0.027027 0.027027 0.027027 0.027027 0.027027 0.027027 0.027027 0.027027 0.027027 0.027027 0.027027 0.027027 0.027027 0.027027 0.027027 0.027027 0.027027 0.027027 0.027027 0.027027;
   (close, inclin_28, dist_7, right) 0.027027 0.027027 0.027027 0.027027 0.027027 0.027027 0.027027 0.027027 0.027027 0.027027 0.027027 0.027027 0.027027 0.027027 0.027027 0.027027 0.027027 0.027027 0.027027 0.027027 0.027027 0.027027 0.027027 0.027027 0.027027 0.027027 0.027027 0.027027 0.027027 0.027027 0.027027 0.027027 0.027027 0.027027 0.027027 0.027027 0.027027;
   (right_down, inclin_29, dist_7, right) 0.0512821 0.025641 0.025641 0.025641 0.025641 0.025641 0.0512821 0.025641 0.025641 0.025641 0.025641 0.025641 0.025641 0.025641 0.025641 0.025641 0.025641 0.025641 0.025641 0.025641 0.025641 0.025641 0.025641 0.025641 0.025641 0.025641 0.025641 0.025641 0.025641 0.025641 0.025641 0.025641 0.025641 0.025641 0.025641 0.025641 0.025641;
   (close_right, inclin_29, dist_7, right) 0.027027 0.027027 0.027027 0.027027 0.027027 0.027027 0.027027 0.027027 0.027027 0.027027 0.027027 0.027027 0.027027 0.027027 0.027027 0.027027 0.027027 0.027027 0.027027 0.027027 0.027027 0.027027 0.027027 0.027027 0.027027 0.027027 0.027027 0.027027 0.027027 0.027027 0.027027 0.027027 0.027027 0.027027 0.027027 0.027027 0.027027;
   (far, inclin_29, dist_7, right) 0.027027 0.027027 0.027027 0.027027 0.027027 0.027027 0.027027 0.027027 0.027027 0.027027 0.027027 0.027027 0.027027 0.027027 0.027027 0.027027 0.027027 0.027027 0.027027 0.027027 0.027027 0.027027 0.027027 0.027027 0.027027 0.027027 0.027027 0.027027 0.027027 0.027027 0.027027 0.027027 0.027027 0.027027 0.027027 0.027027 0.027027;
   (right, inclin_29, dist_7, right) 0.0681818 0.0681818 0.0227273 0.0227273 0.0227273 0.0227273 0.0909091 0.0227273 0.0227273 0.0227273 0.0227273 0.0227273 0.0227273 0.0227273 0.0227273 0.0227273 0.0227273 0.0227273 0.0227273 0.0227273 0.0227273 0.0227273 0.0227273 0.0227273 0.0227273 0.0227273 0.0227273 0.0227273 0.0227273 0.0227273 0.0227273 0.0227273 0.0227273 0.0227273 0.0227273 0.0227273 0.0227273;
   (close_right_down, inclin_29, dist_7, right) 0.027027 0.027027 0.027027 0.027027 0.027027 0.027027 0.027027 0.027027 0.027027 0.027027 0.027027 0.027027 0.027027 0.027027 0.027027 0.027027 0.027027 0.027027 0.027027 0.027027 0.027027 0.027027 0.027027 0.027027 0.027027 0.027027 0.027027 0.027027 0.027027 0.027027 0.027027 0.027027 0.027027 0.027027 0.027027 0.027027 0.027027;
   (close, inclin_29, dist_7, right) 0.027027 0.027027 0.027027 0.027027 0.027027 0.027027 0.027027 0.027027 0.027027 0.027027 0.027027 0.027027 0.027027 0.027027 0.027027 0.027027 0.027027 0.027027 0.027027 0.027027 0.027027 0.027027 0.027027 0.027027 0.027027 0.027027 0.027027 0.027027 0.027027 0.027027 0.027027 0.027027 0.027027 0.027027 0.027027 0.027027 0.027027;
   (right_down, inclin_31, dist_7, right) 0.027027 0.027027 0.027027 0.027027 0.027027 0.027027 0.027027 0.027027 0.027027 0.027027 0.027027 0.027027 0.027027 0.027027 0.027027 0.027027 0.027027 0.027027 0.027027 0.027027 0.027027 0.027027 0.027027 0.027027 0.027027 0.027027 0.027027 0.027027 0.027027 0.027027 0.027027 0.027027 0.027027 0.027027 0.027027 0.027027 0.027027;
   (close_right, inclin_31, dist_7, right) 0.027027 0.027027 0.027027 0.027027 0.027027 0.027027 0.027027 0.027027 0.027027 0.027027 0.027027 0.027027 0.027027 0.027027 0.027027 0.027027 0.027027 0.027027 0.027027 0.027027 0.027027 0.027027 0.027027 0.027027 0.027027 0.027027 0.027027 0.027027 0.027027 0.027027 0.027027 0.027027 0.027027 0.027027 0.027027 0.027027 0.027027;
   (far, inclin_31, dist_7, right) 0.027027 0.027027 0.027027 0.027027 0.027027 0.027027 0.027027 0.027027 0.027027 0.027027 0.027027 0.027027 0.027027 0.027027 0.027027 0.027027 0.027027 0.027027 0.027027 0.027027 0.027027 0.027027 0.027027 0.027027 0.027027 0.027027 0.027027 0.027027 0.027027 0.027027 0.027027 0.027027 0.027027 0.027027 0.027027 0.027027 0.027027;
   (right, inclin_31, dist_7, right) 0.027027 0.027027 0.027027 0.027027 0.027027 0.027027 0.027027 0.027027 0.027027 0.027027 0.027027 0.027027 0.027027 0.027027 0.027027 0.027027 0.027027 0.027027 0.027027 0.027027 0.027027 0.027027 0.027027 0.027027 0.027027 0.027027 0.027027 0.027027 0.027027 0.027027 0.027027 0.027027 0.027027 0.027027 0.027027 0.027027 0.027027;
   (close_right_down, inclin_31, dist_7, right) 0.027027 0.027027 0.027027 0.027027 0.027027 0.027027 0.027027 0.027027 0.027027 0.027027 0.027027 0.027027 0.027027 0.027027 0.027027 0.027027 0.027027 0.027027 0.027027 0.027027 0.027027 0.027027 0.027027 0.027027 0.027027 0.027027 0.027027 0.027027 0.027027 0.027027 0.027027 0.027027 0.027027 0.027027 0.027027 0.027027 0.027027;
   (close, inclin_31, dist_7, right) 0.027027 0.027027 0.027027 0.027027 0.027027 0.027027 0.027027 0.027027 0.027027 0.027027 0.027027 0.027027 0.027027 0.027027 0.027027 0.027027 0.027027 0.027027 0.027027 0.027027 0.027027 0.027027 0.027027 0.027027 0.027027 0.027027 0.027027 0.027027 0.027027 0.027027 0.027027 0.027027 0.027027 0.027027 0.027027 0.027027 0.027027;
   (right_down, inclin_32, dist_7, right) 0.027027 0.027027 0.027027 0.027027 0.027027 0.027027 0.027027 0.027027 0.027027 0.027027 0.027027 0.027027 0.027027 0.027027 0.027027 0.027027 0.027027 0.027027 0.027027 0.027027 0.027027 0.027027 0.027027 0.027027 0.027027 0.027027 0.027027 0.027027 0.027027 0.027027 0.027027 0.027027 0.027027 0.027027 0.027027 0.027027 0.027027;
   (close_right, inclin_32, dist_7, right) 0.027027 0.027027 0.027027 0.027027 0.027027 0.027027 0.027027 0.027027 0.027027 0.027027 0.027027 0.027027 0.027027 0.027027 0.027027 0.027027 0.027027 0.027027 0.027027 0.027027 0.027027 0.027027 0.027027 0.027027 0.027027 0.027027 0.027027 0.027027 0.027027 0.027027 0.027027 0.027027 0.027027 0.027027 0.027027 0.027027 0.027027;
   (far, inclin_32, dist_7, right) 0.027027 0.027027 0.027027 0.027027 0.027027 0.027027 0.027027 0.027027 0.027027 0.027027 0.027027 0.027027 0.027027 0.027027 0.027027 0.027027 0.027027 0.027027 0.027027 0.027027 0.027027 0.027027 0.027027 0.027027 0.027027 0.027027 0.027027 0.027027 0.027027 0.027027 0.027027 0.027027 0.027027 0.027027 0.027027 0.027027 0.027027;
   (right, inclin_32, dist_7, right) 0.027027 0.027027 0.027027 0.027027 0.027027 0.027027 0.027027 0.027027 0.027027 0.027027 0.027027 0.027027 0.027027 0.027027 0.027027 0.027027 0.027027 0.027027 0.027027 0.027027 0.027027 0.027027 0.027027 0.027027 0.027027 0.027027 0.027027 0.027027 0.027027 0.027027 0.027027 0.027027 0.027027 0.027027 0.027027 0.027027 0.027027;
   (close_right_down, inclin_32, dist_7, right) 0.027027 0.027027 0.027027 0.027027 0.027027 0.027027 0.027027 0.027027 0.027027 0.027027 0.027027 0.027027 0.027027 0.027027 0.027027 0.027027 0.027027 0.027027 0.027027 0.027027 0.027027 0.027027 0.027027 0.027027 0.027027 0.027027 0.027027 0.027027 0.027027 0.027027 0.027027 0.027027 0.027027 0.027027 0.027027 0.027027 0.027027;
   (close, inclin_32, dist_7, right) 0.027027 0.027027 0.027027 0.027027 0.027027 0.027027 0.027027 0.027027 0.027027 0.027027 0.027027 0.027027 0.027027 0.027027 0.027027 0.027027 0.027027 0.027027 0.027027 0.027027 0.027027 0.027027 0.027027 0.027027 0.027027 0.027027 0.027027 0.027027 0.027027 0.027027 0.027027 0.027027 0.027027 0.027027 0.027027 0.027027 0.027027;
   (right_down, inclin_33, dist_7, right) 0.027027 0.027027 0.027027 0.027027 0.027027 0.027027 0.027027 0.027027 0.027027 0.027027 0.027027 0.027027 0.027027 0.027027 0.027027 0.027027 0.027027 0.027027 0.027027 0.027027 0.027027 0.027027 0.027027 0.027027 0.027027 0.027027 0.027027 0.027027 0.027027 0.027027 0.027027 0.027027 0.027027 0.027027 0.027027 0.027027 0.027027;
   (close_right, inclin_33, dist_7, right) 0.027027 0.027027 0.027027 0.027027 0.027027 0.027027 0.027027 0.027027 0.027027 0.027027 0.027027 0.027027 0.027027 0.027027 0.027027 0.027027 0.027027 0.027027 0.027027 0.027027 0.027027 0.027027 0.027027 0.027027 0.027027 0.027027 0.027027 0.027027 0.027027 0.027027 0.027027 0.027027 0.027027 0.027027 0.027027 0.027027 0.027027;
   (far, inclin_33, dist_7, right) 0.027027 0.027027 0.027027 0.027027 0.027027 0.027027 0.027027 0.027027 0.027027 0.027027 0.027027 0.027027 0.027027 0.027027 0.027027 0.027027 0.027027 0.027027 0.027027 0.027027 0.027027 0.027027 0.027027 0.027027 0.027027 0.027027 0.027027 0.027027 0.027027 0.027027 0.027027 0.027027 0.027027 0.027027 0.027027 0.027027 0.027027;
   (right, inclin_33, dist_7, right) 0.027027 0.027027 0.027027 0.027027 0.027027 0.027027 0.027027 0.027027 0.027027 0.027027 0.027027 0.027027 0.027027 0.027027 0.027027 0.027027 0.027027 0.027027 0.027027 0.027027 0.027027 0.027027 0.027027 0.027027 0.027027 0.027027 0.027027 0.027027 0.027027 0.027027 0.027027 0.027027 0.027027 0.027027 0.027027 0.027027 0.027027;
   (close_right_down, inclin_33, dist_7, right) 0.027027 0.027027 0.027027 0.027027 0.027027 0.027027 0.027027 0.027027 0.027027 0.027027 0.027027 0.027027 0.027027 0.027027 0.027027 0.027027 0.027027 0.027027 0.027027 0.027027 0.027027 0.027027 0.027027 0.027027 0.027027 0.027027 0.027027 0.027027 0.027027 0.027027 0.027027 0.027027 0.027027 0.027027 0.027027 0.027027 0.027027;
   (close, inclin_33, dist_7, right) 0.027027 0.027027 0.027027 0.027027 0.027027 0.027027 0.027027 0.027027 0.027027 0.027027 0.027027 0.027027 0.027027 0.027027 0.027027 0.027027 0.027027 0.027027 0.027027 0.027027 0.027027 0.027027 0.027027 0.027027 0.027027 0.027027 0.027027 0.027027 0.027027 0.027027 0.027027 0.027027 0.027027 0.027027 0.027027 0.027027 0.027027;
   (right_down, inclin_41, dist_7, right) 0.027027 0.027027 0.027027 0.027027 0.027027 0.027027 0.027027 0.027027 0.027027 0.027027 0.027027 0.027027 0.027027 0.027027 0.027027 0.027027 0.027027 0.027027 0.027027 0.027027 0.027027 0.027027 0.027027 0.027027 0.027027 0.027027 0.027027 0.027027 0.027027 0.027027 0.027027 0.027027 0.027027 0.027027 0.027027 0.027027 0.027027;
   (close_right, inclin_41, dist_7, right) 0.027027 0.027027 0.027027 0.027027 0.027027 0.027027 0.027027 0.027027 0.027027 0.027027 0.027027 0.027027 0.027027 0.027027 0.027027 0.027027 0.027027 0.027027 0.027027 0.027027 0.027027 0.027027 0.027027 0.027027 0.027027 0.027027 0.027027 0.027027 0.027027 0.027027 0.027027 0.027027 0.027027 0.027027 0.027027 0.027027 0.027027;
   (far, inclin_41, dist_7, right) 0.027027 0.027027 0.027027 0.027027 0.027027 0.027027 0.027027 0.027027 0.027027 0.027027 0.027027 0.027027 0.027027 0.027027 0.027027 0.027027 0.027027 0.027027 0.027027 0.027027 0.027027 0.027027 0.027027 0.027027 0.027027 0.027027 0.027027 0.027027 0.027027 0.027027 0.027027 0.027027 0.027027 0.027027 0.027027 0.027027 0.027027;
   (right, inclin_41, dist_7, right) 0.027027 0.027027 0.027027 0.027027 0.027027 0.027027 0.027027 0.027027 0.027027 0.027027 0.027027 0.027027 0.027027 0.027027 0.027027 0.027027 0.027027 0.027027 0.027027 0.027027 0.027027 0.027027 0.027027 0.027027 0.027027 0.027027 0.027027 0.027027 0.027027 0.027027 0.027027 0.027027 0.027027 0.027027 0.027027 0.027027 0.027027;
   (close_right_down, inclin_41, dist_7, right) 0.027027 0.027027 0.027027 0.027027 0.027027 0.027027 0.027027 0.027027 0.027027 0.027027 0.027027 0.027027 0.027027 0.027027 0.027027 0.027027 0.027027 0.027027 0.027027 0.027027 0.027027 0.027027 0.027027 0.027027 0.027027 0.027027 0.027027 0.027027 0.027027 0.027027 0.027027 0.027027 0.027027 0.027027 0.027027 0.027027 0.027027;
   (close, inclin_41, dist_7, right) 0.027027 0.027027 0.027027 0.027027 0.027027 0.027027 0.027027 0.027027 0.027027 0.027027 0.027027 0.027027 0.027027 0.027027 0.027027 0.027027 0.027027 0.027027 0.027027 0.027027 0.027027 0.027027 0.027027 0.027027 0.027027 0.027027 0.027027 0.027027 0.027027 0.027027 0.027027 0.027027 0.027027 0.027027 0.027027 0.027027 0.027027;
   (right_down, inclin_35, dist_7, right) 0.027027 0.027027 0.027027 0.027027 0.027027 0.027027 0.027027 0.027027 0.027027 0.027027 0.027027 0.027027 0.027027 0.027027 0.027027 0.027027 0.027027 0.027027 0.027027 0.027027 0.027027 0.027027 0.027027 0.027027 0.027027 0.027027 0.027027 0.027027 0.027027 0.027027 0.027027 0.027027 0.027027 0.027027 0.027027 0.027027 0.027027;
   (close_right, inclin_35, dist_7, right) 0.027027 0.027027 0.027027 0.027027 0.027027 0.027027 0.027027 0.027027 0.027027 0.027027 0.027027 0.027027 0.027027 0.027027 0.027027 0.027027 0.027027 0.027027 0.027027 0.027027 0.027027 0.027027 0.027027 0.027027 0.027027 0.027027 0.027027 0.027027 0.027027 0.027027 0.027027 0.027027 0.027027 0.027027 0.027027 0.027027 0.027027;
   (far, inclin_35, dist_7, right) 0.027027 0.027027 0.027027 0.027027 0.027027 0.027027 0.027027 0.027027 0.027027 0.027027 0.027027 0.027027 0.027027 0.027027 0.027027 0.027027 0.027027 0.027027 0.027027 0.027027 0.027027 0.027027 0.027027 0.027027 0.027027 0.027027 0.027027 0.027027 0.027027 0.027027 0.027027 0.027027 0.027027 0.027027 0.027027 0.027027 0.027027;
   (right, inclin_35, dist_7, right) 0.027027 0.027027 0.027027 0.027027 0.027027 0.027027 0.027027 0.027027 0.027027 0.027027 0.027027 0.027027 0.027027 0.027027 0.027027 0.027027 0.027027 0.027027 0.027027 0.027027 0.027027 0.027027 0.027027 0.027027 0.027027 0.027027 0.027027 0.027027 0.027027 0.027027 0.027027 0.027027 0.027027 0.027027 0.027027 0.027027 0.027027;
   (close_right_down, inclin_35, dist_7, right) 0.027027 0.027027 0.027027 0.027027 0.027027 0.027027 0.027027 0.027027 0.027027 0.027027 0.027027 0.027027 0.027027 0.027027 0.027027 0.027027 0.027027 0.027027 0.027027 0.027027 0.027027 0.027027 0.027027 0.027027 0.027027 0.027027 0.027027 0.027027 0.027027 0.027027 0.027027 0.027027 0.027027 0.027027 0.027027 0.027027 0.027027;
   (close, inclin_35, dist_7, right) 0.027027 0.027027 0.027027 0.027027 0.027027 0.027027 0.027027 0.027027 0.027027 0.027027 0.027027 0.027027 0.027027 0.027027 0.027027 0.027027 0.027027 0.027027 0.027027 0.027027 0.027027 0.027027 0.027027 0.027027 0.027027 0.027027 0.027027 0.027027 0.027027 0.027027 0.027027 0.027027 0.027027 0.027027 0.027027 0.027027 0.027027;
   (right_down, inclin_30, dist_7, right) 0.027027 0.027027 0.027027 0.027027 0.027027 0.027027 0.027027 0.027027 0.027027 0.027027 0.027027 0.027027 0.027027 0.027027 0.027027 0.027027 0.027027 0.027027 0.027027 0.027027 0.027027 0.027027 0.027027 0.027027 0.027027 0.027027 0.027027 0.027027 0.027027 0.027027 0.027027 0.027027 0.027027 0.027027 0.027027 0.027027 0.027027;
   (close_right, inclin_30, dist_7, right) 0.027027 0.027027 0.027027 0.027027 0.027027 0.027027 0.027027 0.027027 0.027027 0.027027 0.027027 0.027027 0.027027 0.027027 0.027027 0.027027 0.027027 0.027027 0.027027 0.027027 0.027027 0.027027 0.027027 0.027027 0.027027 0.027027 0.027027 0.027027 0.027027 0.027027 0.027027 0.027027 0.027027 0.027027 0.027027 0.027027 0.027027;
   (far, inclin_30, dist_7, right) 0.027027 0.027027 0.027027 0.027027 0.027027 0.027027 0.027027 0.027027 0.027027 0.027027 0.027027 0.027027 0.027027 0.027027 0.027027 0.027027 0.027027 0.027027 0.027027 0.027027 0.027027 0.027027 0.027027 0.027027 0.027027 0.027027 0.027027 0.027027 0.027027 0.027027 0.027027 0.027027 0.027027 0.027027 0.027027 0.027027 0.027027;
   (right, inclin_30, dist_7, right) 0.027027 0.027027 0.027027 0.027027 0.027027 0.027027 0.027027 0.027027 0.027027 0.027027 0.027027 0.027027 0.027027 0.027027 0.027027 0.027027 0.027027 0.027027 0.027027 0.027027 0.027027 0.027027 0.027027 0.027027 0.027027 0.027027 0.027027 0.027027 0.027027 0.027027 0.027027 0.027027 0.027027 0.027027 0.027027 0.027027 0.027027;
   (close_right_down, inclin_30, dist_7, right) 0.027027 0.027027 0.027027 0.027027 0.027027 0.027027 0.027027 0.027027 0.027027 0.027027 0.027027 0.027027 0.027027 0.027027 0.027027 0.027027 0.027027 0.027027 0.027027 0.027027 0.027027 0.027027 0.027027 0.027027 0.027027 0.027027 0.027027 0.027027 0.027027 0.027027 0.027027 0.027027 0.027027 0.027027 0.027027 0.027027 0.027027;
   (close, inclin_30, dist_7, right) 0.027027 0.027027 0.027027 0.027027 0.027027 0.027027 0.027027 0.027027 0.027027 0.027027 0.027027 0.027027 0.027027 0.027027 0.027027 0.027027 0.027027 0.027027 0.027027 0.027027 0.027027 0.027027 0.027027 0.027027 0.027027 0.027027 0.027027 0.027027 0.027027 0.027027 0.027027 0.027027 0.027027 0.027027 0.027027 0.027027 0.027027;
   (right_down, inclin_34, dist_7, right) 0.027027 0.027027 0.027027 0.027027 0.027027 0.027027 0.027027 0.027027 0.027027 0.027027 0.027027 0.027027 0.027027 0.027027 0.027027 0.027027 0.027027 0.027027 0.027027 0.027027 0.027027 0.027027 0.027027 0.027027 0.027027 0.027027 0.027027 0.027027 0.027027 0.027027 0.027027 0.027027 0.027027 0.027027 0.027027 0.027027 0.027027;
   (close_right, inclin_34, dist_7, right) 0.027027 0.027027 0.027027 0.027027 0.027027 0.027027 0.027027 0.027027 0.027027 0.027027 0.027027 0.027027 0.027027 0.027027 0.027027 0.027027 0.027027 0.027027 0.027027 0.027027 0.027027 0.027027 0.027027 0.027027 0.027027 0.027027 0.027027 0.027027 0.027027 0.027027 0.027027 0.027027 0.027027 0.027027 0.027027 0.027027 0.027027;
   (far, inclin_34, dist_7, right) 0.027027 0.027027 0.027027 0.027027 0.027027 0.027027 0.027027 0.027027 0.027027 0.027027 0.027027 0.027027 0.027027 0.027027 0.027027 0.027027 0.027027 0.027027 0.027027 0.027027 0.027027 0.027027 0.027027 0.027027 0.027027 0.027027 0.027027 0.027027 0.027027 0.027027 0.027027 0.027027 0.027027 0.027027 0.027027 0.027027 0.027027;
   (right, inclin_34, dist_7, right) 0.027027 0.027027 0.027027 0.027027 0.027027 0.027027 0.027027 0.027027 0.027027 0.027027 0.027027 0.027027 0.027027 0.027027 0.027027 0.027027 0.027027 0.027027 0.027027 0.027027 0.027027 0.027027 0.027027 0.027027 0.027027 0.027027 0.027027 0.027027 0.027027 0.027027 0.027027 0.027027 0.027027 0.027027 0.027027 0.027027 0.027027;
   (close_right_down, inclin_34, dist_7, right) 0.027027 0.027027 0.027027 0.027027 0.027027 0.027027 0.027027 0.027027 0.027027 0.027027 0.027027 0.027027 0.027027 0.027027 0.027027 0.027027 0.027027 0.027027 0.027027 0.027027 0.027027 0.027027 0.027027 0.027027 0.027027 0.027027 0.027027 0.027027 0.027027 0.027027 0.027027 0.027027 0.027027 0.027027 0.027027 0.027027 0.027027;
   (close, inclin_34, dist_7, right) 0.027027 0.027027 0.027027 0.027027 0.027027 0.027027 0.027027 0.027027 0.027027 0.027027 0.027027 0.027027 0.027027 0.027027 0.027027 0.027027 0.027027 0.027027 0.027027 0.027027 0.027027 0.027027 0.027027 0.027027 0.027027 0.027027 0.027027 0.027027 0.027027 0.027027 0.027027 0.027027 0.027027 0.027027 0.027027 0.027027 0.027027;
   (right_down, inclin_36, dist_7, right) 0.027027 0.027027 0.027027 0.027027 0.027027 0.027027 0.027027 0.027027 0.027027 0.027027 0.027027 0.027027 0.027027 0.027027 0.027027 0.027027 0.027027 0.027027 0.027027 0.027027 0.027027 0.027027 0.027027 0.027027 0.027027 0.027027 0.027027 0.027027 0.027027 0.027027 0.027027 0.027027 0.027027 0.027027 0.027027 0.027027 0.027027;
   (close_right, inclin_36, dist_7, right) 0.027027 0.027027 0.027027 0.027027 0.027027 0.027027 0.027027 0.027027 0.027027 0.027027 0.027027 0.027027 0.027027 0.027027 0.027027 0.027027 0.027027 0.027027 0.027027 0.027027 0.027027 0.027027 0.027027 0.027027 0.027027 0.027027 0.027027 0.027027 0.027027 0.027027 0.027027 0.027027 0.027027 0.027027 0.027027 0.027027 0.027027;
   (far, inclin_36, dist_7, right) 0.027027 0.027027 0.027027 0.027027 0.027027 0.027027 0.027027 0.027027 0.027027 0.027027 0.027027 0.027027 0.027027 0.027027 0.027027 0.027027 0.027027 0.027027 0.027027 0.027027 0.027027 0.027027 0.027027 0.027027 0.027027 0.027027 0.027027 0.027027 0.027027 0.027027 0.027027 0.027027 0.027027 0.027027 0.027027 0.027027 0.027027;
   (right, inclin_36, dist_7, right) 0.027027 0.027027 0.027027 0.027027 0.027027 0.027027 0.027027 0.027027 0.027027 0.027027 0.027027 0.027027 0.027027 0.027027 0.027027 0.027027 0.027027 0.027027 0.027027 0.027027 0.027027 0.027027 0.027027 0.027027 0.027027 0.027027 0.027027 0.027027 0.027027 0.027027 0.027027 0.027027 0.027027 0.027027 0.027027 0.027027 0.027027;
   (close_right_down, inclin_36, dist_7, right) 0.027027 0.027027 0.027027 0.027027 0.027027 0.027027 0.027027 0.027027 0.027027 0.027027 0.027027 0.027027 0.027027 0.027027 0.027027 0.027027 0.027027 0.027027 0.027027 0.027027 0.027027 0.027027 0.027027 0.027027 0.027027 0.027027 0.027027 0.027027 0.027027 0.027027 0.027027 0.027027 0.027027 0.027027 0.027027 0.027027 0.027027;
   (close, inclin_36, dist_7, right) 0.027027 0.027027 0.027027 0.027027 0.027027 0.027027 0.027027 0.027027 0.027027 0.027027 0.027027 0.027027 0.027027 0.027027 0.027027 0.027027 0.027027 0.027027 0.027027 0.027027 0.027027 0.027027 0.027027 0.027027 0.027027 0.027027 0.027027 0.027027 0.027027 0.027027 0.027027 0.027027 0.027027 0.027027 0.027027 0.027027 0.027027;
   (right_down, inclin_39, dist_7, right) 0.027027 0.027027 0.027027 0.027027 0.027027 0.027027 0.027027 0.027027 0.027027 0.027027 0.027027 0.027027 0.027027 0.027027 0.027027 0.027027 0.027027 0.027027 0.027027 0.027027 0.027027 0.027027 0.027027 0.027027 0.027027 0.027027 0.027027 0.027027 0.027027 0.027027 0.027027 0.027027 0.027027 0.027027 0.027027 0.027027 0.027027;
   (close_right, inclin_39, dist_7, right) 0.027027 0.027027 0.027027 0.027027 0.027027 0.027027 0.027027 0.027027 0.027027 0.027027 0.027027 0.027027 0.027027 0.027027 0.027027 0.027027 0.027027 0.027027 0.027027 0.027027 0.027027 0.027027 0.027027 0.027027 0.027027 0.027027 0.027027 0.027027 0.027027 0.027027 0.027027 0.027027 0.027027 0.027027 0.027027 0.027027 0.027027;
   (far, inclin_39, dist_7, right) 0.027027 0.027027 0.027027 0.027027 0.027027 0.027027 0.027027 0.027027 0.027027 0.027027 0.027027 0.027027 0.027027 0.027027 0.027027 0.027027 0.027027 0.027027 0.027027 0.027027 0.027027 0.027027 0.027027 0.027027 0.027027 0.027027 0.027027 0.027027 0.027027 0.027027 0.027027 0.027027 0.027027 0.027027 0.027027 0.027027 0.027027;
   (right, inclin_39, dist_7, right) 0.027027 0.027027 0.027027 0.027027 0.027027 0.027027 0.027027 0.027027 0.027027 0.027027 0.027027 0.027027 0.027027 0.027027 0.027027 0.027027 0.027027 0.027027 0.027027 0.027027 0.027027 0.027027 0.027027 0.027027 0.027027 0.027027 0.027027 0.027027 0.027027 0.027027 0.027027 0.027027 0.027027 0.027027 0.027027 0.027027 0.027027;
   (close_right_down, inclin_39, dist_7, right) 0.027027 0.027027 0.027027 0.027027 0.027027 0.027027 0.027027 0.027027 0.027027 0.027027 0.027027 0.027027 0.027027 0.027027 0.027027 0.027027 0.027027 0.027027 0.027027 0.027027 0.027027 0.027027 0.027027 0.027027 0.027027 0.027027 0.027027 0.027027 0.027027 0.027027 0.027027 0.027027 0.027027 0.027027 0.027027 0.027027 0.027027;
   (close, inclin_39, dist_7, right) 0.027027 0.027027 0.027027 0.027027 0.027027 0.027027 0.027027 0.027027 0.027027 0.027027 0.027027 0.027027 0.027027 0.027027 0.027027 0.027027 0.027027 0.027027 0.027027 0.027027 0.027027 0.027027 0.027027 0.027027 0.027027 0.027027 0.027027 0.027027 0.027027 0.027027 0.027027 0.027027 0.027027 0.027027 0.027027 0.027027 0.027027;
   (right_down, inclin_48, dist_7, right) 0.027027 0.027027 0.027027 0.027027 0.027027 0.027027 0.027027 0.027027 0.027027 0.027027 0.027027 0.027027 0.027027 0.027027 0.027027 0.027027 0.027027 0.027027 0.027027 0.027027 0.027027 0.027027 0.027027 0.027027 0.027027 0.027027 0.027027 0.027027 0.027027 0.027027 0.027027 0.027027 0.027027 0.027027 0.027027 0.027027 0.027027;
   (close_right, inclin_48, dist_7, right) 0.027027 0.027027 0.027027 0.027027 0.027027 0.027027 0.027027 0.027027 0.027027 0.027027 0.027027 0.027027 0.027027 0.027027 0.027027 0.027027 0.027027 0.027027 0.027027 0.027027 0.027027 0.027027 0.027027 0.027027 0.027027 0.027027 0.027027 0.027027 0.027027 0.027027 0.027027 0.027027 0.027027 0.027027 0.027027 0.027027 0.027027;
   (far, inclin_48, dist_7, right) 0.027027 0.027027 0.027027 0.027027 0.027027 0.027027 0.027027 0.027027 0.027027 0.027027 0.027027 0.027027 0.027027 0.027027 0.027027 0.027027 0.027027 0.027027 0.027027 0.027027 0.027027 0.027027 0.027027 0.027027 0.027027 0.027027 0.027027 0.027027 0.027027 0.027027 0.027027 0.027027 0.027027 0.027027 0.027027 0.027027 0.027027;
   (right, inclin_48, dist_7, right) 0.027027 0.027027 0.027027 0.027027 0.027027 0.027027 0.027027 0.027027 0.027027 0.027027 0.027027 0.027027 0.027027 0.027027 0.027027 0.027027 0.027027 0.027027 0.027027 0.027027 0.027027 0.027027 0.027027 0.027027 0.027027 0.027027 0.027027 0.027027 0.027027 0.027027 0.027027 0.027027 0.027027 0.027027 0.027027 0.027027 0.027027;
   (close_right_down, inclin_48, dist_7, right) 0.027027 0.027027 0.027027 0.027027 0.027027 0.027027 0.027027 0.027027 0.027027 0.027027 0.027027 0.027027 0.027027 0.027027 0.027027 0.027027 0.027027 0.027027 0.027027 0.027027 0.027027 0.027027 0.027027 0.027027 0.027027 0.027027 0.027027 0.027027 0.027027 0.027027 0.027027 0.027027 0.027027 0.027027 0.027027 0.027027 0.027027;
   (close, inclin_48, dist_7, right) 0.027027 0.027027 0.027027 0.027027 0.027027 0.027027 0.027027 0.027027 0.027027 0.027027 0.027027 0.027027 0.027027 0.027027 0.027027 0.027027 0.027027 0.027027 0.027027 0.027027 0.027027 0.027027 0.027027 0.027027 0.027027 0.027027 0.027027 0.027027 0.027027 0.027027 0.027027 0.027027 0.027027 0.027027 0.027027 0.027027 0.027027;
   (right_down, inclin_52, dist_7, right) 0.027027 0.027027 0.027027 0.027027 0.027027 0.027027 0.027027 0.027027 0.027027 0.027027 0.027027 0.027027 0.027027 0.027027 0.027027 0.027027 0.027027 0.027027 0.027027 0.027027 0.027027 0.027027 0.027027 0.027027 0.027027 0.027027 0.027027 0.027027 0.027027 0.027027 0.027027 0.027027 0.027027 0.027027 0.027027 0.027027 0.027027;
   (close_right, inclin_52, dist_7, right) 0.027027 0.027027 0.027027 0.027027 0.027027 0.027027 0.027027 0.027027 0.027027 0.027027 0.027027 0.027027 0.027027 0.027027 0.027027 0.027027 0.027027 0.027027 0.027027 0.027027 0.027027 0.027027 0.027027 0.027027 0.027027 0.027027 0.027027 0.027027 0.027027 0.027027 0.027027 0.027027 0.027027 0.027027 0.027027 0.027027 0.027027;
   (far, inclin_52, dist_7, right) 0.027027 0.027027 0.027027 0.027027 0.027027 0.027027 0.027027 0.027027 0.027027 0.027027 0.027027 0.027027 0.027027 0.027027 0.027027 0.027027 0.027027 0.027027 0.027027 0.027027 0.027027 0.027027 0.027027 0.027027 0.027027 0.027027 0.027027 0.027027 0.027027 0.027027 0.027027 0.027027 0.027027 0.027027 0.027027 0.027027 0.027027;
   (right, inclin_52, dist_7, right) 0.027027 0.027027 0.027027 0.027027 0.027027 0.027027 0.027027 0.027027 0.027027 0.027027 0.027027 0.027027 0.027027 0.027027 0.027027 0.027027 0.027027 0.027027 0.027027 0.027027 0.027027 0.027027 0.027027 0.027027 0.027027 0.027027 0.027027 0.027027 0.027027 0.027027 0.027027 0.027027 0.027027 0.027027 0.027027 0.027027 0.027027;
   (close_right_down, inclin_52, dist_7, right) 0.027027 0.027027 0.027027 0.027027 0.027027 0.027027 0.027027 0.027027 0.027027 0.027027 0.027027 0.027027 0.027027 0.027027 0.027027 0.027027 0.027027 0.027027 0.027027 0.027027 0.027027 0.027027 0.027027 0.027027 0.027027 0.027027 0.027027 0.027027 0.027027 0.027027 0.027027 0.027027 0.027027 0.027027 0.027027 0.027027 0.027027;
   (close, inclin_52, dist_7, right) 0.027027 0.027027 0.027027 0.027027 0.027027 0.027027 0.027027 0.027027 0.027027 0.027027 0.027027 0.027027 0.027027 0.027027 0.027027 0.027027 0.027027 0.027027 0.027027 0.027027 0.027027 0.027027 0.027027 0.027027 0.027027 0.027027 0.027027 0.027027 0.027027 0.027027 0.027027 0.027027 0.027027 0.027027 0.027027 0.027027 0.027027;
   (right_down, inclin_40, dist_7, right) 0.027027 0.027027 0.027027 0.027027 0.027027 0.027027 0.027027 0.027027 0.027027 0.027027 0.027027 0.027027 0.027027 0.027027 0.027027 0.027027 0.027027 0.027027 0.027027 0.027027 0.027027 0.027027 0.027027 0.027027 0.027027 0.027027 0.027027 0.027027 0.027027 0.027027 0.027027 0.027027 0.027027 0.027027 0.027027 0.027027 0.027027;
   (close_right, inclin_40, dist_7, right) 0.027027 0.027027 0.027027 0.027027 0.027027 0.027027 0.027027 0.027027 0.027027 0.027027 0.027027 0.027027 0.027027 0.027027 0.027027 0.027027 0.027027 0.027027 0.027027 0.027027 0.027027 0.027027 0.027027 0.027027 0.027027 0.027027 0.027027 0.027027 0.027027 0.027027 0.027027 0.027027 0.027027 0.027027 0.027027 0.027027 0.027027;
   (far, inclin_40, dist_7, right) 0.027027 0.027027 0.027027 0.027027 0.027027 0.027027 0.027027 0.027027 0.027027 0.027027 0.027027 0.027027 0.027027 0.027027 0.027027 0.027027 0.027027 0.027027 0.027027 0.027027 0.027027 0.027027 0.027027 0.027027 0.027027 0.027027 0.027027 0.027027 0.027027 0.027027 0.027027 0.027027 0.027027 0.027027 0.027027 0.027027 0.027027;
   (right, inclin_40, dist_7, right) 0.027027 0.027027 0.027027 0.027027 0.027027 0.027027 0.027027 0.027027 0.027027 0.027027 0.027027 0.027027 0.027027 0.027027 0.027027 0.027027 0.027027 0.027027 0.027027 0.027027 0.027027 0.027027 0.027027 0.027027 0.027027 0.027027 0.027027 0.027027 0.027027 0.027027 0.027027 0.027027 0.027027 0.027027 0.027027 0.027027 0.027027;
   (close_right_down, inclin_40, dist_7, right) 0.027027 0.027027 0.027027 0.027027 0.027027 0.027027 0.027027 0.027027 0.027027 0.027027 0.027027 0.027027 0.027027 0.027027 0.027027 0.027027 0.027027 0.027027 0.027027 0.027027 0.027027 0.027027 0.027027 0.027027 0.027027 0.027027 0.027027 0.027027 0.027027 0.027027 0.027027 0.027027 0.027027 0.027027 0.027027 0.027027 0.027027;
   (close, inclin_40, dist_7, right) 0.027027 0.027027 0.027027 0.027027 0.027027 0.027027 0.027027 0.027027 0.027027 0.027027 0.027027 0.027027 0.027027 0.027027 0.027027 0.027027 0.027027 0.027027 0.027027 0.027027 0.027027 0.027027 0.027027 0.027027 0.027027 0.027027 0.027027 0.027027 0.027027 0.027027 0.027027 0.027027 0.027027 0.027027 0.027027 0.027027 0.027027;
   (right_down, inclin_23, dist_7, right) 0.0697674 0.0465116 0.0232558 0.0232558 0.0232558 0.0232558 0.0930233 0.0232558 0.0232558 0.0232558 0.0232558 0.0232558 0.0232558 0.0232558 0.0232558 0.0232558 0.0232558 0.0232558 0.0232558 0.0232558 0.0232558 0.0232558 0.0232558 0.0232558 0.0232558 0.0232558 0.0232558 0.0232558 0.0232558 0.0232558 0.0232558 0.0232558 0.0232558 0.0232558 0.0232558 0.0232558 0.0232558;
   (close_right, inclin_23, dist_7, right) 0.027027 0.027027 0.027027 0.027027 0.027027 0.027027 0.027027 0.027027 0.027027 0.027027 0.027027 0.027027 0.027027 0.027027 0.027027 0.027027 0.027027 0.027027 0.027027 0.027027 0.027027 0.027027 0.027027 0.027027 0.027027 0.027027 0.027027 0.027027 0.027027 0.027027 0.027027 0.027027 0.027027 0.027027 0.027027 0.027027 0.027027;
   (far, inclin_23, dist_7, right) 0.027027 0.027027 0.027027 0.027027 0.027027 0.027027 0.027027 0.027027 0.027027 0.027027 0.027027 0.027027 0.027027 0.027027 0.027027 0.027027 0.027027 0.027027 0.027027 0.027027 0.027027 0.027027 0.027027 0.027027 0.027027 0.027027 0.027027 0.027027 0.027027 0.027027 0.027027 0.027027 0.027027 0.027027 0.027027 0.027027 0.027027;
   (right, inclin_23, dist_7, right) 0.027027 0.027027 0.027027 0.027027 0.027027 0.027027 0.027027 0.027027 0.027027 0.027027 0.027027 0.027027 0.027027 0.027027 0.027027 0.027027 0.027027 0.027027 0.027027 0.027027 0.027027 0.027027 0.027027 0.027027 0.027027 0.027027 0.027027 0.027027 0.027027 0.027027 0.027027 0.027027 0.027027 0.027027 0.027027 0.027027 0.027027;
   (close_right_down, inclin_23, dist_7, right) 0.027027 0.027027 0.027027 0.027027 0.027027 0.027027 0.027027 0.027027 0.027027 0.027027 0.027027 0.027027 0.027027 0.027027 0.027027 0.027027 0.027027 0.027027 0.027027 0.027027 0.027027 0.027027 0.027027 0.027027 0.027027 0.027027 0.027027 0.027027 0.027027 0.027027 0.027027 0.027027 0.027027 0.027027 0.027027 0.027027 0.027027;
   (close, inclin_23, dist_7, right) 0.027027 0.027027 0.027027 0.027027 0.027027 0.027027 0.027027 0.027027 0.027027 0.027027 0.027027 0.027027 0.027027 0.027027 0.027027 0.027027 0.027027 0.027027 0.027027 0.027027 0.027027 0.027027 0.027027 0.027027 0.027027 0.027027 0.027027 0.027027 0.027027 0.027027 0.027027 0.027027 0.027027 0.027027 0.027027 0.027027 0.027027;
   (right_down, inclin_25, dist_7, right) 0.122449 0.0816327 0.0204082 0.0204082 0.0204082 0.0204082 0.102041 0.0204082 0.0204082 0.0204082 0.0204082 0.0204082 0.0204082 0.0204082 0.0204082 0.0204082 0.0204082 0.0204082 0.0204082 0.0204082 0.0204082 0.0204082 0.0204082 0.0204082 0.0204082 0.0204082 0.0204082 0.0204082 0.0204082 0.0204082 0.0204082 0.0204082 0.0204082 0.0204082 0.0204082 0.0204082 0.0204082;
   (close_right, inclin_25, dist_7, right) 0.027027 0.027027 0.027027 0.027027 0.027027 0.027027 0.027027 0.027027 0.027027 0.027027 0.027027 0.027027 0.027027 0.027027 0.027027 0.027027 0.027027 0.027027 0.027027 0.027027 0.027027 0.027027 0.027027 0.027027 0.027027 0.027027 0.027027 0.027027 0.027027 0.027027 0.027027 0.027027 0.027027 0.027027 0.027027 0.027027 0.027027;
   (far, inclin_25, dist_7, right) 0.027027 0.027027 0.027027 0.027027 0.027027 0.027027 0.027027 0.027027 0.027027 0.027027 0.027027 0.027027 0.027027 0.027027 0.027027 0.027027 0.027027 0.027027 0.027027 0.027027 0.027027 0.027027 0.027027 0.027027 0.027027 0.027027 0.027027 0.027027 0.027027 0.027027 0.027027 0.027027 0.027027 0.027027 0.027027 0.027027 0.027027;
   (right, inclin_25, dist_7, right) 0.027027 0.027027 0.027027 0.027027 0.027027 0.027027 0.027027 0.027027 0.027027 0.027027 0.027027 0.027027 0.027027 0.027027 0.027027 0.027027 0.027027 0.027027 0.027027 0.027027 0.027027 0.027027 0.027027 0.027027 0.027027 0.027027 0.027027 0.027027 0.027027 0.027027 0.027027 0.027027 0.027027 0.027027 0.027027 0.027027 0.027027;
   (close_right_down, inclin_25, dist_7, right) 0.027027 0.027027 0.027027 0.027027 0.027027 0.027027 0.027027 0.027027 0.027027 0.027027 0.027027 0.027027 0.027027 0.027027 0.027027 0.027027 0.027027 0.027027 0.027027 0.027027 0.027027 0.027027 0.027027 0.027027 0.027027 0.027027 0.027027 0.027027 0.027027 0.027027 0.027027 0.027027 0.027027 0.027027 0.027027 0.027027 0.027027;
   (close, inclin_25, dist_7, right) 0.027027 0.027027 0.027027 0.027027 0.027027 0.027027 0.027027 0.027027 0.027027 0.027027 0.027027 0.027027 0.027027 0.027027 0.027027 0.027027 0.027027 0.027027 0.027027 0.027027 0.027027 0.027027 0.027027 0.027027 0.027027 0.027027 0.027027 0.027027 0.027027 0.027027 0.027027 0.027027 0.027027 0.027027 0.027027 0.027027 0.027027;
   (right_down, inclin_37, dist_7, right) 0.027027 0.027027 0.027027 0.027027 0.027027 0.027027 0.027027 0.027027 0.027027 0.027027 0.027027 0.027027 0.027027 0.027027 0.027027 0.027027 0.027027 0.027027 0.027027 0.027027 0.027027 0.027027 0.027027 0.027027 0.027027 0.027027 0.027027 0.027027 0.027027 0.027027 0.027027 0.027027 0.027027 0.027027 0.027027 0.027027 0.027027;
   (close_right, inclin_37, dist_7, right) 0.027027 0.027027 0.027027 0.027027 0.027027 0.027027 0.027027 0.027027 0.027027 0.027027 0.027027 0.027027 0.027027 0.027027 0.027027 0.027027 0.027027 0.027027 0.027027 0.027027 0.027027 0.027027 0.027027 0.027027 0.027027 0.027027 0.027027 0.027027 0.027027 0.027027 0.027027 0.027027 0.027027 0.027027 0.027027 0.027027 0.027027;
   (far, inclin_37, dist_7, right) 0.027027 0.027027 0.027027 0.027027 0.027027 0.027027 0.027027 0.027027 0.027027 0.027027 0.027027 0.027027 0.027027 0.027027 0.027027 0.027027 0.027027 0.027027 0.027027 0.027027 0.027027 0.027027 0.027027 0.027027 0.027027 0.027027 0.027027 0.027027 0.027027 0.027027 0.027027 0.027027 0.027027 0.027027 0.027027 0.027027 0.027027;
   (right, inclin_37, dist_7, right) 0.027027 0.027027 0.027027 0.027027 0.027027 0.027027 0.027027 0.027027 0.027027 0.027027 0.027027 0.027027 0.027027 0.027027 0.027027 0.027027 0.027027 0.027027 0.027027 0.027027 0.027027 0.027027 0.027027 0.027027 0.027027 0.027027 0.027027 0.027027 0.027027 0.027027 0.027027 0.027027 0.027027 0.027027 0.027027 0.027027 0.027027;
   (close_right_down, inclin_37, dist_7, right) 0.027027 0.027027 0.027027 0.027027 0.027027 0.027027 0.027027 0.027027 0.027027 0.027027 0.027027 0.027027 0.027027 0.027027 0.027027 0.027027 0.027027 0.027027 0.027027 0.027027 0.027027 0.027027 0.027027 0.027027 0.027027 0.027027 0.027027 0.027027 0.027027 0.027027 0.027027 0.027027 0.027027 0.027027 0.027027 0.027027 0.027027;
   (close, inclin_37, dist_7, right) 0.027027 0.027027 0.027027 0.027027 0.027027 0.027027 0.027027 0.027027 0.027027 0.027027 0.027027 0.027027 0.027027 0.027027 0.027027 0.027027 0.027027 0.027027 0.027027 0.027027 0.027027 0.027027 0.027027 0.027027 0.027027 0.027027 0.027027 0.027027 0.027027 0.027027 0.027027 0.027027 0.027027 0.027027 0.027027 0.027027 0.027027;
   (right_down, inclin_63, dist_7, right) 0.027027 0.027027 0.027027 0.027027 0.027027 0.027027 0.027027 0.027027 0.027027 0.027027 0.027027 0.027027 0.027027 0.027027 0.027027 0.027027 0.027027 0.027027 0.027027 0.027027 0.027027 0.027027 0.027027 0.027027 0.027027 0.027027 0.027027 0.027027 0.027027 0.027027 0.027027 0.027027 0.027027 0.027027 0.027027 0.027027 0.027027;
   (close_right, inclin_63, dist_7, right) 0.027027 0.027027 0.027027 0.027027 0.027027 0.027027 0.027027 0.027027 0.027027 0.027027 0.027027 0.027027 0.027027 0.027027 0.027027 0.027027 0.027027 0.027027 0.027027 0.027027 0.027027 0.027027 0.027027 0.027027 0.027027 0.027027 0.027027 0.027027 0.027027 0.027027 0.027027 0.027027 0.027027 0.027027 0.027027 0.027027 0.027027;
   (far, inclin_63, dist_7, right) 0.027027 0.027027 0.027027 0.027027 0.027027 0.027027 0.027027 0.027027 0.027027 0.027027 0.027027 0.027027 0.027027 0.027027 0.027027 0.027027 0.027027 0.027027 0.027027 0.027027 0.027027 0.027027 0.027027 0.027027 0.027027 0.027027 0.027027 0.027027 0.027027 0.027027 0.027027 0.027027 0.027027 0.027027 0.027027 0.027027 0.027027;
   (right, inclin_63, dist_7, right) 0.027027 0.027027 0.027027 0.027027 0.027027 0.027027 0.027027 0.027027 0.027027 0.027027 0.027027 0.027027 0.027027 0.027027 0.027027 0.027027 0.027027 0.027027 0.027027 0.027027 0.027027 0.027027 0.027027 0.027027 0.027027 0.027027 0.027027 0.027027 0.027027 0.027027 0.027027 0.027027 0.027027 0.027027 0.027027 0.027027 0.027027;
   (close_right_down, inclin_63, dist_7, right) 0.027027 0.027027 0.027027 0.027027 0.027027 0.027027 0.027027 0.027027 0.027027 0.027027 0.027027 0.027027 0.027027 0.027027 0.027027 0.027027 0.027027 0.027027 0.027027 0.027027 0.027027 0.027027 0.027027 0.027027 0.027027 0.027027 0.027027 0.027027 0.027027 0.027027 0.027027 0.027027 0.027027 0.027027 0.027027 0.027027 0.027027;
   (close, inclin_63, dist_7, right) 0.027027 0.027027 0.027027 0.027027 0.027027 0.027027 0.027027 0.027027 0.027027 0.027027 0.027027 0.027027 0.027027 0.027027 0.027027 0.027027 0.027027 0.027027 0.027027 0.027027 0.027027 0.027027 0.027027 0.027027 0.027027 0.027027 0.027027 0.027027 0.027027 0.027027 0.027027 0.027027 0.027027 0.027027 0.027027 0.027027 0.027027;
   (right_down, inclin_24, dist_7, right) 0.125 0.0833333 0.0208333 0.0208333 0.0208333 0.0208333 0.0833333 0.0208333 0.0208333 0.0208333 0.0208333 0.0208333 0.0208333 0.0208333 0.0208333 0.0208333 0.0208333 0.0208333 0.0208333 0.0208333 0.0208333 0.0208333 0.0208333 0.0208333 0.0208333 0.0208333 0.0208333 0.0208333 0.0208333 0.0208333 0.0208333 0.0208333 0.0208333 0.0208333 0.0208333 0.0208333 0.0208333;
   (close_right, inclin_24, dist_7, right) 0.027027 0.027027 0.027027 0.027027 0.027027 0.027027 0.027027 0.027027 0.027027 0.027027 0.027027 0.027027 0.027027 0.027027 0.027027 0.027027 0.027027 0.027027 0.027027 0.027027 0.027027 0.027027 0.027027 0.027027 0.027027 0.027027 0.027027 0.027027 0.027027 0.027027 0.027027 0.027027 0.027027 0.027027 0.027027 0.027027 0.027027;
   (far, inclin_24, dist_7, right) 0.027027 0.027027 0.027027 0.027027 0.027027 0.027027 0.027027 0.027027 0.027027 0.027027 0.027027 0.027027 0.027027 0.027027 0.027027 0.027027 0.027027 0.027027 0.027027 0.027027 0.027027 0.027027 0.027027 0.027027 0.027027 0.027027 0.027027 0.027027 0.027027 0.027027 0.027027 0.027027 0.027027 0.027027 0.027027 0.027027 0.027027;
   (right, inclin_24, dist_7, right) 0.027027 0.027027 0.027027 0.027027 0.027027 0.027027 0.027027 0.027027 0.027027 0.027027 0.027027 0.027027 0.027027 0.027027 0.027027 0.027027 0.027027 0.027027 0.027027 0.027027 0.027027 0.027027 0.027027 0.027027 0.027027 0.027027 0.027027 0.027027 0.027027 0.027027 0.027027 0.027027 0.027027 0.027027 0.027027 0.027027 0.027027;
   (close_right_down, inclin_24, dist_7, right) 0.027027 0.027027 0.027027 0.027027 0.027027 0.027027 0.027027 0.027027 0.027027 0.027027 0.027027 0.027027 0.027027 0.027027 0.027027 0.027027 0.027027 0.027027 0.027027 0.027027 0.027027 0.027027 0.027027 0.027027 0.027027 0.027027 0.027027 0.027027 0.027027 0.027027 0.027027 0.027027 0.027027 0.027027 0.027027 0.027027 0.027027;
   (close, inclin_24, dist_7, right) 0.027027 0.027027 0.027027 0.027027 0.027027 0.027027 0.027027 0.027027 0.027027 0.027027 0.027027 0.027027 0.027027 0.027027 0.027027 0.027027 0.027027 0.027027 0.027027 0.027027 0.027027 0.027027 0.027027 0.027027 0.027027 0.027027 0.027027 0.027027 0.027027 0.027027 0.027027 0.027027 0.027027 0.027027 0.027027 0.027027 0.027027;
   (right_down, inclin_38, dist_7, right) 0.027027 0.027027 0.027027 0.027027 0.027027 0.027027 0.027027 0.027027 0.027027 0.027027 0.027027 0.027027 0.027027 0.027027 0.027027 0.027027 0.027027 0.027027 0.027027 0.027027 0.027027 0.027027 0.027027 0.027027 0.027027 0.027027 0.027027 0.027027 0.027027 0.027027 0.027027 0.027027 0.027027 0.027027 0.027027 0.027027 0.027027;
   (close_right, inclin_38, dist_7, right) 0.027027 0.027027 0.027027 0.027027 0.027027 0.027027 0.027027 0.027027 0.027027 0.027027 0.027027 0.027027 0.027027 0.027027 0.027027 0.027027 0.027027 0.027027 0.027027 0.027027 0.027027 0.027027 0.027027 0.027027 0.027027 0.027027 0.027027 0.027027 0.027027 0.027027 0.027027 0.027027 0.027027 0.027027 0.027027 0.027027 0.027027;
   (far, inclin_38, dist_7, right) 0.027027 0.027027 0.027027 0.027027 0.027027 0.027027 0.027027 0.027027 0.027027 0.027027 0.027027 0.027027 0.027027 0.027027 0.027027 0.027027 0.027027 0.027027 0.027027 0.027027 0.027027 0.027027 0.027027 0.027027 0.027027 0.027027 0.027027 0.027027 0.027027 0.027027 0.027027 0.027027 0.027027 0.027027 0.027027 0.027027 0.027027;
   (right, inclin_38, dist_7, right) 0.027027 0.027027 0.027027 0.027027 0.027027 0.027027 0.027027 0.027027 0.027027 0.027027 0.027027 0.027027 0.027027 0.027027 0.027027 0.027027 0.027027 0.027027 0.027027 0.027027 0.027027 0.027027 0.027027 0.027027 0.027027 0.027027 0.027027 0.027027 0.027027 0.027027 0.027027 0.027027 0.027027 0.027027 0.027027 0.027027 0.027027;
   (close_right_down, inclin_38, dist_7, right) 0.027027 0.027027 0.027027 0.027027 0.027027 0.027027 0.027027 0.027027 0.027027 0.027027 0.027027 0.027027 0.027027 0.027027 0.027027 0.027027 0.027027 0.027027 0.027027 0.027027 0.027027 0.027027 0.027027 0.027027 0.027027 0.027027 0.027027 0.027027 0.027027 0.027027 0.027027 0.027027 0.027027 0.027027 0.027027 0.027027 0.027027;
   (close, inclin_38, dist_7, right) 0.027027 0.027027 0.027027 0.027027 0.027027 0.027027 0.027027 0.027027 0.027027 0.027027 0.027027 0.027027 0.027027 0.027027 0.027027 0.027027 0.027027 0.027027 0.027027 0.027027 0.027027 0.027027 0.027027 0.027027 0.027027 0.027027 0.027027 0.027027 0.027027 0.027027 0.027027 0.027027 0.027027 0.027027 0.027027 0.027027 0.027027;
   (right_down, inclin_0, dist_7, right) 0.027027 0.027027 0.027027 0.027027 0.027027 0.027027 0.027027 0.027027 0.027027 0.027027 0.027027 0.027027 0.027027 0.027027 0.027027 0.027027 0.027027 0.027027 0.027027 0.027027 0.027027 0.027027 0.027027 0.027027 0.027027 0.027027 0.027027 0.027027 0.027027 0.027027 0.027027 0.027027 0.027027 0.027027 0.027027 0.027027 0.027027;
   (close_right, inclin_0, dist_7, right) 0.027027 0.027027 0.027027 0.027027 0.027027 0.027027 0.027027 0.027027 0.027027 0.027027 0.027027 0.027027 0.027027 0.027027 0.027027 0.027027 0.027027 0.027027 0.027027 0.027027 0.027027 0.027027 0.027027 0.027027 0.027027 0.027027 0.027027 0.027027 0.027027 0.027027 0.027027 0.027027 0.027027 0.027027 0.027027 0.027027 0.027027;
   (far, inclin_0, dist_7, right) 0.027027 0.027027 0.027027 0.027027 0.027027 0.027027 0.027027 0.027027 0.027027 0.027027 0.027027 0.027027 0.027027 0.027027 0.027027 0.027027 0.027027 0.027027 0.027027 0.027027 0.027027 0.027027 0.027027 0.027027 0.027027 0.027027 0.027027 0.027027 0.027027 0.027027 0.027027 0.027027 0.027027 0.027027 0.027027 0.027027 0.027027;
   (right, inclin_0, dist_7, right) 0.027027 0.027027 0.027027 0.027027 0.027027 0.027027 0.027027 0.027027 0.027027 0.027027 0.027027 0.027027 0.027027 0.027027 0.027027 0.027027 0.027027 0.027027 0.027027 0.027027 0.027027 0.027027 0.027027 0.027027 0.027027 0.027027 0.027027 0.027027 0.027027 0.027027 0.027027 0.027027 0.027027 0.027027 0.027027 0.027027 0.027027;
   (close_right_down, inclin_0, dist_7, right) 0.027027 0.027027 0.027027 0.027027 0.027027 0.027027 0.027027 0.027027 0.027027 0.027027 0.027027 0.027027 0.027027 0.027027 0.027027 0.027027 0.027027 0.027027 0.027027 0.027027 0.027027 0.027027 0.027027 0.027027 0.027027 0.027027 0.027027 0.027027 0.027027 0.027027 0.027027 0.027027 0.027027 0.027027 0.027027 0.027027 0.027027;
   (close, inclin_0, dist_7, right) 0.027027 0.027027 0.027027 0.027027 0.027027 0.027027 0.027027 0.027027 0.027027 0.027027 0.027027 0.027027 0.027027 0.027027 0.027027 0.027027 0.027027 0.027027 0.027027 0.027027 0.027027 0.027027 0.027027 0.027027 0.027027 0.027027 0.027027 0.027027 0.027027 0.027027 0.027027 0.027027 0.027027 0.027027 0.027027 0.027027 0.027027;
   (right_down, inclin_44, dist_7, right) 0.027027 0.027027 0.027027 0.027027 0.027027 0.027027 0.027027 0.027027 0.027027 0.027027 0.027027 0.027027 0.027027 0.027027 0.027027 0.027027 0.027027 0.027027 0.027027 0.027027 0.027027 0.027027 0.027027 0.027027 0.027027 0.027027 0.027027 0.027027 0.027027 0.027027 0.027027 0.027027 0.027027 0.027027 0.027027 0.027027 0.027027;
   (close_right, inclin_44, dist_7, right) 0.027027 0.027027 0.027027 0.027027 0.027027 0.027027 0.027027 0.027027 0.027027 0.027027 0.027027 0.027027 0.027027 0.027027 0.027027 0.027027 0.027027 0.027027 0.027027 0.027027 0.027027 0.027027 0.027027 0.027027 0.027027 0.027027 0.027027 0.027027 0.027027 0.027027 0.027027 0.027027 0.027027 0.027027 0.027027 0.027027 0.027027;
   (far, inclin_44, dist_7, right) 0.027027 0.027027 0.027027 0.027027 0.027027 0.027027 0.027027 0.027027 0.027027 0.027027 0.027027 0.027027 0.027027 0.027027 0.027027 0.027027 0.027027 0.027027 0.027027 0.027027 0.027027 0.027027 0.027027 0.027027 0.027027 0.027027 0.027027 0.027027 0.027027 0.027027 0.027027 0.027027 0.027027 0.027027 0.027027 0.027027 0.027027;
   (right, inclin_44, dist_7, right) 0.027027 0.027027 0.027027 0.027027 0.027027 0.027027 0.027027 0.027027 0.027027 0.027027 0.027027 0.027027 0.027027 0.027027 0.027027 0.027027 0.027027 0.027027 0.027027 0.027027 0.027027 0.027027 0.027027 0.027027 0.027027 0.027027 0.027027 0.027027 0.027027 0.027027 0.027027 0.027027 0.027027 0.027027 0.027027 0.027027 0.027027;
   (close_right_down, inclin_44, dist_7, right) 0.027027 0.027027 0.027027 0.027027 0.027027 0.027027 0.027027 0.027027 0.027027 0.027027 0.027027 0.027027 0.027027 0.027027 0.027027 0.027027 0.027027 0.027027 0.027027 0.027027 0.027027 0.027027 0.027027 0.027027 0.027027 0.027027 0.027027 0.027027 0.027027 0.027027 0.027027 0.027027 0.027027 0.027027 0.027027 0.027027 0.027027;
   (close, inclin_44, dist_7, right) 0.027027 0.027027 0.027027 0.027027 0.027027 0.027027 0.027027 0.027027 0.027027 0.027027 0.027027 0.027027 0.027027 0.027027 0.027027 0.027027 0.027027 0.027027 0.027027 0.027027 0.027027 0.027027 0.027027 0.027027 0.027027 0.027027 0.027027 0.027027 0.027027 0.027027 0.027027 0.027027 0.027027 0.027027 0.027027 0.027027 0.027027;
   (right_down, inclin_51, dist_7, right) 0.027027 0.027027 0.027027 0.027027 0.027027 0.027027 0.027027 0.027027 0.027027 0.027027 0.027027 0.027027 0.027027 0.027027 0.027027 0.027027 0.027027 0.027027 0.027027 0.027027 0.027027 0.027027 0.027027 0.027027 0.027027 0.027027 0.027027 0.027027 0.027027 0.027027 0.027027 0.027027 0.027027 0.027027 0.027027 0.027027 0.027027;
   (close_right, inclin_51, dist_7, right) 0.027027 0.027027 0.027027 0.027027 0.027027 0.027027 0.027027 0.027027 0.027027 0.027027 0.027027 0.027027 0.027027 0.027027 0.027027 0.027027 0.027027 0.027027 0.027027 0.027027 0.027027 0.027027 0.027027 0.027027 0.027027 0.027027 0.027027 0.027027 0.027027 0.027027 0.027027 0.027027 0.027027 0.027027 0.027027 0.027027 0.027027;
   (far, inclin_51, dist_7, right) 0.027027 0.027027 0.027027 0.027027 0.027027 0.027027 0.027027 0.027027 0.027027 0.027027 0.027027 0.027027 0.027027 0.027027 0.027027 0.027027 0.027027 0.027027 0.027027 0.027027 0.027027 0.027027 0.027027 0.027027 0.027027 0.027027 0.027027 0.027027 0.027027 0.027027 0.027027 0.027027 0.027027 0.027027 0.027027 0.027027 0.027027;
   (right, inclin_51, dist_7, right) 0.027027 0.027027 0.027027 0.027027 0.027027 0.027027 0.027027 0.027027 0.027027 0.027027 0.027027 0.027027 0.027027 0.027027 0.027027 0.027027 0.027027 0.027027 0.027027 0.027027 0.027027 0.027027 0.027027 0.027027 0.027027 0.027027 0.027027 0.027027 0.027027 0.027027 0.027027 0.027027 0.027027 0.027027 0.027027 0.027027 0.027027;
