
network unnamedBN{
   property software aGrUM;
}

variable effect {
   type discrete[4] {left, right, close, far};
}

variable orientation {
   type discrete[8] {orien_4, orien_3, orien_2, orien_5, orien_6, orien_7, orien_1, orien_0};
}

variable inclination {
   type discrete[3] {inclin_0, inclin_1, inclin_2};
}

variable move {
   type discrete[17] {down, close_right_down, left, close_left_down, right, close, close_down, far, right_down, close_right, far_right_down, far_down, far_right, far_left_down, left_down, far_left, close_left};
}

variable distance {
   type discrete[3] {dist_2, dist_1, dist_0};
}

probability (effect | orientation) {
   (orien_4) 0.0479452 0.0684932 0.821918 0.0616438;
   (orien_3) 0.217391 0.152174 0.5 0.130435;
   (orien_2) 0.801471 0.0735294 0.0661765 0.0588235;
   (orien_5) 0.139535 0.465116 0.232558 0.162791;
   (orien_6) 0.0671642 0.798507 0.0597015 0.0746269;
   (orien_7) 0.0592593 0.0888889 0.0814815 0.77037;
   (orien_1) 0.444444 0.155556 0.177778 0.222222;
   (orien_0) 0.219512 0.121951 0.121951 0.536585;
}
probability (orientation | inclination) {
   (inclin_0) 0.167832 0.0944056 0.157343 0.0909091 0.146853 0.167832 0.0944056 0.0804196;
   (inclin_1) 0.133971 0.076555 0.100478 0.0717703 0.105263 0.373206 0.076555 0.062201;
   (inclin_2) 0.309417 0.00896861 0.309417 0.00448431 0.309417 0.0358744 0.00448431 0.0179372;
}
probability (inclination | distance) {
   (dist_2) 0.55489 0.305389 0.139721;
   (dist_1) 0.0147059 0.257353 0.727941;
   (dist_0) 0.0151515 0.242424 0.742424;
}
probability (move | orientation, distance, inclination, effect) {
   (orien_4, dist_2, inclin_0, left) 0.0869565 0.0869565 0.0434783 0.0434783 0.0434783 0.0434783 0.0434783 0.0434783 0.0869565 0.173913 0.0434783 0.0434783 0.0434783 0.0434783 0.0434783 0.0434783 0.0434783;
   (orien_3, dist_2, inclin_0, left) 0.12 0.2 0.04 0.04 0.04 0.04 0.12 0.04 0.04 0.04 0.04 0.04 0.04 0.04 0.04 0.04 0.04;
   (orien_2, dist_2, inclin_0, left) 0.135135 0.027027 0.027027 0.027027 0.027027 0.027027 0.0810811 0.027027 0.405405 0.027027 0.027027 0.027027 0.027027 0.027027 0.027027 0.027027 0.027027;
   (orien_5, dist_2, inclin_0, left) 0.0454545 0.0454545 0.0454545 0.0454545 0.227273 0.0454545 0.0454545 0.0454545 0.0454545 0.0909091 0.0454545 0.0454545 0.0454545 0.0454545 0.0454545 0.0454545 0.0454545;
   (orien_6, dist_2, inclin_0, left) 0.04 0.04 0.04 0.04 0.36 0.04 0.04 0.04 0.04 0.04 0.04 0.04 0.04 0.04 0.04 0.04 0.04;
   (orien_7, dist_2, inclin_0, left) 0.0416667 0.0416667 0.0416667 0.0416667 0.0833333 0.0416667 0.0416667 0.0416667 0.0833333 0.0416667 0.208333 0.0833333 0.0416667 0.0416667 0.0416667 0.0416667 0.0416667;
   (orien_1, dist_2, inclin_0, left) 0.181818 0.0454545 0.0454545 0.0454545 0.0454545 0.0454545 0.0454545 0.0454545 0.0909091 0.0454545 0.0454545 0.0909091 0.0454545 0.0454545 0.0454545 0.0454545 0.0454545;
   (orien_0, dist_2, inclin_0, left) 0.0833333 0.0416667 0.0416667 0.0416667 0.0416667 0.0416667 0.0416667 0.0416667 0.0416667 0.0416667 0.291667 0.0416667 0.0416667 0.0416667 0.0416667 0.0416667 0.0416667;
   (orien_4, dist_1, inclin_0, left) 0.0588235 0.0588235 0.0588235 0.0588235 0.0588235 0.0588235 0.0588235 0.0588235 0.0588235 0.0588235 0.0588235 0.0588235 0.0588235 0.0588235 0.0588235 0.0588235 0.0588235;
   (orien_3, dist_1, inclin_0, left) 0.0588235 0.0588235 0.0588235 0.0588235 0.0588235 0.0588235 0.0588235 0.0588235 0.0588235 0.0588235 0.0588235 0.0588235 0.0588235 0.0588235 0.0588235 0.0588235 0.0588235;
   (orien_2, dist_1, inclin_0, left) 0.0588235 0.0588235 0.0588235 0.0588235 0.0588235 0.0588235 0.0588235 0.0588235 0.0588235 0.0588235 0.0588235 0.0588235 0.0588235 0.0588235 0.0588235 0.0588235 0.0588235;
   (orien_5, dist_1, inclin_0, left) 0.0588235 0.0588235 0.0588235 0.0588235 0.0588235 0.0588235 0.0588235 0.0588235 0.0588235 0.0588235 0.0588235 0.0588235 0.0588235 0.0588235 0.0588235 0.0588235 0.0588235;
   (orien_6, dist_1, inclin_0, left) 0.0588235 0.0588235 0.0588235 0.0588235 0.0588235 0.0588235 0.0588235 0.0588235 0.0588235 0.0588235 0.0588235 0.0588235 0.0588235 0.0588235 0.0588235 0.0588235 0.0588235;
   (orien_7, dist_1, inclin_0, left) 0.0588235 0.0588235 0.0588235 0.0588235 0.0588235 0.0588235 0.0588235 0.0588235 0.0588235 0.0588235 0.0588235 0.0588235 0.0588235 0.0588235 0.0588235 0.0588235 0.0588235;
   (orien_1, dist_1, inclin_0, left) 0.0588235 0.0588235 0.0588235 0.0588235 0.0588235 0.0588235 0.0588235 0.0588235 0.0588235 0.0588235 0.0588235 0.0588235 0.0588235 0.0588235 0.0588235 0.0588235 0.0588235;
   (orien_0, dist_1, inclin_0, left) 0.0555556 0.0555556 0.0555556 0.0555556 0.0555556 0.0555556 0.0555556 0.0555556 0.0555556 0.0555556 0.111111 0.0555556 0.0555556 0.0555556 0.0555556 0.0555556 0.0555556;
   (orien_4, dist_0, inclin_0, left) 0.0588235 0.0588235 0.0588235 0.0588235 0.0588235 0.0588235 0.0588235 0.0588235 0.0588235 0.0588235 0.0588235 0.0588235 0.0588235 0.0588235 0.0588235 0.0588235 0.0588235;
   (orien_3, dist_0, inclin_0, left) 0.0588235 0.0588235 0.0588235 0.0588235 0.0588235 0.0588235 0.0588235 0.0588235 0.0588235 0.0588235 0.0588235 0.0588235 0.0588235 0.0588235 0.0588235 0.0588235 0.0588235;
   (orien_2, dist_0, inclin_0, left) 0.0588235 0.0588235 0.0588235 0.0588235 0.0588235 0.0588235 0.0588235 0.0588235 0.0588235 0.0588235 0.0588235 0.0588235 0.0588235 0.0588235 0.0588235 0.0588235 0.0588235;
   (orien_5, dist_0, inclin_0, left) 0.0588235 0.0588235 0.0588235 0.0588235 0.0588235 0.0588235 0.0588235 0.0588235 0.0588235 0.0588235 0.0588235 0.0588235 0.0588235 0.0588235 0.0588235 0.0588235 0.0588235;
   (orien_6, dist_0, inclin_0, left) 0.0588235 0.0588235 0.0588235 0.0588235 0.0588235 0.0588235 0.0588235 0.0588235 0.0588235 0.0588235 0.0588235 0.0588235 0.0588235 0.0588235 0.0588235 0.0588235 0.0588235;
   (orien_7, dist_0, inclin_0, left) 0.0588235 0.0588235 0.0588235 0.0588235 0.0588235 0.0588235 0.0588235 0.0588235 0.0588235 0.0588235 0.0588235 0.0588235 0.0588235 0.0588235 0.0588235 0.0588235 0.0588235;
   (orien_1, dist_0, inclin_0, left) 0.0588235 0.0588235 0.0588235 0.0588235 0.0588235 0.0588235 0.0588235 0.0588235 0.0588235 0.0588235 0.0588235 0.0588235 0.0588235 0.0588235 0.0588235 0.0588235 0.0588235;
   (orien_0, dist_0, inclin_0, left) 0.0588235 0.0588235 0.0588235 0.0588235 0.0588235 0.0588235 0.0588235 0.0588235 0.0588235 0.0588235 0.0588235 0.0588235 0.0588235 0.0588235 0.0588235 0.0588235 0.0588235;
   (orien_4, dist_2, inclin_1, left) 0.0588235 0.0588235 0.0588235 0.0588235 0.0588235 0.0588235 0.0588235 0.0588235 0.0588235 0.0588235 0.0588235 0.0588235 0.0588235 0.0588235 0.0588235 0.0588235 0.0588235;
   (orien_3, dist_2, inclin_1, left) 0.0555556 0.111111 0.0555556 0.0555556 0.0555556 0.0555556 0.0555556 0.0555556 0.0555556 0.0555556 0.0555556 0.0555556 0.0555556 0.0555556 0.0555556 0.0555556 0.0555556;
   (orien_2, dist_2, inclin_1, left) 0.216216 0.0810811 0.0810811 0.027027 0.027027 0.027027 0.135135 0.027027 0.162162 0.027027 0.027027 0.027027 0.027027 0.027027 0.027027 0.027027 0.027027;
   (orien_5, dist_2, inclin_1, left) 0.0588235 0.0588235 0.0588235 0.0588235 0.0588235 0.0588235 0.0588235 0.0588235 0.0588235 0.0588235 0.0588235 0.0588235 0.0588235 0.0588235 0.0588235 0.0588235 0.0588235;
   (orien_6, dist_2, inclin_1, left) 0.0588235 0.0588235 0.0588235 0.0588235 0.0588235 0.0588235 0.0588235 0.0588235 0.0588235 0.0588235 0.0588235 0.0588235 0.0588235 0.0588235 0.0588235 0.0588235 0.0588235;
   (orien_7, dist_2, inclin_1, left) 0.0588235 0.0588235 0.0588235 0.0588235 0.0588235 0.0588235 0.0588235 0.0588235 0.0588235 0.0588235 0.0588235 0.0588235 0.0588235 0.0588235 0.0588235 0.0588235 0.0588235;
   (orien_1, dist_2, inclin_1, left) 0.166667 0.0333333 0.0666667 0.0333333 0.0333333 0.0333333 0.0333333 0.0333333 0.0333333 0.0333333 0.133333 0.2 0.0333333 0.0333333 0.0333333 0.0333333 0.0333333;
   (orien_0, dist_2, inclin_1, left) 0.0588235 0.0588235 0.0588235 0.0588235 0.0588235 0.0588235 0.0588235 0.0588235 0.0588235 0.0588235 0.0588235 0.0588235 0.0588235 0.0588235 0.0588235 0.0588235 0.0588235;
   (orien_4, dist_1, inclin_1, left) 0.0588235 0.0588235 0.0588235 0.0588235 0.0588235 0.0588235 0.0588235 0.0588235 0.0588235 0.0588235 0.0588235 0.0588235 0.0588235 0.0588235 0.0588235 0.0588235 0.0588235;
   (orien_3, dist_1, inclin_1, left) 0.0588235 0.0588235 0.0588235 0.0588235 0.0588235 0.0588235 0.0588235 0.0588235 0.0588235 0.0588235 0.0588235 0.0588235 0.0588235 0.0588235 0.0588235 0.0588235 0.0588235;
   (orien_2, dist_1, inclin_1, left) 0.0588235 0.0588235 0.0588235 0.0588235 0.0588235 0.0588235 0.0588235 0.0588235 0.0588235 0.0588235 0.0588235 0.0588235 0.0588235 0.0588235 0.0588235 0.0588235 0.0588235;
   (orien_5, dist_1, inclin_1, left) 0.0588235 0.0588235 0.0588235 0.0588235 0.0588235 0.0588235 0.0588235 0.0588235 0.0588235 0.0588235 0.0588235 0.0588235 0.0588235 0.0588235 0.0588235 0.0588235 0.0588235;
   (orien_6, dist_1, inclin_1, left) 0.0588235 0.0588235 0.0588235 0.0588235 0.0588235 0.0588235 0.0588235 0.0588235 0.0588235 0.0588235 0.0588235 0.0588235 0.0588235 0.0588235 0.0588235 0.0588235 0.0588235;
   (orien_7, dist_1, inclin_1, left) 0.0588235 0.0588235 0.0588235 0.0588235 0.0588235 0.0588235 0.0588235 0.0588235 0.0588235 0.0588235 0.0588235 0.0588235 0.0588235 0.0588235 0.0588235 0.0588235 0.0588235;
   (orien_1, dist_1, inclin_1, left) 0.0555556 0.0555556 0.0555556 0.0555556 0.0555556 0.0555556 0.0555556 0.0555556 0.0555556 0.0555556 0.111111 0.0555556 0.0555556 0.0555556 0.0555556 0.0555556 0.0555556;
   (orien_0, dist_1, inclin_1, left) 0.0588235 0.0588235 0.0588235 0.0588235 0.0588235 0.0588235 0.0588235 0.0588235 0.0588235 0.0588235 0.0588235 0.0588235 0.0588235 0.0588235 0.0588235 0.0588235 0.0588235;
   (orien_4, dist_0, inclin_1, left) 0.0588235 0.0588235 0.0588235 0.0588235 0.0588235 0.0588235 0.0588235 0.0588235 0.0588235 0.0588235 0.0588235 0.0588235 0.0588235 0.0588235 0.0588235 0.0588235 0.0588235;
   (orien_3, dist_0, inclin_1, left) 0.0588235 0.0588235 0.0588235 0.0588235 0.0588235 0.0588235 0.0588235 0.0588235 0.0588235 0.0588235 0.0588235 0.0588235 0.0588235 0.0588235 0.0588235 0.0588235 0.0588235;
   (orien_2, dist_0, inclin_1, left) 0.0588235 0.0588235 0.0588235 0.0588235 0.0588235 0.0588235 0.0588235 0.0588235 0.0588235 0.0588235 0.0588235 0.0588235 0.0588235 0.0588235 0.0588235 0.0588235 0.0588235;
   (orien_5, dist_0, inclin_1, left) 0.0588235 0.0588235 0.0588235 0.0588235 0.0588235 0.0588235 0.0588235 0.0588235 0.0588235 0.0588235 0.0588235 0.0588235 0.0588235 0.0588235 0.0588235 0.0588235 0.0588235;
   (orien_6, dist_0, inclin_1, left) 0.0588235 0.0588235 0.0588235 0.0588235 0.0588235 0.0588235 0.0588235 0.0588235 0.0588235 0.0588235 0.0588235 0.0588235 0.0588235 0.0588235 0.0588235 0.0588235 0.0588235;
   (orien_7, dist_0, inclin_1, left) 0.0588235 0.0588235 0.0588235 0.0588235 0.0588235 0.0588235 0.0588235 0.0588235 0.0588235 0.0588235 0.0588235 0.0588235 0.0588235 0.0588235 0.0588235 0.0588235 0.0588235;
   (orien_1, dist_0, inclin_1, left) 0.0588235 0.0588235 0.0588235 0.0588235 0.0588235 0.0588235 0.0588235 0.0588235 0.0588235 0.0588235 0.0588235 0.0588235 0.0588235 0.0588235 0.0588235 0.0588235 0.0588235;
   (orien_0, dist_0, inclin_1, left) 0.0588235 0.0588235 0.0588235 0.0588235 0.0588235 0.0588235 0.0588235 0.0588235 0.0588235 0.0588235 0.0588235 0.0588235 0.0588235 0.0588235 0.0588235 0.0588235 0.0588235;
   (orien_4, dist_2, inclin_2, left) 0.0588235 0.0588235 0.0588235 0.0588235 0.0588235 0.0588235 0.0588235 0.0588235 0.0588235 0.0588235 0.0588235 0.0588235 0.0588235 0.0588235 0.0588235 0.0588235 0.0588235;
   (orien_3, dist_2, inclin_2, left) 0.0588235 0.0588235 0.0588235 0.0588235 0.0588235 0.0588235 0.0588235 0.0588235 0.0588235 0.0588235 0.0588235 0.0588235 0.0588235 0.0588235 0.0588235 0.0588235 0.0588235;
   (orien_2, dist_2, inclin_2, left) 0.027027 0.027027 0.567568 0.027027 0.027027 0.027027 0.027027 0.027027 0.027027 0.027027 0.027027 0.027027 0.027027 0.027027 0.027027 0.027027 0.027027;
   (orien_5, dist_2, inclin_2, left) 0.0588235 0.0588235 0.0588235 0.0588235 0.0588235 0.0588235 0.0588235 0.0588235 0.0588235 0.0588235 0.0588235 0.0588235 0.0588235 0.0588235 0.0588235 0.0588235 0.0588235;
   (orien_6, dist_2, inclin_2, left) 0.0588235 0.0588235 0.0588235 0.0588235 0.0588235 0.0588235 0.0588235 0.0588235 0.0588235 0.0588235 0.0588235 0.0588235 0.0588235 0.0588235 0.0588235 0.0588235 0.0588235;
   (orien_7, dist_2, inclin_2, left) 0.0588235 0.0588235 0.0588235 0.0588235 0.0588235 0.0588235 0.0588235 0.0588235 0.0588235 0.0588235 0.0588235 0.0588235 0.0588235 0.0588235 0.0588235 0.0588235 0.0588235;
   (orien_1, dist_2, inclin_2, left) 0.0588235 0.0588235 0.0588235 0.0588235 0.0588235 0.0588235 0.0588235 0.0588235 0.0588235 0.0588235 0.0588235 0.0588235 0.0588235 0.0588235 0.0588235 0.0588235 0.0588235;
   (orien_0, dist_2, inclin_2, left) 0.0588235 0.0588235 0.0588235 0.0588235 0.0588235 0.0588235 0.0588235 0.0588235 0.0588235 0.0588235 0.0588235 0.0588235 0.0588235 0.0588235 0.0588235 0.0588235 0.0588235;
   (orien_4, dist_1, inclin_2, left) 0.0588235 0.0588235 0.0588235 0.0588235 0.0588235 0.0588235 0.0588235 0.0588235 0.0588235 0.0588235 0.0588235 0.0588235 0.0588235 0.0588235 0.0588235 0.0588235 0.0588235;
   (orien_3, dist_1, inclin_2, left) 0.0588235 0.0588235 0.0588235 0.0588235 0.0588235 0.0588235 0.0588235 0.0588235 0.0588235 0.0588235 0.0588235 0.0588235 0.0588235 0.0588235 0.0588235 0.0588235 0.0588235;
   (orien_2, dist_1, inclin_2, left) 0.0204082 0.0204082 0.673469 0.0204082 0.0204082 0.0204082 0.0204082 0.0204082 0.0204082 0.0204082 0.0204082 0.0204082 0.0204082 0.0204082 0.0204082 0.0204082 0.0204082;
   (orien_5, dist_1, inclin_2, left) 0.0588235 0.0588235 0.0588235 0.0588235 0.0588235 0.0588235 0.0588235 0.0588235 0.0588235 0.0588235 0.0588235 0.0588235 0.0588235 0.0588235 0.0588235 0.0588235 0.0588235;
   (orien_6, dist_1, inclin_2, left) 0.0588235 0.0588235 0.0588235 0.0588235 0.0588235 0.0588235 0.0588235 0.0588235 0.0588235 0.0588235 0.0588235 0.0588235 0.0588235 0.0588235 0.0588235 0.0588235 0.0588235;
   (orien_7, dist_1, inclin_2, left) 0.0588235 0.0588235 0.0588235 0.0588235 0.0588235 0.0588235 0.0588235 0.0588235 0.0588235 0.0588235 0.0588235 0.0588235 0.0588235 0.0588235 0.0588235 0.0588235 0.0588235;
   (orien_1, dist_1, inclin_2, left) 0.0588235 0.0588235 0.0588235 0.0588235 0.0588235 0.0588235 0.0588235 0.0588235 0.0588235 0.0588235 0.0588235 0.0588235 0.0588235 0.0588235 0.0588235 0.0588235 0.0588235;
   (orien_0, dist_1, inclin_2, left) 0.0588235 0.0588235 0.0588235 0.0588235 0.0588235 0.0588235 0.0588235 0.0588235 0.0588235 0.0588235 0.0588235 0.0588235 0.0588235 0.0588235 0.0588235 0.0588235 0.0588235;
   (orien_4, dist_0, inclin_2, left) 0.0588235 0.0588235 0.0588235 0.0588235 0.0588235 0.0588235 0.0588235 0.0588235 0.0588235 0.0588235 0.0588235 0.0588235 0.0588235 0.0588235 0.0588235 0.0588235 0.0588235;
   (orien_3, dist_0, inclin_2, left) 0.0588235 0.0588235 0.0588235 0.0588235 0.0588235 0.0588235 0.0588235 0.0588235 0.0588235 0.0588235 0.0588235 0.0588235 0.0588235 0.0588235 0.0588235 0.0588235 0.0588235;
   (orien_2, dist_0, inclin_2, left) 0.030303 0.030303 0.515152 0.030303 0.030303 0.030303 0.030303 0.030303 0.030303 0.030303 0.030303 0.030303 0.030303 0.030303 0.030303 0.030303 0.030303;
   (orien_5, dist_0, inclin_2, left) 0.0588235 0.0588235 0.0588235 0.0588235 0.0588235 0.0588235 0.0588235 0.0588235 0.0588235 0.0588235 0.0588235 0.0588235 0.0588235 0.0588235 0.0588235 0.0588235 0.0588235;
   (orien_6, dist_0, inclin_2, left) 0.0588235 0.0588235 0.0588235 0.0588235 0.0588235 0.0588235 0.0588235 0.0588235 0.0588235 0.0588235 0.0588235 0.0588235 0.0588235 0.0588235 0.0588235 0.0588235 0.0588235;
   (orien_7, dist_0, inclin_2, left) 0.0588235 0.0588235 0.0588235 0.0588235 0.0588235 0.0588235 0.0588235 0.0588235 0.0588235 0.0588235 0.0588235 0.0588235 0.0588235 0.0588235 0.0588235 0.0588235 0.0588235;
   (orien_1, dist_0, inclin_2, left) 0.0588235 0.0588235 0.0588235 0.0588235 0.0588235 0.0588235 0.0588235 0.0588235 0.0588235 0.0588235 0.0588235 0.0588235 0.0588235 0.0588235 0.0588235 0.0588235 0.0588235;
   (orien_0, dist_0, inclin_2, left) 0.0588235 0.0588235 0.0588235 0.0588235 0.0588235 0.0588235 0.0588235 0.0588235 0.0588235 0.0588235 0.0588235 0.0588235 0.0588235 0.0588235 0.0588235 0.0588235 0.0588235;
   (orien_4, dist_2, inclin_0, right) 0.115385 0.0384615 0.0384615 0.230769 0.0384615 0.0384615 0.115385 0.0384615 0.0384615 0.0384615 0.0384615 0.0384615 0.0384615 0.0384615 0.0384615 0.0384615 0.0384615;
   (orien_3, dist_2, inclin_0, right) 0.0434783 0.0434783 0.0869565 0.173913 0.0434783 0.0434783 0.0434783 0.0434783 0.0434783 0.0434783 0.0434783 0.0434783 0.0434783 0.0434783 0.130435 0.0434783 0.0434783;
   (orien_2, dist_2, inclin_0, right) 0.0384615 0.0384615 0.384615 0.0384615 0.0384615 0.0384615 0.0384615 0.0384615 0.0384615 0.0384615 0.0384615 0.0384615 0.0384615 0.0384615 0.0384615 0.0384615 0.0384615;
   (orien_5, dist_2, inclin_0, right) 0.173913 0.0434783 0.0434783 0.0434783 0.0434783 0.0434783 0.130435 0.0434783 0.0434783 0.0434783 0.0434783 0.0434783 0.0434783 0.0434783 0.0869565 0.0434783 0.0434783;
   (orien_6, dist_2, inclin_0, right) 0.147059 0.0294118 0.0294118 0.0294118 0.0294118 0.0294118 0.0294118 0.0294118 0.0294118 0.0294118 0.0294118 0.0882353 0.0294118 0.0294118 0.352941 0.0294118 0.0294118;
   (orien_7, dist_2, inclin_0, right) 0.148148 0.037037 0.037037 0.037037 0.037037 0.037037 0.037037 0.037037 0.037037 0.037037 0.037037 0.111111 0.037037 0.222222 0.037037 0.037037 0.037037;
   (orien_1, dist_2, inclin_0, right) 0.0434783 0.0434783 0.26087 0.0434783 0.0434783 0.0434783 0.0434783 0.0434783 0.0434783 0.0434783 0.0434783 0.0434783 0.0434783 0.0434783 0.0869565 0.0434783 0.0434783;
   (orien_0, dist_2, inclin_0, right) 0.047619 0.047619 0.047619 0.047619 0.047619 0.047619 0.047619 0.047619 0.047619 0.047619 0.047619 0.047619 0.047619 0.190476 0.0952381 0.047619 0.047619;
   (orien_4, dist_1, inclin_0, right) 0.0588235 0.0588235 0.0588235 0.0588235 0.0588235 0.0588235 0.0588235 0.0588235 0.0588235 0.0588235 0.0588235 0.0588235 0.0588235 0.0588235 0.0588235 0.0588235 0.0588235;
   (orien_3, dist_1, inclin_0, right) 0.0588235 0.0588235 0.0588235 0.0588235 0.0588235 0.0588235 0.0588235 0.0588235 0.0588235 0.0588235 0.0588235 0.0588235 0.0588235 0.0588235 0.0588235 0.0588235 0.0588235;
   (orien_2, dist_1, inclin_0, right) 0.0588235 0.0588235 0.0588235 0.0588235 0.0588235 0.0588235 0.0588235 0.0588235 0.0588235 0.0588235 0.0588235 0.0588235 0.0588235 0.0588235 0.0588235 0.0588235 0.0588235;
   (orien_5, dist_1, inclin_0, right) 0.0588235 0.0588235 0.0588235 0.0588235 0.0588235 0.0588235 0.0588235 0.0588235 0.0588235 0.0588235 0.0588235 0.0588235 0.0588235 0.0588235 0.0588235 0.0588235 0.0588235;
   (orien_6, dist_1, inclin_0, right) 0.0588235 0.0588235 0.0588235 0.0588235 0.0588235 0.0588235 0.0588235 0.0588235 0.0588235 0.0588235 0.0588235 0.0588235 0.0588235 0.0588235 0.0588235 0.0588235 0.0588235;
   (orien_7, dist_1, inclin_0, right) 0.0588235 0.0588235 0.0588235 0.0588235 0.0588235 0.0588235 0.0588235 0.0588235 0.0588235 0.0588235 0.0588235 0.0588235 0.0588235 0.0588235 0.0588235 0.0588235 0.0588235;
   (orien_1, dist_1, inclin_0, right) 0.0588235 0.0588235 0.0588235 0.0588235 0.0588235 0.0588235 0.0588235 0.0588235 0.0588235 0.0588235 0.0588235 0.0588235 0.0588235 0.0588235 0.0588235 0.0588235 0.0588235;
   (orien_0, dist_1, inclin_0, right) 0.0588235 0.0588235 0.0588235 0.0588235 0.0588235 0.0588235 0.0588235 0.0588235 0.0588235 0.0588235 0.0588235 0.0588235 0.0588235 0.0588235 0.0588235 0.0588235 0.0588235;
   (orien_4, dist_0, inclin_0, right) 0.0588235 0.0588235 0.0588235 0.0588235 0.0588235 0.0588235 0.0588235 0.0588235 0.0588235 0.0588235 0.0588235 0.0588235 0.0588235 0.0588235 0.0588235 0.0588235 0.0588235;
   (orien_3, dist_0, inclin_0, right) 0.0588235 0.0588235 0.0588235 0.0588235 0.0588235 0.0588235 0.0588235 0.0588235 0.0588235 0.0588235 0.0588235 0.0588235 0.0588235 0.0588235 0.0588235 0.0588235 0.0588235;
   (orien_2, dist_0, inclin_0, right) 0.0588235 0.0588235 0.0588235 0.0588235 0.0588235 0.0588235 0.0588235 0.0588235 0.0588235 0.0588235 0.0588235 0.0588235 0.0588235 0.0588235 0.0588235 0.0588235 0.0588235;
   (orien_5, dist_0, inclin_0, right) 0.0588235 0.0588235 0.0588235 0.0588235 0.0588235 0.0588235 0.0588235 0.0588235 0.0588235 0.0588235 0.0588235 0.0588235 0.0588235 0.0588235 0.0588235 0.0588235 0.0588235;
   (orien_6, dist_0, inclin_0, right) 0.0588235 0.0588235 0.0588235 0.0588235 0.0588235 0.0588235 0.0588235 0.0588235 0.0588235 0.0588235 0.0588235 0.0588235 0.0588235 0.0588235 0.0588235 0.0588235 0.0588235;
   (orien_7, dist_0, inclin_0, right) 0.0588235 0.0588235 0.0588235 0.0588235 0.0588235 0.0588235 0.0588235 0.0588235 0.0588235 0.0588235 0.0588235 0.0588235 0.0588235 0.0588235 0.0588235 0.0588235 0.0588235;
   (orien_1, dist_0, inclin_0, right) 0.0588235 0.0588235 0.0588235 0.0588235 0.0588235 0.0588235 0.0588235 0.0588235 0.0588235 0.0588235 0.0588235 0.0588235 0.0588235 0.0588235 0.0588235 0.0588235 0.0588235;
   (orien_0, dist_0, inclin_0, right) 0.0588235 0.0588235 0.0588235 0.0588235 0.0588235 0.0588235 0.0588235 0.0588235 0.0588235 0.0588235 0.0588235 0.0588235 0.0588235 0.0588235 0.0588235 0.0588235 0.0588235;
   (orien_4, dist_2, inclin_1, right) 0.0588235 0.0588235 0.0588235 0.0588235 0.0588235 0.0588235 0.0588235 0.0588235 0.0588235 0.0588235 0.0588235 0.0588235 0.0588235 0.0588235 0.0588235 0.0588235 0.0588235;
   (orien_3, dist_2, inclin_1, right) 0.0588235 0.0588235 0.0588235 0.0588235 0.0588235 0.0588235 0.0588235 0.0588235 0.0588235 0.0588235 0.0588235 0.0588235 0.0588235 0.0588235 0.0588235 0.0588235 0.0588235;
   (orien_2, dist_2, inclin_1, right) 0.0588235 0.0588235 0.0588235 0.0588235 0.0588235 0.0588235 0.0588235 0.0588235 0.0588235 0.0588235 0.0588235 0.0588235 0.0588235 0.0588235 0.0588235 0.0588235 0.0588235;
   (orien_5, dist_2, inclin_1, right) 0.137931 0.0344828 0.0344828 0.137931 0.0689655 0.0344828 0.172414 0.0344828 0.0689655 0.0344828 0.0344828 0.0344828 0.0344828 0.0344828 0.0344828 0.0344828 0.0344828;
   (orien_6, dist_2, inclin_1, right) 0.243243 0.027027 0.027027 0.027027 0.108108 0.027027 0.027027 0.027027 0.027027 0.027027 0.027027 0.135135 0.027027 0.0810811 0.108108 0.027027 0.027027;
   (orien_7, dist_2, inclin_1, right) 0.0555556 0.0555556 0.0555556 0.0555556 0.0555556 0.0555556 0.0555556 0.0555556 0.0555556 0.0555556 0.0555556 0.0555556 0.0555556 0.111111 0.0555556 0.0555556 0.0555556;
   (orien_1, dist_2, inclin_1, right) 0.0588235 0.0588235 0.0588235 0.0588235 0.0588235 0.0588235 0.0588235 0.0588235 0.0588235 0.0588235 0.0588235 0.0588235 0.0588235 0.0588235 0.0588235 0.0588235 0.0588235;
   (orien_0, dist_2, inclin_1, right) 0.0588235 0.0588235 0.0588235 0.0588235 0.0588235 0.0588235 0.0588235 0.0588235 0.0588235 0.0588235 0.0588235 0.0588235 0.0588235 0.0588235 0.0588235 0.0588235 0.0588235;
   (orien_4, dist_1, inclin_1, right) 0.0588235 0.0588235 0.0588235 0.0588235 0.0588235 0.0588235 0.0588235 0.0588235 0.0588235 0.0588235 0.0588235 0.0588235 0.0588235 0.0588235 0.0588235 0.0588235 0.0588235;
   (orien_3, dist_1, inclin_1, right) 0.0588235 0.0588235 0.0588235 0.0588235 0.0588235 0.0588235 0.0588235 0.0588235 0.0588235 0.0588235 0.0588235 0.0588235 0.0588235 0.0588235 0.0588235 0.0588235 0.0588235;
   (orien_2, dist_1, inclin_1, right) 0.0588235 0.0588235 0.0588235 0.0588235 0.0588235 0.0588235 0.0588235 0.0588235 0.0588235 0.0588235 0.0588235 0.0588235 0.0588235 0.0588235 0.0588235 0.0588235 0.0588235;
   (orien_5, dist_1, inclin_1, right) 0.0555556 0.0555556 0.0555556 0.111111 0.0555556 0.0555556 0.0555556 0.0555556 0.0555556 0.0555556 0.0555556 0.0555556 0.0555556 0.0555556 0.0555556 0.0555556 0.0555556;
   (orien_6, dist_1, inclin_1, right) 0.0555556 0.0555556 0.0555556 0.0555556 0.0555556 0.0555556 0.0555556 0.0555556 0.0555556 0.0555556 0.0555556 0.0555556 0.0555556 0.111111 0.0555556 0.0555556 0.0555556;
   (orien_7, dist_1, inclin_1, right) 0.0588235 0.0588235 0.0588235 0.0588235 0.0588235 0.0588235 0.0588235 0.0588235 0.0588235 0.0588235 0.0588235 0.0588235 0.0588235 0.0588235 0.0588235 0.0588235 0.0588235;
   (orien_1, dist_1, inclin_1, right) 0.0588235 0.0588235 0.0588235 0.0588235 0.0588235 0.0588235 0.0588235 0.0588235 0.0588235 0.0588235 0.0588235 0.0588235 0.0588235 0.0588235 0.0588235 0.0588235 0.0588235;
   (orien_0, dist_1, inclin_1, right) 0.0588235 0.0588235 0.0588235 0.0588235 0.0588235 0.0588235 0.0588235 0.0588235 0.0588235 0.0588235 0.0588235 0.0588235 0.0588235 0.0588235 0.0588235 0.0588235 0.0588235;
   (orien_4, dist_0, inclin_1, right) 0.0588235 0.0588235 0.0588235 0.0588235 0.0588235 0.0588235 0.0588235 0.0588235 0.0588235 0.0588235 0.0588235 0.0588235 0.0588235 0.0588235 0.0588235 0.0588235 0.0588235;
   (orien_3, dist_0, inclin_1, right) 0.0588235 0.0588235 0.0588235 0.0588235 0.0588235 0.0588235 0.0588235 0.0588235 0.0588235 0.0588235 0.0588235 0.0588235 0.0588235 0.0588235 0.0588235 0.0588235 0.0588235;
   (orien_2, dist_0, inclin_1, right) 0.0588235 0.0588235 0.0588235 0.0588235 0.0588235 0.0588235 0.0588235 0.0588235 0.0588235 0.0588235 0.0588235 0.0588235 0.0588235 0.0588235 0.0588235 0.0588235 0.0588235;
   (orien_5, dist_0, inclin_1, right) 0.0588235 0.0588235 0.0588235 0.0588235 0.0588235 0.0588235 0.0588235 0.0588235 0.0588235 0.0588235 0.0588235 0.0588235 0.0588235 0.0588235 0.0588235 0.0588235 0.0588235;
   (orien_6, dist_0, inclin_1, right) 0.0588235 0.0588235 0.0588235 0.0588235 0.0588235 0.0588235 0.0588235 0.0588235 0.0588235 0.0588235 0.0588235 0.0588235 0.0588235 0.0588235 0.0588235 0.0588235 0.0588235;
   (orien_7, dist_0, inclin_1, right) 0.0588235 0.0588235 0.0588235 0.0588235 0.0588235 0.0588235 0.0588235 0.0588235 0.0588235 0.0588235 0.0588235 0.0588235 0.0588235 0.0588235 0.0588235 0.0588235 0.0588235;
   (orien_1, dist_0, inclin_1, right) 0.0588235 0.0588235 0.0588235 0.0588235 0.0588235 0.0588235 0.0588235 0.0588235 0.0588235 0.0588235 0.0588235 0.0588235 0.0588235 0.0588235 0.0588235 0.0588235 0.0588235;
   (orien_0, dist_0, inclin_1, right) 0.0588235 0.0588235 0.0588235 0.0588235 0.0588235 0.0588235 0.0588235 0.0588235 0.0588235 0.0588235 0.0588235 0.0588235 0.0588235 0.0588235 0.0588235 0.0588235 0.0588235;
   (orien_4, dist_2, inclin_2, right) 0.0588235 0.0588235 0.0588235 0.0588235 0.0588235 0.0588235 0.0588235 0.0588235 0.0588235 0.0588235 0.0588235 0.0588235 0.0588235 0.0588235 0.0588235 0.0588235 0.0588235;
   (orien_3, dist_2, inclin_2, right) 0.0588235 0.0588235 0.0588235 0.0588235 0.0588235 0.0588235 0.0588235 0.0588235 0.0588235 0.0588235 0.0588235 0.0588235 0.0588235 0.0588235 0.0588235 0.0588235 0.0588235;
   (orien_2, dist_2, inclin_2, right) 0.0588235 0.0588235 0.0588235 0.0588235 0.0588235 0.0588235 0.0588235 0.0588235 0.0588235 0.0588235 0.0588235 0.0588235 0.0588235 0.0588235 0.0588235 0.0588235 0.0588235;
   (orien_5, dist_2, inclin_2, right) 0.0588235 0.0588235 0.0588235 0.0588235 0.0588235 0.0588235 0.0588235 0.0588235 0.0588235 0.0588235 0.0588235 0.0588235 0.0588235 0.0588235 0.0588235 0.0588235 0.0588235;
   (orien_6, dist_2, inclin_2, right) 0.027027 0.027027 0.027027 0.027027 0.567568 0.027027 0.027027 0.027027 0.027027 0.027027 0.027027 0.027027 0.027027 0.027027 0.027027 0.027027 0.027027;
   (orien_7, dist_2, inclin_2, right) 0.0588235 0.0588235 0.0588235 0.0588235 0.0588235 0.0588235 0.0588235 0.0588235 0.0588235 0.0588235 0.0588235 0.0588235 0.0588235 0.0588235 0.0588235 0.0588235 0.0588235;
   (orien_1, dist_2, inclin_2, right) 0.0588235 0.0588235 0.0588235 0.0588235 0.0588235 0.0588235 0.0588235 0.0588235 0.0588235 0.0588235 0.0588235 0.0588235 0.0588235 0.0588235 0.0588235 0.0588235 0.0588235;
   (orien_0, dist_2, inclin_2, right) 0.0588235 0.0588235 0.0588235 0.0588235 0.0588235 0.0588235 0.0588235 0.0588235 0.0588235 0.0588235 0.0588235 0.0588235 0.0588235 0.0588235 0.0588235 0.0588235 0.0588235;
   (orien_4, dist_1, inclin_2, right) 0.0588235 0.0588235 0.0588235 0.0588235 0.0588235 0.0588235 0.0588235 0.0588235 0.0588235 0.0588235 0.0588235 0.0588235 0.0588235 0.0588235 0.0588235 0.0588235 0.0588235;
   (orien_3, dist_1, inclin_2, right) 0.0588235 0.0588235 0.0588235 0.0588235 0.0588235 0.0588235 0.0588235 0.0588235 0.0588235 0.0588235 0.0588235 0.0588235 0.0588235 0.0588235 0.0588235 0.0588235 0.0588235;
   (orien_2, dist_1, inclin_2, right) 0.0588235 0.0588235 0.0588235 0.0588235 0.0588235 0.0588235 0.0588235 0.0588235 0.0588235 0.0588235 0.0588235 0.0588235 0.0588235 0.0588235 0.0588235 0.0588235 0.0588235;
   (orien_5, dist_1, inclin_2, right) 0.0588235 0.0588235 0.0588235 0.0588235 0.0588235 0.0588235 0.0588235 0.0588235 0.0588235 0.0588235 0.0588235 0.0588235 0.0588235 0.0588235 0.0588235 0.0588235 0.0588235;
   (orien_6, dist_1, inclin_2, right) 0.0204082 0.0204082 0.0204082 0.0204082 0.673469 0.0204082 0.0204082 0.0204082 0.0204082 0.0204082 0.0204082 0.0204082 0.0204082 0.0204082 0.0204082 0.0204082 0.0204082;
   (orien_7, dist_1, inclin_2, right) 0.0588235 0.0588235 0.0588235 0.0588235 0.0588235 0.0588235 0.0588235 0.0588235 0.0588235 0.0588235 0.0588235 0.0588235 0.0588235 0.0588235 0.0588235 0.0588235 0.0588235;
   (orien_1, dist_1, inclin_2, right) 0.0588235 0.0588235 0.0588235 0.0588235 0.0588235 0.0588235 0.0588235 0.0588235 0.0588235 0.0588235 0.0588235 0.0588235 0.0588235 0.0588235 0.0588235 0.0588235 0.0588235;
   (orien_0, dist_1, inclin_2, right) 0.0588235 0.0588235 0.0588235 0.0588235 0.0588235 0.0588235 0.0588235 0.0588235 0.0588235 0.0588235 0.0588235 0.0588235 0.0588235 0.0588235 0.0588235 0.0588235 0.0588235;
   (orien_4, dist_0, inclin_2, right) 0.0588235 0.0588235 0.0588235 0.0588235 0.0588235 0.0588235 0.0588235 0.0588235 0.0588235 0.0588235 0.0588235 0.0588235 0.0588235 0.0588235 0.0588235 0.0588235 0.0588235;
   (orien_3, dist_0, inclin_2, right) 0.0588235 0.0588235 0.0588235 0.0588235 0.0588235 0.0588235 0.0588235 0.0588235 0.0588235 0.0588235 0.0588235 0.0588235 0.0588235 0.0588235 0.0588235 0.0588235 0.0588235;
   (orien_2, dist_0, inclin_2, right) 0.0588235 0.0588235 0.0588235 0.0588235 0.0588235 0.0588235 0.0588235 0.0588235 0.0588235 0.0588235 0.0588235 0.0588235 0.0588235 0.0588235 0.0588235 0.0588235 0.0588235;
   (orien_5, dist_0, inclin_2, right) 0.0588235 0.0588235 0.0588235 0.0588235 0.0588235 0.0588235 0.0588235 0.0588235 0.0588235 0.0588235 0.0588235 0.0588235 0.0588235 0.0588235 0.0588235 0.0588235 0.0588235;
   (orien_6, dist_0, inclin_2, right) 0.030303 0.030303 0.030303 0.030303 0.515152 0.030303 0.030303 0.030303 0.030303 0.030303 0.030303 0.030303 0.030303 0.030303 0.030303 0.030303 0.030303;
   (orien_7, dist_0, inclin_2, right) 0.0588235 0.0588235 0.0588235 0.0588235 0.0588235 0.0588235 0.0588235 0.0588235 0.0588235 0.0588235 0.0588235 0.0588235 0.0588235 0.0588235 0.0588235 0.0588235 0.0588235;
   (orien_1, dist_0, inclin_2, right) 0.0588235 0.0588235 0.0588235 0.0588235 0.0588235 0.0588235 0.0588235 0.0588235 0.0588235 0.0588235 0.0588235 0.0588235 0.0588235 0.0588235 0.0588235 0.0588235 0.0588235;
   (orien_0, dist_0, inclin_2, right) 0.0588235 0.0588235 0.0588235 0.0588235 0.0588235 0.0588235 0.0588235 0.0588235 0.0588235 0.0588235 0.0588235 0.0588235 0.0588235 0.0588235 0.0588235 0.0588235 0.0588235;
   (orien_4, dist_2, inclin_0, close) 0.121951 0.0243902 0.0243902 0.0243902 0.0243902 0.0243902 0.0243902 0.0243902 0.0731707 0.0243902 0.0243902 0.463415 0.0243902 0.0243902 0.0243902 0.0243902 0.0243902;
   (orien_3, dist_2, inclin_0, close) 0.166667 0.0416667 0.0416667 0.0416667 0.0416667 0.0416667 0.0416667 0.0416667 0.0416667 0.0416667 0.0416667 0.125 0.0416667 0.0416667 0.125 0.0416667 0.0416667;
   (orien_2, dist_2, inclin_0, close) 0.12 0.04 0.04 0.04 0.04 0.04 0.04 0.04 0.04 0.04 0.04 0.04 0.04 0.24 0.08 0.04 0.04;
   (orien_5, dist_2, inclin_0, close) 0.12 0.04 0.04 0.04 0.04 0.04 0.04 0.04 0.08 0.04 0.24 0.04 0.04 0.04 0.04 0.04 0.04;
   (orien_6, dist_2, inclin_0, close) 0.0833333 0.0416667 0.0416667 0.0416667 0.0416667 0.0416667 0.0416667 0.0416667 0.0416667 0.0416667 0.0833333 0.0833333 0.208333 0.0416667 0.0416667 0.0416667 0.0416667;
   (orien_7, dist_2, inclin_0, close) 0.037037 0.037037 0.037037 0.037037 0.037037 0.037037 0.037037 0.407407 0.037037 0.037037 0.037037 0.037037 0.037037 0.037037 0.037037 0.037037 0.037037;
   (orien_1, dist_2, inclin_0, close) 0.0416667 0.0416667 0.0416667 0.0416667 0.0416667 0.0416667 0.0416667 0.0833333 0.0416667 0.0416667 0.0416667 0.0833333 0.0416667 0.0833333 0.0416667 0.208333 0.0416667;
   (orien_0, dist_2, inclin_0, close) 0.047619 0.047619 0.047619 0.047619 0.047619 0.047619 0.047619 0.238095 0.047619 0.047619 0.047619 0.047619 0.047619 0.047619 0.047619 0.047619 0.047619;
   (orien_4, dist_1, inclin_0, close) 0.0588235 0.0588235 0.0588235 0.0588235 0.0588235 0.0588235 0.0588235 0.0588235 0.0588235 0.0588235 0.0588235 0.0588235 0.0588235 0.0588235 0.0588235 0.0588235 0.0588235;
   (orien_3, dist_1, inclin_0, close) 0.0588235 0.0588235 0.0588235 0.0588235 0.0588235 0.0588235 0.0588235 0.0588235 0.0588235 0.0588235 0.0588235 0.0588235 0.0588235 0.0588235 0.0588235 0.0588235 0.0588235;
   (orien_2, dist_1, inclin_0, close) 0.0588235 0.0588235 0.0588235 0.0588235 0.0588235 0.0588235 0.0588235 0.0588235 0.0588235 0.0588235 0.0588235 0.0588235 0.0588235 0.0588235 0.0588235 0.0588235 0.0588235;
   (orien_5, dist_1, inclin_0, close) 0.0588235 0.0588235 0.0588235 0.0588235 0.0588235 0.0588235 0.0588235 0.0588235 0.0588235 0.0588235 0.0588235 0.0588235 0.0588235 0.0588235 0.0588235 0.0588235 0.0588235;
   (orien_6, dist_1, inclin_0, close) 0.0588235 0.0588235 0.0588235 0.0588235 0.0588235 0.0588235 0.0588235 0.0588235 0.0588235 0.0588235 0.0588235 0.0588235 0.0588235 0.0588235 0.0588235 0.0588235 0.0588235;
   (orien_7, dist_1, inclin_0, close) 0.0588235 0.0588235 0.0588235 0.0588235 0.0588235 0.0588235 0.0588235 0.0588235 0.0588235 0.0588235 0.0588235 0.0588235 0.0588235 0.0588235 0.0588235 0.0588235 0.0588235;
   (orien_1, dist_1, inclin_0, close) 0.0588235 0.0588235 0.0588235 0.0588235 0.0588235 0.0588235 0.0588235 0.0588235 0.0588235 0.0588235 0.0588235 0.0588235 0.0588235 0.0588235 0.0588235 0.0588235 0.0588235;
   (orien_0, dist_1, inclin_0, close) 0.0588235 0.0588235 0.0588235 0.0588235 0.0588235 0.0588235 0.0588235 0.0588235 0.0588235 0.0588235 0.0588235 0.0588235 0.0588235 0.0588235 0.0588235 0.0588235 0.0588235;
   (orien_4, dist_0, inclin_0, close) 0.0588235 0.0588235 0.0588235 0.0588235 0.0588235 0.0588235 0.0588235 0.0588235 0.0588235 0.0588235 0.0588235 0.0588235 0.0588235 0.0588235 0.0588235 0.0588235 0.0588235;
   (orien_3, dist_0, inclin_0, close) 0.0588235 0.0588235 0.0588235 0.0588235 0.0588235 0.0588235 0.0588235 0.0588235 0.0588235 0.0588235 0.0588235 0.0588235 0.0588235 0.0588235 0.0588235 0.0588235 0.0588235;
   (orien_2, dist_0, inclin_0, close) 0.0588235 0.0588235 0.0588235 0.0588235 0.0588235 0.0588235 0.0588235 0.0588235 0.0588235 0.0588235 0.0588235 0.0588235 0.0588235 0.0588235 0.0588235 0.0588235 0.0588235;
   (orien_5, dist_0, inclin_0, close) 0.0588235 0.0588235 0.0588235 0.0588235 0.0588235 0.0588235 0.0588235 0.0588235 0.0588235 0.0588235 0.0588235 0.0588235 0.0588235 0.0588235 0.0588235 0.0588235 0.0588235;
   (orien_6, dist_0, inclin_0, close) 0.0588235 0.0588235 0.0588235 0.0588235 0.0588235 0.0588235 0.0588235 0.0588235 0.0588235 0.0588235 0.0588235 0.0588235 0.0588235 0.0588235 0.0588235 0.0588235 0.0588235;
   (orien_7, dist_0, inclin_0, close) 0.0588235 0.0588235 0.0588235 0.0588235 0.0588235 0.0588235 0.0588235 0.0588235 0.0588235 0.0588235 0.0588235 0.0588235 0.0588235 0.0588235 0.0588235 0.0588235 0.0588235;
   (orien_1, dist_0, inclin_0, close) 0.0588235 0.0588235 0.0588235 0.0588235 0.0588235 0.0588235 0.0588235 0.0588235 0.0588235 0.0588235 0.0588235 0.0588235 0.0588235 0.0588235 0.0588235 0.0588235 0.0588235;
   (orien_0, dist_0, inclin_0, close) 0.0588235 0.0588235 0.0588235 0.0588235 0.0588235 0.0588235 0.0588235 0.0588235 0.0588235 0.0588235 0.0588235 0.0588235 0.0588235 0.0588235 0.0588235 0.0588235 0.0588235;
   (orien_4, dist_2, inclin_1, close) 0.25 0.0227273 0.0227273 0.0227273 0.0227273 0.113636 0.0681818 0.0227273 0.0909091 0.0227273 0.0909091 0.136364 0.0227273 0.0227273 0.0227273 0.0227273 0.0227273;
   (orien_3, dist_2, inclin_1, close) 0.225806 0.0322581 0.0322581 0.0322581 0.0322581 0.0645161 0.0322581 0.0322581 0.0322581 0.0322581 0.0322581 0.0322581 0.0322581 0.193548 0.0967742 0.0322581 0.0322581;
   (orien_2, dist_2, inclin_1, close) 0.0588235 0.0588235 0.0588235 0.0588235 0.0588235 0.0588235 0.0588235 0.0588235 0.0588235 0.0588235 0.0588235 0.0588235 0.0588235 0.0588235 0.0588235 0.0588235 0.0588235;
   (orien_5, dist_2, inclin_1, close) 0.0555556 0.0555556 0.0555556 0.0555556 0.0555556 0.0555556 0.0555556 0.0555556 0.0555556 0.0555556 0.111111 0.0555556 0.0555556 0.0555556 0.0555556 0.0555556 0.0555556;
   (orien_6, dist_2, inclin_1, close) 0.0588235 0.0588235 0.0588235 0.0588235 0.0588235 0.0588235 0.0588235 0.0588235 0.0588235 0.0588235 0.0588235 0.0588235 0.0588235 0.0588235 0.0588235 0.0588235 0.0588235;
   (orien_7, dist_2, inclin_1, close) 0.0588235 0.0588235 0.0588235 0.0588235 0.0588235 0.0588235 0.0588235 0.0588235 0.0588235 0.0588235 0.0588235 0.0588235 0.0588235 0.0588235 0.0588235 0.0588235 0.0588235;
   (orien_1, dist_2, inclin_1, close) 0.0588235 0.0588235 0.0588235 0.0588235 0.0588235 0.0588235 0.0588235 0.0588235 0.0588235 0.0588235 0.0588235 0.0588235 0.0588235 0.0588235 0.0588235 0.0588235 0.0588235;
   (orien_0, dist_2, inclin_1, close) 0.0588235 0.0588235 0.0588235 0.0588235 0.0588235 0.0588235 0.0588235 0.0588235 0.0588235 0.0588235 0.0588235 0.0588235 0.0588235 0.0588235 0.0588235 0.0588235 0.0588235;
   (orien_4, dist_1, inclin_1, close) 0.0588235 0.0588235 0.0588235 0.0588235 0.0588235 0.0588235 0.0588235 0.0588235 0.0588235 0.0588235 0.0588235 0.0588235 0.0588235 0.0588235 0.0588235 0.0588235 0.0588235;
   (orien_3, dist_1, inclin_1, close) 0.0588235 0.0588235 0.0588235 0.0588235 0.0588235 0.0588235 0.0588235 0.0588235 0.0588235 0.0588235 0.0588235 0.0588235 0.0588235 0.0588235 0.0588235 0.0588235 0.0588235;
   (orien_2, dist_1, inclin_1, close) 0.0588235 0.0588235 0.0588235 0.0588235 0.0588235 0.0588235 0.0588235 0.0588235 0.0588235 0.0588235 0.0588235 0.0588235 0.0588235 0.0588235 0.0588235 0.0588235 0.0588235;
   (orien_5, dist_1, inclin_1, close) 0.0588235 0.0588235 0.0588235 0.0588235 0.0588235 0.0588235 0.0588235 0.0588235 0.0588235 0.0588235 0.0588235 0.0588235 0.0588235 0.0588235 0.0588235 0.0588235 0.0588235;
   (orien_6, dist_1, inclin_1, close) 0.0588235 0.0588235 0.0588235 0.0588235 0.0588235 0.0588235 0.0588235 0.0588235 0.0588235 0.0588235 0.0588235 0.0588235 0.0588235 0.0588235 0.0588235 0.0588235 0.0588235;
   (orien_7, dist_1, inclin_1, close) 0.0588235 0.0588235 0.0588235 0.0588235 0.0588235 0.0588235 0.0588235 0.0588235 0.0588235 0.0588235 0.0588235 0.0588235 0.0588235 0.0588235 0.0588235 0.0588235 0.0588235;
   (orien_1, dist_1, inclin_1, close) 0.0588235 0.0588235 0.0588235 0.0588235 0.0588235 0.0588235 0.0588235 0.0588235 0.0588235 0.0588235 0.0588235 0.0588235 0.0588235 0.0588235 0.0588235 0.0588235 0.0588235;
   (orien_0, dist_1, inclin_1, close) 0.0588235 0.0588235 0.0588235 0.0588235 0.0588235 0.0588235 0.0588235 0.0588235 0.0588235 0.0588235 0.0588235 0.0588235 0.0588235 0.0588235 0.0588235 0.0588235 0.0588235;
   (orien_4, dist_0, inclin_1, close) 0.0588235 0.0588235 0.0588235 0.0588235 0.0588235 0.0588235 0.0588235 0.0588235 0.0588235 0.0588235 0.0588235 0.0588235 0.0588235 0.0588235 0.0588235 0.0588235 0.0588235;
   (orien_3, dist_0, inclin_1, close) 0.0588235 0.0588235 0.0588235 0.0588235 0.0588235 0.0588235 0.0588235 0.0588235 0.0588235 0.0588235 0.0588235 0.0588235 0.0588235 0.0588235 0.0588235 0.0588235 0.0588235;
   (orien_2, dist_0, inclin_1, close) 0.0588235 0.0588235 0.0588235 0.0588235 0.0588235 0.0588235 0.0588235 0.0588235 0.0588235 0.0588235 0.0588235 0.0588235 0.0588235 0.0588235 0.0588235 0.0588235 0.0588235;
   (orien_5, dist_0, inclin_1, close) 0.0588235 0.0588235 0.0588235 0.0588235 0.0588235 0.0588235 0.0588235 0.0588235 0.0588235 0.0588235 0.0588235 0.0588235 0.0588235 0.0588235 0.0588235 0.0588235 0.0588235;
   (orien_6, dist_0, inclin_1, close) 0.0588235 0.0588235 0.0588235 0.0588235 0.0588235 0.0588235 0.0588235 0.0588235 0.0588235 0.0588235 0.0588235 0.0588235 0.0588235 0.0588235 0.0588235 0.0588235 0.0588235;
   (orien_7, dist_0, inclin_1, close) 0.0588235 0.0588235 0.0588235 0.0588235 0.0588235 0.0588235 0.0588235 0.0588235 0.0588235 0.0588235 0.0588235 0.0588235 0.0588235 0.0588235 0.0588235 0.0588235 0.0588235;
   (orien_1, dist_0, inclin_1, close) 0.0588235 0.0588235 0.0588235 0.0588235 0.0588235 0.0588235 0.0588235 0.0588235 0.0588235 0.0588235 0.0588235 0.0588235 0.0588235 0.0588235 0.0588235 0.0588235 0.0588235;
   (orien_0, dist_0, inclin_1, close) 0.0588235 0.0588235 0.0588235 0.0588235 0.0588235 0.0588235 0.0588235 0.0588235 0.0588235 0.0588235 0.0588235 0.0588235 0.0588235 0.0588235 0.0588235 0.0588235 0.0588235;
   (orien_4, dist_2, inclin_2, close) 0.027027 0.027027 0.027027 0.027027 0.027027 0.567568 0.027027 0.027027 0.027027 0.027027 0.027027 0.027027 0.027027 0.027027 0.027027 0.027027 0.027027;
   (orien_3, dist_2, inclin_2, close) 0.0555556 0.0555556 0.0555556 0.0555556 0.0555556 0.111111 0.0555556 0.0555556 0.0555556 0.0555556 0.0555556 0.0555556 0.0555556 0.0555556 0.0555556 0.0555556 0.0555556;
   (orien_2, dist_2, inclin_2, close) 0.0588235 0.0588235 0.0588235 0.0588235 0.0588235 0.0588235 0.0588235 0.0588235 0.0588235 0.0588235 0.0588235 0.0588235 0.0588235 0.0588235 0.0588235 0.0588235 0.0588235;
   (orien_5, dist_2, inclin_2, close) 0.0588235 0.0588235 0.0588235 0.0588235 0.0588235 0.0588235 0.0588235 0.0588235 0.0588235 0.0588235 0.0588235 0.0588235 0.0588235 0.0588235 0.0588235 0.0588235 0.0588235;
   (orien_6, dist_2, inclin_2, close) 0.0588235 0.0588235 0.0588235 0.0588235 0.0588235 0.0588235 0.0588235 0.0588235 0.0588235 0.0588235 0.0588235 0.0588235 0.0588235 0.0588235 0.0588235 0.0588235 0.0588235;
   (orien_7, dist_2, inclin_2, close) 0.0588235 0.0588235 0.0588235 0.0588235 0.0588235 0.0588235 0.0588235 0.0588235 0.0588235 0.0588235 0.0588235 0.0588235 0.0588235 0.0588235 0.0588235 0.0588235 0.0588235;
   (orien_1, dist_2, inclin_2, close) 0.0588235 0.0588235 0.0588235 0.0588235 0.0588235 0.0588235 0.0588235 0.0588235 0.0588235 0.0588235 0.0588235 0.0588235 0.0588235 0.0588235 0.0588235 0.0588235 0.0588235;
   (orien_0, dist_2, inclin_2, close) 0.0588235 0.0588235 0.0588235 0.0588235 0.0588235 0.0588235 0.0588235 0.0588235 0.0588235 0.0588235 0.0588235 0.0588235 0.0588235 0.0588235 0.0588235 0.0588235 0.0588235;
   (orien_4, dist_1, inclin_2, close) 0.0204082 0.0204082 0.0204082 0.0204082 0.0204082 0.673469 0.0204082 0.0204082 0.0204082 0.0204082 0.0204082 0.0204082 0.0204082 0.0204082 0.0204082 0.0204082 0.0204082;
   (orien_3, dist_1, inclin_2, close) 0.0588235 0.0588235 0.0588235 0.0588235 0.0588235 0.0588235 0.0588235 0.0588235 0.0588235 0.0588235 0.0588235 0.0588235 0.0588235 0.0588235 0.0588235 0.0588235 0.0588235;
   (orien_2, dist_1, inclin_2, close) 0.0588235 0.0588235 0.0588235 0.0588235 0.0588235 0.0588235 0.0588235 0.0588235 0.0588235 0.0588235 0.0588235 0.0588235 0.0588235 0.0588235 0.0588235 0.0588235 0.0588235;
   (orien_5, dist_1, inclin_2, close) 0.0588235 0.0588235 0.0588235 0.0588235 0.0588235 0.0588235 0.0588235 0.0588235 0.0588235 0.0588235 0.0588235 0.0588235 0.0588235 0.0588235 0.0588235 0.0588235 0.0588235;
   (orien_6, dist_1, inclin_2, close) 0.0588235 0.0588235 0.0588235 0.0588235 0.0588235 0.0588235 0.0588235 0.0588235 0.0588235 0.0588235 0.0588235 0.0588235 0.0588235 0.0588235 0.0588235 0.0588235 0.0588235;
   (orien_7, dist_1, inclin_2, close) 0.0588235 0.0588235 0.0588235 0.0588235 0.0588235 0.0588235 0.0588235 0.0588235 0.0588235 0.0588235 0.0588235 0.0588235 0.0588235 0.0588235 0.0588235 0.0588235 0.0588235;
   (orien_1, dist_1, inclin_2, close) 0.0588235 0.0588235 0.0588235 0.0588235 0.0588235 0.0588235 0.0588235 0.0588235 0.0588235 0.0588235 0.0588235 0.0588235 0.0588235 0.0588235 0.0588235 0.0588235 0.0588235;
   (orien_0, dist_1, inclin_2, close) 0.0588235 0.0588235 0.0588235 0.0588235 0.0588235 0.0588235 0.0588235 0.0588235 0.0588235 0.0588235 0.0588235 0.0588235 0.0588235 0.0588235 0.0588235 0.0588235 0.0588235;
   (orien_4, dist_0, inclin_2, close) 0.030303 0.030303 0.030303 0.030303 0.030303 0.515152 0.030303 0.030303 0.030303 0.030303 0.030303 0.030303 0.030303 0.030303 0.030303 0.030303 0.030303;
   (orien_3, dist_0, inclin_2, close) 0.0588235 0.0588235 0.0588235 0.0588235 0.0588235 0.0588235 0.0588235 0.0588235 0.0588235 0.0588235 0.0588235 0.0588235 0.0588235 0.0588235 0.0588235 0.0588235 0.0588235;
   (orien_2, dist_0, inclin_2, close) 0.0588235 0.0588235 0.0588235 0.0588235 0.0588235 0.0588235 0.0588235 0.0588235 0.0588235 0.0588235 0.0588235 0.0588235 0.0588235 0.0588235 0.0588235 0.0588235 0.0588235;
   (orien_5, dist_0, inclin_2, close) 0.0588235 0.0588235 0.0588235 0.0588235 0.0588235 0.0588235 0.0588235 0.0588235 0.0588235 0.0588235 0.0588235 0.0588235 0.0588235 0.0588235 0.0588235 0.0588235 0.0588235;
   (orien_6, dist_0, inclin_2, close) 0.0588235 0.0588235 0.0588235 0.0588235 0.0588235 0.0588235 0.0588235 0.0588235 0.0588235 0.0588235 0.0588235 0.0588235 0.0588235 0.0588235 0.0588235 0.0588235 0.0588235;
   (orien_7, dist_0, inclin_2, close) 0.0588235 0.0588235 0.0588235 0.0588235 0.0588235 0.0588235 0.0588235 0.0588235 0.0588235 0.0588235 0.0588235 0.0588235 0.0588235 0.0588235 0.0588235 0.0588235 0.0588235;
   (orien_1, dist_0, inclin_2, close) 0.0588235 0.0588235 0.0588235 0.0588235 0.0588235 0.0588235 0.0588235 0.0588235 0.0588235 0.0588235 0.0588235 0.0588235 0.0588235 0.0588235 0.0588235 0.0588235 0.0588235;
   (orien_0, dist_0, inclin_2, close) 0.0588235 0.0588235 0.0588235 0.0588235 0.0588235 0.0588235 0.0588235 0.0588235 0.0588235 0.0588235 0.0588235 0.0588235 0.0588235 0.0588235 0.0588235 0.0588235 0.0588235;
   (orien_4, dist_2, inclin_0, far) 0.04 0.04 0.04 0.04 0.04 0.36 0.04 0.04 0.04 0.04 0.04 0.04 0.04 0.04 0.04 0.04 0.04;
   (orien_3, dist_2, inclin_0, far) 0.0454545 0.0454545 0.0454545 0.0454545 0.0454545 0.272727 0.0454545 0.0454545 0.0454545 0.0454545 0.0454545 0.0454545 0.0454545 0.0454545 0.0454545 0.0454545 0.0454545;
   (orien_2, dist_2, inclin_0, far) 0.0833333 0.0416667 0.0416667 0.0833333 0.0416667 0.0416667 0.0833333 0.0416667 0.0416667 0.0416667 0.0416667 0.0416667 0.0416667 0.0416667 0.0416667 0.0416667 0.208333;
   (orien_5, dist_2, inclin_0, far) 0.0434783 0.173913 0.0434783 0.0434783 0.0434783 0.0869565 0.130435 0.0434783 0.0434783 0.0434783 0.0434783 0.0434783 0.0434783 0.0434783 0.0434783 0.0434783 0.0434783;
   (orien_6, dist_2, inclin_0, far) 0.115385 0.230769 0.0384615 0.0384615 0.0384615 0.0384615 0.0384615 0.0384615 0.115385 0.0384615 0.0384615 0.0384615 0.0384615 0.0384615 0.0384615 0.0384615 0.0384615;
   (orien_7, dist_2, inclin_0, far) 0.162162 0.027027 0.027027 0.027027 0.027027 0.027027 0.405405 0.027027 0.0540541 0.027027 0.027027 0.027027 0.027027 0.027027 0.027027 0.027027 0.027027;
   (orien_1, dist_2, inclin_0, far) 0.12 0.04 0.04 0.2 0.04 0.04 0.04 0.04 0.04 0.04 0.04 0.04 0.04 0.04 0.12 0.04 0.04;
   (orien_0, dist_2, inclin_0, far) 0.130435 0.0434783 0.0434783 0.0434783 0.0434783 0.0434783 0.130435 0.0434783 0.0434783 0.0434783 0.0434783 0.0434783 0.0434783 0.0434783 0.130435 0.0434783 0.0434783;
   (orien_4, dist_1, inclin_0, far) 0.0588235 0.0588235 0.0588235 0.0588235 0.0588235 0.0588235 0.0588235 0.0588235 0.0588235 0.0588235 0.0588235 0.0588235 0.0588235 0.0588235 0.0588235 0.0588235 0.0588235;
   (orien_3, dist_1, inclin_0, far) 0.0588235 0.0588235 0.0588235 0.0588235 0.0588235 0.0588235 0.0588235 0.0588235 0.0588235 0.0588235 0.0588235 0.0588235 0.0588235 0.0588235 0.0588235 0.0588235 0.0588235;
   (orien_2, dist_1, inclin_0, far) 0.0588235 0.0588235 0.0588235 0.0588235 0.0588235 0.0588235 0.0588235 0.0588235 0.0588235 0.0588235 0.0588235 0.0588235 0.0588235 0.0588235 0.0588235 0.0588235 0.0588235;
   (orien_5, dist_1, inclin_0, far) 0.0588235 0.0588235 0.0588235 0.0588235 0.0588235 0.0588235 0.0588235 0.0588235 0.0588235 0.0588235 0.0588235 0.0588235 0.0588235 0.0588235 0.0588235 0.0588235 0.0588235;
   (orien_6, dist_1, inclin_0, far) 0.0588235 0.0588235 0.0588235 0.0588235 0.0588235 0.0588235 0.0588235 0.0588235 0.0588235 0.0588235 0.0588235 0.0588235 0.0588235 0.0588235 0.0588235 0.0588235 0.0588235;
   (orien_7, dist_1, inclin_0, far) 0.0588235 0.0588235 0.0588235 0.0588235 0.0588235 0.0588235 0.0588235 0.0588235 0.0588235 0.0588235 0.0588235 0.0588235 0.0588235 0.0588235 0.0588235 0.0588235 0.0588235;
   (orien_1, dist_1, inclin_0, far) 0.0588235 0.0588235 0.0588235 0.0588235 0.0588235 0.0588235 0.0588235 0.0588235 0.0588235 0.0588235 0.0588235 0.0588235 0.0588235 0.0588235 0.0588235 0.0588235 0.0588235;
   (orien_0, dist_1, inclin_0, far) 0.0588235 0.0588235 0.0588235 0.0588235 0.0588235 0.0588235 0.0588235 0.0588235 0.0588235 0.0588235 0.0588235 0.0588235 0.0588235 0.0588235 0.0588235 0.0588235 0.0588235;
   (orien_4, dist_0, inclin_0, far) 0.0588235 0.0588235 0.0588235 0.0588235 0.0588235 0.0588235 0.0588235 0.0588235 0.0588235 0.0588235 0.0588235 0.0588235 0.0588235 0.0588235 0.0588235 0.0588235 0.0588235;
   (orien_3, dist_0, inclin_0, far) 0.0588235 0.0588235 0.0588235 0.0588235 0.0588235 0.0588235 0.0588235 0.0588235 0.0588235 0.0588235 0.0588235 0.0588235 0.0588235 0.0588235 0.0588235 0.0588235 0.0588235;
   (orien_2, dist_0, inclin_0, far) 0.0588235 0.0588235 0.0588235 0.0588235 0.0588235 0.0588235 0.0588235 0.0588235 0.0588235 0.0588235 0.0588235 0.0588235 0.0588235 0.0588235 0.0588235 0.0588235 0.0588235;
   (orien_5, dist_0, inclin_0, far) 0.0588235 0.0588235 0.0588235 0.0588235 0.0588235 0.0588235 0.0588235 0.0588235 0.0588235 0.0588235 0.0588235 0.0588235 0.0588235 0.0588235 0.0588235 0.0588235 0.0588235;
   (orien_6, dist_0, inclin_0, far) 0.0588235 0.0588235 0.0588235 0.0588235 0.0588235 0.0588235 0.0588235 0.0588235 0.0588235 0.0588235 0.0588235 0.0588235 0.0588235 0.0588235 0.0588235 0.0588235 0.0588235;
   (orien_7, dist_0, inclin_0, far) 0.0588235 0.0588235 0.0588235 0.0588235 0.0588235 0.0588235 0.0588235 0.0588235 0.0588235 0.0588235 0.0588235 0.0588235 0.0588235 0.0588235 0.0588235 0.0588235 0.0588235;
   (orien_1, dist_0, inclin_0, far) 0.0588235 0.0588235 0.0588235 0.0588235 0.0588235 0.0588235 0.0588235 0.0588235 0.0588235 0.0588235 0.0588235 0.0588235 0.0588235 0.0588235 0.0588235 0.0588235 0.0588235;
   (orien_0, dist_0, inclin_0, far) 0.0588235 0.0588235 0.0588235 0.0588235 0.0588235 0.0588235 0.0588235 0.0588235 0.0588235 0.0588235 0.0588235 0.0588235 0.0588235 0.0588235 0.0588235 0.0588235 0.0588235;
   (orien_4, dist_2, inclin_1, far) 0.0588235 0.0588235 0.0588235 0.0588235 0.0588235 0.0588235 0.0588235 0.0588235 0.0588235 0.0588235 0.0588235 0.0588235 0.0588235 0.0588235 0.0588235 0.0588235 0.0588235;
   (orien_3, dist_2, inclin_1, far) 0.0588235 0.0588235 0.0588235 0.0588235 0.0588235 0.0588235 0.0588235 0.0588235 0.0588235 0.0588235 0.0588235 0.0588235 0.0588235 0.0588235 0.0588235 0.0588235 0.0588235;
   (orien_2, dist_2, inclin_1, far) 0.0588235 0.0588235 0.0588235 0.0588235 0.0588235 0.0588235 0.0588235 0.0588235 0.0588235 0.0588235 0.0588235 0.0588235 0.0588235 0.0588235 0.0588235 0.0588235 0.0588235;
   (orien_5, dist_2, inclin_1, far) 0.0588235 0.0588235 0.0588235 0.0588235 0.0588235 0.0588235 0.0588235 0.0588235 0.0588235 0.0588235 0.0588235 0.0588235 0.0588235 0.0588235 0.0588235 0.0588235 0.0588235;
   (orien_6, dist_2, inclin_1, far) 0.0588235 0.0588235 0.0588235 0.0588235 0.0588235 0.0588235 0.0588235 0.0588235 0.0588235 0.0588235 0.0588235 0.0588235 0.0588235 0.0588235 0.0588235 0.0588235 0.0588235;
   (orien_7, dist_2, inclin_1, far) 0.148936 0.106383 0.0212766 0.0212766 0.0212766 0.0212766 0.106383 0.276596 0.106383 0.0212766 0.0212766 0.0212766 0.0212766 0.0212766 0.0212766 0.0212766 0.0212766;
   (orien_1, dist_2, inclin_1, far) 0.0555556 0.0555556 0.0555556 0.111111 0.0555556 0.0555556 0.0555556 0.0555556 0.0555556 0.0555556 0.0555556 0.0555556 0.0555556 0.0555556 0.0555556 0.0555556 0.0555556;
   (orien_0, dist_2, inclin_1, far) 0.172414 0.0344828 0.0344828 0.103448 0.0344828 0.0344828 0.0344828 0.103448 0.0344828 0.0344828 0.0344828 0.0344828 0.0344828 0.0344828 0.172414 0.0344828 0.0344828;
   (orien_4, dist_1, inclin_1, far) 0.0588235 0.0588235 0.0588235 0.0588235 0.0588235 0.0588235 0.0588235 0.0588235 0.0588235 0.0588235 0.0588235 0.0588235 0.0588235 0.0588235 0.0588235 0.0588235 0.0588235;
   (orien_3, dist_1, inclin_1, far) 0.0588235 0.0588235 0.0588235 0.0588235 0.0588235 0.0588235 0.0588235 0.0588235 0.0588235 0.0588235 0.0588235 0.0588235 0.0588235 0.0588235 0.0588235 0.0588235 0.0588235;
   (orien_2, dist_1, inclin_1, far) 0.0588235 0.0588235 0.0588235 0.0588235 0.0588235 0.0588235 0.0588235 0.0588235 0.0588235 0.0588235 0.0588235 0.0588235 0.0588235 0.0588235 0.0588235 0.0588235 0.0588235;
   (orien_5, dist_1, inclin_1, far) 0.0588235 0.0588235 0.0588235 0.0588235 0.0588235 0.0588235 0.0588235 0.0588235 0.0588235 0.0588235 0.0588235 0.0588235 0.0588235 0.0588235 0.0588235 0.0588235 0.0588235;
   (orien_6, dist_1, inclin_1, far) 0.0588235 0.0588235 0.0588235 0.0588235 0.0588235 0.0588235 0.0588235 0.0588235 0.0588235 0.0588235 0.0588235 0.0588235 0.0588235 0.0588235 0.0588235 0.0588235 0.0588235;
   (orien_7, dist_1, inclin_1, far) 0.0208333 0.0208333 0.0208333 0.0208333 0.0208333 0.0208333 0.0416667 0.645833 0.0208333 0.0208333 0.0208333 0.0208333 0.0208333 0.0208333 0.0208333 0.0208333 0.0208333;
   (orien_1, dist_1, inclin_1, far) 0.0588235 0.0588235 0.0588235 0.0588235 0.0588235 0.0588235 0.0588235 0.0588235 0.0588235 0.0588235 0.0588235 0.0588235 0.0588235 0.0588235 0.0588235 0.0588235 0.0588235;
   (orien_0, dist_1, inclin_1, far) 0.0588235 0.0588235 0.0588235 0.0588235 0.0588235 0.0588235 0.0588235 0.0588235 0.0588235 0.0588235 0.0588235 0.0588235 0.0588235 0.0588235 0.0588235 0.0588235 0.0588235;
   (orien_4, dist_0, inclin_1, far) 0.0588235 0.0588235 0.0588235 0.0588235 0.0588235 0.0588235 0.0588235 0.0588235 0.0588235 0.0588235 0.0588235 0.0588235 0.0588235 0.0588235 0.0588235 0.0588235 0.0588235;
   (orien_3, dist_0, inclin_1, far) 0.0588235 0.0588235 0.0588235 0.0588235 0.0588235 0.0588235 0.0588235 0.0588235 0.0588235 0.0588235 0.0588235 0.0588235 0.0588235 0.0588235 0.0588235 0.0588235 0.0588235;
   (orien_2, dist_0, inclin_1, far) 0.0588235 0.0588235 0.0588235 0.0588235 0.0588235 0.0588235 0.0588235 0.0588235 0.0588235 0.0588235 0.0588235 0.0588235 0.0588235 0.0588235 0.0588235 0.0588235 0.0588235;
   (orien_5, dist_0, inclin_1, far) 0.0588235 0.0588235 0.0588235 0.0588235 0.0588235 0.0588235 0.0588235 0.0588235 0.0588235 0.0588235 0.0588235 0.0588235 0.0588235 0.0588235 0.0588235 0.0588235 0.0588235;
   (orien_6, dist_0, inclin_1, far) 0.0588235 0.0588235 0.0588235 0.0588235 0.0588235 0.0588235 0.0588235 0.0588235 0.0588235 0.0588235 0.0588235 0.0588235 0.0588235 0.0588235 0.0588235 0.0588235 0.0588235;
   (orien_7, dist_0, inclin_1, far) 0.03125 0.03125 0.03125 0.03125 0.03125 0.03125 0.03125 0.5 0.03125 0.03125 0.03125 0.03125 0.03125 0.03125 0.03125 0.03125 0.03125;
   (orien_1, dist_0, inclin_1, far) 0.0588235 0.0588235 0.0588235 0.0588235 0.0588235 0.0588235 0.0588235 0.0588235 0.0588235 0.0588235 0.0588235 0.0588235 0.0588235 0.0588235 0.0588235 0.0588235 0.0588235;
   (orien_0, dist_0, inclin_1, far) 0.0588235 0.0588235 0.0588235 0.0588235 0.0588235 0.0588235 0.0588235 0.0588235 0.0588235 0.0588235 0.0588235 0.0588235 0.0588235 0.0588235 0.0588235 0.0588235 0.0588235;
   (orien_4, dist_2, inclin_2, far) 0.0588235 0.0588235 0.0588235 0.0588235 0.0588235 0.0588235 0.0588235 0.0588235 0.0588235 0.0588235 0.0588235 0.0588235 0.0588235 0.0588235 0.0588235 0.0588235 0.0588235;
   (orien_3, dist_2, inclin_2, far) 0.0588235 0.0588235 0.0588235 0.0588235 0.0588235 0.0588235 0.0588235 0.0588235 0.0588235 0.0588235 0.0588235 0.0588235 0.0588235 0.0588235 0.0588235 0.0588235 0.0588235;
   (orien_2, dist_2, inclin_2, far) 0.0588235 0.0588235 0.0588235 0.0588235 0.0588235 0.0588235 0.0588235 0.0588235 0.0588235 0.0588235 0.0588235 0.0588235 0.0588235 0.0588235 0.0588235 0.0588235 0.0588235;
   (orien_5, dist_2, inclin_2, far) 0.0588235 0.0588235 0.0588235 0.0588235 0.0588235 0.0588235 0.0588235 0.0588235 0.0588235 0.0588235 0.0588235 0.0588235 0.0588235 0.0588235 0.0588235 0.0588235 0.0588235;
   (orien_6, dist_2, inclin_2, far) 0.0588235 0.0588235 0.0588235 0.0588235 0.0588235 0.0588235 0.0588235 0.0588235 0.0588235 0.0588235 0.0588235 0.0588235 0.0588235 0.0588235 0.0588235 0.0588235 0.0588235;
   (orien_7, dist_2, inclin_2, far) 0.0454545 0.0454545 0.0454545 0.0454545 0.0454545 0.0454545 0.0454545 0.272727 0.0454545 0.0454545 0.0454545 0.0454545 0.0454545 0.0454545 0.0454545 0.0454545 0.0454545;
   (orien_1, dist_2, inclin_2, far) 0.0588235 0.0588235 0.0588235 0.0588235 0.0588235 0.0588235 0.0588235 0.0588235 0.0588235 0.0588235 0.0588235 0.0588235 0.0588235 0.0588235 0.0588235 0.0588235 0.0588235;
   (orien_0, dist_2, inclin_2, far) 0.05 0.05 0.05 0.05 0.05 0.05 0.05 0.2 0.05 0.05 0.05 0.05 0.05 0.05 0.05 0.05 0.05;
   (orien_4, dist_1, inclin_2, far) 0.0588235 0.0588235 0.0588235 0.0588235 0.0588235 0.0588235 0.0588235 0.0588235 0.0588235 0.0588235 0.0588235 0.0588235 0.0588235 0.0588235 0.0588235 0.0588235 0.0588235;
   (orien_3, dist_1, inclin_2, far) 0.0588235 0.0588235 0.0588235 0.0588235 0.0588235 0.0588235 0.0588235 0.0588235 0.0588235 0.0588235 0.0588235 0.0588235 0.0588235 0.0588235 0.0588235 0.0588235 0.0588235;
   (orien_2, dist_1, inclin_2, far) 0.0588235 0.0588235 0.0588235 0.0588235 0.0588235 0.0588235 0.0588235 0.0588235 0.0588235 0.0588235 0.0588235 0.0588235 0.0588235 0.0588235 0.0588235 0.0588235 0.0588235;
   (orien_5, dist_1, inclin_2, far) 0.0588235 0.0588235 0.0588235 0.0588235 0.0588235 0.0588235 0.0588235 0.0588235 0.0588235 0.0588235 0.0588235 0.0588235 0.0588235 0.0588235 0.0588235 0.0588235 0.0588235;
   (orien_6, dist_1, inclin_2, far) 0.0588235 0.0588235 0.0588235 0.0588235 0.0588235 0.0588235 0.0588235 0.0588235 0.0588235 0.0588235 0.0588235 0.0588235 0.0588235 0.0588235 0.0588235 0.0588235 0.0588235;
   (orien_7, dist_1, inclin_2, far) 0.0526316 0.0526316 0.0526316 0.0526316 0.0526316 0.0526316 0.0526316 0.157895 0.0526316 0.0526316 0.0526316 0.0526316 0.0526316 0.0526316 0.0526316 0.0526316 0.0526316;
   (orien_1, dist_1, inclin_2, far) 0.0588235 0.0588235 0.0588235 0.0588235 0.0588235 0.0588235 0.0588235 0.0588235 0.0588235 0.0588235 0.0588235 0.0588235 0.0588235 0.0588235 0.0588235 0.0588235 0.0588235;
   (orien_0, dist_1, inclin_2, far) 0.0588235 0.0588235 0.0588235 0.0588235 0.0588235 0.0588235 0.0588235 0.0588235 0.0588235 0.0588235 0.0588235 0.0588235 0.0588235 0.0588235 0.0588235 0.0588235 0.0588235;
   (orien_4, dist_0, inclin_2, far) 0.0588235 0.0588235 0.0588235 0.0588235 0.0588235 0.0588235 0.0588235 0.0588235 0.0588235 0.0588235 0.0588235 0.0588235 0.0588235 0.0588235 0.0588235 0.0588235 0.0588235;
   (orien_3, dist_0, inclin_2, far) 0.0588235 0.0588235 0.0588235 0.0588235 0.0588235 0.0588235 0.0588235 0.0588235 0.0588235 0.0588235 0.0588235 0.0588235 0.0588235 0.0588235 0.0588235 0.0588235 0.0588235;
   (orien_2, dist_0, inclin_2, far) 0.0588235 0.0588235 0.0588235 0.0588235 0.0588235 0.0588235 0.0588235 0.0588235 0.0588235 0.0588235 0.0588235 0.0588235 0.0588235 0.0588235 0.0588235 0.0588235 0.0588235;
   (orien_5, dist_0, inclin_2, far) 0.0588235 0.0588235 0.0588235 0.0588235 0.0588235 0.0588235 0.0588235 0.0588235 0.0588235 0.0588235 0.0588235 0.0588235 0.0588235 0.0588235 0.0588235 0.0588235 0.0588235;
   (orien_6, dist_0, inclin_2, far) 0.0588235 0.0588235 0.0588235 0.0588235 0.0588235 0.0588235 0.0588235 0.0588235 0.0588235 0.0588235 0.0588235 0.0588235 0.0588235 0.0588235 0.0588235 0.0588235 0.0588235;
   (orien_7, dist_0, inclin_2, far) 0.0588235 0.0588235 0.0588235 0.0588235 0.0588235 0.0588235 0.0588235 0.0588235 0.0588235 0.0588235 0.0588235 0.0588235 0.0588235 0.0588235 0.0588235 0.0588235 0.0588235;
   (orien_1, dist_0, inclin_2, far) 0.0588235 0.0588235 0.0588235 0.0588235 0.0588235 0.0588235 0.0588235 0.0588235 0.0588235 0.0588235 0.0588235 0.0588235 0.0588235 0.0588235 0.0588235 0.0588235 0.0588235;
   (orien_0, dist_0, inclin_2, far) 0.0588235 0.0588235 0.0588235 0.0588235 0.0588235 0.0588235 0.0588235 0.0588235 0.0588235 0.0588235 0.0588235 0.0588235 0.0588235 0.0588235 0.0588235 0.0588235 0.0588235;
}
probability (distance) {
   default 0.715925 0.192253 0.0918221;
}

