
network unnamedBN{
   property software aGrUM;
}

variable effect {
   type discrete[1] {right};
}

variable orientation {
   type discrete[4] {orien_12, orien_11, orien_10, orien_13};
}

variable inclination {
   type discrete[5] {inclin_1, inclin_2, inclin_3, inclin_4, inclin_5};
}

variable move {
   type discrete[19] {right_down, far_right_down, close_right_down, far_right, right, far, down, close_up, far_down, close_down, far_up, right_up, close_right_up, close, far_right_up, up, close_right, left_down, left};
}

variable distance {
   type discrete[3] {dist_2, dist_0, dist_1};
}

probability (effect | orientation) {
   (orien_12) 1;
   (orien_11) 1;
   (orien_10) 1;
   (orien_13) 1;
}
probability (orientation | distance) {
   (dist_2) 0.105357 0.842857 0.05 0.00178571;
   (dist_0) 0.24878 0.44878 0.282927 0.0195122;
   (dist_1) 0.180952 0.72381 0.0857143 0.00952381;
}
probability (inclination) {
   default 0.158749 0.581692 0.137891 0.103129 0.01854;
}
probability (move | orientation, distance, inclination, effect) {
   (orien_12, dist_2, inclin_1, right) 0.106383 0.0638298 0.0212766 0.0425532 0.0851064 0.0851064 0.212766 0.0212766 0.148936 0.0212766 0.0212766 0.0212766 0.0212766 0.0212766 0.0212766 0.0212766 0.0212766 0.0212766 0.0212766;
   (orien_11, dist_2, inclin_1, right) 0.219512 0.0162602 0.00813008 0.0162602 0.0569106 0.00813008 0.471545 0.00813008 0.0406504 0.0650406 0.00813008 0.00813008 0.00813008 0.00813008 0.00813008 0.00813008 0.00813008 0.0243902 0.00813008;
   (orien_10, dist_2, inclin_1, right) 0.0526316 0.0526316 0.0526316 0.0526316 0.0526316 0.0526316 0.0526316 0.0526316 0.0526316 0.0526316 0.0526316 0.0526316 0.0526316 0.0526316 0.0526316 0.0526316 0.0526316 0.0526316 0.0526316;
   (orien_13, dist_2, inclin_1, right) 0.0526316 0.0526316 0.0526316 0.0526316 0.0526316 0.0526316 0.0526316 0.0526316 0.0526316 0.0526316 0.0526316 0.0526316 0.0526316 0.0526316 0.0526316 0.0526316 0.0526316 0.0526316 0.0526316;
   (orien_12, dist_0, inclin_1, right) 0.0526316 0.0526316 0.0526316 0.0526316 0.0526316 0.0526316 0.0526316 0.0526316 0.0526316 0.0526316 0.0526316 0.0526316 0.0526316 0.0526316 0.0526316 0.0526316 0.0526316 0.0526316 0.0526316;
   (orien_11, dist_0, inclin_1, right) 0.0526316 0.0526316 0.0526316 0.0526316 0.0526316 0.0526316 0.0526316 0.0526316 0.0526316 0.0526316 0.0526316 0.0526316 0.0526316 0.0526316 0.0526316 0.0526316 0.0526316 0.0526316 0.0526316;
   (orien_10, dist_0, inclin_1, right) 0.0526316 0.0526316 0.0526316 0.0526316 0.0526316 0.0526316 0.0526316 0.0526316 0.0526316 0.0526316 0.0526316 0.0526316 0.0526316 0.0526316 0.0526316 0.0526316 0.0526316 0.0526316 0.0526316;
   (orien_13, dist_0, inclin_1, right) 0.0526316 0.0526316 0.0526316 0.0526316 0.0526316 0.0526316 0.0526316 0.0526316 0.0526316 0.0526316 0.0526316 0.0526316 0.0526316 0.0526316 0.0526316 0.0526316 0.0526316 0.0526316 0.0526316;
   (orien_12, dist_1, inclin_1, right) 0.05 0.05 0.05 0.05 0.05 0.05 0.1 0.05 0.05 0.05 0.05 0.05 0.05 0.05 0.05 0.05 0.05 0.05 0.05;
   (orien_11, dist_1, inclin_1, right) 0.047619 0.047619 0.047619 0.047619 0.047619 0.047619 0.142857 0.047619 0.047619 0.047619 0.047619 0.047619 0.047619 0.047619 0.047619 0.047619 0.047619 0.047619 0.047619;
   (orien_10, dist_1, inclin_1, right) 0.05 0.05 0.05 0.05 0.05 0.05 0.05 0.05 0.05 0.05 0.05 0.05 0.05 0.1 0.05 0.05 0.05 0.05 0.05;
   (orien_13, dist_1, inclin_1, right) 0.0526316 0.0526316 0.0526316 0.0526316 0.0526316 0.0526316 0.0526316 0.0526316 0.0526316 0.0526316 0.0526316 0.0526316 0.0526316 0.0526316 0.0526316 0.0526316 0.0526316 0.0526316 0.0526316;
   (orien_12, dist_2, inclin_2, right) 0.122449 0.122449 0.0204082 0.0816327 0.122449 0.0204082 0.122449 0.0204082 0.163265 0.0204082 0.0204082 0.0204082 0.0204082 0.0204082 0.0204082 0.0204082 0.0204082 0.0204082 0.0204082;
   (orien_11, dist_2, inclin_2, right) 0.349081 0.0393701 0.0629921 0.0183727 0.154856 0.0183727 0.24147 0.00262467 0.023622 0.0367454 0.00262467 0.00262467 0.00262467 0.0131234 0.00262467 0.00262467 0.0209974 0.00262467 0.00262467;
   (orien_10, dist_2, inclin_2, right) 0.173913 0.0217391 0.130435 0.0217391 0.0869565 0.0217391 0.108696 0.0217391 0.0217391 0.0869565 0.0217391 0.0217391 0.0217391 0.0869565 0.0217391 0.0217391 0.0652174 0.0217391 0.0217391;
   (orien_13, dist_2, inclin_2, right) 0.0526316 0.0526316 0.0526316 0.0526316 0.0526316 0.0526316 0.0526316 0.0526316 0.0526316 0.0526316 0.0526316 0.0526316 0.0526316 0.0526316 0.0526316 0.0526316 0.0526316 0.0526316 0.0526316;
   (orien_12, dist_0, inclin_2, right) 0.0666667 0.0666667 0.0333333 0.0333333 0.0666667 0.1 0.1 0.0333333 0.166667 0.0333333 0.0333333 0.0333333 0.0333333 0.0333333 0.0333333 0.0333333 0.0333333 0.0333333 0.0333333;
   (orien_11, dist_0, inclin_2, right) 0.142857 0.0357143 0.0357143 0.0357143 0.0714286 0.0714286 0.178571 0.0357143 0.0357143 0.0357143 0.0357143 0.0357143 0.0357143 0.0357143 0.0357143 0.0357143 0.0357143 0.0357143 0.0357143;
   (orien_10, dist_0, inclin_2, right) 0.037037 0.037037 0.037037 0.037037 0.185185 0.037037 0.111111 0.037037 0.037037 0.0740741 0.037037 0.037037 0.037037 0.0740741 0.037037 0.037037 0.037037 0.037037 0.037037;
   (orien_13, dist_0, inclin_2, right) 0.0526316 0.0526316 0.0526316 0.0526316 0.0526316 0.0526316 0.0526316 0.0526316 0.0526316 0.0526316 0.0526316 0.0526316 0.0526316 0.0526316 0.0526316 0.0526316 0.0526316 0.0526316 0.0526316;
   (orien_12, dist_1, inclin_2, right) 0.0714286 0.107143 0.0357143 0.107143 0.0357143 0.0357143 0.0714286 0.0357143 0.142857 0.0357143 0.0357143 0.0357143 0.0357143 0.0357143 0.0357143 0.0357143 0.0357143 0.0357143 0.0357143;
   (orien_11, dist_1, inclin_2, right) 0.322034 0.0508475 0.0677966 0.0169492 0.0677966 0.0169492 0.169492 0.0169492 0.0508475 0.0508475 0.0169492 0.0169492 0.0169492 0.0338983 0.0169492 0.0169492 0.0169492 0.0169492 0.0169492;
   (orien_10, dist_1, inclin_2, right) 0.0833333 0.0416667 0.0833333 0.0416667 0.0416667 0.0416667 0.0833333 0.0416667 0.0416667 0.0833333 0.0416667 0.0416667 0.0416667 0.0833333 0.0416667 0.0416667 0.0416667 0.0416667 0.0416667;
   (orien_13, dist_1, inclin_2, right) 0.0526316 0.0526316 0.0526316 0.0526316 0.0526316 0.0526316 0.0526316 0.0526316 0.0526316 0.0526316 0.0526316 0.0526316 0.0526316 0.0526316 0.0526316 0.0526316 0.0526316 0.0526316 0.0526316;
   (orien_12, dist_2, inclin_3, right) 0.0526316 0.0526316 0.0526316 0.0526316 0.0526316 0.0526316 0.0526316 0.0526316 0.0526316 0.0526316 0.0526316 0.0526316 0.0526316 0.0526316 0.0526316 0.0526316 0.0526316 0.0526316 0.0526316;
   (orien_11, dist_2, inclin_3, right) 0.0833333 0.0833333 0.0416667 0.0416667 0.166667 0.0416667 0.0416667 0.0416667 0.0416667 0.0416667 0.0416667 0.0416667 0.0416667 0.0416667 0.0416667 0.0416667 0.0416667 0.0416667 0.0416667;
   (orien_10, dist_2, inclin_3, right) 0.0526316 0.0526316 0.0526316 0.0526316 0.0526316 0.0526316 0.0526316 0.0526316 0.0526316 0.0526316 0.0526316 0.0526316 0.0526316 0.0526316 0.0526316 0.0526316 0.0526316 0.0526316 0.0526316;
   (orien_13, dist_2, inclin_3, right) 0.0526316 0.0526316 0.0526316 0.0526316 0.0526316 0.0526316 0.0526316 0.0526316 0.0526316 0.0526316 0.0526316 0.0526316 0.0526316 0.0526316 0.0526316 0.0526316 0.0526316 0.0526316 0.0526316;
   (orien_12, dist_0, inclin_3, right) 0.0571429 0.0285714 0.0285714 0.114286 0.2 0.171429 0.0571429 0.0285714 0.0285714 0.0285714 0.0285714 0.0285714 0.0285714 0.0285714 0.0285714 0.0285714 0.0285714 0.0285714 0.0285714;
   (orien_11, dist_0, inclin_3, right) 0.172414 0.0344828 0.0172414 0.0517241 0.224138 0.0517241 0.137931 0.0172414 0.0517241 0.0689655 0.0172414 0.0172414 0.0172414 0.0344828 0.0172414 0.0172414 0.0172414 0.0172414 0.0172414;
   (orien_10, dist_0, inclin_3, right) 0.128205 0.025641 0.025641 0.025641 0.128205 0.025641 0.102564 0.025641 0.025641 0.0769231 0.025641 0.025641 0.025641 0.102564 0.025641 0.025641 0.128205 0.025641 0.025641;
   (orien_13, dist_0, inclin_3, right) 0.05 0.05 0.05 0.05 0.1 0.05 0.05 0.05 0.05 0.05 0.05 0.05 0.05 0.05 0.05 0.05 0.05 0.05 0.05;
   (orien_12, dist_1, inclin_3, right) 0.153846 0.0384615 0.0384615 0.0384615 0.153846 0.0384615 0.0384615 0.0384615 0.0769231 0.0384615 0.0384615 0.0384615 0.0384615 0.0384615 0.0384615 0.0384615 0.0384615 0.0384615 0.0384615;
   (orien_11, dist_1, inclin_3, right) 0.212766 0.0425532 0.0212766 0.0212766 0.255319 0.0212766 0.12766 0.0212766 0.0212766 0.0638298 0.0212766 0.0212766 0.0212766 0.0212766 0.0212766 0.0212766 0.0212766 0.0212766 0.0212766;
   (orien_10, dist_1, inclin_3, right) 0.047619 0.047619 0.047619 0.047619 0.047619 0.047619 0.0952381 0.047619 0.047619 0.047619 0.047619 0.047619 0.047619 0.047619 0.047619 0.047619 0.0952381 0.047619 0.047619;
   (orien_13, dist_1, inclin_3, right) 0.0526316 0.0526316 0.0526316 0.0526316 0.0526316 0.0526316 0.0526316 0.0526316 0.0526316 0.0526316 0.0526316 0.0526316 0.0526316 0.0526316 0.0526316 0.0526316 0.0526316 0.0526316 0.0526316;
   (orien_12, dist_2, inclin_4, right) 0.0526316 0.0526316 0.0526316 0.0526316 0.0526316 0.0526316 0.0526316 0.0526316 0.0526316 0.0526316 0.0526316 0.0526316 0.0526316 0.0526316 0.0526316 0.0526316 0.0526316 0.0526316 0.0526316;
   (orien_11, dist_2, inclin_4, right) 0.0526316 0.0526316 0.0526316 0.0526316 0.0526316 0.0526316 0.0526316 0.0526316 0.0526316 0.0526316 0.0526316 0.0526316 0.0526316 0.0526316 0.0526316 0.0526316 0.0526316 0.0526316 0.0526316;
   (orien_10, dist_2, inclin_4, right) 0.0526316 0.0526316 0.0526316 0.0526316 0.0526316 0.0526316 0.0526316 0.0526316 0.0526316 0.0526316 0.0526316 0.0526316 0.0526316 0.0526316 0.0526316 0.0526316 0.0526316 0.0526316 0.0526316;
   (orien_13, dist_2, inclin_4, right) 0.0526316 0.0526316 0.0526316 0.0526316 0.0526316 0.0526316 0.0526316 0.0526316 0.0526316 0.0526316 0.0526316 0.0526316 0.0526316 0.0526316 0.0526316 0.0526316 0.0526316 0.0526316 0.0526316;
   (orien_12, dist_0, inclin_4, right) 0.027027 0.027027 0.027027 0.135135 0.27027 0.0810811 0.027027 0.027027 0.027027 0.027027 0.027027 0.027027 0.027027 0.027027 0.0810811 0.0540541 0.027027 0.027027 0.027027;
   (orien_11, dist_0, inclin_4, right) 0.0166667 0.0166667 0.0166667 0.0666667 0.45 0.0333333 0.0166667 0.0333333 0.0166667 0.0166667 0.0166667 0.0833333 0.0166667 0.0166667 0.05 0.0666667 0.0333333 0.0166667 0.0166667;
   (orien_10, dist_0, inclin_4, right) 0.0238095 0.0238095 0.0238095 0.0238095 0.404762 0.0238095 0.0238095 0.0714286 0.0238095 0.0238095 0.0238095 0.0238095 0.0714286 0.0238095 0.0238095 0.047619 0.0714286 0.0238095 0.0238095;
   (orien_13, dist_0, inclin_4, right) 0.0526316 0.0526316 0.0526316 0.0526316 0.0526316 0.0526316 0.0526316 0.0526316 0.0526316 0.0526316 0.0526316 0.0526316 0.0526316 0.0526316 0.0526316 0.0526316 0.0526316 0.0526316 0.0526316;
   (orien_12, dist_1, inclin_4, right) 0.05 0.05 0.05 0.05 0.1 0.05 0.05 0.05 0.05 0.05 0.05 0.05 0.05 0.05 0.05 0.05 0.05 0.05 0.05;
   (orien_11, dist_1, inclin_4, right) 0.0416667 0.0416667 0.0416667 0.0416667 0.166667 0.0416667 0.0416667 0.0416667 0.0416667 0.0416667 0.0416667 0.0416667 0.0833333 0.0416667 0.0416667 0.0416667 0.0833333 0.0416667 0.0416667;
   (orien_10, dist_1, inclin_4, right) 0.0526316 0.0526316 0.0526316 0.0526316 0.0526316 0.0526316 0.0526316 0.0526316 0.0526316 0.0526316 0.0526316 0.0526316 0.0526316 0.0526316 0.0526316 0.0526316 0.0526316 0.0526316 0.0526316;
   (orien_13, dist_1, inclin_4, right) 0.0526316 0.0526316 0.0526316 0.0526316 0.0526316 0.0526316 0.0526316 0.0526316 0.0526316 0.0526316 0.0526316 0.0526316 0.0526316 0.0526316 0.0526316 0.0526316 0.0526316 0.0526316 0.0526316;
   (orien_12, dist_2, inclin_5, right) 0.0526316 0.0526316 0.0526316 0.0526316 0.0526316 0.0526316 0.0526316 0.0526316 0.0526316 0.0526316 0.0526316 0.0526316 0.0526316 0.0526316 0.0526316 0.0526316 0.0526316 0.0526316 0.0526316;
   (orien_11, dist_2, inclin_5, right) 0.0526316 0.0526316 0.0526316 0.0526316 0.0526316 0.0526316 0.0526316 0.0526316 0.0526316 0.0526316 0.0526316 0.0526316 0.0526316 0.0526316 0.0526316 0.0526316 0.0526316 0.0526316 0.0526316;
   (orien_10, dist_2, inclin_5, right) 0.0526316 0.0526316 0.0526316 0.0526316 0.0526316 0.0526316 0.0526316 0.0526316 0.0526316 0.0526316 0.0526316 0.0526316 0.0526316 0.0526316 0.0526316 0.0526316 0.0526316 0.0526316 0.0526316;
   (orien_13, dist_2, inclin_5, right) 0.0526316 0.0526316 0.0526316 0.0526316 0.0526316 0.0526316 0.0526316 0.0526316 0.0526316 0.0526316 0.0526316 0.0526316 0.0526316 0.0526316 0.0526316 0.0526316 0.0526316 0.0526316 0.0526316;
   (orien_12, dist_0, inclin_5, right) 0.0416667 0.0416667 0.0416667 0.0416667 0.166667 0.0416667 0.0416667 0.0416667 0.0416667 0.0416667 0.125 0.0416667 0.0416667 0.0416667 0.0416667 0.0416667 0.0416667 0.0416667 0.0416667;
   (orien_11, dist_0, inclin_5, right) 0.047619 0.047619 0.047619 0.047619 0.047619 0.047619 0.047619 0.047619 0.047619 0.047619 0.047619 0.047619 0.047619 0.047619 0.047619 0.0952381 0.047619 0.047619 0.0952381;
   (orien_10, dist_0, inclin_5, right) 0.04 0.04 0.04 0.04 0.24 0.04 0.04 0.04 0.04 0.04 0.04 0.08 0.04 0.04 0.04 0.04 0.04 0.04 0.04;
   (orien_13, dist_0, inclin_5, right) 0.047619 0.047619 0.047619 0.047619 0.047619 0.047619 0.047619 0.047619 0.047619 0.047619 0.047619 0.047619 0.047619 0.047619 0.047619 0.142857 0.047619 0.047619 0.047619;
   (orien_12, dist_1, inclin_5, right) 0.0526316 0.0526316 0.0526316 0.0526316 0.0526316 0.0526316 0.0526316 0.0526316 0.0526316 0.0526316 0.0526316 0.0526316 0.0526316 0.0526316 0.0526316 0.0526316 0.0526316 0.0526316 0.0526316;
   (orien_11, dist_1, inclin_5, right) 0.0526316 0.0526316 0.0526316 0.0526316 0.0526316 0.0526316 0.0526316 0.0526316 0.0526316 0.0526316 0.0526316 0.0526316 0.0526316 0.0526316 0.0526316 0.0526316 0.0526316 0.0526316 0.0526316;
   (orien_10, dist_1, inclin_5, right) 0.0526316 0.0526316 0.0526316 0.0526316 0.0526316 0.0526316 0.0526316 0.0526316 0.0526316 0.0526316 0.0526316 0.0526316 0.0526316 0.0526316 0.0526316 0.0526316 0.0526316 0.0526316 0.0526316;
   (orien_13, dist_1, inclin_5, right) 0.0526316 0.0526316 0.0526316 0.0526316 0.0526316 0.0526316 0.0526316 0.0526316 0.0526316 0.0526316 0.0526316 0.0526316 0.0526316 0.0526316 0.0526316 0.0526316 0.0526316 0.0526316 0.0526316;
}
probability (distance | inclination) {
   (inclin_1) 0.956835 0.00719424 0.0359712;
   (inclin_2) 0.833333 0.0575397 0.109127;
   (inclin_3) 0.0495868 0.636364 0.31405;
   (inclin_4) 0.010989 0.912088 0.0769231;
   (inclin_5) 0.0555556 0.888889 0.0555556;
}

