
network unnamedBN{
   property software aGrUM;
}

variable effect {
   type discrete[4] {left, right, close, far};
}

variable orientation {
   type discrete[32] {orien_15, orien_14, orien_13, orien_11, orien_9, orien_7, orien_16, orien_17, orien_19, orien_21, orien_23, orien_31, orien_12, orien_18, orien_20, orien_22, orien_29, orien_10, orien_26, orien_24, orien_25, orien_27, orien_5, orien_28, orien_2, orien_30, orien_0, orien_1, orien_3, orien_4, orien_6, orien_8};
}

variable inclination {
   type discrete[3] {inclin_0, inclin_1, inclin_2};
}

variable move {
   type discrete[17] {down, close_right_down, left, close_left_down, right, close, close_down, far, right_down, close_right, far_right_down, far_down, far_right, far_left_down, left_down, far_left, close_left};
}

variable distance {
   type discrete[3] {dist_2, dist_1, dist_0};
}

probability (effect | inclination) {
   (inclin_0) 0.241135 0.241135 0.269504 0.248227;
   (inclin_1) 0.17561 0.17561 0.209756 0.439024;
   (inclin_2) 0.315068 0.315068 0.319635 0.0502283;
}
probability (orientation) {
   default 0.162534 0.0110193 0.0179063 0.0165289 0.0192837 0.144628 0.0123967 0.0179063 0.0165289 0.0206612 0.143251 0.141873 0.0137741 0.0137741 0.0110193 0.00826446 0.0220386 0.0123967 0.0110193 0.0123967 0.0179063 0.0192837 0.0192837 0.0123967 0.0110193 0.00688705 0.00964187 0.0206612 0.0192837 0.0110193 0.0110193 0.0123967;
}
probability (inclination | distance) {
   (dist_2) 0.55489 0.305389 0.139721;
   (dist_1) 0.0147059 0.257353 0.727941;
   (dist_0) 0.0151515 0.242424 0.742424;
}
probability (move | orientation, distance, inclination, effect) {
   (orien_15, dist_2, inclin_0, left) 0.105263 0.105263 0.0526316 0.0526316 0.0526316 0.0526316 0.0526316 0.0526316 0.0526316 0.0526316 0.0526316 0.0526316 0.0526316 0.0526316 0.0526316 0.0526316 0.0526316;
   (orien_14, dist_2, inclin_0, left) 0.0555556 0.111111 0.0555556 0.0555556 0.0555556 0.0555556 0.0555556 0.0555556 0.0555556 0.0555556 0.0555556 0.0555556 0.0555556 0.0555556 0.0555556 0.0555556 0.0555556;
   (orien_13, dist_2, inclin_0, left) 0.105263 0.105263 0.0526316 0.0526316 0.0526316 0.0526316 0.0526316 0.0526316 0.0526316 0.0526316 0.0526316 0.0526316 0.0526316 0.0526316 0.0526316 0.0526316 0.0526316;
   (orien_11, dist_2, inclin_0, left) 0.1 0.05 0.05 0.05 0.05 0.05 0.15 0.05 0.05 0.05 0.05 0.05 0.05 0.05 0.05 0.05 0.05;
   (orien_9, dist_2, inclin_0, left) 0.15 0.05 0.05 0.05 0.05 0.05 0.05 0.05 0.1 0.05 0.05 0.05 0.05 0.05 0.05 0.05 0.05;
   (orien_7, dist_2, inclin_0, left) 0.0967742 0.0322581 0.0322581 0.0322581 0.0322581 0.0322581 0.0322581 0.0322581 0.419355 0.0322581 0.0322581 0.0322581 0.0322581 0.0322581 0.0322581 0.0322581 0.0322581;
   (orien_16, dist_2, inclin_0, left) 0.0526316 0.105263 0.0526316 0.0526316 0.0526316 0.0526316 0.0526316 0.0526316 0.0526316 0.105263 0.0526316 0.0526316 0.0526316 0.0526316 0.0526316 0.0526316 0.0526316;
   (orien_17, dist_2, inclin_0, left) 0.0555556 0.0555556 0.0555556 0.0555556 0.0555556 0.0555556 0.0555556 0.0555556 0.111111 0.0555556 0.0555556 0.0555556 0.0555556 0.0555556 0.0555556 0.0555556 0.0555556;
   (orien_19, dist_2, inclin_0, left) 0.05 0.05 0.05 0.05 0.1 0.05 0.05 0.05 0.05 0.15 0.05 0.05 0.05 0.05 0.05 0.05 0.05;
   (orien_21, dist_2, inclin_0, left) 0.0526316 0.0526316 0.0526316 0.0526316 0.157895 0.0526316 0.0526316 0.0526316 0.0526316 0.0526316 0.0526316 0.0526316 0.0526316 0.0526316 0.0526316 0.0526316 0.0526316;
   (orien_23, dist_2, inclin_0, left) 0.0454545 0.0454545 0.0454545 0.0454545 0.272727 0.0454545 0.0454545 0.0454545 0.0454545 0.0454545 0.0454545 0.0454545 0.0454545 0.0454545 0.0454545 0.0454545 0.0454545;
   (orien_31, dist_2, inclin_0, left) 0.0526316 0.0526316 0.0526316 0.0526316 0.0526316 0.0526316 0.0526316 0.0526316 0.0526316 0.0526316 0.105263 0.105263 0.0526316 0.0526316 0.0526316 0.0526316 0.0526316;
   (orien_12, dist_2, inclin_0, left) 0.0526316 0.105263 0.0526316 0.0526316 0.0526316 0.0526316 0.105263 0.0526316 0.0526316 0.0526316 0.0526316 0.0526316 0.0526316 0.0526316 0.0526316 0.0526316 0.0526316;
   (orien_18, dist_2, inclin_0, left) 0.0555556 0.0555556 0.0555556 0.0555556 0.0555556 0.0555556 0.0555556 0.0555556 0.0555556 0.111111 0.0555556 0.0555556 0.0555556 0.0555556 0.0555556 0.0555556 0.0555556;
   (orien_20, dist_2, inclin_0, left) 0.0555556 0.0555556 0.0555556 0.0555556 0.111111 0.0555556 0.0555556 0.0555556 0.0555556 0.0555556 0.0555556 0.0555556 0.0555556 0.0555556 0.0555556 0.0555556 0.0555556;
   (orien_22, dist_2, inclin_0, left) 0.0588235 0.0588235 0.0588235 0.0588235 0.0588235 0.0588235 0.0588235 0.0588235 0.0588235 0.0588235 0.0588235 0.0588235 0.0588235 0.0588235 0.0588235 0.0588235 0.0588235;
   (orien_29, dist_2, inclin_0, left) 0.0526316 0.0526316 0.0526316 0.0526316 0.0526316 0.0526316 0.0526316 0.0526316 0.0526316 0.0526316 0.157895 0.0526316 0.0526316 0.0526316 0.0526316 0.0526316 0.0526316;
   (orien_10, dist_2, inclin_0, left) 0.0526316 0.0526316 0.0526316 0.0526316 0.0526316 0.0526316 0.105263 0.0526316 0.105263 0.0526316 0.0526316 0.0526316 0.0526316 0.0526316 0.0526316 0.0526316 0.0526316;
   (orien_26, dist_2, inclin_0, left) 0.0555556 0.0555556 0.0555556 0.0555556 0.111111 0.0555556 0.0555556 0.0555556 0.0555556 0.0555556 0.0555556 0.0555556 0.0555556 0.0555556 0.0555556 0.0555556 0.0555556;
   (orien_24, dist_2, inclin_0, left) 0.0588235 0.0588235 0.0588235 0.0588235 0.0588235 0.0588235 0.0588235 0.0588235 0.0588235 0.0588235 0.0588235 0.0588235 0.0588235 0.0588235 0.0588235 0.0588235 0.0588235;
   (orien_25, dist_2, inclin_0, left) 0.0526316 0.0526316 0.0526316 0.0526316 0.157895 0.0526316 0.0526316 0.0526316 0.0526316 0.0526316 0.0526316 0.0526316 0.0526316 0.0526316 0.0526316 0.0526316 0.0526316;
   (orien_27, dist_2, inclin_0, left) 0.0526316 0.0526316 0.0526316 0.0526316 0.105263 0.0526316 0.0526316 0.0526316 0.105263 0.0526316 0.0526316 0.0526316 0.0526316 0.0526316 0.0526316 0.0526316 0.0526316;
   (orien_5, dist_2, inclin_0, left) 0.15 0.05 0.05 0.05 0.05 0.05 0.05 0.05 0.1 0.05 0.05 0.05 0.05 0.05 0.05 0.05 0.05;
   (orien_28, dist_2, inclin_0, left) 0.0555556 0.0555556 0.0555556 0.0555556 0.0555556 0.0555556 0.0555556 0.0555556 0.0555556 0.0555556 0.111111 0.0555556 0.0555556 0.0555556 0.0555556 0.0555556 0.0555556;
   (orien_2, dist_2, inclin_0, left) 0.0526316 0.0526316 0.0526316 0.0526316 0.0526316 0.0526316 0.0526316 0.0526316 0.0526316 0.0526316 0.157895 0.0526316 0.0526316 0.0526316 0.0526316 0.0526316 0.0526316;
   (orien_30, dist_2, inclin_0, left) 0.0555556 0.0555556 0.0555556 0.0555556 0.0555556 0.0555556 0.0555556 0.0555556 0.0555556 0.0555556 0.111111 0.0555556 0.0555556 0.0555556 0.0555556 0.0555556 0.0555556;
   (orien_0, dist_2, inclin_0, left) 0.0555556 0.0555556 0.0555556 0.0555556 0.0555556 0.0555556 0.0555556 0.0555556 0.0555556 0.0555556 0.111111 0.0555556 0.0555556 0.0555556 0.0555556 0.0555556 0.0555556;
   (orien_1, dist_2, inclin_0, left) 0.105263 0.0526316 0.0526316 0.0526316 0.0526316 0.0526316 0.0526316 0.0526316 0.0526316 0.0526316 0.105263 0.0526316 0.0526316 0.0526316 0.0526316 0.0526316 0.0526316;
   (orien_3, dist_2, inclin_0, left) 0.105263 0.0526316 0.0526316 0.0526316 0.0526316 0.0526316 0.0526316 0.0526316 0.0526316 0.0526316 0.105263 0.0526316 0.0526316 0.0526316 0.0526316 0.0526316 0.0526316;
   (orien_4, dist_2, inclin_0, left) 0.0555556 0.0555556 0.0555556 0.0555556 0.0555556 0.0555556 0.0555556 0.0555556 0.0555556 0.0555556 0.0555556 0.111111 0.0555556 0.0555556 0.0555556 0.0555556 0.0555556;
   (orien_6, dist_2, inclin_0, left) 0.0588235 0.0588235 0.0588235 0.0588235 0.0588235 0.0588235 0.0588235 0.0588235 0.0588235 0.0588235 0.0588235 0.0588235 0.0588235 0.0588235 0.0588235 0.0588235 0.0588235;
   (orien_8, dist_2, inclin_0, left) 0.0588235 0.0588235 0.0588235 0.0588235 0.0588235 0.0588235 0.0588235 0.0588235 0.0588235 0.0588235 0.0588235 0.0588235 0.0588235 0.0588235 0.0588235 0.0588235 0.0588235;
   (orien_15, dist_1, inclin_0, left) 0.0588235 0.0588235 0.0588235 0.0588235 0.0588235 0.0588235 0.0588235 0.0588235 0.0588235 0.0588235 0.0588235 0.0588235 0.0588235 0.0588235 0.0588235 0.0588235 0.0588235;
   (orien_14, dist_1, inclin_0, left) 0.0588235 0.0588235 0.0588235 0.0588235 0.0588235 0.0588235 0.0588235 0.0588235 0.0588235 0.0588235 0.0588235 0.0588235 0.0588235 0.0588235 0.0588235 0.0588235 0.0588235;
   (orien_13, dist_1, inclin_0, left) 0.0588235 0.0588235 0.0588235 0.0588235 0.0588235 0.0588235 0.0588235 0.0588235 0.0588235 0.0588235 0.0588235 0.0588235 0.0588235 0.0588235 0.0588235 0.0588235 0.0588235;
   (orien_11, dist_1, inclin_0, left) 0.0588235 0.0588235 0.0588235 0.0588235 0.0588235 0.0588235 0.0588235 0.0588235 0.0588235 0.0588235 0.0588235 0.0588235 0.0588235 0.0588235 0.0588235 0.0588235 0.0588235;
   (orien_9, dist_1, inclin_0, left) 0.0588235 0.0588235 0.0588235 0.0588235 0.0588235 0.0588235 0.0588235 0.0588235 0.0588235 0.0588235 0.0588235 0.0588235 0.0588235 0.0588235 0.0588235 0.0588235 0.0588235;
   (orien_7, dist_1, inclin_0, left) 0.0588235 0.0588235 0.0588235 0.0588235 0.0588235 0.0588235 0.0588235 0.0588235 0.0588235 0.0588235 0.0588235 0.0588235 0.0588235 0.0588235 0.0588235 0.0588235 0.0588235;
   (orien_16, dist_1, inclin_0, left) 0.0588235 0.0588235 0.0588235 0.0588235 0.0588235 0.0588235 0.0588235 0.0588235 0.0588235 0.0588235 0.0588235 0.0588235 0.0588235 0.0588235 0.0588235 0.0588235 0.0588235;
   (orien_17, dist_1, inclin_0, left) 0.0588235 0.0588235 0.0588235 0.0588235 0.0588235 0.0588235 0.0588235 0.0588235 0.0588235 0.0588235 0.0588235 0.0588235 0.0588235 0.0588235 0.0588235 0.0588235 0.0588235;
   (orien_19, dist_1, inclin_0, left) 0.0588235 0.0588235 0.0588235 0.0588235 0.0588235 0.0588235 0.0588235 0.0588235 0.0588235 0.0588235 0.0588235 0.0588235 0.0588235 0.0588235 0.0588235 0.0588235 0.0588235;
   (orien_21, dist_1, inclin_0, left) 0.0588235 0.0588235 0.0588235 0.0588235 0.0588235 0.0588235 0.0588235 0.0588235 0.0588235 0.0588235 0.0588235 0.0588235 0.0588235 0.0588235 0.0588235 0.0588235 0.0588235;
   (orien_23, dist_1, inclin_0, left) 0.0588235 0.0588235 0.0588235 0.0588235 0.0588235 0.0588235 0.0588235 0.0588235 0.0588235 0.0588235 0.0588235 0.0588235 0.0588235 0.0588235 0.0588235 0.0588235 0.0588235;
   (orien_31, dist_1, inclin_0, left) 0.0588235 0.0588235 0.0588235 0.0588235 0.0588235 0.0588235 0.0588235 0.0588235 0.0588235 0.0588235 0.0588235 0.0588235 0.0588235 0.0588235 0.0588235 0.0588235 0.0588235;
   (orien_12, dist_1, inclin_0, left) 0.0588235 0.0588235 0.0588235 0.0588235 0.0588235 0.0588235 0.0588235 0.0588235 0.0588235 0.0588235 0.0588235 0.0588235 0.0588235 0.0588235 0.0588235 0.0588235 0.0588235;
   (orien_18, dist_1, inclin_0, left) 0.0588235 0.0588235 0.0588235 0.0588235 0.0588235 0.0588235 0.0588235 0.0588235 0.0588235 0.0588235 0.0588235 0.0588235 0.0588235 0.0588235 0.0588235 0.0588235 0.0588235;
   (orien_20, dist_1, inclin_0, left) 0.0588235 0.0588235 0.0588235 0.0588235 0.0588235 0.0588235 0.0588235 0.0588235 0.0588235 0.0588235 0.0588235 0.0588235 0.0588235 0.0588235 0.0588235 0.0588235 0.0588235;
   (orien_22, dist_1, inclin_0, left) 0.0588235 0.0588235 0.0588235 0.0588235 0.0588235 0.0588235 0.0588235 0.0588235 0.0588235 0.0588235 0.0588235 0.0588235 0.0588235 0.0588235 0.0588235 0.0588235 0.0588235;
   (orien_29, dist_1, inclin_0, left) 0.0588235 0.0588235 0.0588235 0.0588235 0.0588235 0.0588235 0.0588235 0.0588235 0.0588235 0.0588235 0.0588235 0.0588235 0.0588235 0.0588235 0.0588235 0.0588235 0.0588235;
   (orien_10, dist_1, inclin_0, left) 0.0588235 0.0588235 0.0588235 0.0588235 0.0588235 0.0588235 0.0588235 0.0588235 0.0588235 0.0588235 0.0588235 0.0588235 0.0588235 0.0588235 0.0588235 0.0588235 0.0588235;
   (orien_26, dist_1, inclin_0, left) 0.0588235 0.0588235 0.0588235 0.0588235 0.0588235 0.0588235 0.0588235 0.0588235 0.0588235 0.0588235 0.0588235 0.0588235 0.0588235 0.0588235 0.0588235 0.0588235 0.0588235;
   (orien_24, dist_1, inclin_0, left) 0.0588235 0.0588235 0.0588235 0.0588235 0.0588235 0.0588235 0.0588235 0.0588235 0.0588235 0.0588235 0.0588235 0.0588235 0.0588235 0.0588235 0.0588235 0.0588235 0.0588235;
   (orien_25, dist_1, inclin_0, left) 0.0588235 0.0588235 0.0588235 0.0588235 0.0588235 0.0588235 0.0588235 0.0588235 0.0588235 0.0588235 0.0588235 0.0588235 0.0588235 0.0588235 0.0588235 0.0588235 0.0588235;
   (orien_27, dist_1, inclin_0, left) 0.0588235 0.0588235 0.0588235 0.0588235 0.0588235 0.0588235 0.0588235 0.0588235 0.0588235 0.0588235 0.0588235 0.0588235 0.0588235 0.0588235 0.0588235 0.0588235 0.0588235;
   (orien_5, dist_1, inclin_0, left) 0.0588235 0.0588235 0.0588235 0.0588235 0.0588235 0.0588235 0.0588235 0.0588235 0.0588235 0.0588235 0.0588235 0.0588235 0.0588235 0.0588235 0.0588235 0.0588235 0.0588235;
   (orien_28, dist_1, inclin_0, left) 0.0588235 0.0588235 0.0588235 0.0588235 0.0588235 0.0588235 0.0588235 0.0588235 0.0588235 0.0588235 0.0588235 0.0588235 0.0588235 0.0588235 0.0588235 0.0588235 0.0588235;
   (orien_2, dist_1, inclin_0, left) 0.0555556 0.0555556 0.0555556 0.0555556 0.0555556 0.0555556 0.0555556 0.0555556 0.0555556 0.0555556 0.111111 0.0555556 0.0555556 0.0555556 0.0555556 0.0555556 0.0555556;
   (orien_30, dist_1, inclin_0, left) 0.0588235 0.0588235 0.0588235 0.0588235 0.0588235 0.0588235 0.0588235 0.0588235 0.0588235 0.0588235 0.0588235 0.0588235 0.0588235 0.0588235 0.0588235 0.0588235 0.0588235;
   (orien_0, dist_1, inclin_0, left) 0.0588235 0.0588235 0.0588235 0.0588235 0.0588235 0.0588235 0.0588235 0.0588235 0.0588235 0.0588235 0.0588235 0.0588235 0.0588235 0.0588235 0.0588235 0.0588235 0.0588235;
   (orien_1, dist_1, inclin_0, left) 0.0588235 0.0588235 0.0588235 0.0588235 0.0588235 0.0588235 0.0588235 0.0588235 0.0588235 0.0588235 0.0588235 0.0588235 0.0588235 0.0588235 0.0588235 0.0588235 0.0588235;
   (orien_3, dist_1, inclin_0, left) 0.0588235 0.0588235 0.0588235 0.0588235 0.0588235 0.0588235 0.0588235 0.0588235 0.0588235 0.0588235 0.0588235 0.0588235 0.0588235 0.0588235 0.0588235 0.0588235 0.0588235;
   (orien_4, dist_1, inclin_0, left) 0.0588235 0.0588235 0.0588235 0.0588235 0.0588235 0.0588235 0.0588235 0.0588235 0.0588235 0.0588235 0.0588235 0.0588235 0.0588235 0.0588235 0.0588235 0.0588235 0.0588235;
   (orien_6, dist_1, inclin_0, left) 0.0588235 0.0588235 0.0588235 0.0588235 0.0588235 0.0588235 0.0588235 0.0588235 0.0588235 0.0588235 0.0588235 0.0588235 0.0588235 0.0588235 0.0588235 0.0588235 0.0588235;
   (orien_8, dist_1, inclin_0, left) 0.0588235 0.0588235 0.0588235 0.0588235 0.0588235 0.0588235 0.0588235 0.0588235 0.0588235 0.0588235 0.0588235 0.0588235 0.0588235 0.0588235 0.0588235 0.0588235 0.0588235;
   (orien_15, dist_0, inclin_0, left) 0.0588235 0.0588235 0.0588235 0.0588235 0.0588235 0.0588235 0.0588235 0.0588235 0.0588235 0.0588235 0.0588235 0.0588235 0.0588235 0.0588235 0.0588235 0.0588235 0.0588235;
   (orien_14, dist_0, inclin_0, left) 0.0588235 0.0588235 0.0588235 0.0588235 0.0588235 0.0588235 0.0588235 0.0588235 0.0588235 0.0588235 0.0588235 0.0588235 0.0588235 0.0588235 0.0588235 0.0588235 0.0588235;
   (orien_13, dist_0, inclin_0, left) 0.0588235 0.0588235 0.0588235 0.0588235 0.0588235 0.0588235 0.0588235 0.0588235 0.0588235 0.0588235 0.0588235 0.0588235 0.0588235 0.0588235 0.0588235 0.0588235 0.0588235;
   (orien_11, dist_0, inclin_0, left) 0.0588235 0.0588235 0.0588235 0.0588235 0.0588235 0.0588235 0.0588235 0.0588235 0.0588235 0.0588235 0.0588235 0.0588235 0.0588235 0.0588235 0.0588235 0.0588235 0.0588235;
   (orien_9, dist_0, inclin_0, left) 0.0588235 0.0588235 0.0588235 0.0588235 0.0588235 0.0588235 0.0588235 0.0588235 0.0588235 0.0588235 0.0588235 0.0588235 0.0588235 0.0588235 0.0588235 0.0588235 0.0588235;
   (orien_7, dist_0, inclin_0, left) 0.0588235 0.0588235 0.0588235 0.0588235 0.0588235 0.0588235 0.0588235 0.0588235 0.0588235 0.0588235 0.0588235 0.0588235 0.0588235 0.0588235 0.0588235 0.0588235 0.0588235;
   (orien_16, dist_0, inclin_0, left) 0.0588235 0.0588235 0.0588235 0.0588235 0.0588235 0.0588235 0.0588235 0.0588235 0.0588235 0.0588235 0.0588235 0.0588235 0.0588235 0.0588235 0.0588235 0.0588235 0.0588235;
   (orien_17, dist_0, inclin_0, left) 0.0588235 0.0588235 0.0588235 0.0588235 0.0588235 0.0588235 0.0588235 0.0588235 0.0588235 0.0588235 0.0588235 0.0588235 0.0588235 0.0588235 0.0588235 0.0588235 0.0588235;
   (orien_19, dist_0, inclin_0, left) 0.0588235 0.0588235 0.0588235 0.0588235 0.0588235 0.0588235 0.0588235 0.0588235 0.0588235 0.0588235 0.0588235 0.0588235 0.0588235 0.0588235 0.0588235 0.0588235 0.0588235;
   (orien_21, dist_0, inclin_0, left) 0.0588235 0.0588235 0.0588235 0.0588235 0.0588235 0.0588235 0.0588235 0.0588235 0.0588235 0.0588235 0.0588235 0.0588235 0.0588235 0.0588235 0.0588235 0.0588235 0.0588235;
   (orien_23, dist_0, inclin_0, left) 0.0588235 0.0588235 0.0588235 0.0588235 0.0588235 0.0588235 0.0588235 0.0588235 0.0588235 0.0588235 0.0588235 0.0588235 0.0588235 0.0588235 0.0588235 0.0588235 0.0588235;
   (orien_31, dist_0, inclin_0, left) 0.0588235 0.0588235 0.0588235 0.0588235 0.0588235 0.0588235 0.0588235 0.0588235 0.0588235 0.0588235 0.0588235 0.0588235 0.0588235 0.0588235 0.0588235 0.0588235 0.0588235;
   (orien_12, dist_0, inclin_0, left) 0.0588235 0.0588235 0.0588235 0.0588235 0.0588235 0.0588235 0.0588235 0.0588235 0.0588235 0.0588235 0.0588235 0.0588235 0.0588235 0.0588235 0.0588235 0.0588235 0.0588235;
   (orien_18, dist_0, inclin_0, left) 0.0588235 0.0588235 0.0588235 0.0588235 0.0588235 0.0588235 0.0588235 0.0588235 0.0588235 0.0588235 0.0588235 0.0588235 0.0588235 0.0588235 0.0588235 0.0588235 0.0588235;
   (orien_20, dist_0, inclin_0, left) 0.0588235 0.0588235 0.0588235 0.0588235 0.0588235 0.0588235 0.0588235 0.0588235 0.0588235 0.0588235 0.0588235 0.0588235 0.0588235 0.0588235 0.0588235 0.0588235 0.0588235;
   (orien_22, dist_0, inclin_0, left) 0.0588235 0.0588235 0.0588235 0.0588235 0.0588235 0.0588235 0.0588235 0.0588235 0.0588235 0.0588235 0.0588235 0.0588235 0.0588235 0.0588235 0.0588235 0.0588235 0.0588235;
   (orien_29, dist_0, inclin_0, left) 0.0588235 0.0588235 0.0588235 0.0588235 0.0588235 0.0588235 0.0588235 0.0588235 0.0588235 0.0588235 0.0588235 0.0588235 0.0588235 0.0588235 0.0588235 0.0588235 0.0588235;
   (orien_10, dist_0, inclin_0, left) 0.0588235 0.0588235 0.0588235 0.0588235 0.0588235 0.0588235 0.0588235 0.0588235 0.0588235 0.0588235 0.0588235 0.0588235 0.0588235 0.0588235 0.0588235 0.0588235 0.0588235;
   (orien_26, dist_0, inclin_0, left) 0.0588235 0.0588235 0.0588235 0.0588235 0.0588235 0.0588235 0.0588235 0.0588235 0.0588235 0.0588235 0.0588235 0.0588235 0.0588235 0.0588235 0.0588235 0.0588235 0.0588235;
   (orien_24, dist_0, inclin_0, left) 0.0588235 0.0588235 0.0588235 0.0588235 0.0588235 0.0588235 0.0588235 0.0588235 0.0588235 0.0588235 0.0588235 0.0588235 0.0588235 0.0588235 0.0588235 0.0588235 0.0588235;
   (orien_25, dist_0, inclin_0, left) 0.0588235 0.0588235 0.0588235 0.0588235 0.0588235 0.0588235 0.0588235 0.0588235 0.0588235 0.0588235 0.0588235 0.0588235 0.0588235 0.0588235 0.0588235 0.0588235 0.0588235;
   (orien_27, dist_0, inclin_0, left) 0.0588235 0.0588235 0.0588235 0.0588235 0.0588235 0.0588235 0.0588235 0.0588235 0.0588235 0.0588235 0.0588235 0.0588235 0.0588235 0.0588235 0.0588235 0.0588235 0.0588235;
   (orien_5, dist_0, inclin_0, left) 0.0588235 0.0588235 0.0588235 0.0588235 0.0588235 0.0588235 0.0588235 0.0588235 0.0588235 0.0588235 0.0588235 0.0588235 0.0588235 0.0588235 0.0588235 0.0588235 0.0588235;
   (orien_28, dist_0, inclin_0, left) 0.0588235 0.0588235 0.0588235 0.0588235 0.0588235 0.0588235 0.0588235 0.0588235 0.0588235 0.0588235 0.0588235 0.0588235 0.0588235 0.0588235 0.0588235 0.0588235 0.0588235;
   (orien_2, dist_0, inclin_0, left) 0.0588235 0.0588235 0.0588235 0.0588235 0.0588235 0.0588235 0.0588235 0.0588235 0.0588235 0.0588235 0.0588235 0.0588235 0.0588235 0.0588235 0.0588235 0.0588235 0.0588235;
   (orien_30, dist_0, inclin_0, left) 0.0588235 0.0588235 0.0588235 0.0588235 0.0588235 0.0588235 0.0588235 0.0588235 0.0588235 0.0588235 0.0588235 0.0588235 0.0588235 0.0588235 0.0588235 0.0588235 0.0588235;
   (orien_0, dist_0, inclin_0, left) 0.0588235 0.0588235 0.0588235 0.0588235 0.0588235 0.0588235 0.0588235 0.0588235 0.0588235 0.0588235 0.0588235 0.0588235 0.0588235 0.0588235 0.0588235 0.0588235 0.0588235;
   (orien_1, dist_0, inclin_0, left) 0.0588235 0.0588235 0.0588235 0.0588235 0.0588235 0.0588235 0.0588235 0.0588235 0.0588235 0.0588235 0.0588235 0.0588235 0.0588235 0.0588235 0.0588235 0.0588235 0.0588235;
   (orien_3, dist_0, inclin_0, left) 0.0588235 0.0588235 0.0588235 0.0588235 0.0588235 0.0588235 0.0588235 0.0588235 0.0588235 0.0588235 0.0588235 0.0588235 0.0588235 0.0588235 0.0588235 0.0588235 0.0588235;
   (orien_4, dist_0, inclin_0, left) 0.0588235 0.0588235 0.0588235 0.0588235 0.0588235 0.0588235 0.0588235 0.0588235 0.0588235 0.0588235 0.0588235 0.0588235 0.0588235 0.0588235 0.0588235 0.0588235 0.0588235;
   (orien_6, dist_0, inclin_0, left) 0.0588235 0.0588235 0.0588235 0.0588235 0.0588235 0.0588235 0.0588235 0.0588235 0.0588235 0.0588235 0.0588235 0.0588235 0.0588235 0.0588235 0.0588235 0.0588235 0.0588235;
   (orien_8, dist_0, inclin_0, left) 0.0588235 0.0588235 0.0588235 0.0588235 0.0588235 0.0588235 0.0588235 0.0588235 0.0588235 0.0588235 0.0588235 0.0588235 0.0588235 0.0588235 0.0588235 0.0588235 0.0588235;
   (orien_15, dist_2, inclin_1, left) 0.0588235 0.0588235 0.0588235 0.0588235 0.0588235 0.0588235 0.0588235 0.0588235 0.0588235 0.0588235 0.0588235 0.0588235 0.0588235 0.0588235 0.0588235 0.0588235 0.0588235;
   (orien_14, dist_2, inclin_1, left) 0.0588235 0.0588235 0.0588235 0.0588235 0.0588235 0.0588235 0.0588235 0.0588235 0.0588235 0.0588235 0.0588235 0.0588235 0.0588235 0.0588235 0.0588235 0.0588235 0.0588235;
   (orien_13, dist_2, inclin_1, left) 0.0588235 0.0588235 0.0588235 0.0588235 0.0588235 0.0588235 0.0588235 0.0588235 0.0588235 0.0588235 0.0588235 0.0588235 0.0588235 0.0588235 0.0588235 0.0588235 0.0588235;
   (orien_11, dist_2, inclin_1, left) 0.0555556 0.111111 0.0555556 0.0555556 0.0555556 0.0555556 0.0555556 0.0555556 0.0555556 0.0555556 0.0555556 0.0555556 0.0555556 0.0555556 0.0555556 0.0555556 0.0555556;
   (orien_9, dist_2, inclin_1, left) 0.047619 0.142857 0.047619 0.047619 0.047619 0.047619 0.142857 0.047619 0.047619 0.047619 0.047619 0.047619 0.047619 0.047619 0.047619 0.047619 0.047619;
   (orien_7, dist_2, inclin_1, left) 0.2 0.0333333 0.133333 0.0333333 0.0333333 0.0333333 0.0333333 0.0333333 0.2 0.0333333 0.0333333 0.0333333 0.0333333 0.0333333 0.0333333 0.0333333 0.0333333;
   (orien_16, dist_2, inclin_1, left) 0.0588235 0.0588235 0.0588235 0.0588235 0.0588235 0.0588235 0.0588235 0.0588235 0.0588235 0.0588235 0.0588235 0.0588235 0.0588235 0.0588235 0.0588235 0.0588235 0.0588235;
   (orien_17, dist_2, inclin_1, left) 0.0588235 0.0588235 0.0588235 0.0588235 0.0588235 0.0588235 0.0588235 0.0588235 0.0588235 0.0588235 0.0588235 0.0588235 0.0588235 0.0588235 0.0588235 0.0588235 0.0588235;
   (orien_19, dist_2, inclin_1, left) 0.0588235 0.0588235 0.0588235 0.0588235 0.0588235 0.0588235 0.0588235 0.0588235 0.0588235 0.0588235 0.0588235 0.0588235 0.0588235 0.0588235 0.0588235 0.0588235 0.0588235;
   (orien_21, dist_2, inclin_1, left) 0.0588235 0.0588235 0.0588235 0.0588235 0.0588235 0.0588235 0.0588235 0.0588235 0.0588235 0.0588235 0.0588235 0.0588235 0.0588235 0.0588235 0.0588235 0.0588235 0.0588235;
   (orien_23, dist_2, inclin_1, left) 0.0588235 0.0588235 0.0588235 0.0588235 0.0588235 0.0588235 0.0588235 0.0588235 0.0588235 0.0588235 0.0588235 0.0588235 0.0588235 0.0588235 0.0588235 0.0588235 0.0588235;
   (orien_31, dist_2, inclin_1, left) 0.0588235 0.0588235 0.0588235 0.0588235 0.0588235 0.0588235 0.0588235 0.0588235 0.0588235 0.0588235 0.0588235 0.0588235 0.0588235 0.0588235 0.0588235 0.0588235 0.0588235;
   (orien_12, dist_2, inclin_1, left) 0.0588235 0.0588235 0.0588235 0.0588235 0.0588235 0.0588235 0.0588235 0.0588235 0.0588235 0.0588235 0.0588235 0.0588235 0.0588235 0.0588235 0.0588235 0.0588235 0.0588235;
   (orien_18, dist_2, inclin_1, left) 0.0588235 0.0588235 0.0588235 0.0588235 0.0588235 0.0588235 0.0588235 0.0588235 0.0588235 0.0588235 0.0588235 0.0588235 0.0588235 0.0588235 0.0588235 0.0588235 0.0588235;
   (orien_20, dist_2, inclin_1, left) 0.0588235 0.0588235 0.0588235 0.0588235 0.0588235 0.0588235 0.0588235 0.0588235 0.0588235 0.0588235 0.0588235 0.0588235 0.0588235 0.0588235 0.0588235 0.0588235 0.0588235;
   (orien_22, dist_2, inclin_1, left) 0.0588235 0.0588235 0.0588235 0.0588235 0.0588235 0.0588235 0.0588235 0.0588235 0.0588235 0.0588235 0.0588235 0.0588235 0.0588235 0.0588235 0.0588235 0.0588235 0.0588235;
   (orien_29, dist_2, inclin_1, left) 0.0588235 0.0588235 0.0588235 0.0588235 0.0588235 0.0588235 0.0588235 0.0588235 0.0588235 0.0588235 0.0588235 0.0588235 0.0588235 0.0588235 0.0588235 0.0588235 0.0588235;
   (orien_10, dist_2, inclin_1, left) 0.0555556 0.0555556 0.0555556 0.0555556 0.0555556 0.0555556 0.111111 0.0555556 0.0555556 0.0555556 0.0555556 0.0555556 0.0555556 0.0555556 0.0555556 0.0555556 0.0555556;
   (orien_26, dist_2, inclin_1, left) 0.0588235 0.0588235 0.0588235 0.0588235 0.0588235 0.0588235 0.0588235 0.0588235 0.0588235 0.0588235 0.0588235 0.0588235 0.0588235 0.0588235 0.0588235 0.0588235 0.0588235;
   (orien_24, dist_2, inclin_1, left) 0.0588235 0.0588235 0.0588235 0.0588235 0.0588235 0.0588235 0.0588235 0.0588235 0.0588235 0.0588235 0.0588235 0.0588235 0.0588235 0.0588235 0.0588235 0.0588235 0.0588235;
   (orien_25, dist_2, inclin_1, left) 0.0588235 0.0588235 0.0588235 0.0588235 0.0588235 0.0588235 0.0588235 0.0588235 0.0588235 0.0588235 0.0588235 0.0588235 0.0588235 0.0588235 0.0588235 0.0588235 0.0588235;
   (orien_27, dist_2, inclin_1, left) 0.0588235 0.0588235 0.0588235 0.0588235 0.0588235 0.0588235 0.0588235 0.0588235 0.0588235 0.0588235 0.0588235 0.0588235 0.0588235 0.0588235 0.0588235 0.0588235 0.0588235;
   (orien_5, dist_2, inclin_1, left) 0.05 0.05 0.05 0.05 0.05 0.05 0.05 0.05 0.05 0.05 0.15 0.1 0.05 0.05 0.05 0.05 0.05;
   (orien_28, dist_2, inclin_1, left) 0.0588235 0.0588235 0.0588235 0.0588235 0.0588235 0.0588235 0.0588235 0.0588235 0.0588235 0.0588235 0.0588235 0.0588235 0.0588235 0.0588235 0.0588235 0.0588235 0.0588235;
   (orien_2, dist_2, inclin_1, left) 0.0588235 0.0588235 0.0588235 0.0588235 0.0588235 0.0588235 0.0588235 0.0588235 0.0588235 0.0588235 0.0588235 0.0588235 0.0588235 0.0588235 0.0588235 0.0588235 0.0588235;
   (orien_30, dist_2, inclin_1, left) 0.0588235 0.0588235 0.0588235 0.0588235 0.0588235 0.0588235 0.0588235 0.0588235 0.0588235 0.0588235 0.0588235 0.0588235 0.0588235 0.0588235 0.0588235 0.0588235 0.0588235;
   (orien_0, dist_2, inclin_1, left) 0.0588235 0.0588235 0.0588235 0.0588235 0.0588235 0.0588235 0.0588235 0.0588235 0.0588235 0.0588235 0.0588235 0.0588235 0.0588235 0.0588235 0.0588235 0.0588235 0.0588235;
   (orien_1, dist_2, inclin_1, left) 0.0588235 0.0588235 0.0588235 0.0588235 0.0588235 0.0588235 0.0588235 0.0588235 0.0588235 0.0588235 0.0588235 0.0588235 0.0588235 0.0588235 0.0588235 0.0588235 0.0588235;
   (orien_3, dist_2, inclin_1, left) 0.0555556 0.0555556 0.0555556 0.0555556 0.0555556 0.0555556 0.0555556 0.0555556 0.0555556 0.0555556 0.111111 0.0555556 0.0555556 0.0555556 0.0555556 0.0555556 0.0555556;
   (orien_4, dist_2, inclin_1, left) 0.0526316 0.0526316 0.0526316 0.0526316 0.0526316 0.0526316 0.0526316 0.0526316 0.0526316 0.0526316 0.0526316 0.157895 0.0526316 0.0526316 0.0526316 0.0526316 0.0526316;
   (orien_6, dist_2, inclin_1, left) 0.142857 0.047619 0.047619 0.047619 0.047619 0.047619 0.047619 0.047619 0.047619 0.047619 0.047619 0.142857 0.047619 0.047619 0.047619 0.047619 0.047619;
   (orien_8, dist_2, inclin_1, left) 0.227273 0.0454545 0.0454545 0.0454545 0.0454545 0.0454545 0.0909091 0.0454545 0.0454545 0.0454545 0.0454545 0.0454545 0.0454545 0.0454545 0.0454545 0.0454545 0.0454545;
   (orien_15, dist_1, inclin_1, left) 0.0588235 0.0588235 0.0588235 0.0588235 0.0588235 0.0588235 0.0588235 0.0588235 0.0588235 0.0588235 0.0588235 0.0588235 0.0588235 0.0588235 0.0588235 0.0588235 0.0588235;
   (orien_14, dist_1, inclin_1, left) 0.0588235 0.0588235 0.0588235 0.0588235 0.0588235 0.0588235 0.0588235 0.0588235 0.0588235 0.0588235 0.0588235 0.0588235 0.0588235 0.0588235 0.0588235 0.0588235 0.0588235;
   (orien_13, dist_1, inclin_1, left) 0.0588235 0.0588235 0.0588235 0.0588235 0.0588235 0.0588235 0.0588235 0.0588235 0.0588235 0.0588235 0.0588235 0.0588235 0.0588235 0.0588235 0.0588235 0.0588235 0.0588235;
   (orien_11, dist_1, inclin_1, left) 0.0588235 0.0588235 0.0588235 0.0588235 0.0588235 0.0588235 0.0588235 0.0588235 0.0588235 0.0588235 0.0588235 0.0588235 0.0588235 0.0588235 0.0588235 0.0588235 0.0588235;
   (orien_9, dist_1, inclin_1, left) 0.0588235 0.0588235 0.0588235 0.0588235 0.0588235 0.0588235 0.0588235 0.0588235 0.0588235 0.0588235 0.0588235 0.0588235 0.0588235 0.0588235 0.0588235 0.0588235 0.0588235;
   (orien_7, dist_1, inclin_1, left) 0.0588235 0.0588235 0.0588235 0.0588235 0.0588235 0.0588235 0.0588235 0.0588235 0.0588235 0.0588235 0.0588235 0.0588235 0.0588235 0.0588235 0.0588235 0.0588235 0.0588235;
   (orien_16, dist_1, inclin_1, left) 0.0588235 0.0588235 0.0588235 0.0588235 0.0588235 0.0588235 0.0588235 0.0588235 0.0588235 0.0588235 0.0588235 0.0588235 0.0588235 0.0588235 0.0588235 0.0588235 0.0588235;
   (orien_17, dist_1, inclin_1, left) 0.0588235 0.0588235 0.0588235 0.0588235 0.0588235 0.0588235 0.0588235 0.0588235 0.0588235 0.0588235 0.0588235 0.0588235 0.0588235 0.0588235 0.0588235 0.0588235 0.0588235;
   (orien_19, dist_1, inclin_1, left) 0.0588235 0.0588235 0.0588235 0.0588235 0.0588235 0.0588235 0.0588235 0.0588235 0.0588235 0.0588235 0.0588235 0.0588235 0.0588235 0.0588235 0.0588235 0.0588235 0.0588235;
   (orien_21, dist_1, inclin_1, left) 0.0588235 0.0588235 0.0588235 0.0588235 0.0588235 0.0588235 0.0588235 0.0588235 0.0588235 0.0588235 0.0588235 0.0588235 0.0588235 0.0588235 0.0588235 0.0588235 0.0588235;
   (orien_23, dist_1, inclin_1, left) 0.0588235 0.0588235 0.0588235 0.0588235 0.0588235 0.0588235 0.0588235 0.0588235 0.0588235 0.0588235 0.0588235 0.0588235 0.0588235 0.0588235 0.0588235 0.0588235 0.0588235;
   (orien_31, dist_1, inclin_1, left) 0.0588235 0.0588235 0.0588235 0.0588235 0.0588235 0.0588235 0.0588235 0.0588235 0.0588235 0.0588235 0.0588235 0.0588235 0.0588235 0.0588235 0.0588235 0.0588235 0.0588235;
   (orien_12, dist_1, inclin_1, left) 0.0588235 0.0588235 0.0588235 0.0588235 0.0588235 0.0588235 0.0588235 0.0588235 0.0588235 0.0588235 0.0588235 0.0588235 0.0588235 0.0588235 0.0588235 0.0588235 0.0588235;
   (orien_18, dist_1, inclin_1, left) 0.0588235 0.0588235 0.0588235 0.0588235 0.0588235 0.0588235 0.0588235 0.0588235 0.0588235 0.0588235 0.0588235 0.0588235 0.0588235 0.0588235 0.0588235 0.0588235 0.0588235;
   (orien_20, dist_1, inclin_1, left) 0.0588235 0.0588235 0.0588235 0.0588235 0.0588235 0.0588235 0.0588235 0.0588235 0.0588235 0.0588235 0.0588235 0.0588235 0.0588235 0.0588235 0.0588235 0.0588235 0.0588235;
   (orien_22, dist_1, inclin_1, left) 0.0588235 0.0588235 0.0588235 0.0588235 0.0588235 0.0588235 0.0588235 0.0588235 0.0588235 0.0588235 0.0588235 0.0588235 0.0588235 0.0588235 0.0588235 0.0588235 0.0588235;
   (orien_29, dist_1, inclin_1, left) 0.0588235 0.0588235 0.0588235 0.0588235 0.0588235 0.0588235 0.0588235 0.0588235 0.0588235 0.0588235 0.0588235 0.0588235 0.0588235 0.0588235 0.0588235 0.0588235 0.0588235;
   (orien_10, dist_1, inclin_1, left) 0.0588235 0.0588235 0.0588235 0.0588235 0.0588235 0.0588235 0.0588235 0.0588235 0.0588235 0.0588235 0.0588235 0.0588235 0.0588235 0.0588235 0.0588235 0.0588235 0.0588235;
   (orien_26, dist_1, inclin_1, left) 0.0588235 0.0588235 0.0588235 0.0588235 0.0588235 0.0588235 0.0588235 0.0588235 0.0588235 0.0588235 0.0588235 0.0588235 0.0588235 0.0588235 0.0588235 0.0588235 0.0588235;
   (orien_24, dist_1, inclin_1, left) 0.0588235 0.0588235 0.0588235 0.0588235 0.0588235 0.0588235 0.0588235 0.0588235 0.0588235 0.0588235 0.0588235 0.0588235 0.0588235 0.0588235 0.0588235 0.0588235 0.0588235;
   (orien_25, dist_1, inclin_1, left) 0.0588235 0.0588235 0.0588235 0.0588235 0.0588235 0.0588235 0.0588235 0.0588235 0.0588235 0.0588235 0.0588235 0.0588235 0.0588235 0.0588235 0.0588235 0.0588235 0.0588235;
   (orien_27, dist_1, inclin_1, left) 0.0588235 0.0588235 0.0588235 0.0588235 0.0588235 0.0588235 0.0588235 0.0588235 0.0588235 0.0588235 0.0588235 0.0588235 0.0588235 0.0588235 0.0588235 0.0588235 0.0588235;
   (orien_5, dist_1, inclin_1, left) 0.0555556 0.0555556 0.0555556 0.0555556 0.0555556 0.0555556 0.0555556 0.0555556 0.0555556 0.0555556 0.111111 0.0555556 0.0555556 0.0555556 0.0555556 0.0555556 0.0555556;
   (orien_28, dist_1, inclin_1, left) 0.0588235 0.0588235 0.0588235 0.0588235 0.0588235 0.0588235 0.0588235 0.0588235 0.0588235 0.0588235 0.0588235 0.0588235 0.0588235 0.0588235 0.0588235 0.0588235 0.0588235;
   (orien_2, dist_1, inclin_1, left) 0.0588235 0.0588235 0.0588235 0.0588235 0.0588235 0.0588235 0.0588235 0.0588235 0.0588235 0.0588235 0.0588235 0.0588235 0.0588235 0.0588235 0.0588235 0.0588235 0.0588235;
   (orien_30, dist_1, inclin_1, left) 0.0588235 0.0588235 0.0588235 0.0588235 0.0588235 0.0588235 0.0588235 0.0588235 0.0588235 0.0588235 0.0588235 0.0588235 0.0588235 0.0588235 0.0588235 0.0588235 0.0588235;
   (orien_0, dist_1, inclin_1, left) 0.0588235 0.0588235 0.0588235 0.0588235 0.0588235 0.0588235 0.0588235 0.0588235 0.0588235 0.0588235 0.0588235 0.0588235 0.0588235 0.0588235 0.0588235 0.0588235 0.0588235;
   (orien_1, dist_1, inclin_1, left) 0.0588235 0.0588235 0.0588235 0.0588235 0.0588235 0.0588235 0.0588235 0.0588235 0.0588235 0.0588235 0.0588235 0.0588235 0.0588235 0.0588235 0.0588235 0.0588235 0.0588235;
   (orien_3, dist_1, inclin_1, left) 0.0588235 0.0588235 0.0588235 0.0588235 0.0588235 0.0588235 0.0588235 0.0588235 0.0588235 0.0588235 0.0588235 0.0588235 0.0588235 0.0588235 0.0588235 0.0588235 0.0588235;
   (orien_4, dist_1, inclin_1, left) 0.0588235 0.0588235 0.0588235 0.0588235 0.0588235 0.0588235 0.0588235 0.0588235 0.0588235 0.0588235 0.0588235 0.0588235 0.0588235 0.0588235 0.0588235 0.0588235 0.0588235;
   (orien_6, dist_1, inclin_1, left) 0.0588235 0.0588235 0.0588235 0.0588235 0.0588235 0.0588235 0.0588235 0.0588235 0.0588235 0.0588235 0.0588235 0.0588235 0.0588235 0.0588235 0.0588235 0.0588235 0.0588235;
   (orien_8, dist_1, inclin_1, left) 0.0588235 0.0588235 0.0588235 0.0588235 0.0588235 0.0588235 0.0588235 0.0588235 0.0588235 0.0588235 0.0588235 0.0588235 0.0588235 0.0588235 0.0588235 0.0588235 0.0588235;
   (orien_15, dist_0, inclin_1, left) 0.0588235 0.0588235 0.0588235 0.0588235 0.0588235 0.0588235 0.0588235 0.0588235 0.0588235 0.0588235 0.0588235 0.0588235 0.0588235 0.0588235 0.0588235 0.0588235 0.0588235;
   (orien_14, dist_0, inclin_1, left) 0.0588235 0.0588235 0.0588235 0.0588235 0.0588235 0.0588235 0.0588235 0.0588235 0.0588235 0.0588235 0.0588235 0.0588235 0.0588235 0.0588235 0.0588235 0.0588235 0.0588235;
   (orien_13, dist_0, inclin_1, left) 0.0588235 0.0588235 0.0588235 0.0588235 0.0588235 0.0588235 0.0588235 0.0588235 0.0588235 0.0588235 0.0588235 0.0588235 0.0588235 0.0588235 0.0588235 0.0588235 0.0588235;
   (orien_11, dist_0, inclin_1, left) 0.0588235 0.0588235 0.0588235 0.0588235 0.0588235 0.0588235 0.0588235 0.0588235 0.0588235 0.0588235 0.0588235 0.0588235 0.0588235 0.0588235 0.0588235 0.0588235 0.0588235;
   (orien_9, dist_0, inclin_1, left) 0.0588235 0.0588235 0.0588235 0.0588235 0.0588235 0.0588235 0.0588235 0.0588235 0.0588235 0.0588235 0.0588235 0.0588235 0.0588235 0.0588235 0.0588235 0.0588235 0.0588235;
   (orien_7, dist_0, inclin_1, left) 0.0588235 0.0588235 0.0588235 0.0588235 0.0588235 0.0588235 0.0588235 0.0588235 0.0588235 0.0588235 0.0588235 0.0588235 0.0588235 0.0588235 0.0588235 0.0588235 0.0588235;
   (orien_16, dist_0, inclin_1, left) 0.0588235 0.0588235 0.0588235 0.0588235 0.0588235 0.0588235 0.0588235 0.0588235 0.0588235 0.0588235 0.0588235 0.0588235 0.0588235 0.0588235 0.0588235 0.0588235 0.0588235;
   (orien_17, dist_0, inclin_1, left) 0.0588235 0.0588235 0.0588235 0.0588235 0.0588235 0.0588235 0.0588235 0.0588235 0.0588235 0.0588235 0.0588235 0.0588235 0.0588235 0.0588235 0.0588235 0.0588235 0.0588235;
   (orien_19, dist_0, inclin_1, left) 0.0588235 0.0588235 0.0588235 0.0588235 0.0588235 0.0588235 0.0588235 0.0588235 0.0588235 0.0588235 0.0588235 0.0588235 0.0588235 0.0588235 0.0588235 0.0588235 0.0588235;
   (orien_21, dist_0, inclin_1, left) 0.0588235 0.0588235 0.0588235 0.0588235 0.0588235 0.0588235 0.0588235 0.0588235 0.0588235 0.0588235 0.0588235 0.0588235 0.0588235 0.0588235 0.0588235 0.0588235 0.0588235;
   (orien_23, dist_0, inclin_1, left) 0.0588235 0.0588235 0.0588235 0.0588235 0.0588235 0.0588235 0.0588235 0.0588235 0.0588235 0.0588235 0.0588235 0.0588235 0.0588235 0.0588235 0.0588235 0.0588235 0.0588235;
   (orien_31, dist_0, inclin_1, left) 0.0588235 0.0588235 0.0588235 0.0588235 0.0588235 0.0588235 0.0588235 0.0588235 0.0588235 0.0588235 0.0588235 0.0588235 0.0588235 0.0588235 0.0588235 0.0588235 0.0588235;
   (orien_12, dist_0, inclin_1, left) 0.0588235 0.0588235 0.0588235 0.0588235 0.0588235 0.0588235 0.0588235 0.0588235 0.0588235 0.0588235 0.0588235 0.0588235 0.0588235 0.0588235 0.0588235 0.0588235 0.0588235;
   (orien_18, dist_0, inclin_1, left) 0.0588235 0.0588235 0.0588235 0.0588235 0.0588235 0.0588235 0.0588235 0.0588235 0.0588235 0.0588235 0.0588235 0.0588235 0.0588235 0.0588235 0.0588235 0.0588235 0.0588235;
   (orien_20, dist_0, inclin_1, left) 0.0588235 0.0588235 0.0588235 0.0588235 0.0588235 0.0588235 0.0588235 0.0588235 0.0588235 0.0588235 0.0588235 0.0588235 0.0588235 0.0588235 0.0588235 0.0588235 0.0588235;
   (orien_22, dist_0, inclin_1, left) 0.0588235 0.0588235 0.0588235 0.0588235 0.0588235 0.0588235 0.0588235 0.0588235 0.0588235 0.0588235 0.0588235 0.0588235 0.0588235 0.0588235 0.0588235 0.0588235 0.0588235;
   (orien_29, dist_0, inclin_1, left) 0.0588235 0.0588235 0.0588235 0.0588235 0.0588235 0.0588235 0.0588235 0.0588235 0.0588235 0.0588235 0.0588235 0.0588235 0.0588235 0.0588235 0.0588235 0.0588235 0.0588235;
   (orien_10, dist_0, inclin_1, left) 0.0588235 0.0588235 0.0588235 0.0588235 0.0588235 0.0588235 0.0588235 0.0588235 0.0588235 0.0588235 0.0588235 0.0588235 0.0588235 0.0588235 0.0588235 0.0588235 0.0588235;
   (orien_26, dist_0, inclin_1, left) 0.0588235 0.0588235 0.0588235 0.0588235 0.0588235 0.0588235 0.0588235 0.0588235 0.0588235 0.0588235 0.0588235 0.0588235 0.0588235 0.0588235 0.0588235 0.0588235 0.0588235;
   (orien_24, dist_0, inclin_1, left) 0.0588235 0.0588235 0.0588235 0.0588235 0.0588235 0.0588235 0.0588235 0.0588235 0.0588235 0.0588235 0.0588235 0.0588235 0.0588235 0.0588235 0.0588235 0.0588235 0.0588235;
   (orien_25, dist_0, inclin_1, left) 0.0588235 0.0588235 0.0588235 0.0588235 0.0588235 0.0588235 0.0588235 0.0588235 0.0588235 0.0588235 0.0588235 0.0588235 0.0588235 0.0588235 0.0588235 0.0588235 0.0588235;
   (orien_27, dist_0, inclin_1, left) 0.0588235 0.0588235 0.0588235 0.0588235 0.0588235 0.0588235 0.0588235 0.0588235 0.0588235 0.0588235 0.0588235 0.0588235 0.0588235 0.0588235 0.0588235 0.0588235 0.0588235;
   (orien_5, dist_0, inclin_1, left) 0.0588235 0.0588235 0.0588235 0.0588235 0.0588235 0.0588235 0.0588235 0.0588235 0.0588235 0.0588235 0.0588235 0.0588235 0.0588235 0.0588235 0.0588235 0.0588235 0.0588235;
   (orien_28, dist_0, inclin_1, left) 0.0588235 0.0588235 0.0588235 0.0588235 0.0588235 0.0588235 0.0588235 0.0588235 0.0588235 0.0588235 0.0588235 0.0588235 0.0588235 0.0588235 0.0588235 0.0588235 0.0588235;
   (orien_2, dist_0, inclin_1, left) 0.0588235 0.0588235 0.0588235 0.0588235 0.0588235 0.0588235 0.0588235 0.0588235 0.0588235 0.0588235 0.0588235 0.0588235 0.0588235 0.0588235 0.0588235 0.0588235 0.0588235;
   (orien_30, dist_0, inclin_1, left) 0.0588235 0.0588235 0.0588235 0.0588235 0.0588235 0.0588235 0.0588235 0.0588235 0.0588235 0.0588235 0.0588235 0.0588235 0.0588235 0.0588235 0.0588235 0.0588235 0.0588235;
   (orien_0, dist_0, inclin_1, left) 0.0588235 0.0588235 0.0588235 0.0588235 0.0588235 0.0588235 0.0588235 0.0588235 0.0588235 0.0588235 0.0588235 0.0588235 0.0588235 0.0588235 0.0588235 0.0588235 0.0588235;
   (orien_1, dist_0, inclin_1, left) 0.0588235 0.0588235 0.0588235 0.0588235 0.0588235 0.0588235 0.0588235 0.0588235 0.0588235 0.0588235 0.0588235 0.0588235 0.0588235 0.0588235 0.0588235 0.0588235 0.0588235;
   (orien_3, dist_0, inclin_1, left) 0.0588235 0.0588235 0.0588235 0.0588235 0.0588235 0.0588235 0.0588235 0.0588235 0.0588235 0.0588235 0.0588235 0.0588235 0.0588235 0.0588235 0.0588235 0.0588235 0.0588235;
   (orien_4, dist_0, inclin_1, left) 0.0588235 0.0588235 0.0588235 0.0588235 0.0588235 0.0588235 0.0588235 0.0588235 0.0588235 0.0588235 0.0588235 0.0588235 0.0588235 0.0588235 0.0588235 0.0588235 0.0588235;
   (orien_6, dist_0, inclin_1, left) 0.0588235 0.0588235 0.0588235 0.0588235 0.0588235 0.0588235 0.0588235 0.0588235 0.0588235 0.0588235 0.0588235 0.0588235 0.0588235 0.0588235 0.0588235 0.0588235 0.0588235;
   (orien_8, dist_0, inclin_1, left) 0.0588235 0.0588235 0.0588235 0.0588235 0.0588235 0.0588235 0.0588235 0.0588235 0.0588235 0.0588235 0.0588235 0.0588235 0.0588235 0.0588235 0.0588235 0.0588235 0.0588235;
   (orien_15, dist_2, inclin_2, left) 0.0588235 0.0588235 0.0588235 0.0588235 0.0588235 0.0588235 0.0588235 0.0588235 0.0588235 0.0588235 0.0588235 0.0588235 0.0588235 0.0588235 0.0588235 0.0588235 0.0588235;
   (orien_14, dist_2, inclin_2, left) 0.0588235 0.0588235 0.0588235 0.0588235 0.0588235 0.0588235 0.0588235 0.0588235 0.0588235 0.0588235 0.0588235 0.0588235 0.0588235 0.0588235 0.0588235 0.0588235 0.0588235;
   (orien_13, dist_2, inclin_2, left) 0.0588235 0.0588235 0.0588235 0.0588235 0.0588235 0.0588235 0.0588235 0.0588235 0.0588235 0.0588235 0.0588235 0.0588235 0.0588235 0.0588235 0.0588235 0.0588235 0.0588235;
   (orien_11, dist_2, inclin_2, left) 0.0588235 0.0588235 0.0588235 0.0588235 0.0588235 0.0588235 0.0588235 0.0588235 0.0588235 0.0588235 0.0588235 0.0588235 0.0588235 0.0588235 0.0588235 0.0588235 0.0588235;
   (orien_9, dist_2, inclin_2, left) 0.0588235 0.0588235 0.0588235 0.0588235 0.0588235 0.0588235 0.0588235 0.0588235 0.0588235 0.0588235 0.0588235 0.0588235 0.0588235 0.0588235 0.0588235 0.0588235 0.0588235;
   (orien_7, dist_2, inclin_2, left) 0.027027 0.027027 0.567568 0.027027 0.027027 0.027027 0.027027 0.027027 0.027027 0.027027 0.027027 0.027027 0.027027 0.027027 0.027027 0.027027 0.027027;
   (orien_16, dist_2, inclin_2, left) 0.0588235 0.0588235 0.0588235 0.0588235 0.0588235 0.0588235 0.0588235 0.0588235 0.0588235 0.0588235 0.0588235 0.0588235 0.0588235 0.0588235 0.0588235 0.0588235 0.0588235;
   (orien_17, dist_2, inclin_2, left) 0.0588235 0.0588235 0.0588235 0.0588235 0.0588235 0.0588235 0.0588235 0.0588235 0.0588235 0.0588235 0.0588235 0.0588235 0.0588235 0.0588235 0.0588235 0.0588235 0.0588235;
   (orien_19, dist_2, inclin_2, left) 0.0588235 0.0588235 0.0588235 0.0588235 0.0588235 0.0588235 0.0588235 0.0588235 0.0588235 0.0588235 0.0588235 0.0588235 0.0588235 0.0588235 0.0588235 0.0588235 0.0588235;
   (orien_21, dist_2, inclin_2, left) 0.0588235 0.0588235 0.0588235 0.0588235 0.0588235 0.0588235 0.0588235 0.0588235 0.0588235 0.0588235 0.0588235 0.0588235 0.0588235 0.0588235 0.0588235 0.0588235 0.0588235;
   (orien_23, dist_2, inclin_2, left) 0.0588235 0.0588235 0.0588235 0.0588235 0.0588235 0.0588235 0.0588235 0.0588235 0.0588235 0.0588235 0.0588235 0.0588235 0.0588235 0.0588235 0.0588235 0.0588235 0.0588235;
   (orien_31, dist_2, inclin_2, left) 0.0588235 0.0588235 0.0588235 0.0588235 0.0588235 0.0588235 0.0588235 0.0588235 0.0588235 0.0588235 0.0588235 0.0588235 0.0588235 0.0588235 0.0588235 0.0588235 0.0588235;
   (orien_12, dist_2, inclin_2, left) 0.0588235 0.0588235 0.0588235 0.0588235 0.0588235 0.0588235 0.0588235 0.0588235 0.0588235 0.0588235 0.0588235 0.0588235 0.0588235 0.0588235 0.0588235 0.0588235 0.0588235;
   (orien_18, dist_2, inclin_2, left) 0.0588235 0.0588235 0.0588235 0.0588235 0.0588235 0.0588235 0.0588235 0.0588235 0.0588235 0.0588235 0.0588235 0.0588235 0.0588235 0.0588235 0.0588235 0.0588235 0.0588235;
   (orien_20, dist_2, inclin_2, left) 0.0588235 0.0588235 0.0588235 0.0588235 0.0588235 0.0588235 0.0588235 0.0588235 0.0588235 0.0588235 0.0588235 0.0588235 0.0588235 0.0588235 0.0588235 0.0588235 0.0588235;
   (orien_22, dist_2, inclin_2, left) 0.0588235 0.0588235 0.0588235 0.0588235 0.0588235 0.0588235 0.0588235 0.0588235 0.0588235 0.0588235 0.0588235 0.0588235 0.0588235 0.0588235 0.0588235 0.0588235 0.0588235;
   (orien_29, dist_2, inclin_2, left) 0.0588235 0.0588235 0.0588235 0.0588235 0.0588235 0.0588235 0.0588235 0.0588235 0.0588235 0.0588235 0.0588235 0.0588235 0.0588235 0.0588235 0.0588235 0.0588235 0.0588235;
   (orien_10, dist_2, inclin_2, left) 0.0588235 0.0588235 0.0588235 0.0588235 0.0588235 0.0588235 0.0588235 0.0588235 0.0588235 0.0588235 0.0588235 0.0588235 0.0588235 0.0588235 0.0588235 0.0588235 0.0588235;
   (orien_26, dist_2, inclin_2, left) 0.0588235 0.0588235 0.0588235 0.0588235 0.0588235 0.0588235 0.0588235 0.0588235 0.0588235 0.0588235 0.0588235 0.0588235 0.0588235 0.0588235 0.0588235 0.0588235 0.0588235;
   (orien_24, dist_2, inclin_2, left) 0.0588235 0.0588235 0.0588235 0.0588235 0.0588235 0.0588235 0.0588235 0.0588235 0.0588235 0.0588235 0.0588235 0.0588235 0.0588235 0.0588235 0.0588235 0.0588235 0.0588235;
   (orien_25, dist_2, inclin_2, left) 0.0588235 0.0588235 0.0588235 0.0588235 0.0588235 0.0588235 0.0588235 0.0588235 0.0588235 0.0588235 0.0588235 0.0588235 0.0588235 0.0588235 0.0588235 0.0588235 0.0588235;
   (orien_27, dist_2, inclin_2, left) 0.0588235 0.0588235 0.0588235 0.0588235 0.0588235 0.0588235 0.0588235 0.0588235 0.0588235 0.0588235 0.0588235 0.0588235 0.0588235 0.0588235 0.0588235 0.0588235 0.0588235;
   (orien_5, dist_2, inclin_2, left) 0.0588235 0.0588235 0.0588235 0.0588235 0.0588235 0.0588235 0.0588235 0.0588235 0.0588235 0.0588235 0.0588235 0.0588235 0.0588235 0.0588235 0.0588235 0.0588235 0.0588235;
   (orien_28, dist_2, inclin_2, left) 0.0588235 0.0588235 0.0588235 0.0588235 0.0588235 0.0588235 0.0588235 0.0588235 0.0588235 0.0588235 0.0588235 0.0588235 0.0588235 0.0588235 0.0588235 0.0588235 0.0588235;
   (orien_2, dist_2, inclin_2, left) 0.0588235 0.0588235 0.0588235 0.0588235 0.0588235 0.0588235 0.0588235 0.0588235 0.0588235 0.0588235 0.0588235 0.0588235 0.0588235 0.0588235 0.0588235 0.0588235 0.0588235;
   (orien_30, dist_2, inclin_2, left) 0.0588235 0.0588235 0.0588235 0.0588235 0.0588235 0.0588235 0.0588235 0.0588235 0.0588235 0.0588235 0.0588235 0.0588235 0.0588235 0.0588235 0.0588235 0.0588235 0.0588235;
   (orien_0, dist_2, inclin_2, left) 0.0588235 0.0588235 0.0588235 0.0588235 0.0588235 0.0588235 0.0588235 0.0588235 0.0588235 0.0588235 0.0588235 0.0588235 0.0588235 0.0588235 0.0588235 0.0588235 0.0588235;
   (orien_1, dist_2, inclin_2, left) 0.0588235 0.0588235 0.0588235 0.0588235 0.0588235 0.0588235 0.0588235 0.0588235 0.0588235 0.0588235 0.0588235 0.0588235 0.0588235 0.0588235 0.0588235 0.0588235 0.0588235;
   (orien_3, dist_2, inclin_2, left) 0.0588235 0.0588235 0.0588235 0.0588235 0.0588235 0.0588235 0.0588235 0.0588235 0.0588235 0.0588235 0.0588235 0.0588235 0.0588235 0.0588235 0.0588235 0.0588235 0.0588235;
   (orien_4, dist_2, inclin_2, left) 0.0588235 0.0588235 0.0588235 0.0588235 0.0588235 0.0588235 0.0588235 0.0588235 0.0588235 0.0588235 0.0588235 0.0588235 0.0588235 0.0588235 0.0588235 0.0588235 0.0588235;
   (orien_6, dist_2, inclin_2, left) 0.0588235 0.0588235 0.0588235 0.0588235 0.0588235 0.0588235 0.0588235 0.0588235 0.0588235 0.0588235 0.0588235 0.0588235 0.0588235 0.0588235 0.0588235 0.0588235 0.0588235;
   (orien_8, dist_2, inclin_2, left) 0.0588235 0.0588235 0.0588235 0.0588235 0.0588235 0.0588235 0.0588235 0.0588235 0.0588235 0.0588235 0.0588235 0.0588235 0.0588235 0.0588235 0.0588235 0.0588235 0.0588235;
   (orien_15, dist_1, inclin_2, left) 0.0588235 0.0588235 0.0588235 0.0588235 0.0588235 0.0588235 0.0588235 0.0588235 0.0588235 0.0588235 0.0588235 0.0588235 0.0588235 0.0588235 0.0588235 0.0588235 0.0588235;
   (orien_14, dist_1, inclin_2, left) 0.0588235 0.0588235 0.0588235 0.0588235 0.0588235 0.0588235 0.0588235 0.0588235 0.0588235 0.0588235 0.0588235 0.0588235 0.0588235 0.0588235 0.0588235 0.0588235 0.0588235;
   (orien_13, dist_1, inclin_2, left) 0.0588235 0.0588235 0.0588235 0.0588235 0.0588235 0.0588235 0.0588235 0.0588235 0.0588235 0.0588235 0.0588235 0.0588235 0.0588235 0.0588235 0.0588235 0.0588235 0.0588235;
   (orien_11, dist_1, inclin_2, left) 0.0588235 0.0588235 0.0588235 0.0588235 0.0588235 0.0588235 0.0588235 0.0588235 0.0588235 0.0588235 0.0588235 0.0588235 0.0588235 0.0588235 0.0588235 0.0588235 0.0588235;
   (orien_9, dist_1, inclin_2, left) 0.0588235 0.0588235 0.0588235 0.0588235 0.0588235 0.0588235 0.0588235 0.0588235 0.0588235 0.0588235 0.0588235 0.0588235 0.0588235 0.0588235 0.0588235 0.0588235 0.0588235;
   (orien_7, dist_1, inclin_2, left) 0.0204082 0.0204082 0.673469 0.0204082 0.0204082 0.0204082 0.0204082 0.0204082 0.0204082 0.0204082 0.0204082 0.0204082 0.0204082 0.0204082 0.0204082 0.0204082 0.0204082;
   (orien_16, dist_1, inclin_2, left) 0.0588235 0.0588235 0.0588235 0.0588235 0.0588235 0.0588235 0.0588235 0.0588235 0.0588235 0.0588235 0.0588235 0.0588235 0.0588235 0.0588235 0.0588235 0.0588235 0.0588235;
   (orien_17, dist_1, inclin_2, left) 0.0588235 0.0588235 0.0588235 0.0588235 0.0588235 0.0588235 0.0588235 0.0588235 0.0588235 0.0588235 0.0588235 0.0588235 0.0588235 0.0588235 0.0588235 0.0588235 0.0588235;
   (orien_19, dist_1, inclin_2, left) 0.0588235 0.0588235 0.0588235 0.0588235 0.0588235 0.0588235 0.0588235 0.0588235 0.0588235 0.0588235 0.0588235 0.0588235 0.0588235 0.0588235 0.0588235 0.0588235 0.0588235;
   (orien_21, dist_1, inclin_2, left) 0.0588235 0.0588235 0.0588235 0.0588235 0.0588235 0.0588235 0.0588235 0.0588235 0.0588235 0.0588235 0.0588235 0.0588235 0.0588235 0.0588235 0.0588235 0.0588235 0.0588235;
   (orien_23, dist_1, inclin_2, left) 0.0588235 0.0588235 0.0588235 0.0588235 0.0588235 0.0588235 0.0588235 0.0588235 0.0588235 0.0588235 0.0588235 0.0588235 0.0588235 0.0588235 0.0588235 0.0588235 0.0588235;
   (orien_31, dist_1, inclin_2, left) 0.0588235 0.0588235 0.0588235 0.0588235 0.0588235 0.0588235 0.0588235 0.0588235 0.0588235 0.0588235 0.0588235 0.0588235 0.0588235 0.0588235 0.0588235 0.0588235 0.0588235;
   (orien_12, dist_1, inclin_2, left) 0.0588235 0.0588235 0.0588235 0.0588235 0.0588235 0.0588235 0.0588235 0.0588235 0.0588235 0.0588235 0.0588235 0.0588235 0.0588235 0.0588235 0.0588235 0.0588235 0.0588235;
   (orien_18, dist_1, inclin_2, left) 0.0588235 0.0588235 0.0588235 0.0588235 0.0588235 0.0588235 0.0588235 0.0588235 0.0588235 0.0588235 0.0588235 0.0588235 0.0588235 0.0588235 0.0588235 0.0588235 0.0588235;
   (orien_20, dist_1, inclin_2, left) 0.0588235 0.0588235 0.0588235 0.0588235 0.0588235 0.0588235 0.0588235 0.0588235 0.0588235 0.0588235 0.0588235 0.0588235 0.0588235 0.0588235 0.0588235 0.0588235 0.0588235;
   (orien_22, dist_1, inclin_2, left) 0.0588235 0.0588235 0.0588235 0.0588235 0.0588235 0.0588235 0.0588235 0.0588235 0.0588235 0.0588235 0.0588235 0.0588235 0.0588235 0.0588235 0.0588235 0.0588235 0.0588235;
   (orien_29, dist_1, inclin_2, left) 0.0588235 0.0588235 0.0588235 0.0588235 0.0588235 0.0588235 0.0588235 0.0588235 0.0588235 0.0588235 0.0588235 0.0588235 0.0588235 0.0588235 0.0588235 0.0588235 0.0588235;
   (orien_10, dist_1, inclin_2, left) 0.0588235 0.0588235 0.0588235 0.0588235 0.0588235 0.0588235 0.0588235 0.0588235 0.0588235 0.0588235 0.0588235 0.0588235 0.0588235 0.0588235 0.0588235 0.0588235 0.0588235;
   (orien_26, dist_1, inclin_2, left) 0.0588235 0.0588235 0.0588235 0.0588235 0.0588235 0.0588235 0.0588235 0.0588235 0.0588235 0.0588235 0.0588235 0.0588235 0.0588235 0.0588235 0.0588235 0.0588235 0.0588235;
   (orien_24, dist_1, inclin_2, left) 0.0588235 0.0588235 0.0588235 0.0588235 0.0588235 0.0588235 0.0588235 0.0588235 0.0588235 0.0588235 0.0588235 0.0588235 0.0588235 0.0588235 0.0588235 0.0588235 0.0588235;
   (orien_25, dist_1, inclin_2, left) 0.0588235 0.0588235 0.0588235 0.0588235 0.0588235 0.0588235 0.0588235 0.0588235 0.0588235 0.0588235 0.0588235 0.0588235 0.0588235 0.0588235 0.0588235 0.0588235 0.0588235;
   (orien_27, dist_1, inclin_2, left) 0.0588235 0.0588235 0.0588235 0.0588235 0.0588235 0.0588235 0.0588235 0.0588235 0.0588235 0.0588235 0.0588235 0.0588235 0.0588235 0.0588235 0.0588235 0.0588235 0.0588235;
   (orien_5, dist_1, inclin_2, left) 0.0588235 0.0588235 0.0588235 0.0588235 0.0588235 0.0588235 0.0588235 0.0588235 0.0588235 0.0588235 0.0588235 0.0588235 0.0588235 0.0588235 0.0588235 0.0588235 0.0588235;
   (orien_28, dist_1, inclin_2, left) 0.0588235 0.0588235 0.0588235 0.0588235 0.0588235 0.0588235 0.0588235 0.0588235 0.0588235 0.0588235 0.0588235 0.0588235 0.0588235 0.0588235 0.0588235 0.0588235 0.0588235;
   (orien_2, dist_1, inclin_2, left) 0.0588235 0.0588235 0.0588235 0.0588235 0.0588235 0.0588235 0.0588235 0.0588235 0.0588235 0.0588235 0.0588235 0.0588235 0.0588235 0.0588235 0.0588235 0.0588235 0.0588235;
   (orien_30, dist_1, inclin_2, left) 0.0588235 0.0588235 0.0588235 0.0588235 0.0588235 0.0588235 0.0588235 0.0588235 0.0588235 0.0588235 0.0588235 0.0588235 0.0588235 0.0588235 0.0588235 0.0588235 0.0588235;
   (orien_0, dist_1, inclin_2, left) 0.0588235 0.0588235 0.0588235 0.0588235 0.0588235 0.0588235 0.0588235 0.0588235 0.0588235 0.0588235 0.0588235 0.0588235 0.0588235 0.0588235 0.0588235 0.0588235 0.0588235;
   (orien_1, dist_1, inclin_2, left) 0.0588235 0.0588235 0.0588235 0.0588235 0.0588235 0.0588235 0.0588235 0.0588235 0.0588235 0.0588235 0.0588235 0.0588235 0.0588235 0.0588235 0.0588235 0.0588235 0.0588235;
   (orien_3, dist_1, inclin_2, left) 0.0588235 0.0588235 0.0588235 0.0588235 0.0588235 0.0588235 0.0588235 0.0588235 0.0588235 0.0588235 0.0588235 0.0588235 0.0588235 0.0588235 0.0588235 0.0588235 0.0588235;
   (orien_4, dist_1, inclin_2, left) 0.0588235 0.0588235 0.0588235 0.0588235 0.0588235 0.0588235 0.0588235 0.0588235 0.0588235 0.0588235 0.0588235 0.0588235 0.0588235 0.0588235 0.0588235 0.0588235 0.0588235;
   (orien_6, dist_1, inclin_2, left) 0.0588235 0.0588235 0.0588235 0.0588235 0.0588235 0.0588235 0.0588235 0.0588235 0.0588235 0.0588235 0.0588235 0.0588235 0.0588235 0.0588235 0.0588235 0.0588235 0.0588235;
   (orien_8, dist_1, inclin_2, left) 0.0588235 0.0588235 0.0588235 0.0588235 0.0588235 0.0588235 0.0588235 0.0588235 0.0588235 0.0588235 0.0588235 0.0588235 0.0588235 0.0588235 0.0588235 0.0588235 0.0588235;
   (orien_15, dist_0, inclin_2, left) 0.0588235 0.0588235 0.0588235 0.0588235 0.0588235 0.0588235 0.0588235 0.0588235 0.0588235 0.0588235 0.0588235 0.0588235 0.0588235 0.0588235 0.0588235 0.0588235 0.0588235;
   (orien_14, dist_0, inclin_2, left) 0.0588235 0.0588235 0.0588235 0.0588235 0.0588235 0.0588235 0.0588235 0.0588235 0.0588235 0.0588235 0.0588235 0.0588235 0.0588235 0.0588235 0.0588235 0.0588235 0.0588235;
   (orien_13, dist_0, inclin_2, left) 0.0588235 0.0588235 0.0588235 0.0588235 0.0588235 0.0588235 0.0588235 0.0588235 0.0588235 0.0588235 0.0588235 0.0588235 0.0588235 0.0588235 0.0588235 0.0588235 0.0588235;
   (orien_11, dist_0, inclin_2, left) 0.0588235 0.0588235 0.0588235 0.0588235 0.0588235 0.0588235 0.0588235 0.0588235 0.0588235 0.0588235 0.0588235 0.0588235 0.0588235 0.0588235 0.0588235 0.0588235 0.0588235;
   (orien_9, dist_0, inclin_2, left) 0.0588235 0.0588235 0.0588235 0.0588235 0.0588235 0.0588235 0.0588235 0.0588235 0.0588235 0.0588235 0.0588235 0.0588235 0.0588235 0.0588235 0.0588235 0.0588235 0.0588235;
   (orien_7, dist_0, inclin_2, left) 0.030303 0.030303 0.515152 0.030303 0.030303 0.030303 0.030303 0.030303 0.030303 0.030303 0.030303 0.030303 0.030303 0.030303 0.030303 0.030303 0.030303;
   (orien_16, dist_0, inclin_2, left) 0.0588235 0.0588235 0.0588235 0.0588235 0.0588235 0.0588235 0.0588235 0.0588235 0.0588235 0.0588235 0.0588235 0.0588235 0.0588235 0.0588235 0.0588235 0.0588235 0.0588235;
   (orien_17, dist_0, inclin_2, left) 0.0588235 0.0588235 0.0588235 0.0588235 0.0588235 0.0588235 0.0588235 0.0588235 0.0588235 0.0588235 0.0588235 0.0588235 0.0588235 0.0588235 0.0588235 0.0588235 0.0588235;
   (orien_19, dist_0, inclin_2, left) 0.0588235 0.0588235 0.0588235 0.0588235 0.0588235 0.0588235 0.0588235 0.0588235 0.0588235 0.0588235 0.0588235 0.0588235 0.0588235 0.0588235 0.0588235 0.0588235 0.0588235;
   (orien_21, dist_0, inclin_2, left) 0.0588235 0.0588235 0.0588235 0.0588235 0.0588235 0.0588235 0.0588235 0.0588235 0.0588235 0.0588235 0.0588235 0.0588235 0.0588235 0.0588235 0.0588235 0.0588235 0.0588235;
   (orien_23, dist_0, inclin_2, left) 0.0588235 0.0588235 0.0588235 0.0588235 0.0588235 0.0588235 0.0588235 0.0588235 0.0588235 0.0588235 0.0588235 0.0588235 0.0588235 0.0588235 0.0588235 0.0588235 0.0588235;
   (orien_31, dist_0, inclin_2, left) 0.0588235 0.0588235 0.0588235 0.0588235 0.0588235 0.0588235 0.0588235 0.0588235 0.0588235 0.0588235 0.0588235 0.0588235 0.0588235 0.0588235 0.0588235 0.0588235 0.0588235;
   (orien_12, dist_0, inclin_2, left) 0.0588235 0.0588235 0.0588235 0.0588235 0.0588235 0.0588235 0.0588235 0.0588235 0.0588235 0.0588235 0.0588235 0.0588235 0.0588235 0.0588235 0.0588235 0.0588235 0.0588235;
   (orien_18, dist_0, inclin_2, left) 0.0588235 0.0588235 0.0588235 0.0588235 0.0588235 0.0588235 0.0588235 0.0588235 0.0588235 0.0588235 0.0588235 0.0588235 0.0588235 0.0588235 0.0588235 0.0588235 0.0588235;
   (orien_20, dist_0, inclin_2, left) 0.0588235 0.0588235 0.0588235 0.0588235 0.0588235 0.0588235 0.0588235 0.0588235 0.0588235 0.0588235 0.0588235 0.0588235 0.0588235 0.0588235 0.0588235 0.0588235 0.0588235;
   (orien_22, dist_0, inclin_2, left) 0.0588235 0.0588235 0.0588235 0.0588235 0.0588235 0.0588235 0.0588235 0.0588235 0.0588235 0.0588235 0.0588235 0.0588235 0.0588235 0.0588235 0.0588235 0.0588235 0.0588235;
   (orien_29, dist_0, inclin_2, left) 0.0588235 0.0588235 0.0588235 0.0588235 0.0588235 0.0588235 0.0588235 0.0588235 0.0588235 0.0588235 0.0588235 0.0588235 0.0588235 0.0588235 0.0588235 0.0588235 0.0588235;
   (orien_10, dist_0, inclin_2, left) 0.0588235 0.0588235 0.0588235 0.0588235 0.0588235 0.0588235 0.0588235 0.0588235 0.0588235 0.0588235 0.0588235 0.0588235 0.0588235 0.0588235 0.0588235 0.0588235 0.0588235;
   (orien_26, dist_0, inclin_2, left) 0.0588235 0.0588235 0.0588235 0.0588235 0.0588235 0.0588235 0.0588235 0.0588235 0.0588235 0.0588235 0.0588235 0.0588235 0.0588235 0.0588235 0.0588235 0.0588235 0.0588235;
   (orien_24, dist_0, inclin_2, left) 0.0588235 0.0588235 0.0588235 0.0588235 0.0588235 0.0588235 0.0588235 0.0588235 0.0588235 0.0588235 0.0588235 0.0588235 0.0588235 0.0588235 0.0588235 0.0588235 0.0588235;
   (orien_25, dist_0, inclin_2, left) 0.0588235 0.0588235 0.0588235 0.0588235 0.0588235 0.0588235 0.0588235 0.0588235 0.0588235 0.0588235 0.0588235 0.0588235 0.0588235 0.0588235 0.0588235 0.0588235 0.0588235;
   (orien_27, dist_0, inclin_2, left) 0.0588235 0.0588235 0.0588235 0.0588235 0.0588235 0.0588235 0.0588235 0.0588235 0.0588235 0.0588235 0.0588235 0.0588235 0.0588235 0.0588235 0.0588235 0.0588235 0.0588235;
   (orien_5, dist_0, inclin_2, left) 0.0588235 0.0588235 0.0588235 0.0588235 0.0588235 0.0588235 0.0588235 0.0588235 0.0588235 0.0588235 0.0588235 0.0588235 0.0588235 0.0588235 0.0588235 0.0588235 0.0588235;
   (orien_28, dist_0, inclin_2, left) 0.0588235 0.0588235 0.0588235 0.0588235 0.0588235 0.0588235 0.0588235 0.0588235 0.0588235 0.0588235 0.0588235 0.0588235 0.0588235 0.0588235 0.0588235 0.0588235 0.0588235;
   (orien_2, dist_0, inclin_2, left) 0.0588235 0.0588235 0.0588235 0.0588235 0.0588235 0.0588235 0.0588235 0.0588235 0.0588235 0.0588235 0.0588235 0.0588235 0.0588235 0.0588235 0.0588235 0.0588235 0.0588235;
   (orien_30, dist_0, inclin_2, left) 0.0588235 0.0588235 0.0588235 0.0588235 0.0588235 0.0588235 0.0588235 0.0588235 0.0588235 0.0588235 0.0588235 0.0588235 0.0588235 0.0588235 0.0588235 0.0588235 0.0588235;
   (orien_0, dist_0, inclin_2, left) 0.0588235 0.0588235 0.0588235 0.0588235 0.0588235 0.0588235 0.0588235 0.0588235 0.0588235 0.0588235 0.0588235 0.0588235 0.0588235 0.0588235 0.0588235 0.0588235 0.0588235;
   (orien_1, dist_0, inclin_2, left) 0.0588235 0.0588235 0.0588235 0.0588235 0.0588235 0.0588235 0.0588235 0.0588235 0.0588235 0.0588235 0.0588235 0.0588235 0.0588235 0.0588235 0.0588235 0.0588235 0.0588235;
   (orien_3, dist_0, inclin_2, left) 0.0588235 0.0588235 0.0588235 0.0588235 0.0588235 0.0588235 0.0588235 0.0588235 0.0588235 0.0588235 0.0588235 0.0588235 0.0588235 0.0588235 0.0588235 0.0588235 0.0588235;
   (orien_4, dist_0, inclin_2, left) 0.0588235 0.0588235 0.0588235 0.0588235 0.0588235 0.0588235 0.0588235 0.0588235 0.0588235 0.0588235 0.0588235 0.0588235 0.0588235 0.0588235 0.0588235 0.0588235 0.0588235;
   (orien_6, dist_0, inclin_2, left) 0.0588235 0.0588235 0.0588235 0.0588235 0.0588235 0.0588235 0.0588235 0.0588235 0.0588235 0.0588235 0.0588235 0.0588235 0.0588235 0.0588235 0.0588235 0.0588235 0.0588235;
   (orien_8, dist_0, inclin_2, left) 0.0588235 0.0588235 0.0588235 0.0588235 0.0588235 0.0588235 0.0588235 0.0588235 0.0588235 0.0588235 0.0588235 0.0588235 0.0588235 0.0588235 0.0588235 0.0588235 0.0588235;
   (orien_15, dist_2, inclin_0, right) 0.105263 0.0526316 0.0526316 0.105263 0.0526316 0.0526316 0.0526316 0.0526316 0.0526316 0.0526316 0.0526316 0.0526316 0.0526316 0.0526316 0.0526316 0.0526316 0.0526316;
   (orien_14, dist_2, inclin_0, right) 0.0555556 0.0555556 0.0555556 0.111111 0.0555556 0.0555556 0.0555556 0.0555556 0.0555556 0.0555556 0.0555556 0.0555556 0.0555556 0.0555556 0.0555556 0.0555556 0.0555556;
   (orien_13, dist_2, inclin_0, right) 0.0526316 0.0526316 0.0526316 0.105263 0.0526316 0.0526316 0.0526316 0.0526316 0.0526316 0.0526316 0.0526316 0.0526316 0.0526316 0.0526316 0.105263 0.0526316 0.0526316;
   (orien_11, dist_2, inclin_0, right) 0.0526316 0.0526316 0.105263 0.0526316 0.0526316 0.0526316 0.0526316 0.0526316 0.0526316 0.0526316 0.0526316 0.0526316 0.0526316 0.0526316 0.105263 0.0526316 0.0526316;
   (orien_9, dist_2, inclin_0, right) 0.05 0.05 0.2 0.05 0.05 0.05 0.05 0.05 0.05 0.05 0.05 0.05 0.05 0.05 0.05 0.05 0.05;
   (orien_7, dist_2, inclin_0, right) 0.0454545 0.0454545 0.272727 0.0454545 0.0454545 0.0454545 0.0454545 0.0454545 0.0454545 0.0454545 0.0454545 0.0454545 0.0454545 0.0454545 0.0454545 0.0454545 0.0454545;
   (orien_16, dist_2, inclin_0, right) 0.0555556 0.0555556 0.0555556 0.111111 0.0555556 0.0555556 0.0555556 0.0555556 0.0555556 0.0555556 0.0555556 0.0555556 0.0555556 0.0555556 0.0555556 0.0555556 0.0555556;
   (orien_17, dist_2, inclin_0, right) 0.105263 0.0526316 0.0526316 0.105263 0.0526316 0.0526316 0.0526316 0.0526316 0.0526316 0.0526316 0.0526316 0.0526316 0.0526316 0.0526316 0.0526316 0.0526316 0.0526316;
   (orien_19, dist_2, inclin_0, right) 0.105263 0.0526316 0.0526316 0.0526316 0.0526316 0.0526316 0.105263 0.0526316 0.0526316 0.0526316 0.0526316 0.0526316 0.0526316 0.0526316 0.0526316 0.0526316 0.0526316;
   (orien_21, dist_2, inclin_0, right) 0.15 0.05 0.05 0.05 0.05 0.05 0.05 0.05 0.05 0.05 0.05 0.05 0.05 0.05 0.1 0.05 0.05;
   (orien_23, dist_2, inclin_0, right) 0.103448 0.0344828 0.0344828 0.0344828 0.0344828 0.0344828 0.0344828 0.0344828 0.0344828 0.0344828 0.0344828 0.0344828 0.0344828 0.0344828 0.37931 0.0344828 0.0344828;
   (orien_31, dist_2, inclin_0, right) 0.105263 0.0526316 0.0526316 0.0526316 0.0526316 0.0526316 0.0526316 0.0526316 0.0526316 0.0526316 0.0526316 0.0526316 0.0526316 0.105263 0.0526316 0.0526316 0.0526316;
   (orien_12, dist_2, inclin_0, right) 0.0555556 0.0555556 0.0555556 0.111111 0.0555556 0.0555556 0.0555556 0.0555556 0.0555556 0.0555556 0.0555556 0.0555556 0.0555556 0.0555556 0.0555556 0.0555556 0.0555556;
   (orien_18, dist_2, inclin_0, right) 0.05 0.05 0.05 0.15 0.05 0.05 0.1 0.05 0.05 0.05 0.05 0.05 0.05 0.05 0.05 0.05 0.05;
   (orien_20, dist_2, inclin_0, right) 0.0526316 0.0526316 0.0526316 0.0526316 0.0526316 0.0526316 0.157895 0.0526316 0.0526316 0.0526316 0.0526316 0.0526316 0.0526316 0.0526316 0.0526316 0.0526316 0.0526316;
   (orien_22, dist_2, inclin_0, right) 0.0588235 0.0588235 0.0588235 0.0588235 0.0588235 0.0588235 0.0588235 0.0588235 0.0588235 0.0588235 0.0588235 0.0588235 0.0588235 0.0588235 0.0588235 0.0588235 0.0588235;
   (orien_29, dist_2, inclin_0, right) 0.105263 0.0526316 0.0526316 0.0526316 0.0526316 0.0526316 0.0526316 0.0526316 0.0526316 0.0526316 0.0526316 0.0526316 0.0526316 0.105263 0.0526316 0.0526316 0.0526316;
   (orien_10, dist_2, inclin_0, right) 0.0555556 0.0555556 0.111111 0.0555556 0.0555556 0.0555556 0.0555556 0.0555556 0.0555556 0.0555556 0.0555556 0.0555556 0.0555556 0.0555556 0.0555556 0.0555556 0.0555556;
   (orien_26, dist_2, inclin_0, right) 0.0555556 0.0555556 0.0555556 0.0555556 0.0555556 0.0555556 0.0555556 0.0555556 0.0555556 0.0555556 0.0555556 0.111111 0.0555556 0.0555556 0.0555556 0.0555556 0.0555556;
   (orien_24, dist_2, inclin_0, right) 0.0588235 0.0588235 0.0588235 0.0588235 0.0588235 0.0588235 0.0588235 0.0588235 0.0588235 0.0588235 0.0588235 0.0588235 0.0588235 0.0588235 0.0588235 0.0588235 0.0588235;
   (orien_25, dist_2, inclin_0, right) 0.15 0.05 0.05 0.05 0.05 0.05 0.05 0.05 0.05 0.05 0.05 0.05 0.05 0.05 0.1 0.05 0.05;
   (orien_27, dist_2, inclin_0, right) 0.1 0.05 0.05 0.05 0.05 0.05 0.05 0.05 0.05 0.05 0.05 0.15 0.05 0.05 0.05 0.05 0.05;
   (orien_5, dist_2, inclin_0, right) 0.05 0.05 0.2 0.05 0.05 0.05 0.05 0.05 0.05 0.05 0.05 0.05 0.05 0.05 0.05 0.05 0.05;
   (orien_28, dist_2, inclin_0, right) 0.05 0.05 0.05 0.05 0.05 0.05 0.05 0.05 0.05 0.05 0.05 0.1 0.05 0.15 0.05 0.05 0.05;
   (orien_2, dist_2, inclin_0, right) 0.0588235 0.0588235 0.0588235 0.0588235 0.0588235 0.0588235 0.0588235 0.0588235 0.0588235 0.0588235 0.0588235 0.0588235 0.0588235 0.0588235 0.0588235 0.0588235 0.0588235;
   (orien_30, dist_2, inclin_0, right) 0.0555556 0.0555556 0.0555556 0.0555556 0.0555556 0.0555556 0.0555556 0.0555556 0.0555556 0.0555556 0.0555556 0.0555556 0.0555556 0.111111 0.0555556 0.0555556 0.0555556;
   (orien_0, dist_2, inclin_0, right) 0.0555556 0.0555556 0.0555556 0.0555556 0.0555556 0.0555556 0.0555556 0.0555556 0.0555556 0.0555556 0.0555556 0.0555556 0.0555556 0.111111 0.0555556 0.0555556 0.0555556;
   (orien_1, dist_2, inclin_0, right) 0.0526316 0.0526316 0.0526316 0.0526316 0.0526316 0.0526316 0.0526316 0.0526316 0.0526316 0.0526316 0.0526316 0.0526316 0.0526316 0.105263 0.105263 0.0526316 0.0526316;
   (orien_3, dist_2, inclin_0, right) 0.05 0.05 0.1 0.05 0.05 0.05 0.05 0.05 0.05 0.05 0.05 0.05 0.05 0.1 0.1 0.05 0.05;
   (orien_4, dist_2, inclin_0, right) 0.0555556 0.0555556 0.111111 0.0555556 0.0555556 0.0555556 0.0555556 0.0555556 0.0555556 0.0555556 0.0555556 0.0555556 0.0555556 0.0555556 0.0555556 0.0555556 0.0555556;
   (orien_6, dist_2, inclin_0, right) 0.0588235 0.0588235 0.0588235 0.0588235 0.0588235 0.0588235 0.0588235 0.0588235 0.0588235 0.0588235 0.0588235 0.0588235 0.0588235 0.0588235 0.0588235 0.0588235 0.0588235;
   (orien_8, dist_2, inclin_0, right) 0.0588235 0.0588235 0.0588235 0.0588235 0.0588235 0.0588235 0.0588235 0.0588235 0.0588235 0.0588235 0.0588235 0.0588235 0.0588235 0.0588235 0.0588235 0.0588235 0.0588235;
   (orien_15, dist_1, inclin_0, right) 0.0588235 0.0588235 0.0588235 0.0588235 0.0588235 0.0588235 0.0588235 0.0588235 0.0588235 0.0588235 0.0588235 0.0588235 0.0588235 0.0588235 0.0588235 0.0588235 0.0588235;
   (orien_14, dist_1, inclin_0, right) 0.0588235 0.0588235 0.0588235 0.0588235 0.0588235 0.0588235 0.0588235 0.0588235 0.0588235 0.0588235 0.0588235 0.0588235 0.0588235 0.0588235 0.0588235 0.0588235 0.0588235;
   (orien_13, dist_1, inclin_0, right) 0.0588235 0.0588235 0.0588235 0.0588235 0.0588235 0.0588235 0.0588235 0.0588235 0.0588235 0.0588235 0.0588235 0.0588235 0.0588235 0.0588235 0.0588235 0.0588235 0.0588235;
   (orien_11, dist_1, inclin_0, right) 0.0588235 0.0588235 0.0588235 0.0588235 0.0588235 0.0588235 0.0588235 0.0588235 0.0588235 0.0588235 0.0588235 0.0588235 0.0588235 0.0588235 0.0588235 0.0588235 0.0588235;
   (orien_9, dist_1, inclin_0, right) 0.0588235 0.0588235 0.0588235 0.0588235 0.0588235 0.0588235 0.0588235 0.0588235 0.0588235 0.0588235 0.0588235 0.0588235 0.0588235 0.0588235 0.0588235 0.0588235 0.0588235;
   (orien_7, dist_1, inclin_0, right) 0.0588235 0.0588235 0.0588235 0.0588235 0.0588235 0.0588235 0.0588235 0.0588235 0.0588235 0.0588235 0.0588235 0.0588235 0.0588235 0.0588235 0.0588235 0.0588235 0.0588235;
   (orien_16, dist_1, inclin_0, right) 0.0588235 0.0588235 0.0588235 0.0588235 0.0588235 0.0588235 0.0588235 0.0588235 0.0588235 0.0588235 0.0588235 0.0588235 0.0588235 0.0588235 0.0588235 0.0588235 0.0588235;
   (orien_17, dist_1, inclin_0, right) 0.0588235 0.0588235 0.0588235 0.0588235 0.0588235 0.0588235 0.0588235 0.0588235 0.0588235 0.0588235 0.0588235 0.0588235 0.0588235 0.0588235 0.0588235 0.0588235 0.0588235;
   (orien_19, dist_1, inclin_0, right) 0.0588235 0.0588235 0.0588235 0.0588235 0.0588235 0.0588235 0.0588235 0.0588235 0.0588235 0.0588235 0.0588235 0.0588235 0.0588235 0.0588235 0.0588235 0.0588235 0.0588235;
   (orien_21, dist_1, inclin_0, right) 0.0588235 0.0588235 0.0588235 0.0588235 0.0588235 0.0588235 0.0588235 0.0588235 0.0588235 0.0588235 0.0588235 0.0588235 0.0588235 0.0588235 0.0588235 0.0588235 0.0588235;
   (orien_23, dist_1, inclin_0, right) 0.0588235 0.0588235 0.0588235 0.0588235 0.0588235 0.0588235 0.0588235 0.0588235 0.0588235 0.0588235 0.0588235 0.0588235 0.0588235 0.0588235 0.0588235 0.0588235 0.0588235;
   (orien_31, dist_1, inclin_0, right) 0.0588235 0.0588235 0.0588235 0.0588235 0.0588235 0.0588235 0.0588235 0.0588235 0.0588235 0.0588235 0.0588235 0.0588235 0.0588235 0.0588235 0.0588235 0.0588235 0.0588235;
   (orien_12, dist_1, inclin_0, right) 0.0588235 0.0588235 0.0588235 0.0588235 0.0588235 0.0588235 0.0588235 0.0588235 0.0588235 0.0588235 0.0588235 0.0588235 0.0588235 0.0588235 0.0588235 0.0588235 0.0588235;
   (orien_18, dist_1, inclin_0, right) 0.0588235 0.0588235 0.0588235 0.0588235 0.0588235 0.0588235 0.0588235 0.0588235 0.0588235 0.0588235 0.0588235 0.0588235 0.0588235 0.0588235 0.0588235 0.0588235 0.0588235;
   (orien_20, dist_1, inclin_0, right) 0.0588235 0.0588235 0.0588235 0.0588235 0.0588235 0.0588235 0.0588235 0.0588235 0.0588235 0.0588235 0.0588235 0.0588235 0.0588235 0.0588235 0.0588235 0.0588235 0.0588235;
   (orien_22, dist_1, inclin_0, right) 0.0588235 0.0588235 0.0588235 0.0588235 0.0588235 0.0588235 0.0588235 0.0588235 0.0588235 0.0588235 0.0588235 0.0588235 0.0588235 0.0588235 0.0588235 0.0588235 0.0588235;
   (orien_29, dist_1, inclin_0, right) 0.0588235 0.0588235 0.0588235 0.0588235 0.0588235 0.0588235 0.0588235 0.0588235 0.0588235 0.0588235 0.0588235 0.0588235 0.0588235 0.0588235 0.0588235 0.0588235 0.0588235;
   (orien_10, dist_1, inclin_0, right) 0.0588235 0.0588235 0.0588235 0.0588235 0.0588235 0.0588235 0.0588235 0.0588235 0.0588235 0.0588235 0.0588235 0.0588235 0.0588235 0.0588235 0.0588235 0.0588235 0.0588235;
   (orien_26, dist_1, inclin_0, right) 0.0588235 0.0588235 0.0588235 0.0588235 0.0588235 0.0588235 0.0588235 0.0588235 0.0588235 0.0588235 0.0588235 0.0588235 0.0588235 0.0588235 0.0588235 0.0588235 0.0588235;
   (orien_24, dist_1, inclin_0, right) 0.0588235 0.0588235 0.0588235 0.0588235 0.0588235 0.0588235 0.0588235 0.0588235 0.0588235 0.0588235 0.0588235 0.0588235 0.0588235 0.0588235 0.0588235 0.0588235 0.0588235;
   (orien_25, dist_1, inclin_0, right) 0.0588235 0.0588235 0.0588235 0.0588235 0.0588235 0.0588235 0.0588235 0.0588235 0.0588235 0.0588235 0.0588235 0.0588235 0.0588235 0.0588235 0.0588235 0.0588235 0.0588235;
   (orien_27, dist_1, inclin_0, right) 0.0588235 0.0588235 0.0588235 0.0588235 0.0588235 0.0588235 0.0588235 0.0588235 0.0588235 0.0588235 0.0588235 0.0588235 0.0588235 0.0588235 0.0588235 0.0588235 0.0588235;
   (orien_5, dist_1, inclin_0, right) 0.0588235 0.0588235 0.0588235 0.0588235 0.0588235 0.0588235 0.0588235 0.0588235 0.0588235 0.0588235 0.0588235 0.0588235 0.0588235 0.0588235 0.0588235 0.0588235 0.0588235;
   (orien_28, dist_1, inclin_0, right) 0.0588235 0.0588235 0.0588235 0.0588235 0.0588235 0.0588235 0.0588235 0.0588235 0.0588235 0.0588235 0.0588235 0.0588235 0.0588235 0.0588235 0.0588235 0.0588235 0.0588235;
   (orien_2, dist_1, inclin_0, right) 0.0588235 0.0588235 0.0588235 0.0588235 0.0588235 0.0588235 0.0588235 0.0588235 0.0588235 0.0588235 0.0588235 0.0588235 0.0588235 0.0588235 0.0588235 0.0588235 0.0588235;
   (orien_30, dist_1, inclin_0, right) 0.0588235 0.0588235 0.0588235 0.0588235 0.0588235 0.0588235 0.0588235 0.0588235 0.0588235 0.0588235 0.0588235 0.0588235 0.0588235 0.0588235 0.0588235 0.0588235 0.0588235;
   (orien_0, dist_1, inclin_0, right) 0.0588235 0.0588235 0.0588235 0.0588235 0.0588235 0.0588235 0.0588235 0.0588235 0.0588235 0.0588235 0.0588235 0.0588235 0.0588235 0.0588235 0.0588235 0.0588235 0.0588235;
   (orien_1, dist_1, inclin_0, right) 0.0588235 0.0588235 0.0588235 0.0588235 0.0588235 0.0588235 0.0588235 0.0588235 0.0588235 0.0588235 0.0588235 0.0588235 0.0588235 0.0588235 0.0588235 0.0588235 0.0588235;
   (orien_3, dist_1, inclin_0, right) 0.0588235 0.0588235 0.0588235 0.0588235 0.0588235 0.0588235 0.0588235 0.0588235 0.0588235 0.0588235 0.0588235 0.0588235 0.0588235 0.0588235 0.0588235 0.0588235 0.0588235;
   (orien_4, dist_1, inclin_0, right) 0.0588235 0.0588235 0.0588235 0.0588235 0.0588235 0.0588235 0.0588235 0.0588235 0.0588235 0.0588235 0.0588235 0.0588235 0.0588235 0.0588235 0.0588235 0.0588235 0.0588235;
   (orien_6, dist_1, inclin_0, right) 0.0588235 0.0588235 0.0588235 0.0588235 0.0588235 0.0588235 0.0588235 0.0588235 0.0588235 0.0588235 0.0588235 0.0588235 0.0588235 0.0588235 0.0588235 0.0588235 0.0588235;
   (orien_8, dist_1, inclin_0, right) 0.0588235 0.0588235 0.0588235 0.0588235 0.0588235 0.0588235 0.0588235 0.0588235 0.0588235 0.0588235 0.0588235 0.0588235 0.0588235 0.0588235 0.0588235 0.0588235 0.0588235;
   (orien_15, dist_0, inclin_0, right) 0.0588235 0.0588235 0.0588235 0.0588235 0.0588235 0.0588235 0.0588235 0.0588235 0.0588235 0.0588235 0.0588235 0.0588235 0.0588235 0.0588235 0.0588235 0.0588235 0.0588235;
   (orien_14, dist_0, inclin_0, right) 0.0588235 0.0588235 0.0588235 0.0588235 0.0588235 0.0588235 0.0588235 0.0588235 0.0588235 0.0588235 0.0588235 0.0588235 0.0588235 0.0588235 0.0588235 0.0588235 0.0588235;
   (orien_13, dist_0, inclin_0, right) 0.0588235 0.0588235 0.0588235 0.0588235 0.0588235 0.0588235 0.0588235 0.0588235 0.0588235 0.0588235 0.0588235 0.0588235 0.0588235 0.0588235 0.0588235 0.0588235 0.0588235;
   (orien_11, dist_0, inclin_0, right) 0.0588235 0.0588235 0.0588235 0.0588235 0.0588235 0.0588235 0.0588235 0.0588235 0.0588235 0.0588235 0.0588235 0.0588235 0.0588235 0.0588235 0.0588235 0.0588235 0.0588235;
   (orien_9, dist_0, inclin_0, right) 0.0588235 0.0588235 0.0588235 0.0588235 0.0588235 0.0588235 0.0588235 0.0588235 0.0588235 0.0588235 0.0588235 0.0588235 0.0588235 0.0588235 0.0588235 0.0588235 0.0588235;
   (orien_7, dist_0, inclin_0, right) 0.0588235 0.0588235 0.0588235 0.0588235 0.0588235 0.0588235 0.0588235 0.0588235 0.0588235 0.0588235 0.0588235 0.0588235 0.0588235 0.0588235 0.0588235 0.0588235 0.0588235;
   (orien_16, dist_0, inclin_0, right) 0.0588235 0.0588235 0.0588235 0.0588235 0.0588235 0.0588235 0.0588235 0.0588235 0.0588235 0.0588235 0.0588235 0.0588235 0.0588235 0.0588235 0.0588235 0.0588235 0.0588235;
   (orien_17, dist_0, inclin_0, right) 0.0588235 0.0588235 0.0588235 0.0588235 0.0588235 0.0588235 0.0588235 0.0588235 0.0588235 0.0588235 0.0588235 0.0588235 0.0588235 0.0588235 0.0588235 0.0588235 0.0588235;
   (orien_19, dist_0, inclin_0, right) 0.0588235 0.0588235 0.0588235 0.0588235 0.0588235 0.0588235 0.0588235 0.0588235 0.0588235 0.0588235 0.0588235 0.0588235 0.0588235 0.0588235 0.0588235 0.0588235 0.0588235;
   (orien_21, dist_0, inclin_0, right) 0.0588235 0.0588235 0.0588235 0.0588235 0.0588235 0.0588235 0.0588235 0.0588235 0.0588235 0.0588235 0.0588235 0.0588235 0.0588235 0.0588235 0.0588235 0.0588235 0.0588235;
   (orien_23, dist_0, inclin_0, right) 0.0588235 0.0588235 0.0588235 0.0588235 0.0588235 0.0588235 0.0588235 0.0588235 0.0588235 0.0588235 0.0588235 0.0588235 0.0588235 0.0588235 0.0588235 0.0588235 0.0588235;
   (orien_31, dist_0, inclin_0, right) 0.0588235 0.0588235 0.0588235 0.0588235 0.0588235 0.0588235 0.0588235 0.0588235 0.0588235 0.0588235 0.0588235 0.0588235 0.0588235 0.0588235 0.0588235 0.0588235 0.0588235;
   (orien_12, dist_0, inclin_0, right) 0.0588235 0.0588235 0.0588235 0.0588235 0.0588235 0.0588235 0.0588235 0.0588235 0.0588235 0.0588235 0.0588235 0.0588235 0.0588235 0.0588235 0.0588235 0.0588235 0.0588235;
   (orien_18, dist_0, inclin_0, right) 0.0588235 0.0588235 0.0588235 0.0588235 0.0588235 0.0588235 0.0588235 0.0588235 0.0588235 0.0588235 0.0588235 0.0588235 0.0588235 0.0588235 0.0588235 0.0588235 0.0588235;
   (orien_20, dist_0, inclin_0, right) 0.0588235 0.0588235 0.0588235 0.0588235 0.0588235 0.0588235 0.0588235 0.0588235 0.0588235 0.0588235 0.0588235 0.0588235 0.0588235 0.0588235 0.0588235 0.0588235 0.0588235;
   (orien_22, dist_0, inclin_0, right) 0.0588235 0.0588235 0.0588235 0.0588235 0.0588235 0.0588235 0.0588235 0.0588235 0.0588235 0.0588235 0.0588235 0.0588235 0.0588235 0.0588235 0.0588235 0.0588235 0.0588235;
   (orien_29, dist_0, inclin_0, right) 0.0588235 0.0588235 0.0588235 0.0588235 0.0588235 0.0588235 0.0588235 0.0588235 0.0588235 0.0588235 0.0588235 0.0588235 0.0588235 0.0588235 0.0588235 0.0588235 0.0588235;
   (orien_10, dist_0, inclin_0, right) 0.0588235 0.0588235 0.0588235 0.0588235 0.0588235 0.0588235 0.0588235 0.0588235 0.0588235 0.0588235 0.0588235 0.0588235 0.0588235 0.0588235 0.0588235 0.0588235 0.0588235;
   (orien_26, dist_0, inclin_0, right) 0.0588235 0.0588235 0.0588235 0.0588235 0.0588235 0.0588235 0.0588235 0.0588235 0.0588235 0.0588235 0.0588235 0.0588235 0.0588235 0.0588235 0.0588235 0.0588235 0.0588235;
   (orien_24, dist_0, inclin_0, right) 0.0588235 0.0588235 0.0588235 0.0588235 0.0588235 0.0588235 0.0588235 0.0588235 0.0588235 0.0588235 0.0588235 0.0588235 0.0588235 0.0588235 0.0588235 0.0588235 0.0588235;
   (orien_25, dist_0, inclin_0, right) 0.0588235 0.0588235 0.0588235 0.0588235 0.0588235 0.0588235 0.0588235 0.0588235 0.0588235 0.0588235 0.0588235 0.0588235 0.0588235 0.0588235 0.0588235 0.0588235 0.0588235;
   (orien_27, dist_0, inclin_0, right) 0.0588235 0.0588235 0.0588235 0.0588235 0.0588235 0.0588235 0.0588235 0.0588235 0.0588235 0.0588235 0.0588235 0.0588235 0.0588235 0.0588235 0.0588235 0.0588235 0.0588235;
   (orien_5, dist_0, inclin_0, right) 0.0588235 0.0588235 0.0588235 0.0588235 0.0588235 0.0588235 0.0588235 0.0588235 0.0588235 0.0588235 0.0588235 0.0588235 0.0588235 0.0588235 0.0588235 0.0588235 0.0588235;
   (orien_28, dist_0, inclin_0, right) 0.0588235 0.0588235 0.0588235 0.0588235 0.0588235 0.0588235 0.0588235 0.0588235 0.0588235 0.0588235 0.0588235 0.0588235 0.0588235 0.0588235 0.0588235 0.0588235 0.0588235;
   (orien_2, dist_0, inclin_0, right) 0.0588235 0.0588235 0.0588235 0.0588235 0.0588235 0.0588235 0.0588235 0.0588235 0.0588235 0.0588235 0.0588235 0.0588235 0.0588235 0.0588235 0.0588235 0.0588235 0.0588235;
   (orien_30, dist_0, inclin_0, right) 0.0588235 0.0588235 0.0588235 0.0588235 0.0588235 0.0588235 0.0588235 0.0588235 0.0588235 0.0588235 0.0588235 0.0588235 0.0588235 0.0588235 0.0588235 0.0588235 0.0588235;
   (orien_0, dist_0, inclin_0, right) 0.0588235 0.0588235 0.0588235 0.0588235 0.0588235 0.0588235 0.0588235 0.0588235 0.0588235 0.0588235 0.0588235 0.0588235 0.0588235 0.0588235 0.0588235 0.0588235 0.0588235;
   (orien_1, dist_0, inclin_0, right) 0.0588235 0.0588235 0.0588235 0.0588235 0.0588235 0.0588235 0.0588235 0.0588235 0.0588235 0.0588235 0.0588235 0.0588235 0.0588235 0.0588235 0.0588235 0.0588235 0.0588235;
   (orien_3, dist_0, inclin_0, right) 0.0588235 0.0588235 0.0588235 0.0588235 0.0588235 0.0588235 0.0588235 0.0588235 0.0588235 0.0588235 0.0588235 0.0588235 0.0588235 0.0588235 0.0588235 0.0588235 0.0588235;
   (orien_4, dist_0, inclin_0, right) 0.0588235 0.0588235 0.0588235 0.0588235 0.0588235 0.0588235 0.0588235 0.0588235 0.0588235 0.0588235 0.0588235 0.0588235 0.0588235 0.0588235 0.0588235 0.0588235 0.0588235;
   (orien_6, dist_0, inclin_0, right) 0.0588235 0.0588235 0.0588235 0.0588235 0.0588235 0.0588235 0.0588235 0.0588235 0.0588235 0.0588235 0.0588235 0.0588235 0.0588235 0.0588235 0.0588235 0.0588235 0.0588235;
   (orien_8, dist_0, inclin_0, right) 0.0588235 0.0588235 0.0588235 0.0588235 0.0588235 0.0588235 0.0588235 0.0588235 0.0588235 0.0588235 0.0588235 0.0588235 0.0588235 0.0588235 0.0588235 0.0588235 0.0588235;
   (orien_15, dist_2, inclin_1, right) 0.0588235 0.0588235 0.0588235 0.0588235 0.0588235 0.0588235 0.0588235 0.0588235 0.0588235 0.0588235 0.0588235 0.0588235 0.0588235 0.0588235 0.0588235 0.0588235 0.0588235;
   (orien_14, dist_2, inclin_1, right) 0.0588235 0.0588235 0.0588235 0.0588235 0.0588235 0.0588235 0.0588235 0.0588235 0.0588235 0.0588235 0.0588235 0.0588235 0.0588235 0.0588235 0.0588235 0.0588235 0.0588235;
   (orien_13, dist_2, inclin_1, right) 0.0588235 0.0588235 0.0588235 0.0588235 0.0588235 0.0588235 0.0588235 0.0588235 0.0588235 0.0588235 0.0588235 0.0588235 0.0588235 0.0588235 0.0588235 0.0588235 0.0588235;
   (orien_11, dist_2, inclin_1, right) 0.0588235 0.0588235 0.0588235 0.0588235 0.0588235 0.0588235 0.0588235 0.0588235 0.0588235 0.0588235 0.0588235 0.0588235 0.0588235 0.0588235 0.0588235 0.0588235 0.0588235;
   (orien_9, dist_2, inclin_1, right) 0.0588235 0.0588235 0.0588235 0.0588235 0.0588235 0.0588235 0.0588235 0.0588235 0.0588235 0.0588235 0.0588235 0.0588235 0.0588235 0.0588235 0.0588235 0.0588235 0.0588235;
   (orien_7, dist_2, inclin_1, right) 0.0588235 0.0588235 0.0588235 0.0588235 0.0588235 0.0588235 0.0588235 0.0588235 0.0588235 0.0588235 0.0588235 0.0588235 0.0588235 0.0588235 0.0588235 0.0588235 0.0588235;
   (orien_16, dist_2, inclin_1, right) 0.0588235 0.0588235 0.0588235 0.0588235 0.0588235 0.0588235 0.0588235 0.0588235 0.0588235 0.0588235 0.0588235 0.0588235 0.0588235 0.0588235 0.0588235 0.0588235 0.0588235;
   (orien_17, dist_2, inclin_1, right) 0.0588235 0.0588235 0.0588235 0.0588235 0.0588235 0.0588235 0.0588235 0.0588235 0.0588235 0.0588235 0.0588235 0.0588235 0.0588235 0.0588235 0.0588235 0.0588235 0.0588235;
   (orien_19, dist_2, inclin_1, right) 0.0555556 0.0555556 0.0555556 0.111111 0.0555556 0.0555556 0.0555556 0.0555556 0.0555556 0.0555556 0.0555556 0.0555556 0.0555556 0.0555556 0.0555556 0.0555556 0.0555556;
   (orien_21, dist_2, inclin_1, right) 0.05 0.05 0.05 0.15 0.05 0.05 0.1 0.05 0.05 0.05 0.05 0.05 0.05 0.05 0.05 0.05 0.05;
   (orien_23, dist_2, inclin_1, right) 0.225806 0.0322581 0.0322581 0.0322581 0.16129 0.0322581 0.0322581 0.0322581 0.0645161 0.0322581 0.0322581 0.0322581 0.0322581 0.0322581 0.129032 0.0322581 0.0322581;
   (orien_31, dist_2, inclin_1, right) 0.0588235 0.0588235 0.0588235 0.0588235 0.0588235 0.0588235 0.0588235 0.0588235 0.0588235 0.0588235 0.0588235 0.0588235 0.0588235 0.0588235 0.0588235 0.0588235 0.0588235;
   (orien_12, dist_2, inclin_1, right) 0.0588235 0.0588235 0.0588235 0.0588235 0.0588235 0.0588235 0.0588235 0.0588235 0.0588235 0.0588235 0.0588235 0.0588235 0.0588235 0.0588235 0.0588235 0.0588235 0.0588235;
   (orien_18, dist_2, inclin_1, right) 0.0588235 0.0588235 0.0588235 0.0588235 0.0588235 0.0588235 0.0588235 0.0588235 0.0588235 0.0588235 0.0588235 0.0588235 0.0588235 0.0588235 0.0588235 0.0588235 0.0588235;
   (orien_20, dist_2, inclin_1, right) 0.0555556 0.0555556 0.0555556 0.0555556 0.0555556 0.0555556 0.111111 0.0555556 0.0555556 0.0555556 0.0555556 0.0555556 0.0555556 0.0555556 0.0555556 0.0555556 0.0555556;
   (orien_22, dist_2, inclin_1, right) 0.142857 0.047619 0.047619 0.047619 0.047619 0.047619 0.142857 0.047619 0.047619 0.047619 0.047619 0.047619 0.047619 0.047619 0.047619 0.047619 0.047619;
   (orien_29, dist_2, inclin_1, right) 0.0588235 0.0588235 0.0588235 0.0588235 0.0588235 0.0588235 0.0588235 0.0588235 0.0588235 0.0588235 0.0588235 0.0588235 0.0588235 0.0588235 0.0588235 0.0588235 0.0588235;
   (orien_10, dist_2, inclin_1, right) 0.0588235 0.0588235 0.0588235 0.0588235 0.0588235 0.0588235 0.0588235 0.0588235 0.0588235 0.0588235 0.0588235 0.0588235 0.0588235 0.0588235 0.0588235 0.0588235 0.0588235;
   (orien_26, dist_2, inclin_1, right) 0.0555556 0.0555556 0.0555556 0.0555556 0.0555556 0.0555556 0.0555556 0.0555556 0.0555556 0.0555556 0.0555556 0.111111 0.0555556 0.0555556 0.0555556 0.0555556 0.0555556;
   (orien_24, dist_2, inclin_1, right) 0.181818 0.0454545 0.0454545 0.0454545 0.0454545 0.0454545 0.0454545 0.0454545 0.0454545 0.0454545 0.0454545 0.136364 0.0454545 0.0454545 0.0454545 0.0454545 0.0454545;
   (orien_25, dist_2, inclin_1, right) 0.05 0.05 0.05 0.05 0.05 0.05 0.05 0.05 0.05 0.05 0.05 0.1 0.05 0.15 0.05 0.05 0.05;
   (orien_27, dist_2, inclin_1, right) 0.0555556 0.0555556 0.0555556 0.0555556 0.0555556 0.0555556 0.0555556 0.0555556 0.0555556 0.0555556 0.0555556 0.0555556 0.0555556 0.111111 0.0555556 0.0555556 0.0555556;
   (orien_5, dist_2, inclin_1, right) 0.0588235 0.0588235 0.0588235 0.0588235 0.0588235 0.0588235 0.0588235 0.0588235 0.0588235 0.0588235 0.0588235 0.0588235 0.0588235 0.0588235 0.0588235 0.0588235 0.0588235;
   (orien_28, dist_2, inclin_1, right) 0.0588235 0.0588235 0.0588235 0.0588235 0.0588235 0.0588235 0.0588235 0.0588235 0.0588235 0.0588235 0.0588235 0.0588235 0.0588235 0.0588235 0.0588235 0.0588235 0.0588235;
   (orien_2, dist_2, inclin_1, right) 0.0588235 0.0588235 0.0588235 0.0588235 0.0588235 0.0588235 0.0588235 0.0588235 0.0588235 0.0588235 0.0588235 0.0588235 0.0588235 0.0588235 0.0588235 0.0588235 0.0588235;
   (orien_30, dist_2, inclin_1, right) 0.0588235 0.0588235 0.0588235 0.0588235 0.0588235 0.0588235 0.0588235 0.0588235 0.0588235 0.0588235 0.0588235 0.0588235 0.0588235 0.0588235 0.0588235 0.0588235 0.0588235;
   (orien_0, dist_2, inclin_1, right) 0.0588235 0.0588235 0.0588235 0.0588235 0.0588235 0.0588235 0.0588235 0.0588235 0.0588235 0.0588235 0.0588235 0.0588235 0.0588235 0.0588235 0.0588235 0.0588235 0.0588235;
   (orien_1, dist_2, inclin_1, right) 0.0588235 0.0588235 0.0588235 0.0588235 0.0588235 0.0588235 0.0588235 0.0588235 0.0588235 0.0588235 0.0588235 0.0588235 0.0588235 0.0588235 0.0588235 0.0588235 0.0588235;
   (orien_3, dist_2, inclin_1, right) 0.0588235 0.0588235 0.0588235 0.0588235 0.0588235 0.0588235 0.0588235 0.0588235 0.0588235 0.0588235 0.0588235 0.0588235 0.0588235 0.0588235 0.0588235 0.0588235 0.0588235;
   (orien_4, dist_2, inclin_1, right) 0.0588235 0.0588235 0.0588235 0.0588235 0.0588235 0.0588235 0.0588235 0.0588235 0.0588235 0.0588235 0.0588235 0.0588235 0.0588235 0.0588235 0.0588235 0.0588235 0.0588235;
   (orien_6, dist_2, inclin_1, right) 0.0588235 0.0588235 0.0588235 0.0588235 0.0588235 0.0588235 0.0588235 0.0588235 0.0588235 0.0588235 0.0588235 0.0588235 0.0588235 0.0588235 0.0588235 0.0588235 0.0588235;
   (orien_8, dist_2, inclin_1, right) 0.0588235 0.0588235 0.0588235 0.0588235 0.0588235 0.0588235 0.0588235 0.0588235 0.0588235 0.0588235 0.0588235 0.0588235 0.0588235 0.0588235 0.0588235 0.0588235 0.0588235;
   (orien_15, dist_1, inclin_1, right) 0.0588235 0.0588235 0.0588235 0.0588235 0.0588235 0.0588235 0.0588235 0.0588235 0.0588235 0.0588235 0.0588235 0.0588235 0.0588235 0.0588235 0.0588235 0.0588235 0.0588235;
   (orien_14, dist_1, inclin_1, right) 0.0588235 0.0588235 0.0588235 0.0588235 0.0588235 0.0588235 0.0588235 0.0588235 0.0588235 0.0588235 0.0588235 0.0588235 0.0588235 0.0588235 0.0588235 0.0588235 0.0588235;
   (orien_13, dist_1, inclin_1, right) 0.0588235 0.0588235 0.0588235 0.0588235 0.0588235 0.0588235 0.0588235 0.0588235 0.0588235 0.0588235 0.0588235 0.0588235 0.0588235 0.0588235 0.0588235 0.0588235 0.0588235;
   (orien_11, dist_1, inclin_1, right) 0.0588235 0.0588235 0.0588235 0.0588235 0.0588235 0.0588235 0.0588235 0.0588235 0.0588235 0.0588235 0.0588235 0.0588235 0.0588235 0.0588235 0.0588235 0.0588235 0.0588235;
   (orien_9, dist_1, inclin_1, right) 0.0588235 0.0588235 0.0588235 0.0588235 0.0588235 0.0588235 0.0588235 0.0588235 0.0588235 0.0588235 0.0588235 0.0588235 0.0588235 0.0588235 0.0588235 0.0588235 0.0588235;
   (orien_7, dist_1, inclin_1, right) 0.0588235 0.0588235 0.0588235 0.0588235 0.0588235 0.0588235 0.0588235 0.0588235 0.0588235 0.0588235 0.0588235 0.0588235 0.0588235 0.0588235 0.0588235 0.0588235 0.0588235;
   (orien_16, dist_1, inclin_1, right) 0.0588235 0.0588235 0.0588235 0.0588235 0.0588235 0.0588235 0.0588235 0.0588235 0.0588235 0.0588235 0.0588235 0.0588235 0.0588235 0.0588235 0.0588235 0.0588235 0.0588235;
   (orien_17, dist_1, inclin_1, right) 0.0588235 0.0588235 0.0588235 0.0588235 0.0588235 0.0588235 0.0588235 0.0588235 0.0588235 0.0588235 0.0588235 0.0588235 0.0588235 0.0588235 0.0588235 0.0588235 0.0588235;
   (orien_19, dist_1, inclin_1, right) 0.0588235 0.0588235 0.0588235 0.0588235 0.0588235 0.0588235 0.0588235 0.0588235 0.0588235 0.0588235 0.0588235 0.0588235 0.0588235 0.0588235 0.0588235 0.0588235 0.0588235;
   (orien_21, dist_1, inclin_1, right) 0.0555556 0.0555556 0.0555556 0.111111 0.0555556 0.0555556 0.0555556 0.0555556 0.0555556 0.0555556 0.0555556 0.0555556 0.0555556 0.0555556 0.0555556 0.0555556 0.0555556;
   (orien_23, dist_1, inclin_1, right) 0.0588235 0.0588235 0.0588235 0.0588235 0.0588235 0.0588235 0.0588235 0.0588235 0.0588235 0.0588235 0.0588235 0.0588235 0.0588235 0.0588235 0.0588235 0.0588235 0.0588235;
   (orien_31, dist_1, inclin_1, right) 0.0588235 0.0588235 0.0588235 0.0588235 0.0588235 0.0588235 0.0588235 0.0588235 0.0588235 0.0588235 0.0588235 0.0588235 0.0588235 0.0588235 0.0588235 0.0588235 0.0588235;
   (orien_12, dist_1, inclin_1, right) 0.0588235 0.0588235 0.0588235 0.0588235 0.0588235 0.0588235 0.0588235 0.0588235 0.0588235 0.0588235 0.0588235 0.0588235 0.0588235 0.0588235 0.0588235 0.0588235 0.0588235;
   (orien_18, dist_1, inclin_1, right) 0.0588235 0.0588235 0.0588235 0.0588235 0.0588235 0.0588235 0.0588235 0.0588235 0.0588235 0.0588235 0.0588235 0.0588235 0.0588235 0.0588235 0.0588235 0.0588235 0.0588235;
   (orien_20, dist_1, inclin_1, right) 0.0588235 0.0588235 0.0588235 0.0588235 0.0588235 0.0588235 0.0588235 0.0588235 0.0588235 0.0588235 0.0588235 0.0588235 0.0588235 0.0588235 0.0588235 0.0588235 0.0588235;
   (orien_22, dist_1, inclin_1, right) 0.0588235 0.0588235 0.0588235 0.0588235 0.0588235 0.0588235 0.0588235 0.0588235 0.0588235 0.0588235 0.0588235 0.0588235 0.0588235 0.0588235 0.0588235 0.0588235 0.0588235;
   (orien_29, dist_1, inclin_1, right) 0.0588235 0.0588235 0.0588235 0.0588235 0.0588235 0.0588235 0.0588235 0.0588235 0.0588235 0.0588235 0.0588235 0.0588235 0.0588235 0.0588235 0.0588235 0.0588235 0.0588235;
   (orien_10, dist_1, inclin_1, right) 0.0588235 0.0588235 0.0588235 0.0588235 0.0588235 0.0588235 0.0588235 0.0588235 0.0588235 0.0588235 0.0588235 0.0588235 0.0588235 0.0588235 0.0588235 0.0588235 0.0588235;
   (orien_26, dist_1, inclin_1, right) 0.0588235 0.0588235 0.0588235 0.0588235 0.0588235 0.0588235 0.0588235 0.0588235 0.0588235 0.0588235 0.0588235 0.0588235 0.0588235 0.0588235 0.0588235 0.0588235 0.0588235;
   (orien_24, dist_1, inclin_1, right) 0.0588235 0.0588235 0.0588235 0.0588235 0.0588235 0.0588235 0.0588235 0.0588235 0.0588235 0.0588235 0.0588235 0.0588235 0.0588235 0.0588235 0.0588235 0.0588235 0.0588235;
   (orien_25, dist_1, inclin_1, right) 0.0555556 0.0555556 0.0555556 0.0555556 0.0555556 0.0555556 0.0555556 0.0555556 0.0555556 0.0555556 0.0555556 0.0555556 0.0555556 0.111111 0.0555556 0.0555556 0.0555556;
   (orien_27, dist_1, inclin_1, right) 0.0588235 0.0588235 0.0588235 0.0588235 0.0588235 0.0588235 0.0588235 0.0588235 0.0588235 0.0588235 0.0588235 0.0588235 0.0588235 0.0588235 0.0588235 0.0588235 0.0588235;
   (orien_5, dist_1, inclin_1, right) 0.0588235 0.0588235 0.0588235 0.0588235 0.0588235 0.0588235 0.0588235 0.0588235 0.0588235 0.0588235 0.0588235 0.0588235 0.0588235 0.0588235 0.0588235 0.0588235 0.0588235;
   (orien_28, dist_1, inclin_1, right) 0.0588235 0.0588235 0.0588235 0.0588235 0.0588235 0.0588235 0.0588235 0.0588235 0.0588235 0.0588235 0.0588235 0.0588235 0.0588235 0.0588235 0.0588235 0.0588235 0.0588235;
   (orien_2, dist_1, inclin_1, right) 0.0588235 0.0588235 0.0588235 0.0588235 0.0588235 0.0588235 0.0588235 0.0588235 0.0588235 0.0588235 0.0588235 0.0588235 0.0588235 0.0588235 0.0588235 0.0588235 0.0588235;
   (orien_30, dist_1, inclin_1, right) 0.0588235 0.0588235 0.0588235 0.0588235 0.0588235 0.0588235 0.0588235 0.0588235 0.0588235 0.0588235 0.0588235 0.0588235 0.0588235 0.0588235 0.0588235 0.0588235 0.0588235;
   (orien_0, dist_1, inclin_1, right) 0.0588235 0.0588235 0.0588235 0.0588235 0.0588235 0.0588235 0.0588235 0.0588235 0.0588235 0.0588235 0.0588235 0.0588235 0.0588235 0.0588235 0.0588235 0.0588235 0.0588235;
   (orien_1, dist_1, inclin_1, right) 0.0588235 0.0588235 0.0588235 0.0588235 0.0588235 0.0588235 0.0588235 0.0588235 0.0588235 0.0588235 0.0588235 0.0588235 0.0588235 0.0588235 0.0588235 0.0588235 0.0588235;
   (orien_3, dist_1, inclin_1, right) 0.0588235 0.0588235 0.0588235 0.0588235 0.0588235 0.0588235 0.0588235 0.0588235 0.0588235 0.0588235 0.0588235 0.0588235 0.0588235 0.0588235 0.0588235 0.0588235 0.0588235;
   (orien_4, dist_1, inclin_1, right) 0.0588235 0.0588235 0.0588235 0.0588235 0.0588235 0.0588235 0.0588235 0.0588235 0.0588235 0.0588235 0.0588235 0.0588235 0.0588235 0.0588235 0.0588235 0.0588235 0.0588235;
   (orien_6, dist_1, inclin_1, right) 0.0588235 0.0588235 0.0588235 0.0588235 0.0588235 0.0588235 0.0588235 0.0588235 0.0588235 0.0588235 0.0588235 0.0588235 0.0588235 0.0588235 0.0588235 0.0588235 0.0588235;
   (orien_8, dist_1, inclin_1, right) 0.0588235 0.0588235 0.0588235 0.0588235 0.0588235 0.0588235 0.0588235 0.0588235 0.0588235 0.0588235 0.0588235 0.0588235 0.0588235 0.0588235 0.0588235 0.0588235 0.0588235;
   (orien_15, dist_0, inclin_1, right) 0.0588235 0.0588235 0.0588235 0.0588235 0.0588235 0.0588235 0.0588235 0.0588235 0.0588235 0.0588235 0.0588235 0.0588235 0.0588235 0.0588235 0.0588235 0.0588235 0.0588235;
   (orien_14, dist_0, inclin_1, right) 0.0588235 0.0588235 0.0588235 0.0588235 0.0588235 0.0588235 0.0588235 0.0588235 0.0588235 0.0588235 0.0588235 0.0588235 0.0588235 0.0588235 0.0588235 0.0588235 0.0588235;
   (orien_13, dist_0, inclin_1, right) 0.0588235 0.0588235 0.0588235 0.0588235 0.0588235 0.0588235 0.0588235 0.0588235 0.0588235 0.0588235 0.0588235 0.0588235 0.0588235 0.0588235 0.0588235 0.0588235 0.0588235;
   (orien_11, dist_0, inclin_1, right) 0.0588235 0.0588235 0.0588235 0.0588235 0.0588235 0.0588235 0.0588235 0.0588235 0.0588235 0.0588235 0.0588235 0.0588235 0.0588235 0.0588235 0.0588235 0.0588235 0.0588235;
   (orien_9, dist_0, inclin_1, right) 0.0588235 0.0588235 0.0588235 0.0588235 0.0588235 0.0588235 0.0588235 0.0588235 0.0588235 0.0588235 0.0588235 0.0588235 0.0588235 0.0588235 0.0588235 0.0588235 0.0588235;
   (orien_7, dist_0, inclin_1, right) 0.0588235 0.0588235 0.0588235 0.0588235 0.0588235 0.0588235 0.0588235 0.0588235 0.0588235 0.0588235 0.0588235 0.0588235 0.0588235 0.0588235 0.0588235 0.0588235 0.0588235;
   (orien_16, dist_0, inclin_1, right) 0.0588235 0.0588235 0.0588235 0.0588235 0.0588235 0.0588235 0.0588235 0.0588235 0.0588235 0.0588235 0.0588235 0.0588235 0.0588235 0.0588235 0.0588235 0.0588235 0.0588235;
   (orien_17, dist_0, inclin_1, right) 0.0588235 0.0588235 0.0588235 0.0588235 0.0588235 0.0588235 0.0588235 0.0588235 0.0588235 0.0588235 0.0588235 0.0588235 0.0588235 0.0588235 0.0588235 0.0588235 0.0588235;
   (orien_19, dist_0, inclin_1, right) 0.0588235 0.0588235 0.0588235 0.0588235 0.0588235 0.0588235 0.0588235 0.0588235 0.0588235 0.0588235 0.0588235 0.0588235 0.0588235 0.0588235 0.0588235 0.0588235 0.0588235;
   (orien_21, dist_0, inclin_1, right) 0.0588235 0.0588235 0.0588235 0.0588235 0.0588235 0.0588235 0.0588235 0.0588235 0.0588235 0.0588235 0.0588235 0.0588235 0.0588235 0.0588235 0.0588235 0.0588235 0.0588235;
   (orien_23, dist_0, inclin_1, right) 0.0588235 0.0588235 0.0588235 0.0588235 0.0588235 0.0588235 0.0588235 0.0588235 0.0588235 0.0588235 0.0588235 0.0588235 0.0588235 0.0588235 0.0588235 0.0588235 0.0588235;
   (orien_31, dist_0, inclin_1, right) 0.0588235 0.0588235 0.0588235 0.0588235 0.0588235 0.0588235 0.0588235 0.0588235 0.0588235 0.0588235 0.0588235 0.0588235 0.0588235 0.0588235 0.0588235 0.0588235 0.0588235;
   (orien_12, dist_0, inclin_1, right) 0.0588235 0.0588235 0.0588235 0.0588235 0.0588235 0.0588235 0.0588235 0.0588235 0.0588235 0.0588235 0.0588235 0.0588235 0.0588235 0.0588235 0.0588235 0.0588235 0.0588235;
   (orien_18, dist_0, inclin_1, right) 0.0588235 0.0588235 0.0588235 0.0588235 0.0588235 0.0588235 0.0588235 0.0588235 0.0588235 0.0588235 0.0588235 0.0588235 0.0588235 0.0588235 0.0588235 0.0588235 0.0588235;
   (orien_20, dist_0, inclin_1, right) 0.0588235 0.0588235 0.0588235 0.0588235 0.0588235 0.0588235 0.0588235 0.0588235 0.0588235 0.0588235 0.0588235 0.0588235 0.0588235 0.0588235 0.0588235 0.0588235 0.0588235;
   (orien_22, dist_0, inclin_1, right) 0.0588235 0.0588235 0.0588235 0.0588235 0.0588235 0.0588235 0.0588235 0.0588235 0.0588235 0.0588235 0.0588235 0.0588235 0.0588235 0.0588235 0.0588235 0.0588235 0.0588235;
   (orien_29, dist_0, inclin_1, right) 0.0588235 0.0588235 0.0588235 0.0588235 0.0588235 0.0588235 0.0588235 0.0588235 0.0588235 0.0588235 0.0588235 0.0588235 0.0588235 0.0588235 0.0588235 0.0588235 0.0588235;
   (orien_10, dist_0, inclin_1, right) 0.0588235 0.0588235 0.0588235 0.0588235 0.0588235 0.0588235 0.0588235 0.0588235 0.0588235 0.0588235 0.0588235 0.0588235 0.0588235 0.0588235 0.0588235 0.0588235 0.0588235;
   (orien_26, dist_0, inclin_1, right) 0.0588235 0.0588235 0.0588235 0.0588235 0.0588235 0.0588235 0.0588235 0.0588235 0.0588235 0.0588235 0.0588235 0.0588235 0.0588235 0.0588235 0.0588235 0.0588235 0.0588235;
   (orien_24, dist_0, inclin_1, right) 0.0588235 0.0588235 0.0588235 0.0588235 0.0588235 0.0588235 0.0588235 0.0588235 0.0588235 0.0588235 0.0588235 0.0588235 0.0588235 0.0588235 0.0588235 0.0588235 0.0588235;
   (orien_25, dist_0, inclin_1, right) 0.0588235 0.0588235 0.0588235 0.0588235 0.0588235 0.0588235 0.0588235 0.0588235 0.0588235 0.0588235 0.0588235 0.0588235 0.0588235 0.0588235 0.0588235 0.0588235 0.0588235;
   (orien_27, dist_0, inclin_1, right) 0.0588235 0.0588235 0.0588235 0.0588235 0.0588235 0.0588235 0.0588235 0.0588235 0.0588235 0.0588235 0.0588235 0.0588235 0.0588235 0.0588235 0.0588235 0.0588235 0.0588235;
   (orien_5, dist_0, inclin_1, right) 0.0588235 0.0588235 0.0588235 0.0588235 0.0588235 0.0588235 0.0588235 0.0588235 0.0588235 0.0588235 0.0588235 0.0588235 0.0588235 0.0588235 0.0588235 0.0588235 0.0588235;
   (orien_28, dist_0, inclin_1, right) 0.0588235 0.0588235 0.0588235 0.0588235 0.0588235 0.0588235 0.0588235 0.0588235 0.0588235 0.0588235 0.0588235 0.0588235 0.0588235 0.0588235 0.0588235 0.0588235 0.0588235;
   (orien_2, dist_0, inclin_1, right) 0.0588235 0.0588235 0.0588235 0.0588235 0.0588235 0.0588235 0.0588235 0.0588235 0.0588235 0.0588235 0.0588235 0.0588235 0.0588235 0.0588235 0.0588235 0.0588235 0.0588235;
   (orien_30, dist_0, inclin_1, right) 0.0588235 0.0588235 0.0588235 0.0588235 0.0588235 0.0588235 0.0588235 0.0588235 0.0588235 0.0588235 0.0588235 0.0588235 0.0588235 0.0588235 0.0588235 0.0588235 0.0588235;
   (orien_0, dist_0, inclin_1, right) 0.0588235 0.0588235 0.0588235 0.0588235 0.0588235 0.0588235 0.0588235 0.0588235 0.0588235 0.0588235 0.0588235 0.0588235 0.0588235 0.0588235 0.0588235 0.0588235 0.0588235;
   (orien_1, dist_0, inclin_1, right) 0.0588235 0.0588235 0.0588235 0.0588235 0.0588235 0.0588235 0.0588235 0.0588235 0.0588235 0.0588235 0.0588235 0.0588235 0.0588235 0.0588235 0.0588235 0.0588235 0.0588235;
   (orien_3, dist_0, inclin_1, right) 0.0588235 0.0588235 0.0588235 0.0588235 0.0588235 0.0588235 0.0588235 0.0588235 0.0588235 0.0588235 0.0588235 0.0588235 0.0588235 0.0588235 0.0588235 0.0588235 0.0588235;
