
network unnamedBN{
   property software aGrUM;
}

variable effect {
   type discrete[4] {left, right, close, far};
}

variable move {
   type discrete[13] {close_right_down, close_left_down, left, right, down, close, close_down, far_down, far, right_down, left_down, far_right_down, far_left_down};
}

variable distance0 {
   type discrete[3] {dist_2, dist_1, dist_0};
}

variable orientation0 {
   type discrete[16] {orien_7, orien_6, orien_5, orien_4, orien_3, orien_8, orien_9, orien_10, orien_11, orien_15, orien_12, orien_13, orien_14, orien_0, orien_1, orien_2};
}

variable inclination0 {
   type discrete[5] {inclin_1, inclin_2, inclin_3, inclin_4, inclin_0};
}

probability (effect) {
   default 0.251256 0.251256 0.251256 0.246231;
}
probability (move) {
   default 0.0721154 0.0721154 0.110577 0.110577 0.105769 0.110577 0.0384615 0.0432692 0.100962 0.0384615 0.0528846 0.0721154 0.0721154;
}
probability (distance0) {
   default 0.752525 0.166667 0.0808081;
}
probability (orientation0 | move, inclination0, distance0, effect) {
   (close_right_down, inclin_1, dist_2, left) 0.157895 0.105263 0.0526316 0.0526316 0.0526316 0.0526316 0.0526316 0.0526316 0.0526316 0.0526316 0.0526316 0.0526316 0.0526316 0.0526316 0.0526316 0.0526316;
   (close_left_down, inclin_1, dist_2, left) 0.0625 0.0625 0.0625 0.0625 0.0625 0.0625 0.0625 0.0625 0.0625 0.0625 0.0625 0.0625 0.0625 0.0625 0.0625 0.0625;
   (left, inclin_1, dist_2, left) 0.0625 0.0625 0.0625 0.0625 0.0625 0.0625 0.0625 0.0625 0.0625 0.0625 0.0625 0.0625 0.0625 0.0625 0.0625 0.0625;
   (right, inclin_1, dist_2, left) 0.0526316 0.0526316 0.0526316 0.0526316 0.0526316 0.0526316 0.0526316 0.0526316 0.210526 0.0526316 0.0526316 0.0526316 0.0526316 0.0526316 0.0526316 0.0526316;
   (down, inclin_1, dist_2, left) 0.0555556 0.0555556 0.0555556 0.0555556 0.166667 0.0555556 0.0555556 0.0555556 0.0555556 0.0555556 0.0555556 0.0555556 0.0555556 0.0555556 0.0555556 0.0555556;
   (close, inclin_1, dist_2, left) 0.0625 0.0625 0.0625 0.0625 0.0625 0.0625 0.0625 0.0625 0.0625 0.0625 0.0625 0.0625 0.0625 0.0625 0.0625 0.0625;
   (close_down, inclin_1, dist_2, left) 0.0625 0.0625 0.0625 0.0625 0.0625 0.0625 0.0625 0.0625 0.0625 0.0625 0.0625 0.0625 0.0625 0.0625 0.0625 0.0625;
   (far_down, inclin_1, dist_2, left) 0.0625 0.0625 0.0625 0.0625 0.0625 0.0625 0.0625 0.0625 0.0625 0.0625 0.0625 0.0625 0.0625 0.0625 0.0625 0.0625;
   (far, inclin_1, dist_2, left) 0.0625 0.0625 0.0625 0.0625 0.0625 0.0625 0.0625 0.0625 0.0625 0.0625 0.0625 0.0625 0.0625 0.0625 0.0625 0.0625;
   (right_down, inclin_1, dist_2, left) 0.0555556 0.0555556 0.0555556 0.0555556 0.166667 0.0555556 0.0555556 0.0555556 0.0555556 0.0555556 0.0555556 0.0555556 0.0555556 0.0555556 0.0555556 0.0555556;
   (left_down, inclin_1, dist_2, left) 0.0625 0.0625 0.0625 0.0625 0.0625 0.0625 0.0625 0.0625 0.0625 0.0625 0.0625 0.0625 0.0625 0.0625 0.0625 0.0625;
   (far_right_down, inclin_1, dist_2, left) 0.0526316 0.0526316 0.0526316 0.0526316 0.0526316 0.0526316 0.0526316 0.0526316 0.0526316 0.157895 0.0526316 0.0526316 0.0526316 0.105263 0.0526316 0.0526316;
   (far_left_down, inclin_1, dist_2, left) 0.0625 0.0625 0.0625 0.0625 0.0625 0.0625 0.0625 0.0625 0.0625 0.0625 0.0625 0.0625 0.0625 0.0625 0.0625 0.0625;
   (close_right_down, inclin_2, dist_2, left) 0.0526316 0.0526316 0.105263 0.157895 0.0526316 0.0526316 0.0526316 0.0526316 0.0526316 0.0526316 0.0526316 0.0526316 0.0526316 0.0526316 0.0526316 0.0526316;
   (close_left_down, inclin_2, dist_2, left) 0.0625 0.0625 0.0625 0.0625 0.0625 0.0625 0.0625 0.0625 0.0625 0.0625 0.0625 0.0625 0.0625 0.0625 0.0625 0.0625;
   (left, inclin_2, dist_2, left) 0.0625 0.0625 0.0625 0.0625 0.0625 0.0625 0.0625 0.0625 0.0625 0.0625 0.0625 0.0625 0.0625 0.0625 0.0625 0.0625;
   (right, inclin_2, dist_2, left) 0.0625 0.0625 0.0625 0.0625 0.0625 0.0625 0.0625 0.0625 0.0625 0.0625 0.0625 0.0625 0.0625 0.0625 0.0625 0.0625;
   (down, inclin_2, dist_2, left) 0.0555556 0.0555556 0.0555556 0.0555556 0.166667 0.0555556 0.0555556 0.0555556 0.0555556 0.0555556 0.0555556 0.0555556 0.0555556 0.0555556 0.0555556 0.0555556;
   (close, inclin_2, dist_2, left) 0.0625 0.0625 0.0625 0.0625 0.0625 0.0625 0.0625 0.0625 0.0625 0.0625 0.0625 0.0625 0.0625 0.0625 0.0625 0.0625;
   (close_down, inclin_2, dist_2, left) 0.0625 0.0625 0.0625 0.0625 0.0625 0.0625 0.0625 0.0625 0.0625 0.0625 0.0625 0.0625 0.0625 0.0625 0.0625 0.0625;
   (far_down, inclin_2, dist_2, left) 0.0625 0.0625 0.0625 0.0625 0.0625 0.0625 0.0625 0.0625 0.0625 0.0625 0.0625 0.0625 0.0625 0.0625 0.0625 0.0625;
   (far, inclin_2, dist_2, left) 0.0625 0.0625 0.0625 0.0625 0.0625 0.0625 0.0625 0.0625 0.0625 0.0625 0.0625 0.0625 0.0625 0.0625 0.0625 0.0625;
   (right_down, inclin_2, dist_2, left) 0.0555556 0.0555556 0.0555556 0.0555556 0.166667 0.0555556 0.0555556 0.0555556 0.0555556 0.0555556 0.0555556 0.0555556 0.0555556 0.0555556 0.0555556 0.0555556;
   (left_down, inclin_2, dist_2, left) 0.0625 0.0625 0.0625 0.0625 0.0625 0.0625 0.0625 0.0625 0.0625 0.0625 0.0625 0.0625 0.0625 0.0625 0.0625 0.0625;
   (far_right_down, inclin_2, dist_2, left) 0.0526316 0.0526316 0.0526316 0.0526316 0.0526316 0.0526316 0.0526316 0.0526316 0.0526316 0.0526316 0.0526316 0.0526316 0.0526316 0.0526316 0.105263 0.157895;
   (far_left_down, inclin_2, dist_2, left) 0.0625 0.0625 0.0625 0.0625 0.0625 0.0625 0.0625 0.0625 0.0625 0.0625 0.0625 0.0625 0.0625 0.0625 0.0625 0.0625;
   (close_right_down, inclin_3, dist_2, left) 0.0625 0.0625 0.0625 0.0625 0.0625 0.0625 0.0625 0.0625 0.0625 0.0625 0.0625 0.0625 0.0625 0.0625 0.0625 0.0625;
   (close_left_down, inclin_3, dist_2, left) 0.0588235 0.0588235 0.0588235 0.0588235 0.117647 0.0588235 0.0588235 0.0588235 0.0588235 0.0588235 0.0588235 0.0588235 0.0588235 0.0588235 0.0588235 0.0588235;
   (left, inclin_3, dist_2, left) 0.0625 0.0625 0.0625 0.0625 0.0625 0.0625 0.0625 0.0625 0.0625 0.0625 0.0625 0.0625 0.0625 0.0625 0.0625 0.0625;
   (right, inclin_3, dist_2, left) 0.0625 0.0625 0.0625 0.0625 0.0625 0.0625 0.0625 0.0625 0.0625 0.0625 0.0625 0.0625 0.0625 0.0625 0.0625 0.0625;
   (down, inclin_3, dist_2, left) 0.0555556 0.0555556 0.0555556 0.0555556 0.166667 0.0555556 0.0555556 0.0555556 0.0555556 0.0555556 0.0555556 0.0555556 0.0555556 0.0555556 0.0555556 0.0555556;
   (close, inclin_3, dist_2, left) 0.0625 0.0625 0.0625 0.0625 0.0625 0.0625 0.0625 0.0625 0.0625 0.0625 0.0625 0.0625 0.0625 0.0625 0.0625 0.0625;
   (close_down, inclin_3, dist_2, left) 0.0625 0.0625 0.0625 0.0625 0.0625 0.0625 0.0625 0.0625 0.0625 0.0625 0.0625 0.0625 0.0625 0.0625 0.0625 0.0625;
   (far_down, inclin_3, dist_2, left) 0.0625 0.0625 0.0625 0.0625 0.0625 0.0625 0.0625 0.0625 0.0625 0.0625 0.0625 0.0625 0.0625 0.0625 0.0625 0.0625;
   (far, inclin_3, dist_2, left) 0.0625 0.0625 0.0625 0.0625 0.0625 0.0625 0.0625 0.0625 0.0625 0.0625 0.0625 0.0625 0.0625 0.0625 0.0625 0.0625;
   (right_down, inclin_3, dist_2, left) 0.0625 0.0625 0.0625 0.0625 0.0625 0.0625 0.0625 0.0625 0.0625 0.0625 0.0625 0.0625 0.0625 0.0625 0.0625 0.0625;
   (left_down, inclin_3, dist_2, left) 0.0588235 0.0588235 0.0588235 0.0588235 0.117647 0.0588235 0.0588235 0.0588235 0.0588235 0.0588235 0.0588235 0.0588235 0.0588235 0.0588235 0.0588235 0.0588235;
   (far_right_down, inclin_3, dist_2, left) 0.0625 0.0625 0.0625 0.0625 0.0625 0.0625 0.0625 0.0625 0.0625 0.0625 0.0625 0.0625 0.0625 0.0625 0.0625 0.0625;
   (far_left_down, inclin_3, dist_2, left) 0.0588235 0.0588235 0.0588235 0.0588235 0.117647 0.0588235 0.0588235 0.0588235 0.0588235 0.0588235 0.0588235 0.0588235 0.0588235 0.0588235 0.0588235 0.0588235;
   (close_right_down, inclin_4, dist_2, left) 0.0625 0.0625 0.0625 0.0625 0.0625 0.0625 0.0625 0.0625 0.0625 0.0625 0.0625 0.0625 0.0625 0.0625 0.0625 0.0625;
   (close_left_down, inclin_4, dist_2, left) 0.0625 0.0625 0.0625 0.0625 0.0625 0.0625 0.0625 0.0625 0.0625 0.0625 0.0625 0.0625 0.0625 0.0625 0.0625 0.0625;
   (left, inclin_4, dist_2, left) 0.047619 0.047619 0.047619 0.047619 0.285714 0.047619 0.047619 0.047619 0.047619 0.047619 0.047619 0.047619 0.047619 0.047619 0.047619 0.047619;
   (right, inclin_4, dist_2, left) 0.0625 0.0625 0.0625 0.0625 0.0625 0.0625 0.0625 0.0625 0.0625 0.0625 0.0625 0.0625 0.0625 0.0625 0.0625 0.0625;
   (down, inclin_4, dist_2, left) 0.0625 0.0625 0.0625 0.0625 0.0625 0.0625 0.0625 0.0625 0.0625 0.0625 0.0625 0.0625 0.0625 0.0625 0.0625 0.0625;
   (close, inclin_4, dist_2, left) 0.0625 0.0625 0.0625 0.0625 0.0625 0.0625 0.0625 0.0625 0.0625 0.0625 0.0625 0.0625 0.0625 0.0625 0.0625 0.0625;
   (close_down, inclin_4, dist_2, left) 0.0625 0.0625 0.0625 0.0625 0.0625 0.0625 0.0625 0.0625 0.0625 0.0625 0.0625 0.0625 0.0625 0.0625 0.0625 0.0625;
   (far_down, inclin_4, dist_2, left) 0.0625 0.0625 0.0625 0.0625 0.0625 0.0625 0.0625 0.0625 0.0625 0.0625 0.0625 0.0625 0.0625 0.0625 0.0625 0.0625;
   (far, inclin_4, dist_2, left) 0.0625 0.0625 0.0625 0.0625 0.0625 0.0625 0.0625 0.0625 0.0625 0.0625 0.0625 0.0625 0.0625 0.0625 0.0625 0.0625;
   (right_down, inclin_4, dist_2, left) 0.0625 0.0625 0.0625 0.0625 0.0625 0.0625 0.0625 0.0625 0.0625 0.0625 0.0625 0.0625 0.0625 0.0625 0.0625 0.0625;
   (left_down, inclin_4, dist_2, left) 0.0625 0.0625 0.0625 0.0625 0.0625 0.0625 0.0625 0.0625 0.0625 0.0625 0.0625 0.0625 0.0625 0.0625 0.0625 0.0625;
   (far_right_down, inclin_4, dist_2, left) 0.0625 0.0625 0.0625 0.0625 0.0625 0.0625 0.0625 0.0625 0.0625 0.0625 0.0625 0.0625 0.0625 0.0625 0.0625 0.0625;
   (far_left_down, inclin_4, dist_2, left) 0.0625 0.0625 0.0625 0.0625 0.0625 0.0625 0.0625 0.0625 0.0625 0.0625 0.0625 0.0625 0.0625 0.0625 0.0625 0.0625;
   (close_right_down, inclin_0, dist_2, left) 0.0625 0.0625 0.0625 0.0625 0.0625 0.0625 0.0625 0.0625 0.0625 0.0625 0.0625 0.0625 0.0625 0.0625 0.0625 0.0625;
   (close_left_down, inclin_0, dist_2, left) 0.0625 0.0625 0.0625 0.0625 0.0625 0.0625 0.0625 0.0625 0.0625 0.0625 0.0625 0.0625 0.0625 0.0625 0.0625 0.0625;
   (left, inclin_0, dist_2, left) 0.0625 0.0625 0.0625 0.0625 0.0625 0.0625 0.0625 0.0625 0.0625 0.0625 0.0625 0.0625 0.0625 0.0625 0.0625 0.0625;
   (right, inclin_0, dist_2, left) 0.0555556 0.0555556 0.0555556 0.0555556 0.0555556 0.0555556 0.0555556 0.0555556 0.166667 0.0555556 0.0555556 0.0555556 0.0555556 0.0555556 0.0555556 0.0555556;
   (down, inclin_0, dist_2, left) 0.0625 0.0625 0.0625 0.0625 0.0625 0.0625 0.0625 0.0625 0.0625 0.0625 0.0625 0.0625 0.0625 0.0625 0.0625 0.0625;
   (close, inclin_0, dist_2, left) 0.0625 0.0625 0.0625 0.0625 0.0625 0.0625 0.0625 0.0625 0.0625 0.0625 0.0625 0.0625 0.0625 0.0625 0.0625 0.0625;
   (close_down, inclin_0, dist_2, left) 0.0625 0.0625 0.0625 0.0625 0.0625 0.0625 0.0625 0.0625 0.0625 0.0625 0.0625 0.0625 0.0625 0.0625 0.0625 0.0625;
   (far_down, inclin_0, dist_2, left) 0.0625 0.0625 0.0625 0.0625 0.0625 0.0625 0.0625 0.0625 0.0625 0.0625 0.0625 0.0625 0.0625 0.0625 0.0625 0.0625;
   (far, inclin_0, dist_2, left) 0.0625 0.0625 0.0625 0.0625 0.0625 0.0625 0.0625 0.0625 0.0625 0.0625 0.0625 0.0625 0.0625 0.0625 0.0625 0.0625;
   (right_down, inclin_0, dist_2, left) 0.0555556 0.0555556 0.0555556 0.0555556 0.166667 0.0555556 0.0555556 0.0555556 0.0555556 0.0555556 0.0555556 0.0555556 0.0555556 0.0555556 0.0555556 0.0555556;
   (left_down, inclin_0, dist_2, left) 0.0625 0.0625 0.0625 0.0625 0.0625 0.0625 0.0625 0.0625 0.0625 0.0625 0.0625 0.0625 0.0625 0.0625 0.0625 0.0625;
   (far_right_down, inclin_0, dist_2, left) 0.0625 0.0625 0.0625 0.0625 0.0625 0.0625 0.0625 0.0625 0.0625 0.0625 0.0625 0.0625 0.0625 0.0625 0.0625 0.0625;
   (far_left_down, inclin_0, dist_2, left) 0.0625 0.0625 0.0625 0.0625 0.0625 0.0625 0.0625 0.0625 0.0625 0.0625 0.0625 0.0625 0.0625 0.0625 0.0625 0.0625;
   (close_right_down, inclin_1, dist_1, left) 0.0625 0.0625 0.0625 0.0625 0.0625 0.0625 0.0625 0.0625 0.0625 0.0625 0.0625 0.0625 0.0625 0.0625 0.0625 0.0625;
   (close_left_down, inclin_1, dist_1, left) 0.0625 0.0625 0.0625 0.0625 0.0625 0.0625 0.0625 0.0625 0.0625 0.0625 0.0625 0.0625 0.0625 0.0625 0.0625 0.0625;
   (left, inclin_1, dist_1, left) 0.0625 0.0625 0.0625 0.0625 0.0625 0.0625 0.0625 0.0625 0.0625 0.0625 0.0625 0.0625 0.0625 0.0625 0.0625 0.0625;
   (right, inclin_1, dist_1, left) 0.0625 0.0625 0.0625 0.0625 0.0625 0.0625 0.0625 0.0625 0.0625 0.0625 0.0625 0.0625 0.0625 0.0625 0.0625 0.0625;
   (down, inclin_1, dist_1, left) 0.0625 0.0625 0.0625 0.0625 0.0625 0.0625 0.0625 0.0625 0.0625 0.0625 0.0625 0.0625 0.0625 0.0625 0.0625 0.0625;
   (close, inclin_1, dist_1, left) 0.0625 0.0625 0.0625 0.0625 0.0625 0.0625 0.0625 0.0625 0.0625 0.0625 0.0625 0.0625 0.0625 0.0625 0.0625 0.0625;
   (close_down, inclin_1, dist_1, left) 0.0625 0.0625 0.0625 0.0625 0.0625 0.0625 0.0625 0.0625 0.0625 0.0625 0.0625 0.0625 0.0625 0.0625 0.0625 0.0625;
   (far_down, inclin_1, dist_1, left) 0.0625 0.0625 0.0625 0.0625 0.0625 0.0625 0.0625 0.0625 0.0625 0.0625 0.0625 0.0625 0.0625 0.0625 0.0625 0.0625;
   (far, inclin_1, dist_1, left) 0.0625 0.0625 0.0625 0.0625 0.0625 0.0625 0.0625 0.0625 0.0625 0.0625 0.0625 0.0625 0.0625 0.0625 0.0625 0.0625;
   (right_down, inclin_1, dist_1, left) 0.0625 0.0625 0.0625 0.0625 0.0625 0.0625 0.0625 0.0625 0.0625 0.0625 0.0625 0.0625 0.0625 0.0625 0.0625 0.0625;
   (left_down, inclin_1, dist_1, left) 0.0625 0.0625 0.0625 0.0625 0.0625 0.0625 0.0625 0.0625 0.0625 0.0625 0.0625 0.0625 0.0625 0.0625 0.0625 0.0625;
   (far_right_down, inclin_1, dist_1, left) 0.0625 0.0625 0.0625 0.0625 0.0625 0.0625 0.0625 0.0625 0.0625 0.0625 0.0625 0.0625 0.0625 0.0625 0.0625 0.0625;
   (far_left_down, inclin_1, dist_1, left) 0.0625 0.0625 0.0625 0.0625 0.0625 0.0625 0.0625 0.0625 0.0625 0.0625 0.0625 0.0625 0.0625 0.0625 0.0625 0.0625;
   (close_right_down, inclin_2, dist_1, left) 0.0625 0.0625 0.0625 0.0625 0.0625 0.0625 0.0625 0.0625 0.0625 0.0625 0.0625 0.0625 0.0625 0.0625 0.0625 0.0625;
   (close_left_down, inclin_2, dist_1, left) 0.0625 0.0625 0.0625 0.0625 0.0625 0.0625 0.0625 0.0625 0.0625 0.0625 0.0625 0.0625 0.0625 0.0625 0.0625 0.0625;
   (left, inclin_2, dist_1, left) 0.0625 0.0625 0.0625 0.0625 0.0625 0.0625 0.0625 0.0625 0.0625 0.0625 0.0625 0.0625 0.0625 0.0625 0.0625 0.0625;
   (right, inclin_2, dist_1, left) 0.0625 0.0625 0.0625 0.0625 0.0625 0.0625 0.0625 0.0625 0.0625 0.0625 0.0625 0.0625 0.0625 0.0625 0.0625 0.0625;
   (down, inclin_2, dist_1, left) 0.0625 0.0625 0.0625 0.0625 0.0625 0.0625 0.0625 0.0625 0.0625 0.0625 0.0625 0.0625 0.0625 0.0625 0.0625 0.0625;
   (close, inclin_2, dist_1, left) 0.0625 0.0625 0.0625 0.0625 0.0625 0.0625 0.0625 0.0625 0.0625 0.0625 0.0625 0.0625 0.0625 0.0625 0.0625 0.0625;
   (close_down, inclin_2, dist_1, left) 0.0625 0.0625 0.0625 0.0625 0.0625 0.0625 0.0625 0.0625 0.0625 0.0625 0.0625 0.0625 0.0625 0.0625 0.0625 0.0625;
   (far_down, inclin_2, dist_1, left) 0.0625 0.0625 0.0625 0.0625 0.0625 0.0625 0.0625 0.0625 0.0625 0.0625 0.0625 0.0625 0.0625 0.0625 0.0625 0.0625;
   (far, inclin_2, dist_1, left) 0.0625 0.0625 0.0625 0.0625 0.0625 0.0625 0.0625 0.0625 0.0625 0.0625 0.0625 0.0625 0.0625 0.0625 0.0625 0.0625;
   (right_down, inclin_2, dist_1, left) 0.0625 0.0625 0.0625 0.0625 0.0625 0.0625 0.0625 0.0625 0.0625 0.0625 0.0625 0.0625 0.0625 0.0625 0.0625 0.0625;
   (left_down, inclin_2, dist_1, left) 0.0625 0.0625 0.0625 0.0625 0.0625 0.0625 0.0625 0.0625 0.0625 0.0625 0.0625 0.0625 0.0625 0.0625 0.0625 0.0625;
   (far_right_down, inclin_2, dist_1, left) 0.0625 0.0625 0.0625 0.0625 0.0625 0.0625 0.0625 0.0625 0.0625 0.0625 0.0625 0.0625 0.0625 0.0625 0.0625 0.0625;
   (far_left_down, inclin_2, dist_1, left) 0.0625 0.0625 0.0625 0.0625 0.0625 0.0625 0.0625 0.0625 0.0625 0.0625 0.0625 0.0625 0.0625 0.0625 0.0625 0.0625;
   (close_right_down, inclin_3, dist_1, left) 0.0625 0.0625 0.0625 0.0625 0.0625 0.0625 0.0625 0.0625 0.0625 0.0625 0.0625 0.0625 0.0625 0.0625 0.0625 0.0625;
   (close_left_down, inclin_3, dist_1, left) 0.0625 0.0625 0.0625 0.0625 0.0625 0.0625 0.0625 0.0625 0.0625 0.0625 0.0625 0.0625 0.0625 0.0625 0.0625 0.0625;
   (left, inclin_3, dist_1, left) 0.0625 0.0625 0.0625 0.0625 0.0625 0.0625 0.0625 0.0625 0.0625 0.0625 0.0625 0.0625 0.0625 0.0625 0.0625 0.0625;
   (right, inclin_3, dist_1, left) 0.0625 0.0625 0.0625 0.0625 0.0625 0.0625 0.0625 0.0625 0.0625 0.0625 0.0625 0.0625 0.0625 0.0625 0.0625 0.0625;
   (down, inclin_3, dist_1, left) 0.0625 0.0625 0.0625 0.0625 0.0625 0.0625 0.0625 0.0625 0.0625 0.0625 0.0625 0.0625 0.0625 0.0625 0.0625 0.0625;
   (close, inclin_3, dist_1, left) 0.0625 0.0625 0.0625 0.0625 0.0625 0.0625 0.0625 0.0625 0.0625 0.0625 0.0625 0.0625 0.0625 0.0625 0.0625 0.0625;
   (close_down, inclin_3, dist_1, left) 0.0625 0.0625 0.0625 0.0625 0.0625 0.0625 0.0625 0.0625 0.0625 0.0625 0.0625 0.0625 0.0625 0.0625 0.0625 0.0625;
   (far_down, inclin_3, dist_1, left) 0.0625 0.0625 0.0625 0.0625 0.0625 0.0625 0.0625 0.0625 0.0625 0.0625 0.0625 0.0625 0.0625 0.0625 0.0625 0.0625;
   (far, inclin_3, dist_1, left) 0.0625 0.0625 0.0625 0.0625 0.0625 0.0625 0.0625 0.0625 0.0625 0.0625 0.0625 0.0625 0.0625 0.0625 0.0625 0.0625;
   (right_down, inclin_3, dist_1, left) 0.0625 0.0625 0.0625 0.0625 0.0625 0.0625 0.0625 0.0625 0.0625 0.0625 0.0625 0.0625 0.0625 0.0625 0.0625 0.0625;
   (left_down, inclin_3, dist_1, left) 0.0625 0.0625 0.0625 0.0625 0.0625 0.0625 0.0625 0.0625 0.0625 0.0625 0.0625 0.0625 0.0625 0.0625 0.0625 0.0625;
   (far_right_down, inclin_3, dist_1, left) 0.0625 0.0625 0.0625 0.0625 0.0625 0.0625 0.0625 0.0625 0.0625 0.0625 0.0625 0.0625 0.0625 0.0625 0.0625 0.0625;
   (far_left_down, inclin_3, dist_1, left) 0.0625 0.0625 0.0625 0.0625 0.0625 0.0625 0.0625 0.0625 0.0625 0.0625 0.0625 0.0625 0.0625 0.0625 0.0625 0.0625;
   (close_right_down, inclin_4, dist_1, left) 0.0625 0.0625 0.0625 0.0625 0.0625 0.0625 0.0625 0.0625 0.0625 0.0625 0.0625 0.0625 0.0625 0.0625 0.0625 0.0625;
   (close_left_down, inclin_4, dist_1, left) 0.0625 0.0625 0.0625 0.0625 0.0625 0.0625 0.0625 0.0625 0.0625 0.0625 0.0625 0.0625 0.0625 0.0625 0.0625 0.0625;
   (left, inclin_4, dist_1, left) 0.0416667 0.0416667 0.0416667 0.0416667 0.375 0.0416667 0.0416667 0.0416667 0.0416667 0.0416667 0.0416667 0.0416667 0.0416667 0.0416667 0.0416667 0.0416667;
   (right, inclin_4, dist_1, left) 0.0625 0.0625 0.0625 0.0625 0.0625 0.0625 0.0625 0.0625 0.0625 0.0625 0.0625 0.0625 0.0625 0.0625 0.0625 0.0625;
   (down, inclin_4, dist_1, left) 0.0625 0.0625 0.0625 0.0625 0.0625 0.0625 0.0625 0.0625 0.0625 0.0625 0.0625 0.0625 0.0625 0.0625 0.0625 0.0625;
   (close, inclin_4, dist_1, left) 0.0625 0.0625 0.0625 0.0625 0.0625 0.0625 0.0625 0.0625 0.0625 0.0625 0.0625 0.0625 0.0625 0.0625 0.0625 0.0625;
   (close_down, inclin_4, dist_1, left) 0.0625 0.0625 0.0625 0.0625 0.0625 0.0625 0.0625 0.0625 0.0625 0.0625 0.0625 0.0625 0.0625 0.0625 0.0625 0.0625;
   (far_down, inclin_4, dist_1, left) 0.0625 0.0625 0.0625 0.0625 0.0625 0.0625 0.0625 0.0625 0.0625 0.0625 0.0625 0.0625 0.0625 0.0625 0.0625 0.0625;
   (far, inclin_4, dist_1, left) 0.0625 0.0625 0.0625 0.0625 0.0625 0.0625 0.0625 0.0625 0.0625 0.0625 0.0625 0.0625 0.0625 0.0625 0.0625 0.0625;
   (right_down, inclin_4, dist_1, left) 0.0625 0.0625 0.0625 0.0625 0.0625 0.0625 0.0625 0.0625 0.0625 0.0625 0.0625 0.0625 0.0625 0.0625 0.0625 0.0625;
   (left_down, inclin_4, dist_1, left) 0.0625 0.0625 0.0625 0.0625 0.0625 0.0625 0.0625 0.0625 0.0625 0.0625 0.0625 0.0625 0.0625 0.0625 0.0625 0.0625;
   (far_right_down, inclin_4, dist_1, left) 0.0625 0.0625 0.0625 0.0625 0.0625 0.0625 0.0625 0.0625 0.0625 0.0625 0.0625 0.0625 0.0625 0.0625 0.0625 0.0625;
   (far_left_down, inclin_4, dist_1, left) 0.0625 0.0625 0.0625 0.0625 0.0625 0.0625 0.0625 0.0625 0.0625 0.0625 0.0625 0.0625 0.0625 0.0625 0.0625 0.0625;
   (close_right_down, inclin_0, dist_1, left) 0.0625 0.0625 0.0625 0.0625 0.0625 0.0625 0.0625 0.0625 0.0625 0.0625 0.0625 0.0625 0.0625 0.0625 0.0625 0.0625;
   (close_left_down, inclin_0, dist_1, left) 0.0625 0.0625 0.0625 0.0625 0.0625 0.0625 0.0625 0.0625 0.0625 0.0625 0.0625 0.0625 0.0625 0.0625 0.0625 0.0625;
   (left, inclin_0, dist_1, left) 0.0625 0.0625 0.0625 0.0625 0.0625 0.0625 0.0625 0.0625 0.0625 0.0625 0.0625 0.0625 0.0625 0.0625 0.0625 0.0625;
   (right, inclin_0, dist_1, left) 0.0625 0.0625 0.0625 0.0625 0.0625 0.0625 0.0625 0.0625 0.0625 0.0625 0.0625 0.0625 0.0625 0.0625 0.0625 0.0625;
   (down, inclin_0, dist_1, left) 0.0625 0.0625 0.0625 0.0625 0.0625 0.0625 0.0625 0.0625 0.0625 0.0625 0.0625 0.0625 0.0625 0.0625 0.0625 0.0625;
   (close, inclin_0, dist_1, left) 0.0625 0.0625 0.0625 0.0625 0.0625 0.0625 0.0625 0.0625 0.0625 0.0625 0.0625 0.0625 0.0625 0.0625 0.0625 0.0625;
   (close_down, inclin_0, dist_1, left) 0.0625 0.0625 0.0625 0.0625 0.0625 0.0625 0.0625 0.0625 0.0625 0.0625 0.0625 0.0625 0.0625 0.0625 0.0625 0.0625;
   (far_down, inclin_0, dist_1, left) 0.0625 0.0625 0.0625 0.0625 0.0625 0.0625 0.0625 0.0625 0.0625 0.0625 0.0625 0.0625 0.0625 0.0625 0.0625 0.0625;
   (far, inclin_0, dist_1, left) 0.0625 0.0625 0.0625 0.0625 0.0625 0.0625 0.0625 0.0625 0.0625 0.0625 0.0625 0.0625 0.0625 0.0625 0.0625 0.0625;
   (right_down, inclin_0, dist_1, left) 0.0625 0.0625 0.0625 0.0625 0.0625 0.0625 0.0625 0.0625 0.0625 0.0625 0.0625 0.0625 0.0625 0.0625 0.0625 0.0625;
   (left_down, inclin_0, dist_1, left) 0.0625 0.0625 0.0625 0.0625 0.0625 0.0625 0.0625 0.0625 0.0625 0.0625 0.0625 0.0625 0.0625 0.0625 0.0625 0.0625;
   (far_right_down, inclin_0, dist_1, left) 0.0625 0.0625 0.0625 0.0625 0.0625 0.0625 0.0625 0.0625 0.0625 0.0625 0.0625 0.0625 0.0625 0.0625 0.0625 0.0625;
   (far_left_down, inclin_0, dist_1, left) 0.0625 0.0625 0.0625 0.0625 0.0625 0.0625 0.0625 0.0625 0.0625 0.0625 0.0625 0.0625 0.0625 0.0625 0.0625 0.0625;
   (close_right_down, inclin_1, dist_0, left) 0.0625 0.0625 0.0625 0.0625 0.0625 0.0625 0.0625 0.0625 0.0625 0.0625 0.0625 0.0625 0.0625 0.0625 0.0625 0.0625;
   (close_left_down, inclin_1, dist_0, left) 0.0625 0.0625 0.0625 0.0625 0.0625 0.0625 0.0625 0.0625 0.0625 0.0625 0.0625 0.0625 0.0625 0.0625 0.0625 0.0625;
   (left, inclin_1, dist_0, left) 0.0625 0.0625 0.0625 0.0625 0.0625 0.0625 0.0625 0.0625 0.0625 0.0625 0.0625 0.0625 0.0625 0.0625 0.0625 0.0625;
   (right, inclin_1, dist_0, left) 0.0625 0.0625 0.0625 0.0625 0.0625 0.0625 0.0625 0.0625 0.0625 0.0625 0.0625 0.0625 0.0625 0.0625 0.0625 0.0625;
   (down, inclin_1, dist_0, left) 0.0625 0.0625 0.0625 0.0625 0.0625 0.0625 0.0625 0.0625 0.0625 0.0625 0.0625 0.0625 0.0625 0.0625 0.0625 0.0625;
   (close, inclin_1, dist_0, left) 0.0625 0.0625 0.0625 0.0625 0.0625 0.0625 0.0625 0.0625 0.0625 0.0625 0.0625 0.0625 0.0625 0.0625 0.0625 0.0625;
   (close_down, inclin_1, dist_0, left) 0.0625 0.0625 0.0625 0.0625 0.0625 0.0625 0.0625 0.0625 0.0625 0.0625 0.0625 0.0625 0.0625 0.0625 0.0625 0.0625;
   (far_down, inclin_1, dist_0, left) 0.0625 0.0625 0.0625 0.0625 0.0625 0.0625 0.0625 0.0625 0.0625 0.0625 0.0625 0.0625 0.0625 0.0625 0.0625 0.0625;
   (far, inclin_1, dist_0, left) 0.0625 0.0625 0.0625 0.0625 0.0625 0.0625 0.0625 0.0625 0.0625 0.0625 0.0625 0.0625 0.0625 0.0625 0.0625 0.0625;
   (right_down, inclin_1, dist_0, left) 0.0625 0.0625 0.0625 0.0625 0.0625 0.0625 0.0625 0.0625 0.0625 0.0625 0.0625 0.0625 0.0625 0.0625 0.0625 0.0625;
   (left_down, inclin_1, dist_0, left) 0.0625 0.0625 0.0625 0.0625 0.0625 0.0625 0.0625 0.0625 0.0625 0.0625 0.0625 0.0625 0.0625 0.0625 0.0625 0.0625;
   (far_right_down, inclin_1, dist_0, left) 0.0625 0.0625 0.0625 0.0625 0.0625 0.0625 0.0625 0.0625 0.0625 0.0625 0.0625 0.0625 0.0625 0.0625 0.0625 0.0625;
   (far_left_down, inclin_1, dist_0, left) 0.0625 0.0625 0.0625 0.0625 0.0625 0.0625 0.0625 0.0625 0.0625 0.0625 0.0625 0.0625 0.0625 0.0625 0.0625 0.0625;
   (close_right_down, inclin_2, dist_0, left) 0.0625 0.0625 0.0625 0.0625 0.0625 0.0625 0.0625 0.0625 0.0625 0.0625 0.0625 0.0625 0.0625 0.0625 0.0625 0.0625;
   (close_left_down, inclin_2, dist_0, left) 0.0625 0.0625 0.0625 0.0625 0.0625 0.0625 0.0625 0.0625 0.0625 0.0625 0.0625 0.0625 0.0625 0.0625 0.0625 0.0625;
   (left, inclin_2, dist_0, left) 0.0625 0.0625 0.0625 0.0625 0.0625 0.0625 0.0625 0.0625 0.0625 0.0625 0.0625 0.0625 0.0625 0.0625 0.0625 0.0625;
   (right, inclin_2, dist_0, left) 0.0625 0.0625 0.0625 0.0625 0.0625 0.0625 0.0625 0.0625 0.0625 0.0625 0.0625 0.0625 0.0625 0.0625 0.0625 0.0625;
   (down, inclin_2, dist_0, left) 0.0625 0.0625 0.0625 0.0625 0.0625 0.0625 0.0625 0.0625 0.0625 0.0625 0.0625 0.0625 0.0625 0.0625 0.0625 0.0625;
   (close, inclin_2, dist_0, left) 0.0625 0.0625 0.0625 0.0625 0.0625 0.0625 0.0625 0.0625 0.0625 0.0625 0.0625 0.0625 0.0625 0.0625 0.0625 0.0625;
   (close_down, inclin_2, dist_0, left) 0.0625 0.0625 0.0625 0.0625 0.0625 0.0625 0.0625 0.0625 0.0625 0.0625 0.0625 0.0625 0.0625 0.0625 0.0625 0.0625;
   (far_down, inclin_2, dist_0, left) 0.0625 0.0625 0.0625 0.0625 0.0625 0.0625 0.0625 0.0625 0.0625 0.0625 0.0625 0.0625 0.0625 0.0625 0.0625 0.0625;
   (far, inclin_2, dist_0, left) 0.0625 0.0625 0.0625 0.0625 0.0625 0.0625 0.0625 0.0625 0.0625 0.0625 0.0625 0.0625 0.0625 0.0625 0.0625 0.0625;
   (right_down, inclin_2, dist_0, left) 0.0625 0.0625 0.0625 0.0625 0.0625 0.0625 0.0625 0.0625 0.0625 0.0625 0.0625 0.0625 0.0625 0.0625 0.0625 0.0625;
   (left_down, inclin_2, dist_0, left) 0.0625 0.0625 0.0625 0.0625 0.0625 0.0625 0.0625 0.0625 0.0625 0.0625 0.0625 0.0625 0.0625 0.0625 0.0625 0.0625;
   (far_right_down, inclin_2, dist_0, left) 0.0625 0.0625 0.0625 0.0625 0.0625 0.0625 0.0625 0.0625 0.0625 0.0625 0.0625 0.0625 0.0625 0.0625 0.0625 0.0625;
   (far_left_down, inclin_2, dist_0, left) 0.0625 0.0625 0.0625 0.0625 0.0625 0.0625 0.0625 0.0625 0.0625 0.0625 0.0625 0.0625 0.0625 0.0625 0.0625 0.0625;
   (close_right_down, inclin_3, dist_0, left) 0.0625 0.0625 0.0625 0.0625 0.0625 0.0625 0.0625 0.0625 0.0625 0.0625 0.0625 0.0625 0.0625 0.0625 0.0625 0.0625;
   (close_left_down, inclin_3, dist_0, left) 0.0625 0.0625 0.0625 0.0625 0.0625 0.0625 0.0625 0.0625 0.0625 0.0625 0.0625 0.0625 0.0625 0.0625 0.0625 0.0625;
   (left, inclin_3, dist_0, left) 0.0625 0.0625 0.0625 0.0625 0.0625 0.0625 0.0625 0.0625 0.0625 0.0625 0.0625 0.0625 0.0625 0.0625 0.0625 0.0625;
   (right, inclin_3, dist_0, left) 0.0625 0.0625 0.0625 0.0625 0.0625 0.0625 0.0625 0.0625 0.0625 0.0625 0.0625 0.0625 0.0625 0.0625 0.0625 0.0625;
   (down, inclin_3, dist_0, left) 0.0625 0.0625 0.0625 0.0625 0.0625 0.0625 0.0625 0.0625 0.0625 0.0625 0.0625 0.0625 0.0625 0.0625 0.0625 0.0625;
   (close, inclin_3, dist_0, left) 0.0625 0.0625 0.0625 0.0625 0.0625 0.0625 0.0625 0.0625 0.0625 0.0625 0.0625 0.0625 0.0625 0.0625 0.0625 0.0625;
   (close_down, inclin_3, dist_0, left) 0.0625 0.0625 0.0625 0.0625 0.0625 0.0625 0.0625 0.0625 0.0625 0.0625 0.0625 0.0625 0.0625 0.0625 0.0625 0.0625;
   (far_down, inclin_3, dist_0, left) 0.0625 0.0625 0.0625 0.0625 0.0625 0.0625 0.0625 0.0625 0.0625 0.0625 0.0625 0.0625 0.0625 0.0625 0.0625 0.0625;
   (far, inclin_3, dist_0, left) 0.0625 0.0625 0.0625 0.0625 0.0625 0.0625 0.0625 0.0625 0.0625 0.0625 0.0625 0.0625 0.0625 0.0625 0.0625 0.0625;
   (right_down, inclin_3, dist_0, left) 0.0625 0.0625 0.0625 0.0625 0.0625 0.0625 0.0625 0.0625 0.0625 0.0625 0.0625 0.0625 0.0625 0.0625 0.0625 0.0625;
   (left_down, inclin_3, dist_0, left) 0.0625 0.0625 0.0625 0.0625 0.0625 0.0625 0.0625 0.0625 0.0625 0.0625 0.0625 0.0625 0.0625 0.0625 0.0625 0.0625;
   (far_right_down, inclin_3, dist_0, left) 0.0625 0.0625 0.0625 0.0625 0.0625 0.0625 0.0625 0.0625 0.0625 0.0625 0.0625 0.0625 0.0625 0.0625 0.0625 0.0625;
   (far_left_down, inclin_3, dist_0, left) 0.0625 0.0625 0.0625 0.0625 0.0625 0.0625 0.0625 0.0625 0.0625 0.0625 0.0625 0.0625 0.0625 0.0625 0.0625 0.0625;
   (close_right_down, inclin_4, dist_0, left) 0.0625 0.0625 0.0625 0.0625 0.0625 0.0625 0.0625 0.0625 0.0625 0.0625 0.0625 0.0625 0.0625 0.0625 0.0625 0.0625;
   (close_left_down, inclin_4, dist_0, left) 0.0625 0.0625 0.0625 0.0625 0.0625 0.0625 0.0625 0.0625 0.0625 0.0625 0.0625 0.0625 0.0625 0.0625 0.0625 0.0625;
   (left, inclin_4, dist_0, left) 0.05 0.05 0.05 0.05 0.25 0.05 0.05 0.05 0.05 0.05 0.05 0.05 0.05 0.05 0.05 0.05;
   (right, inclin_4, dist_0, left) 0.0625 0.0625 0.0625 0.0625 0.0625 0.0625 0.0625 0.0625 0.0625 0.0625 0.0625 0.0625 0.0625 0.0625 0.0625 0.0625;
   (down, inclin_4, dist_0, left) 0.0625 0.0625 0.0625 0.0625 0.0625 0.0625 0.0625 0.0625 0.0625 0.0625 0.0625 0.0625 0.0625 0.0625 0.0625 0.0625;
   (close, inclin_4, dist_0, left) 0.0625 0.0625 0.0625 0.0625 0.0625 0.0625 0.0625 0.0625 0.0625 0.0625 0.0625 0.0625 0.0625 0.0625 0.0625 0.0625;
   (close_down, inclin_4, dist_0, left) 0.0625 0.0625 0.0625 0.0625 0.0625 0.0625 0.0625 0.0625 0.0625 0.0625 0.0625 0.0625 0.0625 0.0625 0.0625 0.0625;
   (far_down, inclin_4, dist_0, left) 0.0625 0.0625 0.0625 0.0625 0.0625 0.0625 0.0625 0.0625 0.0625 0.0625 0.0625 0.0625 0.0625 0.0625 0.0625 0.0625;
   (far, inclin_4, dist_0, left) 0.0625 0.0625 0.0625 0.0625 0.0625 0.0625 0.0625 0.0625 0.0625 0.0625 0.0625 0.0625 0.0625 0.0625 0.0625 0.0625;
   (right_down, inclin_4, dist_0, left) 0.0625 0.0625 0.0625 0.0625 0.0625 0.0625 0.0625 0.0625 0.0625 0.0625 0.0625 0.0625 0.0625 0.0625 0.0625 0.0625;
   (left_down, inclin_4, dist_0, left) 0.0625 0.0625 0.0625 0.0625 0.0625 0.0625 0.0625 0.0625 0.0625 0.0625 0.0625 0.0625 0.0625 0.0625 0.0625 0.0625;
   (far_right_down, inclin_4, dist_0, left) 0.0625 0.0625 0.0625 0.0625 0.0625 0.0625 0.0625 0.0625 0.0625 0.0625 0.0625 0.0625 0.0625 0.0625 0.0625 0.0625;
   (far_left_down, inclin_4, dist_0, left) 0.0625 0.0625 0.0625 0.0625 0.0625 0.0625 0.0625 0.0625 0.0625 0.0625 0.0625 0.0625 0.0625 0.0625 0.0625 0.0625;
   (close_right_down, inclin_0, dist_0, left) 0.0625 0.0625 0.0625 0.0625 0.0625 0.0625 0.0625 0.0625 0.0625 0.0625 0.0625 0.0625 0.0625 0.0625 0.0625 0.0625;
   (close_left_down, inclin_0, dist_0, left) 0.0625 0.0625 0.0625 0.0625 0.0625 0.0625 0.0625 0.0625 0.0625 0.0625 0.0625 0.0625 0.0625 0.0625 0.0625 0.0625;
   (left, inclin_0, dist_0, left) 0.0625 0.0625 0.0625 0.0625 0.0625 0.0625 0.0625 0.0625 0.0625 0.0625 0.0625 0.0625 0.0625 0.0625 0.0625 0.0625;
   (right, inclin_0, dist_0, left) 0.0625 0.0625 0.0625 0.0625 0.0625 0.0625 0.0625 0.0625 0.0625 0.0625 0.0625 0.0625 0.0625 0.0625 0.0625 0.0625;
   (down, inclin_0, dist_0, left) 0.0625 0.0625 0.0625 0.0625 0.0625 0.0625 0.0625 0.0625 0.0625 0.0625 0.0625 0.0625 0.0625 0.0625 0.0625 0.0625;
   (close, inclin_0, dist_0, left) 0.0625 0.0625 0.0625 0.0625 0.0625 0.0625 0.0625 0.0625 0.0625 0.0625 0.0625 0.0625 0.0625 0.0625 0.0625 0.0625;
   (close_down, inclin_0, dist_0, left) 0.0625 0.0625 0.0625 0.0625 0.0625 0.0625 0.0625 0.0625 0.0625 0.0625 0.0625 0.0625 0.0625 0.0625 0.0625 0.0625;
   (far_down, inclin_0, dist_0, left) 0.0625 0.0625 0.0625 0.0625 0.0625 0.0625 0.0625 0.0625 0.0625 0.0625 0.0625 0.0625 0.0625 0.0625 0.0625 0.0625;
   (far, inclin_0, dist_0, left) 0.0625 0.0625 0.0625 0.0625 0.0625 0.0625 0.0625 0.0625 0.0625 0.0625 0.0625 0.0625 0.0625 0.0625 0.0625 0.0625;
   (right_down, inclin_0, dist_0, left) 0.0625 0.0625 0.0625 0.0625 0.0625 0.0625 0.0625 0.0625 0.0625 0.0625 0.0625 0.0625 0.0625 0.0625 0.0625 0.0625;
   (left_down, inclin_0, dist_0, left) 0.0625 0.0625 0.0625 0.0625 0.0625 0.0625 0.0625 0.0625 0.0625 0.0625 0.0625 0.0625 0.0625 0.0625 0.0625 0.0625;
   (far_right_down, inclin_0, dist_0, left) 0.0625 0.0625 0.0625 0.0625 0.0625 0.0625 0.0625 0.0625 0.0625 0.0625 0.0625 0.0625 0.0625 0.0625 0.0625 0.0625;
   (far_left_down, inclin_0, dist_0, left) 0.0625 0.0625 0.0625 0.0625 0.0625 0.0625 0.0625 0.0625 0.0625 0.0625 0.0625 0.0625 0.0625 0.0625 0.0625 0.0625;
   (close_right_down, inclin_1, dist_2, right) 0.0625 0.0625 0.0625 0.0625 0.0625 0.0625 0.0625 0.0625 0.0625 0.0625 0.0625 0.0625 0.0625 0.0625 0.0625 0.0625;
   (close_left_down, inclin_1, dist_2, right) 0.157895 0.0526316 0.0526316 0.0526316 0.0526316 0.105263 0.0526316 0.0526316 0.0526316 0.0526316 0.0526316 0.0526316 0.0526316 0.0526316 0.0526316 0.0526316;
   (left, inclin_1, dist_2, right) 0.0526316 0.0526316 0.0526316 0.0526316 0.210526 0.0526316 0.0526316 0.0526316 0.0526316 0.0526316 0.0526316 0.0526316 0.0526316 0.0526316 0.0526316 0.0526316;
   (right, inclin_1, dist_2, right) 0.0625 0.0625 0.0625 0.0625 0.0625 0.0625 0.0625 0.0625 0.0625 0.0625 0.0625 0.0625 0.0625 0.0625 0.0625 0.0625;
   (down, inclin_1, dist_2, right) 0.0555556 0.0555556 0.0555556 0.0555556 0.0555556 0.0555556 0.0555556 0.0555556 0.166667 0.0555556 0.0555556 0.0555556 0.0555556 0.0555556 0.0555556 0.0555556;
   (close, inclin_1, dist_2, right) 0.0625 0.0625 0.0625 0.0625 0.0625 0.0625 0.0625 0.0625 0.0625 0.0625 0.0625 0.0625 0.0625 0.0625 0.0625 0.0625;
   (close_down, inclin_1, dist_2, right) 0.0625 0.0625 0.0625 0.0625 0.0625 0.0625 0.0625 0.0625 0.0625 0.0625 0.0625 0.0625 0.0625 0.0625 0.0625 0.0625;
   (far_down, inclin_1, dist_2, right) 0.0625 0.0625 0.0625 0.0625 0.0625 0.0625 0.0625 0.0625 0.0625 0.0625 0.0625 0.0625 0.0625 0.0625 0.0625 0.0625;
   (far, inclin_1, dist_2, right) 0.0625 0.0625 0.0625 0.0625 0.0625 0.0625 0.0625 0.0625 0.0625 0.0625 0.0625 0.0625 0.0625 0.0625 0.0625 0.0625;
   (right_down, inclin_1, dist_2, right) 0.0625 0.0625 0.0625 0.0625 0.0625 0.0625 0.0625 0.0625 0.0625 0.0625 0.0625 0.0625 0.0625 0.0625 0.0625 0.0625;
   (left_down, inclin_1, dist_2, right) 0.0555556 0.0555556 0.0555556 0.0555556 0.0555556 0.0555556 0.0555556 0.0555556 0.166667 0.0555556 0.0555556 0.0555556 0.0555556 0.0555556 0.0555556 0.0555556;
   (far_right_down, inclin_1, dist_2, right) 0.0625 0.0625 0.0625 0.0625 0.0625 0.0625 0.0625 0.0625 0.0625 0.0625 0.0625 0.0625 0.0625 0.0625 0.0625 0.0625;
   (far_left_down, inclin_1, dist_2, right) 0.0526316 0.0526316 0.0526316 0.0526316 0.0526316 0.0526316 0.0526316 0.0526316 0.0526316 0.157895 0.0526316 0.0526316 0.105263 0.0526316 0.0526316 0.0526316;
   (close_right_down, inclin_2, dist_2, right) 0.0625 0.0625 0.0625 0.0625 0.0625 0.0625 0.0625 0.0625 0.0625 0.0625 0.0625 0.0625 0.0625 0.0625 0.0625 0.0625;
   (close_left_down, inclin_2, dist_2, right) 0.0526316 0.0526316 0.0526316 0.0526316 0.0526316 0.0526316 0.105263 0.157895 0.0526316 0.0526316 0.0526316 0.0526316 0.0526316 0.0526316 0.0526316 0.0526316;
   (left, inclin_2, dist_2, right) 0.0625 0.0625 0.0625 0.0625 0.0625 0.0625 0.0625 0.0625 0.0625 0.0625 0.0625 0.0625 0.0625 0.0625 0.0625 0.0625;
   (right, inclin_2, dist_2, right) 0.0625 0.0625 0.0625 0.0625 0.0625 0.0625 0.0625 0.0625 0.0625 0.0625 0.0625 0.0625 0.0625 0.0625 0.0625 0.0625;
   (down, inclin_2, dist_2, right) 0.0555556 0.0555556 0.0555556 0.0555556 0.0555556 0.0555556 0.0555556 0.0555556 0.166667 0.0555556 0.0555556 0.0555556 0.0555556 0.0555556 0.0555556 0.0555556;
   (close, inclin_2, dist_2, right) 0.0625 0.0625 0.0625 0.0625 0.0625 0.0625 0.0625 0.0625 0.0625 0.0625 0.0625 0.0625 0.0625 0.0625 0.0625 0.0625;
   (close_down, inclin_2, dist_2, right) 0.0625 0.0625 0.0625 0.0625 0.0625 0.0625 0.0625 0.0625 0.0625 0.0625 0.0625 0.0625 0.0625 0.0625 0.0625 0.0625;
   (far_down, inclin_2, dist_2, right) 0.0625 0.0625 0.0625 0.0625 0.0625 0.0625 0.0625 0.0625 0.0625 0.0625 0.0625 0.0625 0.0625 0.0625 0.0625 0.0625;
   (far, inclin_2, dist_2, right) 0.0625 0.0625 0.0625 0.0625 0.0625 0.0625 0.0625 0.0625 0.0625 0.0625 0.0625 0.0625 0.0625 0.0625 0.0625 0.0625;
   (right_down, inclin_2, dist_2, right) 0.0625 0.0625 0.0625 0.0625 0.0625 0.0625 0.0625 0.0625 0.0625 0.0625 0.0625 0.0625 0.0625 0.0625 0.0625 0.0625;
   (left_down, inclin_2, dist_2, right) 0.0555556 0.0555556 0.0555556 0.0555556 0.0555556 0.0555556 0.0555556 0.0555556 0.166667 0.0555556 0.0555556 0.0555556 0.0555556 0.0555556 0.0555556 0.0555556;
   (far_right_down, inclin_2, dist_2, right) 0.0625 0.0625 0.0625 0.0625 0.0625 0.0625 0.0625 0.0625 0.0625 0.0625 0.0625 0.0625 0.0625 0.0625 0.0625 0.0625;
   (far_left_down, inclin_2, dist_2, right) 0.0526316 0.0526316 0.0526316 0.0526316 0.0526316 0.0526316 0.0526316 0.0526316 0.0526316 0.0526316 0.157895 0.105263 0.0526316 0.0526316 0.0526316 0.0526316;
   (close_right_down, inclin_3, dist_2, right) 0.0588235 0.0588235 0.0588235 0.0588235 0.0588235 0.0588235 0.0588235 0.0588235 0.117647 0.0588235 0.0588235 0.0588235 0.0588235 0.0588235 0.0588235 0.0588235;
   (close_left_down, inclin_3, dist_2, right) 0.0625 0.0625 0.0625 0.0625 0.0625 0.0625 0.0625 0.0625 0.0625 0.0625 0.0625 0.0625 0.0625 0.0625 0.0625 0.0625;
   (left, inclin_3, dist_2, right) 0.0625 0.0625 0.0625 0.0625 0.0625 0.0625 0.0625 0.0625 0.0625 0.0625 0.0625 0.0625 0.0625 0.0625 0.0625 0.0625;
   (right, inclin_3, dist_2, right) 0.0625 0.0625 0.0625 0.0625 0.0625 0.0625 0.0625 0.0625 0.0625 0.0625 0.0625 0.0625 0.0625 0.0625 0.0625 0.0625;
   (down, inclin_3, dist_2, right) 0.0555556 0.0555556 0.0555556 0.0555556 0.0555556 0.0555556 0.0555556 0.0555556 0.166667 0.0555556 0.0555556 0.0555556 0.0555556 0.0555556 0.0555556 0.0555556;
   (close, inclin_3, dist_2, right) 0.0625 0.0625 0.0625 0.0625 0.0625 0.0625 0.0625 0.0625 0.0625 0.0625 0.0625 0.0625 0.0625 0.0625 0.0625 0.0625;
   (close_down, inclin_3, dist_2, right) 0.0625 0.0625 0.0625 0.0625 0.0625 0.0625 0.0625 0.0625 0.0625 0.0625 0.0625 0.0625 0.0625 0.0625 0.0625 0.0625;
   (far_down, inclin_3, dist_2, right) 0.0625 0.0625 0.0625 0.0625 0.0625 0.0625 0.0625 0.0625 0.0625 0.0625 0.0625 0.0625 0.0625 0.0625 0.0625 0.0625;
   (far, inclin_3, dist_2, right) 0.0625 0.0625 0.0625 0.0625 0.0625 0.0625 0.0625 0.0625 0.0625 0.0625 0.0625 0.0625 0.0625 0.0625 0.0625 0.0625;
   (right_down, inclin_3, dist_2, right) 0.0588235 0.0588235 0.0588235 0.0588235 0.0588235 0.0588235 0.0588235 0.0588235 0.117647 0.0588235 0.0588235 0.0588235 0.0588235 0.0588235 0.0588235 0.0588235;
   (left_down, inclin_3, dist_2, right) 0.0625 0.0625 0.0625 0.0625 0.0625 0.0625 0.0625 0.0625 0.0625 0.0625 0.0625 0.0625 0.0625 0.0625 0.0625 0.0625;
   (far_right_down, inclin_3, dist_2, right) 0.0588235 0.0588235 0.0588235 0.0588235 0.0588235 0.0588235 0.0588235 0.0588235 0.117647 0.0588235 0.0588235 0.0588235 0.0588235 0.0588235 0.0588235 0.0588235;
   (far_left_down, inclin_3, dist_2, right) 0.0625 0.0625 0.0625 0.0625 0.0625 0.0625 0.0625 0.0625 0.0625 0.0625 0.0625 0.0625 0.0625 0.0625 0.0625 0.0625;
   (close_right_down, inclin_4, dist_2, right) 0.0625 0.0625 0.0625 0.0625 0.0625 0.0625 0.0625 0.0625 0.0625 0.0625 0.0625 0.0625 0.0625 0.0625 0.0625 0.0625;
   (close_left_down, inclin_4, dist_2, right) 0.0625 0.0625 0.0625 0.0625 0.0625 0.0625 0.0625 0.0625 0.0625 0.0625 0.0625 0.0625 0.0625 0.0625 0.0625 0.0625;
   (left, inclin_4, dist_2, right) 0.0625 0.0625 0.0625 0.0625 0.0625 0.0625 0.0625 0.0625 0.0625 0.0625 0.0625 0.0625 0.0625 0.0625 0.0625 0.0625;
   (right, inclin_4, dist_2, right) 0.047619 0.047619 0.047619 0.047619 0.047619 0.047619 0.047619 0.047619 0.285714 0.047619 0.047619 0.047619 0.047619 0.047619 0.047619 0.047619;
   (down, inclin_4, dist_2, right) 0.0625 0.0625 0.0625 0.0625 0.0625 0.0625 0.0625 0.0625 0.0625 0.0625 0.0625 0.0625 0.0625 0.0625 0.0625 0.0625;
   (close, inclin_4, dist_2, right) 0.0625 0.0625 0.0625 0.0625 0.0625 0.0625 0.0625 0.0625 0.0625 0.0625 0.0625 0.0625 0.0625 0.0625 0.0625 0.0625;
   (close_down, inclin_4, dist_2, right) 0.0625 0.0625 0.0625 0.0625 0.0625 0.0625 0.0625 0.0625 0.0625 0.0625 0.0625 0.0625 0.0625 0.0625 0.0625 0.0625;
   (far_down, inclin_4, dist_2, right) 0.0625 0.0625 0.0625 0.0625 0.0625 0.0625 0.0625 0.0625 0.0625 0.0625 0.0625 0.0625 0.0625 0.0625 0.0625 0.0625;
   (far, inclin_4, dist_2, right) 0.0625 0.0625 0.0625 0.0625 0.0625 0.0625 0.0625 0.0625 0.0625 0.0625 0.0625 0.0625 0.0625 0.0625 0.0625 0.0625;
   (right_down, inclin_4, dist_2, right) 0.0625 0.0625 0.0625 0.0625 0.0625 0.0625 0.0625 0.0625 0.0625 0.0625 0.0625 0.0625 0.0625 0.0625 0.0625 0.0625;
   (left_down, inclin_4, dist_2, right) 0.0625 0.0625 0.0625 0.0625 0.0625 0.0625 0.0625 0.0625 0.0625 0.0625 0.0625 0.0625 0.0625 0.0625 0.0625 0.0625;
   (far_right_down, inclin_4, dist_2, right) 0.0625 0.0625 0.0625 0.0625 0.0625 0.0625 0.0625 0.0625 0.0625 0.0625 0.0625 0.0625 0.0625 0.0625 0.0625 0.0625;
   (far_left_down, inclin_4, dist_2, right) 0.0625 0.0625 0.0625 0.0625 0.0625 0.0625 0.0625 0.0625 0.0625 0.0625 0.0625 0.0625 0.0625 0.0625 0.0625 0.0625;
   (close_right_down, inclin_0, dist_2, right) 0.0625 0.0625 0.0625 0.0625 0.0625 0.0625 0.0625 0.0625 0.0625 0.0625 0.0625 0.0625 0.0625 0.0625 0.0625 0.0625;
   (close_left_down, inclin_0, dist_2, right) 0.0625 0.0625 0.0625 0.0625 0.0625 0.0625 0.0625 0.0625 0.0625 0.0625 0.0625 0.0625 0.0625 0.0625 0.0625 0.0625;
   (left, inclin_0, dist_2, right) 0.0555556 0.0555556 0.0555556 0.0555556 0.166667 0.0555556 0.0555556 0.0555556 0.0555556 0.0555556 0.0555556 0.0555556 0.0555556 0.0555556 0.0555556 0.0555556;
   (right, inclin_0, dist_2, right) 0.0625 0.0625 0.0625 0.0625 0.0625 0.0625 0.0625 0.0625 0.0625 0.0625 0.0625 0.0625 0.0625 0.0625 0.0625 0.0625;
   (down, inclin_0, dist_2, right) 0.0625 0.0625 0.0625 0.0625 0.0625 0.0625 0.0625 0.0625 0.0625 0.0625 0.0625 0.0625 0.0625 0.0625 0.0625 0.0625;
   (close, inclin_0, dist_2, right) 0.0625 0.0625 0.0625 0.0625 0.0625 0.0625 0.0625 0.0625 0.0625 0.0625 0.0625 0.0625 0.0625 0.0625 0.0625 0.0625;
   (close_down, inclin_0, dist_2, right) 0.0625 0.0625 0.0625 0.0625 0.0625 0.0625 0.0625 0.0625 0.0625 0.0625 0.0625 0.0625 0.0625 0.0625 0.0625 0.0625;
   (far_down, inclin_0, dist_2, right) 0.0625 0.0625 0.0625 0.0625 0.0625 0.0625 0.0625 0.0625 0.0625 0.0625 0.0625 0.0625 0.0625 0.0625 0.0625 0.0625;
   (far, inclin_0, dist_2, right) 0.0625 0.0625 0.0625 0.0625 0.0625 0.0625 0.0625 0.0625 0.0625 0.0625 0.0625 0.0625 0.0625 0.0625 0.0625 0.0625;
   (right_down, inclin_0, dist_2, right) 0.0625 0.0625 0.0625 0.0625 0.0625 0.0625 0.0625 0.0625 0.0625 0.0625 0.0625 0.0625 0.0625 0.0625 0.0625 0.0625;
   (left_down, inclin_0, dist_2, right) 0.0555556 0.0555556 0.0555556 0.0555556 0.0555556 0.0555556 0.0555556 0.0555556 0.166667 0.0555556 0.0555556 0.0555556 0.0555556 0.0555556 0.0555556 0.0555556;
   (far_right_down, inclin_0, dist_2, right) 0.0625 0.0625 0.0625 0.0625 0.0625 0.0625 0.0625 0.0625 0.0625 0.0625 0.0625 0.0625 0.0625 0.0625 0.0625 0.0625;
   (far_left_down, inclin_0, dist_2, right) 0.0625 0.0625 0.0625 0.0625 0.0625 0.0625 0.0625 0.0625 0.0625 0.0625 0.0625 0.0625 0.0625 0.0625 0.0625 0.0625;
   (close_right_down, inclin_1, dist_1, right) 0.0625 0.0625 0.0625 0.0625 0.0625 0.0625 0.0625 0.0625 0.0625 0.0625 0.0625 0.0625 0.0625 0.0625 0.0625 0.0625;
   (close_left_down, inclin_1, dist_1, right) 0.0625 0.0625 0.0625 0.0625 0.0625 0.0625 0.0625 0.0625 0.0625 0.0625 0.0625 0.0625 0.0625 0.0625 0.0625 0.0625;
   (left, inclin_1, dist_1, right) 0.0625 0.0625 0.0625 0.0625 0.0625 0.0625 0.0625 0.0625 0.0625 0.0625 0.0625 0.0625 0.0625 0.0625 0.0625 0.0625;
   (right, inclin_1, dist_1, right) 0.0625 0.0625 0.0625 0.0625 0.0625 0.0625 0.0625 0.0625 0.0625 0.0625 0.0625 0.0625 0.0625 0.0625 0.0625 0.0625;
   (down, inclin_1, dist_1, right) 0.0625 0.0625 0.0625 0.0625 0.0625 0.0625 0.0625 0.0625 0.0625 0.0625 0.0625 0.0625 0.0625 0.0625 0.0625 0.0625;
   (close, inclin_1, dist_1, right) 0.0625 0.0625 0.0625 0.0625 0.0625 0.0625 0.0625 0.0625 0.0625 0.0625 0.0625 0.0625 0.0625 0.0625 0.0625 0.0625;
   (close_down, inclin_1, dist_1, right) 0.0625 0.0625 0.0625 0.0625 0.0625 0.0625 0.0625 0.0625 0.0625 0.0625 0.0625 0.0625 0.0625 0.0625 0.0625 0.0625;
   (far_down, inclin_1, dist_1, right) 0.0625 0.0625 0.0625 0.0625 0.0625 0.0625 0.0625 0.0625 0.0625 0.0625 0.0625 0.0625 0.0625 0.0625 0.0625 0.0625;
   (far, inclin_1, dist_1, right) 0.0625 0.0625 0.0625 0.0625 0.0625 0.0625 0.0625 0.0625 0.0625 0.0625 0.0625 0.0625 0.0625 0.0625 0.0625 0.0625;
   (right_down, inclin_1, dist_1, right) 0.0625 0.0625 0.0625 0.0625 0.0625 0.0625 0.0625 0.0625 0.0625 0.0625 0.0625 0.0625 0.0625 0.0625 0.0625 0.0625;
   (left_down, inclin_1, dist_1, right) 0.0625 0.0625 0.0625 0.0625 0.0625 0.0625 0.0625 0.0625 0.0625 0.0625 0.0625 0.0625 0.0625 0.0625 0.0625 0.0625;
   (far_right_down, inclin_1, dist_1, right) 0.0625 0.0625 0.0625 0.0625 0.0625 0.0625 0.0625 0.0625 0.0625 0.0625 0.0625 0.0625 0.0625 0.0625 0.0625 0.0625;
   (far_left_down, inclin_1, dist_1, right) 0.0625 0.0625 0.0625 0.0625 0.0625 0.0625 0.0625 0.0625 0.0625 0.0625 0.0625 0.0625 0.0625 0.0625 0.0625 0.0625;
   (close_right_down, inclin_2, dist_1, right) 0.0625 0.0625 0.0625 0.0625 0.0625 0.0625 0.0625 0.0625 0.0625 0.0625 0.0625 0.0625 0.0625 0.0625 0.0625 0.0625;
   (close_left_down, inclin_2, dist_1, right) 0.0625 0.0625 0.0625 0.0625 0.0625 0.0625 0.0625 0.0625 0.0625 0.0625 0.0625 0.0625 0.0625 0.0625 0.0625 0.0625;
   (left, inclin_2, dist_1, right) 0.0625 0.0625 0.0625 0.0625 0.0625 0.0625 0.0625 0.0625 0.0625 0.0625 0.0625 0.0625 0.0625 0.0625 0.0625 0.0625;
   (right, inclin_2, dist_1, right) 0.0625 0.0625 0.0625 0.0625 0.0625 0.0625 0.0625 0.0625 0.0625 0.0625 0.0625 0.0625 0.0625 0.0625 0.0625 0.0625;
   (down, inclin_2, dist_1, right) 0.0625 0.0625 0.0625 0.0625 0.0625 0.0625 0.0625 0.0625 0.0625 0.0625 0.0625 0.0625 0.0625 0.0625 0.0625 0.0625;
   (close, inclin_2, dist_1, right) 0.0625 0.0625 0.0625 0.0625 0.0625 0.0625 0.0625 0.0625 0.0625 0.0625 0.0625 0.0625 0.0625 0.0625 0.0625 0.0625;
   (close_down, inclin_2, dist_1, right) 0.0625 0.0625 0.0625 0.0625 0.0625 0.0625 0.0625 0.0625 0.0625 0.0625 0.0625 0.0625 0.0625 0.0625 0.0625 0.0625;
   (far_down, inclin_2, dist_1, right) 0.0625 0.0625 0.0625 0.0625 0.0625 0.0625 0.0625 0.0625 0.0625 0.0625 0.0625 0.0625 0.0625 0.0625 0.0625 0.0625;
   (far, inclin_2, dist_1, right) 0.0625 0.0625 0.0625 0.0625 0.0625 0.0625 0.0625 0.0625 0.0625 0.0625 0.0625 0.0625 0.0625 0.0625 0.0625 0.0625;
   (right_down, inclin_2, dist_1, right) 0.0625 0.0625 0.0625 0.0625 0.0625 0.0625 0.0625 0.0625 0.0625 0.0625 0.0625 0.0625 0.0625 0.0625 0.0625 0.0625;
   (left_down, inclin_2, dist_1, right) 0.0625 0.0625 0.0625 0.0625 0.0625 0.0625 0.0625 0.0625 0.0625 0.0625 0.0625 0.0625 0.0625 0.0625 0.0625 0.0625;
   (far_right_down, inclin_2, dist_1, right) 0.0625 0.0625 0.0625 0.0625 0.0625 0.0625 0.0625 0.0625 0.0625 0.0625 0.0625 0.0625 0.0625 0.0625 0.0625 0.0625;
   (far_left_down, inclin_2, dist_1, right) 0.0625 0.0625 0.0625 0.0625 0.0625 0.0625 0.0625 0.0625 0.0625 0.0625 0.0625 0.0625 0.0625 0.0625 0.0625 0.0625;
   (close_right_down, inclin_3, dist_1, right) 0.0625 0.0625 0.0625 0.0625 0.0625 0.0625 0.0625 0.0625 0.0625 0.0625 0.0625 0.0625 0.0625 0.0625 0.0625 0.0625;
   (close_left_down, inclin_3, dist_1, right) 0.0625 0.0625 0.0625 0.0625 0.0625 0.0625 0.0625 0.0625 0.0625 0.0625 0.0625 0.0625 0.0625 0.0625 0.0625 0.0625;
   (left, inclin_3, dist_1, right) 0.0625 0.0625 0.0625 0.0625 0.0625 0.0625 0.0625 0.0625 0.0625 0.0625 0.0625 0.0625 0.0625 0.0625 0.0625 0.0625;
   (right, inclin_3, dist_1, right) 0.0625 0.0625 0.0625 0.0625 0.0625 0.0625 0.0625 0.0625 0.0625 0.0625 0.0625 0.0625 0.0625 0.0625 0.0625 0.0625;
   (down, inclin_3, dist_1, right) 0.0625 0.0625 0.0625 0.0625 0.0625 0.0625 0.0625 0.0625 0.0625 0.0625 0.0625 0.0625 0.0625 0.0625 0.0625 0.0625;
   (close, inclin_3, dist_1, right) 0.0625 0.0625 0.0625 0.0625 0.0625 0.0625 0.0625 0.0625 0.0625 0.0625 0.0625 0.0625 0.0625 0.0625 0.0625 0.0625;
   (close_down, inclin_3, dist_1, right) 0.0625 0.0625 0.0625 0.0625 0.0625 0.0625 0.0625 0.0625 0.0625 0.0625 0.0625 0.0625 0.0625 0.0625 0.0625 0.0625;
   (far_down, inclin_3, dist_1, right) 0.0625 0.0625 0.0625 0.0625 0.0625 0.0625 0.0625 0.0625 0.0625 0.0625 0.0625 0.0625 0.0625 0.0625 0.0625 0.0625;
   (far, inclin_3, dist_1, right) 0.0625 0.0625 0.0625 0.0625 0.0625 0.0625 0.0625 0.0625 0.0625 0.0625 0.0625 0.0625 0.0625 0.0625 0.0625 0.0625;
   (right_down, inclin_3, dist_1, right) 0.0625 0.0625 0.0625 0.0625 0.0625 0.0625 0.0625 0.0625 0.0625 0.0625 0.0625 0.0625 0.0625 0.0625 0.0625 0.0625;
   (left_down, inclin_3, dist_1, right) 0.0625 0.0625 0.0625 0.0625 0.0625 0.0625 0.0625 0.0625 0.0625 0.0625 0.0625 0.0625 0.0625 0.0625 0.0625 0.0625;
   (far_right_down, inclin_3, dist_1, right) 0.0625 0.0625 0.0625 0.0625 0.0625 0.0625 0.0625 0.0625 0.0625 0.0625 0.0625 0.0625 0.0625 0.0625 0.0625 0.0625;
   (far_left_down, inclin_3, dist_1, right) 0.0625 0.0625 0.0625 0.0625 0.0625 0.0625 0.0625 0.0625 0.0625 0.0625 0.0625 0.0625 0.0625 0.0625 0.0625 0.0625;
   (close_right_down, inclin_4, dist_1, right) 0.0625 0.0625 0.0625 0.0625 0.0625 0.0625 0.0625 0.0625 0.0625 0.0625 0.0625 0.0625 0.0625 0.0625 0.0625 0.0625;
   (close_left_down, inclin_4, dist_1, right) 0.0625 0.0625 0.0625 0.0625 0.0625 0.0625 0.0625 0.0625 0.0625 0.0625 0.0625 0.0625 0.0625 0.0625 0.0625 0.0625;
   (left, inclin_4, dist_1, right) 0.0625 0.0625 0.0625 0.0625 0.0625 0.0625 0.0625 0.0625 0.0625 0.0625 0.0625 0.0625 0.0625 0.0625 0.0625 0.0625;
   (right, inclin_4, dist_1, right) 0.0416667 0.0416667 0.0416667 0.0416667 0.0416667 0.0416667 0.0416667 0.0416667 0.375 0.0416667 0.0416667 0.0416667 0.0416667 0.0416667 0.0416667 0.0416667;
   (down, inclin_4, dist_1, right) 0.0625 0.0625 0.0625 0.0625 0.0625 0.0625 0.0625 0.0625 0.0625 0.0625 0.0625 0.0625 0.0625 0.0625 0.0625 0.0625;
   (close, inclin_4, dist_1, right) 0.0625 0.0625 0.0625 0.0625 0.0625 0.0625 0.0625 0.0625 0.0625 0.0625 0.0625 0.0625 0.0625 0.0625 0.0625 0.0625;
   (close_down, inclin_4, dist_1, right) 0.0625 0.0625 0.0625 0.0625 0.0625 0.0625 0.0625 0.0625 0.0625 0.0625 0.0625 0.0625 0.0625 0.0625 0.0625 0.0625;
   (far_down, inclin_4, dist_1, right) 0.0625 0.0625 0.0625 0.0625 0.0625 0.0625 0.0625 0.0625 0.0625 0.0625 0.0625 0.0625 0.0625 0.0625 0.0625 0.0625;
   (far, inclin_4, dist_1, right) 0.0625 0.0625 0.0625 0.0625 0.0625 0.0625 0.0625 0.0625 0.0625 0.0625 0.0625 0.0625 0.0625 0.0625 0.0625 0.0625;
   (right_down, inclin_4, dist_1, right) 0.0625 0.0625 0.0625 0.0625 0.0625 0.0625 0.0625 0.0625 0.0625 0.0625 0.0625 0.0625 0.0625 0.0625 0.0625 0.0625;
   (left_down, inclin_4, dist_1, right) 0.0625 0.0625 0.0625 0.0625 0.0625 0.0625 0.0625 0.0625 0.0625 0.0625 0.0625 0.0625 0.0625 0.0625 0.0625 0.0625;
   (far_right_down, inclin_4, dist_1, right) 0.0625 0.0625 0.0625 0.0625 0.0625 0.0625 0.0625 0.0625 0.0625 0.0625 0.0625 0.0625 0.0625 0.0625 0.0625 0.0625;
   (far_left_down, inclin_4, dist_1, right) 0.0625 0.0625 0.0625 0.0625 0.0625 0.0625 0.0625 0.0625 0.0625 0.0625 0.0625 0.0625 0.0625 0.0625 0.0625 0.0625;
   (close_right_down, inclin_0, dist_1, right) 0.0625 0.0625 0.0625 0.0625 0.0625 0.0625 0.0625 0.0625 0.0625 0.0625 0.0625 0.0625 0.0625 0.0625 0.0625 0.0625;
   (close_left_down, inclin_0, dist_1, right) 0.0625 0.0625 0.0625 0.0625 0.0625 0.0625 0.0625 0.0625 0.0625 0.0625 0.0625 0.0625 0.0625 0.0625 0.0625 0.0625;
   (left, inclin_0, dist_1, right) 0.0625 0.0625 0.0625 0.0625 0.0625 0.0625 0.0625 0.0625 0.0625 0.0625 0.0625 0.0625 0.0625 0.0625 0.0625 0.0625;
   (right, inclin_0, dist_1, right) 0.0625 0.0625 0.0625 0.0625 0.0625 0.0625 0.0625 0.0625 0.0625 0.0625 0.0625 0.0625 0.0625 0.0625 0.0625 0.0625;
   (down, inclin_0, dist_1, right) 0.0625 0.0625 0.0625 0.0625 0.0625 0.0625 0.0625 0.0625 0.0625 0.0625 0.0625 0.0625 0.0625 0.0625 0.0625 0.0625;
   (close, inclin_0, dist_1, right) 0.0625 0.0625 0.0625 0.0625 0.0625 0.0625 0.0625 0.0625 0.0625 0.0625 0.0625 0.0625 0.0625 0.0625 0.0625 0.0625;
   (close_down, inclin_0, dist_1, right) 0.0625 0.0625 0.0625 0.0625 0.0625 0.0625 0.0625 0.0625 0.0625 0.0625 0.0625 0.0625 0.0625 0.0625 0.0625 0.0625;
   (far_down, inclin_0, dist_1, right) 0.0625 0.0625 0.0625 0.0625 0.0625 0.0625 0.0625 0.0625 0.0625 0.0625 0.0625 0.0625 0.0625 0.0625 0.0625 0.0625;
   (far, inclin_0, dist_1, right) 0.0625 0.0625 0.0625 0.0625 0.0625 0.0625 0.0625 0.0625 0.0625 0.0625 0.0625 0.0625 0.0625 0.0625 0.0625 0.0625;
   (right_down, inclin_0, dist_1, right) 0.0625 0.0625 0.0625 0.0625 0.0625 0.0625 0.0625 0.0625 0.0625 0.0625 0.0625 0.0625 0.0625 0.0625 0.0625 0.0625;
   (left_down, inclin_0, dist_1, right) 0.0625 0.0625 0.0625 0.0625 0.0625 0.0625 0.0625 0.0625 0.0625 0.0625 0.0625 0.0625 0.0625 0.0625 0.0625 0.0625;
   (far_right_down, inclin_0, dist_1, right) 0.0625 0.0625 0.0625 0.0625 0.0625 0.0625 0.0625 0.0625 0.0625 0.0625 0.0625 0.0625 0.0625 0.0625 0.0625 0.0625;
   (far_left_down, inclin_0, dist_1, right) 0.0625 0.0625 0.0625 0.0625 0.0625 0.0625 0.0625 0.0625 0.0625 0.0625 0.0625 0.0625 0.0625 0.0625 0.0625 0.0625;
   (close_right_down, inclin_1, dist_0, right) 0.0625 0.0625 0.0625 0.0625 0.0625 0.0625 0.0625 0.0625 0.0625 0.0625 0.0625 0.0625 0.0625 0.0625 0.0625 0.0625;
   (close_left_down, inclin_1, dist_0, right) 0.0625 0.0625 0.0625 0.0625 0.0625 0.0625 0.0625 0.0625 0.0625 0.0625 0.0625 0.0625 0.0625 0.0625 0.0625 0.0625;
   (left, inclin_1, dist_0, right) 0.0625 0.0625 0.0625 0.0625 0.0625 0.0625 0.0625 0.0625 0.0625 0.0625 0.0625 0.0625 0.0625 0.0625 0.0625 0.0625;
   (right, inclin_1, dist_0, right) 0.0625 0.0625 0.0625 0.0625 0.0625 0.0625 0.0625 0.0625 0.0625 0.0625 0.0625 0.0625 0.0625 0.0625 0.0625 0.0625;
   (down, inclin_1, dist_0, right) 0.0625 0.0625 0.0625 0.0625 0.0625 0.0625 0.0625 0.0625 0.0625 0.0625 0.0625 0.0625 0.0625 0.0625 0.0625 0.0625;
   (close, inclin_1, dist_0, right) 0.0625 0.0625 0.0625 0.0625 0.0625 0.0625 0.0625 0.0625 0.0625 0.0625 0.0625 0.0625 0.0625 0.0625 0.0625 0.0625;
   (close_down, inclin_1, dist_0, right) 0.0625 0.0625 0.0625 0.0625 0.0625 0.0625 0.0625 0.0625 0.0625 0.0625 0.0625 0.0625 0.0625 0.0625 0.0625 0.0625;
   (far_down, inclin_1, dist_0, right) 0.0625 0.0625 0.0625 0.0625 0.0625 0.0625 0.0625 0.0625 0.0625 0.0625 0.0625 0.0625 0.0625 0.0625 0.0625 0.0625;
   (far, inclin_1, dist_0, right) 0.0625 0.0625 0.0625 0.0625 0.0625 0.0625 0.0625 0.0625 0.0625 0.0625 0.0625 0.0625 0.0625 0.0625 0.0625 0.0625;
   (right_down, inclin_1, dist_0, right) 0.0625 0.0625 0.0625 0.0625 0.0625 0.0625 0.0625 0.0625 0.0625 0.0625 0.0625 0.0625 0.0625 0.0625 0.0625 0.0625;
   (left_down, inclin_1, dist_0, right) 0.0625 0.0625 0.0625 0.0625 0.0625 0.0625 0.0625 0.0625 0.0625 0.0625 0.0625 0.0625 0.0625 0.0625 0.0625 0.0625;
   (far_right_down, inclin_1, dist_0, right) 0.0625 0.0625 0.0625 0.0625 0.0625 0.0625 0.0625 0.0625 0.0625 0.0625 0.0625 0.0625 0.0625 0.0625 0.0625 0.0625;
   (far_left_down, inclin_1, dist_0, right) 0.0625 0.0625 0.0625 0.0625 0.0625 0.0625 0.0625 0.0625 0.0625 0.0625 0.0625 0.0625 0.0625 0.0625 0.0625 0.0625;
   (close_right_down, inclin_2, dist_0, right) 0.0625 0.0625 0.0625 0.0625 0.0625 0.0625 0.0625 0.0625 0.0625 0.0625 0.0625 0.0625 0.0625 0.0625 0.0625 0.0625;
   (close_left_down, inclin_2, dist_0, right) 0.0625 0.0625 0.0625 0.0625 0.0625 0.0625 0.0625 0.0625 0.0625 0.0625 0.0625 0.0625 0.0625 0.0625 0.0625 0.0625;
   (left, inclin_2, dist_0, right) 0.0625 0.0625 0.0625 0.0625 0.0625 0.0625 0.0625 0.0625 0.0625 0.0625 0.0625 0.0625 0.0625 0.0625 0.0625 0.0625;
   (right, inclin_2, dist_0, right) 0.0625 0.0625 0.0625 0.0625 0.0625 0.0625 0.0625 0.0625 0.0625 0.0625 0.0625 0.0625 0.0625 0.0625 0.0625 0.0625;
   (down, inclin_2, dist_0, right) 0.0625 0.0625 0.0625 0.0625 0.0625 0.0625 0.0625 0.0625 0.0625 0.0625 0.0625 0.0625 0.0625 0.0625 0.0625 0.0625;
   (close, inclin_2, dist_0, right) 0.0625 0.0625 0.0625 0.0625 0.0625 0.0625 0.0625 0.0625 0.0625 0.0625 0.0625 0.0625 0.0625 0.0625 0.0625 0.0625;
   (close_down, inclin_2, dist_0, right) 0.0625 0.0625 0.0625 0.0625 0.0625 0.0625 0.0625 0.0625 0.0625 0.0625 0.0625 0.0625 0.0625 0.0625 0.0625 0.0625;
   (far_down, inclin_2, dist_0, right) 0.0625 0.0625 0.0625 0.0625 0.0625 0.0625 0.0625 0.0625 0.0625 0.0625 0.0625 0.0625 0.0625 0.0625 0.0625 0.0625;
   (far, inclin_2, dist_0, right) 0.0625 0.0625 0.0625 0.0625 0.0625 0.0625 0.0625 0.0625 0.0625 0.0625 0.0625 0.0625 0.0625 0.0625 0.0625 0.0625;
   (right_down, inclin_2, dist_0, right) 0.0625 0.0625 0.0625 0.0625 0.0625 0.0625 0.0625 0.0625 0.0625 0.0625 0.0625 0.0625 0.0625 0.0625 0.0625 0.0625;
   (left_down, inclin_2, dist_0, right) 0.0625 0.0625 0.0625 0.0625 0.0625 0.0625 0.0625 0.0625 0.0625 0.0625 0.0625 0.0625 0.0625 0.0625 0.0625 0.0625;
   (far_right_down, inclin_2, dist_0, right) 0.0625 0.0625 0.0625 0.0625 0.0625 0.0625 0.0625 0.0625 0.0625 0.0625 0.0625 0.0625 0.0625 0.0625 0.0625 0.0625;
   (far_left_down, inclin_2, dist_0, right) 0.0625 0.0625 0.0625 0.0625 0.0625 0.0625 0.0625 0.0625 0.0625 0.0625 0.0625 0.0625 0.0625 0.0625 0.0625 0.0625;
   (close_right_down, inclin_3, dist_0, right) 0.0625 0.0625 0.0625 0.0625 0.0625 0.0625 0.0625 0.0625 0.0625 0.0625 0.0625 0.0625 0.0625 0.0625 0.0625 0.0625;
   (close_left_down, inclin_3, dist_0, right) 0.0625 0.0625 0.0625 0.0625 0.0625 0.0625 0.0625 0.0625 0.0625 0.0625 0.0625 0.0625 0.0625 0.0625 0.0625 0.0625;
   (left, inclin_3, dist_0, right) 0.0625 0.0625 0.0625 0.0625 0.0625 0.0625 0.0625 0.0625 0.0625 0.0625 0.0625 0.0625 0.0625 0.0625 0.0625 0.0625;
   (right, inclin_3, dist_0, right) 0.0625 0.0625 0.0625 0.0625 0.0625 0.0625 0.0625 0.0625 0.0625 0.0625 0.0625 0.0625 0.0625 0.0625 0.0625 0.0625;
   (down, inclin_3, dist_0, right) 0.0625 0.0625 0.0625 0.0625 0.0625 0.0625 0.0625 0.0625 0.0625 0.0625 0.0625 0.0625 0.0625 0.0625 0.0625 0.0625;
   (close, inclin_3, dist_0, right) 0.0625 0.0625 0.0625 0.0625 0.0625 0.0625 0.0625 0.0625 0.0625 0.0625 0.0625 0.0625 0.0625 0.0625 0.0625 0.0625;
   (close_down, inclin_3, dist_0, right) 0.0625 0.0625 0.0625 0.0625 0.0625 0.0625 0.0625 0.0625 0.0625 0.0625 0.0625 0.0625 0.0625 0.0625 0.0625 0.0625;
   (far_down, inclin_3, dist_0, right) 0.0625 0.0625 0.0625 0.0625 0.0625 0.0625 0.0625 0.0625 0.0625 0.0625 0.0625 0.0625 0.0625 0.0625 0.0625 0.0625;
   (far, inclin_3, dist_0, right) 0.0625 0.0625 0.0625 0.0625 0.0625 0.0625 0.0625 0.0625 0.0625 0.0625 0.0625 0.0625 0.0625 0.0625 0.0625 0.0625;
   (right_down, inclin_3, dist_0, right) 0.0625 0.0625 0.0625 0.0625 0.0625 0.0625 0.0625 0.0625 0.0625 0.0625 0.0625 0.0625 0.0625 0.0625 0.0625 0.0625;
   (left_down, inclin_3, dist_0, right) 0.0625 0.0625 0.0625 0.0625 0.0625 0.0625 0.0625 0.0625 0.0625 0.0625 0.0625 0.0625 0.0625 0.0625 0.0625 0.0625;
   (far_right_down, inclin_3, dist_0, right) 0.0625 0.0625 0.0625 0.0625 0.0625 0.0625 0.0625 0.0625 0.0625 0.0625 0.0625 0.0625 0.0625 0.0625 0.0625 0.0625;
   (far_left_down, inclin_3, dist_0, right) 0.0625 0.0625 0.0625 0.0625 0.0625 0.0625 0.0625 0.0625 0.0625 0.0625 0.0625 0.0625 0.0625 0.0625 0.0625 0.0625;
   (close_right_down, inclin_4, dist_0, right) 0.0625 0.0625 0.0625 0.0625 0.0625 0.0625 0.0625 0.0625 0.0625 0.0625 0.0625 0.0625 0.0625 0.0625 0.0625 0.0625;
   (close_left_down, inclin_4, dist_0, right) 0.0625 0.0625 0.0625 0.0625 0.0625 0.0625 0.0625 0.0625 0.0625 0.0625 0.0625 0.0625 0.0625 0.0625 0.0625 0.0625;
   (left, inclin_4, dist_0, right) 0.0625 0.0625 0.0625 0.0625 0.0625 0.0625 0.0625 0.0625 0.0625 0.0625 0.0625 0.0625 0.0625 0.0625 0.0625 0.0625;
   (right, inclin_4, dist_0, right) 0.05 0.05 0.05 0.05 0.05 0.05 0.05 0.05 0.25 0.05 0.05 0.05 0.05 0.05 0.05 0.05;
   (down, inclin_4, dist_0, right) 0.0625 0.0625 0.0625 0.0625 0.0625 0.0625 0.0625 0.0625 0.0625 0.0625 0.0625 0.0625 0.0625 0.0625 0.0625 0.0625;
   (close, inclin_4, dist_0, right) 0.0625 0.0625 0.0625 0.0625 0.0625 0.0625 0.0625 0.0625 0.0625 0.0625 0.0625 0.0625 0.0625 0.0625 0.0625 0.0625;
   (close_down, inclin_4, dist_0, right) 0.0625 0.0625 0.0625 0.0625 0.0625 0.0625 0.0625 0.0625 0.0625 0.0625 0.0625 0.0625 0.0625 0.0625 0.0625 0.0625;
   (far_down, inclin_4, dist_0, right) 0.0625 0.0625 0.0625 0.0625 0.0625 0.0625 0.0625 0.0625 0.0625 0.0625 0.0625 0.0625 0.0625 0.0625 0.0625 0.0625;
   (far, inclin_4, dist_0, right) 0.0625 0.0625 0.0625 0.0625 0.0625 0.0625 0.0625 0.0625 0.0625 0.0625 0.0625 0.0625 0.0625 0.0625 0.0625 0.0625;
   (right_down, inclin_4, dist_0, right) 0.0625 0.0625 0.0625 0.0625 0.0625 0.0625 0.0625 0.0625 0.0625 0.0625 0.0625 0.0625 0.0625 0.0625 0.0625 0.0625;
   (left_down, inclin_4, dist_0, right) 0.0625 0.0625 0.0625 0.0625 0.0625 0.0625 0.0625 0.0625 0.0625 0.0625 0.0625 0.0625 0.0625 0.0625 0.0625 0.0625;
   (far_right_down, inclin_4, dist_0, right) 0.0625 0.0625 0.0625 0.0625 0.0625 0.0625 0.0625 0.0625 0.0625 0.0625 0.0625 0.0625 0.0625 0.0625 0.0625 0.0625;
   (far_left_down, inclin_4, dist_0, right) 0.0625 0.0625 0.0625 0.0625 0.0625 0.0625 0.0625 0.0625 0.0625 0.0625 0.0625 0.0625 0.0625 0.0625 0.0625 0.0625;
   (close_right_down, inclin_0, dist_0, right) 0.0625 0.0625 0.0625 0.0625 0.0625 0.0625 0.0625 0.0625 0.0625 0.0625 0.0625 0.0625 0.0625 0.0625 0.0625 0.0625;
   (close_left_down, inclin_0, dist_0, right) 0.0625 0.0625 0.0625 0.0625 0.0625 0.0625 0.0625 0.0625 0.0625 0.0625 0.0625 0.0625 0.0625 0.0625 0.0625 0.0625;
   (left, inclin_0, dist_0, right) 0.0625 0.0625 0.0625 0.0625 0.0625 0.0625 0.0625 0.0625 0.0625 0.0625 0.0625 0.0625 0.0625 0.0625 0.0625 0.0625;
   (right, inclin_0, dist_0, right) 0.0625 0.0625 0.0625 0.0625 0.0625 0.0625 0.0625 0.0625 0.0625 0.0625 0.0625 0.0625 0.0625 0.0625 0.0625 0.0625;
   (down, inclin_0, dist_0, right) 0.0625 0.0625 0.0625 0.0625 0.0625 0.0625 0.0625 0.0625 0.0625 0.0625 0.0625 0.0625 0.0625 0.0625 0.0625 0.0625;
   (close, inclin_0, dist_0, right) 0.0625 0.0625 0.0625 0.0625 0.0625 0.0625 0.0625 0.0625 0.0625 0.0625 0.0625 0.0625 0.0625 0.0625 0.0625 0.0625;
   (close_down, inclin_0, dist_0, right) 0.0625 0.0625 0.0625 0.0625 0.0625 0.0625 0.0625 0.0625 0.0625 0.0625 0.0625 0.0625 0.0625 0.0625 0.0625 0.0625;
   (far_down, inclin_0, dist_0, right) 0.0625 0.0625 0.0625 0.0625 0.0625 0.0625 0.0625 0.0625 0.0625 0.0625 0.0625 0.0625 0.0625 0.0625 0.0625 0.0625;
   (far, inclin_0, dist_0, right) 0.0625 0.0625 0.0625 0.0625 0.0625 0.0625 0.0625 0.0625 0.0625 0.0625 0.0625 0.0625 0.0625 0.0625 0.0625 0.0625;
   (right_down, inclin_0, dist_0, right) 0.0625 0.0625 0.0625 0.0625 0.0625 0.0625 0.0625 0.0625 0.0625 0.0625 0.0625 0.0625 0.0625 0.0625 0.0625 0.0625;
   (left_down, inclin_0, dist_0, right) 0.0625 0.0625 0.0625 0.0625 0.0625 0.0625 0.0625 0.0625 0.0625 0.0625 0.0625 0.0625 0.0625 0.0625 0.0625 0.0625;
   (far_right_down, inclin_0, dist_0, right) 0.0625 0.0625 0.0625 0.0625 0.0625 0.0625 0.0625 0.0625 0.0625 0.0625 0.0625 0.0625 0.0625 0.0625 0.0625 0.0625;
   (far_left_down, inclin_0, dist_0, right) 0.0625 0.0625 0.0625 0.0625 0.0625 0.0625 0.0625 0.0625 0.0625 0.0625 0.0625 0.0625 0.0625 0.0625 0.0625 0.0625;
   (close_right_down, inclin_1, dist_2, close) 0.0625 0.0625 0.0625 0.0625 0.0625 0.0625 0.0625 0.0625 0.0625 0.0625 0.0625 0.0625 0.0625 0.0625 0.0625 0.0625;
   (close_left_down, inclin_1, dist_2, close) 0.0625 0.0625 0.0625 0.0625 0.0625 0.0625 0.0625 0.0625 0.0625 0.0625 0.0625 0.0625 0.0625 0.0625 0.0625 0.0625;
   (left, inclin_1, dist_2, close) 0.0625 0.0625 0.0625 0.0625 0.0625 0.0625 0.0625 0.0625 0.0625 0.0625 0.0625 0.0625 0.0625 0.0625 0.0625 0.0625;
   (right, inclin_1, dist_2, close) 0.0625 0.0625 0.0625 0.0625 0.0625 0.0625 0.0625 0.0625 0.0625 0.0625 0.0625 0.0625 0.0625 0.0625 0.0625 0.0625;
   (down, inclin_1, dist_2, close) 0.166667 0.0555556 0.0555556 0.0555556 0.0555556 0.0555556 0.0555556 0.0555556 0.0555556 0.0555556 0.0555556 0.0555556 0.0555556 0.0555556 0.0555556 0.0555556;
   (close, inclin_1, dist_2, close) 0.0625 0.0625 0.0625 0.0625 0.0625 0.0625 0.0625 0.0625 0.0625 0.0625 0.0625 0.0625 0.0625 0.0625 0.0625 0.0625;
   (close_down, inclin_1, dist_2, close) 0.0625 0.0625 0.0625 0.0625 0.0625 0.0625 0.0625 0.0625 0.0625 0.0625 0.0625 0.0625 0.0625 0.0625 0.0625 0.0625;
   (far_down, inclin_1, dist_2, close) 0.117647 0.0588235 0.0588235 0.0588235 0.0588235 0.0588235 0.0588235 0.0588235 0.0588235 0.0588235 0.0588235 0.0588235 0.0588235 0.0588235 0.0588235 0.0588235;
   (far, inclin_1, dist_2, close) 0.0526316 0.0526316 0.0526316 0.0526316 0.0526316 0.0526316 0.0526316 0.0526316 0.0526316 0.210526 0.0526316 0.0526316 0.0526316 0.0526316 0.0526316 0.0526316;
   (right_down, inclin_1, dist_2, close) 0.0625 0.0625 0.0625 0.0625 0.0625 0.0625 0.0625 0.0625 0.0625 0.0625 0.0625 0.0625 0.0625 0.0625 0.0625 0.0625;
   (left_down, inclin_1, dist_2, close) 0.0625 0.0625 0.0625 0.0625 0.0625 0.0625 0.0625 0.0625 0.0625 0.0625 0.0625 0.0625 0.0625 0.0625 0.0625 0.0625;
   (far_right_down, inclin_1, dist_2, close) 0.0526316 0.0526316 0.0526316 0.0526316 0.0526316 0.0526316 0.0526316 0.105263 0.157895 0.0526316 0.0526316 0.0526316 0.0526316 0.0526316 0.0526316 0.0526316;
   (far_left_down, inclin_1, dist_2, close) 0.0526316 0.0526316 0.0526316 0.105263 0.157895 0.0526316 0.0526316 0.0526316 0.0526316 0.0526316 0.0526316 0.0526316 0.0526316 0.0526316 0.0526316 0.0526316;
   (close_right_down, inclin_2, dist_2, close) 0.0625 0.0625 0.0625 0.0625 0.0625 0.0625 0.0625 0.0625 0.0625 0.0625 0.0625 0.0625 0.0625 0.0625 0.0625 0.0625;
   (close_left_down, inclin_2, dist_2, close) 0.0625 0.0625 0.0625 0.0625 0.0625 0.0625 0.0625 0.0625 0.0625 0.0625 0.0625 0.0625 0.0625 0.0625 0.0625 0.0625;
   (left, inclin_2, dist_2, close) 0.0625 0.0625 0.0625 0.0625 0.0625 0.0625 0.0625 0.0625 0.0625 0.0625 0.0625 0.0625 0.0625 0.0625 0.0625 0.0625;
   (right, inclin_2, dist_2, close) 0.0625 0.0625 0.0625 0.0625 0.0625 0.0625 0.0625 0.0625 0.0625 0.0625 0.0625 0.0625 0.0625 0.0625 0.0625 0.0625;
   (down, inclin_2, dist_2, close) 0.166667 0.0555556 0.0555556 0.0555556 0.0555556 0.0555556 0.0555556 0.0555556 0.0555556 0.0555556 0.0555556 0.0555556 0.0555556 0.0555556 0.0555556 0.0555556;
   (close, inclin_2, dist_2, close) 0.0625 0.0625 0.0625 0.0625 0.0625 0.0625 0.0625 0.0625 0.0625 0.0625 0.0625 0.0625 0.0625 0.0625 0.0625 0.0625;
   (close_down, inclin_2, dist_2, close) 0.0625 0.0625 0.0625 0.0625 0.0625 0.0625 0.0625 0.0625 0.0625 0.0625 0.0625 0.0625 0.0625 0.0625 0.0625 0.0625;
   (far_down, inclin_2, dist_2, close) 0.210526 0.0526316 0.0526316 0.0526316 0.0526316 0.0526316 0.0526316 0.0526316 0.0526316 0.0526316 0.0526316 0.0526316 0.0526316 0.0526316 0.0526316 0.0526316;
   (far, inclin_2, dist_2, close) 0.0625 0.0625 0.0625 0.0625 0.0625 0.0625 0.0625 0.0625 0.0625 0.0625 0.0625 0.0625 0.0625 0.0625 0.0625 0.0625;
   (right_down, inclin_2, dist_2, close) 0.0625 0.0625 0.0625 0.0625 0.0625 0.0625 0.0625 0.0625 0.0625 0.0625 0.0625 0.0625 0.0625 0.0625 0.0625 0.0625;
   (left_down, inclin_2, dist_2, close) 0.0625 0.0625 0.0625 0.0625 0.0625 0.0625 0.0625 0.0625 0.0625 0.0625 0.0625 0.0625 0.0625 0.0625 0.0625 0.0625;
   (far_right_down, inclin_2, dist_2, close) 0.0526316 0.0526316 0.0526316 0.0526316 0.0526316 0.157895 0.105263 0.0526316 0.0526316 0.0526316 0.0526316 0.0526316 0.0526316 0.0526316 0.0526316 0.0526316;
   (far_left_down, inclin_2, dist_2, close) 0.0526316 0.157895 0.105263 0.0526316 0.0526316 0.0526316 0.0526316 0.0526316 0.0526316 0.0526316 0.0526316 0.0526316 0.0526316 0.0526316 0.0526316 0.0526316;
   (close_right_down, inclin_3, dist_2, close) 0.117647 0.0588235 0.0588235 0.0588235 0.0588235 0.0588235 0.0588235 0.0588235 0.0588235 0.0588235 0.0588235 0.0588235 0.0588235 0.0588235 0.0588235 0.0588235;
   (close_left_down, inclin_3, dist_2, close) 0.117647 0.0588235 0.0588235 0.0588235 0.0588235 0.0588235 0.0588235 0.0588235 0.0588235 0.0588235 0.0588235 0.0588235 0.0588235 0.0588235 0.0588235 0.0588235;
   (left, inclin_3, dist_2, close) 0.0625 0.0625 0.0625 0.0625 0.0625 0.0625 0.0625 0.0625 0.0625 0.0625 0.0625 0.0625 0.0625 0.0625 0.0625 0.0625;
   (right, inclin_3, dist_2, close) 0.0625 0.0625 0.0625 0.0625 0.0625 0.0625 0.0625 0.0625 0.0625 0.0625 0.0625 0.0625 0.0625 0.0625 0.0625 0.0625;
   (down, inclin_3, dist_2, close) 0.166667 0.0555556 0.0555556 0.0555556 0.0555556 0.0555556 0.0555556 0.0555556 0.0555556 0.0555556 0.0555556 0.0555556 0.0555556 0.0555556 0.0555556 0.0555556;
   (close, inclin_3, dist_2, close) 0.0625 0.0625 0.0625 0.0625 0.0625 0.0625 0.0625 0.0625 0.0625 0.0625 0.0625 0.0625 0.0625 0.0625 0.0625 0.0625;
   (close_down, inclin_3, dist_2, close) 0.117647 0.0588235 0.0588235 0.0588235 0.0588235 0.0588235 0.0588235 0.0588235 0.0588235 0.0588235 0.0588235 0.0588235 0.0588235 0.0588235 0.0588235 0.0588235;
   (far_down, inclin_3, dist_2, close) 0.0625 0.0625 0.0625 0.0625 0.0625 0.0625 0.0625 0.0625 0.0625 0.0625 0.0625 0.0625 0.0625 0.0625 0.0625 0.0625;
   (far, inclin_3, dist_2, close) 0.0625 0.0625 0.0625 0.0625 0.0625 0.0625 0.0625 0.0625 0.0625 0.0625 0.0625 0.0625 0.0625 0.0625 0.0625 0.0625;
   (right_down, inclin_3, dist_2, close) 0.0625 0.0625 0.0625 0.0625 0.0625 0.0625 0.0625 0.0625 0.0625 0.0625 0.0625 0.0625 0.0625 0.0625 0.0625 0.0625;
   (left_down, inclin_3, dist_2, close) 0.0625 0.0625 0.0625 0.0625 0.0625 0.0625 0.0625 0.0625 0.0625 0.0625 0.0625 0.0625 0.0625 0.0625 0.0625 0.0625;
   (far_right_down, inclin_3, dist_2, close) 0.0625 0.0625 0.0625 0.0625 0.0625 0.0625 0.0625 0.0625 0.0625 0.0625 0.0625 0.0625 0.0625 0.0625 0.0625 0.0625;
   (far_left_down, inclin_3, dist_2, close) 0.0625 0.0625 0.0625 0.0625 0.0625 0.0625 0.0625 0.0625 0.0625 0.0625 0.0625 0.0625 0.0625 0.0625 0.0625 0.0625;
   (close_right_down, inclin_4, dist_2, close) 0.0625 0.0625 0.0625 0.0625 0.0625 0.0625 0.0625 0.0625 0.0625 0.0625 0.0625 0.0625 0.0625 0.0625 0.0625 0.0625;
   (close_left_down, inclin_4, dist_2, close) 0.0625 0.0625 0.0625 0.0625 0.0625 0.0625 0.0625 0.0625 0.0625 0.0625 0.0625 0.0625 0.0625 0.0625 0.0625 0.0625;
   (left, inclin_4, dist_2, close) 0.0625 0.0625 0.0625 0.0625 0.0625 0.0625 0.0625 0.0625 0.0625 0.0625 0.0625 0.0625 0.0625 0.0625 0.0625 0.0625;
   (right, inclin_4, dist_2, close) 0.0625 0.0625 0.0625 0.0625 0.0625 0.0625 0.0625 0.0625 0.0625 0.0625 0.0625 0.0625 0.0625 0.0625 0.0625 0.0625;
   (down, inclin_4, dist_2, close) 0.0625 0.0625 0.0625 0.0625 0.0625 0.0625 0.0625 0.0625 0.0625 0.0625 0.0625 0.0625 0.0625 0.0625 0.0625 0.0625;
   (close, inclin_4, dist_2, close) 0.285714 0.047619 0.047619 0.047619 0.047619 0.047619 0.047619 0.047619 0.047619 0.047619 0.047619 0.047619 0.047619 0.047619 0.047619 0.047619;
   (close_down, inclin_4, dist_2, close) 0.0625 0.0625 0.0625 0.0625 0.0625 0.0625 0.0625 0.0625 0.0625 0.0625 0.0625 0.0625 0.0625 0.0625 0.0625 0.0625;
   (far_down, inclin_4, dist_2, close) 0.0625 0.0625 0.0625 0.0625 0.0625 0.0625 0.0625 0.0625 0.0625 0.0625 0.0625 0.0625 0.0625 0.0625 0.0625 0.0625;
   (far, inclin_4, dist_2, close) 0.0625 0.0625 0.0625 0.0625 0.0625 0.0625 0.0625 0.0625 0.0625 0.0625 0.0625 0.0625 0.0625 0.0625 0.0625 0.0625;
   (right_down, inclin_4, dist_2, close) 0.0625 0.0625 0.0625 0.0625 0.0625 0.0625 0.0625 0.0625 0.0625 0.0625 0.0625 0.0625 0.0625 0.0625 0.0625 0.0625;
   (left_down, inclin_4, dist_2, close) 0.0625 0.0625 0.0625 0.0625 0.0625 0.0625 0.0625 0.0625 0.0625 0.0625 0.0625 0.0625 0.0625 0.0625 0.0625 0.0625;
   (far_right_down, inclin_4, dist_2, close) 0.0625 0.0625 0.0625 0.0625 0.0625 0.0625 0.0625 0.0625 0.0625 0.0625 0.0625 0.0625 0.0625 0.0625 0.0625 0.0625;
   (far_left_down, inclin_4, dist_2, close) 0.0625 0.0625 0.0625 0.0625 0.0625 0.0625 0.0625 0.0625 0.0625 0.0625 0.0625 0.0625 0.0625 0.0625 0.0625 0.0625;
   (close_right_down, inclin_0, dist_2, close) 0.0625 0.0625 0.0625 0.0625 0.0625 0.0625 0.0625 0.0625 0.0625 0.0625 0.0625 0.0625 0.0625 0.0625 0.0625 0.0625;
   (close_left_down, inclin_0, dist_2, close) 0.0625 0.0625 0.0625 0.0625 0.0625 0.0625 0.0625 0.0625 0.0625 0.0625 0.0625 0.0625 0.0625 0.0625 0.0625 0.0625;
   (left, inclin_0, dist_2, close) 0.0625 0.0625 0.0625 0.0625 0.0625 0.0625 0.0625 0.0625 0.0625 0.0625 0.0625 0.0625 0.0625 0.0625 0.0625 0.0625;
   (right, inclin_0, dist_2, close) 0.0625 0.0625 0.0625 0.0625 0.0625 0.0625 0.0625 0.0625 0.0625 0.0625 0.0625 0.0625 0.0625 0.0625 0.0625 0.0625;
   (down, inclin_0, dist_2, close) 0.0625 0.0625 0.0625 0.0625 0.0625 0.0625 0.0625 0.0625 0.0625 0.0625 0.0625 0.0625 0.0625 0.0625 0.0625 0.0625;
   (close, inclin_0, dist_2, close) 0.0625 0.0625 0.0625 0.0625 0.0625 0.0625 0.0625 0.0625 0.0625 0.0625 0.0625 0.0625 0.0625 0.0625 0.0625 0.0625;
   (close_down, inclin_0, dist_2, close) 0.0625 0.0625 0.0625 0.0625 0.0625 0.0625 0.0625 0.0625 0.0625 0.0625 0.0625 0.0625 0.0625 0.0625 0.0625 0.0625;
   (far_down, inclin_0, dist_2, close) 0.166667 0.0555556 0.0555556 0.0555556 0.0555556 0.0555556 0.0555556 0.0555556 0.0555556 0.0555556 0.0555556 0.0555556 0.0555556 0.0555556 0.0555556 0.0555556;
   (far, inclin_0, dist_2, close) 0.0555556 0.0555556 0.0555556 0.0555556 0.0555556 0.0555556 0.0555556 0.0555556 0.0555556 0.166667 0.0555556 0.0555556 0.0555556 0.0555556 0.0555556 0.0555556;
   (right_down, inclin_0, dist_2, close) 0.0625 0.0625 0.0625 0.0625 0.0625 0.0625 0.0625 0.0625 0.0625 0.0625 0.0625 0.0625 0.0625 0.0625 0.0625 0.0625;
   (left_down, inclin_0, dist_2, close) 0.0625 0.0625 0.0625 0.0625 0.0625 0.0625 0.0625 0.0625 0.0625 0.0625 0.0625 0.0625 0.0625 0.0625 0.0625 0.0625;
   (far_right_down, inclin_0, dist_2, close) 0.0625 0.0625 0.0625 0.0625 0.0625 0.0625 0.0625 0.0625 0.0625 0.0625 0.0625 0.0625 0.0625 0.0625 0.0625 0.0625;
   (far_left_down, inclin_0, dist_2, close) 0.0625 0.0625 0.0625 0.0625 0.0625 0.0625 0.0625 0.0625 0.0625 0.0625 0.0625 0.0625 0.0625 0.0625 0.0625 0.0625;
   (close_right_down, inclin_1, dist_1, close) 0.0625 0.0625 0.0625 0.0625 0.0625 0.0625 0.0625 0.0625 0.0625 0.0625 0.0625 0.0625 0.0625 0.0625 0.0625 0.0625;
   (close_left_down, inclin_1, dist_1, close) 0.0625 0.0625 0.0625 0.0625 0.0625 0.0625 0.0625 0.0625 0.0625 0.0625 0.0625 0.0625 0.0625 0.0625 0.0625 0.0625;
   (left, inclin_1, dist_1, close) 0.0625 0.0625 0.0625 0.0625 0.0625 0.0625 0.0625 0.0625 0.0625 0.0625 0.0625 0.0625 0.0625 0.0625 0.0625 0.0625;
   (right, inclin_1, dist_1, close) 0.0625 0.0625 0.0625 0.0625 0.0625 0.0625 0.0625 0.0625 0.0625 0.0625 0.0625 0.0625 0.0625 0.0625 0.0625 0.0625;
   (down, inclin_1, dist_1, close) 0.0625 0.0625 0.0625 0.0625 0.0625 0.0625 0.0625 0.0625 0.0625 0.0625 0.0625 0.0625 0.0625 0.0625 0.0625 0.0625;
   (close, inclin_1, dist_1, close) 0.0625 0.0625 0.0625 0.0625 0.0625 0.0625 0.0625 0.0625 0.0625 0.0625 0.0625 0.0625 0.0625 0.0625 0.0625 0.0625;
   (close_down, inclin_1, dist_1, close) 0.0625 0.0625 0.0625 0.0625 0.0625 0.0625 0.0625 0.0625 0.0625 0.0625 0.0625 0.0625 0.0625 0.0625 0.0625 0.0625;
   (far_down, inclin_1, dist_1, close) 0.0625 0.0625 0.0625 0.0625 0.0625 0.0625 0.0625 0.0625 0.0625 0.0625 0.0625 0.0625 0.0625 0.0625 0.0625 0.0625;
   (far, inclin_1, dist_1, close) 0.0625 0.0625 0.0625 0.0625 0.0625 0.0625 0.0625 0.0625 0.0625 0.0625 0.0625 0.0625 0.0625 0.0625 0.0625 0.0625;
   (right_down, inclin_1, dist_1, close) 0.0625 0.0625 0.0625 0.0625 0.0625 0.0625 0.0625 0.0625 0.0625 0.0625 0.0625 0.0625 0.0625 0.0625 0.0625 0.0625;
   (left_down, inclin_1, dist_1, close) 0.0625 0.0625 0.0625 0.0625 0.0625 0.0625 0.0625 0.0625 0.0625 0.0625 0.0625 0.0625 0.0625 0.0625 0.0625 0.0625;
   (far_right_down, inclin_1, dist_1, close) 0.0625 0.0625 0.0625 0.0625 0.0625 0.0625 0.0625 0.0625 0.0625 0.0625 0.0625 0.0625 0.0625 0.0625 0.0625 0.0625;
   (far_left_down, inclin_1, dist_1, close) 0.0625 0.0625 0.0625 0.0625 0.0625 0.0625 0.0625 0.0625 0.0625 0.0625 0.0625 0.0625 0.0625 0.0625 0.0625 0.0625;
   (close_right_down, inclin_2, dist_1, close) 0.0625 0.0625 0.0625 0.0625 0.0625 0.0625 0.0625 0.0625 0.0625 0.0625 0.0625 0.0625 0.0625 0.0625 0.0625 0.0625;
   (close_left_down, inclin_2, dist_1, close) 0.0625 0.0625 0.0625 0.0625 0.0625 0.0625 0.0625 0.0625 0.0625 0.0625 0.0625 0.0625 0.0625 0.0625 0.0625 0.0625;
   (left, inclin_2, dist_1, close) 0.0625 0.0625 0.0625 0.0625 0.0625 0.0625 0.0625 0.0625 0.0625 0.0625 0.0625 0.0625 0.0625 0.0625 0.0625 0.0625;
   (right, inclin_2, dist_1, close) 0.0625 0.0625 0.0625 0.0625 0.0625 0.0625 0.0625 0.0625 0.0625 0.0625 0.0625 0.0625 0.0625 0.0625 0.0625 0.0625;
   (down, inclin_2, dist_1, close) 0.0625 0.0625 0.0625 0.0625 0.0625 0.0625 0.0625 0.0625 0.0625 0.0625 0.0625 0.0625 0.0625 0.0625 0.0625 0.0625;
   (close, inclin_2, dist_1, close) 0.0625 0.0625 0.0625 0.0625 0.0625 0.0625 0.0625 0.0625 0.0625 0.0625 0.0625 0.0625 0.0625 0.0625 0.0625 0.0625;
   (close_down, inclin_2, dist_1, close) 0.0625 0.0625 0.0625 0.0625 0.0625 0.0625 0.0625 0.0625 0.0625 0.0625 0.0625 0.0625 0.0625 0.0625 0.0625 0.0625;
   (far_down, inclin_2, dist_1, close) 0.0625 0.0625 0.0625 0.0625 0.0625 0.0625 0.0625 0.0625 0.0625 0.0625 0.0625 0.0625 0.0625 0.0625 0.0625 0.0625;
   (far, inclin_2, dist_1, close) 0.0625 0.0625 0.0625 0.0625 0.0625 0.0625 0.0625 0.0625 0.0625 0.0625 0.0625 0.0625 0.0625 0.0625 0.0625 0.0625;
   (right_down, inclin_2, dist_1, close) 0.0625 0.0625 0.0625 0.0625 0.0625 0.0625 0.0625 0.0625 0.0625 0.0625 0.0625 0.0625 0.0625 0.0625 0.0625 0.0625;
   (left_down, inclin_2, dist_1, close) 0.0625 0.0625 0.0625 0.0625 0.0625 0.0625 0.0625 0.0625 0.0625 0.0625 0.0625 0.0625 0.0625 0.0625 0.0625 0.0625;
   (far_right_down, inclin_2, dist_1, close) 0.0625 0.0625 0.0625 0.0625 0.0625 0.0625 0.0625 0.0625 0.0625 0.0625 0.0625 0.0625 0.0625 0.0625 0.0625 0.0625;
   (far_left_down, inclin_2, dist_1, close) 0.0625 0.0625 0.0625 0.0625 0.0625 0.0625 0.0625 0.0625 0.0625 0.0625 0.0625 0.0625 0.0625 0.0625 0.0625 0.0625;
   (close_right_down, inclin_3, dist_1, close) 0.0625 0.0625 0.0625 0.0625 0.0625 0.0625 0.0625 0.0625 0.0625 0.0625 0.0625 0.0625 0.0625 0.0625 0.0625 0.0625;
   (close_left_down, inclin_3, dist_1, close) 0.0625 0.0625 0.0625 0.0625 0.0625 0.0625 0.0625 0.0625 0.0625 0.0625 0.0625 0.0625 0.0625 0.0625 0.0625 0.0625;
   (left, inclin_3, dist_1, close) 0.0625 0.0625 0.0625 0.0625 0.0625 0.0625 0.0625 0.0625 0.0625 0.0625 0.0625 0.0625 0.0625 0.0625 0.0625 0.0625;
   (right, inclin_3, dist_1, close) 0.0625 0.0625 0.0625 0.0625 0.0625 0.0625 0.0625 0.0625 0.0625 0.0625 0.0625 0.0625 0.0625 0.0625 0.0625 0.0625;
   (down, inclin_3, dist_1, close) 0.0625 0.0625 0.0625 0.0625 0.0625 0.0625 0.0625 0.0625 0.0625 0.0625 0.0625 0.0625 0.0625 0.0625 0.0625 0.0625;
   (close, inclin_3, dist_1, close) 0.0625 0.0625 0.0625 0.0625 0.0625 0.0625 0.0625 0.0625 0.0625 0.0625 0.0625 0.0625 0.0625 0.0625 0.0625 0.0625;
   (close_down, inclin_3, dist_1, close) 0.0625 0.0625 0.0625 0.0625 0.0625 0.0625 0.0625 0.0625 0.0625 0.0625 0.0625 0.0625 0.0625 0.0625 0.0625 0.0625;
   (far_down, inclin_3, dist_1, close) 0.0625 0.0625 0.0625 0.0625 0.0625 0.0625 0.0625 0.0625 0.0625 0.0625 0.0625 0.0625 0.0625 0.0625 0.0625 0.0625;
   (far, inclin_3, dist_1, close) 0.0625 0.0625 0.0625 0.0625 0.0625 0.0625 0.0625 0.0625 0.0625 0.0625 0.0625 0.0625 0.0625 0.0625 0.0625 0.0625;
   (right_down, inclin_3, dist_1, close) 0.0625 0.0625 0.0625 0.0625 0.0625 0.0625 0.0625 0.0625 0.0625 0.0625 0.0625 0.0625 0.0625 0.0625 0.0625 0.0625;
   (left_down, inclin_3, dist_1, close) 0.0625 0.0625 0.0625 0.0625 0.0625 0.0625 0.0625 0.0625 0.0625 0.0625 0.0625 0.0625 0.0625 0.0625 0.0625 0.0625;
   (far_right_down, inclin_3, dist_1, close) 0.0625 0.0625 0.0625 0.0625 0.0625 0.0625 0.0625 0.0625 0.0625 0.0625 0.0625 0.0625 0.0625 0.0625 0.0625 0.0625;
   (far_left_down, inclin_3, dist_1, close) 0.0625 0.0625 0.0625 0.0625 0.0625 0.0625 0.0625 0.0625 0.0625 0.0625 0.0625 0.0625 0.0625 0.0625 0.0625 0.0625;
   (close_right_down, inclin_4, dist_1, close) 0.0625 0.0625 0.0625 0.0625 0.0625 0.0625 0.0625 0.0625 0.0625 0.0625 0.0625 0.0625 0.0625 0.0625 0.0625 0.0625;
   (close_left_down, inclin_4, dist_1, close) 0.0625 0.0625 0.0625 0.0625 0.0625 0.0625 0.0625 0.0625 0.0625 0.0625 0.0625 0.0625 0.0625 0.0625 0.0625 0.0625;
   (left, inclin_4, dist_1, close) 0.0625 0.0625 0.0625 0.0625 0.0625 0.0625 0.0625 0.0625 0.0625 0.0625 0.0625 0.0625 0.0625 0.0625 0.0625 0.0625;
   (right, inclin_4, dist_1, close) 0.0625 0.0625 0.0625 0.0625 0.0625 0.0625 0.0625 0.0625 0.0625 0.0625 0.0625 0.0625 0.0625 0.0625 0.0625 0.0625;
   (down, inclin_4, dist_1, close) 0.0625 0.0625 0.0625 0.0625 0.0625 0.0625 0.0625 0.0625 0.0625 0.0625 0.0625 0.0625 0.0625 0.0625 0.0625 0.0625;
   (close, inclin_4, dist_1, close) 0.375 0.0416667 0.0416667 0.0416667 0.0416667 0.0416667 0.0416667 0.0416667 0.0416667 0.0416667 0.0416667 0.0416667 0.0416667 0.0416667 0.0416667 0.0416667;
   (close_down, inclin_4, dist_1, close) 0.0625 0.0625 0.0625 0.0625 0.0625 0.0625 0.0625 0.0625 0.0625 0.0625 0.0625 0.0625 0.0625 0.0625 0.0625 0.0625;
   (far_down, inclin_4, dist_1, close) 0.0625 0.0625 0.0625 0.0625 0.0625 0.0625 0.0625 0.0625 0.0625 0.0625 0.0625 0.0625 0.0625 0.0625 0.0625 0.0625;
   (far, inclin_4, dist_1, close) 0.0625 0.0625 0.0625 0.0625 0.0625 0.0625 0.0625 0.0625 0.0625 0.0625 0.0625 0.0625 0.0625 0.0625 0.0625 0.0625;
   (right_down, inclin_4, dist_1, close) 0.0625 0.0625 0.0625 0.0625 0.0625 0.0625 0.0625 0.0625 0.0625 0.0625 0.0625 0.0625 0.0625 0.0625 0.0625 0.0625;
   (left_down, inclin_4, dist_1, close) 0.0625 0.0625 0.0625 0.0625 0.0625 0.0625 0.0625 0.0625 0.0625 0.0625 0.0625 0.0625 0.0625 0.0625 0.0625 0.0625;
   (far_right_down, inclin_4, dist_1, close) 0.0625 0.0625 0.0625 0.0625 0.0625 0.0625 0.0625 0.0625 0.0625 0.0625 0.0625 0.0625 0.0625 0.0625 0.0625 0.0625;
   (far_left_down, inclin_4, dist_1, close) 0.0625 0.0625 0.0625 0.0625 0.0625 0.0625 0.0625 0.0625 0.0625 0.0625 0.0625 0.0625 0.0625 0.0625 0.0625 0.0625;
   (close_right_down, inclin_0, dist_1, close) 0.0625 0.0625 0.0625 0.0625 0.0625 0.0625 0.0625 0.0625 0.0625 0.0625 0.0625 0.0625 0.0625 0.0625 0.0625 0.0625;
   (close_left_down, inclin_0, dist_1, close) 0.0625 0.0625 0.0625 0.0625 0.0625 0.0625 0.0625 0.0625 0.0625 0.0625 0.0625 0.0625 0.0625 0.0625 0.0625 0.0625;
   (left, inclin_0, dist_1, close) 0.0625 0.0625 0.0625 0.0625 0.0625 0.0625 0.0625 0.0625 0.0625 0.0625 0.0625 0.0625 0.0625 0.0625 0.0625 0.0625;
   (right, inclin_0, dist_1, close) 0.0625 0.0625 0.0625 0.0625 0.0625 0.0625 0.0625 0.0625 0.0625 0.0625 0.0625 0.0625 0.0625 0.0625 0.0625 0.0625;
   (down, inclin_0, dist_1, close) 0.0625 0.0625 0.0625 0.0625 0.0625 0.0625 0.0625 0.0625 0.0625 0.0625 0.0625 0.0625 0.0625 0.0625 0.0625 0.0625;
   (close, inclin_0, dist_1, close) 0.0625 0.0625 0.0625 0.0625 0.0625 0.0625 0.0625 0.0625 0.0625 0.0625 0.0625 0.0625 0.0625 0.0625 0.0625 0.0625;
   (close_down, inclin_0, dist_1, close) 0.0625 0.0625 0.0625 0.0625 0.0625 0.0625 0.0625 0.0625 0.0625 0.0625 0.0625 0.0625 0.0625 0.0625 0.0625 0.0625;
   (far_down, inclin_0, dist_1, close) 0.0625 0.0625 0.0625 0.0625 0.0625 0.0625 0.0625 0.0625 0.0625 0.0625 0.0625 0.0625 0.0625 0.0625 0.0625 0.0625;
   (far, inclin_0, dist_1, close) 0.0625 0.0625 0.0625 0.0625 0.0625 0.0625 0.0625 0.0625 0.0625 0.0625 0.0625 0.0625 0.0625 0.0625 0.0625 0.0625;
   (right_down, inclin_0, dist_1, close) 0.0625 0.0625 0.0625 0.0625 0.0625 0.0625 0.0625 0.0625 0.0625 0.0625 0.0625 0.0625 0.0625 0.0625 0.0625 0.0625;
   (left_down, inclin_0, dist_1, close) 0.0625 0.0625 0.0625 0.0625 0.0625 0.0625 0.0625 0.0625 0.0625 0.0625 0.0625 0.0625 0.0625 0.0625 0.0625 0.0625;
   (far_right_down, inclin_0, dist_1, close) 0.0625 0.0625 0.0625 0.0625 0.0625 0.0625 0.0625 0.0625 0.0625 0.0625 0.0625 0.0625 0.0625 0.0625 0.0625 0.0625;
   (far_left_down, inclin_0, dist_1, close) 0.0625 0.0625 0.0625 0.0625 0.0625 0.0625 0.0625 0.0625 0.0625 0.0625 0.0625 0.0625 0.0625 0.0625 0.0625 0.0625;
   (close_right_down, inclin_1, dist_0, close) 0.0625 0.0625 0.0625 0.0625 0.0625 0.0625 0.0625 0.0625 0.0625 0.0625 0.0625 0.0625 0.0625 0.0625 0.0625 0.0625;
   (close_left_down, inclin_1, dist_0, close) 0.0625 0.0625 0.0625 0.0625 0.0625 0.0625 0.0625 0.0625 0.0625 0.0625 0.0625 0.0625 0.0625 0.0625 0.0625 0.0625;
   (left, inclin_1, dist_0, close) 0.0625 0.0625 0.0625 0.0625 0.0625 0.0625 0.0625 0.0625 0.0625 0.0625 0.0625 0.0625 0.0625 0.0625 0.0625 0.0625;
   (right, inclin_1, dist_0, close) 0.0625 0.0625 0.0625 0.0625 0.0625 0.0625 0.0625 0.0625 0.0625 0.0625 0.0625 0.0625 0.0625 0.0625 0.0625 0.0625;
   (down, inclin_1, dist_0, close) 0.0625 0.0625 0.0625 0.0625 0.0625 0.0625 0.0625 0.0625 0.0625 0.0625 0.0625 0.0625 0.0625 0.0625 0.0625 0.0625;
   (close, inclin_1, dist_0, close) 0.0625 0.0625 0.0625 0.0625 0.0625 0.0625 0.0625 0.0625 0.0625 0.0625 0.0625 0.0625 0.0625 0.0625 0.0625 0.0625;
   (close_down, inclin_1, dist_0, close) 0.0625 0.0625 0.0625 0.0625 0.0625 0.0625 0.0625 0.0625 0.0625 0.0625 0.0625 0.0625 0.0625 0.0625 0.0625 0.0625;
   (far_down, inclin_1, dist_0, close) 0.0625 0.0625 0.0625 0.0625 0.0625 0.0625 0.0625 0.0625 0.0625 0.0625 0.0625 0.0625 0.0625 0.0625 0.0625 0.0625;
   (far, inclin_1, dist_0, close) 0.0625 0.0625 0.0625 0.0625 0.0625 0.0625 0.0625 0.0625 0.0625 0.0625 0.0625 0.0625 0.0625 0.0625 0.0625 0.0625;
   (right_down, inclin_1, dist_0, close) 0.0625 0.0625 0.0625 0.0625 0.0625 0.0625 0.0625 0.0625 0.0625 0.0625 0.0625 0.0625 0.0625 0.0625 0.0625 0.0625;
   (left_down, inclin_1, dist_0, close) 0.0625 0.0625 0.0625 0.0625 0.0625 0.0625 0.0625 0.0625 0.0625 0.0625 0.0625 0.0625 0.0625 0.0625 0.0625 0.0625;
   (far_right_down, inclin_1, dist_0, close) 0.0625 0.0625 0.0625 0.0625 0.0625 0.0625 0.0625 0.0625 0.0625 0.0625 0.0625 0.0625 0.0625 0.0625 0.0625 0.0625;
   (far_left_down, inclin_1, dist_0, close) 0.0625 0.0625 0.0625 0.0625 0.0625 0.0625 0.0625 0.0625 0.0625 0.0625 0.0625 0.0625 0.0625 0.0625 0.0625 0.0625;
   (close_right_down, inclin_2, dist_0, close) 0.0625 0.0625 0.0625 0.0625 0.0625 0.0625 0.0625 0.0625 0.0625 0.0625 0.0625 0.0625 0.0625 0.0625 0.0625 0.0625;
   (close_left_down, inclin_2, dist_0, close) 0.0625 0.0625 0.0625 0.0625 0.0625 0.0625 0.0625 0.0625 0.0625 0.0625 0.0625 0.0625 0.0625 0.0625 0.0625 0.0625;
   (left, inclin_2, dist_0, close) 0.0625 0.0625 0.0625 0.0625 0.0625 0.0625 0.0625 0.0625 0.0625 0.0625 0.0625 0.0625 0.0625 0.0625 0.0625 0.0625;
   (right, inclin_2, dist_0, close) 0.0625 0.0625 0.0625 0.0625 0.0625 0.0625 0.0625 0.0625 0.0625 0.0625 0.0625 0.0625 0.0625 0.0625 0.0625 0.0625;
   (down, inclin_2, dist_0, close) 0.0625 0.0625 0.0625 0.0625 0.0625 0.0625 0.0625 0.0625 0.0625 0.0625 0.0625 0.0625 0.0625 0.0625 0.0625 0.0625;
   (close, inclin_2, dist_0, close) 0.0625 0.0625 0.0625 0.0625 0.0625 0.0625 0.0625 0.0625 0.0625 0.0625 0.0625 0.0625 0.0625 0.0625 0.0625 0.0625;
   (close_down, inclin_2, dist_0, close) 0.0625 0.0625 0.0625 0.0625 0.0625 0.0625 0.0625 0.0625 0.0625 0.0625 0.0625 0.0625 0.0625 0.0625 0.0625 0.0625;
   (far_down, inclin_2, dist_0, close) 0.0625 0.0625 0.0625 0.0625 0.0625 0.0625 0.0625 0.0625 0.0625 0.0625 0.0625 0.0625 0.0625 0.0625 0.0625 0.0625;
   (far, inclin_2, dist_0, close) 0.0625 0.0625 0.0625 0.0625 0.0625 0.0625 0.0625 0.0625 0.0625 0.0625 0.0625 0.0625 0.0625 0.0625 0.0625 0.0625;
   (right_down, inclin_2, dist_0, close) 0.0625 0.0625 0.0625 0.0625 0.0625 0.0625 0.0625 0.0625 0.0625 0.0625 0.0625 0.0625 0.0625 0.0625 0.0625 0.0625;
   (left_down, inclin_2, dist_0, close) 0.0625 0.0625 0.0625 0.0625 0.0625 0.0625 0.0625 0.0625 0.0625 0.0625 0.0625 0.0625 0.0625 0.0625 0.0625 0.0625;
   (far_right_down, inclin_2, dist_0, close) 0.0625 0.0625 0.0625 0.0625 0.0625 0.0625 0.0625 0.0625 0.0625 0.0625 0.0625 0.0625 0.0625 0.0625 0.0625 0.0625;
   (far_left_down, inclin_2, dist_0, close) 0.0625 0.0625 0.0625 0.0625 0.0625 0.0625 0.0625 0.0625 0.0625 0.0625 0.0625 0.0625 0.0625 0.0625 0.0625 0.0625;
   (close_right_down, inclin_3, dist_0, close) 0.0625 0.0625 0.0625 0.0625 0.0625 0.0625 0.0625 0.0625 0.0625 0.0625 0.0625 0.0625 0.0625 0.0625 0.0625 0.0625;
   (close_left_down, inclin_3, dist_0, close) 0.0625 0.0625 0.0625 0.0625 0.0625 0.0625 0.0625 0.0625 0.0625 0.0625 0.0625 0.0625 0.0625 0.0625 0.0625 0.0625;
   (left, inclin_3, dist_0, close) 0.0625 0.0625 0.0625 0.0625 0.0625 0.0625 0.0625 0.0625 0.0625 0.0625 0.0625 0.0625 0.0625 0.0625 0.0625 0.0625;
   (right, inclin_3, dist_0, close) 0.0625 0.0625 0.0625 0.0625 0.0625 0.0625 0.0625 0.0625 0.0625 0.0625 0.0625 0.0625 0.0625 0.0625 0.0625 0.0625;
   (down, inclin_3, dist_0, close) 0.0625 0.0625 0.0625 0.0625 0.0625 0.0625 0.0625 0.0625 0.0625 0.0625 0.0625 0.0625 0.0625 0.0625 0.0625 0.0625;
   (close, inclin_3, dist_0, close) 0.0625 0.0625 0.0625 0.0625 0.0625 0.0625 0.0625 0.0625 0.0625 0.0625 0.0625 0.0625 0.0625 0.0625 0.0625 0.0625;
   (close_down, inclin_3, dist_0, close) 0.0625 0.0625 0.0625 0.0625 0.0625 0.0625 0.0625 0.0625 0.0625 0.0625 0.0625 0.0625 0.0625 0.0625 0.0625 0.0625;
   (far_down, inclin_3, dist_0, close) 0.0625 0.0625 0.0625 0.0625 0.0625 0.0625 0.0625 0.0625 0.0625 0.0625 0.0625 0.0625 0.0625 0.0625 0.0625 0.0625;
   (far, inclin_3, dist_0, close) 0.0625 0.0625 0.0625 0.0625 0.0625 0.0625 0.0625 0.0625 0.0625 0.0625 0.0625 0.0625 0.0625 0.0625 0.0625 0.0625;
   (right_down, inclin_3, dist_0, close) 0.0625 0.0625 0.0625 0.0625 0.0625 0.0625 0.0625 0.0625 0.0625 0.0625 0.0625 0.0625 0.0625 0.0625 0.0625 0.0625;
   (left_down, inclin_3, dist_0, close) 0.0625 0.0625 0.0625 0.0625 0.0625 0.0625 0.0625 0.0625 0.0625 0.0625 0.0625 0.0625 0.0625 0.0625 0.0625 0.0625;
   (far_right_down, inclin_3, dist_0, close) 0.0625 0.0625 0.0625 0.0625 0.0625 0.0625 0.0625 0.0625 0.0625 0.0625 0.0625 0.0625 0.0625 0.0625 0.0625 0.0625;
   (far_left_down, inclin_3, dist_0, close) 0.0625 0.0625 0.0625 0.0625 0.0625 0.0625 0.0625 0.0625 0.0625 0.0625 0.0625 0.0625 0.0625 0.0625 0.0625 0.0625;
   (close_right_down, inclin_4, dist_0, close) 0.0625 0.0625 0.0625 0.0625 0.0625 0.0625 0.0625 0.0625 0.0625 0.0625 0.0625 0.0625 0.0625 0.0625 0.0625 0.0625;
   (close_left_down, inclin_4, dist_0, close) 0.0625 0.0625 0.0625 0.0625 0.0625 0.0625 0.0625 0.0625 0.0625 0.0625 0.0625 0.0625 0.0625 0.0625 0.0625 0.0625;
   (left, inclin_4, dist_0, close) 0.0625 0.0625 0.0625 0.0625 0.0625 0.0625 0.0625 0.0625 0.0625 0.0625 0.0625 0.0625 0.0625 0.0625 0.0625 0.0625;
   (right, inclin_4, dist_0, close) 0.0625 0.0625 0.0625 0.0625 0.0625 0.0625 0.0625 0.0625 0.0625 0.0625 0.0625 0.0625 0.0625 0.0625 0.0625 0.0625;
   (down, inclin_4, dist_0, close) 0.0625 0.0625 0.0625 0.0625 0.0625 0.0625 0.0625 0.0625 0.0625 0.0625 0.0625 0.0625 0.0625 0.0625 0.0625 0.0625;
   (close, inclin_4, dist_0, close) 0.25 0.05 0.05 0.05 0.05 0.05 0.05 0.05 0.05 0.05 0.05 0.05 0.05 0.05 0.05 0.05;
   (close_down, inclin_4, dist_0, close) 0.0625 0.0625 0.0625 0.0625 0.0625 0.0625 0.0625 0.0625 0.0625 0.0625 0.0625 0.0625 0.0625 0.0625 0.0625 0.0625;
   (far_down, inclin_4, dist_0, close) 0.0625 0.0625 0.0625 0.0625 0.0625 0.0625 0.0625 0.0625 0.0625 0.0625 0.0625 0.0625 0.0625 0.0625 0.0625 0.0625;
   (far, inclin_4, dist_0, close) 0.0625 0.0625 0.0625 0.0625 0.0625 0.0625 0.0625 0.0625 0.0625 0.0625 0.0625 0.0625 0.0625 0.0625 0.0625 0.0625;
   (right_down, inclin_4, dist_0, close) 0.0625 0.0625 0.0625 0.0625 0.0625 0.0625 0.0625 0.0625 0.0625 0.0625 0.0625 0.0625 0.0625 0.0625 0.0625 0.0625;
   (left_down, inclin_4, dist_0, close) 0.0625 0.0625 0.0625 0.0625 0.0625 0.0625 0.0625 0.0625 0.0625 0.0625 0.0625 0.0625 0.0625 0.0625 0.0625 0.0625;
   (far_right_down, inclin_4, dist_0, close) 0.0625 0.0625 0.0625 0.0625 0.0625 0.0625 0.0625 0.0625 0.0625 0.0625 0.0625 0.0625 0.0625 0.0625 0.0625 0.0625;
   (far_left_down, inclin_4, dist_0, close) 0.0625 0.0625 0.0625 0.0625 0.0625 0.0625 0.0625 0.0625 0.0625 0.0625 0.0625 0.0625 0.0625 0.0625 0.0625 0.0625;
   (close_right_down, inclin_0, dist_0, close) 0.0625 0.0625 0.0625 0.0625 0.0625 0.0625 0.0625 0.0625 0.0625 0.0625 0.0625 0.0625 0.0625 0.0625 0.0625 0.0625;
   (close_left_down, inclin_0, dist_0, close) 0.0625 0.0625 0.0625 0.0625 0.0625 0.0625 0.0625 0.0625 0.0625 0.0625 0.0625 0.0625 0.0625 0.0625 0.0625 0.0625;
   (left, inclin_0, dist_0, close) 0.0625 0.0625 0.0625 0.0625 0.0625 0.0625 0.0625 0.0625 0.0625 0.0625 0.0625 0.0625 0.0625 0.0625 0.0625 0.0625;
   (right, inclin_0, dist_0, close) 0.0625 0.0625 0.0625 0.0625 0.0625 0.0625 0.0625 0.0625 0.0625 0.0625 0.0625 0.0625 0.0625 0.0625 0.0625 0.0625;
   (down, inclin_0, dist_0, close) 0.0625 0.0625 0.0625 0.0625 0.0625 0.0625 0.0625 0.0625 0.0625 0.0625 0.0625 0.0625 0.0625 0.0625 0.0625 0.0625;
   (close, inclin_0, dist_0, close) 0.0625 0.0625 0.0625 0.0625 0.0625 0.0625 0.0625 0.0625 0.0625 0.0625 0.0625 0.0625 0.0625 0.0625 0.0625 0.0625;
   (close_down, inclin_0, dist_0, close) 0.0625 0.0625 0.0625 0.0625 0.0625 0.0625 0.0625 0.0625 0.0625 0.0625 0.0625 0.0625 0.0625 0.0625 0.0625 0.0625;
   (far_down, inclin_0, dist_0, close) 0.0625 0.0625 0.0625 0.0625 0.0625 0.0625 0.0625 0.0625 0.0625 0.0625 0.0625 0.0625 0.0625 0.0625 0.0625 0.0625;
   (far, inclin_0, dist_0, close) 0.0625 0.0625 0.0625 0.0625 0.0625 0.0625 0.0625 0.0625 0.0625 0.0625 0.0625 0.0625 0.0625 0.0625 0.0625 0.0625;
   (right_down, inclin_0, dist_0, close) 0.0625 0.0625 0.0625 0.0625 0.0625 0.0625 0.0625 0.0625 0.0625 0.0625 0.0625 0.0625 0.0625 0.0625 0.0625 0.0625;
   (left_down, inclin_0, dist_0, close) 0.0625 0.0625 0.0625 0.0625 0.0625 0.0625 0.0625 0.0625 0.0625 0.0625 0.0625 0.0625 0.0625 0.0625 0.0625 0.0625;
   (far_right_down, inclin_0, dist_0, close) 0.0625 0.0625 0.0625 0.0625 0.0625 0.0625 0.0625 0.0625 0.0625 0.0625 0.0625 0.0625 0.0625 0.0625 0.0625 0.0625;
   (far_left_down, inclin_0, dist_0, close) 0.0625 0.0625 0.0625 0.0625 0.0625 0.0625 0.0625 0.0625 0.0625 0.0625 0.0625 0.0625 0.0625 0.0625 0.0625 0.0625;
   (close_right_down, inclin_1, dist_2, far) 0.0526316 0.0526316 0.0526316 0.0526316 0.0526316 0.0526316 0.0526316 0.0526316 0.157895 0.0526316 0.105263 0.0526316 0.0526316 0.0526316 0.0526316 0.0526316;
   (close_left_down, inclin_1, dist_2, far) 0.0526316 0.0526316 0.0526316 0.0526316 0.157895 0.0526316 0.0526316 0.0526316 0.0526316 0.0526316 0.0526316 0.0526316 0.0526316 0.0526316 0.0526316 0.105263;
   (left, inclin_1, dist_2, far) 0.0625 0.0625 0.0625 0.0625 0.0625 0.0625 0.0625 0.0625 0.0625 0.0625 0.0625 0.0625 0.0625 0.0625 0.0625 0.0625;
   (right, inclin_1, dist_2, far) 0.0625 0.0625 0.0625 0.0625 0.0625 0.0625 0.0625 0.0625 0.0625 0.0625 0.0625 0.0625 0.0625 0.0625 0.0625 0.0625;
   (down, inclin_1, dist_2, far) 0.0588235 0.0588235 0.0588235 0.0588235 0.0588235 0.0588235 0.0588235 0.0588235 0.0588235 0.0588235 0.0588235 0.0588235 0.0588235 0.117647 0.0588235 0.0588235;
   (close, inclin_1, dist_2, far) 0.210526 0.0526316 0.0526316 0.0526316 0.0526316 0.0526316 0.0526316 0.0526316 0.0526316 0.0526316 0.0526316 0.0526316 0.0526316 0.0526316 0.0526316 0.0526316;
   (close_down, inclin_1, dist_2, far) 0.0555556 0.0555556 0.0555556 0.0555556 0.0555556 0.0555556 0.0555556 0.0555556 0.0555556 0.166667 0.0555556 0.0555556 0.0555556 0.0555556 0.0555556 0.0555556;
   (far_down, inclin_1, dist_2, far) 0.0625 0.0625 0.0625 0.0625 0.0625 0.0625 0.0625 0.0625 0.0625 0.0625 0.0625 0.0625 0.0625 0.0625 0.0625 0.0625;
   (far, inclin_1, dist_2, far) 0.0625 0.0625 0.0625 0.0625 0.0625 0.0625 0.0625 0.0625 0.0625 0.0625 0.0625 0.0625 0.0625 0.0625 0.0625 0.0625;
   (right_down, inclin_1, dist_2, far) 0.0625 0.0625 0.0625 0.0625 0.0625 0.0625 0.0625 0.0625 0.0625 0.0625 0.0625 0.0625 0.0625 0.0625 0.0625 0.0625;
   (left_down, inclin_1, dist_2, far) 0.0588235 0.0588235 0.0588235 0.0588235 0.0588235 0.0588235 0.0588235 0.0588235 0.0588235 0.0588235 0.0588235 0.0588235 0.0588235 0.0588235 0.117647 0.0588235;
   (far_right_down, inclin_1, dist_2, far) 0.0625 0.0625 0.0625 0.0625 0.0625 0.0625 0.0625 0.0625 0.0625 0.0625 0.0625 0.0625 0.0625 0.0625 0.0625 0.0625;
   (far_left_down, inclin_1, dist_2, far) 0.0625 0.0625 0.0625 0.0625 0.0625 0.0625 0.0625 0.0625 0.0625 0.0625 0.0625 0.0625 0.0625 0.0625 0.0625 0.0625;
   (close_right_down, inclin_2, dist_2, far) 0.0526316 0.0526316 0.0526316 0.0526316 0.0526316 0.0526316 0.0526316 0.0526316 0.0526316 0.0526316 0.0526316 0.105263 0.157895 0.0526316 0.0526316 0.0526316;
   (close_left_down, inclin_2, dist_2, far) 0.0526316 0.0526316 0.0526316 0.0526316 0.0526316 0.0526316 0.0526316 0.0526316 0.0526316 0.0526316 0.0526316 0.0526316 0.0526316 0.157895 0.105263 0.0526316;
   (left, inclin_2, dist_2, far) 0.0625 0.0625 0.0625 0.0625 0.0625 0.0625 0.0625 0.0625 0.0625 0.0625 0.0625 0.0625 0.0625 0.0625 0.0625 0.0625;
   (right, inclin_2, dist_2, far) 0.0625 0.0625 0.0625 0.0625 0.0625 0.0625 0.0625 0.0625 0.0625 0.0625 0.0625 0.0625 0.0625 0.0625 0.0625 0.0625;
   (down, inclin_2, dist_2, far) 0.0555556 0.0555556 0.0555556 0.0555556 0.0555556 0.0555556 0.0555556 0.0555556 0.0555556 0.0555556 0.0555556 0.0555556 0.0555556 0.166667 0.0555556 0.0555556;
   (close, inclin_2, dist_2, far) 0.0625 0.0625 0.0625 0.0625 0.0625 0.0625 0.0625 0.0625 0.0625 0.0625 0.0625 0.0625 0.0625 0.0625 0.0625 0.0625;
   (close_down, inclin_2, dist_2, far) 0.0555556 0.0555556 0.0555556 0.0555556 0.0555556 0.0555556 0.0555556 0.0555556 0.0555556 0.166667 0.0555556 0.0555556 0.0555556 0.0555556 0.0555556 0.0555556;
   (far_down, inclin_2, dist_2, far) 0.0625 0.0625 0.0625 0.0625 0.0625 0.0625 0.0625 0.0625 0.0625 0.0625 0.0625 0.0625 0.0625 0.0625 0.0625 0.0625;
   (far, inclin_2, dist_2, far) 0.0625 0.0625 0.0625 0.0625 0.0625 0.0625 0.0625 0.0625 0.0625 0.0625 0.0625 0.0625 0.0625 0.0625 0.0625 0.0625;
   (right_down, inclin_2, dist_2, far) 0.0625 0.0625 0.0625 0.0625 0.0625 0.0625 0.0625 0.0625 0.0625 0.0625 0.0625 0.0625 0.0625 0.0625 0.0625 0.0625;
   (left_down, inclin_2, dist_2, far) 0.0625 0.0625 0.0625 0.0625 0.0625 0.0625 0.0625 0.0625 0.0625 0.0625 0.0625 0.0625 0.0625 0.0625 0.0625 0.0625;
   (far_right_down, inclin_2, dist_2, far) 0.0625 0.0625 0.0625 0.0625 0.0625 0.0625 0.0625 0.0625 0.0625 0.0625 0.0625 0.0625 0.0625 0.0625 0.0625 0.0625;
   (far_left_down, inclin_2, dist_2, far) 0.0625 0.0625 0.0625 0.0625 0.0625 0.0625 0.0625 0.0625 0.0625 0.0625 0.0625 0.0625 0.0625 0.0625 0.0625 0.0625;
   (close_right_down, inclin_3, dist_2, far) 0.0625 0.0625 0.0625 0.0625 0.0625 0.0625 0.0625 0.0625 0.0625 0.0625 0.0625 0.0625 0.0625 0.0625 0.0625 0.0625;
   (close_left_down, inclin_3, dist_2, far) 0.0625 0.0625 0.0625 0.0625 0.0625 0.0625 0.0625 0.0625 0.0625 0.0625 0.0625 0.0625 0.0625 0.0625 0.0625 0.0625;
   (left, inclin_3, dist_2, far) 0.0625 0.0625 0.0625 0.0625 0.0625 0.0625 0.0625 0.0625 0.0625 0.0625 0.0625 0.0625 0.0625 0.0625 0.0625 0.0625;
   (right, inclin_3, dist_2, far) 0.0625 0.0625 0.0625 0.0625 0.0625 0.0625 0.0625 0.0625 0.0625 0.0625 0.0625 0.0625 0.0625 0.0625 0.0625 0.0625;
   (down, inclin_3, dist_2, far) 0.0625 0.0625 0.0625 0.0625 0.0625 0.0625 0.0625 0.0625 0.0625 0.0625 0.0625 0.0625 0.0625 0.0625 0.0625 0.0625;
   (close, inclin_3, dist_2, far) 0.0625 0.0625 0.0625 0.0625 0.0625 0.0625 0.0625 0.0625 0.0625 0.0625 0.0625 0.0625 0.0625 0.0625 0.0625 0.0625;
   (close_down, inclin_3, dist_2, far) 0.0625 0.0625 0.0625 0.0625 0.0625 0.0625 0.0625 0.0625 0.0625 0.0625 0.0625 0.0625 0.0625 0.0625 0.0625 0.0625;
   (far_down, inclin_3, dist_2, far) 0.0555556 0.0555556 0.0555556 0.0555556 0.0555556 0.0555556 0.0555556 0.0555556 0.0555556 0.166667 0.0555556 0.0555556 0.0555556 0.0555556 0.0555556 0.0555556;
   (far, inclin_3, dist_2, far) 0.0555556 0.0555556 0.0555556 0.0555556 0.0555556 0.0555556 0.0555556 0.0555556 0.0555556 0.166667 0.0555556 0.0555556 0.0555556 0.0555556 0.0555556 0.0555556;
   (right_down, inclin_3, dist_2, far) 0.0625 0.0625 0.0625 0.0625 0.0625 0.0625 0.0625 0.0625 0.0625 0.0625 0.0625 0.0625 0.0625 0.0625 0.0625 0.0625;
   (left_down, inclin_3, dist_2, far) 0.0555556 0.0555556 0.0555556 0.0555556 0.0555556 0.0555556 0.0555556 0.0555556 0.0555556 0.0555556 0.0555556 0.0555556 0.0555556 0.166667 0.0555556 0.0555556;
   (far_right_down, inclin_3, dist_2, far) 0.0588235 0.0588235 0.0588235 0.0588235 0.0588235 0.0588235 0.0588235 0.0588235 0.0588235 0.117647 0.0588235 0.0588235 0.0588235 0.0588235 0.0588235 0.0588235;
   (far_left_down, inclin_3, dist_2, far) 0.0588235 0.0588235 0.0588235 0.0588235 0.0588235 0.0588235 0.0588235 0.0588235 0.0588235 0.117647 0.0588235 0.0588235 0.0588235 0.0588235 0.0588235 0.0588235;
   (close_right_down, inclin_4, dist_2, far) 0.0625 0.0625 0.0625 0.0625 0.0625 0.0625 0.0625 0.0625 0.0625 0.0625 0.0625 0.0625 0.0625 0.0625 0.0625 0.0625;
   (close_left_down, inclin_4, dist_2, far) 0.0625 0.0625 0.0625 0.0625 0.0625 0.0625 0.0625 0.0625 0.0625 0.0625 0.0625 0.0625 0.0625 0.0625 0.0625 0.0625;
   (left, inclin_4, dist_2, far) 0.0625 0.0625 0.0625 0.0625 0.0625 0.0625 0.0625 0.0625 0.0625 0.0625 0.0625 0.0625 0.0625 0.0625 0.0625 0.0625;
   (right, inclin_4, dist_2, far) 0.0625 0.0625 0.0625 0.0625 0.0625 0.0625 0.0625 0.0625 0.0625 0.0625 0.0625 0.0625 0.0625 0.0625 0.0625 0.0625;
   (down, inclin_4, dist_2, far) 0.0625 0.0625 0.0625 0.0625 0.0625 0.0625 0.0625 0.0625 0.0625 0.0625 0.0625 0.0625 0.0625 0.0625 0.0625 0.0625;
