
network unnamedBN{
   property software aGrUM;
}

variable effect {
   type discrete[1] {right};
}

variable orientation {
   type discrete[10] {orien_12, orien_11, orien_10, orien_8, orien_9, orien_13, orien_14, orien_6, orien_7, orien_15};
}

variable inclination {
   type discrete[5] {inclin_1, inclin_2, inclin_4, inclin_3, inclin_0};
}

variable move {
   type discrete[14] {down, right, close_right_down, right_down, far_right_down, close_down, left_down, far, far_down, close_right, close, far_left_down, far_right, close_left_down};
}

variable distance {
   type discrete[5] {dist_4, dist_3, dist_1, dist_0, dist_2};
}

probability (effect | orientation, distance) {
   (orien_12, dist_4) 1;
   (orien_11, dist_4) 1;
   (orien_10, dist_4) 1;
   (orien_8, dist_4) 1;
   (orien_9, dist_4) 1;
   (orien_13, dist_4) 1;
   (orien_14, dist_4) 1;
   (orien_6, dist_4) 1;
   (orien_7, dist_4) 1;
   (orien_15, dist_4) 1;
   (orien_12, dist_3) 1;
   (orien_11, dist_3) 1;
   (orien_10, dist_3) 1;
   (orien_8, dist_3) 1;
   (orien_9, dist_3) 1;
   (orien_13, dist_3) 1;
   (orien_14, dist_3) 1;
   (orien_6, dist_3) 1;
   (orien_7, dist_3) 1;
   (orien_15, dist_3) 1;
   (orien_12, dist_1) 1;
   (orien_11, dist_1) 1;
   (orien_10, dist_1) 1;
   (orien_8, dist_1) 1;
   (orien_9, dist_1) 1;
   (orien_13, dist_1) 1;
   (orien_14, dist_1) 1;
   (orien_6, dist_1) 1;
   (orien_7, dist_1) 1;
   (orien_15, dist_1) 1;
   (orien_12, dist_0) 1;
   (orien_11, dist_0) 1;
   (orien_10, dist_0) 1;
   (orien_8, dist_0) 1;
   (orien_9, dist_0) 1;
   (orien_13, dist_0) 1;
   (orien_14, dist_0) 1;
   (orien_6, dist_0) 1;
   (orien_7, dist_0) 1;
   (orien_15, dist_0) 1;
   (orien_12, dist_2) 1;
   (orien_11, dist_2) 1;
   (orien_10, dist_2) 1;
   (orien_8, dist_2) 1;
   (orien_9, dist_2) 1;
   (orien_13, dist_2) 1;
   (orien_14, dist_2) 1;
   (orien_6, dist_2) 1;
   (orien_7, dist_2) 1;
   (orien_15, dist_2) 1;
}
probability (orientation | inclination) {
   (inclin_1) 0.166667 0.178161 0.310345 0.0344828 0.109195 0.12069 0.0402299 0.00574713 0.00574713 0.0287356;
   (inclin_2) 0.278846 0.355769 0.293269 0.00480769 0.00480769 0.0384615 0.00961538 0.00480769 0.00480769 0.00480769;
   (inclin_4) 0.00630915 0.968454 0.00315457 0.00315457 0.00315457 0.00315457 0.00315457 0.00315457 0.00315457 0.00315457;
   (inclin_3) 0.16092 0.655172 0.103448 0.0114943 0.0114943 0.0114943 0.0114943 0.0114943 0.0114943 0.0114943;
   (inclin_0) 0.14 0.06 0.18 0.1 0.14 0.18 0.08 0.04 0.04 0.04;
}
probability (inclination | distance) {
   (dist_4) 0.438312 0.412338 0.00324675 0.025974 0.12013;
   (dist_3) 0.274194 0.548387 0.016129 0.0967742 0.0645161;
   (dist_1) 0.0612245 0.367347 0.102041 0.44898 0.0204082;
   (dist_0) 0.00327869 0.00327869 0.986885 0.00327869 0.00327869;
   (dist_2) 0.149425 0.264368 0.045977 0.517241 0.0229885;
}
probability (move | orientation, distance, inclination, effect) {
   (orien_12, dist_4, inclin_1, right) 0.432432 0.027027 0.027027 0.108108 0.162162 0.027027 0.027027 0.027027 0.027027 0.027027 0.027027 0.027027 0.027027 0.027027;
   (orien_11, dist_4, inclin_1, right) 0.421053 0.0263158 0.0263158 0.263158 0.0263158 0.0263158 0.0263158 0.0263158 0.0263158 0.0263158 0.0263158 0.0263158 0.0263158 0.0263158;
   (orien_10, dist_4, inclin_1, right) 0.438596 0.0175439 0.0877193 0.210526 0.0175439 0.0877193 0.0175439 0.0175439 0.0175439 0.0175439 0.0175439 0.0175439 0.0175439 0.0175439;
   (orien_8, dist_4, inclin_1, right) 0.0526316 0.0526316 0.0526316 0.0526316 0.0526316 0.263158 0.0526316 0.0526316 0.0526316 0.0526316 0.0526316 0.0526316 0.0526316 0.105263;
   (orien_9, dist_4, inclin_1, right) 0.233333 0.0333333 0.0333333 0.0333333 0.0333333 0.3 0.0333333 0.0333333 0.0333333 0.0333333 0.0333333 0.0333333 0.0333333 0.1;
   (orien_13, dist_4, inclin_1, right) 0.107143 0.0357143 0.0357143 0.0357143 0.142857 0.0357143 0.0357143 0.0357143 0.357143 0.0357143 0.0357143 0.0357143 0.0357143 0.0357143;
   (orien_14, dist_4, inclin_1, right) 0.0526316 0.0526316 0.0526316 0.0526316 0.0526316 0.0526316 0.105263 0.0526316 0.105263 0.0526316 0.0526316 0.210526 0.0526316 0.0526316;
   (orien_6, dist_4, inclin_1, right) 0.0714286 0.0714286 0.0714286 0.0714286 0.0714286 0.0714286 0.0714286 0.0714286 0.0714286 0.0714286 0.0714286 0.0714286 0.0714286 0.0714286;
   (orien_7, dist_4, inclin_1, right) 0.0714286 0.0714286 0.0714286 0.0714286 0.0714286 0.0714286 0.0714286 0.0714286 0.0714286 0.0714286 0.0714286 0.0714286 0.0714286 0.0714286;
   (orien_15, dist_4, inclin_1, right) 0.0555556 0.0555556 0.0555556 0.0555556 0.0555556 0.0555556 0.0555556 0.0555556 0.0555556 0.0555556 0.0555556 0.277778 0.0555556 0.0555556;
   (orien_12, dist_3, inclin_1, right) 0.111111 0.0555556 0.0555556 0.0555556 0.111111 0.0555556 0.166667 0.0555556 0.0555556 0.0555556 0.0555556 0.0555556 0.0555556 0.0555556;
   (orien_11, dist_3, inclin_1, right) 0.176471 0.0588235 0.0588235 0.117647 0.0588235 0.0588235 0.0588235 0.0588235 0.0588235 0.0588235 0.0588235 0.0588235 0.0588235 0.0588235;
   (orien_10, dist_3, inclin_1, right) 0.1875 0.0625 0.0625 0.0625 0.0625 0.0625 0.0625 0.0625 0.0625 0.0625 0.0625 0.0625 0.0625 0.0625;
   (orien_8, dist_3, inclin_1, right) 0.0714286 0.0714286 0.0714286 0.0714286 0.0714286 0.0714286 0.0714286 0.0714286 0.0714286 0.0714286 0.0714286 0.0714286 0.0714286 0.0714286;
   (orien_9, dist_3, inclin_1, right) 0.0625 0.0625 0.0625 0.0625 0.0625 0.1875 0.0625 0.0625 0.0625 0.0625 0.0625 0.0625 0.0625 0.0625;
   (orien_13, dist_3, inclin_1, right) 0.111111 0.0555556 0.0555556 0.0555556 0.0555556 0.0555556 0.0555556 0.0555556 0.0555556 0.0555556 0.0555556 0.222222 0.0555556 0.0555556;
   (orien_14, dist_3, inclin_1, right) 0.0666667 0.0666667 0.0666667 0.0666667 0.0666667 0.0666667 0.133333 0.0666667 0.0666667 0.0666667 0.0666667 0.0666667 0.0666667 0.0666667;
   (orien_6, dist_3, inclin_1, right) 0.0714286 0.0714286 0.0714286 0.0714286 0.0714286 0.0714286 0.0714286 0.0714286 0.0714286 0.0714286 0.0714286 0.0714286 0.0714286 0.0714286;
   (orien_7, dist_3, inclin_1, right) 0.0714286 0.0714286 0.0714286 0.0714286 0.0714286 0.0714286 0.0714286 0.0714286 0.0714286 0.0714286 0.0714286 0.0714286 0.0714286 0.0714286;
   (orien_15, dist_3, inclin_1, right) 0.0714286 0.0714286 0.0714286 0.0714286 0.0714286 0.0714286 0.0714286 0.0714286 0.0714286 0.0714286 0.0714286 0.0714286 0.0714286 0.0714286;
   (orien_12, dist_1, inclin_1, right) 0.133333 0.0666667 0.0666667 0.0666667 0.0666667 0.0666667 0.0666667 0.0666667 0.0666667 0.0666667 0.0666667 0.0666667 0.0666667 0.0666667;
   (orien_11, dist_1, inclin_1, right) 0.0714286 0.0714286 0.0714286 0.0714286 0.0714286 0.0714286 0.0714286 0.0714286 0.0714286 0.0714286 0.0714286 0.0714286 0.0714286 0.0714286;
   (orien_10, dist_1, inclin_1, right) 0.0666667 0.0666667 0.0666667 0.0666667 0.0666667 0.0666667 0.133333 0.0666667 0.0666667 0.0666667 0.0666667 0.0666667 0.0666667 0.0666667;
   (orien_8, dist_1, inclin_1, right) 0.0714286 0.0714286 0.0714286 0.0714286 0.0714286 0.0714286 0.0714286 0.0714286 0.0714286 0.0714286 0.0714286 0.0714286 0.0714286 0.0714286;
   (orien_9, dist_1, inclin_1, right) 0.0714286 0.0714286 0.0714286 0.0714286 0.0714286 0.0714286 0.0714286 0.0714286 0.0714286 0.0714286 0.0714286 0.0714286 0.0714286 0.0714286;
   (orien_13, dist_1, inclin_1, right) 0.0714286 0.0714286 0.0714286 0.0714286 0.0714286 0.0714286 0.0714286 0.0714286 0.0714286 0.0714286 0.0714286 0.0714286 0.0714286 0.0714286;
   (orien_14, dist_1, inclin_1, right) 0.0714286 0.0714286 0.0714286 0.0714286 0.0714286 0.0714286 0.0714286 0.0714286 0.0714286 0.0714286 0.0714286 0.0714286 0.0714286 0.0714286;
   (orien_6, dist_1, inclin_1, right) 0.0714286 0.0714286 0.0714286 0.0714286 0.0714286 0.0714286 0.0714286 0.0714286 0.0714286 0.0714286 0.0714286 0.0714286 0.0714286 0.0714286;
   (orien_7, dist_1, inclin_1, right) 0.0714286 0.0714286 0.0714286 0.0714286 0.0714286 0.0714286 0.0714286 0.0714286 0.0714286 0.0714286 0.0714286 0.0714286 0.0714286 0.0714286;
   (orien_15, dist_1, inclin_1, right) 0.0714286 0.0714286 0.0714286 0.0714286 0.0714286 0.0714286 0.0714286 0.0714286 0.0714286 0.0714286 0.0714286 0.0714286 0.0714286 0.0714286;
   (orien_12, dist_0, inclin_1, right) 0.0714286 0.0714286 0.0714286 0.0714286 0.0714286 0.0714286 0.0714286 0.0714286 0.0714286 0.0714286 0.0714286 0.0714286 0.0714286 0.0714286;
   (orien_11, dist_0, inclin_1, right) 0.0714286 0.0714286 0.0714286 0.0714286 0.0714286 0.0714286 0.0714286 0.0714286 0.0714286 0.0714286 0.0714286 0.0714286 0.0714286 0.0714286;
   (orien_10, dist_0, inclin_1, right) 0.0714286 0.0714286 0.0714286 0.0714286 0.0714286 0.0714286 0.0714286 0.0714286 0.0714286 0.0714286 0.0714286 0.0714286 0.0714286 0.0714286;
   (orien_8, dist_0, inclin_1, right) 0.0714286 0.0714286 0.0714286 0.0714286 0.0714286 0.0714286 0.0714286 0.0714286 0.0714286 0.0714286 0.0714286 0.0714286 0.0714286 0.0714286;
   (orien_9, dist_0, inclin_1, right) 0.0714286 0.0714286 0.0714286 0.0714286 0.0714286 0.0714286 0.0714286 0.0714286 0.0714286 0.0714286 0.0714286 0.0714286 0.0714286 0.0714286;
   (orien_13, dist_0, inclin_1, right) 0.0714286 0.0714286 0.0714286 0.0714286 0.0714286 0.0714286 0.0714286 0.0714286 0.0714286 0.0714286 0.0714286 0.0714286 0.0714286 0.0714286;
   (orien_14, dist_0, inclin_1, right) 0.0714286 0.0714286 0.0714286 0.0714286 0.0714286 0.0714286 0.0714286 0.0714286 0.0714286 0.0714286 0.0714286 0.0714286 0.0714286 0.0714286;
   (orien_6, dist_0, inclin_1, right) 0.0714286 0.0714286 0.0714286 0.0714286 0.0714286 0.0714286 0.0714286 0.0714286 0.0714286 0.0714286 0.0714286 0.0714286 0.0714286 0.0714286;
   (orien_7, dist_0, inclin_1, right) 0.0714286 0.0714286 0.0714286 0.0714286 0.0714286 0.0714286 0.0714286 0.0714286 0.0714286 0.0714286 0.0714286 0.0714286 0.0714286 0.0714286;
   (orien_15, dist_0, inclin_1, right) 0.0714286 0.0714286 0.0714286 0.0714286 0.0714286 0.0714286 0.0714286 0.0714286 0.0714286 0.0714286 0.0714286 0.0714286 0.0714286 0.0714286;
   (orien_12, dist_2, inclin_1, right) 0.0714286 0.0714286 0.0714286 0.0714286 0.0714286 0.0714286 0.0714286 0.0714286 0.0714286 0.0714286 0.0714286 0.0714286 0.0714286 0.0714286;
   (orien_11, dist_2, inclin_1, right) 0.176471 0.0588235 0.0588235 0.0588235 0.0588235 0.0588235 0.117647 0.0588235 0.0588235 0.0588235 0.0588235 0.0588235 0.0588235 0.0588235;
   (orien_10, dist_2, inclin_1, right) 0.333333 0.047619 0.047619 0.047619 0.047619 0.0952381 0.047619 0.047619 0.047619 0.047619 0.047619 0.047619 0.047619 0.047619;
   (orien_8, dist_2, inclin_1, right) 0.0714286 0.0714286 0.0714286 0.0714286 0.0714286 0.0714286 0.0714286 0.0714286 0.0714286 0.0714286 0.0714286 0.0714286 0.0714286 0.0714286;
   (orien_9, dist_2, inclin_1, right) 0.0714286 0.0714286 0.0714286 0.0714286 0.0714286 0.0714286 0.0714286 0.0714286 0.0714286 0.0714286 0.0714286 0.0714286 0.0714286 0.0714286;
   (orien_13, dist_2, inclin_1, right) 0.125 0.0625 0.0625 0.0625 0.0625 0.0625 0.125 0.0625 0.0625 0.0625 0.0625 0.0625 0.0625 0.0625;
   (orien_14, dist_2, inclin_1, right) 0.0714286 0.0714286 0.0714286 0.0714286 0.0714286 0.0714286 0.0714286 0.0714286 0.0714286 0.0714286 0.0714286 0.0714286 0.0714286 0.0714286;
   (orien_6, dist_2, inclin_1, right) 0.0714286 0.0714286 0.0714286 0.0714286 0.0714286 0.0714286 0.0714286 0.0714286 0.0714286 0.0714286 0.0714286 0.0714286 0.0714286 0.0714286;
   (orien_7, dist_2, inclin_1, right) 0.0714286 0.0714286 0.0714286 0.0714286 0.0714286 0.0714286 0.0714286 0.0714286 0.0714286 0.0714286 0.0714286 0.0714286 0.0714286 0.0714286;
   (orien_15, dist_2, inclin_1, right) 0.0714286 0.0714286 0.0714286 0.0714286 0.0714286 0.0714286 0.0714286 0.0714286 0.0714286 0.0714286 0.0714286 0.0714286 0.0714286 0.0714286;
   (orien_12, dist_4, inclin_2, right) 0.156863 0.0196078 0.0196078 0.0784314 0.470588 0.0196078 0.0196078 0.0196078 0.0980392 0.0196078 0.0196078 0.0196078 0.0196078 0.0196078;
   (orien_11, dist_4, inclin_2, right) 0.0666667 0.0166667 0.0666667 0.683333 0.0166667 0.0166667 0.0166667 0.0166667 0.0166667 0.0166667 0.0166667 0.0166667 0.0166667 0.0166667;
   (orien_10, dist_4, inclin_2, right) 0.117647 0.0196078 0.45098 0.215686 0.0196078 0.0196078 0.0196078 0.0196078 0.0196078 0.0196078 0.0196078 0.0196078 0.0196078 0.0196078;
   (orien_8, dist_4, inclin_2, right) 0.0714286 0.0714286 0.0714286 0.0714286 0.0714286 0.0714286 0.0714286 0.0714286 0.0714286 0.0714286 0.0714286 0.0714286 0.0714286 0.0714286;
   (orien_9, dist_4, inclin_2, right) 0.0714286 0.0714286 0.0714286 0.0714286 0.0714286 0.0714286 0.0714286 0.0714286 0.0714286 0.0714286 0.0714286 0.0714286 0.0714286 0.0714286;
   (orien_13, dist_4, inclin_2, right) 0.0526316 0.0526316 0.0526316 0.0526316 0.0526316 0.0526316 0.0526316 0.0526316 0.315789 0.0526316 0.0526316 0.0526316 0.0526316 0.0526316;
   (orien_14, dist_4, inclin_2, right) 0.0666667 0.0666667 0.0666667 0.0666667 0.0666667 0.0666667 0.0666667 0.0666667 0.133333 0.0666667 0.0666667 0.0666667 0.0666667 0.0666667;
   (orien_6, dist_4, inclin_2, right) 0.0714286 0.0714286 0.0714286 0.0714286 0.0714286 0.0714286 0.0714286 0.0714286 0.0714286 0.0714286 0.0714286 0.0714286 0.0714286 0.0714286;
   (orien_7, dist_4, inclin_2, right) 0.0714286 0.0714286 0.0714286 0.0714286 0.0714286 0.0714286 0.0714286 0.0714286 0.0714286 0.0714286 0.0714286 0.0714286 0.0714286 0.0714286;
   (orien_15, dist_4, inclin_2, right) 0.0714286 0.0714286 0.0714286 0.0714286 0.0714286 0.0714286 0.0714286 0.0714286 0.0714286 0.0714286 0.0714286 0.0714286 0.0714286 0.0714286;
   (orien_12, dist_3, inclin_2, right) 0.2 0.04 0.04 0.04 0.12 0.04 0.04 0.04 0.24 0.04 0.04 0.04 0.04 0.04;
   (orien_11, dist_3, inclin_2, right) 0.375 0.0416667 0.0416667 0.0833333 0.0416667 0.0416667 0.0833333 0.0416667 0.0416667 0.0416667 0.0416667 0.0416667 0.0416667 0.0416667;
   (orien_10, dist_3, inclin_2, right) 0.2 0.04 0.08 0.2 0.04 0.12 0.04 0.04 0.04 0.04 0.04 0.04 0.04 0.04;
   (orien_8, dist_3, inclin_2, right) 0.0714286 0.0714286 0.0714286 0.0714286 0.0714286 0.0714286 0.0714286 0.0714286 0.0714286 0.0714286 0.0714286 0.0714286 0.0714286 0.0714286;
   (orien_9, dist_3, inclin_2, right) 0.0714286 0.0714286 0.0714286 0.0714286 0.0714286 0.0714286 0.0714286 0.0714286 0.0714286 0.0714286 0.0714286 0.0714286 0.0714286 0.0714286;
   (orien_13, dist_3, inclin_2, right) 0.0666667 0.0666667 0.0666667 0.0666667 0.0666667 0.0666667 0.0666667 0.0666667 0.133333 0.0666667 0.0666667 0.0666667 0.0666667 0.0666667;
   (orien_14, dist_3, inclin_2, right) 0.0714286 0.0714286 0.0714286 0.0714286 0.0714286 0.0714286 0.0714286 0.0714286 0.0714286 0.0714286 0.0714286 0.0714286 0.0714286 0.0714286;
   (orien_6, dist_3, inclin_2, right) 0.0714286 0.0714286 0.0714286 0.0714286 0.0714286 0.0714286 0.0714286 0.0714286 0.0714286 0.0714286 0.0714286 0.0714286 0.0714286 0.0714286;
   (orien_7, dist_3, inclin_2, right) 0.0714286 0.0714286 0.0714286 0.0714286 0.0714286 0.0714286 0.0714286 0.0714286 0.0714286 0.0714286 0.0714286 0.0714286 0.0714286 0.0714286;
   (orien_15, dist_3, inclin_2, right) 0.0714286 0.0714286 0.0714286 0.0714286 0.0714286 0.0714286 0.0714286 0.0714286 0.0714286 0.0714286 0.0714286 0.0714286 0.0714286 0.0714286;
   (orien_12, dist_1, inclin_2, right) 0.125 0.0625 0.0625 0.0625 0.0625 0.0625 0.0625 0.0625 0.125 0.0625 0.0625 0.0625 0.0625 0.0625;
   (orien_11, dist_1, inclin_2, right) 0.434783 0.0434783 0.0434783 0.0434783 0.0434783 0.0434783 0.0434783 0.0434783 0.0434783 0.0434783 0.0434783 0.0434783 0.0434783 0.0434783;
   (orien_10, dist_1, inclin_2, right) 0.25 0.05 0.05 0.05 0.05 0.15 0.05 0.05 0.05 0.05 0.05 0.05 0.05 0.05;
   (orien_8, dist_1, inclin_2, right) 0.0714286 0.0714286 0.0714286 0.0714286 0.0714286 0.0714286 0.0714286 0.0714286 0.0714286 0.0714286 0.0714286 0.0714286 0.0714286 0.0714286;
   (orien_9, dist_1, inclin_2, right) 0.0714286 0.0714286 0.0714286 0.0714286 0.0714286 0.0714286 0.0714286 0.0714286 0.0714286 0.0714286 0.0714286 0.0714286 0.0714286 0.0714286;
   (orien_13, dist_1, inclin_2, right) 0.0714286 0.0714286 0.0714286 0.0714286 0.0714286 0.0714286 0.0714286 0.0714286 0.0714286 0.0714286 0.0714286 0.0714286 0.0714286 0.0714286;
   (orien_14, dist_1, inclin_2, right) 0.0714286 0.0714286 0.0714286 0.0714286 0.0714286 0.0714286 0.0714286 0.0714286 0.0714286 0.0714286 0.0714286 0.0714286 0.0714286 0.0714286;
   (orien_6, dist_1, inclin_2, right) 0.0714286 0.0714286 0.0714286 0.0714286 0.0714286 0.0714286 0.0714286 0.0714286 0.0714286 0.0714286 0.0714286 0.0714286 0.0714286 0.0714286;
   (orien_7, dist_1, inclin_2, right) 0.0714286 0.0714286 0.0714286 0.0714286 0.0714286 0.0714286 0.0714286 0.0714286 0.0714286 0.0714286 0.0714286 0.0714286 0.0714286 0.0714286;
   (orien_15, dist_1, inclin_2, right) 0.0714286 0.0714286 0.0714286 0.0714286 0.0714286 0.0714286 0.0714286 0.0714286 0.0714286 0.0714286 0.0714286 0.0714286 0.0714286 0.0714286;
   (orien_12, dist_0, inclin_2, right) 0.0714286 0.0714286 0.0714286 0.0714286 0.0714286 0.0714286 0.0714286 0.0714286 0.0714286 0.0714286 0.0714286 0.0714286 0.0714286 0.0714286;
   (orien_11, dist_0, inclin_2, right) 0.0714286 0.0714286 0.0714286 0.0714286 0.0714286 0.0714286 0.0714286 0.0714286 0.0714286 0.0714286 0.0714286 0.0714286 0.0714286 0.0714286;
   (orien_10, dist_0, inclin_2, right) 0.0714286 0.0714286 0.0714286 0.0714286 0.0714286 0.0714286 0.0714286 0.0714286 0.0714286 0.0714286 0.0714286 0.0714286 0.0714286 0.0714286;
   (orien_8, dist_0, inclin_2, right) 0.0714286 0.0714286 0.0714286 0.0714286 0.0714286 0.0714286 0.0714286 0.0714286 0.0714286 0.0714286 0.0714286 0.0714286 0.0714286 0.0714286;
   (orien_9, dist_0, inclin_2, right) 0.0714286 0.0714286 0.0714286 0.0714286 0.0714286 0.0714286 0.0714286 0.0714286 0.0714286 0.0714286 0.0714286 0.0714286 0.0714286 0.0714286;
   (orien_13, dist_0, inclin_2, right) 0.0714286 0.0714286 0.0714286 0.0714286 0.0714286 0.0714286 0.0714286 0.0714286 0.0714286 0.0714286 0.0714286 0.0714286 0.0714286 0.0714286;
   (orien_14, dist_0, inclin_2, right) 0.0714286 0.0714286 0.0714286 0.0714286 0.0714286 0.0714286 0.0714286 0.0714286 0.0714286 0.0714286 0.0714286 0.0714286 0.0714286 0.0714286;
   (orien_6, dist_0, inclin_2, right) 0.0714286 0.0714286 0.0714286 0.0714286 0.0714286 0.0714286 0.0714286 0.0714286 0.0714286 0.0714286 0.0714286 0.0714286 0.0714286 0.0714286;
   (orien_7, dist_0, inclin_2, right) 0.0714286 0.0714286 0.0714286 0.0714286 0.0714286 0.0714286 0.0714286 0.0714286 0.0714286 0.0714286 0.0714286 0.0714286 0.0714286 0.0714286;
   (orien_15, dist_0, inclin_2, right) 0.0714286 0.0714286 0.0714286 0.0714286 0.0714286 0.0714286 0.0714286 0.0714286 0.0714286 0.0714286 0.0714286 0.0714286 0.0714286 0.0714286;
   (orien_12, dist_2, inclin_2, right) 0.190476 0.047619 0.047619 0.047619 0.047619 0.047619 0.142857 0.047619 0.047619 0.047619 0.047619 0.142857 0.047619 0.047619;
   (orien_11, dist_2, inclin_2, right) 0.272727 0.0454545 0.0454545 0.181818 0.0454545 0.0454545 0.0454545 0.0454545 0.0454545 0.0454545 0.0454545 0.0454545 0.0454545 0.0454545;
   (orien_10, dist_2, inclin_2, right) 0.15 0.05 0.05 0.05 0.05 0.2 0.05 0.05 0.05 0.05 0.05 0.05 0.05 0.1;
   (orien_8, dist_2, inclin_2, right) 0.0714286 0.0714286 0.0714286 0.0714286 0.0714286 0.0714286 0.0714286 0.0714286 0.0714286 0.0714286 0.0714286 0.0714286 0.0714286 0.0714286;
   (orien_9, dist_2, inclin_2, right) 0.0714286 0.0714286 0.0714286 0.0714286 0.0714286 0.0714286 0.0714286 0.0714286 0.0714286 0.0714286 0.0714286 0.0714286 0.0714286 0.0714286;
   (orien_13, dist_2, inclin_2, right) 0.0666667 0.0666667 0.0666667 0.0666667 0.0666667 0.0666667 0.0666667 0.0666667 0.133333 0.0666667 0.0666667 0.0666667 0.0666667 0.0666667;
   (orien_14, dist_2, inclin_2, right) 0.0714286 0.0714286 0.0714286 0.0714286 0.0714286 0.0714286 0.0714286 0.0714286 0.0714286 0.0714286 0.0714286 0.0714286 0.0714286 0.0714286;
   (orien_6, dist_2, inclin_2, right) 0.0714286 0.0714286 0.0714286 0.0714286 0.0714286 0.0714286 0.0714286 0.0714286 0.0714286 0.0714286 0.0714286 0.0714286 0.0714286 0.0714286;
   (orien_7, dist_2, inclin_2, right) 0.0714286 0.0714286 0.0714286 0.0714286 0.0714286 0.0714286 0.0714286 0.0714286 0.0714286 0.0714286 0.0714286 0.0714286 0.0714286 0.0714286;
   (orien_15, dist_2, inclin_2, right) 0.0714286 0.0714286 0.0714286 0.0714286 0.0714286 0.0714286 0.0714286 0.0714286 0.0714286 0.0714286 0.0714286 0.0714286 0.0714286 0.0714286;
   (orien_12, dist_4, inclin_4, right) 0.0714286 0.0714286 0.0714286 0.0714286 0.0714286 0.0714286 0.0714286 0.0714286 0.0714286 0.0714286 0.0714286 0.0714286 0.0714286 0.0714286;
   (orien_11, dist_4, inclin_4, right) 0.0714286 0.0714286 0.0714286 0.0714286 0.0714286 0.0714286 0.0714286 0.0714286 0.0714286 0.0714286 0.0714286 0.0714286 0.0714286 0.0714286;
   (orien_10, dist_4, inclin_4, right) 0.0714286 0.0714286 0.0714286 0.0714286 0.0714286 0.0714286 0.0714286 0.0714286 0.0714286 0.0714286 0.0714286 0.0714286 0.0714286 0.0714286;
   (orien_8, dist_4, inclin_4, right) 0.0714286 0.0714286 0.0714286 0.0714286 0.0714286 0.0714286 0.0714286 0.0714286 0.0714286 0.0714286 0.0714286 0.0714286 0.0714286 0.0714286;
   (orien_9, dist_4, inclin_4, right) 0.0714286 0.0714286 0.0714286 0.0714286 0.0714286 0.0714286 0.0714286 0.0714286 0.0714286 0.0714286 0.0714286 0.0714286 0.0714286 0.0714286;
   (orien_13, dist_4, inclin_4, right) 0.0714286 0.0714286 0.0714286 0.0714286 0.0714286 0.0714286 0.0714286 0.0714286 0.0714286 0.0714286 0.0714286 0.0714286 0.0714286 0.0714286;
   (orien_14, dist_4, inclin_4, right) 0.0714286 0.0714286 0.0714286 0.0714286 0.0714286 0.0714286 0.0714286 0.0714286 0.0714286 0.0714286 0.0714286 0.0714286 0.0714286 0.0714286;
   (orien_6, dist_4, inclin_4, right) 0.0714286 0.0714286 0.0714286 0.0714286 0.0714286 0.0714286 0.0714286 0.0714286 0.0714286 0.0714286 0.0714286 0.0714286 0.0714286 0.0714286;
   (orien_7, dist_4, inclin_4, right) 0.0714286 0.0714286 0.0714286 0.0714286 0.0714286 0.0714286 0.0714286 0.0714286 0.0714286 0.0714286 0.0714286 0.0714286 0.0714286 0.0714286;
   (orien_15, dist_4, inclin_4, right) 0.0714286 0.0714286 0.0714286 0.0714286 0.0714286 0.0714286 0.0714286 0.0714286 0.0714286 0.0714286 0.0714286 0.0714286 0.0714286 0.0714286;
   (orien_12, dist_3, inclin_4, right) 0.0714286 0.0714286 0.0714286 0.0714286 0.0714286 0.0714286 0.0714286 0.0714286 0.0714286 0.0714286 0.0714286 0.0714286 0.0714286 0.0714286;
   (orien_11, dist_3, inclin_4, right) 0.0714286 0.0714286 0.0714286 0.0714286 0.0714286 0.0714286 0.0714286 0.0714286 0.0714286 0.0714286 0.0714286 0.0714286 0.0714286 0.0714286;
   (orien_10, dist_3, inclin_4, right) 0.0714286 0.0714286 0.0714286 0.0714286 0.0714286 0.0714286 0.0714286 0.0714286 0.0714286 0.0714286 0.0714286 0.0714286 0.0714286 0.0714286;
   (orien_8, dist_3, inclin_4, right) 0.0714286 0.0714286 0.0714286 0.0714286 0.0714286 0.0714286 0.0714286 0.0714286 0.0714286 0.0714286 0.0714286 0.0714286 0.0714286 0.0714286;
   (orien_9, dist_3, inclin_4, right) 0.0714286 0.0714286 0.0714286 0.0714286 0.0714286 0.0714286 0.0714286 0.0714286 0.0714286 0.0714286 0.0714286 0.0714286 0.0714286 0.0714286;
   (orien_13, dist_3, inclin_4, right) 0.0714286 0.0714286 0.0714286 0.0714286 0.0714286 0.0714286 0.0714286 0.0714286 0.0714286 0.0714286 0.0714286 0.0714286 0.0714286 0.0714286;
   (orien_14, dist_3, inclin_4, right) 0.0714286 0.0714286 0.0714286 0.0714286 0.0714286 0.0714286 0.0714286 0.0714286 0.0714286 0.0714286 0.0714286 0.0714286 0.0714286 0.0714286;
   (orien_6, dist_3, inclin_4, right) 0.0714286 0.0714286 0.0714286 0.0714286 0.0714286 0.0714286 0.0714286 0.0714286 0.0714286 0.0714286 0.0714286 0.0714286 0.0714286 0.0714286;
   (orien_7, dist_3, inclin_4, right) 0.0714286 0.0714286 0.0714286 0.0714286 0.0714286 0.0714286 0.0714286 0.0714286 0.0714286 0.0714286 0.0714286 0.0714286 0.0714286 0.0714286;
   (orien_15, dist_3, inclin_4, right) 0.0714286 0.0714286 0.0714286 0.0714286 0.0714286 0.0714286 0.0714286 0.0714286 0.0714286 0.0714286 0.0714286 0.0714286 0.0714286 0.0714286;
   (orien_12, dist_1, inclin_4, right) 0.0666667 0.0666667 0.0666667 0.0666667 0.0666667 0.0666667 0.0666667 0.0666667 0.0666667 0.0666667 0.0666667 0.0666667 0.133333 0.0666667;
   (orien_11, dist_1, inclin_4, right) 0.0588235 0.235294 0.0588235 0.0588235 0.0588235 0.0588235 0.0588235 0.0588235 0.0588235 0.0588235 0.0588235 0.0588235 0.0588235 0.0588235;
   (orien_10, dist_1, inclin_4, right) 0.0714286 0.0714286 0.0714286 0.0714286 0.0714286 0.0714286 0.0714286 0.0714286 0.0714286 0.0714286 0.0714286 0.0714286 0.0714286 0.0714286;
   (orien_8, dist_1, inclin_4, right) 0.0714286 0.0714286 0.0714286 0.0714286 0.0714286 0.0714286 0.0714286 0.0714286 0.0714286 0.0714286 0.0714286 0.0714286 0.0714286 0.0714286;
   (orien_9, dist_1, inclin_4, right) 0.0714286 0.0714286 0.0714286 0.0714286 0.0714286 0.0714286 0.0714286 0.0714286 0.0714286 0.0714286 0.0714286 0.0714286 0.0714286 0.0714286;
   (orien_13, dist_1, inclin_4, right) 0.0714286 0.0714286 0.0714286 0.0714286 0.0714286 0.0714286 0.0714286 0.0714286 0.0714286 0.0714286 0.0714286 0.0714286 0.0714286 0.0714286;
   (orien_14, dist_1, inclin_4, right) 0.0714286 0.0714286 0.0714286 0.0714286 0.0714286 0.0714286 0.0714286 0.0714286 0.0714286 0.0714286 0.0714286 0.0714286 0.0714286 0.0714286;
   (orien_6, dist_1, inclin_4, right) 0.0714286 0.0714286 0.0714286 0.0714286 0.0714286 0.0714286 0.0714286 0.0714286 0.0714286 0.0714286 0.0714286 0.0714286 0.0714286 0.0714286;
   (orien_7, dist_1, inclin_4, right) 0.0714286 0.0714286 0.0714286 0.0714286 0.0714286 0.0714286 0.0714286 0.0714286 0.0714286 0.0714286 0.0714286 0.0714286 0.0714286 0.0714286;
   (orien_15, dist_1, inclin_4, right) 0.0714286 0.0714286 0.0714286 0.0714286 0.0714286 0.0714286 0.0714286 0.0714286 0.0714286 0.0714286 0.0714286 0.0714286 0.0714286 0.0714286;
   (orien_12, dist_0, inclin_4, right) 0.0714286 0.0714286 0.0714286 0.0714286 0.0714286 0.0714286 0.0714286 0.0714286 0.0714286 0.0714286 0.0714286 0.0714286 0.0714286 0.0714286;
   (orien_11, dist_0, inclin_4, right) 0.00318471 0.958599 0.00318471 0.00318471 0.00318471 0.00318471 0.00318471 0.00318471 0.00318471 0.00318471 0.00318471 0.00318471 0.00318471 0.00318471;
   (orien_10, dist_0, inclin_4, right) 0.0714286 0.0714286 0.0714286 0.0714286 0.0714286 0.0714286 0.0714286 0.0714286 0.0714286 0.0714286 0.0714286 0.0714286 0.0714286 0.0714286;
   (orien_8, dist_0, inclin_4, right) 0.0714286 0.0714286 0.0714286 0.0714286 0.0714286 0.0714286 0.0714286 0.0714286 0.0714286 0.0714286 0.0714286 0.0714286 0.0714286 0.0714286;
   (orien_9, dist_0, inclin_4, right) 0.0714286 0.0714286 0.0714286 0.0714286 0.0714286 0.0714286 0.0714286 0.0714286 0.0714286 0.0714286 0.0714286 0.0714286 0.0714286 0.0714286;
   (orien_13, dist_0, inclin_4, right) 0.0714286 0.0714286 0.0714286 0.0714286 0.0714286 0.0714286 0.0714286 0.0714286 0.0714286 0.0714286 0.0714286 0.0714286 0.0714286 0.0714286;
   (orien_14, dist_0, inclin_4, right) 0.0714286 0.0714286 0.0714286 0.0714286 0.0714286 0.0714286 0.0714286 0.0714286 0.0714286 0.0714286 0.0714286 0.0714286 0.0714286 0.0714286;
   (orien_6, dist_0, inclin_4, right) 0.0714286 0.0714286 0.0714286 0.0714286 0.0714286 0.0714286 0.0714286 0.0714286 0.0714286 0.0714286 0.0714286 0.0714286 0.0714286 0.0714286;
   (orien_7, dist_0, inclin_4, right) 0.0714286 0.0714286 0.0714286 0.0714286 0.0714286 0.0714286 0.0714286 0.0714286 0.0714286 0.0714286 0.0714286 0.0714286 0.0714286 0.0714286;
   (orien_15, dist_0, inclin_4, right) 0.0714286 0.0714286 0.0714286 0.0714286 0.0714286 0.0714286 0.0714286 0.0714286 0.0714286 0.0714286 0.0714286 0.0714286 0.0714286 0.0714286;
   (orien_12, dist_2, inclin_4, right) 0.0714286 0.0714286 0.0714286 0.0714286 0.0714286 0.0714286 0.0714286 0.0714286 0.0714286 0.0714286 0.0714286 0.0714286 0.0714286 0.0714286;
   (orien_11, dist_2, inclin_4, right) 0.0588235 0.235294 0.0588235 0.0588235 0.0588235 0.0588235 0.0588235 0.0588235 0.0588235 0.0588235 0.0588235 0.0588235 0.0588235 0.0588235;
   (orien_10, dist_2, inclin_4, right) 0.0714286 0.0714286 0.0714286 0.0714286 0.0714286 0.0714286 0.0714286 0.0714286 0.0714286 0.0714286 0.0714286 0.0714286 0.0714286 0.0714286;
   (orien_8, dist_2, inclin_4, right) 0.0714286 0.0714286 0.0714286 0.0714286 0.0714286 0.0714286 0.0714286 0.0714286 0.0714286 0.0714286 0.0714286 0.0714286 0.0714286 0.0714286;
   (orien_9, dist_2, inclin_4, right) 0.0714286 0.0714286 0.0714286 0.0714286 0.0714286 0.0714286 0.0714286 0.0714286 0.0714286 0.0714286 0.0714286 0.0714286 0.0714286 0.0714286;
   (orien_13, dist_2, inclin_4, right) 0.0714286 0.0714286 0.0714286 0.0714286 0.0714286 0.0714286 0.0714286 0.0714286 0.0714286 0.0714286 0.0714286 0.0714286 0.0714286 0.0714286;
   (orien_14, dist_2, inclin_4, right) 0.0714286 0.0714286 0.0714286 0.0714286 0.0714286 0.0714286 0.0714286 0.0714286 0.0714286 0.0714286 0.0714286 0.0714286 0.0714286 0.0714286;
   (orien_6, dist_2, inclin_4, right) 0.0714286 0.0714286 0.0714286 0.0714286 0.0714286 0.0714286 0.0714286 0.0714286 0.0714286 0.0714286 0.0714286 0.0714286 0.0714286 0.0714286;
   (orien_7, dist_2, inclin_4, right) 0.0714286 0.0714286 0.0714286 0.0714286 0.0714286 0.0714286 0.0714286 0.0714286 0.0714286 0.0714286 0.0714286 0.0714286 0.0714286 0.0714286;
   (orien_15, dist_2, inclin_4, right) 0.0714286 0.0714286 0.0714286 0.0714286 0.0714286 0.0714286 0.0714286 0.0714286 0.0714286 0.0714286 0.0714286 0.0714286 0.0714286 0.0714286;
   (orien_12, dist_4, inclin_3, right) 0.0555556 0.0555556 0.0555556 0.0555556 0.277778 0.0555556 0.0555556 0.0555556 0.0555556 0.0555556 0.0555556 0.0555556 0.0555556 0.0555556;
   (orien_11, dist_4, inclin_3, right) 0.0666667 0.0666667 0.0666667 0.133333 0.0666667 0.0666667 0.0666667 0.0666667 0.0666667 0.0666667 0.0666667 0.0666667 0.0666667 0.0666667;
   (orien_10, dist_4, inclin_3, right) 0.0625 0.0625 0.1875 0.0625 0.0625 0.0625 0.0625 0.0625 0.0625 0.0625 0.0625 0.0625 0.0625 0.0625;
   (orien_8, dist_4, inclin_3, right) 0.0714286 0.0714286 0.0714286 0.0714286 0.0714286 0.0714286 0.0714286 0.0714286 0.0714286 0.0714286 0.0714286 0.0714286 0.0714286 0.0714286;
   (orien_9, dist_4, inclin_3, right) 0.0714286 0.0714286 0.0714286 0.0714286 0.0714286 0.0714286 0.0714286 0.0714286 0.0714286 0.0714286 0.0714286 0.0714286 0.0714286 0.0714286;
   (orien_13, dist_4, inclin_3, right) 0.0714286 0.0714286 0.0714286 0.0714286 0.0714286 0.0714286 0.0714286 0.0714286 0.0714286 0.0714286 0.0714286 0.0714286 0.0714286 0.0714286;
   (orien_14, dist_4, inclin_3, right) 0.0714286 0.0714286 0.0714286 0.0714286 0.0714286 0.0714286 0.0714286 0.0714286 0.0714286 0.0714286 0.0714286 0.0714286 0.0714286 0.0714286;
   (orien_6, dist_4, inclin_3, right) 0.0714286 0.0714286 0.0714286 0.0714286 0.0714286 0.0714286 0.0714286 0.0714286 0.0714286 0.0714286 0.0714286 0.0714286 0.0714286 0.0714286;
   (orien_7, dist_4, inclin_3, right) 0.0714286 0.0714286 0.0714286 0.0714286 0.0714286 0.0714286 0.0714286 0.0714286 0.0714286 0.0714286 0.0714286 0.0714286 0.0714286 0.0714286;
   (orien_15, dist_4, inclin_3, right) 0.0714286 0.0714286 0.0714286 0.0714286 0.0714286 0.0714286 0.0714286 0.0714286 0.0714286 0.0714286 0.0714286 0.0714286 0.0714286 0.0714286;
   (orien_12, dist_3, inclin_3, right) 0.125 0.0625 0.0625 0.0625 0.0625 0.0625 0.0625 0.0625 0.125 0.0625 0.0625 0.0625 0.0625 0.0625;
   (orien_11, dist_3, inclin_3, right) 0.0714286 0.0714286 0.0714286 0.0714286 0.0714286 0.0714286 0.0714286 0.0714286 0.0714286 0.0714286 0.0714286 0.0714286 0.0714286 0.0714286;
   (orien_10, dist_3, inclin_3, right) 0.117647 0.0588235 0.117647 0.117647 0.0588235 0.0588235 0.0588235 0.0588235 0.0588235 0.0588235 0.0588235 0.0588235 0.0588235 0.0588235;
   (orien_8, dist_3, inclin_3, right) 0.0714286 0.0714286 0.0714286 0.0714286 0.0714286 0.0714286 0.0714286 0.0714286 0.0714286 0.0714286 0.0714286 0.0714286 0.0714286 0.0714286;
   (orien_9, dist_3, inclin_3, right) 0.0714286 0.0714286 0.0714286 0.0714286 0.0714286 0.0714286 0.0714286 0.0714286 0.0714286 0.0714286 0.0714286 0.0714286 0.0714286 0.0714286;
   (orien_13, dist_3, inclin_3, right) 0.0714286 0.0714286 0.0714286 0.0714286 0.0714286 0.0714286 0.0714286 0.0714286 0.0714286 0.0714286 0.0714286 0.0714286 0.0714286 0.0714286;
   (orien_14, dist_3, inclin_3, right) 0.0714286 0.0714286 0.0714286 0.0714286 0.0714286 0.0714286 0.0714286 0.0714286 0.0714286 0.0714286 0.0714286 0.0714286 0.0714286 0.0714286;
   (orien_6, dist_3, inclin_3, right) 0.0714286 0.0714286 0.0714286 0.0714286 0.0714286 0.0714286 0.0714286 0.0714286 0.0714286 0.0714286 0.0714286 0.0714286 0.0714286 0.0714286;
   (orien_7, dist_3, inclin_3, right) 0.0714286 0.0714286 0.0714286 0.0714286 0.0714286 0.0714286 0.0714286 0.0714286 0.0714286 0.0714286 0.0714286 0.0714286 0.0714286 0.0714286;
   (orien_15, dist_3, inclin_3, right) 0.0714286 0.0714286 0.0714286 0.0714286 0.0714286 0.0714286 0.0714286 0.0714286 0.0714286 0.0714286 0.0714286 0.0714286 0.0714286 0.0714286;
   (orien_12, dist_1, inclin_3, right) 0.117647 0.0588235 0.0588235 0.0588235 0.0588235 0.0588235 0.0588235 0.117647 0.0588235 0.0588235 0.0588235 0.0588235 0.117647 0.0588235;
   (orien_11, dist_1, inclin_3, right) 0.366667 0.0666667 0.0333333 0.166667 0.0333333 0.0333333 0.0333333 0.0333333 0.0333333 0.0666667 0.0333333 0.0333333 0.0333333 0.0333333;
   (orien_10, dist_1, inclin_3, right) 0.125 0.0625 0.0625 0.0625 0.0625 0.0625 0.0625 0.0625 0.0625 0.0625 0.125 0.0625 0.0625 0.0625;
   (orien_8, dist_1, inclin_3, right) 0.0714286 0.0714286 0.0714286 0.0714286 0.0714286 0.0714286 0.0714286 0.0714286 0.0714286 0.0714286 0.0714286 0.0714286 0.0714286 0.0714286;
   (orien_9, dist_1, inclin_3, right) 0.0714286 0.0714286 0.0714286 0.0714286 0.0714286 0.0714286 0.0714286 0.0714286 0.0714286 0.0714286 0.0714286 0.0714286 0.0714286 0.0714286;
   (orien_13, dist_1, inclin_3, right) 0.0714286 0.0714286 0.0714286 0.0714286 0.0714286 0.0714286 0.0714286 0.0714286 0.0714286 0.0714286 0.0714286 0.0714286 0.0714286 0.0714286;
   (orien_14, dist_1, inclin_3, right) 0.0714286 0.0714286 0.0714286 0.0714286 0.0714286 0.0714286 0.0714286 0.0714286 0.0714286 0.0714286 0.0714286 0.0714286 0.0714286 0.0714286;
   (orien_6, dist_1, inclin_3, right) 0.0714286 0.0714286 0.0714286 0.0714286 0.0714286 0.0714286 0.0714286 0.0714286 0.0714286 0.0714286 0.0714286 0.0714286 0.0714286 0.0714286;
   (orien_7, dist_1, inclin_3, right) 0.0714286 0.0714286 0.0714286 0.0714286 0.0714286 0.0714286 0.0714286 0.0714286 0.0714286 0.0714286 0.0714286 0.0714286 0.0714286 0.0714286;
   (orien_15, dist_1, inclin_3, right) 0.0714286 0.0714286 0.0714286 0.0714286 0.0714286 0.0714286 0.0714286 0.0714286 0.0714286 0.0714286 0.0714286 0.0714286 0.0714286 0.0714286;
   (orien_12, dist_0, inclin_3, right) 0.0714286 0.0714286 0.0714286 0.0714286 0.0714286 0.0714286 0.0714286 0.0714286 0.0714286 0.0714286 0.0714286 0.0714286 0.0714286 0.0714286;
   (orien_11, dist_0, inclin_3, right) 0.0714286 0.0714286 0.0714286 0.0714286 0.0714286 0.0714286 0.0714286 0.0714286 0.0714286 0.0714286 0.0714286 0.0714286 0.0714286 0.0714286;
   (orien_10, dist_0, inclin_3, right) 0.0714286 0.0714286 0.0714286 0.0714286 0.0714286 0.0714286 0.0714286 0.0714286 0.0714286 0.0714286 0.0714286 0.0714286 0.0714286 0.0714286;
   (orien_8, dist_0, inclin_3, right) 0.0714286 0.0714286 0.0714286 0.0714286 0.0714286 0.0714286 0.0714286 0.0714286 0.0714286 0.0714286 0.0714286 0.0714286 0.0714286 0.0714286;
   (orien_9, dist_0, inclin_3, right) 0.0714286 0.0714286 0.0714286 0.0714286 0.0714286 0.0714286 0.0714286 0.0714286 0.0714286 0.0714286 0.0714286 0.0714286 0.0714286 0.0714286;
   (orien_13, dist_0, inclin_3, right) 0.0714286 0.0714286 0.0714286 0.0714286 0.0714286 0.0714286 0.0714286 0.0714286 0.0714286 0.0714286 0.0714286 0.0714286 0.0714286 0.0714286;
   (orien_14, dist_0, inclin_3, right) 0.0714286 0.0714286 0.0714286 0.0714286 0.0714286 0.0714286 0.0714286 0.0714286 0.0714286 0.0714286 0.0714286 0.0714286 0.0714286 0.0714286;
   (orien_6, dist_0, inclin_3, right) 0.0714286 0.0714286 0.0714286 0.0714286 0.0714286 0.0714286 0.0714286 0.0714286 0.0714286 0.0714286 0.0714286 0.0714286 0.0714286 0.0714286;
   (orien_7, dist_0, inclin_3, right) 0.0714286 0.0714286 0.0714286 0.0714286 0.0714286 0.0714286 0.0714286 0.0714286 0.0714286 0.0714286 0.0714286 0.0714286 0.0714286 0.0714286;
   (orien_15, dist_0, inclin_3, right) 0.0714286 0.0714286 0.0714286 0.0714286 0.0714286 0.0714286 0.0714286 0.0714286 0.0714286 0.0714286 0.0714286 0.0714286 0.0714286 0.0714286;
   (orien_12, dist_2, inclin_3, right) 0.0555556 0.0555556 0.0555556 0.0555556 0.277778 0.0555556 0.0555556 0.0555556 0.0555556 0.0555556 0.0555556 0.0555556 0.0555556 0.0555556;
   (orien_11, dist_2, inclin_3, right) 0.0188679 0.264151 0.0566038 0.396226 0.0377358 0.0188679 0.0188679 0.0188679 0.0188679 0.0754717 0.0188679 0.0188679 0.0188679 0.0188679;
   (orien_10, dist_2, inclin_3, right) 0.133333 0.0666667 0.0666667 0.0666667 0.0666667 0.0666667 0.0666667 0.0666667 0.0666667 0.0666667 0.0666667 0.0666667 0.0666667 0.0666667;
   (orien_8, dist_2, inclin_3, right) 0.0714286 0.0714286 0.0714286 0.0714286 0.0714286 0.0714286 0.0714286 0.0714286 0.0714286 0.0714286 0.0714286 0.0714286 0.0714286 0.0714286;
   (orien_9, dist_2, inclin_3, right) 0.0714286 0.0714286 0.0714286 0.0714286 0.0714286 0.0714286 0.0714286 0.0714286 0.0714286 0.0714286 0.0714286 0.0714286 0.0714286 0.0714286;
   (orien_13, dist_2, inclin_3, right) 0.0714286 0.0714286 0.0714286 0.0714286 0.0714286 0.0714286 0.0714286 0.0714286 0.0714286 0.0714286 0.0714286 0.0714286 0.0714286 0.0714286;
   (orien_14, dist_2, inclin_3, right) 0.0714286 0.0714286 0.0714286 0.0714286 0.0714286 0.0714286 0.0714286 0.0714286 0.0714286 0.0714286 0.0714286 0.0714286 0.0714286 0.0714286;
   (orien_6, dist_2, inclin_3, right) 0.0714286 0.0714286 0.0714286 0.0714286 0.0714286 0.0714286 0.0714286 0.0714286 0.0714286 0.0714286 0.0714286 0.0714286 0.0714286 0.0714286;
   (orien_7, dist_2, inclin_3, right) 0.0714286 0.0714286 0.0714286 0.0714286 0.0714286 0.0714286 0.0714286 0.0714286 0.0714286 0.0714286 0.0714286 0.0714286 0.0714286 0.0714286;
   (orien_15, dist_2, inclin_3, right) 0.0714286 0.0714286 0.0714286 0.0714286 0.0714286 0.0714286 0.0714286 0.0714286 0.0714286 0.0714286 0.0714286 0.0714286 0.0714286 0.0714286;
   (orien_12, dist_4, inclin_0, right) 0.157895 0.0526316 0.0526316 0.0526316 0.0526316 0.0526316 0.210526 0.0526316 0.0526316 0.0526316 0.0526316 0.0526316 0.0526316 0.0526316;
   (orien_11, dist_4, inclin_0, right) 0.125 0.0625 0.0625 0.0625 0.0625 0.0625 0.125 0.0625 0.0625 0.0625 0.0625 0.0625 0.0625 0.0625;
   (orien_10, dist_4, inclin_0, right) 0.380952 0.047619 0.047619 0.047619 0.047619 0.047619 0.047619 0.047619 0.047619 0.047619 0.047619 0.047619 0.047619 0.047619;
   (orien_8, dist_4, inclin_0, right) 0.277778 0.0555556 0.0555556 0.0555556 0.0555556 0.0555556 0.0555556 0.0555556 0.0555556 0.0555556 0.0555556 0.0555556 0.0555556 0.0555556;
   (orien_9, dist_4, inclin_0, right) 0.277778 0.0555556 0.0555556 0.0555556 0.0555556 0.0555556 0.0555556 0.0555556 0.0555556 0.0555556 0.0555556 0.0555556 0.0555556 0.0555556;
   (orien_13, dist_4, inclin_0, right) 0.227273 0.0454545 0.0454545 0.0454545 0.0454545 0.0454545 0.227273 0.0454545 0.0454545 0.0454545 0.0454545 0.0454545 0.0454545 0.0454545;
   (orien_14, dist_4, inclin_0, right) 0.117647 0.0588235 0.0588235 0.0588235 0.0588235 0.0588235 0.176471 0.0588235 0.0588235 0.0588235 0.0588235 0.0588235 0.0588235 0.0588235;
   (orien_6, dist_4, inclin_0, right) 0.0666667 0.0666667 0.0666667 0.0666667 0.0666667 0.0666667 0.133333 0.0666667 0.0666667 0.0666667 0.0666667 0.0666667 0.0666667 0.0666667;
   (orien_7, dist_4, inclin_0, right) 0.0666667 0.0666667 0.0666667 0.0666667 0.0666667 0.0666667 0.133333 0.0666667 0.0666667 0.0666667 0.0666667 0.0666667 0.0666667 0.0666667;
   (orien_15, dist_4, inclin_0, right) 0.0666667 0.0666667 0.0666667 0.0666667 0.0666667 0.0666667 0.133333 0.0666667 0.0666667 0.0666667 0.0666667 0.0666667 0.0666667 0.0666667;
   (orien_12, dist_3, inclin_0, right) 0.133333 0.0666667 0.0666667 0.0666667 0.0666667 0.0666667 0.0666667 0.0666667 0.0666667 0.0666667 0.0666667 0.0666667 0.0666667 0.0666667;
   (orien_11, dist_3, inclin_0, right) 0.0714286 0.0714286 0.0714286 0.0714286 0.0714286 0.0714286 0.0714286 0.0714286 0.0714286 0.0714286 0.0714286 0.0714286 0.0714286 0.0714286;
   (orien_10, dist_3, inclin_0, right) 0.133333 0.0666667 0.0666667 0.0666667 0.0666667 0.0666667 0.0666667 0.0666667 0.0666667 0.0666667 0.0666667 0.0666667 0.0666667 0.0666667;
   (orien_8, dist_3, inclin_0, right) 0.0714286 0.0714286 0.0714286 0.0714286 0.0714286 0.0714286 0.0714286 0.0714286 0.0714286 0.0714286 0.0714286 0.0714286 0.0714286 0.0714286;
   (orien_9, dist_3, inclin_0, right) 0.133333 0.0666667 0.0666667 0.0666667 0.0666667 0.0666667 0.0666667 0.0666667 0.0666667 0.0666667 0.0666667 0.0666667 0.0666667 0.0666667;
   (orien_13, dist_3, inclin_0, right) 0.0714286 0.0714286 0.0714286 0.0714286 0.0714286 0.0714286 0.0714286 0.0714286 0.0714286 0.0714286 0.0714286 0.0714286 0.0714286 0.0714286;
   (orien_14, dist_3, inclin_0, right) 0.0714286 0.0714286 0.0714286 0.0714286 0.0714286 0.0714286 0.0714286 0.0714286 0.0714286 0.0714286 0.0714286 0.0714286 0.0714286 0.0714286;
   (orien_6, dist_3, inclin_0, right) 0.0714286 0.0714286 0.0714286 0.0714286 0.0714286 0.0714286 0.0714286 0.0714286 0.0714286 0.0714286 0.0714286 0.0714286 0.0714286 0.0714286;
   (orien_7, dist_3, inclin_0, right) 0.0714286 0.0714286 0.0714286 0.0714286 0.0714286 0.0714286 0.0714286 0.0714286 0.0714286 0.0714286 0.0714286 0.0714286 0.0714286 0.0714286;
   (orien_15, dist_3, inclin_0, right) 0.0714286 0.0714286 0.0714286 0.0714286 0.0714286 0.0714286 0.0714286 0.0714286 0.0714286 0.0714286 0.0714286 0.0714286 0.0714286 0.0714286;
   (orien_12, dist_1, inclin_0, right) 0.0714286 0.0714286 0.0714286 0.0714286 0.0714286 0.0714286 0.0714286 0.0714286 0.0714286 0.0714286 0.0714286 0.0714286 0.0714286 0.0714286;
   (orien_11, dist_1, inclin_0, right) 0.0714286 0.0714286 0.0714286 0.0714286 0.0714286 0.0714286 0.0714286 0.0714286 0.0714286 0.0714286 0.0714286 0.0714286 0.0714286 0.0714286;
   (orien_10, dist_1, inclin_0, right) 0.0714286 0.0714286 0.0714286 0.0714286 0.0714286 0.0714286 0.0714286 0.0714286 0.0714286 0.0714286 0.0714286 0.0714286 0.0714286 0.0714286;
   (orien_8, dist_1, inclin_0, right) 0.0714286 0.0714286 0.0714286 0.0714286 0.0714286 0.0714286 0.0714286 0.0714286 0.0714286 0.0714286 0.0714286 0.0714286 0.0714286 0.0714286;
   (orien_9, dist_1, inclin_0, right) 0.0714286 0.0714286 0.0714286 0.0714286 0.0714286 0.0714286 0.0714286 0.0714286 0.0714286 0.0714286 0.0714286 0.0714286 0.0714286 0.0714286;
   (orien_13, dist_1, inclin_0, right) 0.0714286 0.0714286 0.0714286 0.0714286 0.0714286 0.0714286 0.0714286 0.0714286 0.0714286 0.0714286 0.0714286 0.0714286 0.0714286 0.0714286;
   (orien_14, dist_1, inclin_0, right) 0.0714286 0.0714286 0.0714286 0.0714286 0.0714286 0.0714286 0.0714286 0.0714286 0.0714286 0.0714286 0.0714286 0.0714286 0.0714286 0.0714286;
   (orien_6, dist_1, inclin_0, right) 0.0714286 0.0714286 0.0714286 0.0714286 0.0714286 0.0714286 0.0714286 0.0714286 0.0714286 0.0714286 0.0714286 0.0714286 0.0714286 0.0714286;
   (orien_7, dist_1, inclin_0, right) 0.0714286 0.0714286 0.0714286 0.0714286 0.0714286 0.0714286 0.0714286 0.0714286 0.0714286 0.0714286 0.0714286 0.0714286 0.0714286 0.0714286;
   (orien_15, dist_1, inclin_0, right) 0.0714286 0.0714286 0.0714286 0.0714286 0.0714286 0.0714286 0.0714286 0.0714286 0.0714286 0.0714286 0.0714286 0.0714286 0.0714286 0.0714286;
   (orien_12, dist_0, inclin_0, right) 0.0714286 0.0714286 0.0714286 0.0714286 0.0714286 0.0714286 0.0714286 0.0714286 0.0714286 0.0714286 0.0714286 0.0714286 0.0714286 0.0714286;
   (orien_11, dist_0, inclin_0, right) 0.0714286 0.0714286 0.0714286 0.0714286 0.0714286 0.0714286 0.0714286 0.0714286 0.0714286 0.0714286 0.0714286 0.0714286 0.0714286 0.0714286;
   (orien_10, dist_0, inclin_0, right) 0.0714286 0.0714286 0.0714286 0.0714286 0.0714286 0.0714286 0.0714286 0.0714286 0.0714286 0.0714286 0.0714286 0.0714286 0.0714286 0.0714286;
   (orien_8, dist_0, inclin_0, right) 0.0714286 0.0714286 0.0714286 0.0714286 0.0714286 0.0714286 0.0714286 0.0714286 0.0714286 0.0714286 0.0714286 0.0714286 0.0714286 0.0714286;
   (orien_9, dist_0, inclin_0, right) 0.0714286 0.0714286 0.0714286 0.0714286 0.0714286 0.0714286 0.0714286 0.0714286 0.0714286 0.0714286 0.0714286 0.0714286 0.0714286 0.0714286;
   (orien_13, dist_0, inclin_0, right) 0.0714286 0.0714286 0.0714286 0.0714286 0.0714286 0.0714286 0.0714286 0.0714286 0.0714286 0.0714286 0.0714286 0.0714286 0.0714286 0.0714286;
   (orien_14, dist_0, inclin_0, right) 0.0714286 0.0714286 0.0714286 0.0714286 0.0714286 0.0714286 0.0714286 0.0714286 0.0714286 0.0714286 0.0714286 0.0714286 0.0714286 0.0714286;
   (orien_6, dist_0, inclin_0, right) 0.0714286 0.0714286 0.0714286 0.0714286 0.0714286 0.0714286 0.0714286 0.0714286 0.0714286 0.0714286 0.0714286 0.0714286 0.0714286 0.0714286;
   (orien_7, dist_0, inclin_0, right) 0.0714286 0.0714286 0.0714286 0.0714286 0.0714286 0.0714286 0.0714286 0.0714286 0.0714286 0.0714286 0.0714286 0.0714286 0.0714286 0.0714286;
   (orien_15, dist_0, inclin_0, right) 0.0714286 0.0714286 0.0714286 0.0714286 0.0714286 0.0714286 0.0714286 0.0714286 0.0714286 0.0714286 0.0714286 0.0714286 0.0714286 0.0714286;
   (orien_12, dist_2, inclin_0, right) 0.0714286 0.0714286 0.0714286 0.0714286 0.0714286 0.0714286 0.0714286 0.0714286 0.0714286 0.0714286 0.0714286 0.0714286 0.0714286 0.0714286;
   (orien_11, dist_2, inclin_0, right) 0.0714286 0.0714286 0.0714286 0.0714286 0.0714286 0.0714286 0.0714286 0.0714286 0.0714286 0.0714286 0.0714286 0.0714286 0.0714286 0.0714286;
   (orien_10, dist_2, inclin_0, right) 0.0714286 0.0714286 0.0714286 0.0714286 0.0714286 0.0714286 0.0714286 0.0714286 0.0714286 0.0714286 0.0714286 0.0714286 0.0714286 0.0714286;
   (orien_8, dist_2, inclin_0, right) 0.0714286 0.0714286 0.0714286 0.0714286 0.0714286 0.0714286 0.0714286 0.0714286 0.0714286 0.0714286 0.0714286 0.0714286 0.0714286 0.0714286;
   (orien_9, dist_2, inclin_0, right) 0.0666667 0.0666667 0.0666667 0.0666667 0.0666667 0.0666667 0.133333 0.0666667 0.0666667 0.0666667 0.0666667 0.0666667 0.0666667 0.0666667;
   (orien_13, dist_2, inclin_0, right) 0.0714286 0.0714286 0.0714286 0.0714286 0.0714286 0.0714286 0.0714286 0.0714286 0.0714286 0.0714286 0.0714286 0.0714286 0.0714286 0.0714286;
   (orien_14, dist_2, inclin_0, right) 0.0714286 0.0714286 0.0714286 0.0714286 0.0714286 0.0714286 0.0714286 0.0714286 0.0714286 0.0714286 0.0714286 0.0714286 0.0714286 0.0714286;
   (orien_6, dist_2, inclin_0, right) 0.0714286 0.0714286 0.0714286 0.0714286 0.0714286 0.0714286 0.0714286 0.0714286 0.0714286 0.0714286 0.0714286 0.0714286 0.0714286 0.0714286;
   (orien_7, dist_2, inclin_0, right) 0.0714286 0.0714286 0.0714286 0.0714286 0.0714286 0.0714286 0.0714286 0.0714286 0.0714286 0.0714286 0.0714286 0.0714286 0.0714286 0.0714286;
   (orien_15, dist_2, inclin_0, right) 0.0714286 0.0714286 0.0714286 0.0714286 0.0714286 0.0714286 0.0714286 0.0714286 0.0714286 0.0714286 0.0714286 0.0714286 0.0714286 0.0714286;
}
probability (distance) {
   default 0.384324 0.0733249 0.05689 0.380531 0.10493;
}

